-0.0592302 -0.347989 0.00557416 0.0206585 -0.127497 0.0953551 0.0872786 0.00667254 
0.00580936 0.0764075 0.00939713 -0.00608454 0.013693 -0.00422529 -0.0334028 -0.0174896 
-0.00337901 0.179669 -0.0134847 0.0192021 0.0421415 -0.00488537 0.0364243 -0.0225464 
-0.141514 -0.206114 0.000940601 0.00742992 0.1127 -0.020951 0.0920784 -0.0177744 
-0.0206037 0.23546 0.0186832 0.0255346 0.0811202 0.017106 0.091817 0.0123853 
-0.0149507 0.00751435 -0.00299942 0.0036284 0.140885 0.042321 0.134846 0.0185191 
0.0384407 0.110797 -0.000463071 -0.0181038 0.00107894 -0.00916114 -0.00767708 -0.00707606 
-0.00107878 0.155398 0.0177918 0.00159739 0.0205258 -0.0108346 0.0179052 -0.00113612 
-0.0376789 -0.105594 -0.0217944 0.0104055 0.0111766 0.00576287 0.0401142 -0.00274847 
-0.0470554 -0.272524 -0.017574 -0.040093 0.122008 0.138688 0.104567 -0.00121601 
0.0148912 0.0179403 0.0123304 -0.0167107 0.0424611 -0.0136196 0.0184369 -0.00303218 
-0.0797231 -0.17406 0.0195362 -0.0491822 0.0993119 0.0236541 -0.00909837 0.0091927 
-0.0410089 -0.207867 0.00114979 -0.0290417 0.114095 0.0397836 0.147236 0.0124789 
-0.021607 -0.00679479 -0.0140901 0.0161954 0.0538677 0.0143657 -0.0311817 0.00132249 
-0.0485819 -0.369716 0.00754129 0.00132652 -0.156062 0.081435 0.11399 -0.0164519 
-0.0123744 0.192768 -0.0144446 0.00985838 0.0765737 0.0162935 0.133688 -0.00888469 
-0.0301061 -0.164234 0.00294478 -0.0233866 -0.0365211 0.0314755 0.0367201 0.00641248 
-0.0387459 -0.177927 0.00295287 0.0235397 -0.0646821 0.064316 0.0577079 0.0128324 
-0.0231451 0.0632106 0.0213997 -0.00675449 0.0359608 0.0241264 0.0439817 0.00892293 
-0.0160996 0.0700593 0.0160363 0.00153505 0.0141559 0.0142486 0.0338545 0.0102762 
-0.0524483 -0.24069 0.0102684 0.00253135 0.117115 0.056962 0.110844 0.00440732 
-0.000227723 0.023416 -0.00493533 -0.023839 0.189774 0.047009 0.158429 -0.0206537 
0.00270114 0.0111861 -0.00262861 0.0101025 0.197992 0.020926 0.169719 0.00843651 
-0.0222733 -0.333567 -0.0193195 -0.0153025 -0.0999164 0.097704 0.0716956 -0.00899594 
0.0858968 0.243205 0.0212903 -0.043998 0.0624097 -0.0140319 -0.0956464 0.0132247 
-0.0406224 -0.256714 0.0174924 -0.0510978 0.110723 0.10837 0.108527 0.0175143 
-0.00723116 -0.0335323 0.0118299 -0.0231248 0.180397 0.0351842 0.170376 -0.00681333 
0.00502192 0.010688 0.00211371 0.0151373 0.204937 0.0418353 0.152311 0.00195977 
-0.051372 -0.416764 -0.0206873 0.00694861 -0.146408 0.0988853 0.0931887 0.0113006 
-0.0265037 -0.159818 0.0156425 0.0123781 0.0447041 0.0448056 0.0557871 0.00248134 
-0.00955381 -0.166778 0.00675213 -0.036366 0.103611 0.0725755 0.103408 0.00748667 
-0.0457888 -0.311375 0.00566655 0.0238177 -0.102735 0.0952724 0.0760342 0.0113637 
-0.0855008 -0.118463 -0.0111766 -0.00431055 0.0695258 0.00950877 0.005507 -0.0138009 
-0.00416021 -0.11768 -0.019851 0.00768316 0.0358537 0.0390704 0.0411314 0.0157484 
0.00348575 0.0308081 0.0216577 -0.0274335 0.00319923 -0.00267061 -0.109895 0.00505947 
0.00178125 0.00778422 9.52584e-05 -0.0184364 0.000549995 0.0186912 0.00955875 0.0079081 
-0.0154012 -0.0798663 -0.00467414 0.00699419 0.0411792 0.043464 0.00581346 -0.00364058 
-0.0236062 0.166457 -0.0155068 0.0269085 0.0127512 0.00998431 0.0911796 -0.00404546 
-0.0151172 -0.0426577 0.0109873 0.00928726 0.0843515 0.0307157 0.058624 -0.0037073 
-0.00974392 0.106095 -7.28235e-06 0.0302964 0.0842794 -0.00166245 0.049395 -0.0159653 
-0.0085292 -0.0326396 -0.0207025 -0.0156327 0.0440028 -0.0128079 -0.013099 -0.0143576 
-0.0176343 -0.194642 0.0103756 -0.00856512 -0.0914574 0.0467499 0.0502327 -0.0005389 
-0.0221112 -0.0425324 -0.0110622 -0.0195504 -0.0335434 0.0358069 0.00532003 0.00724266 
-0.121888 -0.206434 0.00644021 0.0117816 0.0969371 -0.0177186 0.0374886 -0.0140704 
-0.0353917 -0.21266 -0.00825825 -0.025528 0.123408 0.0724016 0.189485 0.0194859 
-0.0535654 -0.0775278 -0.0122687 -0.0235537 -0.0327555 0.0634168 -0.0385982 0.0192878 
-0.0126197 0.186785 -0.00344903 0.0235999 0.02648 -0.00269008 0.0469519 0.00650011 
-0.00187089 0.270743 -0.020489 0.0217998 0.0338942 0.00747223 0.0640967 0.00366585 
-0.0575535 -0.164654 0.017423 0.0075167 0.0550713 0.0293274 0.081085 -0.00631951 
-0.00986258 0.186459 -0.0205209 0.0459836 0.11848 -0.0133408 0.140347 -0.00893117 
-0.0807199 -0.138181 0.018485 -0.0239229 0.0641858 0.0123563 -0.0354507 -0.0070837 
-0.0805495 -0.27866 0.0137389 -0.0159192 0.113854 0.0294003 0.155082 -0.0194251 
-0.00714858 0.0168939 0.0148992 -0.014307 0.163044 0.0403257 0.15022 0.017288 
-0.00209132 0.0213566 0.0151697 0.000268876 0.0721134 0.023383 -0.0453665 0.00132804 
-0.0213911 0.240235 -0.0110329 0.0222361 0.0799021 0.00570226 0.00244055 -0.0207164 
-0.0235428 0.0149128 -0.000929288 -0.0247973 0.105575 0.0268436 0.0634642 0.0134592 
-0.0111027 0.0134691 -0.0189568 0.00614458 0.22098 0.0562637 0.185597 -0.0180631 
-0.071443 -0.277616 0.00207795 -0.0173615 0.0815768 0.023436 0.195775 -0.0100707 
-0.0313928 -0.0809492 0.0215412 -0.00872816 0.0146821 0.00544232 -0.00280543 0.0132074 
0.00821607 -0.0255342 0.0139856 -0.0153116 0.236582 0.067415 0.166501 -0.00369532 
-0.00633193 -0.136181 -0.0151805 -0.00563396 0.0564529 0.0385525 0.0464905 -0.00728271 
-0.0664603 -0.476861 0.00763766 0.00206165 -0.148707 0.12452 0.10425 -0.00647132 
0.00686004 0.25678 -0.0096574 0.00884676 0.0814473 -0.0114582 0.00372004 0.0100371 
-0.0116233 -0.249331 -0.0200927 0.0232652 -0.0821793 0.049321 0.0699004 0.0158923 
-0.00384612 0.0550218 -0.00954502 -0.0220584 -0.0415602 0.0383087 0.0312985 -0.00564219 
0.00113049 -0.162088 0.0170958 -0.029315 0.0739616 0.0802376 0.0756074 -0.005293 
-0.00217759 0.0255159 0.0125373 -0.0101675 0.0789237 0.0409499 0.0537859 0.0198119 
-0.0697721 -0.390212 0.00709588 -0.0404881 -0.0585022 0.105386 0.042429 0.00126662 
-0.0391663 -0.0771816 0.0113848 -0.0130332 0.061297 0.00146089 0.00831503 0.0169002 
-0.0147226 -0.146828 -0.0148346 -0.00684594 -0.0690355 0.0548889 0.0439403 0.00480506 
-0.0558916 -0.119481 0.0194845 -0.00637904 0.0458866 0.00191857 0.00143408 -0.00131724 
-0.0648355 -0.243216 -0.000909578 -0.00810983 0.044166 0.0319935 0.0594447 -0.00157034 
8.38974e-05 0.012047 0.00716499 0.000285446 0.0135728 -0.00594703 0.0188351 0.00548729 
-0.00801677 0.233236 0.017614 0.0398791 0.079307 0.0174045 0.103756 -0.0145084 
-0.189114 -0.283405 -0.0145696 0.0111584 0.124087 -0.0409348 0.161684 0.0036103 
-0.0625514 -0.120656 -0.0186481 -0.00674225 0.0589327 -0.0226791 0.0340555 -0.00748623 
0.0194393 0.0440263 0.0156242 0.0139898 -0.0217093 0.0115774 0.0363853 -0.0154337 
0.00840067 0.140447 0.0203722 0.000160869 0.0102162 -0.00251021 0.0301642 -0.017591 
-0.0141641 -0.296888 0.00420191 -0.0615579 0.0468022 0.105857 0.0228085 -0.00527637 
-0.0253589 0.0171956 0.000521167 0.00908658 0.150163 0.0124957 0.065094 0.0158803 
-0.0256639 -0.175551 0.0157879 0.0220476 -0.0676598 0.0411193 0.0307639 -0.0165528 
0.0174338 0.0261832 -0.00680134 -0.0231942 0.184609 0.0498315 0.139402 -0.0170889 
0.0217241 0.0978873 -0.0099959 -0.0563006 -0.0118173 -0.0236004 -0.144371 -0.00722973 
0.0118989 0.243886 -0.0139622 0.0319124 0.035197 -0.00514997 0.0345027 -0.00297612 
-0.0175816 0.132569 -0.00737249 0.0266969 0.0635906 -0.00549536 0.108485 -0.0193064 
-0.0364285 -0.14983 -0.0154612 0.00203516 0.0712779 0.0132379 0.108441 -0.00998169 
-0.0601264 -0.223054 -0.00820165 -0.00960364 0.0698791 0.0419114 0.16438 -0.0202698 
-0.126664 -0.218298 0.0187161 0.0303266 0.0975079 -0.00331303 0.0603441 0.0119781 
-0.0332925 -0.0853782 -0.00123256 -0.0118934 0.0414227 0.00043155 0.0377013 -0.00869396 
-0.036051 -0.336826 -0.0216327 -0.0351387 -0.00189568 0.104945 0.0197056 -0.0226453 
0.00390536 0.264178 0.00124119 0.00958093 0.0876068 0.0101247 0.101634 -0.00115086 
-0.0979082 -0.151071 -0.00949305 -0.0120664 0.0993975 0.0225451 -0.00946192 0.0185529 
-0.0610886 -0.373313 -0.0118046 -0.0590022 0.0226796 0.107969 0.016264 0.015391 
-0.154184 -0.2346 -0.00990928 0.0310942 0.0924821 0.000121729 0.138487 -0.0134157 
0.0109325 -0.145006 -0.00927969 -0.011074 0.098804 0.0603342 0.084721 -0.00598724 
-0.125708 -0.208396 -0.0106791 0.00297773 0.075985 0.00958529 0.0151176 -0.0134221 
-0.0482033 -0.225615 -0.00550057 -0.0283856 0.12093 0.0923667 0.0912315 -0.0216769 
-0.0186419 0.0834401 -0.021719 0.0101582 0.100937 -0.00984321 0.0270605 0.0021765 
-0.0757734 -0.122198 -0.0113207 0.00376824 0.0615303 -0.0148396 0.0762213 -0.0224549 
-0.142567 -0.256136 -0.0146147 0.0308406 0.111717 -0.0298501 0.114436 -0.0193539 
-0.00446497 -0.120483 0.00372594 -0.0141498 0.0505595 0.0733177 0.0642158 0.00645944 
-0.0175788 -0.121618 -0.0104985 -0.015177 0.0569709 0.00869018 0.0642072 -0.0180719 
-0.0585487 -0.399356 0.00228629 0.0269565 -0.147308 0.0940986 0.122164 -0.00896418 
-0.0133375 0.208425 -0.0118797 0.0253403 0.0734259 -0.0003966 0.123598 0.0136364 
-0.035683 -0.216407 -0.00744952 -0.0184696 0.0505479 0.0419984 0.141151 0.0106148 
-0.0388236 -0.357877 0.0209703 -0.0198179 -0.120319 0.108608 0.058605 -0.00117088 
0.00777629 0.0907837 -0.0105603 -0.0062611 -0.00237607 -0.0184449 0.0192602 0.00245286 
0.0172534 0.0020791 -0.019533 -0.0178238 0.0609423 0.0274779 0.0531351 0.0217215 
0.0110526 0.00384487 -0.0120736 0.0287354 0.00612364 -0.0140489 0.0506831 0.00833392 
-0.0293812 -0.0971077 0.010011 0.000385135 0.0268702 0.0376611 0.0207315 -0.0135326 
-0.11893 -0.203191 -0.00476304 0.00844378 0.0932579 0.00725039 0.0774905 -0.00881165 
-0.00275002 -0.0473233 -0.000538311 0.0066751 0.12712 0.0310475 0.12869 0.0120529 
0.0230173 0.0353338 0.0104808 -0.0339437 -0.0324409 -0.0060041 -0.0569255 -0.005923 
-0.0332419 -0.0193765 0.0188397 -0.024467 -0.0681609 0.0252321 0.0116414 0.0171607 
-0.0589279 -0.230181 0.00241274 -0.00202111 0.0658012 0.040631 0.170392 0.00943923 
-0.0582945 -0.192848 -0.00129764 -0.0335278 0.0966426 0.0174506 0.140163 0.0122746 
-0.029506 -0.150529 0.0141204 -0.0311828 0.0812252 0.0754776 0.0709073 -0.0165323 
0.0377136 0.0585756 0.0103725 -0.023709 0.0184419 -0.00121842 -0.0544172 0.0171605 
0.00405017 0.0089871 0.00250401 0.00894529 0.184477 0.0405018 0.154603 0.0050531 
-0.141327 -0.204378 0.00540499 -0.00287761 0.0891884 -0.0136333 0.0446136 -0.00566326 
0.0144769 0.076925 0.00606961 0.0139858 0.0469911 0.00989119 0.0311915 -0.0146752 
-0.0125082 -0.146285 -0.00107543 -0.00662862 0.080019 0.0461547 0.0730106 -0.0203437 
-0.00116733 0.0195784 0.0161469 -0.02125 0.00384024 -0.00296121 0.0101293 0.00168275 
-0.00967346 0.151021 0.00341101 0.0179818 0.0438411 -0.00230492 0.00831274 0.00306717 
-0.0399892 0.26561 -1.86693e-05 0.0165754 0.105159 0.0112122 0.0787351 0.0141123 
-0.0211911 0.252742 -0.00983036 0.0348199 0.0806555 0.0203275 0.121528 -0.0188014 
-0.0205479 -0.295895 -0.017607 -0.055583 0.0153267 0.106126 0.0101813 -0.00527565 
0.00554344 -0.00467382 -0.0200879 -0.00187471 -0.0192715 0.000572062 -0.00688137 0.00369831 
0.00486564 0.147803 0.0145954 0.0265259 0.035128 -0.00276658 0.0693356 0.00622024 
-0.0169881 0.0206683 -0.0088026 0.00893687 0.0806279 -0.00411839 0.0777982 -0.0215861 
-0.00471903 -0.00853583 -0.0212238 0.00250853 0.0639627 0.0171825 0.0304104 0.00748804 
-0.028064 -0.0123092 -0.00817871 -0.0350448 -0.0668581 0.0502822 0.0214582 0.0178574 
-0.00805093 0.0502463 0.00711634 -0.00320129 0.0188294 -0.0110474 -0.0511676 -0.0206155 
-0.0289629 -0.0327186 0.012934 0.000786497 0.103802 0.0300422 0.092998 -0.0127355 
-0.0237093 -0.17241 0.0128717 -0.0157961 0.071106 0.0549848 0.111426 0.0170841 
0.00768733 -0.089569 -0.0159479 -0.00607244 -0.0208262 0.0516056 0.088826 -0.0148881 
-0.00536863 -0.0161827 0.0128296 -0.00258449 0.173248 0.0153121 0.14342 0.0188875 
-0.0191925 -0.277901 0.000459799 -0.00850456 -0.1092 0.057622 0.0549134 0.00279895 
-0.0301782 -0.188781 0.0137266 0.0131907 0.0223207 0.0387943 0.0732697 0.0204536 
0.0204727 0.159661 0.0210205 0.0225521 0.0518287 0.0165311 0.0242396 0.00100199 
-0.0228887 -0.0722593 -0.0190654 -0.0118531 0.145385 0.043308 0.101659 0.00066568 
-0.030346 0.273066 0.013763 -0.00234858 0.0747118 -0.00817602 0.0383622 0.00152248 
-0.0437294 -0.223047 -0.000811124 0.00401284 0.0401043 0.0303602 0.0957183 -0.0161366 
-0.0252189 -0.234085 0.0194319 -0.0430237 0.127226 0.125169 0.171129 -0.019449 
0.0665109 0.225361 -0.00477025 -0.0274291 0.0397566 0.00206588 -0.0446548 -0.000126532 
-0.00630224 0.0550355 0.00371965 -0.0132054 0.01906 -3.86184e-05 0.0435145 0.0115759 
-0.00106974 -0.216085 0.000376347 0.0205621 -0.0764349 0.0528588 0.033378 0.016436 
0.0181299 0.143893 -0.0196346 0.0115684 0.0516608 0.0116582 0.0082413 0.000609612 
-0.0846412 -0.139043 -0.0210561 -0.0308739 0.0940055 -0.0165961 0.0252654 -0.0198281 
-0.0230216 -0.387492 -0.0076348 0.0370312 -0.150518 0.0865043 0.118094 -0.0170599 
-0.0417649 -0.35243 -0.0204121 -0.0563279 0.025434 0.0757808 0.00238701 -0.00478833 
-0.0575827 -0.322914 0.0198127 0.016551 -0.0493974 0.083774 0.047592 -0.00305874 
-0.0181641 -0.0938823 -0.000253011 -0.0164177 0.14499 0.0213466 0.116522 -0.00274455 
-0.0416132 -0.149643 -0.00288417 0.00413868 0.0802336 0.019784 0.0790127 -0.00986101 
-0.00118324 0.0175937 -0.00339449 0.0224966 0.0178596 -0.00215462 -0.00162682 -0.020355 
-0.0559613 -0.246622 -0.0211985 -0.0121474 0.0668457 0.0375312 0.0945558 -0.00126566 
-0.0752012 -0.257826 0.00907068 0.000860653 0.0587732 0.016356 0.0752641 0.00833551 
-0.0192158 -0.124042 -0.00565674 -0.00713273 0.0681244 0.0124554 0.062394 -0.0104974 
-0.0934463 -0.107388 -0.011169 -0.0142179 0.023865 0.0383734 -0.0568431 -0.0184339 
-0.158001 -0.21826 -0.000432802 0.0255594 0.117696 -0.0227798 0.106857 0.00739883 
-0.0182856 -0.211539 -0.0055076 -0.0400736 0.00198596 0.0544707 0.0261638 0.0109062 
-0.026725 -0.121135 -0.0147332 0.0305241 -0.0593672 0.0555053 0.0588455 -0.00208836 
-0.0133969 -0.236038 -0.00390337 -0.00367 0.0832366 0.0485102 0.115034 -0.0185631 
-0.032493 -0.183658 -0.0205585 -0.0224828 0.0443315 0.0322396 0.0696084 -0.0152408 
-0.0348129 -0.40927 -0.00808021 0.0241536 -0.146634 0.0948242 0.111886 0.00917986 
-0.031033 -0.130836 0.00393141 0.0116194 0.0412035 0.0377875 0.0426712 0.000533999 
-0.0310523 0.121412 -0.0195203 -0.00112625 0.100902 0.0172115 0.0519356 0.00633582 
0.000519135 -0.0539162 0.00887066 -0.0144345 0.184072 0.0408081 0.152089 -0.00285895 
-0.0107364 0.295366 -0.0134062 0.0218061 0.100254 0.0238121 0.135485 -0.00733519 
-0.0528234 -0.226172 -0.0147275 0.0130042 0.0408028 0.0351024 0.0761295 -0.00231604 
-0.0402586 -0.276549 0.00752139 0.00438874 -0.12927 0.0985834 0.104096 -0.0212776 
-0.0456766 -0.161479 -0.00896489 -0.0216699 0.032672 0.0448751 0.0777158 0.0127472 
-0.0419029 -0.211772 -0.019653 -0.0074811 0.064657 0.0253958 0.095239 0.0169265 
-0.00543454 0.272405 0.015516 0.0469438 0.0486884 -0.00103664 0.0724463 0.00408178 
-0.00447892 -0.17158 0.0199938 -0.0303717 -0.0325656 0.0633226 0.00141127 -0.00456051 
-0.0179897 -0.158515 0.00187768 0.0105951 0.0454401 0.017783 0.0671394 0.00720559 
0.0126544 0.00105655 -0.0174014 -0.00801515 0.187117 0.0545448 0.137165 -0.00399625 
0.0245923 0.0447069 -0.00509859 -0.0115343 -0.00769592 0.0245426 0.0257289 -0.00727333 
0.00756796 0.155034 -0.00383396 -0.00433106 0.119647 0.00676455 0.0758941 -0.00263198 
0.0103 0.196874 -0.01041 0.00279407 0.0377414 0.0285718 0.0976418 -0.0200944 
0.00299201 0.0280322 -0.00206492 -0.00810421 0.0865047 0.0256775 0.0730292 0.00780365 
-0.0807806 -0.158998 0.0207022 -0.0394199 0.0835279 0.046169 -0.029011 0.0188348 
-0.0624773 -0.119002 0.0202669 -0.0178943 0.0770534 0.00910169 0.0150227 0.0049761 
-0.0123821 -0.0688976 0.00988043 -0.00315581 0.0184039 0.019615 0.0702112 0.0101945 
-0.014984 -0.0371546 -0.018487 0.00191952 0.0760953 0.0188181 0.0926197 0.0107858 
0.0173772 0.0876328 -0.0155157 0.0167594 0.0694132 0.0313455 0.0702792 -0.000696755 
-0.0192283 0.0165923 -0.0205062 0.0128744 0.0109947 -0.0164579 -0.0255223 0.00750837 
-0.11381 -0.164716 -0.0130027 0.00378473 0.0890436 -0.00049403 0.0704086 -0.0220593 
-0.0194431 -0.0255866 -0.0129763 -0.01474 -0.0497835 0.0227454 -0.00479513 -0.0195416 
0.00459421 0.296841 -0.020345 0.0380656 0.076515 0.0291657 0.0841757 0.00181082 
-0.0222188 -0.0549888 -0.00753478 -0.0179326 0.0206476 0.00642926 0.0360185 0.000929801 
0.0171487 0.235633 0.0196471 0.00688707 0.0694267 -0.018698 0.00961859 0.000755505 
-0.0157426 0.0305402 -0.0127051 -0.00131243 0.0824604 0.0206344 -0.0744023 0.0117551 
-0.0186719 -0.107757 -0.00170728 0.00346458 -0.0303546 0.0435571 0.00577635 -0.010378 
-0.020009 -0.216755 -0.00767788 -0.0217796 0.0700161 0.0276261 0.0901183 -0.0188912 
-0.0437699 -0.305141 0.00283785 -0.00818164 -0.0386091 0.0646123 0.0127762 -0.021135 
-0.000269391 0.130817 -0.000867671 0.0220564 0.0658233 0.0234603 0.0886284 -0.00891826 
-0.0128469 0.263437 0.0188096 0.0474154 0.0597084 -0.0089906 0.0739968 -0.00846397 
-0.00859191 0.128415 -0.00274501 0.0329901 0.106648 -0.0152297 0.0948402 0.00905105 
-0.00104459 0.20614 -0.00189286 0.0135675 0.042687 0.0157401 0.0450911 -0.00783638 
-0.0261104 0.262987 0.0185292 0.0282567 0.102431 0.00581018 0.130137 -0.00426154 
-0.0330964 -0.232863 -0.00455475 -0.00532385 -0.0342808 0.077618 0.0418852 -0.00541214 
-0.141606 -0.215593 -0.0105042 0.0385514 0.0905283 -0.0216372 0.0607081 -0.0212697 
-0.019334 -0.319974 -0.00347259 0.0122764 -0.123128 0.105715 0.125987 -0.0132713 
0.00415051 0.0674282 0.00704842 0.0166334 0.0478355 0.00104763 0.0213138 0.0175265 
-0.042805 -0.279985 -0.00347485 -0.01791 0.116752 0.111042 0.152536 -0.00606296 
-0.00862563 -0.0316124 -0.00726755 0.0147682 0.163442 0.01389 0.15442 -0.00128513 
-0.0280683 0.184217 0.0122055 -0.00242148 0.048842 0.00167152 0.0412028 0.0214779 
0.0101426 0.249707 0.00667145 0.0373073 0.0422918 0.0167985 0.0877382 -0.00533802 
-0.0112782 0.080851 -0.0116953 -0.026966 -0.0598825 0.0447841 0.0641829 0.0189907 
-0.0575647 -0.313627 0.0159265 -0.00742463 -0.0416662 0.0902142 0.0130559 -0.0158047 
-0.0596355 -0.234658 -0.0133481 -0.0152133 0.0875398 0.0317545 0.145502 -0.00303091 
-0.0879362 -0.127222 -0.0112451 -0.00904934 0.0956712 0.0274748 -0.0175722 0.0198984 
-0.0329913 -0.012781 -0.0120051 -0.0247873 -0.0566918 0.0627774 -0.0071507 0.0158643 
-0.0411768 -0.0986752 0.00761194 0.0291247 0.033036 0.015763 -0.000581115 -0.0100518 
-0.00530624 -0.134004 0.00984571 -0.00745311 0.0607503 0.00357454 0.110975 -0.0173333 
-0.0410053 -0.168233 0.0113647 -0.0299807 0.0624866 0.0473188 0.105762 -0.0146362 
-0.0621074 -0.208563 0.00570163 0.00869636 0.06598 0.00818963 0.150477 -0.0177228 
-0.0719018 -0.287401 -0.0183825 -0.0199748 0.112501 0.0305668 0.214595 -0.00577748 
-0.0290018 -0.277017 0.0156418 -0.0364826 0.00485738 0.0892649 0.0150911 0.0115695 
0.00996385 0.0328543 0.0142508 -0.0359048 -0.0657468 0.0479045 0.0136912 -0.0181207 
-0.0221896 0.0801586 0.0217488 -3.7351e-05 0.0413194 0.0139096 0.0376229 -0.0152404 
-0.0287117 -0.167924 0.000672618 -0.0103382 0.091496 0.0374564 0.13988 -0.00997611 
-0.0137633 0.274566 0.00640128 0.010386 0.0846178 -0.00234032 0.131032 0.000646964 
-0.0121549 -0.00297161 0.00209352 -0.0112949 0.150386 0.0463856 0.124771 0.00617666 
-0.0522677 -0.0980109 0.0185053 -0.0212279 0.0375755 0.00750708 -0.0109008 -0.00472816 
-0.0769584 -0.144662 0.0213969 0.00677246 0.065349 0.00782583 0.0881503 0.0148733 
-0.0170339 -0.179116 0.0174458 -0.0107068 0.0991148 0.0545054 0.120652 0.0175601 
-0.0132357 -0.114952 -0.0101581 0.0094258 0.0417943 0.0505447 0.0713022 0.014397 
-0.0182144 0.00575089 -0.00721691 -0.00445081 0.0310279 0.0266568 -0.0142176 0.00638556 
-0.0194345 0.282283 -0.0151051 0.0142041 0.0787458 0.0204821 0.0192526 -0.00229779 
-0.02735 -0.252699 0.0157428 -0.00243041 0.133694 0.0953337 0.166364 -0.00427261 
-0.0370348 -0.0196251 -0.00540525 -0.0220621 -0.0260051 0.0515243 -0.0168215 -0.019228 
-0.013584 0.096478 -0.00178649 0.00595488 0.0997934 -0.00366138 0.038031 0.0095723 
-0.0411169 -0.131955 -0.0133084 -0.00480039 0.0397942 0.0375266 0.032148 0.00175933 
-0.041048 -0.278762 0.00133836 0.00634576 0.0680042 0.0412291 0.0684265 -0.0223459 
0.000358768 -0.00419927 -0.00464441 -0.0039055 0.113337 0.0325884 0.103275 -0.0179109 
-0.0505104 -0.290501 -0.00204784 -0.0196295 0.0142124 0.0699013 0.0151609 -0.00970006 
-0.00566732 0.124052 -0.0197675 0.0267381 0.0785736 -0.0056726 0.063093 0.0218908 
-0.00644135 0.0585962 0.0114517 -0.0148933 0.025772 0.0333114 0.0192476 0.0171969 
-0.00385646 0.0133274 -0.0048208 -0.0133343 0.0703664 0.0357212 -0.079717 -0.000211126 
-0.0848293 -0.120223 -0.0107985 -0.0473309 0.0013326 0.0452268 -0.0335955 0.0108858 
-0.00292025 0.00982834 0.000622917 0.00638692 0.0338123 0.0173464 0.0234256 -0.00726928 
7.02903e-05 0.0145292 0.00248312 0.00813841 -0.0416838 0.0379211 0.034748 0.0190119 
-0.115413 -0.18665 -0.0191197 -0.00685198 0.102928 -0.0012109 0.0109152 -0.0132547 
-0.00821277 -0.163334 -7.88889e-07 -0.0258904 0.0909374 0.0217865 0.192742 0.00784399 
-0.0204743 -0.327833 -0.00704327 -0.037948 0.0299322 0.126279 -0.000879587 0.0158722 
-0.0636264 -0.245176 0.0153203 0.00389473 0.0664763 0.0446137 0.139354 0.0146998 
0.0365974 0.0578944 0.00371576 -0.0360013 -0.0313041 0.00730153 -0.103437 -0.0197658 
-0.00829269 0.116036 -0.013957 -0.00828029 0.042455 -0.0206492 -0.0669831 0.00868315 
-0.00108702 -0.116974 -0.00375024 0.00653335 -0.0365808 0.0410511 0.0224026 -0.0225545 
-0.0592939 -0.323944 0.0128749 -0.04456 0.0109706 0.0960279 0.0102591 -0.0193786 
-0.00982393 0.0233713 -0.0105928 -0.00575648 0.0849324 0.0221099 0.0624661 0.0219888 
-0.02605 -0.135997 0.00311476 -0.000832427 0.0553562 0.0441297 0.0478021 -0.0137866 
-0.0049653 0.0204241 0.0166483 -0.0202976 0.0172856 0.00504423 -0.0593722 -0.015473 
0.0133827 0.0726946 0.00245416 -0.014204 0.0171512 0.0169427 0.0173685 0.00773439 
-0.0132803 -0.20729 -0.0186352 -0.00715643 -0.0885632 0.0604068 0.0372326 0.00321494 
-0.0155353 0.0383173 -0.0161781 0.0183836 0.0341028 0.00383377 0.00711686 -0.013434 
-0.0443718 -0.23174 -0.0109788 -0.00258663 -0.078013 0.0458416 0.0592881 -0.00684843 
-0.0266529 -0.00936613 -0.00635833 -0.00145005 0.109102 0.0201379 0.0661963 -0.00316878 
-0.0159111 -0.359759 0.011081 0.0189697 -0.107502 0.0796546 0.0734672 -0.0209836 
0.0152917 -0.0355893 -0.021967 0.0215585 -0.0407034 0.00748357 0.070693 -0.0157144 
-0.0788864 -0.101942 -0.00395382 0.00661477 0.0627296 0.0108131 0.0242384 0.0048842 
0.00749224 -0.014731 -0.0163553 -0.000221775 0.156602 0.0246638 0.098682 0.008071 
0.010785 0.0203101 0.00183241 -0.0127277 0.00548722 0.0193398 -0.0474645 0.0123315 
-0.0100217 -0.0466336 -0.000850024 -0.00214822 0.205523 0.0446016 0.196205 0.0145222 
-0.036358 -0.182173 -0.000312275 -0.0280633 0.085214 0.023353 0.127366 0.011957 
0.0140636 0.230684 -0.00641753 0.0228711 0.0413223 -0.00448958 0.0203256 0.0088117 
-0.0151661 0.120693 -0.0143459 0.0150525 0.0424014 0.00524846 -0.0166942 0.000422037 
-0.0817764 -0.284603 -0.0161252 0.00144687 0.106145 0.0498305 0.188351 -0.0131074 
-0.0526225 -0.190662 -0.0118994 -0.0257389 0.0844174 0.0560141 0.0889053 0.00128623 
-0.0276193 -0.282163 -0.00949445 -0.0180002 0.130073 0.103289 0.13706 0.00486014 
0.0191461 0.0477575 0.00428014 -0.0169971 -0.0104982 -0.00752667 -0.105026 0.00122949 
-0.0267387 -0.260041 -0.00580376 -0.0400969 0.00639762 0.0458472 0.0143247 -0.012661 
-0.0211671 0.0257624 -0.0112821 0.0107552 0.0377665 -0.0111464 -0.0640859 -0.00921349 
-0.0219415 -0.0167152 -0.0183482 0.00314355 0.137687 0.0435875 0.12631 -0.0215883 
-0.003761 0.175895 0.00673082 0.0201997 0.0402819 0.0152481 0.0014085 0.0157754 
-0.0176765 0.00956978 -0.0157534 -0.00838278 0.12637 0.0297914 0.104004 0.0155911 
0.0332036 0.13512 0.00610309 -0.0179061 0.048727 0.0123993 -0.133137 -0.0198915 
0.0311552 0.128787 0.0110857 0.0107357 -0.0204539 0.0146861 0.0463879 -0.00590312 
-0.176155 -0.264222 -0.0155908 0.0126001 0.100129 -0.0118369 0.0633204 0.00401639 
-0.0648663 -0.251202 -0.0225597 0.0118764 0.0833431 0.0516535 0.094505 -0.00736725 
-0.0974828 -0.162591 -0.00824228 0.00900827 0.0686247 -0.00484308 0.0187927 0.0194808 
0.0011549 -0.0992394 0.016886 0.0167912 0.0119679 0.0299025 0.0205822 -0.00694388 
-0.0112144 -0.0141187 0.00665551 0.0113729 0.180574 0.0515222 0.145484 -0.0172655 
-0.0225271 -0.0921688 0.0219515 -0.0195929 0.0360025 0.0410035 0.102706 0.00368905 
-0.0211203 0.279962 0.0207121 0.00937737 0.0662488 -0.00316827 0.0231324 -0.00757095 
-0.0178124 -0.31201 -0.00808931 0.0304741 -0.138724 0.095696 0.0827944 0.00242647 
-0.0275293 0.117521 -0.00292374 -0.00667573 0.0729174 0.0206177 0.0542032 -0.0179647 
-0.0230807 -0.175429 -0.00793298 0.00506176 -0.0433509 0.060887 0.0300908 0.0204907 
-0.0166097 -0.132315 -0.00286126 -0.0213378 -0.0216217 0.0531741 0.0704186 -0.0164957 
-0.0164659 0.0623373 -0.0170293 -0.00815272 0.0627139 0.0092569 -0.00602123 0.00640883 
-0.0356522 -0.045544 0.00633525 -0.0300439 -0.0279078 0.0436351 -0.0200537 0.0081344 
0.0100867 0.173415 -0.0137422 0.024813 0.0326034 -0.00715074 0.039751 -0.00627485 
-0.148444 -0.234386 0.00519675 0.0334303 0.0846258 -0.0213974 0.0634654 -0.0108441 
-0.0554591 -0.375936 0.00684717 0.0213931 -0.128954 0.0984068 0.0905305 0.0188949 
-0.00222005 -0.22708 -0.0119505 0.0108087 -0.0829687 0.0655481 0.129539 0.0093042 
-0.0402113 -0.0154966 -0.0030657 -0.0120274 -0.0664247 0.0331623 -0.00738608 0.0112498 
-0.0120786 0.189955 0.0039624 0.00776995 0.0253247 0.00433579 0.0286582 -0.00860269 
0.00337447 -0.0106306 -0.0180704 -0.0115519 0.0358666 0.00225744 0.00321624 0.0172917 
-0.0334186 -0.263581 -0.0146942 -0.0269956 0.139798 0.0493547 0.155434 -0.0119657 
-0.155869 -0.256553 -0.0154473 0.0221985 0.10958 -0.0242209 0.125187 -0.022404 
-0.033769 -0.0839005 -0.00466318 0.0311233 0.138772 -0.0129826 0.175791 -0.00962266 
-0.00488922 0.238488 -0.00261207 -0.00178007 0.0553936 0.00283497 0.00502596 0.0169099 
-0.00504389 -0.257476 -0.00814447 -0.0172695 0.11878 0.107017 0.11624 0.00989333 
0.002428 -0.141966 -0.00114945 -0.00278618 -0.00402599 0.0544212 0.01502 0.0209643 
-0.0754479 -0.268343 -0.00263795 -0.00288582 0.0857399 0.0247175 0.198393 -0.00138174 
-0.0514609 -0.135834 0.0110032 -0.0045958 0.0595851 0.0366212 0.0702228 0.0158092 
-0.0150142 -0.223474 0.00883272 0.00976462 -0.110588 0.0925466 0.0502487 -0.0182862 
-0.0019528 0.0546411 0.0120082 -0.0113154 0.000857201 -0.00593265 -0.0781018 0.018184 
-0.0692628 -0.104822 0.00463878 -0.026263 0.016847 0.0344701 -0.0486197 -0.00200114 
-0.033995 0.136225 0.0199169 0.0367562 0.102219 -0.00245978 0.0846276 -0.0198214 
-0.0468593 -0.0473694 0.010678 -0.0256844 0.0106701 -0.00199579 -0.023387 -0.00670622 
-0.0371877 -0.114518 -0.020107 0.0194919 0.0329276 0.0300793 0.0541581 -0.016327 
0.0137825 0.0628475 0.0132445 -0.0163895 0.0315682 0.0347621 0.0459942 -0.0170695 
0.0103463 0.106636 -0.0181283 0.0209001 0.0484372 0.0241284 0.053345 -0.0179267 
-0.0115633 0.0213021 -0.00679323 0.0131732 0.0605072 0.0203476 -0.0430408 0.012692 
-0.0264145 -0.204762 0.0119444 -0.00770818 0.0525453 0.0403093 0.0587572 0.0114959 
-0.0715918 -0.0969092 0.0212947 -0.0169317 0.0547287 0.0119461 0.00528908 -0.0127839 
-0.0104127 -0.00125305 0.0182562 -0.00992266 0.00689983 0.00953056 -0.00494148 0.0193487 
-0.0281075 0.163312 0.00956728 0.0354397 0.065029 0.0211047 0.0974896 -0.0101356 
-0.0339038 -0.122126 0.00900309 0.0338077 -0.0724125 0.026257 0.0783301 -0.00804163 
0.00301509 0.0654301 0.00708665 0.0187039 0.0447992 -0.00125058 0.0296231 0.00639245 
-0.0142853 -0.147601 0.018697 -0.0169225 0.0653685 0.0204742 0.0361473 0.0190902 
-0.0240444 0.00562976 0.0116336 -0.00339684 0.0580068 0.00865184 -0.0101586 0.00952552 
-0.0394792 -0.253425 0.00699226 0.00306226 0.115546 0.0345213 0.176922 -0.00629264 
-0.0268553 0.00999221 -0.00617793 -0.00549316 0.170703 0.0327829 0.105211 0.00849758 
-0.0153881 -0.185403 0.0165355 -0.0106898 0.0726963 0.062146 0.1282 -0.00611568 
-0.026427 -0.29297 0.0153447 -0.0308674 0.142043 0.0930458 0.148882 -0.00590092 
-0.021075 0.269992 -0.011113 0.0201628 0.0580171 -0.00209112 0.0107475 -0.008953 
-0.0240879 0.213165 0.0131815 0.0158454 0.0658129 0.0321417 0.123499 0.0140043 
0.0228028 0.0289631 -0.00748041 -0.0326644 0.00826264 0.00925106 -0.0945561 0.0062132 
-0.167416 -0.246071 -0.0139322 0.000743113 0.113317 -0.00974332 0.0702753 -0.0187669 
-0.0369306 -0.248108 0.0156977 0.0163255 -0.0934737 0.0855813 0.0973124 -0.0220572 
0.0177387 0.0641573 -0.00924069 -0.0220771 -0.00901971 -0.0128194 -0.102877 0.000471338 
-0.0334455 -0.185619 0.0126294 0.00440644 0.124054 0.0633566 0.220938 0.0017356 
0.0163278 0.0200496 -0.0139332 0.018587 0.051843 -9.58324e-05 0.0265814 0.00217234 
-8.84549e-05 0.0839952 -0.0169091 -0.0136624 0.0496532 -0.0218256 -0.0283314 -0.00660283 
0.00304701 -0.106896 0.0200105 -0.00559496 -0.0168236 0.0213574 0.0308386 0.0177548 
-0.0268052 -0.0217978 0.0164796 0.00129686 0.0973018 0.0291099 0.0815103 -0.0212547 
-0.0363768 -0.176775 0.0206932 0.00117655 0.0649024 0.0144261 0.0476812 -0.0204305 
-0.0324078 -0.241317 -0.0109368 0.008464 0.0482249 0.0368688 0.074843 -0.0180906 
-0.00863025 -0.198283 -0.000626221 0.00797941 0.0868518 0.0377007 0.0924782 0.00354754 
-0.032201 -0.197711 -0.0134627 -0.0230266 -0.0461985 0.0484245 0.00937148 -0.00260093 
-0.0145618 -0.016378 -0.0195926 -0.0259305 -0.0327129 0.0147603 -0.0109151 -0.0112837 
-0.0280207 -0.231219 -0.0178889 -0.00354585 0.116045 0.0638213 0.256506 -0.0216374 
-0.00411863 -0.0085394 0.0127566 -0.0241962 0.115752 0.0215923 0.0909307 -0.0217334 
-0.052852 -0.170834 -0.0103507 -0.0198388 0.0571463 0.0419271 0.0765193 0.0143507 
0.0283077 0.051165 -0.0183649 -0.0267981 0.0270796 -0.00808762 -0.0289895 -0.00481625 
0.00115778 0.224279 -0.011785 0.0452058 0.0940854 -0.0067058 0.0462694 -0.00958561 
0.0146947 0.0411643 -0.00862405 -0.0232395 -0.017867 0.0179333 -0.0896454 -0.00880788 
0.0584584 0.177729 -0.00138729 -0.0162099 0.0461299 -0.0227582 -0.0624725 -0.0153047 
0.00537268 0.0182259 -0.00809009 0.00886744 0.0620533 0.0247622 -0.0857792 -0.0168155 
-0.0215961 0.141837 -0.0177293 -0.0070786 0.0433818 -0.0141809 0.0286398 -0.0196371 
0.0160642 0.00153929 0.00214292 -0.01509 0.0315551 -0.0121191 -0.0125166 -0.0110615 
0.0050415 0.00667076 -0.0176579 -0.0189193 0.133467 0.0464044 0.11987 0.0140174 
-0.00563384 0.240002 -0.00153613 0.0360543 0.0461596 0.00784391 0.0952652 0.00275399 
-0.00420467 -0.140821 0.0037624 -0.00921435 -0.0574937 0.0500979 0.0271622 -0.0220485 
-0.00627436 -0.00882221 -0.0139499 -0.0225226 0.0790744 0.0282967 -0.0443325 0.00951782 
-0.0136193 -0.138884 0.0159757 0.00892165 0.0365295 0.0158576 0.055338 0.0144164 
0.00624296 -0.084625 0.00534211 -0.0117978 -0.0175725 0.0188203 0.0256317 -0.0068677 
-0.0245715 -0.0340932 0.00341389 -0.0086413 -0.0216712 0.0383119 -0.00355973 0.0128995 
-0.000198091 0.198738 0.0153702 0.0272683 0.0540798 -0.00739356 0.0716383 -0.0120725 
-0.0144898 -0.0783939 -0.0220215 0.0107588 0.021358 0.0119174 0.0514013 -0.00943764 
-0.0332409 -0.271595 0.000716303 -0.0304164 0.147274 0.0574891 0.237764 -0.00938993 
-0.016925 -0.00626777 0.0183839 0.00359151 -0.0490794 0.0326624 0.0205765 0.0117398 
-0.00982155 0.137849 -0.00379849 0.0309758 0.0489237 0.0138227 0.0100705 -0.0078711 
-0.0827024 -0.0970825 -0.0163824 0.000265231 0.0570888 0.00312801 0.0592485 -0.00474676 
-0.0610134 -0.421131 0.00512766 0.0172419 -0.139333 0.101437 0.0761313 -0.0119987 
-0.0420186 -0.0282309 -0.0123145 -0.0261408 -0.0247666 0.0127441 -0.020526 0.0206086 
-0.00469061 0.243592 0.0177566 0.0172205 0.036617 -0.0152669 0.0631752 -0.00900236 
-0.0384672 -0.105225 0.0106821 0.0176435 0.0946592 0.0327345 0.0718217 0.00634165 
0.0458574 0.115836 -0.00285058 -0.0533609 -0.0222086 -0.00647185 -0.182539 -0.00181126 
-0.0124493 -0.128238 0.0149555 -0.0245414 0.138623 0.0690609 0.17838 -0.00451871 
-0.116651 -0.18483 0.0138824 0.0218128 0.0812234 -0.0116807 0.0815621 -0.00948429 
-0.010583 0.123055 -0.00976794 -0.00381806 0.0610671 0.0071191 0.0793625 -0.0174893 
-0.0310159 -0.275456 -0.00546856 -0.00633862 0.134364 0.0839011 0.185997 -0.0116481 
-0.0215538 -0.18973 -0.00498982 -0.00665617 0.0457392 0.0384346 0.0841706 0.00662465 
-0.00569876 -0.100255 0.000343877 0.0234028 -0.0821747 0.0633811 0.10047 0.00641287 
-0.00385208 0.107997 0.00950188 0.0305737 0.0594098 -0.0018885 0.00123994 0.000234278 
-0.0617431 -0.296886 -0.00717169 -0.0240186 0.108216 0.0470807 0.209675 -0.0221463 
0.0213875 0.0303025 -0.00208395 0.0102023 -0.0101609 -0.0127475 -0.0425467 -0.021989 
-0.00730044 -0.0734841 0.00609512 0.0235844 0.155824 0.00605482 0.195074 -0.00489161 
0.00475858 0.0113792 -0.00630306 0.0102472 0.100689 0.0121063 -0.0852837 0.00306391 
0.00422866 -0.085858 0.0152304 -0.0163571 0.115245 0.0368876 0.120677 0.0216717 
0.00841262 0.0509416 0.0204402 -0.00563554 -0.0288354 0.0026428 -0.064047 0.0199512 
-0.00108683 0.183981 -0.015477 0.0257395 0.0544591 0.031073 0.1173 0.0137221 
-0.0427002 -0.226201 -0.00224524 -0.00493928 0.0531239 0.0426389 0.0435688 0.00483827 
-0.0414528 -0.102093 0.0151545 -0.0129071 0.11192 0.0203377 0.0926955 0.0075777 
0.00168358 -0.0127979 -0.000521958 0.00307361 -0.0161589 0.0127475 0.011115 0.00455881 
0.0100823 0.0273507 -0.0152015 0.00918671 0.164931 0.014465 0.128879 -0.00259431 
-0.0444502 -0.330512 0.0195523 -0.0414711 -0.00939873 0.0625176 0.0302614 0.0139792 
0.0112964 0.198449 -0.0157796 0.00811529 0.0413071 0.000211561 0.0613276 0.00224686 
-0.0237118 -0.181115 -0.00548759 -0.000922949 0.0681097 0.0214211 0.0480317 0.00179528 
-0.058044 -0.225374 -0.00636301 -0.0255003 0.0607308 0.0650083 0.0748521 0.0164111 
-0.0624672 -0.223799 -0.0200358 0.00788815 0.0552593 0.0575732 0.0810911 -0.00653988 
0.0190105 0.0596387 0.00603245 -0.0327694 -0.0194822 0.000130307 -0.0800896 0.0173952 
-0.157172 -0.221872 -0.00113982 0.000560925 0.12976 0.00933535 0.0494239 -0.0011083 
0.0214631 0.117659 0.00084788 -0.0106165 0.0319987 0.0216216 -0.0387849 0.0119387 
-0.0210539 -0.133864 0.00420273 -0.0018679 0.0507886 0.0326646 0.0398071 0.0101547 
0.0109458 -0.0112142 -0.0225751 -0.0164777 0.1566 0.0496407 0.114254 -0.00105582 
-0.0273714 -0.0499299 -0.00914954 0.00204336 -0.0365346 0.022525 0.0463025 -0.0117212 
-0.0790195 -0.129512 0.00798735 -0.0409751 0.0729048 -0.00306437 0.00761546 0.0144911 
-0.0592276 -0.0983554 0.00752054 -0.0153636 0.0454717 0.0330148 -0.0229225 0.0103854 
0.00611965 -0.032666 0.019955 -0.00858442 -0.0181178 -0.00880723 0.0375168 -0.0100684 
0.00638526 0.0284097 0.0082301 0.0167298 0.0764324 0.0185786 0.0409224 0.0210497 
-0.024766 0.0173288 -0.0179707 -0.00262781 0.0924412 -0.00592723 0.0572696 -0.0103207 
-0.0108545 0.241767 0.0189058 0.0155068 0.0738275 0.000874295 0.0614727 0.0032084 
-0.0119337 -0.225305 0.0103276 -0.00522971 0.0782988 0.0792894 0.0841156 0.00953189 
-0.0144724 0.0197358 0.00590545 0.0112215 0.185604 0.0513886 0.169648 0.00409214 
0.000334832 0.0194753 -0.0191579 9.54345e-05 0.0871987 0.0122226 -0.0482275 0.00140039 
-0.00278991 -0.0921409 0.0148358 -0.0296478 0.0418384 0.0885341 0.0934155 0.0105218 
0.0172497 0.0686726 0.0101827 0.0214205 0.0321812 0.0207257 0.00881174 -0.0132687 
-0.0124048 -0.0491274 -0.0182995 0.00279006 0.0114355 0.0176337 -0.00732144 0.0117305 
-0.028934 -0.239615 -0.0111828 0.00263419 0.0944909 0.0581706 0.152857 0.0177831 
-0.0231761 -0.291512 -0.0146964 0.0151909 -0.119278 0.0535124 0.0716159 -0.0227306 
0.00380069 0.0813574 0.0195378 -0.0180122 -0.0701903 0.0526307 0.0667541 -0.0194847 
-0.0308363 0.00377761 0.00149948 -0.0191304 0.198476 0.0455004 0.180541 0.00481173 
-0.113573 -0.208277 -0.00170643 0.00925885 0.0880193 0.00497972 0.0121559 0.0138716 
-0.0524851 -0.172699 0.000174144 -0.0180583 0.0394349 0.0516254 0.0449593 0.0197096 
-0.0260869 -0.0341131 -0.00210105 -0.0117097 0.0291117 -0.00947643 0.0031269 0.0142474 
-0.000296312 -0.0914366 0.0210567 0.00661869 0.0545849 0.0436346 0.0477803 -0.0116994 
-0.0327581 0.179549 0.00199186 0.00906245 0.0672107 0.0186105 0.045053 0.00801552 
-0.0221289 -0.00982103 0.0155011 -0.00368303 0.148869 0.0158544 0.133067 0.00662445 
0.0262705 0.13262 0.0166195 -0.0248407 -0.00102053 -0.0245144 -0.179312 -0.0193465 
-0.0229719 -0.256624 0.013406 -0.000723884 -0.0846049 0.0733807 0.0585118 0.0124221 
0.0400275 0.0913931 -0.0186821 -0.00482909 -0.00436384 -0.00118674 -0.00147051 -0.0128455 
-0.00784692 -0.226613 0.0111447 0.00739371 -0.108127 0.0500243 0.0626855 -0.00910919 
-0.0198605 0.0154716 -0.00963687 -0.00571716 0.0484407 -0.00272635 -0.0833073 -0.0163005 
-0.0209923 -0.234428 0.00580457 -0.000410704 0.0629503 0.0410861 0.0771973 -0.0124105 
-0.00864734 -0.0891349 0.011395 0.00942852 0.0737107 0.0457262 0.0861412 -0.000167759 
-0.0298341 0.122942 0.0167134 0.00345189 0.0749428 0.0211733 0.0800878 -0.014355 
0.0063914 0.000532615 -0.000698669 0.0199802 0.0960401 0.0367824 -0.0874448 0.011208 
-0.0257976 0.212685 -0.00656152 0.0179947 0.0246054 0.0174208 0.0698075 0.0121722 
-0.0274911 -0.0951123 0.00231314 0.0171658 0.0317032 0.0211123 0.0316706 -0.000306964 
-0.0334348 -0.14486 0.00791131 -0.0135155 0.0313436 0.0140411 0.0467709 -0.0212384 
0.079601 0.221786 0.0188804 -0.0161895 0.0513849 0.0142124 -0.0390866 0.0180214 
0.010932 0.0247031 -0.00555982 -0.00637513 0.00906261 -0.0224353 -0.0827043 0.0174753 
-0.0661673 -0.318411 0.0158627 0.00384861 0.118615 0.0315021 0.194216 0.0173014 
-0.0224744 -0.218487 -0.0145237 0.0135379 -0.0615172 0.0562941 0.0490862 -0.011257 
0.0016848 0.171562 -0.0191199 -0.00859769 0.0489943 0.00618339 -0.0109704 -0.00542657 
0.00991345 -0.142837 -0.0149023 -0.0388832 -0.0123662 0.0969531 -0.0176805 -0.0118859 
-0.0149482 -0.168366 -0.0133681 -0.00738349 0.0368657 0.0377532 0.0472698 0.0186515 
0.0306134 0.0659478 0.0114121 -0.0260409 -0.000900942 0.00470019 -0.0157211 0.00555132 
-0.0158694 -0.041009 0.0214044 -0.0183452 -0.0190434 0.00763331 0.0266198 0.00566036 
0.019819 0.0173549 0.0162578 0.00745493 0.0461734 -0.0107374 0.0566741 -0.0108795 
-0.0405626 -0.13428 0.00683558 -0.00809744 0.0770712 0.0487264 0.0525654 0.00449544 
-0.0245116 -0.121537 0.0095407 -0.00304741 0.0490868 -0.0025776 0.0508424 -0.0175327 
-0.00271773 -0.0379854 -0.00887616 0.00539125 -0.00909149 0.0266178 -0.000325521 -0.00238457 
-0.0455201 -0.234624 -0.0158871 -0.0220957 0.0507896 0.00626317 0.119259 -0.0140267 
-0.0824693 -0.10972 0.00315514 -0.0430426 0.0530212 0.0343165 -0.0122945 0.00121925 
-0.0483208 -0.290425 -0.0173982 -0.00416753 0.0995952 0.0251182 0.207293 0.0211884 
-0.0297697 -0.0308916 0.00376681 -0.0368729 -0.00578795 0.0415821 -0.00748683 0.00738877 
0.0407938 0.0811185 0.0147304 -0.036799 0.0316917 -0.0139501 -0.0496433 0.0193301 
0.0362756 0.15935 -0.0214606 -0.048983 0.0536317 0.00294215 -0.123247 0.00760229 
-0.133763 -0.182988 -0.00639718 -0.000319295 0.0968018 -0.0225047 0.0683276 0.0167692 
-0.0488156 -0.153678 0.0177806 -0.0185632 0.0506029 0.0123538 0.0660841 0.0184336 
0.015047 0.0933649 0.0219641 0.0160419 0.0359918 -0.00819587 0.0279027 -0.010037 
-0.0300927 -0.183715 0.00814049 -0.0107759 0.0738814 0.103395 0.101813 -0.00459245 
-0.0024415 0.266208 0.021331 0.00257919 0.0238992 0.00733403 0.0678827 -0.0132504 
0.00303862 0.0282901 -0.00443579 0.00994072 0.0643059 0.0070542 -0.0706183 -0.0140052 
0.00896608 0.129809 0.0149374 0.0345272 0.0803792 0.000169106 0.0736986 -0.0220037 
-0.0197479 -0.192352 0.0155279 -0.0265479 -0.0373662 0.0702792 0.0191105 -0.0162478 
-0.0136786 0.00684452 -0.0132046 -0.0118893 0.130135 0.0183908 0.110389 -0.0201656 
-0.0193924 0.0929189 0.0105734 -0.0144741 0.0124561 -0.00632703 -0.0204952 -0.016179 
-0.0187759 -0.237837 -0.0210723 0.0116523 0.0957837 0.03365 0.106877 0.0120867 
-0.0211191 0.0240867 -0.0140859 0.00246725 -0.0118729 0.0235186 0.0124581 -0.00244049 
0.00916782 0.214461 0.0126671 -0.00179778 0.0366563 -0.00348668 0.0105289 -0.0197236 
-0.0094673 0.0471372 -0.00700251 0.00127626 0.0294289 0.0201421 -0.00318816 -0.0111207 
-0.0245428 0.0870796 -0.0165788 0.0225653 0.0400555 -0.0183155 0.036049 0.0216985 
0.00976229 0.0123036 -0.000129755 0.0166588 0.0266195 -0.0108625 -0.0236004 0.000934268 
-0.0552606 -0.0374365 0.00509752 -0.0349902 -0.0084378 0.0399753 -0.0247629 0.0134152 
-0.00330974 -0.0721196 -0.00593863 0.0171483 0.0215094 -0.00234149 0.0137901 -0.0068737 
-0.0198478 -0.316097 -0.0157766 -0.00181918 -0.050124 0.0871509 0.0311318 -0.0216445 
-0.0360666 -0.318837 0.0180996 -0.0121408 -0.0907395 0.0671959 0.0640249 -0.00130082 
-0.0405248 -0.291744 0.00287273 -0.00537969 -0.0466482 0.0825295 0.0244092 0.0135938 
-0.02813 -0.0252079 0.0108007 -0.00368268 0.118255 0.0508868 0.134026 0.0192062 
-0.0274127 -0.00406108 0.0105025 -0.00256893 0.191129 0.0401367 0.159077 -0.0128298 
-0.0216189 -0.198134 -0.00234658 -0.0117038 0.0682223 0.0275545 0.0892835 -0.0208581 
-0.019543 -0.225096 0.0153889 0.00403181 -0.0638075 0.0585605 0.0340469 -0.00826269 
-0.0198644 -0.000791671 0.0135579 -0.0194624 -0.0500521 0.0572004 0.0194902 0.000940267 
-0.0180495 -0.200516 -0.0191665 -0.0195048 -0.00563303 0.0567375 0.0144729 0.00583027 
-0.0481964 -0.246413 0.0213688 0.0145046 -0.0752483 0.0724653 0.0570332 0.0168125 
-0.0161421 0.00797254 0.00779816 -0.00715503 0.015976 -0.00193 -0.0299756 0.00541016 
-0.0320238 -0.237483 -0.0163314 0.0155515 0.0721124 0.0553616 0.092745 0.0122609 
-0.0285361 -0.217114 -0.0148642 -0.00216018 0.0361205 0.052619 0.0685936 -0.00853185 
0.0254474 0.0655042 -0.015916 -0.0236849 -0.0256466 -0.000993167 0.0370027 -0.0114866 
0.00665391 0.00766268 0.00209744 0.0136315 0.182426 0.0218443 0.134399 0.00582194 
0.00285463 0.02512 0.00444266 0.0117689 0.0310543 -0.00683877 -0.0515997 -0.017238 
-0.00449269 0.197116 0.0092637 0.0391768 0.0666912 0.0326599 0.0803363 -0.00588064 
-0.0593897 -0.199304 -0.00161338 -0.0184213 0.0407457 0.0260941 0.0760358 -0.0177963 
-0.0498187 -0.0234671 -0.021859 -0.0367858 -0.0394799 0.0354502 0.0091406 0.0174202 
-0.0235305 -0.106189 0.00915269 0.0106782 -0.0470331 0.0198037 0.0582175 -0.0171563 
-0.0445769 -0.245686 0.0219026 0.0259321 -0.118252 0.0554129 0.130083 -0.000827307 
-0.0664041 -0.125341 0.00950446 0.00900364 0.0805302 -0.00915847 -0.000675833 -0.0199803 
-0.0236336 0.0125022 -0.0155278 -0.013825 -0.0356975 0.039098 0.00899661 0.0150403 
-0.172004 -0.257155 -0.00587573 0.016412 0.125644 0.00173854 0.144971 -0.00258363 
-0.0361521 -0.121661 -0.0180924 0.000992173 0.0629642 0.0086841 0.0561249 0.00114974 
0.0722582 0.253252 -0.00178639 -0.0408473 0.0478204 -0.00614349 -0.0684239 -0.0120254 
0.00229771 0.00662981 0.00996471 -0.0140005 0.0198917 -0.0138647 -0.0353089 0.0143734 
-0.140948 -0.209183 -0.000474456 0.0120632 0.0939506 -0.0268393 0.0847149 0.00971112 
-0.0858303 -0.104533 -0.00547301 -0.0153452 0.0485888 -0.00890069 0.0564133 0.0120345 
-0.0334603 -0.254784 -0.0101417 0.0166941 -0.106337 0.0829547 0.129816 -0.0176076 
-0.0334024 -0.16558 -0.0093779 -0.0207772 0.0296926 0.0193551 0.0694923 0.00532494 
0.00651338 -0.013432 -0.0137736 -0.018686 0.0783796 0.00569653 0.0835666 0.0108981 
-0.0185474 -0.0374812 0.0116243 0.0198578 0.0704665 -0.00221134 0.0580631 -0.018237 
-0.0173212 0.230635 -0.00197092 0.0388055 0.046136 -0.0118405 0.0897652 0.0205713 
-0.00903743 -0.0530548 -0.0175956 0.0194296 -0.0117268 -0.00853478 0.0145383 -0.00755909 
-0.00500586 0.141076 -0.00152049 -0.00805542 0.0503006 -0.00823187 0.0272169 -0.0101695 
-0.010244 0.159659 0.0168351 0.0126528 0.0988501 -0.00715966 0.0884548 -0.0064331 
0.013085 0.0262451 -0.0127166 -0.0095732 0.140289 0.00812333 0.0878557 -0.00396959 
-0.0143181 -0.241187 -0.00878806 -0.00477776 -0.120837 0.0927994 0.0885094 0.019625 
0.0137818 0.0351687 -0.0155782 -0.016783 -0.0190928 -0.020632 -0.0601032 0.0120963 
-0.00204567 0.153303 -0.0156799 0.0366437 0.126935 0.00671099 0.0841604 0.01286 
-0.0749894 -0.125378 -0.0168948 -0.0390887 0.0324264 0.0262375 -0.0252063 -0.0204709 
-0.061479 -0.122202 -0.0176234 -0.0323025 0.0823539 0.0159409 -0.0266335 0.000577051 
-0.0144798 -0.165795 -0.0218255 0.0206008 -0.0968747 0.0856492 0.0870572 -0.00819696 
-0.010708 0.1799 -0.0157555 0.0112728 0.027152 -0.00246545 0.0410431 0.00161043 
-0.106852 -0.19076 0.0220561 0.00228646 0.0967429 0.000821085 0.0880784 0.00209379 
-0.0474736 -0.272215 0.0172116 -0.0590179 0.124258 0.116561 0.109424 -0.00993547 
-0.0106556 -0.207915 0.0154259 -0.0316529 -0.0373538 0.0446163 0.0138658 0.0116961 
-0.00432988 0.225377 -0.0158568 0.0207585 0.0751224 -0.0115422 0.0295662 0.00270453 
-0.150487 -0.253987 0.0185241 0.00628943 0.105029 -0.0293392 0.137118 -0.015037 
0.00755474 0.0148917 -0.0135284 0.00664034 0.0959271 0.024476 0.0876813 0.000115886 
-0.0189956 0.23937 0.00527506 0.0250127 0.0200161 -0.0148581 0.0430651 0.00825132 
0.00329248 0.00837197 -0.00175577 0.00348536 0.0356832 0.0158131 -0.0369731 -0.00433952 
-0.0436623 -0.193112 0.00828465 -0.0153644 -0.0428436 0.048764 0.0245948 -0.0190518 
-0.0179245 -0.162133 0.0117854 -0.00773505 -0.0824138 0.0645634 0.0580116 0.0050259 
-0.120407 -0.210526 -0.0116277 -0.000952137 0.10401 0.00226871 0.0614779 -0.0221659 
-0.0166428 0.191616 0.00265581 -0.00888538 0.0444055 0.0105911 0.0159896 0.00346769 
-0.0181102 -0.0234812 0.0136605 -0.0387146 -0.0480072 0.0307852 -0.0155946 0.0181964 
0.0134702 0.0460924 -0.0168271 -0.0167453 0.0397257 0.0218362 -0.0114932 -0.00706074 
-0.105645 -0.134576 0.0197398 -0.0403223 0.0467314 0.0228015 -0.0463242 0.0149261 
-0.0710178 -0.233136 0.0155073 -0.00191702 0.0639045 0.0182243 0.0733994 0.00477005 
-0.0517345 -0.366462 0.0118249 0.0190906 -0.0948394 0.110246 0.0740948 -0.0180566 
-0.104896 -0.202297 -0.0090506 0.0270781 0.104354 -0.0258639 0.0350859 0.021107 
-0.150861 -0.215196 0.000564042 0.0282445 0.0992452 -0.0358842 0.103875 -0.00539582 
-0.0718695 -0.0931626 -0.0211656 0.0277523 0.0483801 -0.0169024 0.0353824 -0.0163895 
-0.0310048 -0.205352 -0.0162538 -0.0170825 0.08857 0.0460524 0.119554 -0.00786267 
-0.0082438 0.0413591 -0.0182963 -0.00434176 -0.0260465 -0.0152334 -0.0849485 -0.0137237 
-0.0481094 -0.0585851 -0.0200235 0.0060326 0.0257457 0.00340178 0.0486844 0.00627996 
-0.0147894 0.0352423 0.00511814 -0.0209581 0.0385217 -0.00150174 -0.0748963 0.000579657 
-0.0140584 -0.178552 -0.0180987 -0.00504304 0.0658169 0.0946922 0.0605489 -0.00409536 
-0.00962058 -0.155712 -0.00648667 0.0108867 0.110972 0.0359845 0.105661 0.0104864 
-0.0604781 -0.116157 -0.00929996 -0.0302777 0.082347 0.00124304 0.0105879 -0.0186822 
-0.0769906 -0.263573 -0.0175624 -0.0117977 0.0742446 0.027648 0.136107 -0.00992298 
-0.0164928 -0.0643802 -0.013107 0.0247459 0.0997807 0.0102925 0.0222188 0.00382604 
0.0388372 0.0847305 -0.00254096 -0.0411606 -0.0344781 -0.00103211 -0.150108 0.00998057 
-0.0988475 -0.175843 -0.0213699 0.0165103 0.0783261 0.0108677 0.0437253 0.0139299 
-0.000484529 0.00726041 -0.0106352 -0.0188896 0.0168468 -0.0156934 -0.0267377 0.00215597 
-0.0529055 -0.192676 -0.00204425 -0.0303585 0.0850097 0.051918 0.184375 0.0191338 
-0.069375 -0.10167 -0.0095752 -0.0292949 0.0406788 0.017918 -0.0514257 -0.00942819 
0.00831928 -0.0377222 0.0140143 -0.00731839 -0.0120989 0.00581377 -0.0045251 0.00583157 
-0.0331996 -0.0739014 0.0126659 -0.0210238 0.200537 0.0388031 0.189636 0.0183454 
0.00213564 -0.0474358 0.0204764 0.0071543 0.0844681 0.031513 0.0434331 -0.00264127 
-0.025521 -0.0521479 0.0188594 -0.0308817 -0.0192914 0.0180099 -0.0139447 -0.0023578 
-0.0142986 -0.0348342 0.0153207 0.0166007 0.060488 -0.0149621 0.0474065 0.0213652 
-0.0425755 -0.0625495 -0.0165658 -0.0335663 -0.000915003 0.0380211 -0.0336689 -0.00969562 
-0.0822172 -0.274503 -0.00668853 0.0088642 0.106406 0.0274483 0.169003 -0.00495567 
-0.00144141 -0.048675 0.00830363 -0.00760919 0.0122724 -0.00222124 0.0271677 0.0214747 
0.000463097 -0.0903738 0.00581433 -0.008741 0.129819 0.0645208 0.205544 -0.00956424 
-0.0480031 -0.26648 0.00190232 -0.0366274 0.128814 0.11125 0.160357 -0.00354398 
-0.0399355 -0.263718 -0.00401714 -0.00329359 0.063073 0.057314 0.130832 -0.0217649 
-0.0338162 -0.284726 -0.00553231 -0.0147545 -0.0160141 0.0694271 0.0198863 0.00356118 
-0.00802473 -0.179495 -0.0177761 -0.0166657 -0.00380701 0.0481559 0.0211129 -0.0117938 
-0.0233073 -0.164483 0.00486473 0.0180446 -0.0998435 0.0454604 0.0564153 0.0198212 
-0.064968 -0.094136 0.00169562 -0.00741263 0.0483717 0.00931348 0.00809338 -0.00116661 
-0.0432767 -0.302965 -0.0140631 -0.048797 0.124183 0.13259 0.173529 -0.0220437 
-0.0185607 0.00388582 0.00318489 -0.00564613 0.0639266 0.0146551 -0.0204096 0.00471096 
-0.161739 -0.293484 -0.0119137 0.0361821 0.126892 -0.0315231 0.153306 0.0125647 
-0.0495487 -0.28621 -0.00293153 -0.0297795 0.130341 0.0225885 0.211128 -0.0169284 
-0.0545268 -0.191318 -0.00998855 -0.0125584 0.0712028 0.0205907 0.0640985 0.0146529 
0.0155871 0.0545286 -0.00967699 -0.00926071 0.0396525 0.0295839 0.00391062 -0.0157631 
-0.0355895 -0.199745 -0.0200633 -0.00136703 -0.0118591 0.0686362 0.0149063 -0.0104313 
-0.0465977 -0.177977 -0.00463659 -0.0163871 0.0300171 0.00555371 0.055883 -0.0108386 
-0.0106705 -0.11136 0.00314075 -0.00552964 0.062643 0.0441625 0.0450063 0.00397601 
0.013864 0.0781123 0.0190373 -0.00834264 0.022699 0.0170707 0.00216533 0.0123519 
-0.186408 -0.281194 0.00458133 0.0114837 0.118791 -0.0345757 0.156656 0.00214826 
-0.0812743 -0.1209 0.0134995 0.0080705 0.0462208 -0.0202333 0.0283463 0.0209246 
-0.0100353 -0.248559 -0.00331935 -0.0319149 0.0983186 0.110571 0.0992209 -0.0204504 
-0.0210834 -0.0881835 -0.0112731 0.00859475 0.051651 0.0204842 0.0664947 0.01989 
-0.0944417 -0.187734 -0.00100289 0.00368398 0.0790263 -0.0172103 0.0605368 0.00926765 
-0.0177842 0.163705 -0.0138982 0.0338927 0.120368 0.0210374 0.128032 0.00360377 
-0.178377 -0.26473 -0.018258 0.0135463 0.13813 -0.0340192 0.122633 -0.0197989 
-0.0277551 0.223426 0.0170557 0.00826124 0.0665223 0.0111647 0.0758353 -0.0114095 
0.00126146 0.167208 -0.00144908 -0.00365431 0.0422184 -0.00913601 0.0408196 -0.00823463 
0.00195388 0.00715809 -0.021605 -0.00231518 -0.0102754 0.0292302 0.00570862 -0.0163953 
-0.0042539 -0.188478 0.00272311 -0.0159644 0.0793608 0.0576096 0.109837 0.00896173 
0.0629122 0.196731 0.015382 -0.0453317 0.0317082 0.0174242 -0.0349856 0.00939791 
-0.00287491 0.00580074 0.0149133 -0.0085807 0.0296267 0.0218885 -0.00953861 0.0190958 
-0.00490707 0.258451 0.00300398 0.0344263 0.0745676 0.0267272 0.124349 -0.0132611 
-0.0364594 -0.169362 0.0138999 -0.0168435 0.0703323 0.0668153 0.0765551 -0.0154332 
-0.16218 -0.230704 -0.0109962 -0.00229906 0.101752 -0.016281 0.134188 0.00369891 
-0.0219253 0.197444 0.0204451 0.0245461 0.101103 0.0112343 0.130634 -0.0173 
-0.00615642 0.0794604 0.0104762 0.00696217 0.0567227 0.0133279 0.0530645 0.0140985 
0.044181 0.094292 -0.00424386 -0.0472084 -0.0246545 0.00446964 -0.146833 -0.00705495 
0.0159584 -0.142759 0.000576614 0.0229222 -0.0823681 0.0519071 0.0411291 0.00481789 
-0.0536448 -0.361532 -0.0188234 -0.0224361 -0.0645289 0.09416 0.0315084 0.00081883 
-0.0396155 -0.349559 -0.00839931 -0.00963703 -0.10932 0.0846097 0.0972788 0.00977363 
-0.0621853 -0.223708 0.0211355 -0.0202729 0.0751563 0.0324539 0.156455 0.0196216 
-0.151157 -0.212137 0.019271 -0.0165096 0.119701 -0.00314061 0.0836301 0.00909975 
-0.0260618 0.294073 -0.0115993 0.00679827 0.0618191 0.0166798 0.0436474 0.0128461 
-0.0222348 0.0165751 0.0206484 -0.0272369 -0.0348701 0.0398133 0.0391086 -0.00249448 
-0.00913976 0.0181003 0.0126705 -0.0056389 0.0504029 0.0133014 0.0411364 -0.0107296 
0.00738638 -0.0556023 0.00155543 -0.00967866 0.00618457 0.0166662 -0.00965354 0.0173791 
-0.105771 -0.16295 -0.0153827 -0.0232301 0.0659129 0.0495267 -0.0266196 -0.0050699 
-0.037841 -0.206488 0.000808997 -0.0194016 -0.0097507 0.0534743 0.023794 0.0179773 
-0.0220571 -0.0167658 -0.00799414 -0.00788156 0.143617 0.0454413 0.146534 0.0204422 
-0.105587 -0.130339 -0.00900646 -0.024353 0.0427402 0.0257192 -0.0351328 -0.0192592 
0.00731075 0.0288557 0.0183198 0.0133889 0.113437 0.0247997 0.068642 0.0206778 
-0.0170726 0.00962703 -0.00197003 0.0181183 0.048183 0.0111559 -0.0609196 -0.00587789 
-0.0314924 -0.213863 0.0131779 0.0155926 -0.083883 0.0672301 0.108895 0.0152836 
0.00599144 0.0534882 0.00813357 -0.00862592 0.0194731 0.0130115 0.0302604 0.00887147 
-0.0929496 -0.145945 0.00269513 -0.0375227 0.0995952 0.0303457 -0.0256611 -0.0119893 
-0.00330681 0.197303 -0.0169769 0.0200101 0.0326204 0.0203548 0.0175127 -0.0161937 
0.0560867 0.288276 0.00155314 -0.0105387 0.0383541 0.0204885 -0.00901973 -0.0179239 
-0.0178316 -0.12723 -0.00028724 -0.00688182 0.0815366 0.0507666 0.099145 -0.0133379 
-0.0135068 0.00986995 -0.00436044 -0.0138196 0.168548 0.0374678 0.137676 -0.0115069 
-0.0113582 -0.111726 -0.0220765 -0.0184001 -0.0275867 0.0240735 0.00292297 0.00421541 
-0.0199843 0.051237 -0.000269398 0.000729198 0.0321555 -0.0137347 -0.0058248 -0.00570057 
-0.0667319 -0.116306 0.0186831 0.00643041 0.0441486 -0.02438 0.0685683 -0.00793121 
-0.0793081 -0.165821 0.00483824 -0.0248725 0.10372 0.00491449 0.000643028 0.0204518 
-0.00880976 -0.0512246 -0.0118007 -0.010799 0.158146 0.0425866 0.139887 -0.0207257 
0.00413567 -0.0316205 0.000219623 0.00627095 -0.00473375 -0.00949675 0.037066 -0.00661821 
-0.0185932 0.0103352 0.016952 -0.0126219 0.0210292 0.0165925 -0.0426066 0.0216506 
-0.0221874 -0.0138991 0.00370349 -0.0182617 -0.0380806 0.0430924 0.0184206 -0.019582 
-0.0479019 -0.20576 -0.00461121 -0.0142484 0.0937892 0.0401692 0.0824609 -0.017493 
0.0532263 0.138383 0.00674121 -0.0484792 0.0348654 -0.0090514 -0.175749 -0.0187608 
-0.0192211 -0.0355678 -0.00935817 -0.00794031 0.211215 0.0636434 0.185346 -0.0162662 
-0.117342 -0.224171 0.0074726 0.00935438 0.105177 -0.0231503 0.0462563 0.0119909 
0.0207984 0.0614694 -0.0187011 -0.0176281 -0.0121163 -0.00240578 -0.0527993 0.0177183 
-0.132331 -0.193096 -0.00387179 -0.0129461 0.111185 -0.0214866 0.0773121 -0.0153365 
0.00735733 0.145211 0.00504206 0.0136248 0.0927286 -0.0207607 0.104113 -0.00367446 
-0.180161 -0.258205 0.00882889 0.0177953 0.123092 -0.0397285 0.119124 -0.0122383 
-0.0157541 -0.152172 0.00559418 0.0161116 0.0582181 0.0131581 0.0709302 -0.0188096 
-0.0285836 -0.148906 -0.0109966 -0.0398481 0.0655005 0.0477091 0.0356426 -0.00055229 
-0.0201191 0.0115825 0.0144032 -0.00101059 0.0645422 0.00438413 0.000342145 0.0201919 
-0.0136024 0.161779 0.000883035 0.0296442 0.0620237 0.0267771 0.0969477 0.000499432 
-0.012746 -0.172696 -0.00218753 -0.0361765 -0.000843697 0.0557341 -0.00449736 -0.0200439 
-0.0134685 0.223228 -0.0170334 0.0118722 0.0782285 0.00457544 0.12442 -0.0168689 
-0.0524532 -0.187528 0.00610563 -0.0242699 0.047314 0.035568 0.0321882 -0.0145025 
-0.0402651 -0.197925 0.018684 0.00483949 0.105215 0.071187 0.187922 0.00888903 
0.0016225 0.236801 0.0160923 0.000330398 0.0485889 -0.0160045 0.017507 0.0112797 
0.000490282 -0.00601638 0.0186513 0.0017746 0.109247 0.0257033 0.0945407 0.0216457 
-0.182649 -0.277959 -0.0204909 0.02055 0.141416 -0.0412717 0.158005 -0.0143793 
0.00473845 0.160197 -0.0164708 0.0290579 0.0524642 0.0028367 0.0132846 -0.00846453 
-0.0543596 -0.101543 0.00597972 -0.0236679 0.0123558 0.00730155 -0.0329465 -0.0110901 
-0.035543 -0.162678 0.0165959 -0.0153277 0.0797655 0.0265808 0.103939 0.021483 
0.0131582 -0.250285 0.0120231 0.0324953 -0.125809 0.0967469 0.0751657 0.0195167 
-0.0536772 -0.240966 0.0185176 -0.011619 0.0916786 0.0289448 0.162401 -0.00740618 
-0.133799 -0.191884 -0.0213212 0.029276 0.0846809 -0.00789774 0.0238731 0.0175368 
0.0150894 0.0293608 -0.0116504 0.0167346 0.0373176 0.0136466 -0.033125 0.00221384 
0.0255785 -0.0906833 0.000761319 -0.0210004 -0.0261341 0.0806513 -0.0237377 0.0208171 
0.0119092 0.188504 -0.00375022 0.033242 0.0488231 -0.012748 0.0437069 0.0173351 
-0.0410654 -0.19285 0.0095589 0.0156748 0.0458895 0.0395224 0.0728841 0.00595645 
-0.0264314 -0.0371885 0.000474795 -0.0356625 -0.0418126 0.0400453 0.00589634 0.00332426 
-0.0707352 -0.211598 0.0166776 -0.0101444 0.0449626 0.00800502 0.109277 -0.0212845 
-0.0149877 0.00707184 0.0174421 -0.0231233 0.145116 0.0207576 0.115895 0.00358306 
-0.014261 -0.000824518 0.00253679 -0.0160254 0.0762217 0.0166373 -0.0515044 -0.0123644 
-0.0483746 -0.236432 -0.000576461 -0.0204363 0.0904634 0.020383 0.169279 0.00923878 
-0.0155137 -0.0797093 -0.0158724 0.004801 0.11939 0.0336659 0.101646 -0.0143254 
-0.0319088 -0.151819 -0.0105563 -0.0124515 0.0918721 0.020726 0.1192 -0.0174665 
0.00663236 0.163221 -0.0125156 0.0217636 0.100581 0.0242195 0.107778 0.00580428 
-0.0577421 -0.249964 0.0174682 0.0128418 0.0683383 0.0588372 0.0896315 -0.0157332 
0.0657654 0.246044 0.0147049 -0.0462019 0.0634332 -0.00368124 -0.068885 0.0113846 
-0.0430888 -0.145113 -0.0125667 0.0147798 0.0322531 0.0237796 0.0438655 -0.0183845 
-0.0249095 -0.0572546 0.00371981 -0.00333287 -0.00554807 0.0119919 -0.015575 -0.00229274 
-0.0832912 -0.143943 -0.00624985 -0.0391035 0.078394 0.0323263 -0.0110572 0.00807597 
-0.0368727 -0.411879 -0.0181674 -0.0103691 -0.131827 0.112054 0.105746 0.00994598 
-0.0160866 0.0319726 0.00665766 -0.0196201 -0.0815043 0.0568257 0.0442532 -0.012684 
-0.0270011 -0.0798287 -0.0177862 -0.0108354 0.0389376 -0.00173732 0.0463051 -0.0174241 
-0.0572456 -0.227495 -0.0168762 -0.0181593 0.0437296 0.0342971 0.0917715 0.0111125 
-0.0111071 0.0209651 0.0172465 0.0124379 0.125391 0.0420789 0.0742743 -0.0153781 
-0.0276276 -0.0740603 0.0116164 -0.0279872 0.00974179 0.0171447 -0.0214984 -0.0224769 
0.0261999 0.0460683 -0.0136295 -0.0210835 -0.00940653 0.00967971 -0.0671698 -0.00960245 
0.0112993 0.00276506 -0.00106793 0.0104357 0.167597 0.0287056 0.138434 -0.0101518 
-0.0365153 -0.220134 -0.0149051 -0.0378992 0.122944 0.07411 0.204881 -0.008969 
-0.0189936 0.266381 0.00718608 0.00225173 0.0591025 -0.00928926 0.0122007 -0.0151867 
-0.00232584 -0.188044 0.0039518 -0.0358881 0.00290732 0.0353473 0.0121644 -0.0210616 
0.0708064 0.225757 0.0170765 -0.0103109 0.0108408 0.0100674 0.00600098 0.00956522 
-0.0682553 -0.248962 0.0102128 -0.00942069 0.0758291 0.0610838 0.0869181 -0.0208867 
-0.0292893 -0.0842062 -0.0143237 -0.0414956 -0.012142 0.0242305 -0.0268048 0.00181995 
-0.0430199 -0.403268 0.0117641 0.000928324 -0.100465 0.0958198 0.0730905 0.014672 
-0.0178305 0.162079 0.00167259 0.0222425 0.0297189 0.00491623 0.0489968 -0.00659512 
-0.0200439 -0.177666 0.0111173 -0.00971988 0.0606994 0.0379527 0.129869 0.0148001 
0.001853 0.314217 -0.0184957 0.0247594 0.0343925 0.00595933 0.0863525 0.0102492 
-0.0315073 -0.164819 0.00424028 0.0012581 0.0415792 0.0409553 0.0764132 -0.00904605 
-0.0143385 -0.0578881 0.0204007 0.00202235 -0.00783018 0.00492374 0.0233932 -0.0162532 
0.0524133 0.207308 0.00728988 -0.0167163 0.0110387 0.000802823 -0.00713747 0.0206434 
-0.0313764 -0.0979639 -0.00300231 -0.00811595 -0.0248253 0.0241114 0.061747 -0.00174865 
-0.0804693 -0.109903 -0.0178318 -0.00202669 0.0636247 -0.0015248 0.0292064 -0.0104653 
0.00109538 -0.00631886 0.0158415 -0.0202457 0.130744 0.0401504 0.0887873 -0.0073362 
-0.0105892 0.245121 0.014881 0.0327968 0.0490842 -0.0038955 0.0985606 -0.0132847 
-0.0473345 -0.0838182 -0.00786943 0.0083872 0.0442312 -0.0177803 0.0132849 0.00970891 
-0.019587 -0.145941 0.0205721 0.000617523 0.0616969 0.0213704 0.114058 -0.0085734 
-0.0507988 -0.125283 -0.00327292 0.0127531 0.127167 0.0484218 0.0889291 -0.0155141 
-0.0394858 -0.393556 0.0150903 -0.00629246 -0.0624806 0.0955562 0.0114825 0.0148218 
-0.0360148 -0.373299 -0.00285558 -0.0220181 -0.0641412 0.0900699 0.060959 -0.0134542 
-0.00190341 0.132275 0.0176927 0.0029308 0.014667 0.0176785 0.0353251 -0.00581933 
-0.0319391 -0.31454 -0.0104462 -0.0290824 -0.0206961 0.0735628 0.0173625 -0.00668624 
-0.156028 -0.266344 -0.0136593 0.0235425 0.131958 -0.0344132 0.140473 -0.00508455 
-0.0320277 -0.248111 0.00239068 -0.0367739 0.115904 0.056635 0.166511 -0.0164578 
-0.0944728 -0.137255 -0.00283748 0.0160228 0.0483397 -0.026986 0.0616722 0.0098102 
-0.0472594 -0.0380671 -0.0213618 -0.0102848 -0.0347265 0.0427957 -0.0241284 -0.010358 
-0.101847 -0.199961 -0.0193516 0.012811 0.0804392 -0.00724401 0.119688 -0.015166 
0.00812057 -0.00185579 -0.0104432 -0.0108191 0.211538 0.0468485 0.159926 -0.0118624 
0.0115703 0.022168 0.0149731 0.0192681 0.07668 0.0292202 -0.043826 -0.018611 
-0.038264 -0.10127 0.0176199 0.0088438 0.165394 0.0351382 0.146417 0.0192832 
-0.0538802 -0.249233 0.000820854 -0.0221379 0.0665573 0.0350795 0.0730539 0.00773926 
-0.0669823 -0.212729 -0.0199022 -0.0318282 0.0729859 0.0308924 0.139531 -0.0200473 
-0.0395103 -0.250985 0.02103 -0.0152581 0.144199 0.0621209 0.212726 -0.0212315 
-0.0349084 -0.146995 0.0148988 -0.0050195 0.104824 0.0590532 0.0919436 -0.0156901 
-0.00469294 0.0463722 -0.00864833 -0.00248706 -0.0119147 0.00451672 -0.0928771 -0.000328951 
-0.0582573 -0.189124 0.00258353 -0.0102533 0.0732078 0.0490583 0.153222 0.0122111 
0.00339793 -0.24944 -0.00961008 0.0308703 -0.132252 0.0918708 0.103262 -0.00274483 
-0.0114665 0.279307 0.0186271 0.040716 0.0775844 -0.00505866 0.0159983 0.0129604 
-0.0485756 -0.220428 0.0133498 0.00580057 0.0437622 0.043709 0.0671976 -0.00876312 
-0.0285098 0.237274 0.0130416 0.0265363 0.0853457 0.0057939 0.0965777 0.00550734 
0.0123224 -0.00564463 0.000972548 0.0198908 0.0372511 0.00945822 -0.00152411 0.0117984 
-0.0294974 -0.112239 0.0094517 0.017156 0.0815534 0.0443785 0.0986768 0.0215292 
-0.0356213 -0.240999 0.0104268 -0.039999 0.00470339 0.0479836 0.01875 -0.00982027 
-0.0236938 -0.184147 0.0130432 -0.00387544 0.0456849 0.00948721 0.0436282 0.00450708 
0.005354 0.0537644 0.0045807 -0.0125237 0.000263247 -0.0171879 0.0373182 -0.00611766 
-0.0257937 -0.0458436 -0.00820138 -0.0325561 -0.00684457 -0.000215153 -0.0304017 0.00766537 
0.000719235 0.0761946 0.0219753 0.0139301 0.0933173 0.0204331 -0.0447084 0.00883862 
-0.0336315 0.198607 -0.0123695 0.0404116 0.104513 -0.00134853 0.118934 0.0070336 
-0.0377279 -0.147032 0.0112607 -0.0317707 0.00156502 0.0424829 0.00841191 -0.000277677 
-0.0192798 0.00942993 0.0053548 0.00633373 0.0797168 0.0269631 -0.0648439 0.00742907 
-0.102184 -0.182717 -0.0017006 -0.0154924 0.116741 0.00664086 0.0212629 -0.0227077 
-0.0125728 -0.0512735 0.0142936 -0.00637612 0.131416 0.0222675 0.0984655 0.0121517 
0.0431249 0.182838 0.0196695 -0.0409902 0.0549611 -0.00585848 -0.0774594 0.00693744 
-0.0136402 0.0037944 -0.00852712 -0.00740954 0.0456342 0.016674 -0.0269496 0.0169508 
-0.044332 -0.118252 -0.00784745 -0.00948962 0.0481283 0.0183349 0.00347788 -0.00278737 
-0.00286843 -0.0395079 0.0168352 -0.001272 0.196477 0.0168216 0.143347 -0.00892902 
-0.128442 -0.235349 0.0101074 0.0121635 0.111437 -0.00220469 0.0425665 -0.0173569 
-0.0185492 -0.0242573 -0.00337302 -0.00193167 0.0980129 0.0153094 0.0727472 0.0162022 
0.00476604 -0.0252242 0.0093021 0.0112474 0.112316 0.0329868 0.0976387 -0.0209944 
-0.0462195 -0.055702 0.00419863 -0.024316 0.0231752 0.0294941 -0.0112903 -0.0204391 
-0.0180015 -0.0571054 -0.00524947 -0.0242776 0.00202191 0.00724473 -0.000544192 -0.0153777 
0.00598126 0.00155144 0.00665991 0.00355779 0.158138 0.0117411 0.111115 0.014698 
-0.0765999 -0.150249 0.00712137 0.0152154 0.0887449 0.0175809 0.0633013 -0.0164426 
-0.0223596 0.0190156 -0.00476706 -0.0108206 0.0286939 0.0269668 -0.0466232 0.0125435 
-0.0135929 0.00691215 0.0138023 -0.0161354 0.0323021 0.0327591 0.0212255 0.0169926 
-0.000341246 0.023335 0.00301037 -0.000768545 0.124288 0.0151189 0.106789 0.014413 
-0.10882 -0.164779 0.0127728 -0.0212206 0.0884491 0.0161537 0.0299854 -0.0174706 
-0.00835162 0.0181238 -0.00403059 0.0138893 0.134713 0.038498 0.116272 -0.0217659 
-0.0436209 -0.220609 -0.0139478 -0.00817448 0.0946635 0.0377046 0.160354 -0.0199666 
-0.0275927 -0.241426 0.00579209 0.0101371 -0.0954525 0.0388694 0.0610629 0.00646251 
-0.0374068 -0.117274 0.0192793 -0.0201972 0.0753484 0.019536 0.0370391 -0.00692126 
-0.0211295 0.0193831 -0.0105716 0.0209646 0.0462821 0.0328467 -0.0389344 0.0170821 
-0.0805586 -0.353696 0.000352171 0.00490398 0.133247 0.0218759 0.20344 -0.0139871 
-0.0300499 0.184704 0.0122328 0.0151291 0.0726549 -0.0025247 0.109638 0.0124649 
-0.00650245 0.220873 0.0166969 0.00373997 0.043933 -0.0165462 0.0257463 -0.00136567 
0.00715704 0.0657663 -0.000937735 -0.00930341 0.0295617 0.00122088 0.00673591 -0.00512946 
-0.0136236 -0.0868385 -0.0068728 -0.0116604 0.0203432 0.00883676 0.0301956 0.00733866 
-0.0573223 -0.303704 -0.0214547 -0.0106372 -0.0321516 0.0526244 0.0219821 0.0132561 
0.0131554 -0.0672874 -0.0147929 -0.0183511 0.0236222 0.0460329 0.0397362 -0.012144 
-0.110137 -0.199766 -0.00570988 0.0233953 0.0934714 -0.0172965 0.0653565 -0.0085438 
-0.00707578 -0.202132 0.0055783 -0.014848 0.135934 0.0389549 0.178415 0.015562 
-0.0429781 -0.168192 0.0037865 0.0111515 0.0399502 -0.00112692 0.10579 -0.016075 
-0.0365396 -0.175414 -0.00430942 0.0167644 0.0849 0.0260373 0.0640166 0.000593422 
-0.0153764 -0.177573 -0.0111408 -0.0362435 0.111019 0.0726576 0.107571 0.0171763 
-0.0291557 -0.382453 -0.0041756 0.00780397 -0.129067 0.103547 0.0771423 0.00614434 
-0.00140065 -0.112943 0.00151547 0.0234186 -0.0483457 0.0144334 0.0157052 0.00739058 
-0.0954879 -0.131077 0.00608279 -0.0177748 0.0591316 0.0382818 -0.0348868 -0.0157773 
-0.117708 -0.201148 -0.00819852 0.00515071 0.0897621 -0.00284514 0.0900082 0.00991532 
0.0147677 -0.168224 -0.00510621 -0.00342417 -0.120013 0.0997778 0.0847083 -0.0207068 
-0.0510682 -0.12218 0.0220885 -0.0030526 0.0436285 -0.0232864 0.0523606 0.00742903 
-0.00672998 -0.0678326 -0.000561484 -0.00931941 0.0147437 0.0294495 0.0271126 0.0109544 
-0.00545143 0.0183036 -0.015781 -0.00925205 0.101744 0.0183496 0.0590437 0.000657764 
-0.0508399 -0.20774 0.00724619 -0.00684064 0.0964536 0.0484967 0.0928591 -0.00727635 
-0.0349841 -0.245266 0.000166468 -0.00845572 0.0511948 0.0325843 0.0656186 -0.0131856 
-0.0260291 -0.207707 0.00143312 -0.0200422 0.0670974 0.0239156 0.102731 0.0156599 
0.00202484 -0.137653 -0.0123123 -0.0141774 0.0565149 0.0304385 0.0979157 0.00775486 
0.0544801 0.154287 -0.0161358 -0.0503549 0.0370191 0.00261139 -0.0907226 0.020574 
-0.0474238 -0.239889 -0.00236015 0.0122585 -0.0727637 0.0620266 0.0646716 -0.0132879 
-0.0297244 -0.240569 -0.00569611 0.0121547 -0.0920816 0.0623289 0.0600317 -0.00673578 
0.00936873 0.047247 0.0127146 -0.002525 -0.0269468 0.00828663 -0.0740624 0.0161491 
-0.00684213 0.0102459 -0.0197967 -0.00165666 0.0153999 0.00806444 0.0141739 -0.00129348 
-0.00724244 -0.00549002 -0.0134687 0.0176334 0.178002 0.0232853 0.130607 0.00951795 
-0.0321285 -0.209592 -0.00486943 -0.0255895 0.110374 0.0562551 0.176179 -0.0139724 
-0.0040408 -0.0163271 -0.0194167 0.0064939 -0.0127298 0.0128987 0.00472692 -0.00219198 
-0.0210214 0.262247 0.0191499 0.0313033 0.0484319 0.00274646 0.0582752 0.0172027 
-0.0643251 -0.264188 0.0169737 0.0077024 0.0486837 0.0198415 0.0796148 -0.0156008 
0.0799205 0.290135 -0.00598722 -0.0224476 0.0393013 0.0323938 0.00595699 0.00257746 
-0.0131075 0.0066125 -0.00617271 -0.00783523 0.141264 0.0125379 0.139218 0.0085631 
0.00680968 0.138067 -0.00734686 -0.00804696 0.00768938 -0.00101426 0.0408663 0.000447683 
0.00774172 0.0740514 -0.00666328 -0.00310496 0.0321977 0.0206839 0.0235153 0.00567035 
-0.00995324 -0.0951777 -0.0163983 0.00520047 0.124788 0.0501325 0.0867405 -0.0198335 
-0.00791074 0.287238 -0.00118237 0.00616295 0.069328 -0.000292448 0.0918678 -0.00144548 
-0.158111 -0.227122 0.00302649 0.00622094 0.112144 -0.018361 0.133555 -0.0123309 
-0.0570486 -0.255663 -0.000103116 -0.0162654 0.0812492 0.0529919 0.148214 0.0186623 
-0.0171688 -0.0357813 0.00591856 -0.0146826 -0.0100917 0.0320608 -0.00871617 0.00677299 
-0.00327001 0.0802851 0.00738217 -0.0119067 0.0766648 0.00965603 -0.0158212 -0.00131416 
-0.0235252 -0.0579129 0.0139618 0.0395016 0.108204 0.0132694 0.0964644 -0.00739882 
-0.021941 -0.207317 0.0102551 -0.026066 0.0872074 0.0574745 0.108203 -0.010931 
0.0178283 0.00503595 0.00990551 -0.0204667 0.03832 -0.00241398 -0.0295822 -0.0181097 
-0.100414 -0.14114 -0.00582006 0.0105465 0.0792539 -0.0265381 0.0478479 -0.0173675 
-0.000444699 0.152142 -0.0215655 -0.00403584 0.0365244 -0.0150211 0.0127508 -0.00424316 
0.000209349 -0.219096 -0.00182277 0.011284 -0.123613 0.07213 0.10405 -0.0135929 
-0.0618687 -0.206918 -0.0129776 -0.00298201 0.0555103 0.0550421 0.0741923 0.0135414 
-0.0198756 0.122124 -0.00536555 0.0309139 0.0616348 1.67545e-06 0.0391001 0.00361274 
-0.130985 -0.204395 0.0192858 0.0305793 0.0988228 -0.00462871 -0.00575347 -0.0220961 
-0.0394516 -0.133884 -0.00610389 -0.015651 0.129421 0.0298796 0.154099 -0.0175708 
-0.0186015 -0.112261 0.00602436 0.0104146 0.113301 0.0354513 0.212589 0.0137933 
-0.0137131 0.0465163 0.0107292 -0.0172367 -0.03707 0.040155 0.0568617 0.0128362 
0.020012 0.191415 0.00343684 -0.00859924 0.0550661 0.012841 -0.00529041 0.000935019 
-0.0458618 -0.208845 0.0149558 -0.00150049 0.0419587 0.0266331 0.0773316 0.016657 
-0.143468 -0.208218 0.0145404 -0.00961087 0.119972 0.00812279 0.0351471 0.0144072 
-0.0122806 0.000877685 -0.0134019 -0.0294902 -0.0566132 0.0192974 -0.011818 0.0182419 
-0.0642088 -0.219547 -0.0198789 -0.0116914 0.0967826 0.0237415 0.150397 0.0195364 
0.0132639 0.271777 0.00196072 0.000406271 0.0609452 -0.00957194 0.00766263 -0.0104364 
-0.0166208 -0.201406 0.0198166 -0.0024465 -0.0723824 0.0461595 0.0508731 -0.00735919 
-0.0295255 -0.206427 0.00444873 0.00100731 0.0619906 0.0481195 0.0736244 -0.00277837 
-0.0184791 0.301773 0.0219428 0.039169 0.0652638 -0.0142038 0.0650126 0.00135701 
-0.0292357 0.203631 0.0158061 0.0133201 0.054036 -0.0143721 0.0679436 -0.0150929 
0.00778438 0.100232 -0.0058572 0.000969265 -0.00430834 0.00799088 -0.0123035 0.00406751 
0.00234407 0.0669399 -0.0126237 -0.0124309 0.0473687 0.0155277 0.0307379 0.00696085 
-0.0300778 -0.2662 -0.0014707 -0.0471599 0.131229 0.098751 0.160752 0.00775222 
-0.02282 -0.27137 -0.0201912 -0.0509085 0.128728 0.116016 0.119154 0.00637658 
-0.023618 -0.193566 -0.00638198 -0.018704 -0.0485967 0.0477156 0.0296595 0.0111169 
-0.00482785 -0.0283967 0.0155015 -0.0275713 -0.0296447 0.0297205 0.0150754 -0.0122679 
-0.00163097 -0.230366 -0.00529134 -0.02443 0.0257397 0.0484124 0.00261061 -0.0131943 
-0.00486759 0.0389495 -0.00739415 -0.0313479 -0.0790977 0.0505146 0.059776 -0.00622075 
-0.0388477 -0.207149 0.00789584 -0.00852781 0.110569 0.0542228 0.0994258 0.0071375 
-0.0123801 -0.012779 0.0211166 -0.00763947 -0.0286927 0.0418662 0.021231 -0.00458462 
-0.0436995 -0.201656 -0.0223267 -0.0235975 0.0356037 0.0241211 0.051073 -0.0226292 
0.000358244 0.0953137 -0.010134 0.0181882 0.0194326 -0.00898198 0.0148248 0.00505701 
-0.0100952 -0.0589923 -0.021287 -0.0165802 0.0456438 0.0102808 0.0788098 -0.0166046 
-0.0256995 0.223431 0.0122513 0.0328227 0.0779554 0.0161687 0.067498 -0.0128502 
-0.0543011 -0.112169 -0.00965389 -0.0306496 0.0709029 0.0169273 -0.0210131 -0.0198678 
-0.0195209 -0.0176933 0.0108712 -0.00322677 0.156384 0.0476473 0.111326 -0.0103996 
-0.00954224 -0.130565 -0.00152339 0.0279563 -0.0540461 0.0262584 0.0295446 0.00572977 
-0.00230981 0.0310548 -0.00741151 -0.0332192 -0.00750375 -0.0061401 -0.0704723 -0.00324672 
-0.00902627 -0.135196 0.00807397 0.0166282 0.0214723 0.0516767 0.0520273 -0.00787337 
-0.0154947 0.274921 0.0155882 0.013913 0.068835 0.0303952 0.0878613 -0.0135612 
-0.0140112 0.170975 -0.0144596 -0.00358381 0.0262109 -0.00893673 -0.0244561 -0.00303207 
-0.0234442 -0.0191063 -0.000671282 0.00343647 0.213634 0.0524881 0.150892 0.000558702 
-0.0224492 0.000647514 -0.00166079 -0.0106991 0.21417 0.0409148 0.180418 -0.0112834 
-0.097966 -0.143789 -0.0023967 -0.0194348 0.0534083 0.0465303 -0.0550137 0.00863966 
-0.00312358 -0.0222472 -0.0110235 -0.0284694 -0.0197018 0.0189691 2.34558e-05 0.0106271 
0.000741663 -0.015516 -0.00284278 -0.00547518 -0.0568002 0.0510375 -0.00453829 -0.0168852 
0.0320696 0.115034 -0.000313424 -0.055359 -0.0202775 -0.0188072 -0.175512 0.00754926 
0.0759791 0.240183 0.00456191 -0.0465305 0.0672378 0.00153396 -0.076249 0.00808308 
-0.0399257 -0.106294 0.0155705 0.00220885 0.0358631 0.0180645 0.0255416 0.00639532 
0.0204926 0.0519466 0.00270157 -0.0197287 -0.00799845 0.0151868 -0.0758835 0.0138609 
-0.0228682 -0.257654 -0.0207321 -0.0132524 0.0762651 0.0502541 0.0710963 -0.0210946 
-0.00967275 0.00781146 -0.00750109 -0.0083438 0.0603356 0.00818829 -0.0381897 -0.00540867 
0.076825 0.276389 0.0204468 -0.0368578 0.0351019 -0.00855848 -0.00648121 0.0179889 
-0.0207975 -0.00254682 -0.00413906 -0.0040653 -0.00559995 -0.0140939 -0.00829379 -0.00465276 
-0.0333333 -0.0719883 0.00845172 -0.00943813 0.198226 0.0572362 0.171046 -0.00839907 
-0.00479697 0.177806 0.00396014 0.0187025 0.0311351 0.00496214 -0.00238809 0.00805189 
-0.0247736 -0.194709 -0.021966 0.0286031 -0.0827586 0.0695961 0.100923 -0.000520315 
-0.0426482 -0.341041 0.0215273 -0.00231363 -0.0490841 0.0744048 0.0210825 -0.0127685 
-0.0377613 -0.39453 0.00654753 0.0105566 -0.120802 0.0814298 0.104233 -0.0166284 
-0.00485796 -0.285741 0.0161963 -0.0161496 -0.129861 0.102681 0.0782203 -0.00123278 
-0.0401167 -0.0544037 -0.0114218 -0.0075732 0.172714 0.0604559 0.165567 -0.0171426 
-0.0558114 -0.187768 -0.0198985 -0.0177941 0.0622186 0.0399959 0.0750127 0.0166225 
-0.0458618 -0.0667082 -0.00234139 -0.0272229 0.0293784 0.00356782 -0.022989 -0.0190471 
-0.0372091 -0.231875 -0.0184646 0.00422771 0.0748676 0.0444101 0.147598 -0.0114522 
-0.00115126 -0.207865 0.00789246 -0.00794077 -0.104628 0.0871277 0.0508544 0.00479663 
-0.0379163 -0.196453 0.0142629 0.00509008 0.0631565 0.0262746 0.0693944 -0.011833 
-0.0777945 -0.0998449 -0.00134282 -0.0357258 -0.0184797 0.0582486 -0.02362 -0.0152641 
-0.020022 0.0638727 -0.0216721 -0.000969716 0.0141406 -0.00506138 0.0247194 -0.0199216 
-0.0512564 -0.124105 -0.0110228 -0.0134646 0.0836374 0.00985765 -0.00748911 -0.00674066 
0.0158549 0.100996 -0.0191003 0.0215302 0.0355819 0.00724814 0.0697498 0.00370401 
-0.00802815 -0.248359 -0.0161887 -0.0519486 0.109995 0.136588 0.123587 -0.00320467 
-0.0377963 -0.0511478 0.0123618 0.00177198 -0.0102554 0.0231094 -0.0372314 0.00180883 
-0.101164 -0.177301 -0.0205723 0.0157366 0.0873306 -0.0236164 0.060184 0.0131465 
-0.0217218 0.0184733 0.00223985 -0.00722462 0.055298 0.0156308 -0.0274353 -0.00772686 
-0.169075 -0.236864 -0.00361883 0.0113019 0.118324 -0.00619652 0.0930429 -0.0109085 
-0.00908563 -0.137794 -0.0104046 -0.00107208 0.0438206 0.0145412 0.0282892 0.00442084 
-0.120513 -0.200341 -0.0167997 0.00175882 0.09927 0.0107055 0.0843754 -0.00554248 
0.0175878 0.0200756 0.00953105 -0.00107358 0.0874125 0.0256446 0.0909623 -0.00484568 
-0.00770367 -0.0745782 0.0100049 -0.00225305 0.0275554 0.0103582 0.0289977 0.0178221 
-0.0691253 -0.245362 -0.00191835 -0.0252003 0.0373003 0.036969 0.0752841 0.0197053 
0.00989497 0.185103 -0.00291256 0.0242372 0.0553935 0.0100492 0.00146781 0.00745972 
-0.066684 -0.104114 -0.0114459 -0.0179448 -0.00516785 0.0248492 -0.0373049 -0.00373152 
-0.0351707 -0.260486 0.0181743 -0.00647643 -0.0678577 0.0739806 0.0398801 0.00869678 
0.00700966 0.265323 0.0118235 -0.00513297 0.0625133 -0.000851938 0.0101912 -0.0238235 
-0.0229504 0.200928 -0.0218596 -0.000100859 0.0495989 0.0044466 0.0881566 0.0118752 
0.00105629 0.208999 0.0107933 -0.00239941 0.0328587 -0.0161756 0.0252528 -0.00168061 
-0.018696 0.132678 0.0163171 0.0246204 0.0141085 -0.0137549 0.0280327 0.0207147 
-0.0876457 -0.180405 -0.020636 -0.0439175 0.114745 0.000850102 -0.027285 0.0199088 
-0.0152659 -0.16593 0.0210971 -0.00960133 0.0782213 0.0795944 0.0886978 -0.0182467 
-0.03199 -0.0651824 -0.00592312 0.0175833 0.0260447 -0.0224514 0.00174927 0.00136523 
-0.0132825 -0.228697 -0.00651412 -0.000469278 0.0949123 0.0900911 0.173035 -0.0153906 
-0.000566069 0.0552094 -0.0069388 -0.00868603 -0.0317259 0.000614516 -0.0940455 -0.000838351 
0.00986994 0.106933 -0.0127907 -0.02119 0.0179037 0.00785376 -0.0665575 -0.0129024 
0.00383391 -0.0168471 -0.0215909 -0.0153911 0.209291 0.0319349 0.177112 -0.000376151 
-0.0396302 -0.311937 -0.00315344 0.011046 -0.100121 0.067977 0.0685586 -0.0143568 
-0.0372806 -0.240796 -0.0172179 -0.0430679 0.0482968 0.0990044 0.0229147 0.00100532 
-0.0334225 -0.218285 0.0153828 -0.00924259 0.0616958 0.0227167 0.0884616 0.00594989 
-0.0625693 -0.178618 0.0172657 0.00758757 0.0549248 0.0367759 0.130222 -0.00162119 
0.000176593 -0.0467285 -0.0115204 0.0117495 0.100704 0.0168627 0.0760702 -0.0026128 
-0.0474992 -0.380857 0.0112855 -0.0221639 -0.0820108 0.0960324 0.0553579 0.020445 
-0.00701644 0.0991056 -0.004335 0.00388659 0.116155 -0.0101833 0.0248318 -0.0216401 
0.00466404 0.104755 0.0171027 0.0238987 0.0582424 -0.0107745 0.0499691 -0.0039666 
-0.0322563 -0.0564736 -0.0117058 -0.0180066 0.148529 0.0281603 0.14333 -0.0152196 
-0.0153914 -0.0301483 -0.0014849 0.0143328 0.0855488 0.000125049 0.0742065 0.00489637 
-0.026288 0.0110283 0.0205675 0.0199896 0.0599042 0.0387368 0.0414573 0.0116903 
-0.0129178 -0.15107 0.000144327 -0.0052007 0.0646297 0.049789 0.0946111 -0.0138338 
-0.181669 -0.27266 -0.00437436 0.0223432 0.134014 -0.0369314 0.109049 0.0142081 
-0.0418738 -0.196808 -0.00411596 -0.0071454 0.0666457 0.0585781 0.0511966 0.0156065 
0.0100364 -0.102945 0.0157002 0.0111475 0.0624154 0.0469531 0.0628184 0.0166987 
-0.0191355 -0.143726 -0.00626674 0.0138815 0.0437846 0.00809896 0.0198846 -0.0133969 
-0.0219797 -0.103442 -0.0181258 0.00955849 0.108669 0.0213217 0.117057 0.0215005 
-0.0103529 -0.122672 -0.00345884 -0.00119126 0.00970565 0.0204664 0.0332543 0.0204548 
-0.0162872 -0.134221 0.0185838 0.00584176 -0.067669 0.0398135 0.0397122 0.0152473 
0.0116086 0.230396 0.0102614 0.0241105 0.0883955 0.0118745 -0.00562442 -0.0087171 
-0.0288378 -0.0726142 -0.01497 0.00891918 -0.020545 0.0387317 0.0549966 0.0213884 
-0.0678014 -0.14159 0.000655482 -0.0185612 0.0483835 0.0471745 -0.0216236 -0.0116573 
-0.0140662 0.169514 0.0102535 -0.00642379 0.0493199 -0.0164954 -0.00687773 -0.00910806 
0.0165218 0.271821 -0.0145739 0.0240625 0.0774431 -0.0130613 0.00829816 -0.0244384 
-0.0212909 0.0116249 0.0154386 -0.0194309 -0.0834892 0.0593969 0.022252 -0.017577 
-0.0460017 -0.126596 -0.0198166 0.00863088 0.0133444 0.0403621 0.01414 -0.0101558 
0.0124045 0.0252403 0.0020394 -0.0100864 0.0287712 0.00970881 0.00354721 0.0091224 
-0.00159432 0.0774365 0.00172353 -0.0310662 -0.0151629 0.01565 -0.0842776 -0.00700129 
-0.0285684 0.183372 -0.0197517 0.0136472 0.081061 0.0162894 0.0488246 0.0127542 
0.00220956 -0.0869744 0.00242009 -0.0234283 0.0831801 0.0309123 0.0681602 -0.00947943 
-0.0124539 0.0352845 0.00279399 -0.0166037 0.0441477 -0.0015761 -0.0549359 -0.0202399 
0.015302 0.0414739 -0.0112559 0.0266238 0.0233329 -0.00127065 0.0235043 -0.00849701 
-0.124285 -0.209383 0.00691395 0.00175782 0.0826784 -0.0328075 0.0882979 -0.0213201 
0.00945986 -0.108819 -0.018873 -0.0167241 -0.069701 0.0606998 0.0184407 0.00284417 
-0.0182686 0.128992 0.0112787 0.0272621 0.0510919 0.0056228 0.0861703 -0.0172264 
-0.0628727 -0.253434 -0.0194647 -0.0170134 0.0686093 0.0423438 0.0803161 -0.0210594 
-0.0176906 -0.240204 -0.00579161 -0.0079012 0.0073505 0.0604519 0.0257502 0.0187801 
-0.0719093 -0.0919463 -0.0190769 -0.0104783 0.0642485 0.00358093 -0.0059706 0.00684376 
-0.00345762 0.162236 -0.00308175 0.0116116 0.0355909 -0.0108729 0.022438 -0.00177412 
-0.0151018 -0.249736 0.00965378 0.00720841 -0.0678051 0.0693978 0.0396003 -0.0227848 
-0.0382905 -0.175964 0.018876 0.0027928 0.0750138 0.0410233 0.126813 0.0181908 
0.00266651 -0.043206 -0.00570097 -0.0123404 0.169328 0.0387016 0.180437 0.00956853 
-0.131692 -0.197482 -0.00697542 0.0245683 0.094674 -0.0276951 0.0207058 0.0199431 
0.0784375 0.231385 0.0119567 -0.0387743 0.0113519 0.0169262 -0.0277597 0.00307772 
-0.0293636 -0.2042 -0.00696577 -0.00161888 0.0630841 0.00973087 0.0704727 0.0138998 
0.0540518 0.135557 -0.0155115 -0.0684079 -0.000272492 -0.0272044 -0.196783 0.00143712 
-0.0091674 -0.0085489 -0.0110918 -0.0183209 -0.016055 0.0100941 -0.0123573 -0.0187041 
0.0324474 0.126631 -0.0148952 -0.0466607 0.00619716 -0.0218573 -0.211535 -0.00222007 
-0.016859 -0.0171749 -0.0195717 -0.000479363 0.0310484 0.0148049 0.0109695 -0.00978174 
-0.0261403 0.00775495 -0.00764234 -0.0207353 -0.087873 0.0405646 0.00393036 0.0182175 
-0.0364376 -0.214382 -0.0145075 -0.0175738 0.0902476 0.0534462 0.174071 -0.0079667 
-0.008184 0.224222 0.0142027 -0.013203 0.0749384 0.0168898 0.0181514 -0.0109669 
-0.0975736 -0.159582 0.000443558 -0.0178648 0.0779531 0.0252143 -0.0432147 0.00130015 
-0.0377117 -0.223433 -0.00905896 -0.024625 0.0530766 0.040585 0.0623687 0.0138207 
-0.0509776 -0.321138 -0.0087815 -0.0132038 -0.0876511 0.0955617 0.0610978 0.0202838 
-0.0955141 -0.174653 0.0219641 0.00231138 0.0634112 -0.0042937 0.0677242 0.00376074 
-0.0227069 -0.0141089 -0.00485895 -0.0161476 0.0772015 0.0126287 0.0660612 0.00913124 
-0.0127385 -0.0248575 0.0132532 -0.0183719 -0.0214545 0.0426137 -0.0133876 0.0151496 
-0.0580185 -0.0790886 -0.0196 -0.0255003 -0.0372167 0.0432425 -0.0170734 -0.0220215 
-0.047938 -0.169972 0.00400543 -0.0205861 0.0972666 0.0487754 0.223049 -0.0148471 
0.00461757 -0.102443 -0.00695502 0.0153877 -0.0199999 0.00512012 0.0209369 0.00631417 
-0.0126518 0.0737723 -0.0189292 -0.0100156 -0.0728911 0.0418382 0.0555845 -0.0130089 
0.00600869 0.206257 0.0153765 0.0191675 0.068513 0.00940688 0.0994014 -0.00972267 
0.00765264 0.0802084 0.00307482 -0.0428374 -0.00400023 -0.00786549 -0.129205 -0.00952986 
0.000719011 0.0966903 -0.0166239 0.00470739 0.120721 0.0229173 -0.00935304 0.0146349 
0.0102699 -0.0375848 0.00252199 -0.00107867 0.0616476 -0.0131689 0.06373 0.00315033 
-0.026873 -0.0578517 0.0190136 -0.0398594 0.00983561 0.0107338 -0.0253089 0.0107909 
0.0155341 0.0755117 0.0186819 -0.0183848 -0.020353 -0.0160138 -0.138194 -0.0166117 
-0.00981739 -0.182872 0.00790571 0.000469363 0.104294 0.0528582 0.157063 0.0124353 
-0.0571391 -0.0247601 0.0188595 -0.0162005 -0.0647748 0.0443545 -0.00743151 -0.0220435 
-0.0380055 -0.179968 -0.0193089 -0.0192605 0.0689298 0.0189027 0.138754 0.0159337 
-0.00880823 0.0528185 0.00389643 0.010529 -0.00336241 0.00421908 0.00622299 -0.0158714 
0.00553476 -0.0215376 0.0157061 -0.000401024 0.108984 0.0239259 0.0941405 -0.000191547 
-0.0264793 -0.250676 -0.0112353 0.00587451 0.0859943 0.0578024 0.145068 -0.0150319 
0.00951154 0.145712 -0.00427338 0.0136661 0.0339518 0.00353864 0.0552053 0.00142409 
0.0202167 0.089368 -0.0130245 -0.0342892 -0.0166576 -0.0256226 -0.131823 -0.00954596 
-0.0615128 -0.11345 0.0165745 -0.0158042 0.0307223 0.0160893 -0.0415277 -0.00386634 
0.0551245 0.211011 -0.0145171 -0.0320502 0.0154711 0.0321464 -0.00403512 -0.0165341 
0.00436342 0.175031 0.00473824 -0.0138839 0.0283762 0.0188208 0.0305742 -0.00521062 
-0.014153 -0.132779 0.0170447 -0.00771527 0.0453541 0.0297402 0.067819 -0.00734391 
-0.053688 -0.153659 -0.0110332 0.00921892 0.0791797 0.0313562 0.105602 -0.00532421 
-0.0540153 -0.184291 0.00239296 -0.00286735 0.0515567 0.0392772 0.109116 -0.0110772 
-0.0354733 -0.247637 -0.010111 0.00724264 0.0662654 0.0640747 0.073006 -0.0163891 
-0.0337949 -0.347493 0.00258546 0.00981812 -0.123766 0.0773466 0.107868 0.00483595 
-0.00281677 -0.127016 0.0013878 0.00811492 0.0372946 0.0374671 0.0204592 0.0212827 
-0.0174296 0.159339 0.0032512 0.0343571 0.0635535 0.00158611 0.05813 -0.0120483 
-0.0208997 -0.281021 -0.0218535 -0.00721094 -0.0240366 0.0678188 0.0031105 0.0146449 
-0.0136598 -0.178755 -0.00992426 0.00776418 -0.0174545 0.0335072 0.00817528 0.012001 
-0.0556098 -0.190598 0.000782027 0.00645856 0.0512079 0.035422 0.0561589 -0.0078375 
-0.0806583 -0.317957 -0.0140707 0.00321111 0.116996 0.0281291 0.186073 -0.012604 
-0.0193361 -0.287226 -0.0155245 0.0441707 -0.133241 0.0674823 0.146863 0.00611441 
-0.109988 -0.198061 0.00247767 0.0137507 0.0888272 -0.0297221 0.0916971 -0.0153183 
-0.0302845 0.0250683 0.0168993 -0.0422502 -0.0751194 0.0509087 0.0221958 -0.0213283 
0.0195017 -0.222424 0.0192117 -0.00196559 -0.0651718 0.0660272 0.047931 0.00460066 
0.0479294 0.213174 0.00270353 -0.0415801 0.0542097 -0.0110446 -0.112437 0.0180056 
-0.020554 0.22227 0.00796806 0.0327687 0.115757 -0.00651929 0.152428 -0.0212742 
-0.0112388 0.00613491 -0.0161702 0.0221008 0.00681634 0.00617908 -0.0370553 -0.0148438 
-0.0162779 0.060504 0.00758942 -0.0174714 0.0379065 0.00683298 -0.00542917 -0.0123305 
-0.0358346 -0.26411 0.0121714 -0.0364795 0.126774 0.128375 0.127464 -0.0163128 
-0.119314 -0.205627 0.00916437 0.0141451 0.0941322 -0.0206375 0.108914 -0.0006128 
-0.034729 0.195465 -0.000723586 0.0156497 0.0718532 0.00958945 0.0978022 0.0013742 
-0.0300261 -0.216828 0.00807303 0.00150729 -0.0673693 0.0512695 0.0558866 0.0155012 
-0.000413857 -0.130365 -0.0104285 -0.00890213 0.0683462 0.0438076 0.128313 -0.016362 
-0.0191152 -0.139603 0.00910817 0.0130825 0.0759859 0.0216576 0.0536297 0.0167641 
-0.0216604 -0.123783 -0.0133148 -0.000462348 -0.0908867 0.0713969 0.0580144 0.0116433 
-0.00506696 -0.15973 -0.0132209 -0.0106361 0.0936629 0.066926 0.123948 0.0150137 
-0.0691896 -0.106462 -0.00526507 0.0157409 0.0293843 -0.0287353 0.0687163 0.0101825 
-0.0228404 -0.175122 0.00464837 -0.0238838 0.114597 0.0708387 0.146115 0.0185495 
-0.00963128 -0.194621 -0.00937894 -0.0286161 0.0839223 0.0405237 0.192678 0.0160856 
-0.0666649 -0.118828 -0.0110896 -0.0164882 0.0450924 0.0217092 -0.0220229 -0.0062805 
-0.0205922 0.00795602 -0.0179515 -0.019941 -0.018099 0.027241 0.0269923 0.00165201 
-0.0042851 -0.10729 0.0146978 -0.00198128 -0.0418234 0.0104982 0.0184962 -0.0101393 
-0.00369734 -0.18282 -0.00181109 -0.0211286 -0.0205245 0.0690259 -0.000123099 0.0022149 
-0.00852404 -0.216118 -0.00670685 -0.0248246 0.0921355 0.124777 0.106641 -0.0197973 
0.000211654 -0.0324752 -0.0135357 -0.0213654 0.010208 -0.0190324 0.0111268 0.0051087 
-0.0401336 -0.239421 -0.0204497 0.0150574 0.0866548 0.0464571 0.079932 0.0141443 
-0.0321531 -0.101005 -0.00987468 0.0142909 0.0559345 0.0369181 0.0815213 0.00877416 
-0.0237125 0.00159716 -0.00695908 -0.0129206 0.126217 0.0171967 0.0905469 0.012307 
-0.00753578 0.0200184 0.0148973 0.0018091 0.042458 0.00698217 -0.0719028 -0.0174934 
-0.00728673 -0.220219 -0.0195316 -0.0342382 0.103578 0.0725426 0.0932321 0.00893469 
0.0208093 0.047257 0.00499955 -0.0294229 -0.0509325 0.0112409 0.0448325 -0.0120559 
-0.0185771 -0.32037 8.79323e-05 -0.0188565 -0.00926499 0.101425 0.0174639 -0.0229698 
-0.0150622 -0.0437175 0.0023065 0.0160109 0.169929 0.0507464 0.131131 0.00613049 
0.0227562 0.0343125 0.019395 0.000350344 -0.017026 -0.00269608 0.0118119 -0.00368849 
0.0247851 0.068665 0.000374518 -0.0246133 -0.0348047 -0.0129903 -0.106661 -0.0230923 
-0.02658 -0.282175 0.010186 -0.00299625 0.114525 0.0735788 0.188851 0.00040661 
0.00176133 0.0296645 0.00105414 -0.00822644 0.0134895 0.011378 0.0380676 -0.00933642 
-0.0208605 -0.155112 0.0180505 -0.0180939 0.109888 0.0376123 0.12073 0.00181982 
-0.0028286 0.0706399 -0.0176544 -0.024274 -0.058329 0.0627504 0.0453652 0.0179196 
-0.0896553 -0.136337 0.0178659 0.00726868 0.0626394 0.0103137 0.0200557 0.016571 
-0.014252 0.22171 -0.011287 0.0338298 0.0454281 -0.00432762 0.053103 0.014033 
-0.0289855 0.3094 -0.0207605 0.0173578 0.0602634 0.0163139 0.114354 0.000969825 
0.00819269 0.00096008 0.0166818 -0.012228 0.0443446 -0.00251064 -0.0512124 -0.0215825 
-0.0320533 -0.126905 -0.00559402 -0.00162317 -0.000976471 0.0172468 0.0462128 -0.00408384 
