-0.0169684 0.000699685 -0.0463624 -0.0797634 -0.0801453 -0.0235378 0.0324378 -0.0503968 0.0278364 -0.0882853 -0.0136364 -0.0751841 -0.04087 -0.074137 -0.035629 -0.0839932 0.00189889 -0.0179794 0.0260138 -0.0162537 0.00838236 0.0180684 0.0734996 0.0705513 0.0159567 -0.0613248 0.0765198 0.0577615 -0.0288696 0.0316674 -0.0552602 -0.0282678 -0.0429152 -0.00260298 -0.128729 -0.0173811 -0.00918824 -0.0703633 0.00417853 -0.0807426 -0.00400594 -0.00724489 -0.0531558 -0.0811594 -0.023824 -0.0848794 0.00799843 -0.0710287 0.0552405 -0.151571 -0.0569222 0.070764 0.0616436 -0.0814351 -0.0288773 -0.044487 0.112958 0.0936385 -0.0599377 0.108119 0.0119386 -0.0181865 -0.0334733 0.0241688 0.00333533 -0.0516224 -0.00751834 -0.100311 -0.0294685 -0.0135361 -0.0532121 0.0700933 0.0177757 -0.0996756 -0.11062 0.00624335 0.0768316 -0.0497426 -0.138847 -0.0842191 -0.0147085 0.0916529 -0.0710366 -0.042067 -0.192803 0.0252644 0.0446398 -0.161317 0.0283088 -0.152583 -0.0204754 -0.0561782 -0.142699 -0.0888667 -0.0516929 -0.0537168 -0.0436641 -0.134577 -0.0464104 -0.178451 -0.043726 0.0151682 -0.0352062 -0.110855 0.0648469 -0.0168473 -0.0141645 -0.0604705 -0.00354028 0.0182355 -0.0796873 -0.00899319 -0.00645415 0.0241884 0.0550278 0.0125599 -0.0646606 -0.00561394 0.0685879 -0.097625 0.0518197 0.0088257 -0.0154979 0.0429264 -0.0585768 -0.0375205 -0.127317 -0.000779028 -0.116035 0.0264342 0.0075959 0.053744 -0.0182397 -0.0041451 0.00911413 -0.00871599 -0.01612 -0.0112789 0.0564712 -0.0243097 0.0179779 -0.0351819 0.0775485 -0.0864173 0.0552017 0.0307766 -0.0156612 -0.0303191 -0.0536208 -0.0392009 -0.140286 -0.0111258 0.007743 0.0182141 -0.00898303 0.0762983 0.0798783 0.0132905 -0.0698076 -0.08283 -0.0814566 -0.0383344 0.00668608 0.0220965 -0.0403239 0.023771 -0.0996659 0.0469662 -0.0547993 0.0760433 -0.029908 0.0725921 0.0360464 -0.044073 -0.0208029 0.00878154 0.0732537 0.00590512 -0.258957 -0.0829965 0.0309936 -0.0753157 -0.0508666 -0.00915644 -0.0243884 0.0588402 -0.029278 -0.0571325 0.00360626 -0.073075 -0.0533458 -0.0467888 -0.0873493 -0.0705954 0.0164648 -0.0509222 -0.187917 -0.0119057 -0.0935174 -0.0254444 -0.0822729 -0.0216024 -0.0365098 -0.059471 0.0116585 -0.0738829 -0.0208007 -0.0178369 -0.00617071 0.132769 -0.0658808 0.0048063 -0.0484063 0.057115 0.0166447 0.0320468 -0.00142707 0.0459611 0.070697 -0.0498991 -0.012986 -0.0749443 -0.0452151 -0.0232346 -0.000788638 -0.0335716 -0.0858092 0.00282618 -0.00718037 -0.0269512 -0.0113826 -0.0723095 0.0102173 -0.087899 -0.0172906 0.0461282 0.0271375 -0.0764441 -0.0837759 0.0395629 -0.0797068 -0.091214 -0.0114962 0.0450235 -0.0882874 0.0395897 -0.103622 0.0875704 -0.0119095 -0.149473 0.0394545 -0.107844 0.0556816 0.0206009 -0.0382261 -0.0237 -0.0105058 0.0264846 -0.0201424 0.01044 -0.021903 0.0231786 -0.0947996 0.0380195 -0.0414762 0.0853775 0.0245354 -0.0305171 -0.0424777 0.0638867 0.00816617 -0.0473853 -0.0999819 -0.0970582 -0.0555198 -0.050649 -0.0196955 0.0404653 -0.0226773 0.0125223 -0.225327 0.0447906 -0.0121314 0.019603 0.0617208 -0.0171088 -0.0207051 -0.0333001 -0.0606979 -0.0165367 -0.000554794 -0.071782 0.0112175 -0.04466 -0.0539131 -0.028277 0.025003 0.0398583 -0.0370022 0.0287926 -0.0335542 -0.101956 -0.0591459 -0.0154614 -0.0663469 -0.0579158 0.0495866 0.0454486 -0.0123245 -0.0417404 -0.0676618 -0.0923111 -0.0322923 0.0131019 0.0514966 0.00268575 -0.0700634 0.0442548 -0.038631 -0.00605274 -0.0653352 -0.0018662 0.0424816 0.0109853 -0.0284179 0.0637461 0.00434438 -0.0183438 -0.0487005 -0.040105 -0.16831 -0.125591 -0.106847 -0.0320989 -0.0546361 -0.0463211 0.0207819 -0.00482386 -0.0532975 -0.0171912 0.0183765 0.0727738 0.0135992 0.00210271 0.0189727 -0.0408009 0.0166361 0.0197343 -0.00120465 -0.0500839 -0.108931 -0.00291005 -0.0772286 -0.0296997 -0.0378419 0.103861 -0.0206429 -0.00584335 -0.1004 0.00773879 -0.0293642 0.0136471 -0.0201943 0.017197 -0.0256107 0.0456817 -0.037713 -0.085806 -0.0226778 0.0349971 -0.0295498 0.00763703 -0.071045 0.0844952 -0.0915621 -0.110752 -0.0348942 0.0147548 -0.0329697 0.0419253 0.0823997 -0.00108112 -0.0405526 -0.0765769 0.0507478 -0.0456777 -0.0657643 0.0440934 0.014922 0.00800037 -0.00902443 -0.103666 -0.0483535 0.0182887 0.0235579 0.0324882 -0.0360315 -0.101065 -0.0250349 -0.0226746 0.00585353 -0.021764 -0.0769578 -0.0626914 0.0214543 -0.0117185 0.00414843 -0.0333963 -0.0328331 0.0650088 -0.0711524 -0.0554484 0.0272989 -0.012243 0.012501 -0.023074 -0.00309094 0.10646 -0.0379231 0.0288995 0.0149046 0.0136898 -0.0684446 -0.0518447 -0.0495836 -0.000955264 -0.00518753 -0.0359538 -0.10109 0.0254787 0.0050305 -0.0590084 -0.0794676 -0.0107684 0.0129112 0.0142766 0.0122127 -0.107263 0.0561913 0.0401594 -0.00776094 -0.025477 0.0192634 0.0202454 0.00816243 -0.00207831 0.00869268 0.021381 -0.0164405 0.0640978 -0.0447637 0.0911589 -0.0225656 -0.00684467 -0.0370679 -0.0701324 0.041287 -0.0221159 -0.0858312 -0.0366054 -0.0969834 -0.144758 -0.121057 -0.0362488 -0.0384975 0.00969583 -0.00137525 0.029901 -0.0400855 -0.00676522 -0.0241237 -0.0281679 0.00304538 -0.118517 -0.00228338 -0.080226 0.115385 0.00783124 0.0273264 -0.00904904 0.0360091 -0.0123358 -0.00562441 -0.0542838 0.019299 0.060373 0.00584218 0.0097688 -0.0692354 -0.112022 0.05992 0.0105771 0.0412898 0.0297941 -0.0544965 0.0443366 -0.0999733 0.0567143 0.0118045 -0.0217586 -0.195981 -0.0371064 -0.0264675 0.0417411 -0.0133988 -0.0374894 -0.0664273 -0.0200462 -0.00905834 -0.113771 -0.0110337 -0.0400694 -0.0729334 -0.11555 -0.0907599 -0.050277 -0.0370875 -0.060681 -0.074277 -0.105026 -0.0147965 -0.0303644 -0.0923185 0.0577597 0.0167527 -0.0270072 -0.00551331 0.0300212 -0.0883512 -0.0306506 0.0238196 -0.0376441 -0.0872919 0.062355 -0.0123266 -0.104777 -0.0730346 -0.0880341 -0.0450488 -0.133006 -0.0459059 -0.0781552 -0.0505507 0.130537 -0.0510609 0.0893563 -0.102208 -0.0815662 -0.0425989 -0.0272033 0.0790303 -0.0628252 0.0383344 0.0868234 -0.0486032 -0.0457988 -0.0250599 -0.0457939 0.0588152 0.00884129 -0.0133756 -0.0781743 0.0848791 -0.115967 0.000725814 -0.0240043 -0.0406179 -0.0853885 -0.0808835 -0.236349 0.0810808 0.0187324 -0.0566719 -0.00706126 0.049033 -0.00270738 0.0206238 -0.113362 -0.0533256 -0.0446042 -0.00136852 -0.122693 -0.109392 -0.0948521 -0.0442791 -0.0459924 0.0353363 -0.0661799 0.0381672 -0.0596044 -0.0651116 -0.0517105 -0.218824 -0.102284 0.0597736 -0.044543 -0.00754419 -0.0682837 -0.021271 0.000700367 -0.0839851 -0.0394347 -0.0108484 0.0388553 0.0160235 -0.10232 -0.0994834 0.0820801 -0.0456524 0.00377736 -0.0770283 -0.0284217 0.0261358 -0.0646542 -0.0246335 0.0629307 -0.00993654 0.0582118 -0.00152659 -0.0331444 -0.0954984 -0.0675696 0.0179258 0.0230368 -0.0554632 0.037951 0.0147671 -0.0477138 -0.0205966 -0.162553 -0.0672407 -0.0749268 -0.0889673 -0.192012 0.0221404 -0.0266849 -0.0628283 -0.119608 -0.0916869 -0.186797 0.0357321 -0.0212055 -0.0140527 -0.0308134 -0.114273 -0.0176484 -0.0784678 0.0306328 -0.0379047 0.0736799 -0.0439156 -0.0530893 0.00319828 -0.0595418 0.0546398 -0.000641878 0.0640192 0.0621415 -0.0748222 0.0573885 0.0142224 0.0410464 -0.265543 0.0337633 0.00678912 0.0280214 0.00379501 -0.0712516 -0.0181112 0.0972993 -0.0778534 0.0199838 -0.0840548 -0.0212393 -0.0128561 -0.0490837 -0.0231972 -0.0468534 -0.0671876 0.0603717 0.0374537 -0.0715204 -0.0276663 -0.0248114 -0.0167959 -0.0772986 0.0305648 -0.014196 0.0536533 0.0193756 -0.0434414 -0.0011439 -0.00707541 -0.0256547 0.00849589 0.0149565 -0.00975152 -0.0202398 -0.0149791 0.00485717 -0.105226 -0.0246789 -0.0615291 -0.0108433 -0.0856628 0.0323494 -0.0653208 0.121341 0.070136 0.0572804 -0.0144846 0.00622241 -0.103952 0.0846053 -0.0384263 -0.0351656 0.0296032 -0.0637192 -0.0426464 0.0680122 -0.100145 0.0535692 -0.0149952 -0.0366009 -0.0986067 -0.0910082 -0.043517 -0.0689611 -0.0768724 0.0569872 -0.00767584 -0.0717496 -0.0898814 0.010309 -0.156119 0.0297547 0.0436742 -0.0312575 0.016677 -0.0523303 -0.0657138 -0.0411468 -0.020987 0.044478 -0.0701158 -0.0421662 0.0293563 -0.0196233 0.0053205 -0.0809981 0.090024 -0.0602083 -0.025713 0.0538299 0.0304013 -0.00991165 -0.0279412 -0.189125 -0.0182798 0.0478897 0.0153474 -0.0606648 -0.0122308 -0.0367678 -0.0587419 -0.0803558 -0.0386087 0.0410273 0.00880839 0.00703477 0.0115381 0.0733874 0.0332963 -0.0212734 -0.0164812 -0.0280958 -0.0194134 -0.0488384 -0.0158842 -0.011732 0.0390211 -0.00837022 0.0484293 0.071288 0.0778521 0.0481772 -0.0263688 0.0108174 0.0113276 -0.076608 -0.0830189 0.0552485 -0.0238133 -0.0871514 0.0122303 0.0158243 -0.0441366 -0.130704 -0.0263255 -0.0444243 0.0303752 -0.118235 -0.0388737 0.0362224 -0.0146063 0.0447449 -0.0182852 0.0592245 -0.0850466 0.0447078 0.0384811 -0.0198219 -0.0144067 0.0204064 -0.0426765 -0.052707 0.0253041 -0.0539552 -0.0461313 -0.0899377 0.0579328 0.0562053 -0.10369 0.101843 0.00265445 0.0114636 0.0443943 -0.0475771 0.0453077 -0.053525 -0.0476224 0.0714701 -0.00171558 -0.0415284 0.0129969 0.0138668 -0.134706 0.0850833 0.140885 -0.0930308 -0.00157868 0.0422323 -0.0966656 0.0165089 0.0103845 -0.0167793 0.015097 -0.084611 0.0586823 -0.0154916 0.0973535 -0.022277 -0.0426254 -0.0181746 -0.0263487 -0.0170773 0.0109401 0.0197939 -0.00952494 0.0605105 -0.021583 0.0282117 -0.0708529 -0.0251231 -0.0484882 -0.0568431 -0.0968769 -0.0519439 -0.145868 -0.0642758 -0.0777311 0.044271 -0.0771124 0.0258495 0.00450365 0.0630213 -0.0116678 -0.0728705 -0.0107848 -0.0286699 -0.0187923 -0.0152674 -0.0350546 -0.0777419 -0.0489091 -0.0388645 -0.0599983 -0.113603 -0.139286 -0.0156586 0.000900366 -0.093521 0.0685202 0.0651489 0.0914891 -0.0150121 -0.0925026 -0.0582351 0.0763093 -0.0043717 -0.00800579 0.0137891 -0.111591 0.0307023 -0.0206377 0.0089104 0.0659657 0.017635 0.0125983 -0.0120607 0.00756042 -0.0911283 -0.00663126 -0.0193689 0.0844777 -0.000592302 -0.019883 -0.122229 -0.061674 0.00272194 -0.0791607 0.0306946 -0.0792816 -0.00921817 -0.0674265 0.0232128 -0.0889412 -0.033763 -0.00786422 -0.0210112 0.0276692 -0.0232977 -0.0782806 0.0586218 0.0584903 -0.0551175 0.0028899 -0.0557403 0.0336661 0.079217 -0.0357498 -0.0127246 -0.069216 0.0709024 -0.0087522 -0.112303 0.00409326 0.00801108 -0.0734925 -0.0106337 -0.00385636 0.0734575 0.00635039 -0.035719 -0.117719 -0.0530297 -0.0416324 -0.0626792 0.000642828 0.0477786 0.046502 -0.00657678 0.0236878 0.0880213 -0.129591 -0.0465027 -0.0806517 0.0560692 -0.0232331 0.0386949 0.0295465 0.0593334 0.0242711 -0.037692 0.0103116 -0.0529004 -0.125668 -0.000427436 0.0301919 0.0919593 -0.0616419 -0.0803954 0.0485767 -0.0194781 -0.00781865 -0.103469 0.000439882 -0.0573994 -0.0467746 -0.0783455 -0.0727762 -0.0162667 -0.0268896 0.00309039 -0.0151166 0.0764455 -0.0999821 -0.0278205 -0.0323644 -0.044538 -0.00883456 -0.0039763 -0.0824461 -0.0503038 -0.0178598 0.022562 0.0626944 -0.0118354 -0.0853604 -0.0570543 0.0629429 -0.042513 0.0351048 -0.00653605 -0.055018 -0.0843934 0.021022 0.00947663 0.0626199 -0.0129796 -0.0123183 -0.0157214 -0.0661056 0.0160404 