0.0225864 -0.0420597 0.104325 0.00160667 0.037253 -0.168685 -0.0874471 -0.00158905 -0.0825295 -0.159789 0.0834294 -0.102558 0.0776671 0.0576996 0.00746197 -0.00827807 0.0424778 0.00722443 -0.0845514 0.112679 -0.101543 0.0247525 0.030792 -0.0156751 0.104446 -0.0452684 -0.0140998 -0.050983 0.0503792 -0.0629282 -0.0467921 0.0136954 -0.0274488 -0.0558143 0.000745894 0.0440752 0.0185073 -0.0352127 0.0716193 0.00930156 -0.00924986 -0.022866 0.00868068 -0.0877204 -0.100665 -0.0563186 -0.0157752 0.0418244 0.108166 0.0388754 -0.181647 -0.0613338 0.0524686 -0.0516355 -0.0142786 0.0459321 0.00266287 -0.00397665 -0.102263 -0.0157717 -0.0477857 0.0431516 -0.025427 0.00728374 -0.0128818 -0.0218771 -0.0968618 0.0777008 0.169549 -0.0614033 0.0134919 -0.0314661 0.00135602 0.0182082 0.171631 -0.105639 0.0473525 -0.0134022 0.0733527 0.0985153 0.0157128 -0.0187716 0.117267 0.0197843 0.0211287 0.100537 -0.0357805 -0.0942407 0.107535 -0.0407093 -0.048484 -0.102922 -0.157421 -0.0638297 -0.00640195 0.0904894 -0.0361224 0.00321961 -0.0339141 -0.108443 0.0794871 0.0624444 0.0199362 -0.0287856 0.14375 -0.0165871 0.0728859 -0.190016 0.178532 0.0297957 -0.0730708 -0.163322 0.157935 0.107916 0.0365576 -0.0264559 -0.0579625 0.00987259 0.0664295 0.147407 -0.00302358 0.159246 -0.00779093 0.133257 -0.0462297 -0.0590624 -0.129906 0.0820701 0.000165709 0.0212846 0.0583386 0.0734908 0.0258266 -0.0801296 0.031408 -0.146303 0.0123057 0.0760189 0.0325208 0.0128994 0.0366957 -0.0946719 -0.00229748 -0.0115229 0.00485879 -0.0478053 0.0285371 -0.0138021 0.0308193 -0.0607896 -0.00235388 0.0887074 -0.163301 -0.0155733 0.0506059 0.115008 -0.0924008 -0.0589327 -0.0244074 0.00706187 -0.0465411 -0.0690661 0.031561 0.0217232 -0.116266 0.0486419 0.0588356 0.153753 -0.00229496 -0.0356157 -0.0188455 -0.0376332 -0.0649517 0.0324914 -0.13395 0.144385 -0.0331188 -0.185149 -0.0711029 0.0482806 -0.0831111 -0.140034 -0.0583299 0.0170275 0.070065 0.123157 -0.0166248 0.013519 -0.053978 0.00452801 0.00706699 -0.107929 -0.0858028 0.137746 0.00942869 0.16735 0.049448 0.00977589 -0.00571303 0.0569943 0.0485476 -0.0729762 0.00363298 -0.0432111 0.0863015 0.0604271 0.0278872 -0.0271413 -0.0453014 0.00215451 -0.19814 0.100268 -0.0113335 0.0386518 0.111755 -0.00458659 -0.0265574 -0.0101247 -0.182454 -0.11953 -0.17118 -0.131467 -0.126452 -0.0171988 0.0250657 -0.0134536 0.149372 -0.0419747 0.0543238 0.0336183 0.0685066 0.0520952 0.0327501 0.0517288 0.0735322 -0.0519107 -0.0122369 0.0355286 -0.0622043 -0.0829476 -0.0670993 0.0625856 0.100961 -0.108648 -0.0209727 0.181503 -0.0157728 0.0810065 -0.0278107 -0.0722314 0.0654157 0.0332173 0.0723444 0.0311458 -0.071723 -0.0287029 -0.117409 -0.072586 -0.0341647 -0.0575331 0.0431456 0.0933103 -0.151085 -0.0224833 -0.0195399 -0.00866988 0.0780858 -0.0181455 -0.0224134 0.0512178 0.0693327 -0.0365867 0.0127389 -0.0700432 -0.0433064 0.000129762 0.0799844 -0.0107138 0.0331068 -0.0679868 -0.0288149 0.0378646 -0.0163322 0.0887018 -0.044058 0.137476 0.0207076 0.00420484 0.0530545 -0.0360908 0.00139301 -0.023104 -0.0605507 0.0492568 0.00683878 -0.00228003 0.0246597 0.0427946 0.0277475 0.00457541 -0.0353007 0.0963384 0.0105196 -0.050747 0.058176 0.0953914 -0.0533775 0.0528424 -0.0313584 0.0425497 -0.0235759 -0.0971735 0.0090982 -0.0331042 0.0118145 -0.0604725 -0.146627 0.102992 -0.0806094 -0.0196057 0.108164 -0.0399581 0.115495 -0.0669132 -0.0373598 0.171637 -0.0517261 0.112298 0.0161452 -0.0810911 -0.0246087 0.0418952 0.0234839 0.0991106 0.0811457 -0.0266195 -0.0442128 -0.0550418 0.0164917 -0.0246178 0.00269482 -0.129215 0.0157285 -0.0833766 0.028309 0.0311425 0.0598579 0.0270678 -0.0909129 -0.0110526 0.0449927 0.111367 -0.0822403 0.0453916 -0.000635187 -0.106014 0.0757474 0.0751388 0.0815349 0.0481478 -0.007727 0.131839 0.020774 -0.0477373 -0.0798608 -0.0535095 -0.052787 -0.0204366 0.01356 0.162741 0.0261649 0.0286414 -0.0424156 -0.111032 0.0348144 0.0128821 0.0428254 -0.0674875 0.118899 0.0153597 -0.00412778 0.0368087 -0.0658552 -0.095655 0.0658603 -0.147528 0.0139052 -0.0349209 -0.0636413 -0.0271912 0.122358 -0.0625577 -0.0320005 0.0424306 0.0599266 -0.0308527 0.0476361 0.0527357 -0.0963566 0.0806139 -0.0828549 0.00485499 0.0756669 -0.0857793 -0.022084 -0.0376298 0.103829 -0.206749 0.106183 -0.0273653 -0.043687 0.260728 -0.0571372 -0.00388187 -0.036616 0.0692127 -0.0134489 0.0642765 0.0357296 -0.0301803 -0.0907252 0.0653955 0.100491 -0.0625965 -0.0337796 0.0516341 0.0854636 -0.068677 0.0513442 -0.0405099 0.0212196 -0.0956716 -0.0647682 -0.0134045 -0.122949 -0.0151926 -0.0913315 0.0690632 0.0143962 0.00119813 -0.0467997 0.0565279 -0.0910724 -0.0168657 0.00218383 0.103093 -0.0217518 0.0406784 -0.0248737 0.0323067 -0.075568 -0.0660566 -0.0109819 -0.0533521 -0.000841366 0.0071769 0.041009 0.00518493 -0.0042079 0.1155 -0.00812018 0.124463 -0.0514108 0.00441801 0.0626237 -0.0217199 -0.0141447 0.0606387 -0.0132088 -0.0374305 0.0776523 -0.0639271 -0.108502 -0.069987 -0.0234628 -0.0762263 0.0839612 -0.126824 0.0252704 0.0068342 -0.112121 0.131735 0.0299517 -0.114347 0.0812164 0.0560201 0.032168 0.00521292 -0.109453 0.0829697 0.0492045 0.0341387 0.0125219 -0.0821727 -0.0664918 0.0229698 0.140766 0.0734655 0.0292343 0.000813022 0.12676 -0.0614524 0.017215 -0.0504353 0.0128066 -0.0817239 0.0444161 0.0495077 -0.0605615 0.0394755 -0.0202213 -0.033982 -0.0511283 0.0769611 0.0891711 -0.0534011 0.0509085 -0.0161937 0.00286566 0.0216578 -0.0163945 0.000211406 -0.136781 -0.0424794 0.0347286 0.0329647 -0.0534573 0.00752626 0.113464 0.0680117 0.0713616 0.0493325 0.0418062 0.0776476 0.0406297 -0.0799459 0.0420836 0.0950048 0.0226304 -0.0334755 -0.000492507 0.0189074 0.113102 0.00504164 -0.0100479 -0.00329508 0.0687293 -0.0668113 -0.0529616 0.0654105 -0.0854925 -0.0109632 0.0161651 -0.0553908 0.0759855 0.0930967 0.0713639 0.0247499 0.127512 0.0646099 -0.129257 -0.0515346 0.0268184 0.128784 0.0187745 0.0358894 0.0563858 -0.0194607 -0.0701174 -0.0219526 -0.0234989 -0.0240608 -0.0719959 0.105105 -0.0519321 0.0192543 -0.0120756 -0.011578 -0.0273346 -0.123518 0.102358 -0.00295902 -0.136194 -0.0493134 0.12266 0.215242 -0.0119367 0.0929346 -0.0224519 0.0225452 0.0106424 0.0401306 -0.117343 -0.00708468 0.077063 -0.10635 -0.00499119 0.085233 -0.164083 0.274864 0.0697235 -0.0334727 0.0624072 -0.0975088 -0.0176546 0.00288211 -0.00609762 -0.0231643 -0.00886933 0.0237412 0.0260101 0.0639886 -0.00849059 0.0266455 -0.0908977 -0.161765 -0.0119268 -0.0502313 0.0198049 0.0975765 -0.0821947 0.00354893 -0.0840081 -0.0032257 0.0452886 0.0188933 -0.0932758 0.103251 0.104565 -0.118529 -0.0975285 -0.188235 -0.0908204 0.111375 0.0143694 -0.0491035 0.000416209 -0.0687087 0.142187 0.0464291 0.205662 0.0973766 0.0203488 0.0236208 -0.041575 -0.000991836 0.0568585 0.0281283 -0.054752 -0.0034879 0.00993103 0.0559626 -0.101407 0.0513668 0.0716437 -0.110708 0.00108931 -0.0149243 -0.0489564 0.0582073 -0.0400561 0.0179612 -0.0588273 -0.0802542 -0.064671 -0.0503776 0.104536 0.0215694 -0.0136623 0.00956783 -0.0481889 -0.0660897 0.00245484 0.0233205 -0.0325994 0.0420634 -0.0333689 -0.0272181 0.103001 -0.0530749 -0.0276553 -0.0370983 -0.0713819 -0.121842 -0.023673 -0.0020197 -0.0955546 -0.115251 -0.0804779 -0.0579683 -0.0770004 -0.0804506 -0.0754231 -0.0164071 -0.0418782 0.0633933 -0.0357969 -0.0751372 0.0483406 0.00959698 0.0346186 -0.0124019 0.0828367 -0.0497326 -0.103028 0.0106264 0.0493756 0.0276146 0.0183588 0.0301566 -0.0618507 0.00160042 -0.00149529 -0.0133563 -0.0400469 -0.0284764 -0.0724669 0.0786423 -0.00988014 -0.0493653 -0.0169899 0.121676 -0.0521476 -0.0765588 -0.0274699 0.030356 0.0123767 -0.087427 -0.0381555 -0.0186329 -0.0100111 -0.0741914 0.0194508 0.0439248 0.0591573 0.126874 0.00140644 0.0797689 0.0494302 0.0402652 0.057326 0.0266504 0.153256 -0.0332609 -0.0221862 0.105838 -0.00239638 -0.0404773 0.0292925 0.0374928 -0.035915 0.0327012 -0.0997275 0.0381091 -0.034576 -0.0293277 0.137291 -0.0497298 0.041759 -0.0192209 -0.0255839 0.0698404 0.0779573 0.0651323 -0.0425372 0.0123482 7.22268e-05 0.0122695 -0.020388 -0.030174 0.0435469 -0.14063 -0.0452322 -0.0262195 -0.100909 -0.0579504 0.179159 0.0494123 0.0684703 0.0233083 -0.0641482 0.0790095 0.0129895 -0.0762245 -0.0647459 0.0128328 -0.0663811 -0.0244637 -0.042355 0.0165909 0.00803003 -0.0824332 0.0181566 -0.107346 0.0374665 -0.0681008 0.07814 -0.0267737 0.0797307 0.0337401 -0.0266907 0.062264 -0.0614624 -0.0209657 0.0326164 0.113299 -0.0150367 0.0776932 0.057419 -0.0166231 -0.0304552 0.00792617 -0.0253373 -0.0263151 -0.0616546 -0.0886217 -0.0573551 0.00628664 0.127938 0.00363324 0.0999445 -0.000336142 0.00707271 -0.0396044 0.0320757 0.0301239 -0.135299 0.0382479 0.00290454 0.0275061 0.0314551 0.0417706 -0.0226057 -0.128666 -0.0899794 -0.0603414 0.0412299 -0.0664772 0.104657 0.0238718 0.220303 0.0837503 -0.0651295 0.0231364 0.0311826 0.00309893 -0.0028523 0.0575851 -0.058931 -0.0316219 -0.00260193 0.00390357 0.193142 -0.00934628 0.077336 -0.0865947 0.0287571 0.136683 0.0604095 0.0216057 -0.0867541 0.147221 0.0117364 0.0619924 -0.0108223 -0.00803306 -0.18168 -0.00949781 -0.0531077 -0.142348 -0.0553998 -0.00914766 -0.00411375 0.0769743 -0.0698173 0.0900797 -0.014293 0.0217487 0.0734941 -0.0707679 0.00537796 -0.00758031 0.0254453 0.00880364 -0.0177142 0.0118861 -0.0139768 -0.038589 -0.0144555 -0.0819439 -0.0136569 0.00569146 -0.0155435 -0.00544845 -0.0102117 0.0233246 -0.0552496 -0.023388 0.145903 0.120758 0.0538927 0.0318414 0.0580371 0.129114 -0.0565715 -0.0255261 -0.0255497 -0.046746 -0.00606409 -0.0304814 0.0238679 -0.031801 0.0072254 -0.0339828 0.0350245 0.11279 0.0426719 0.0240327 -0.00213345 0.018919 -0.0085146 -0.102342 -0.0577147 -0.0158888 0.00299571 -0.0646574 0.0314819 0.0137146 -0.0162589 -0.0319369 0.0264014 0.0109816 0.0223215 -0.0785754 -0.00614969 0.0718172 -0.0242496 -0.0068979 0.0746837 -0.108235 0.167352 0.0142717 -0.0130616 0.0378531 0.000248046 0.00581369 0.0668215 -0.0062776 0.06105 -0.0577307 -0.0567615 0.0130382 -0.0823532 0.00718851 0.00413084 0.117825 0.0363287 0.0438891 -0.196802 0.108901 -0.0340585 -0.0584118 -0.00744858 -0.0109243 -0.03797 -0.0170923 0.0810826 -0.136324 -0.0419681 -0.0321634 -0.0290778 -0.0030251 -0.012469 -0.0511314 -0.0322609 -0.0266962 -0.0633364 -0.0104534 0.101268 -0.032796 0.0632125 -0.084686 -0.0411172 -0.138888 -0.0338396 0.0837806 -0.0444426 0.121866 0.0165134 -0.14683 0.038317 -0.0583019 0.107561 -0.12026 0.121714 -0.0249031 0.00675321 -0.127632 0.0611142 0.00157668 -0.0698792 0.154094 0.150363 -0.114448 0.0294383 0.0826884 -0.00630378 0.0218346 0.0247114 0.0576139 0.0290545 -0.154942 -0.00198516 -0.032307 -0.0314464 -0.0612843 0.00189675 -0.0367086 0.0641229 -0.0319414 -0.048759 -0.0891583 -0.0730746 0.00273658 