0.337829 -0.0962657 0.259252 0.251191 0.355257 -0.304101 -0.180609 0.25923 -0.221909 0.0670485 -0.0232728 0.107868 -0.133835 -0.00457335 0.434326 0.350477 0.148856 0.201495 -0.363762 0.0931636 -0.49137 -0.273786 -0.365505 0.311038 -0.331306 -0.108772 -0.356856 -0.387501 0.496787 -0.283122 0.0358269 0.335727 0.0998751 -0.207603 0.116925 0.0191707 0.00244944 0.430531 -0.211845 0.224373 0.0248711 0.276342 -0.0972188 0.33988 -0.209255 -0.147661 0.281642 0.385496 -0.435762 0.357499 0.0237056 -0.45017 -0.303661 0.126302 0.379953 -0.135526 -0.440872 -0.530908 -0.0395745 -0.439699 -0.269672 0.472811 0.389603 0.334559 -0.240369 0.0404196 -0.120218 0.246667 0.0087191 0.165825 0.0298873 -0.458191 -0.064749 0.370148 0.357697 0.192505 -0.229475 0.217405 0.119946 -0.144027 0.182216 -0.328648 -0.0662066 0.361334 0.271232 -0.163226 -0.264518 0.320605 -0.151077 0.165989 0.405336 0.0788649 0.130138 0.298684 -0.0699402 0.374 -0.101049 0.237803 0.155254 0.327095 -0.029487 -0.2905 0.43484 0.350592 -0.363729 0.38552 0.132253 -0.0654923 0.105437 -0.222629 0.239538 -0.186397 -0.052196 -0.282313 -0.303817 -0.219389 0.0537261 -0.0777585 -0.343854 0.353684 -0.398992 -0.389338 -0.00381126 0.25088 0.433876 0.385437 0.1607 -0.113137 0.20153 -0.132897 -0.217161 -0.272505 0.0918233 -0.26111 -0.35801 0.210837 -0.376961 0.303283 -0.342375 0.236666 -0.436767 0.433507 -0.459794 0.0546365 -0.318791 -0.263079 0.300597 0.218889 0.135602 0.458829 0.122961 0.265223 -0.42098 -0.375137 0.0143244 -0.440428 -0.446775 -0.304293 -0.0422447 0.268068 0.0704019 0.234109 -0.458272 -0.353741 0.492284 -0.308622 0.326392 -0.369438 0.441157 -0.463154 0.356298 -0.439988 -0.508854 0.381223 0.0958776 -0.334003 -0.340173 -0.112924 0.336937 0.27242 -0.139062 0.0439032 0.0661965 -0.0442742 0.168617 -0.3942 0.0250421 0.212908 -0.191314 0.443207 0.0676082 0.370616 0.209925 0.118572 -0.472692 0.250234 0.271707 0.38651 0.310939 0.304765 0.409115 0.252608 0.352133 0.458598 0.148913 0.0393791 -0.339029 0.298908 0.346601 -0.422015 0.141738 -0.230932 0.115598 -0.279516 0.182646 -0.18124 -0.160543 -0.26676 -0.413661 0.136507 -0.278013 0.122264 0.0242251 0.41722 -0.223522 0.0431808 0.174642 -0.40044 -0.0197665 0.0795061 0.431133 -0.0583194 -0.161646 0.286412 -0.0593625 -0.498419 -0.135902 0.0878553 0.276195 -0.2649 0.139296 -0.0309315 -0.016167 -0.198245 0.174516 -0.307408 0.112658 -0.490251 -0.0873237 0.16931 0.177738 0.123382 -0.161608 -0.329194 0.0852688 0.109781 0.230987 -0.177487 0.233297 -0.303574 0.422342 0.170926 0.126025 -0.235871 0.0327933 -0.416717 -0.23721 0.368525 0.184463 -0.431637 -0.395205 -0.139945 0.0810203 0.0841784 0.142398 -0.204834 0.275989 -0.211963 -0.167453 -0.3165 0.393797 -0.518201 0.294243 -0.168571 -0.316359 -0.0699906 0.46071 0.413023 0.225845 0.194521 -0.38986 0.14753 -0.0973646 0.258651 0.390561 0.404891 0.340358 -0.295355 0.283952 0.0459163 -0.20397 0.337664 0.365762 0.373818 0.03712 0.0680481 -0.327634 -0.25332 0.365946 0.0239545 -0.0340052 0.292347 -0.00706442 -0.215836 -0.326685 0.160769 0.190054 -0.367375 0.0966915 -0.00900236 0.279825 0.205744 -0.323739 -0.287427 0.00114404 -0.381325 -0.370971 -0.125613 -0.17594 0.425231 0.331932 0.108105 0.284868 0.300072 0.0323364 -0.153132 -0.100695 0.163648 0.101625 -0.242527 -0.361285 -0.430391 -0.394924 0.163084 -0.142977 -0.201451 -0.170739 -0.42101 -0.0657656 0.394039 0.0914938 -0.22093 0.125954 0.237496 -0.0144109 -0.349195 0.343318 0.122542 -0.00491362 -0.293972 0.0489317 -0.0656234 0.29339 -0.11257 -0.243169 -0.17787 0.211087 0.111415 0.483568 -0.158358 0.362672 -0.370729 -0.0947177 -0.534432 0.227908 0.218399 -0.206123 -0.390129 0.341595 0.211475 -0.451802 -0.0541542 0.437195 0.184673 -0.283807 -0.0336352 0.304076 -0.409006 -0.405633 -0.12553 -0.209322 0.140789 0.281217 -0.378989 -0.457744 -0.447223 -0.050989 0.218876 0.197937 -0.0660928 -0.390843 0.0835694 0.0524052 0.0199755 0.088758 -0.137938 -0.199314 0.34834 0.00686759 -0.32512 0.0957523 0.0362193 0.123325 0.0851789 -0.252184 0.32126 -0.439524 -0.402914 0.371712 -0.338631 -0.0172174 -0.280529 0.28991 -0.203337 -0.137657 0.391641 -0.152349 0.300489 0.121868 -0.478535 -0.246297 0.23495 0.110783 0.305893 -0.196353 -0.284287 -0.289451 0.100319 -0.376734 0.17657 0.296201 0.223448 -0.302598 -0.102094 -0.186414 -0.0613247 -0.274441 -0.128992 0.0339168 -0.371598 0.0498198 -0.534767 -0.122625 -0.112172 -0.18148 0.202077 -0.243314 0.13069 0.0670986 0.388162 0.151766 0.247621 0.182786 -0.162139 0.144883 -0.499531 0.0254648 0.323134 0.0966525 0.128058 0.0109131 -0.0949427 -0.140676 0.196198 0.305035 0.174402 -0.354596 -0.484597 -0.446089 0.19031 -0.301294 0.120199 0.196264 0.0426693 -0.508441 -0.493356 -0.20077 -0.249665 0.11242 0.293395 -0.334099 -0.170137 0.162363 0.360583 0.133141 -0.192837 0.318692 -0.314511 -0.340703 -0.00406517 0.272319 0.153184 0.377234 -0.308684 -0.102991 0.184507 0.329808 0.0409118 0.238345 0.356702 -0.268017 0.409435 0.0608213 0.351086 -0.021302 0.0502463 0.413671 0.271042 0.262957 0.0838359 0.158119 0.493743 0.368589 -0.175394 0.345139 0.0694687 0.138001 0.250506 0.23369 0.284872 -0.241041 0.0911571 -0.0332869 -0.34781 0.29891 0.303265 0.303495 0.137993 -0.0887772 0.109818 0.0820125 0.117799 0.0351349 -0.36386 0.0638147 -0.49589 0.159791 0.0518991 0.295203 0.0236727 -0.398852 -0.0204447 0.0206463 -0.44474 0.279173 -0.0993782 0.119173 -0.0411654 -0.339994 -0.0882023 -0.244116 -0.103091 -0.489203 0.199575 0.0879926 0.293735 0.0712694 -0.0625691 -0.0257349 0.396421 -0.428555 -0.432067 0.112564 0.104777 -0.281043 -0.278161 0.125213 0.346753 0.207687 0.0121939 -0.0650897 0.293012 0.376568 0.382439 0.355021 0.253525 -0.167318 0.0491704 -0.276945 -0.0233999 0.391727 -0.0352786 0.323299 0.397401 -0.331715 0.0122212 0.282379 0.255597 0.408126 -0.235249 0.223574 0.44309 -0.166485 -0.0867275 0.0556511 0.0314154 0.108242 -0.318393 -0.0176952 -0.148689 0.130115 0.387772 -0.291251 0.0936986 0.360961 -0.381668 -0.123219 -0.29709 0.158938 0.0824754 0.142223 0.0816169 -0.449242 0.0581286 0.05066 -0.262579 -0.498187 -0.147996 -0.499682 0.347634 0.0963841 0.218496 0.328227 0.347217 -0.33514 -0.0623404 -0.0190061 0.242375 0.127007 0.383063 -0.347979 -0.192879 0.378785 -0.119888 0.328521 0.239055 -0.027926 -0.209904 0.431427 -0.424893 0.322739 0.111479 0.238695 0.395738 -0.32499 -0.218147 -0.365465 -0.302747 0.107593 -0.314217 -0.376373 -0.27791 0.343418 -0.496175 -0.330298 -0.382208 -0.0244291 0.114509 0.414698 -0.392573 0.0998874 -0.436068 -0.0857142 -0.00334143 -0.0581073 -0.200796 -0.235124 0.391957 0.0561663 -0.342907 -0.474554 -0.0612607 0.322644 0.229311 -0.136337 0.458023 -0.473384 0.018199 -0.324861 0.156314 0.16859 -0.174611 0.347272 0.123682 -0.149171 -0.45628 0.286263 0.307313 0.182144 0.195369 0.335486 -0.19238 0.220087 -0.206483 0.24797 -0.313103 0.078224 -0.446548 -0.406522 -0.326577 -0.238666 -0.371034 0.0806159 -0.48037 0.377752 0.415079 -0.454812 0.374886 -0.0251458 -0.242487 0.0829075 -0.337021 0.0715304 -0.0200101 0.259552 0.364757 0.035169 0.0724001 0.19862 -0.26845 -0.241082 0.102408 0.0143913 -0.489226 0.350762 -0.163253 -0.291295 0.0153252 -0.100424 -0.185823 0.142937 0.123381 -0.0558604 -0.241023 0.166158 -0.166043 -0.279426 0.24855 -0.244682 0.134001 -0.475527 0.296596 0.348358 0.1005 -0.182349 0.172635 0.0272697 0.288739 -0.235154 -0.277334 -0.431194 0.0388143 0.389614 0.0984294 0.024628 0.265662 0.447312 0.210774 -0.161398 -0.145735 -0.468654 -0.47678 -0.507955 0.0064825 -0.197646 0.197453 0.321599 0.0338849 -0.0338617 -0.424222 -0.305381 -0.0180432 0.390714 -0.460785 -0.456516 -0.269196 0.196495 0.0985885 -0.414486 0.418213 0.309245 -0.325118 -0.024688 0.222218 0.248394 -0.502672 0.067913 0.196211 0.243079 0.39406 -0.413735 0.234647 0.396079 -0.39057 -0.21598 -0.261872 0.313396 -0.401018 0.2087 -0.22719 -0.315572 0.440202 0.243349 -0.420477 0.450581 0.310306 -0.160076 0.156576 0.00718447 -0.0729737 0.174849 -0.156092 0.0909396 -0.382566 -0.42762 -0.120488 -0.36777 0.140285 -0.390839 0.336504 0.0696354 -0.289267 0.15913 0.0340936 -0.180114 0.401309 0.249787 -0.389379 -0.467447 -0.00666598 -0.106831 -0.305316 -0.0585302 -0.325804 -0.194398 -0.0576482 -0.505763 0.120277 -0.376469 -0.0378552 -0.418087 0.27404 0.261858 0.195647 0.410588 0.362408 -0.45347 -0.464487 0.0319208 -0.321173 0.421217 -0.400565 -0.0928543 0.0841108 0.130425 0.16035 0.070462 -0.0946807 0.261025 0.0680485 0.354281 -0.28868 0.238646 -0.121291 -0.116689 -0.409031 0.314126 -0.100056 0.25042 0.417054 0.311792 0.331167 0.198867 0.114445 0.0324502 0.115074 0.034168 0.0914084 0.151784 -0.476753 0.26636 0.0831152 -0.383422 -0.391624 -0.299926 0.289821 0.286697 0.198293 -0.329196 0.150146 -0.186717 -0.401881 0.318022 -0.405763 -0.0246731 -0.228312 -0.299365 -0.216086 0.154901 0.454073 -0.280963 -0.0126722 0.289198 0.436654 -0.354332 -0.202092 0.0519313 0.127757 0.336945 -0.271852 0.145604 0.11439 0.280468 0.322536 0.228706 -0.480864 0.0791499 0.101854 0.2598 0.285036 -0.212658 -0.425682 0.332341 -0.357037 -0.330983 -0.136721 -0.0608192 -0.12279 0.137094 -0.408572 -0.17082 0.370088 0.0945352 -0.404619 0.308904 0.186611 -0.099384 -0.135658 -0.0826298 -0.223743 0.101864 -0.433087 0.354959 -0.0734503 0.311313 0.156285 -0.0333669 -0.0397293 -0.200624 -0.290915 -0.248743 0.071999 -0.20354 -0.369625 0.206522 0.0174816 -0.0245051 -0.319196 0.354661 -0.372964 -0.204718 -0.332068 -0.511609 0.391466 -0.213334 0.265958 0.132531 0.196994 -0.328071 -0.448329 0.42166 0.225456 -0.383758 0.363178 -0.270853 0.41677 0.029427 0.144674 0.0122884 0.273584 0.329856 0.210358 -0.0979939 -0.310474 0.332698 -0.349953 0.13247 -0.167992 -0.148735 0.0259018 -0.0400836 0.141066 0.206243 0.0131853 0.0350425 -0.507877 -0.236745 -0.308138 0.144768 -0.0673959 -0.262606 0.165064 -0.276993 -0.151002 0.0316447 -0.0781889 -0.160787 -0.460862 -0.403628 0.27719 0.340257 0.436759 0.000919778 -0.216764 
-0.315574 -0.16962 -0.0653175 0.371489 0.19126 0.283407 -0.13107 -0.362205 -0.0824932 -0.437006 0.105884 0.477617 -0.446435 0.368997 -0.33953 0.326548 -0.180588 -0.0987611 -0.0505609 0.0349231 0.236225 0.487236 0.475277 -0.372997 -0.540303 -0.490717 0.409846 0.404414 -0.462643 -0.0924261 -0.349735 -0.268869 0.277631 0.117923 -0.4838 -0.0533375 -0.0989392 -0.0290444 0.0990572 0.355181 0.0628998 -0.297109 0.310298 0.173544 -0.484392 0.484202 -0.000534345 -0.12412 -0.181341 0.454303 0.433759 -0.4203 0.413628 0.383121 -0.305446 0.43788 0.437332 -0.439864 0.335614 0.48158 -0.000251417 -0.492999 -0.307828 -0.19103 0.122228 -0.247046 0.259157 -0.475546 0.230142 -0.152286 0.393099 -0.256796 0.0544296 0.194498 0.483438 0.139106 0.148016 -0.076167 -0.528332 0.513956 -0.142812 0.442449 -0.450035 -0.233744 0.303889 -0.227487 -0.34874 0.235044 -0.121809 -0.523368 0.213424 0.399044 -0.536344 0.398054 -0.367908 0.148758 -0.400119 0.446252 0.193974 0.376766 -0.254059 0.0400733 -0.345994 0.340022 -0.294991 -0.388856 -0.0455631 0.381678 0.044996 -0.0441448 0.370536 0.420786 -0.123776 0.472894 -0.378223 -0.351399 -0.272634 -0.162922 0.432818 0.133076 -0.171932 0.105136 0.0130604 -0.091784 0.00741689 0.198777 -0.508178 0.151307 0.126519 0.196098 0.00974121 0.407651 -0.260845 0.169977 0.218783 -0.0261521 0.286217 -0.31178 -0.210379 -0.170436 0.130193 -0.308034 -0.300574 -0.526551 -0.407719 -0.0954408 -0.28483 -0.115407 0.284547 -0.371953 -0.532491 -0.347118 0.236026 0.0190624 0.0239993 -0.304452 -0.32094 0.0362903 0.412361 0.355343 -0.308171 -0.0870434 0.229749 -0.0331633 -0.40742 -0.0494693 0.46046 0.38697 0.147214 -0.287274 -0.28222 -0.271677 -0.0641887 -0.0182656 -0.198659 0.0798351 0.385848 0.0108982 0.478233 0.159716 0.150165 0.506116 0.315005 -0.123662 0.0157412 -0.206489 0.138909 0.24049 0.378088 0.0465406 0.0923588 -0.413496 0.466122 -0.18777 0.0648459 -0.467504 0.287174 0.0565321 0.432879 -0.0617756 0.286944 -0.367197 0.204557 -0.273688 0.111121 -0.543862 0.316138 -0.0119828 0.0372479 0.303138 -0.384685 -0.381562 0.284783 0.4391 0.0835779 -0.228928 -0.293397 -0.343494 -0.534838 -0.397433 0.223911 0.117561 -0.319732 0.186033 0.458325 0.293806 0.233885 0.215098 -0.199503 0.14311 -0.324441 -0.443291 0.287115 0.36865 -0.193809 -0.121524 0.392641 -0.371675 0.362761 -0.139922 0.44768 0.493392 0.0606215 0.213771 0.431265 -0.452732 -0.522259 -0.374252 -0.212132 -0.503033 -0.205409 -0.491315 0.158036 -0.0315846 0.224639 0.0919318 -0.225032 -0.0951067 -0.185148 0.0659737 -0.413616 -0.0190977 0.170623 0.371072 -0.182019 0.497777 -0.276003 -0.303462 -0.373717 -0.42181 0.0763915 -0.490192 -0.442157 -0.37849 0.264569 0.507538 -0.236723 0.275764 -0.408464 0.0566636 0.302355 -0.113841 0.107884 -0.0615725 0.398588 -0.20929 -0.454974 -0.345783 0.261023 -0.146699 0.22136 0.343537 0.330098 -0.105212 0.211732 -0.35608 -0.0914115 0.450986 -0.159403 0.0222948 -0.526758 0.452637 0.071177 -0.370571 -0.474113 -0.188951 -0.448497 -0.189621 -0.386617 -0.280157 0.407985 0.429796 0.171793 -0.0187521 -0.188673 0.0709291 0.319423 -0.140504 0.227228 0.047937 0.248138 -0.0539949 -0.144334 0.0510112 0.351968 -0.499567 0.196094 -0.310891 -0.556877 -0.467478 0.226748 -0.480576 0.497269 -0.202835 -0.3799 -0.510425 0.138771 -0.215483 -0.150982 0.236955 0.0265465 -0.28361 0.14159 -0.287486 0.242535 -0.5612 0.27197 0.0261846 -0.118582 0.00106544 -0.456551 -0.419273 0.452864 -0.0347673 0.207462 0.276646 0.054701 -0.105519 0.508236 0.0269053 -0.0707898 0.240007 0.108269 -0.102031 -0.55465 0.258178 -0.0560957 0.145957 -0.465524 0.318266 -0.114047 0.0591738 -0.502444 -0.492203 0.286773 0.304253 -0.536621 0.0305152 -0.163279 -0.0501967 -0.553775 -0.106018 0.0840302 0.458994 0.380498 -0.271931 0.239028 -0.116507 0.144143 0.214852 0.449815 -0.430105 -0.0766747 0.00439676 -0.0146489 -0.0621739 -0.262069 0.463394 -0.419328 -0.233367 0.24293 -0.0278353 0.367999 0.314653 0.0313164 0.133156 0.0950206 0.0645835 -0.352653 0.441111 0.477866 -0.331904 -0.135929 0.0416721 -0.401636 -0.278756 0.284467 0.370256 0.117483 -0.0684771 0.0751697 0.041486 0.03076 0.510645 -0.500467 -0.454447 -0.0681698 -0.194284 0.48243 0.00409105 0.112099 0.229974 0.516183 -0.00404975 0.0231662 -0.00786271 -0.447656 -0.39591 -0.522663 -0.193814 -0.431414 -0.479193 -0.0268717 -0.122223 0.0566888 0.125647 0.101281 -0.1665 -0.0263489 -0.302332 0.30713 -0.46971 0.270126 -0.17486 -0.505105 0.323112 -0.160131 -0.0164049 -0.397025 -0.158125 0.508199 0.256117 -0.474326 0.514132 -0.276223 0.0685549 -0.0109597 -0.139017 0.218163 0.0522951 0.123473 0.259531 0.0581188 -0.418716 -0.343044 -0.40382 0.235537 0.236225 -0.0390818 -0.276883 0.475973 -0.238348 -0.228608 0.240354 0.0779544 -0.191866 0.0410836 0.465467 0.319397 0.215623 -0.244144 0.298512 -0.0289117 -0.141103 0.292216 0.183327 0.433788 -0.237409 -0.551114 0.117389 0.328638 0.14641 -0.123496 -0.140188 0.247958 0.0156555 0.00880886 -0.0359706 -0.244566 0.496809 0.175844 -0.282538 -0.30091 0.486758 0.455652 0.338755 -0.231161 -0.0146582 0.283515 -0.474422 -0.318691 -0.447442 0.36563 0.130903 -0.107455 0.126244 -0.199778 -0.199966 0.435592 -0.183652 0.398297 0.233972 0.473856 -0.261831 -0.382929 0.204456 0.284361 0.113381 -0.380291 -0.530696 0.0858339 0.363227 -0.28985 0.328199 0.299846 -0.365607 0.133898 -0.500186 0.177556 -0.106228 -0.466316 0.341905 -0.0200499 0.452859 -0.0356535 0.346494 0.0697175 0.27783 -0.435675 -0.0178443 -0.488869 -0.552847 -0.331905 -0.48025 -0.223599 -0.162728 0.249507 -0.518154 0.44208 0.402381 -0.517618 0.00262392 0.260694 -0.237836 -0.194274 0.0317157 -0.0546598 0.500113 0.0809275 -0.458389 -0.12718 0.171734 0.453389 0.369123 0.130436 -0.113159 0.187637 -0.335319 -0.397519 0.328512 0.19944 -0.298975 0.324626 0.413005 -0.249392 -0.465764 -0.27583 -0.504025 -0.379916 -0.413352 0.42609 -0.336802 0.155198 0.157482 -0.0726537 0.50928 -0.341999 0.374474 0.458746 0.269114 0.471906 -0.153594 -0.0674893 0.411704 -0.323621 -0.502449 -0.263135 0.369692 -0.231292 -0.0823597 0.164761 0.44358 0.142971 0.00247737 0.336515 0.428598 0.0644562 -0.506008 0.41454 0.21083 -0.324862 0.335491 0.378203 0.350877 -0.0370393 -0.245802 0.341982 0.14943 -0.36841 0.279553 -0.102868 -0.441837 -0.377066 0.369715 0.512245 -0.211233 0.42583 -0.284598 -0.335453 -0.355098 0.174555 0.330981 -0.374853 -0.180169 -0.212377 0.445239 -0.286532 0.40453 0.48536 -0.387055 0.0890365 -0.38662 0.476689 -0.0553072 -0.558344 -0.0559767 0.247784 0.369956 -0.396681 0.405203 0.146018 -0.00168667 0.524504 0.257945 -0.168701 0.494511 -0.528573 -0.240146 -0.282436 -0.311315 -0.082887 0.430273 -0.478582 0.0524332 -0.323648 -0.147343 -0.0500321 -0.0432118 -0.276319 -0.0524233 0.113534 0.354547 0.131907 0.0949729 -0.228539 0.106809 -0.455928 -0.458864 -0.029659 -0.355463 0.460604 -0.461129 0.132005 0.441476 0.364917 0.506421 0.433171 0.396308 -0.273746 -0.402993 -0.482262 0.181125 -0.477635 -0.406943 -0.282451 -0.223066 -0.0439283 0.196103 0.24324 0.217524 -0.406591 -0.199352 0.0567094 0.219186 0.447531 0.367326 -0.184935 0.47696 0.399009 0.300685 -0.464322 0.326951 0.395107 0.227096 0.242467 0.239222 0.234482 0.156191 0.12136 0.507109 0.305849 0.20621 0.189608 0.358847 0.347229 0.416057 -0.429581 -0.203143 0.0683528 0.364789 -0.566557 0.209813 -0.297048 0.0809876 -0.113943 -0.390227 -0.106603 0.23552 -0.496916 -0.230887 0.0207632 -0.371405 -0.382556 -0.0856487 0.417777 0.35274 -0.361628 0.162002 -0.00836747 0.267853 0.11739 -0.263942 -0.0501204 -0.207866 -0.425359 -0.224484 -0.298765 -0.276451 0.0710086 0.268308 -0.453717 0.0756524 0.000277788 -0.264906 -0.393983 0.37217 -0.106124 0.0517786 0.0893791 -0.0187743 0.336773 -0.423246 0.150802 0.43486 0.065456 0.0362562 0.278794 0.187293 -0.315957 -0.236804 -0.0601184 0.332339 0.0653403 0.415317 -0.445541 0.191112 -0.29629 -0.210107 0.456408 0.278918 -0.474895 -0.452263 -0.136656 0.0419938 -0.159204 -0.0125538 -0.0947025 0.237627 -0.537558 -0.54033 -0.266356 0.355788 -0.393664 0.356149 0.247393 0.197926 -0.132027 0.0162793 -0.141165 0.102977 0.28788 0.343455 -0.0882767 -0.188433 0.246138 0.0488821 -0.507229 0.451608 0.359222 0.463006 0.222059 0.455661 -0.543918 -0.50729 -0.00809585 -0.188821 0.0373485 0.43279 -0.510365 0.0622257 0.441607 -0.231175 -0.098506 -0.427796 -0.372165 -0.32702 0.262419 0.00690417 0.185443 -0.387573 -0.390817 -0.0535103 0.510829 0.0134455 0.277835 0.242631 -0.510874 0.302439 0.180052 0.400469 0.287437 -0.16448 0.342358 0.277283 -0.051749 -0.231741 -0.406348 0.522945 -0.258549 -0.333032 0.0880207 -0.331632 -0.0782553 0.489855 -0.288884 0.0256476 -0.409236 -0.518261 -0.475027 0.305742 -0.307705 -0.354741 -0.276089 -0.351498 0.196215 -0.451809 0.412615 0.23564 0.363071 0.0711259 0.112641 0.0996578 0.485928 -0.0631031 -0.140812 -0.101097 0.274278 -0.0412649 -0.0900553 -0.480958 0.11689 0.464968 -0.314144 -0.452395 0.45273 -0.0733962 0.0974255 -0.458646 -0.0588588 0.145881 0.387583 0.130182 0.340157 -0.340619 0.296607 -0.00554402 -0.337262 0.181397 -0.253897 -0.449756 -0.309897 0.343363 0.165324 -0.323441 -0.235566 -0.523481 0.101976 -0.497212 0.00879147 0.506247 -0.484656 -0.379217 0.467952 -0.287312 -0.341753 0.414868 0.182861 0.254627 0.486885 -0.439255 -0.0923389 0.343351 0.260794 -0.307144 0.522201 0.0208975 0.241328 -0.356574 -0.346102 0.479591 -0.302794 -0.0558585 0.323251 0.409367 0.146274 -0.443367 0.435057 -0.271565 -0.318234 -0.110423 -0.293164 -0.267443 0.0024317 -0.312092 -0.00247361 0.193877 -0.440009 -0.313226 -0.0790944 -0.510595 -0.18841 0.354063 0.391448 -0.456054 -0.510949 0.403667 0.0831844 0.301407 -0.482943 0.30118 0.270815 -0.19595 -0.309717 0.0583778 -0.299364 0.392939 0.16964 -0.433275 -0.428 0.356227 0.0273138 -0.139301 -0.419878 -0.509116 0.0445676 0.0834474 0.232311 0.131896 0.287883 -0.386843 0.190608 -0.427129 0.490036 0.0684497 -0.39787 -0.528392 -0.0692442 0.210102 0.320412 0.0247655 0.0144425 0.0941732 0.326329 0.24328 
