-0.0202336 0.00914121 -0.0594635 -0.0975642 -0.0833886 -0.0474987 0.0344686 -0.0305951 0.0279123 -0.143984 -0.0179872 -0.0814935 -0.0337668 -0.0778757 -0.0397177 -0.108057 -0.00603968 -0.0321074 0.0269752 -0.0139619 -0.0246385 0.0346653 0.087141 -0.00771077 0.0306199 -0.0561667 0.0771002 0.046203 -0.0302443 0.0327346 -0.0908886 -0.0289003 -0.058556 -0.0143689 -0.171298 -0.0256272 -0.0127781 -0.106525 -0.0099002 -0.0852482 -0.00415511 -0.0113048 -0.0683906 -0.0748054 0.00399607 -0.10987 -0.0648078 -0.0692167 0.0585496 -0.352939 -0.0525961 0.0989209 0.0735786 -0.155825 -0.0343215 -0.0860744 0.0931275 0.105952 -0.071469 0.0961821 0.0127643 -0.0200636 -0.0367895 -0.0475209 -0.0132971 -0.080589 -0.024643 -0.22904 -0.0536575 -0.00740066 -0.0496754 0.0785163 0.017863 -0.0805825 -0.13552 -0.0431324 0.0913474 -0.0942837 -0.181227 -0.11133 -0.0207712 0.0816024 -0.0621407 -0.041148 -0.323333 0.0345392 0.0569197 -0.230349 0.0298396 -0.198946 -0.0856921 -0.0611496 -0.192651 -0.116721 -0.0465842 -0.0719626 -0.0348209 -0.309375 -0.0571249 -0.337184 -0.0427204 0.00552132 -0.0400038 -0.108078 0.0711613 -0.0168209 -0.0282595 -0.0807046 -0.0238 0.0190206 -0.089459 -0.0382696 0.000625805 0.0336184 0.0706075 0.0206117 -0.0887883 -0.00324665 0.0805844 -0.208713 0.054652 -0.0023241 -0.0154979 -0.0481282 -0.112792 -0.084857 -0.191037 -0.00577428 -0.179799 0.0339766 0.00813598 0.0691281 0.125787 -0.022475 -0.027023 -0.0473556 -0.0416104 -0.0131685 0.0615349 -0.0277443 -0.00492029 -0.0540689 0.0846825 -0.13793 0.0695668 0.0322827 -0.0168173 -0.032417 -0.0713117 -0.0391702 -0.186407 0.0410979 -0.0287717 0.0135857 -0.0191507 0.0828447 0.0846881 0.00641362 -0.086797 -0.0969114 -0.109333 -0.0418925 -0.0251309 0.0234769 -0.0416507 0.0237181 -0.114732 0.037473 -0.076266 0.0834248 -0.0318305 0.0792186 0.0367313 -0.0920975 0.0658015 0.000634122 0.0763742 0.00259048 -0.431532 -0.0611863 0.028531 -0.139199 -0.0541669 -0.0074598 -0.0438868 0.0610687 -0.0458026 -0.0725668 -0.0159102 -0.124043 -0.0897724 -0.0518893 -0.103313 -0.117585 0.0101169 0.0240008 -0.312738 -0.0964094 -0.122991 -0.0660352 -0.108997 0.0724054 -0.0871647 -0.0631156 -0.0419138 -0.0876597 -0.0522221 -0.0685136 -0.0895769 0.166662 -0.131395 0.0218367 -0.0639975 0.06738 -0.0342002 0.0434509 0.0161482 0.0595275 0.0903617 0.163125 -0.0325172 -0.128021 -0.0815744 -0.0815306 -0.0306818 -0.041503 -0.196894 -0.0253857 -0.0206498 -0.0339061 -0.0477374 -0.063205 0.0196049 -0.107267 -0.0152107 0.0463285 0.00191633 -0.11796 -0.103711 0.0412131 -0.0787506 -0.10499 -0.0142256 0.0432109 -0.0995543 0.0648706 -0.158335 0.0945862 -0.00791397 -0.236605 -0.00394506 -0.169887 0.0696863 0.0218578 -0.0489753 -0.0313775 -0.0114765 0.0304195 -0.0200098 0.00160879 -0.0235594 -0.0370928 -0.156606 0.0578707 -0.0585852 0.0931833 0.0521068 -0.0317131 0.0186313 0.0951311 0.00369299 -0.0379622 -0.147285 -0.123013 -0.0612192 -0.0473691 -0.0199537 0.0499219 -0.00802309 0.00443142 -0.354863 0.0469537 -0.045984 0.021005 0.0746014 -0.0128134 -0.0216484 -0.0337324 -0.0822981 -0.018176 -0.0272668 -0.0812869 -0.00574952 -0.0517778 -0.0901311 -0.0285061 -0.070181 0.0652798 -0.0392544 -0.00200221 -0.0235924 -0.130122 -0.132915 -0.0199226 -0.0842995 -0.0924479 0.072117 0.0483411 -0.0142799 -0.0722939 -0.0868518 -0.114375 -0.0363336 0.0138802 0.0574012 -0.0312733 -0.0823769 0.0465745 -0.0507129 -0.0153372 -0.0824531 -0.0455112 0.0449336 0.00406008 -0.0392128 0.0837355 0.0200186 -0.00548181 -0.0369663 -0.0300354 -0.278779 -0.158763 -0.123328 -0.0350079 -0.0980009 -0.038361 0.0232356 0.0103539 -0.0931191 -0.0391724 0.012271 0.0784624 -0.00962671 0.121957 0.0173565 -0.0309089 0.0200129 0.0145325 0.00691477 -0.0965186 -0.148445 0.0164107 -0.0793032 -0.0523531 -0.0443666 0.103988 -0.0867501 -0.0101727 -0.108115 0.00822068 -0.0477648 0.000456749 -0.0512007 0.0272244 0.00100033 0.044032 -0.0471783 -0.142568 -0.025511 0.0222992 -0.0715912 0.00560721 -0.0635594 0.114861 -0.0797979 -0.256736 -0.0249936 0.0123752 -0.0555709 -0.0420528 0.102657 0.00334479 -0.114604 -0.099171 0.0695587 -0.0393237 -0.0866884 0.044247 0.0740499 0.0152443 -0.0410962 -0.160395 -0.0589028 0.0169655 0.0242367 0.0328323 -0.0345348 -0.111458 0.16924 -0.0182903 -0.0308345 -0.0339563 -0.112258 -0.0832887 -0.0124489 -0.022351 0.0311828 -0.0870389 -0.044374 0.0798931 -0.0726686 -0.0898904 -0.00283084 -0.0175605 0.0415875 -0.0240199 -0.0373103 0.0919648 -0.057647 0.0294321 -0.00372895 0.00565784 -0.148733 -0.0473376 -0.0419102 -0.0142216 -0.00228443 -0.0384779 -0.156773 0.0219019 -0.0112976 -0.0751061 -0.0822883 -0.0728326 0.00491685 0.0151351 0.0521336 -0.139208 0.0810044 -0.00646978 0.0842468 0.0250681 0.019162 0.0277038 0.0384283 -0.00677275 -0.00797719 0.0332507 -0.0266974 0.0738467 -0.0454192 0.111488 -0.0251217 0.00256658 -0.0273802 -0.0778759 0.0445922 -0.0577124 -0.125758 -0.0653261 -0.178888 -0.192795 -0.225605 -0.103596 0.00292932 0.00954807 -0.00534632 -0.0560053 -0.0539683 -0.0250342 -0.04638 -0.0483882 -0.00542094 -0.211008 -0.0107371 -0.185838 0.13979 -0.026193 0.0283085 0.0521821 0.0364181 0.00992288 -0.000560794 -0.0746273 0.00940679 0.0621854 0.0016801 0.0322777 -0.114709 -0.228114 0.0637484 0.0209098 -0.0351046 -0.066038 -0.0706966 0.0398199 -0.125035 0.0598009 0.0613327 -0.0319531 -0.323891 -0.0469597 -0.0726537 0.0434649 -0.0227677 -0.0881201 -0.0840589 -0.0270299 -0.00929589 -0.133055 -0.0230585 -0.0512555 -0.102971 -0.131543 -0.0966622 -0.04881 -0.0605073 -0.127091 -0.0880781 -0.157163 0.0174471 -0.0318918 -0.120854 0.0707973 -0.0696433 -0.0272183 0.0655596 -0.0245232 -0.109971 -0.0406395 0.0284115 -0.050659 -0.100083 0.0664268 -0.00905505 -0.228268 -0.0945951 -0.150335 -0.0379583 -0.182554 -0.0917042 -0.123233 -0.0776331 0.112784 -0.0844395 0.0948192 -0.165614 -0.135644 -0.0707322 -0.0373086 0.0937763 -0.0727336 0.00125131 0.0928943 -0.0644661 -0.0754464 -0.0294335 -0.0593396 0.074125 0.0063336 0.0191858 -0.0747922 0.0899927 -0.226623 0.131483 -0.0410997 -0.0501174 -0.0748127 -0.0933393 -0.397636 0.0972429 0.0195943 -0.0806283 0.0134389 0.0545065 0.00288725 -0.0227864 -0.132013 -0.12156 -0.0609926 0.00442881 -0.223465 -0.137847 -0.121914 -0.0661228 -0.0539011 0.0369325 -0.107087 0.0598179 -0.070535 -0.0892243 -0.0504841 -0.368714 -0.132981 0.0641306 -0.0660316 -0.0189201 0.0252422 -0.0253363 0.0240696 -0.106584 -0.0411134 -0.0242939 0.0270365 0.0066306 -0.143873 -0.133887 0.0717957 -0.0426921 0.0185484 -0.090562 -0.0684164 0.0266509 -0.071156 -0.026014 0.0820499 0.00521081 0.0675499 0.0107087 -0.0623654 -0.141707 -0.0748492 -0.00753283 -0.0105955 -0.106587 0.0360198 0.0100883 -0.0401555 -0.0623738 -0.255606 -0.117522 -0.0870342 -0.118005 -0.270451 0.0231323 -0.0220286 -0.072772 -0.160759 -0.17171 -0.310679 0.0379639 -0.0137898 -0.0185876 -0.0692567 -0.134031 -0.0155903 -0.0902774 0.0437936 -0.0431967 0.0870097 -0.0688527 -0.0679592 0.130979 -0.0624914 0.0592749 -0.0409344 0.0716689 0.0742 -0.0829682 0.0709021 0.000871885 0.0614389 -0.406067 0.0341431 0.0324646 0.0287095 -0.0112145 -0.107555 -0.0219747 0.0841403 -0.138675 0.02055 -0.111834 -0.0300746 -0.0109978 -0.0457488 0.00635549 -0.0498924 -0.0939009 0.0730692 0.038697 -0.0927678 -0.0173604 -0.0336478 0.000834252 -0.0887994 0.0315687 -0.0165011 0.0722698 -0.0310837 -0.043335 -0.0270919 -0.0699721 -0.0358352 0.0305487 0.00135181 0.0243293 0.12617 -0.0386691 0.163177 -0.124282 0.00245234 -0.052004 -0.0407135 -0.0944438 0.0362242 -0.0721952 0.0994258 0.0750883 0.0726621 0.0172154 -0.0192283 -0.157077 0.105789 -0.0344618 -0.0647133 0.0298898 -0.0861445 -0.0515442 0.0552076 -0.131857 0.059001 -0.0205055 -0.0457154 -0.105999 -0.118027 -0.0598929 -0.0740487 -0.0925968 0.0598077 0.0226344 -0.129174 -0.0854531 -0.0229646 -0.28056 0.0398523 0.0636469 -0.0505054 0.00718764 -0.0950851 -0.0743387 -0.0481431 -0.0428286 0.0629546 -0.0868422 -0.039645 0.057842 -0.0186948 -0.00216386 -0.140169 0.109549 -0.0798454 -0.0272066 -0.00559127 0.0329737 0.215479 -0.035706 -0.308437 0.0140447 0.0593076 0.0160303 -0.102018 -0.0232213 -0.0516853 -0.11381 -0.0946994 -0.0391646 -0.0546893 0.00866893 -0.0123984 -0.000338492 0.0822939 0.0338597 -0.0270089 0.00513964 -0.0178765 -0.0206075 -0.0786111 -0.0182148 -0.0347511 0.0634886 -0.00839708 -0.0881758 0.0801342 0.10356 0.0647872 -0.0293026 -0.0196277 0.00236777 -0.159648 -0.106084 0.0704131 -0.0324095 -0.0997872 -0.0555202 0.0166277 -0.0420997 -0.21363 -0.00885391 -0.0538428 0.0314256 -0.283093 -0.106341 0.0320759 0.0134851 0.054633 -0.0174127 0.0621063 -0.101571 0.0514155 0.0656412 -0.0156902 -0.0341146 0.00952345 -0.0864295 -0.0771293 0.0282902 -0.0564024 -0.0662575 -0.0768246 0.0324079 0.0508026 -0.131351 0.0842593 0.0437196 0.0143059 0.0456133 -0.0854979 0.0475807 -0.0564948 -0.05007 0.0665867 -0.0258914 -0.0677432 0.00834088 -0.103751 -0.253802 0.0882502 0.179474 -0.0979301 -0.0208264 0.0760929 -0.0819815 0.0293281 0.0107301 -0.0150265 0.0156604 -0.136613 0.0834937 -0.0159349 0.0910068 -0.0211383 -0.0489418 0.0228856 -0.0266533 -0.0301297 -0.0319789 0.0191009 -0.0391104 0.0735976 -0.0256648 0.0291431 -0.106985 -0.0479301 -0.0646676 -0.0632547 -0.153302 -0.0672324 -0.232499 -0.108977 -0.102628 0.0509649 -0.0922906 0.00992896 0.0143742 0.0714062 -0.0105327 -0.109838 -0.010221 -0.0390574 -0.0466148 -0.0163814 -0.0296934 -0.0849862 -0.077706 -0.074059 -0.101822 -0.173488 -0.193229 -0.0397787 -0.00851756 -0.124066 0.0731737 0.0827162 0.114755 0.191369 -0.111182 -0.0698277 0.0701851 -0.0369653 -0.0144092 0.000218814 -0.124273 0.0315861 -0.018382 0.0258784 0.0607133 0.0180058 -0.0232279 -0.0189465 -0.0103573 -0.098021 -0.0130032 -0.016909 0.0836229 0.00675613 -0.0241007 -0.174189 -0.0773724 -0.0164709 -0.135827 -0.0336892 -0.104049 -0.0135783 -0.0865675 0.0237908 -0.122338 -0.0424525 -0.0139099 0.151903 0.0469456 -0.0503188 -0.0709152 0.0834062 0.0616075 -0.0453894 -0.00292309 -0.0441391 -0.0339924 0.0921332 -0.0261507 -0.0150227 -0.071327 0.0763847 -0.00766576 -0.242443 -0.00443664 0.0173427 -0.102596 0.016067 -0.00807419 0.0845631 -0.0984373 -0.0269904 -0.133828 -0.0999966 -0.0516088 -0.061098 0.0197041 0.0394432 0.0568376 -0.00780378 0.0238777 0.0807311 -0.205377 -0.0653716 -0.0920521 0.0651185 -0.0228972 0.0410579 0.0435342 0.0651916 0.0240461 -0.0353373 0.0105264 -0.0734129 -0.17351 0.0161522 0.0308161 0.105136 -0.0675521 -0.0918174 0.0421133 -0.0118316 0.0229361 -0.133663 -0.00550395 -0.068968 -0.0613075 -0.0914221 -0.0948423 -0.0100131 -0.0208922 0.00280713 -0.0280613 0.0770907 -0.149725 -0.00715639 -0.0266757 -0.04606 -0.00955746 -0.00865321 -0.196667 -0.0642448 -0.048252 0.00858236 0.0536264 -0.0126144 -0.193297 -0.0501286 0.0668956 0.161087 0.0345907 -0.00717912 -0.0711442 -0.0727872 0.0219028 -0.0210291 0.0801698 -0.0701488 -0.0849783 -0.109614 -0.069004 0.0118827 