0.497705 -0.238015 0.338063 0.687304 0.483261 -0.318584 -0.381564 0.299204 -0.24365 0.0535046 -0.0332977 0.499338 -0.1434 0.0245481 0.601198 0.459909 0.199899 0.293682 -0.359751 0.132908 -0.537942 -0.302733 -0.380468 0.438379 -0.786681 -0.0723102 -0.399228 -0.411313 0.648281 -0.332327 0.00339527 0.467103 0.36741 -0.227641 0.0042446 0.0283009 0.00308995 0.493305 -0.225726 0.316518 0.028961 0.328912 0.043447 0.763086 -0.201571 0.108101 0.360842 0.505795 -0.469712 0.488204 0.369645 -0.388657 -0.323347 0.162731 0.460205 -0.147525 -0.463297 -0.437206 0.166968 -0.474015 -0.306591 0.65555 0.476368 0.426147 -0.24705 0.0365009 -0.139213 0.370883 0.0375181 0.232972 0.320707 -0.51181 -0.0574744 0.497 0.950132 0.42968 -0.21968 0.272209 0.153834 -0.140989 0.258416 -0.349789 -0.257702 0.449711 0.354794 -0.168346 -0.258692 0.770985 -0.148566 0.247591 0.537684 0.436865 0.191872 0.786367 -0.0510509 0.784512 -0.0680063 0.334761 0.407476 0.855601 -0.0101766 -0.31408 0.621167 0.473316 -0.330267 0.506836 0.165718 -0.0693876 0.120494 -0.241486 0.66717 -0.216247 -0.102785 -0.085168 -0.297656 -0.223259 0.0428339 -0.188658 -0.349905 0.773917 -0.38433 -0.400093 -0.00880744 0.299646 0.56061 0.517277 0.222094 -0.0494241 0.296391 -0.142158 -0.20697 -0.105773 0.0627056 -0.273457 -0.387351 0.261268 -0.387215 0.39624 -0.379585 0.297023 -0.451898 0.524803 -0.481276 -0.000425816 -0.742973 -0.256059 0.352111 0.275441 0.433907 0.625389 0.173885 0.382266 -0.429501 -0.408227 0.0292478 -0.458554 -0.465208 -0.329119 0.252627 0.731156 0.102276 0.288697 -0.490181 -0.398663 0.653197 -0.32932 0.415697 -0.40389 0.597064 -0.4886 0.486394 -0.451814 -0.548864 0.5139 0.139878 -0.350842 -0.363229 -0.179412 0.463909 0.385008 -0.155754 0.419854 0.34554 -0.0414543 0.203687 -0.391154 0.0327056 0.556166 -0.0474244 0.582237 0.176061 0.438555 0.24249 0.165301 -0.511055 0.299687 0.353473 0.509069 0.419747 0.394845 0.575823 0.312474 0.782831 0.597836 0.180933 -0.0220552 -0.3564 0.374615 0.472582 -0.396439 0.241651 -0.252951 0.388199 -0.0976518 0.364256 -0.169298 -0.157179 -0.257103 -0.39469 0.166901 -0.21202 0.177585 -0.00974403 0.559919 -0.254603 0.270995 0.475094 -0.432173 -0.0295555 0.0926004 0.527175 -0.0529651 -0.0300189 0.360356 -0.0539406 -0.576472 -0.17729 0.137219 0.366309 -0.263279 0.177906 0.285886 -0.0346635 -0.129329 0.579025 -0.266092 0.160832 -0.449757 -0.169111 0.181828 0.208725 0.170047 -0.161521 -0.353689 0.111561 0.146204 0.305205 -0.171104 0.339285 -0.306508 0.533687 0.197765 0.340036 -0.256591 -0.0330746 -0.441616 -0.227296 0.436714 0.215276 -0.388346 -0.447645 -0.0955628 -0.0736093 0.125558 0.167633 -0.228176 0.323911 -0.230812 -0.405253 -0.496908 0.95329 -0.578743 0.613454 -0.193338 -0.334109 -0.0611135 0.524247 0.532513 0.295877 0.260037 -0.324522 0.210529 0.0491576 0.329608 0.869769 0.563568 0.446641 -0.101087 0.350876 0.0511686 -0.210163 0.859713 0.432927 0.435171 -0.00861874 0.108838 -0.325629 -0.221217 0.423125 -0.132326 0.237387 0.403783 0.122959 -0.251655 -0.307744 0.224306 0.2175 -0.420013 0.302388 -0.000799036 0.382343 0.271368 -0.312047 -0.316601 0.00634764 -0.345561 -0.374918 -0.136831 -0.164778 0.497875 0.47737 0.00707094 0.80629 0.42092 -0.153957 -0.157517 -0.102712 0.167144 0.143971 -0.247119 -0.391367 -0.463793 -0.437143 0.190971 -0.0328591 -0.202805 -0.187611 -0.447397 -0.166392 0.488178 -0.0473667 -0.571374 0.16917 0.295688 0.00729349 -0.34482 0.463307 0.191519 0.0292775 -0.321133 0.0981598 0.041972 0.392141 -0.0994963 -0.245384 -0.0734312 0.26891 0.329887 0.626409 -0.0113903 0.469112 -0.393965 -0.316818 -0.426078 0.616493 0.310865 -0.210501 -0.431425 0.396756 0.241284 -0.424679 -0.0937897 0.493828 0.196841 -0.310209 -0.124148 0.416103 -0.469253 -0.418762 -0.0343142 -0.245208 0.236081 0.377334 -0.414225 -0.514557 -0.512908 -0.159973 0.712618 0.201613 -0.0394265 -0.395536 0.117665 0.374534 0.268438 0.101792 -0.145177 -0.202989 0.468593 -0.0217524 -0.35711 0.109528 0.0222935 0.140044 0.174183 -0.2568 0.444855 -0.40693 -0.425745 0.784595 -0.380749 -0.0107792 -0.292309 0.375831 -0.229948 -0.369474 0.446081 -0.326561 0.390805 0.168495 -0.522746 -0.271803 0.311978 0.129437 0.404509 -0.216322 -0.314908 -0.732062 0.0120507 -0.384235 0.269546 0.316107 0.221497 -0.347332 -0.221481 -0.157398 -0.0761539 -0.307224 -0.117953 0.0494407 -0.335265 0.312384 -0.44337 0.0120661 -0.261573 -0.47642 0.603764 -0.256251 0.184256 0.0436732 0.500669 0.199988 0.336034 0.227935 -0.19165 0.15571 -0.556989 0.0420196 0.399342 0.132567 0.17704 0.027753 0.0466575 -0.146518 0.305907 0.415775 0.250067 -0.35947 -0.482739 -0.492331 0.264389 -0.153699 0.161412 0.314982 0.0723404 -0.551729 -0.534502 -0.268271 -0.280234 0.158135 0.419496 -0.33502 -0.0217959 0.208869 0.483347 0.386525 -0.108448 0.857064 -0.30809 -0.816957 0.0170431 0.708506 0.361214 0.499491 -0.352486 -0.122712 0.206226 0.447342 0.0719296 0.277733 0.4757 -0.280668 0.496597 -0.0637938 0.473591 0.30961 0.340117 0.478196 0.348769 0.641032 0.0775282 0.197406 0.522452 0.86158 -0.195908 0.446003 0.0829097 0.220149 0.315291 0.676151 0.354461 -0.0664346 0.135294 0.334667 -0.356433 0.454434 0.721029 0.746074 0.332826 -0.0811872 -0.0165111 0.202177 0.15847 0.039792 -0.383818 0.33628 -0.477343 0.211514 -0.205436 0.637439 -0.00223351 -0.330573 0.251629 0.0223317 -0.479744 0.305491 0.0616725 0.163106 0.12328 -0.342432 -0.103461 -0.193108 -0.0800268 -0.510016 0.26378 0.0953832 0.357638 0.28719 -0.0485122 0.012942 0.991839 -0.400641 -0.473057 0.159146 0.151906 -0.305645 -0.309154 0.150246 0.937025 0.455216 -0.029733 -0.0651858 0.66772 0.491403 0.909818 0.459778 0.320994 -0.0980076 0.0180273 -0.645789 0.00834044 0.531372 -0.0278068 0.785958 0.507043 -0.314033 -0.252917 0.31004 0.341254 0.535995 -0.239638 0.692872 0.548671 -0.116867 -0.100151 0.0665172 0.445692 0.164919 -0.324493 0.327375 -0.165312 0.157805 0.479979 -0.287395 0.425889 0.398565 -0.951997 -0.116932 -0.324925 0.153244 0.105791 0.385247 0.472226 -0.472362 0.0755591 0.0706389 -0.103286 -0.528881 -0.401523 -0.503395 0.806351 0.0602918 0.64102 0.402256 0.885337 -0.373362 -0.0299604 0.000952086 0.351645 0.15593 0.519599 -0.396818 -0.195317 0.439355 -0.149684 0.920742 0.298906 0.233512 -0.213176 0.517344 -0.351185 0.708579 0.123816 0.236686 0.453491 -0.357061 -0.0287428 -0.32125 -0.294102 0.123176 -0.309964 -0.401018 -0.241732 0.494529 -0.562166 -0.788452 -0.401146 0.111221 0.43261 0.589369 -0.257918 0.254026 -0.493424 -0.126345 0.175001 -0.137097 -0.248973 -0.22731 0.489846 0.0901849 -0.767984 -0.549769 0.155576 0.469004 0.305733 -0.136007 0.596247 -0.492634 0.0540912 -0.701581 0.198845 0.40235 -0.20468 0.468252 0.29064 -0.154545 -0.481812 0.352592 0.43321 0.243214 0.248677 0.882513 -0.191718 0.491086 -0.00997185 0.657721 -0.343862 0.0940571 -0.468988 -0.438039 -0.319485 -0.228933 -0.402592 -0.047751 -0.392679 0.484227 0.529801 -0.497111 0.496957 -0.0099187 -0.277495 0.116027 -0.369976 0.103185 0.0945993 0.315584 0.479167 0.0565753 0.0997671 0.568993 -0.293071 -0.572585 0.127893 0.319539 -0.500326 0.842192 -0.163635 -0.298223 0.155472 -0.0785355 -0.204501 0.476859 0.138671 -0.0476075 -0.23707 0.521513 -0.198627 -0.272745 0.357815 -0.278505 0.182855 -0.462886 0.409446 0.414656 0.124584 -0.193674 0.240971 0.0209842 0.688325 -0.211341 -0.230127 -0.466171 0.0037015 0.534226 0.159038 0.360149 0.672612 0.501112 0.427919 -0.17207 -0.157409 -0.506599 -0.526198 -0.547747 -0.0215564 -0.484598 0.317769 0.400456 -0.110182 -0.0317692 -0.436099 -0.281896 0.0245009 0.503127 -0.52087 -0.98524 -0.267565 0.254249 0.141723 -0.433869 0.555366 0.76952 -0.313896 0.0676052 0.274367 0.292936 -0.547709 0.0813527 0.485757 0.282476 0.491707 -0.468713 0.319838 0.80225 -0.427711 -0.180277 -0.236609 0.356459 -0.452346 0.661556 -0.10692 -0.307294 0.503925 0.328634 -0.456554 0.576616 0.408143 -0.338249 0.210853 -0.0497097 -0.0566939 0.209648 -0.031242 0.120141 -0.269305 -0.466108 -0.0346714 -0.415802 0.184923 -0.384077 0.450027 0.318925 -0.310846 0.215082 -0.0651386 -0.209429 0.532436 0.292929 -0.406884 -0.482572 0.379823 -0.00522287 -0.110801 -0.299414 -0.779975 -0.226178 -0.149032 -0.555637 0.152898 -0.91835 -0.00700902 -0.450472 0.327895 0.368624 0.274597 0.574522 0.468891 -0.467656 -0.495072 0.182483 -0.303709 0.463311 -0.449009 0.179563 0.11944 0.368911 0.238825 0.0443626 0.0752857 0.634862 0.0830656 0.84252 -0.306204 0.660346 -0.149487 -0.144318 -0.468815 0.352465 0.19039 0.342857 0.502693 0.404107 0.386263 0.251561 0.518594 0.0194754 0.239681 -0.0185998 -0.0749524 0.149621 -0.492996 0.392556 0.109466 -0.388896 -0.321559 -0.309006 0.405791 0.363606 0.254274 -0.341827 0.194792 -0.185163 -0.425974 0.906879 -0.455452 -0.0150731 -0.266381 -0.327935 -0.243215 0.215369 0.489294 -0.240805 0.356991 0.315512 0.504219 -0.190904 -0.239608 0.0657865 0.0925465 0.415389 -0.287734 0.185306 0.131067 0.701977 0.322335 0.306941 -0.545737 0.118606 0.289121 0.305193 0.362204 -0.20694 -0.436492 0.739254 -0.788827 -0.350794 -0.382272 -0.0108906 -0.347614 0.140062 -0.200138 -0.176405 0.4296 0.456401 -0.421587 0.422413 0.563857 -0.121101 -0.0138024 0.133375 -0.191798 0.136176 -0.381824 0.459902 -0.214032 0.378438 0.17977 0.117322 -0.194505 -0.177842 -0.0763555 -0.237591 0.0878118 -0.209037 -0.430343 0.297144 -0.229003 0.2724 -0.716034 0.381308 -0.3956 -0.198723 -0.310457 -0.559343 0.543553 -0.24995 0.358379 0.210453 0.21208 -0.390395 -0.429907 0.572562 0.648263 -0.225528 0.410707 -0.66725 0.549099 0.0311448 0.183504 -0.032169 0.687378 0.446264 0.307192 -0.0915772 -0.342703 0.369556 -0.375343 0.357758 -0.169521 -0.154022 0.318178 -0.0397374 0.169048 0.232818 -0.028585 0.0951485 -0.550508 -0.25047 -0.321315 0.189518 -0.046084 -0.248819 0.225325 -0.306458 -0.164211 -0.16222 -0.0853286 -0.15405 -0.47732 -0.366265 0.5413 0.438154 0.590659 0.04628 -0.181737 
-0.356845 -0.212691 -0.0377188 0.674523 0.205673 0.321598 -0.205693 -0.303212 -0.0773628 -0.50935 0.10434 0.731475 -0.45015 0.355905 -0.361303 0.330672 -0.212661 -0.122667 -0.0580592 0.0410745 0.287513 0.496974 0.496459 -0.446479 -0.705518 -0.527861 0.43456 0.441433 -0.482891 -0.0964273 -0.36583 -0.310805 0.470975 0.138981 -0.448736 -0.0334699 -0.131298 -0.00256033 0.129429 0.325379 0.0988466 -0.298498 0.420871 0.413107 -0.511784 0.690454 0.0075248 -0.0689131 -0.144841 0.466785 0.676433 -0.529697 0.434167 0.370287 -0.250898 0.426344 0.479232 -0.565377 0.500757 0.508889 0.0226099 -0.560079 -0.255733 -0.229505 0.158041 -0.304415 0.252517 -0.563141 0.29859 -0.159536 0.562928 -0.227597 0.0543703 0.20202 0.906122 0.28383 0.164475 -0.0435818 -0.566639 0.506866 -0.158944 0.458334 -0.49165 -0.18332 0.319908 -0.285955 -0.425935 0.552052 -0.155494 -0.570637 0.221666 0.669331 -0.615209 0.747909 -0.356651 0.369896 -0.444062 0.424584 0.387965 0.782407 -0.261696 0.0718507 -0.373602 0.351141 -0.3981 -0.432864 -0.0310843 0.356736 0.0513941 -0.0295994 0.662811 0.4276 -0.173091 0.606531 -0.443623 -0.39412 -0.310036 -0.212914 0.452751 0.382867 -0.141966 0.151737 0.0188341 -0.0919282 0.0435274 0.221505 -0.542669 0.225809 0.132034 0.208997 0.0427393 0.58485 -0.248121 0.201514 0.249399 -0.0269804 0.336985 -0.348402 -0.192607 -0.136865 0.184155 -0.261413 -0.291914 -0.542259 -0.553355 -0.0895948 -0.297015 -0.0963514 0.52119 -0.381684 -0.589038 -0.409454 0.283311 0.0665278 0.0256431 -0.323124 -0.333737 0.0684505 0.655752 0.718116 -0.339121 -0.0863027 0.284088 -0.0136735 -0.428765 -0.0258068 0.440249 0.417997 0.181012 -0.252718 -0.29242 -0.230751 -0.0300318 0.0105417 -0.247486 0.110551 0.411241 -0.00384341 0.466518 0.168742 0.17142 0.774467 0.502107 -0.14457 0.0839849 -0.185679 0.129946 0.52043 0.522221 0.0660909 0.176912 -0.339406 0.451317 -0.173323 0.111447 -0.506967 0.306233 0.049399 0.417971 -0.0360738 0.282916 -0.37708 0.511421 -0.275135 0.103527 -0.577509 0.357695 0.00420754 0.0547553 0.369987 -0.460895 -0.433507 0.515801 0.566078 0.166505 -0.278278 -0.32694 -0.405498 -0.607883 -0.467221 0.30959 0.123454 -0.344385 0.2079 0.451706 0.450278 0.460477 0.260591 -0.228899 0.145283 -0.278216 -0.496877 0.416237 0.366621 -0.229142 -0.118437 0.378112 -0.458731 0.351589 -0.120583 0.425732 0.700494 0.0644551 0.279594 0.711998 -0.482272 -0.583275 -0.450547 -0.280583 -0.439553 -0.218939 -0.559777 0.171591 -0.00779125 0.215572 0.0882713 -0.255184 -0.0706637 -0.210846 0.11393 -0.449737 -0.0167244 0.347313 0.388386 -0.189134 0.529863 -0.353953 -0.247902 -0.327288 -0.543065 0.11741 -0.550782 -0.44286 -0.431631 0.272652 0.50143 -0.201934 0.293423 -0.507734 -0.00950785 0.648101 -0.0682909 0.282984 -0.0559876 0.427111 -0.226325 -0.393217 -0.351278 0.256317 -0.172055 0.312764 0.3212 0.462116 -0.0723916 0.479712 -0.390354 -0.134676 0.625975 -0.120059 0.0206451 -0.538292 0.796762 0.178248 -0.315749 -0.513882 -0.207958 -0.519981 -0.247985 -0.384902 -0.287871 0.63099 0.398521 0.268918 -0.00614459 -0.150888 0.0739351 0.308927 -0.124406 0.382566 0.047125 0.257497 -0.0700986 -0.12889 0.0796874 0.330696 -0.545787 0.257737 -0.354228 -0.593961 -0.383153 0.233659 -0.462928 0.844016 -0.222526 -0.379756 -0.529814 0.139014 -0.203174 -0.149185 0.255896 0.0685795 -0.29312 0.187231 -0.326872 0.346377 -0.589757 0.285463 0.0673757 -0.167396 0.0161284 -0.433605 -0.519872 0.418644 -0.0133222 0.185323 0.305668 0.0618702 -0.129855 0.473734 0.0561769 -0.0810757 0.324466 0.108368 -0.137028 -0.602251 0.375197 -0.0379629 0.325798 -0.507608 0.468695 -0.0679881 0.0938779 -0.580122 -0.54958 0.58906 0.295936 -0.560876 0.0726635 -0.135175 -0.0597933 -0.611896 -0.132639 0.201472 0.444902 0.392153 -0.283695 0.237509 -0.101241 0.190748 0.280903 0.445186 -0.504363 -0.0332036 0.0344986 0.00960589 -0.0503471 -0.300003 0.811231 -0.371482 -0.249445 0.286956 -0.0316958 0.566736 0.470683 0.0124731 0.150479 0.126385 0.0672121 -0.40302 0.464559 0.460037 -0.312728 -0.132813 0.0924008 -0.455858 -0.306658 0.372638 0.416692 0.344363 -0.0450268 0.107845 0.0676573 0.0495491 0.505971 -0.594922 -0.454004 -0.140129 -0.200319 0.461077 0.0432456 0.142072 0.239597 0.478462 0.0155656 0.0402551 0.00962491 -0.574209 -0.388616 -0.588971 -0.255575 -0.39027 -0.455845 -0.0117476 -0.169667 0.0842552 0.132239 0.134299 -0.198235 -0.0245873 -0.389423 0.515658 -0.597881 0.39778 -0.266183 -0.59612 0.630233 -0.212423 0.000159633 -0.403308 -0.116853 0.485196 0.27771 -0.446845 0.502276 -0.245533 0.120809 -0.000807113 -0.124123 0.198699 0.051334 0.117724 0.402672 0.068476 -0.466772 -0.401779 -0.44922 0.262648 0.313977 -0.010641 -0.321983 0.602595 -0.295975 -0.277255 0.218296 0.12795 -0.182978 0.0357639 0.465577 0.291188 0.201458 -0.289383 0.459129 -0.0612474 -0.167486 0.467061 0.270876 0.837586 -0.256136 -0.700197 0.103295 0.649101 0.327881 -0.157459 -0.134242 0.2515 0.0620137 0.038902 -0.0373826 -0.206688 0.46472 0.217783 -0.283384 -0.290263 0.451729 0.681203 0.549098 -0.214241 0.0120463 0.572094 -0.539221 -0.353352 -0.384265 0.751695 0.15597 -0.0803976 0.138504 -0.235597 -0.211977 0.725123 -0.139816 0.560329 0.220169 0.761618 -0.324119 -0.449908 0.473447 0.626708 0.252987 -0.39798 -0.495354 0.185161 0.340022 -0.333366 0.339212 0.491499 -0.436687 0.18608 -0.52452 0.389331 -0.0929458 -0.514287 0.562293 -0.0485916 0.488674 0.0142206 0.484736 0.0893129 0.434372 -0.510019 -0.0131751 -0.495271 -0.572943 -0.376603 -0.506597 -0.288297 -0.177129 0.383079 -0.592649 0.418238 0.860565 -0.608314 0.0343813 0.239195 -0.294545 -0.214672 0.0601341 -0.0514114 0.913344 0.231867 -0.486754 -0.165932 0.439674 0.446855 0.78229 0.144119 -0.0799282 0.265918 -0.35903 -0.50852 0.298015 0.208434 -0.33002 0.71411 0.421799 -0.235138 -0.501627 -0.27264 -0.574088 -0.401836 -0.440951 0.744843 -0.274795 0.244696 0.153846 -0.0796286 0.789225 -0.360433 0.391739 0.73482 0.273052 0.441667 -0.157933 -0.0680252 0.632645 -0.266903 -0.626194 -0.286746 0.392976 -0.244032 -0.0791019 0.368294 0.712047 0.198664 -0.00452288 0.319978 0.585534 0.116772 -0.615622 0.474217 0.499829 -0.304822 0.639111 0.390816 0.779245 -0.0132757 -0.272341 0.323963 0.16722 -0.365226 0.303519 -0.0918343 -0.477815 -0.321104 0.360461 0.91587 -0.16702 0.585885 -0.32675 -0.329525 -0.468493 0.424603 0.320275 -0.349846 -0.141104 -0.228049 0.614167 -0.363191 0.420969 0.459864 -0.462259 0.146357 -0.395996 0.471115 -0.0263136 -0.695112 -0.0394065 0.37981 0.577146 -0.441552 0.545452 0.25282 0.0203385 0.499209 0.397994 -0.209745 0.495674 -0.54631 -0.185199 -0.316794 -0.44919 -0.0569807 0.572387 -0.538326 0.0461027 -0.345561 -0.0881438 -0.0194883 -0.0645509 -0.399936 -0.0629303 0.263513 0.350585 0.132946 0.225008 -0.279365 0.160563 -0.566348 -0.516857 -0.0119325 -0.459529 0.846714 -0.498192 0.352499 0.596358 0.626676 0.530308 0.397545 0.420091 -0.306317 -0.445258 -0.53957 0.216611 -0.467841 -0.48402 -0.2784 -0.175361 -0.0222527 0.200635 0.224024 0.234236 -0.440884 -0.175005 0.0514047 0.294106 0.441883 0.37276 -0.227081 0.445731 0.674219 0.317333 -0.566409 0.307264 0.535453 0.296428 0.550674 0.245026 0.256291 0.27626 0.147548 0.504527 0.519641 0.210852 0.178972 0.363376 0.611301 0.409675 -0.46924 -0.234039 0.089914 0.33904 -0.653539 0.198465 -0.25651 0.0552781 -0.104391 -0.46267 -0.130598 0.545637 -0.506397 -0.303361 0.0693934 -0.382907 -0.448442 -0.0974428 0.645539 0.621327 -0.317833 0.28904 0.000523478 0.26655 0.16274 -0.223231 -0.015472 -0.246606 -0.512202 -0.255859 -0.305527 -0.284008 0.0773226 0.313838 -0.495575 0.127277 0.00574572 -0.238706 -0.560097 0.391951 -0.0702165 0.04046 0.148958 0.0266642 0.712884 -0.482172 0.246265 0.417528 0.120212 0.0931239 0.253778 0.423117 -0.263665 -0.229131 -0.0412263 0.312032 0.258638 0.435487 -0.462162 0.257584 -0.260206 -0.197655 0.77467 0.394188 -0.486201 -0.384796 -0.168721 0.0871201 -0.116475 0.0189032 -0.157436 0.226182 -0.564035 -0.563201 -0.321188 0.475471 -0.407462 0.470063 0.289372 0.306925 -0.105859 0.0249026 -0.0996672 0.116046 0.482883 0.358023 -0.105954 -0.203811 0.259526 0.0621838 -0.427867 0.475338 0.405427 0.735569 0.303352 0.5889 -0.601914 -0.659685 -0.00174925 -0.238248 0.094094 0.400243 -0.629036 0.0933976 0.47195 -0.189738 -0.112383 -0.508358 -0.411526 -0.355781 0.324564 0.0395018 0.326086 -0.447547 -0.377029 -0.0307218 0.768872 0.0230156 0.477376 0.227462 -0.53026 0.446423 0.422266 0.375261 0.631639 -0.119018 0.651327 0.271198 -0.0592273 -0.206007 -0.343913 0.766225 -0.303316 -0.279049 0.10891 -0.273224 -0.0518052 0.762051 -0.316828 0.121916 -0.444567 -0.500857 -0.415399 0.369506 -0.3735 -0.41668 -0.300316 -0.418431 0.208184 -0.526828 0.401618 0.241121 0.381624 0.0814196 0.127964 0.131955 0.890416 -0.0381051 -0.182857 -0.113631 0.295698 -0.0329764 -0.118033 -0.422438 0.17297 0.726077 -0.27636 -0.382865 0.583204 -0.0808144 0.0959812 -0.417502 -0.00503013 0.172578 0.373836 0.124973 0.64386 -0.318557 0.292444 0.0211618 -0.381656 0.362334 -0.222399 -0.438361 -0.345486 0.394801 0.389224 -0.469258 -0.265166 -0.641723 0.161191 -0.599456 0.00555637 0.673757 -0.485735 -0.324468 0.711189 -0.293923 -0.394127 0.586994 0.192232 0.382562 0.633448 -0.477717 -0.10863 0.415894 0.257222 -0.376553 0.509153 0.0736287 0.369021 -0.393066 -0.397202 0.681171 -0.361142 -0.0405022 0.327217 0.434271 0.142749 -0.470731 0.626664 -0.403739 -0.276192 -0.0915092 -0.33001 -0.336508 0.048572 -0.329446 0.00506279 0.17558 -0.469186 -0.331086 -0.0793828 -0.599048 -0.18966 0.642886 0.546063 -0.425535 -0.658905 0.413317 0.0827742 0.277774 -0.531883 0.634672 0.260193 -0.217968 -0.310416 0.0901822 -0.268427 0.404851 0.335443 -0.43777 -0.448416 0.577434 0.0716168 -0.145343 -0.409395 -0.500491 0.108259 0.129507 0.239159 0.175217 0.282393 -0.423802 0.225176 -0.504163 0.496956 0.0876386 -0.425479 -0.545951 -0.0512983 0.251966 0.38241 0.15705 0.0320933 0.100157 0.304469 0.333321 
