0.210595 -0.0659158 0.26138 0.217387 0.615641 -0.389539 -0.281364 0.189156 -0.248726 0.246888 0.149974 0.0989691 -0.240602 0.0264569 0.337002 0.431717 0.2263 0.326456 -0.601462 0.16597 -0.568847 -0.580878 -0.447243 0.449863 -0.455585 -0.151908 -0.459107 -0.472279 0.38798 -0.322696 0.0255276 0.382127 0.12247 -0.531817 0.272511 0.205544 0.0883377 0.426532 -0.543838 0.311601 0.0492328 0.218837 -0.0446045 0.482671 -0.240009 -0.198509 0.306436 0.529062 -0.661067 0.533733 0.157093 -0.434477 -0.367939 0.290593 0.328667 -0.227779 -0.50903 -0.62285 0.041807 -0.823021 -0.284468 0.365946 0.510758 0.426593 -0.266612 0.174958 -0.206053 0.309004 -0.0372061 0.270269 0.193541 -0.573179 -0.0579856 0.283298 0.539231 0.194764 -0.418788 0.314928 0.236027 -0.143831 0.325943 -0.432984 -0.112249 0.441457 0.244323 -0.259132 -0.371527 0.47487 -0.235993 0.237595 0.561093 0.104214 0.120061 0.276546 -0.0934956 0.515699 -0.147589 0.379893 0.140954 0.545999 0.0429817 -0.325935 0.434816 0.525642 -0.502229 0.471119 0.174402 -0.0945128 0.20411 -0.250439 0.210056 -0.203925 -0.0669145 -0.458012 -0.721538 -0.397655 0.140324 -0.0758968 -0.394604 0.288743 -0.495357 -0.515584 0.0518503 0.297776 0.554468 0.29733 0.238225 -0.0696434 0.179063 -0.302501 -0.325071 -0.40595 0.203876 -0.317367 -0.39509 0.266282 -0.517744 0.213616 -0.455822 0.157715 -0.469501 0.529405 -0.756943 0.0598784 -0.644891 -0.56986 0.177019 0.182623 0.156053 0.53536 0.216533 0.22522 -0.788187 -0.716931 0.023485 -0.496683 -0.537274 -0.691477 -0.0671747 0.33221 0.0846166 0.326369 -0.549331 -0.565043 0.605426 -0.375365 0.340267 -0.700846 0.576157 -0.554999 0.437975 -0.412321 -0.711013 0.60871 0.150269 -0.371184 -0.618881 -0.121371 0.35653 0.389167 -0.247329 0.0832308 0.075099 0.042374 0.308706 -0.44172 0.0922108 0.292893 -0.342852 0.56686 0.140279 0.457493 0.394849 0.0725419 -0.5523 0.227114 0.365728 0.541431 0.40945 0.390403 0.35689 0.196239 0.50132 0.630318 0.165413 0.182758 -0.3818 0.400468 0.30268 -0.805459 0.151978 -0.27964 0.147321 -0.405151 0.157669 -0.236051 -0.25707 -0.545901 -0.661504 0.218053 -0.35027 0.212209 0.0971672 0.635548 -0.451188 0.0225431 0.268674 -0.599062 0.199624 0.152421 0.549961 -0.0761027 -0.22987 0.393314 -0.0957058 -0.565423 -0.356074 0.167537 0.257024 -0.396417 0.190738 -0.0211585 0.00723113 -0.176071 0.353365 -0.430138 0.0890674 -0.695201 -0.138316 0.631037 0.20405 0.11435 -0.16988 -0.389024 0.236961 0.260154 0.296877 -0.169526 0.210571 -0.702569 0.402314 0.194649 0.143925 -0.29305 0.132612 -0.484746 -0.258698 0.420689 0.1487 -0.489103 -0.523863 -0.235733 0.161472 0.0964783 0.271829 -0.233374 0.213887 -0.336096 -0.309035 -0.666187 0.399585 -0.53889 0.37581 -0.34149 -0.38166 -0.0313462 0.302396 0.546566 0.207986 0.334349 -0.528667 0.175085 -0.31582 0.329384 0.411319 0.464839 0.337348 -0.531124 0.32309 0.205299 -0.311396 0.465205 0.614936 0.2921 0.0245888 0.093896 -0.39764 -0.300915 0.233082 0.0206693 -0.0642276 0.411832 0.0750135 -0.411441 -0.669059 0.28477 0.180849 -0.463701 0.127484 0.0427677 0.351898 0.195803 -0.567818 -0.403568 0.131098 -0.767575 -0.724682 -0.166902 -0.171079 0.546459 0.48751 0.0367982 0.41515 0.427256 0.0924895 -0.160021 -0.196922 0.170509 0.127333 -0.350314 -0.416393 -0.472156 -0.486868 0.189425 -0.241918 -0.51433 -0.204225 -0.683687 0.454432 0.526244 0.0579075 -0.274399 0.186452 0.253731 -0.0366287 -0.460049 0.280764 0.0854814 0.207114 -0.555365 0.129359 -0.163994 0.392335 -0.133937 -0.378656 -0.284011 0.326394 0.220549 0.360937 -0.294246 0.422075 -0.430413 -0.10108 -0.581505 0.230772 0.172653 -0.244039 -0.792523 0.284831 0.238604 -0.870549 0.039641 0.569659 0.365118 -0.403001 0.22748 0.44666 -0.481982 -0.580551 -0.248534 -0.346408 0.140697 0.248288 -0.613674 -0.771921 -0.614252 -0.0311749 0.492144 0.141381 -0.061691 -0.418518 0.216716 0.102908 0.0655616 0.0560444 -0.193627 -0.321239 0.47778 -0.0236718 -0.39343 0.168818 0.140725 0.150757 0.168475 -0.303803 0.244547 -0.437117 -0.450987 0.500266 -0.71378 -0.0369209 -0.591633 0.373114 -0.325923 -0.229571 0.436043 -0.196736 0.232399 0.184736 -0.543325 -0.265817 0.239746 0.170618 0.36008 -0.328629 -0.433874 -0.440265 0.107712 -0.475012 0.206784 0.438937 0.273696 -0.449593 -0.152163 -0.205656 -0.116449 -0.496397 -0.303584 0.0918104 -0.432513 0.0590402 -0.891386 -0.182424 -0.17661 -0.217489 0.278465 -0.34185 0.132045 0.0811463 0.531133 0.187166 0.510267 0.198946 -0.29086 0.116561 -0.552373 0.0920541 0.287174 0.229071 0.257385 0.0975038 -0.0501976 -0.313522 0.290102 0.2697 0.2226 -0.41815 -0.506874 -0.526776 0.240626 -0.374631 0.113988 0.345416 0.0999138 -0.571036 -0.675634 -0.347133 -0.289983 0.176046 0.221316 -0.340992 -0.172581 0.138996 0.412228 0.112963 -0.455811 0.241562 -0.435328 -0.632841 0.0140308 0.393929 0.225562 0.324754 -0.364251 -0.104414 0.174239 0.38077 0.145363 0.436834 0.642289 -0.300318 0.535903 
0.161787 0.731835 0.00319456 0.126995 0.830309 0.436436 0.497512 0.129109 0.211298 0.875899 0.734962 -0.22536 0.554347 0.173235 0.238289 0.441661 0.487628 0.539052 -0.473144 0.177707 -0.201657 -0.45193 0.47206 0.741233 0.51576 0.268621 -0.308131 0.0476721 0.168063 0.161763 0.0384491 -0.215936 0.170899 -0.673223 0.367909 0.155439 0.545227 0.0299433 -0.512647 0.12953 0.0189069 -0.585149 0.492164 0.189318 0.207669 -0.110497 -0.262077 0.221019 -0.518015 0.21913 -0.624709 0.276082 0.041453 0.550183 0.0606665 -0.145782 -0.189813 0.710501 -0.550736 -0.64157 0.183177 0.17135 -0.141916 -0.119745 0.150519 0.704838 0.363377 0.126354 -0.109262 0.570746 0.784422 0.654407 0.634344 0.36722 0.147161 0.0323134 -0.395072 0.132505 0.840933 -0.0345181 0.623483 0.717365 -0.457799 0.186239 0.352359 0.430068 0.615973 -0.0689745 0.416767 0.82568 0.204646 -0.122192 0.101162 0.100206 0.166013 -0.144212 -0.0895124 -0.00303275 0.207016 0.810847 -0.356404 0.0836183 0.626531 -0.174045 -0.283991 -0.132696 0.261594 0.156372 0.304746 0.104726 -0.464282 0.071344 0.114691 -0.358382 -0.681101 -0.312481 -0.617487 0.687957 0.0626746 0.400457 0.560312 0.590727 -0.405403 0.119389 0.233802 0.342005 0.322479 0.771548 -0.364087 -0.284464 0.573936 -0.318694 0.750578 0.355602 -0.17548 -0.107774 0.601723 -0.391159 0.500487 0.205436 0.244127 0.773945 -0.591088 -0.282471 -0.503906 -0.446498 0.198225 -0.3144 -0.451921 -0.0822557 0.801752 -0.486862 -0.61461 -0.561176 -0.0683409 0.107144 0.612261 -0.539584 0.12097 -0.335192 -0.102944 0.135584 -0.257987 -0.43971 0.0110887 0.621243 0.0469115 -0.549136 -0.287786 -0.283098 0.591122 0.354397 -0.404301 0.821888 -0.560658 -0.00204208 -0.483928 0.152551 0.24437 -0.0686868 0.571188 0.272444 -0.214127 -0.560358 0.416799 0.463426 0.345411 0.298657 0.606798 0.149747 0.483009 -0.0227043 0.532694 -0.383726 0.0312991 -0.431609 -0.282075 -0.162346 -0.115479 -0.249297 0.166911 -0.416191 0.698079 0.8512 -0.536404 0.712964 -0.174028 -0.126401 0.196436 -0.629704 0.162926 -0.0661812 0.558949 0.671152 0.0363392 0.0486036 0.319887 -0.427688 -0.519239 0.293555 0.0038165 -0.594223 0.679004 0.250945 -0.388308 0.0373356 0.0253036 -0.474764 0.371852 0.291278 0.231241 -0.310414 0.257978 -0.0211832 -0.391332 0.289366 -0.335717 0.361319 -0.476763 0.460277 0.691645 0.180429 -0.234142 0.292709 0.150264 0.480654 -0.244733 -0.544008 -0.563055 0.0557593 0.732437 0.159516 0.0377774 0.437808 0.830723 0.351283 -0.0412217 -0.13938 -0.446524 -0.662632 -0.391079 0.0764205 -0.265151 0.330423 0.540605 -0.116746 -0.124243 -0.287914 -0.380747 -0.212968 0.59681 -0.587449 -0.501266 -0.296355 0.407069 0.117743 -0.41835 0.673365 0.545448 -0.520227 0.0186753 0.276624 0.510934 -0.712993 0.0487114 0.347228 0.379445 0.73717 -0.387649 0.546272 0.581589 -0.487971 -0.333531 -0.112269 0.690011 -0.264978 0.507796 -0.414134 -0.328 0.747102 0.346824 -0.250596 0.8306 0.423724 -0.207139 0.341834 -0.183722 -0.163204 0.256973 -0.219001 0.147867 -0.230585 -0.510246 -0.321687 -0.521225 0.287311 -0.478942 0.534057 0.198383 -0.352525 0.352228 0.0374652 -0.442792 0.669603 0.482494 -0.599341 -0.685329 -0.0385608 -0.0980856 -0.0816958 0.202826 -0.456272 -0.0225001 0.177885 -0.612479 0.229439 -0.488594 0.0652387 -0.494636 0.388425 0.448491 0.199992 0.556828 0.666092 -0.56291 -0.6467 0.0113697 -0.535759 0.859301 -0.183508 -0.126425 0.103543 0.290969 0.378733 0.0839333 -0.242573 0.404753 0.12246 0.750331 -0.432174 0.494978 -0.166266 0.116905 -0.544205 0.416372 -0.222085 0.450076 0.786987 0.488742 0.487676 0.428774 0.0923415 -0.0222564 0.0709659 0.0016974 0.156661 0.267577 -0.680963 0.386583 0.240294 -0.678914 -0.460602 -0.0660616 0.49207 0.4524 0.425412 -0.124712 0.108795 -0.453841 -0.520575 0.612264 -0.453522 0.0149182 -0.477308 -0.60149 -0.479621 0.264999 0.765386 -0.265004 0.0239316 0.427414 0.790811 -0.42358 -0.265235 0.082633 0.218403 0.532822 -0.0862241 0.262215 0.109371 0.635613 0.564786 0.534833 -0.600747 0.0771433 0.177951 0.351721 0.466572 -0.0246736 -0.55758 0.604147 -0.465645 -0.202277 -0.254212 -0.136929 0.13984 0.218137 -0.407941 -0.179209 0.578813 0.138618 -0.435366 0.620313 0.487284 -0.256735 -0.340173 -0.261151 -0.306167 0.0504026 -0.484784 0.727308 0.103944 0.516066 0.270704 -0.0962148 -0.090811 -0.389887 -0.380808 -0.322607 0.0212887 -0.23745 -0.69488 0.421397 -0.0945524 -0.0787531 -0.320852 0.566393 -0.408543 -0.26197 -0.0866125 -0.612401 0.685656 -0.150524 0.482695 0.173285 0.158307 -0.402245 -0.459967 0.833564 0.430059 -0.477882 0.595215 -0.393528 0.889909 0.0442968 0.299474 -0.199039 0.544337 0.578675 0.395378 -0.210885 -0.36521 0.572057 -0.430304 0.144616 -0.403031 -0.27096 0.00554226 0.0412508 0.299636 0.300835 -0.078572 0.0346376 -0.391983 -0.239034 -0.481039 0.30023 -0.242443 -0.495842 0.257409 -0.130176 -0.0753196 0.0112962 -0.187173 -0.148682 -0.516965 -0.305942 0.552094 0.657123 0.866731 -0.0968599 0.030736 
