-0.0025613 -0.0274943 0.0216967 -0.00810837 0.0587571 0.00298329 0.0259145 0.0579266 0.0280828 -0.0599337 0.0462437 0.0459163 -0.0403322 0.0105903 0.0300203 0.0496936 0.0362337 0.0992668 -0.0553671 -0.00768563 0.0167193 -0.0110969 -0.0280895 0.0230752 -0.117979 -0.0463265 -0.0489539 -0.0174879 -0.0465639 0.0453905 0.0156655 -0.00339259 
-0.0253616 -0.011507 -0.0195262 0.290737 -0.026856 -0.0911692 -0.159988 -0.738346 -0.0663684 -0.145721 -0.0614932 0.0466207 0.127788 0.0688772 0.845177 0.19661 -0.223823 0.580724 -0.667555 -0.0339151 -0.0172673 0.0595978 -0.0627198 -0.33241 -0.355107 -0.0596307 -0.22888 -0.0849447 -0.305961 0.247449 -0.341707 0.305232 
-0.0366998 -0.0201668 -0.0221404 0.129018 -0.00516977 0.000927427 -0.13028 -0.298778 0.011882 -0.0739557 -0.0309413 0.0305806 -0.0267551 0.028528 0.349889 0.0415122 -0.0926673 0.311196 -0.313374 -0.0688551 0.0303036 -0.0472122 0.0395309 -0.132807 -0.196016 0.0535184 -0.0305407 -0.0702087 -0.224187 0.0455048 -0.202424 0.0861241 
-0.0784459 -0.0945325 0.0125478 0.175227 -0.0199301 -0.00163085 -0.0969757 -0.306135 -0.00445164 0.0328815 0.0184667 0.320639 0.085567 0.0145164 0.154291 -0.0903324 -0.0844644 -0.00548609 -0.273729 0.141568 -0.0723003 -0.0673773 -0.125938 -0.0967304 -0.179241 0.0201925 0.0232117 -0.0465319 -0.143971 0.198084 -0.0149713 0.0885539 
-0.0826118 0.0653511 0.0480174 0.00479937 -0.0583319 -0.0299276 0.0410552 -0.0917205 -0.0222231 0.00639199 -0.0399391 0.15344 0.0304782 0.0268057 0.0247111 -0.0850495 -0.114587 0.00617192 -0.21029 0.0491994 -0.0724355 -0.0372598 0.0505501 -0.176116 -0.133989 -0.0072631 0.0281014 -0.0389016 -0.0676464 0.115804 -0.0365384 0.0684726 
-0.0141224 0.0126745 0.0294663 0.0437218 0.04401 -0.0508958 -0.0204134 -0.232592 -0.0499342 -0.0525729 -0.0828257 0.0689365 0.0662144 -0.0162075 0.17072 0.058578 0.0106957 0.100022 -0.151381 0.00403776 -0.0193693 -0.0809436 -0.0619034 -0.0672165 0.0006948 -0.0157023 -0.00640212 -0.0910113 -0.0153973 0.0711372 0.0488399 0.0845665 
-0.0803535 -0.021909 0.0168879 0.112472 -0.0635791 -0.00520377 -0.166232 -0.568836 -0.0897482 -0.0232977 0.0221263 0.485135 0.0908089 0.0650225 0.219899 0.0164114 -0.0655636 0.122449 -0.502948 0.280269 -0.0992244 0.031913 -0.0274234 -0.301306 -0.271365 -0.0362897 -0.113762 -0.055833 -0.233024 0.330778 -0.0386718 0.149683 
0.0565304 -0.011847 0.00778322 0.192708 -0.0335989 0.00768623 -0.13861 -0.570118 -0.0774194 -0.0299276 -0.0736015 0.0240312 0.0966379 0.133753 0.67384 0.14321 -0.161486 0.529401 -0.524448 0.0143744 0.0320213 0.0600035 -0.0172284 -0.29216 -0.329324 -0.0845802 -0.210036 -0.0555839 -0.232627 0.209223 -0.199535 0.251087 
-0.14498 -0.0243921 -0.0176229 0.106375 -0.111413 -0.025306 -0.147566 -0.54577 -0.0353208 -0.0250616 0.0388577 0.561425 0.097348 -0.0172964 -0.0642313 -0.0384943 -0.138217 0.173839 -0.630632 0.378816 -0.0373732 0.0396768 -0.0233238 -0.382392 -0.512249 0.0109499 -0.0455534 -0.0129128 -0.438511 0.254952 -0.0268262 0.213002 
0.0397583 0.0132598 -0.0546781 0.313308 -0.00870825 -0.106037 -0.233765 -0.67434 0.00438977 -0.0693613 -0.0741183 0.158112 0.0845274 -0.016889 0.701615 0.227499 -0.119677 0.446381 -0.558746 0.0219515 0.00902487 -0.0293906 -0.011157 -0.350051 -0.219399 0.0565558 -0.119904 -0.0495613 -0.326804 0.141671 -0.214351 0.185767 
-0.0360385 -0.0171418 -0.0142557 0.0359429 -0.0702549 -0.0200867 -0.000367078 -0.140126 0.115178 0.0316498 -0.0470327 0.0921782 -0.0298819 0.0560044 0.189249 -0.00557619 -0.0364984 0.0710941 -0.0820916 0.011323 0.00301526 -0.0247727 -0.0756665 -0.0577192 -0.0297212 -0.0654841 0.0392881 -0.0411976 -0.0620893 0.00671929 -0.145639 0.208563 
-0.0446087 -0.00901974 -0.0709368 0.151923 0.00963668 -0.0297283 -0.197084 -0.563067 0.0138443 -0.202942 -0.0536722 0.0994039 0.0840729 0.0658575 0.62441 0.189091 -0.231448 0.588237 -0.491947 0.0210691 -0.0128892 0.0232752 0.0318484 -0.24384 -0.318456 -0.0273206 -0.31355 -0.139073 -0.311309 0.211391 -0.304605 0.193428 
-0.0833279 0.0498755 -0.0245782 0.0440247 -0.0580015 -0.00918922 -0.144552 -0.273568 -0.0328417 0.0141145 0.0148773 0.337817 0.00547563 0.0366303 -0.0257226 -0.0547892 0.00792576 0.00901542 -0.206018 0.186884 -0.0436321 0.063032 0.020852 -0.181329 -0.277121 0.0263151 -0.0210674 -0.0781601 -0.201146 0.152076 -0.060012 0.00738203 
0.0013498 0.022453 -0.00372248 -0.0209205 -0.0380709 -0.0614887 0.00145559 0.000387767 -0.0634373 -0.0822946 -0.0967993 0.0952599 0.0797464 0.0422535 0.081008 -0.0168852 -0.0296765 0.0985082 -0.00483549 0.015688 0.0240336 -0.0815678 -0.0163859 -0.0326799 -0.0513021 -0.0823259 -0.0197782 -0.0939366 -0.140274 0.0549982 -0.0150997 0.0096381 
-0.0834153 0.0331596 0.0245777 -0.0483985 -0.00535157 -0.0256402 -0.0880913 -0.338334 0.00372015 -0.0650663 0.0248858 0.397456 0.102109 -0.117046 0.101816 0.0758178 -0.0764079 0.285703 -0.198534 0.0133082 -0.126954 -0.0528252 -0.0529931 -0.122241 -0.185368 -0.0493072 -0.0877252 -0.138032 -0.241533 0.126279 -0.165847 0.151287 
0.030915 -0.032771 -0.00418595 0.0295092 -0.0503492 0.0425729 -0.0134043 -0.069844 -0.0299086 -0.0425042 0.0369768 0.162317 0.0587323 0.00514862 0.0776611 -0.101497 -0.0361409 0.0310461 -0.0120087 -0.0172754 -0.00613649 -0.0148681 0.055675 0.0588811 -0.00368139 -0.0393574 -0.0903075 -0.0132473 -0.158237 0.0209029 -0.0340201 0.0219752 
-0.0849846 0.0444333 -0.0275226 0.163599 -0.0874153 -0.0397906 -0.134702 -0.654983 0.032796 -0.0237328 -0.0671139 0.58185 0.128865 -0.0190824 0.243485 0.0976891 -0.116602 0.109253 -0.660831 0.344734 -0.0798912 0.0795641 -0.0278819 -0.342621 -0.400989 -0.0310713 0.0502853 0.0684609 -0.253795 0.376651 0.0120541 0.160954 
-0.019621 0.0755569 -0.00955357 0.150883 -0.0376292 -0.0379575 -0.103844 -0.366568 -0.01167 -0.0296784 -0.00146726 0.0446398 0.0304747 -0.030994 0.393752 0.120588 -0.030365 0.113048 -0.327316 -0.00392883 -0.0345999 -0.00777185 0.00604324 -0.241898 -0.156625 -0.0222218 -0.0818804 -0.0415714 -0.108714 0.125037 -0.0830458 0.15156 
-0.070842 0.0133274 -0.0484349 0.116864 0.0286525 0.0110011 0.0292293 -0.0686586 -0.0214396 -0.046715 -0.0676411 0.0962672 -0.0469891 0.0762683 0.130777 -0.0168219 -0.0378014 0.131007 -0.0123232 0.00121158 -0.000813072 -0.0601704 -0.0104255 -0.0671882 -0.0310174 -0.0608921 -0.082259 -0.000894465 -0.00994474 0.123497 -0.0984009 -0.00399248 
-0.017649 -0.0156785 -0.031252 -0.0225029 -0.0860404 -0.0101527 0.0276454 -0.175315 -0.011658 -0.0585971 -0.0171421 0.264256 0.0573893 0.0643247 0.0656564 0.0015357 -0.058675 0.149328 -0.19357 0.0525415 0.0312321 -0.0730447 0.0469934 -0.13556 -0.145283 -0.0277999 -0.0666419 -0.0745719 -0.187022 0.175899 -0.157591 0.0560304 
-0.117107 0.0609815 -0.0400217 -0.000578412 -0.0780031 0.00395699 -0.0845105 -0.320372 0.0918884 -0.13416 -0.0247811 0.627088 -0.00574539 0.0117147 0.319951 -0.0390296 -0.209122 0.416037 -0.277041 0.0122279 -0.0183173 -0.0950247 -0.0413741 -0.188899 -0.282203 -0.222736 -0.0053047 -0.281738 -0.289585 0.231158 -0.289355 0.215393 
-0.0461772 -0.0164854 -0.0436884 -0.00964935 -0.0181904 -0.0402783 -0.000610685 -0.136528 -0.0114405 -0.127492 0.0297085 0.0728861 0.000996979 0.0790552 0.107707 0.0258272 -0.0553867 0.220795 -0.0856829 -0.00940638 -0.024036 0.00550627 0.0236458 -0.0173932 -0.0101977 -0.0496495 -0.0817012 -0.051401 -0.0935847 0.0582401 -0.0362155 0.0775213 
-0.0526259 -0.0857911 0.0483996 0.0648694 0.00464217 0.0707116 -0.144522 -0.186302 -0.0565044 -0.0253966 -0.0511166 0.280607 0.0718255 -0.0151248 0.0343323 -0.0341593 0.015235 0.150955 -0.134398 0.118504 -0.00844132 0.0465989 0.0140961 -0.165857 -0.0926384 0.0298935 0.0203569 0.0118762 -0.129469 0.114077 -0.0537118 0.0745586 
0.00621234 -0.00179505 -0.00263112 0.135622 -0.01538 -0.0191462 -0.102318 -0.351657 -0.0402019 0.0240495 -0.00695426 0.0585405 0.0269235 0.00243939 0.516346 0.0711482 -0.0862368 0.267695 -0.332089 -0.0934526 0.00994537 0.00699694 -0.0684362 -0.144155 -0.0989926 -0.0268625 -0.0990915 -0.0869526 -0.165793 0.1328 -0.145748 0.103353 
-0.0533347 -0.002756 0.000532993 0.100005 -0.0106821 0.0510708 0.003129 -0.10307 0.0272199 0.0784492 -0.0792551 0.14447 0.0793571 -0.0183954 0.0352738 0.0089017 0.00192094 0.0884078 -0.172737 0.0547438 0.0528285 0.0541568 0.0720635 -0.0998665 -0.141466 0.0281696 0.0535797 0.0152487 -0.106749 0.0753345 -0.0199676 0.0445203 
-0.0356081 0.00340871 0.0238717 0.204644 -0.0271615 0.0150371 -0.157249 -0.433012 0.0735176 -0.0621114 -0.0954418 0.236542 0.0858181 0.0247703 0.464029 0.0842962 -0.0523447 0.368018 -0.460285 0.113857 -0.0457147 -0.0102156 0.0942431 -0.380398 -0.162422 -0.0115794 -0.114015 -0.0577473 -0.123658 0.204111 -0.033605 0.203326 
-0.0244313 0.0221563 -0.0282736 0.0457469 0.0165955 -0.0095518 -0.03633 0.00863327 -0.0523024 -0.0481483 -0.0227567 0.0555367 0.0181163 0.0589514 0.106172 0.0206276 -0.0187169 0.12162 -0.0342558 -0.00622113 0.0153322 -0.0022915 -0.0172288 -0.0581522 -0.0580221 -0.0489859 0.0117476 -0.0876744 0.0192047 0.0369953 -0.0694565 0.00202521 
-0.0275316 -0.0234922 0.0130004 0.0682522 0.0075826 0.0679954 -0.0490129 -0.225273 0.000239313 0.0549279 -0.0216212 0.159898 -0.00387574 -0.0328082 0.135354 -0.0165481 0.0412397 0.0560363 -0.141584 0.0559192 -0.0209948 -0.0499649 -0.0275728 -0.115053 -0.139641 0.00947643 0.0814873 -0.0191155 -0.151357 0.167242 0.0149476 0.0186308 
-0.0250808 -0.0530636 -0.0692049 0.12929 -0.17398 0.00415957 -0.108098 -0.374408 0.00207401 -0.0137355 -0.0195739 0.337024 0.0262678 0.0276329 0.0402863 -0.0247905 -0.0218466 0.0619872 -0.340546 0.205291 -0.0732128 0.020023 0.0628948 -0.21584 -0.273407 -0.0142344 0.0825393 -0.0459934 -0.227655 0.275815 -0.0979669 0.0796399 
-0.108219 0.0342124 -0.0252006 0.0380852 -0.0670739 -0.0385787 -0.00515211 -0.157321 -0.0249247 0.0202687 -0.0237919 0.133457 0.0857496 -0.00767731 0.10573 -0.00289364 -0.0690645 0.0839391 -0.108471 0.107132 0.0159549 -0.0302737 -0.0569613 -0.106181 -0.179202 0.00813593 0.0243621 -0.116665 -0.0905928 0.0706158 -0.0560883 -0.0270727 
-0.12917 0.0558184 -0.0422167 0.0875621 -0.0577344 0.0227211 -0.0577598 -0.42833 0.040519 0.0142336 -0.0725577 0.465507 0.0413792 -0.0463223 7.51727e-05 -0.0515712 -0.157839 0.16512 -0.365967 0.196488 -0.0108625 0.036323 0.00572465 -0.195291 -0.286966 -0.0706047 -0.0751443 -0.0516876 -0.29672 0.281443 -0.110542 0.155753 
0.0674232 0.106431 0.0137698 0.114385 -0.00566376 -0.0318131 -0.0834138 -0.318573 0.0190806 -0.20526 -0.0265339 0.199064 0.0330581 0.0774473 0.668428 0.10318 -0.0829757 0.505919 -0.332161 -0.00552465 -0.0322749 -0.0376328 -0.0677076 -0.187232 -0.216572 -0.0554635 -0.194181 -0.0505644 -0.287261 0.100131 -0.266917 0.226948 
-0.0811081 0.0713252 0.0354562 0.293303 0.0804496 -0.16318 -0.242228 -0.569393 0.00575247 -0.0741701 -0.0959596 0.0402585 0.119507 0.0392366 0.771561 0.307508 -0.114083 0.533581 -0.572196 0.0256669 -0.0865136 -0.0744008 -0.0572256 -0.230876 -0.229444 -0.078994 -0.222368 -0.0971161 -0.279264 0.210764 -0.319777 0.267325 
-0.00280196 -0.034675 -0.0409202 0.216152 -0.048037 -0.172054 -0.150171 -0.635737 0.0799287 -0.0596463 -0.0708476 0.0083667 0.167763 0.0483054 0.764835 0.253502 -0.173128 0.486006 -0.483609 -0.0852109 0.0111571 -0.0223718 0.00842684 -0.314415 -0.210188 -0.0204555 -0.249704 -0.0582144 -0.299665 0.188824 -0.235416 0.251473 
0.0423163 0.0312012 -0.0192469 0.00331926 0.0338573 -0.0239653 0.0186934 -0.0845995 -0.0693506 -0.0616613 -0.0731284 0.170962 0.0531802 0.0538871 0.103365 -0.0419673 -0.0884036 0.126059 -0.0647159 -0.0141208 -0.0661947 -0.0791322 -0.00370831 -0.0412566 0.0106624 -0.0685044 -0.00144579 -0.0645264 -0.0534117 0.0724295 -0.0990017 -0.0239154 
0.0177125 0.11798 0.0242813 0.138359 -0.0823256 -0.000934707 -0.105874 -0.3983 -0.0246076 -0.0449823 -0.0759248 0.133026 0.155697 -0.102811 0.360707 0.0881655 -0.136661 0.20509 -0.3411 0.0754238 0.0493075 0.0224686 -0.0709068 -0.152566 -0.179322 0.0423922 -0.0289518 -0.0149456 -0.196995 0.126888 -0.122417 0.178391 
-0.0308638 -0.00164848 0.0110175 0.0635991 0.0247595 -0.0575517 -0.0395195 -0.329354 -0.0256946 -0.00416876 -0.041689 0.0504512 0.0095327 0.086742 0.392595 0.099971 -0.0835138 0.24271 -0.234038 -0.0010916 -0.0272961 -0.00613983 -0.0303754 -0.240248 -0.215112 0.00689707 -0.13072 -0.111206 -0.189097 0.0395639 -0.0860536 0.0896581 
0.0590218 -0.0594748 0.0809683 -0.0436846 0.0263444 -0.0406664 0.0721547 -0.0788534 0.0592136 0.00967435 -0.0124436 0.186622 0.0142034 -0.00752464 0.11366 0.00611453 -0.0379672 0.0921838 -0.0677431 0.0322352 0.0417782 0.0604315 0.0396452 -0.0317242 -0.0253891 -0.0174074 -0.026789 -0.0652095 -0.0728665 0.11592 -0.0820509 0.106605 
0.0144318 -0.0608085 0.00438323 0.1982 -0.0289069 -0.00278439 -0.113941 -0.419599 0.0361274 -0.0124819 -0.081174 0.207003 0.110561 -0.0419213 0.44086 0.0465412 -0.0627111 0.275742 -0.303199 0.00164594 0.0302125 -0.015084 -0.0623761 -0.195234 -0.0860092 -0.0554383 0.0273022 -0.0161701 -0.0892475 0.127252 -0.111986 0.154074 
-0.0870438 -0.000930265 -0.0165316 0.093453 0.0648307 -0.037749 -0.063292 -0.436895 0.0846665 -0.102684 -0.0859963 -0.0189319 0.137067 0.0695416 0.42557 0.084658 -0.0690816 0.297709 -0.442603 0.00380138 -0.0224471 -0.0388702 0.0231711 -0.18197 -0.204081 0.0206137 -0.113417 -0.0214198 -0.160948 -6.31523e-05 -0.142689 0.110364 
-0.0273363 0.00910093 0.0438366 0.00325885 -0.134635 0.0648174 -0.0482167 -0.213714 0.0511216 -0.0680319 -0.0398346 0.30396 -0.0256842 -0.0333545 0.122317 -0.0108355 -0.116564 0.299245 -0.139063 -0.0201909 -0.0278452 -0.0188243 -0.00437738 -0.0750828 -0.139963 -0.125556 -0.0293684 -0.0570906 -0.252594 0.156749 -0.136028 0.232955 
0.04672 0.0462942 0.040752 0.0612484 -0.0537062 -0.0602839 -0.0333769 -0.165937 0.00671196 -0.0644447 -0.0239452 0.0225902 -0.0199802 -0.0239457 0.201709 0.0853472 -0.0752646 0.167488 -0.207329 -0.0444743 0.0317948 -0.0162485 -0.0480253 -0.126593 -0.00615097 0.0715903 -0.066476 -0.0228711 -0.0973836 -0.0270734 -0.129148 0.0435832 
-0.017497 0.031839 0.0451891 -0.072856 -0.0263227 0.0495328 0.0544 -0.0931436 0.0223095 -0.112974 0.00788061 0.179068 0.0382762 0.0270788 0.228505 -0.000287552 -0.0187535 0.171551 -0.0288266 -0.0110342 0.0695784 -0.0276988 -0.0538345 0.0529029 -0.11367 -0.0657795 -0.0661397 -0.139709 -0.0911997 0.0907163 -0.0633719 0.0320877 
-0.0825856 -0.0458659 0.0124125 0.0439021 0.000898779 -0.0524755 -0.0768481 -0.240065 -0.0287233 0.0174697 0.0233227 0.338088 0.0281745 -0.0651746 -0.019792 -0.0311876 -0.0902323 0.130164 -0.330803 0.167611 -0.000866403 0.0420513 0.00466176 -0.191407 -0.209376 -0.0112263 -0.0175059 -0.0478288 -0.11682 0.142437 -0.0919818 0.171013 
0.038291 0.0360315 -0.00267813 0.0329082 -0.0705546 -0.0132054 -0.0877785 0.117255 0.0528141 -0.0440436 0.0457851 -0.0221394 -0.036847 0.0370357 0.0952868 -0.0641719 0.0344737 0.00910489 -0.0784941 -0.0279832 0.00723957 -0.0960769 0.0179858 0.0622695 0.0360794 -0.0512027 0.0615957 -0.00706835 -0.0502798 0.0212082 -0.0153784 0.0917572 
-0.017172 -0.0278003 0.00330075 0.19651 -0.0598621 -0.051387 -0.137573 -0.589392 -0.06237 -0.0288853 -0.0479977 0.269945 0.0832114 -0.0303189 0.53627 0.0307706 -0.108563 0.278904 -0.580581 0.0346109 -0.00801276 0.0545949 -0.0666484 -0.33196 -0.153243 0.0352945 -0.114578 0.0383669 -0.277069 0.240369 -0.0740788 0.23583 
-0.0455112 -0.0591901 -0.00700859 -0.0277209 0.0117995 0.0201967 -0.00437518 -0.00266892 -0.0491139 -0.103583 0.0263396 0.131861 -0.0342918 0.0780307 0.108207 0.0120941 -0.0535263 0.13042 -0.0235861 -0.0213756 -0.0026269 0.0949141 -0.0388148 0.00360388 -0.0196193 0.000472847 -0.107511 -0.0618523 -0.15949 0.160643 -0.139121 0.0425309 
-0.0669457 -0.0317122 0.0819243 0.055393 -0.0481387 0.00428508 -0.00733032 -0.15971 0.0489543 -0.0403641 0.031607 0.244981 0.0787412 -0.00783782 0.0367685 -0.053046 -0.104599 0.175756 -0.144613 0.00753095 -0.0838947 -0.0535463 -0.0397529 -0.00354893 -0.15277 0.0338738 0.0436489 -0.0364802 -0.111498 0.1616 0.000504895 0.0831045 
-0.0835546 -0.0395146 0.0283434 0.219611 0.0429997 -0.00989198 -0.084143 -0.441233 0.0255675 -0.0342686 -0.0192134 0.273288 0.170403 -0.0129716 0.323435 -0.0564461 -0.0365109 0.0952933 -0.349502 0.106399 0.00555115 0.000860687 0.0410753 -0.237335 -0.185584 0.0192044 -0.0264621 0.0343691 -0.145377 0.20622 -0.0662811 0.127841 
-0.0561883 -0.0111576 0.0122067 0.0741237 -0.0166457 0.0346136 -0.0566367 -0.0549655 -0.0766478 -0.143791 0.0118115 0.275793 0.0195657 0.0228896 0.147966 0.0066909 -0.0712088 0.199271 -0.0216029 -0.0637083 0.0486274 0.001935 0.0274025 -0.0492459 -0.0834808 -0.0681286 -0.0212926 -0.0534309 -0.109759 0.0891081 -0.147994 0.0494126 
-0.0659987 -0.0527735 -0.0221438 0.125526 -0.00485337 -0.0289678 0.00687706 -0.3914 -0.00761766 0.0065377 -0.0472176 0.264143 0.0989792 -0.082076 0.119234 -0.00632748 -0.159215 0.0416523 -0.348747 0.179042 0.059244 -0.0273388 0.0524068 -0.206014 -0.180065 0.048622 -0.0271017 -0.0371634 -0.208494 0.178752 0.0314906 0.13909 
0.0438254 -0.0343188 -0.020148 0.208311 -0.0301411 -0.0117779 -0.106325 -0.482251 -0.0078688 -0.0881838 -0.0725255 0.069535 0.0990672 -0.0817738 0.487013 0.186026 -0.117143 0.473785 -0.376123 -0.0163939 0.0456202 -0.0183747 0.0172414 -0.179493 -0.15144 -0.0623896 -0.0796297 -0.0300487 -0.24436 0.154889 -0.171954 0.189146 
-0.0429208 0.0422466 0.0375039 0.128585 -0.000699484 0.0407834 0.00811373 -0.137779 0.070225 0.00304111 -0.11563 0.0604339 0.0487514 -0.055887 0.182124 0.0574352 -0.0434 0.0243694 -0.0933584 0.0234155 -0.0735981 -0.061693 0.0398005 -0.080752 -0.0637044 0.0409117 -0.0227797 0.0155193 -0.0603736 0.0741208 -0.0162056 0.0438286 
-0.0206495 0.0956949 -0.00647295 -0.0130643 -0.0594067 -0.00616222 -0.0907005 -0.108406 0.0114755 0.0914997 0.0423147 0.0918073 0.024302 0.0156856 0.113229 0.0834831 0.0211948 0.0176784 -0.0327913 0.0688671 -0.0366714 -0.0128536 0.0153412 -0.0265426 -0.136024 0.00411271 -0.0279807 -0.0113083 -0.0664281 0.0888734 0.0496493 0.0485268 
-0.140383 -0.0119272 -0.0330566 -0.0786852 0.0266705 0.0328058 0.0933394 -0.0963011 0.0107825 -0.0222365 0.0648756 0.180371 -0.0230491 -0.00484762 0.133404 -0.0392308 -0.0385248 0.151034 -0.0628713 -0.0357479 -0.0376203 -0.0393277 0.024633 0.0558824 -0.147083 0.0319413 -0.0231048 -0.0937971 -0.135473 0.13884 -0.102822 0.038857 
0.0468359 0.0515682 -0.0289894 0.205689 -0.00156327 -0.0824993 -0.176035 -0.591169 0.0129439 -0.153682 -0.0596821 0.128268 0.0920498 0.0771737 0.805499 0.214208 -0.205362 0.587615 -0.526022 -0.0276357 0.0212979 0.00766782 0.00561512 -0.334877 -0.337744 -0.0334659 -0.248781 -0.0362992 -0.355102 0.184995 -0.384619 0.284299 
-0.0455013 -0.000249726 -0.0256652 0.160147 -0.00295823 0.00357165 -0.0749983 -0.218446 0.0142084 0.0302832 -0.0194169 0.18015 -0.0104877 0.0432357 0.155677 0.07006 -0.0262716 0.0566639 -0.178418 0.0819057 -0.0819675 0.0672675 -0.00203733 -0.211935 -0.133312 -0.0192592 -0.0298977 -0.0192713 -0.0722336 0.169981 -0.0712123 0.0264652 
-0.105728 -0.0873073 -0.00466438 -0.0626294 -0.00305601 -0.0520883 0.0286239 -0.106582 0.0921842 -0.0634893 -0.11163 0.186314 -0.0232824 0.00834508 0.18886 -0.0245958 -0.012398 0.258089 -0.100589 0.0160041 -0.0676357 -0.0627734 0.0437663 0.0224409 -0.0787601 -0.0954887 -0.0825212 -0.139513 -0.122387 0.0886271 -0.128497 0.15563 
0.0411968 -0.0197763 0.0542116 0.022546 -0.0411444 -0.0292291 -0.100391 -0.315067 0.0846105 -0.0225359 -0.0747072 0.417795 0.00211059 -0.00456082 0.0563738 -0.0246852 -0.12298 0.112373 -0.299456 0.147198 0.0367917 -0.00466148 -0.0143772 -0.146638 -0.241208 -0.09046 0.08925 -0.023779 -0.200789 0.167071 -0.135653 0.10067 
-0.0881011 -0.015755 -0.0387763 0.0319414 -0.0589284 0.0518543 -0.119765 -0.350179 -0.0546158 0.0157281 0.00906909 0.461826 0.102535 0.0340208 0.0180679 0.0924536 -0.0624345 0.225065 -0.379014 0.229164 -0.0806803 0.07139 -0.0211031 -0.225106 -0.258434 0.0704758 0.0575954 -0.0130475 -0.314982 0.285009 -0.0671826 0.0788729 
-0.0364749 -0.000826831 -0.0426737 0.0156392 -0.0356846 0.0227484 -0.0671251 -0.172983 -0.0444279 -0.0938093 0.0317894 0.219706 0.016582 0.0576056 0.0576929 -0.000242162 -0.102729 0.0793072 -0.190348 0.0544869 0.00115336 0.00855266 0.0661555 -0.0936101 -0.0585318 0.0168792 -0.0112887 0.0667817 -0.185337 0.152956 -0.0525733 0.0889199 
-0.0367523 0.0230059 0.0195978 0.185187 -0.0810478 0.00627911 -0.136249 -0.367958 -0.0121672 -0.0435011 -0.0182668 0.0984839 0.0237062 -0.0214362 0.241598 0.121236 -0.0724298 0.257928 -0.260343 0.0676193 -0.0239698 -0.0462552 -0.0607214 -0.245854 -0.056297 -0.015094 -0.0783706 0.00968747 -0.148035 0.0300788 -0.092499 0.168751 
-0.0952377 -0.0435389 0.0789895 -0.0110266 -0.132691 0.0064874 -0.141118 -0.533623 -0.0259431 0.0688145 -0.11003 0.526615 0.0487566 -0.0354219 0.0612839 0.000780546 -0.208817 0.183436 -0.418912 0.230189 0.00732849 0.0215532 0.04692 -0.177591 -0.366153 -0.0252787 -0.000152129 -0.0476869 -0.34331 0.229633 -0.0806254 0.183461 
-0.0516832 -0.0139633 -0.0196063 -0.00392379 0.0041819 0.0294858 -0.00186157 -0.128728 -0.0217499 -0.0026685 -0.0346375 0.145807 0.0548045 -0.0601764 0.115487 -0.0807274 0.0176455 0.147779 -0.083927 0.0784152 -0.000419876 0.0485724 -0.0404317 -0.0570808 -0.173924 -0.131534 0.0142589 -0.0823034 -0.121521 0.0336846 -0.00500832 0.0547588 
0.0275178 0.0717582 -0.0330248 0.0525512 -0.0282774 0.0415895 0.0177425 -0.170242 -0.0419733 -0.126846 -0.039112 0.085855 0.0325049 0.00572973 0.249802 0.032735 -0.092929 0.177301 -0.0694064 -0.0459437 -0.00893667 -0.0592505 -0.0229526 -0.0187328 -0.0934453 -0.0646206 -0.0418336 -0.0328901 -0.168984 0.0628042 -0.117516 0.124363 
0.00227737 0.0449657 0.0219407 0.202736 0.0281788 -0.0527796 -0.133146 -0.438145 0.0139729 -0.0358526 -0.0175501 0.184102 0.0494686 0.0361214 0.479413 0.233732 -0.0708364 0.242324 -0.538506 0.0469938 -0.017302 0.0553551 -0.031162 -0.288111 -0.0765314 -0.00449291 -0.103345 0.00884984 -0.186218 0.150089 -0.138954 0.225532 
-0.106338 0.107692 -0.0923138 0.0178182 -0.120041 0.10516 -0.0551122 -0.2885 -0.0319672 0.0172711 -0.0499469 0.340293 -0.0129736 -0.0159415 0.0236458 0.057876 -0.0836072 0.0377384 -0.308062 0.173992 0.00946662 -0.0351803 0.0507395 -0.213454 -0.253627 -0.00768803 -0.0346827 -0.0034788 -0.200405 0.17651 0.0393069 0.0616194 
-0.00474016 -0.0268071 -0.0255188 0.00774544 -0.031706 -0.0110064 -0.130093 -0.234426 0.0224313 0.0247671 -0.0188044 0.128865 0.030414 0.040142 0.0296472 0.053997 -0.00622207 0.103326 -0.137856 0.0551818 0.0311653 -0.0239606 -0.0127911 -0.0640582 -0.213142 -0.0177794 0.0206264 0.00262117 -0.150671 -0.00960426 -0.0317869 0.130547 
-0.0394265 0.0252089 -0.0239438 0.0967524 -0.00406091 -0.0337159 -0.0037157 -0.271184 0.0740331 0.0292566 -0.0358391 0.0465935 -0.00218921 0.00567892 0.323308 -0.0072383 -0.0426171 0.232599 -0.243085 0.0337046 -0.0185175 -0.0471554 0.00957765 -0.108538 -0.0774608 0.0429042 -0.130663 -0.0202538 -0.155062 0.0799546 -0.146001 0.050194 
-0.0223295 0.0469294 -0.00866786 0.0618506 -0.111038 0.0199709 -0.0875086 -0.321859 -0.0311796 -0.0973317 -0.0124563 0.338307 -0.00425696 0.000191168 0.0677849 -0.0205387 -0.112657 0.135755 -0.173654 0.152049 -0.0594669 -0.0992672 -0.0423782 -0.274858 -0.248867 -0.0238511 -0.0521702 -0.0909916 -0.187825 0.182554 -0.0163681 0.0895116 
-0.105415 0.00278828 -0.0133651 0.0289645 -0.0129136 0.0135809 -0.0470641 -0.293612 -0.0475605 -0.0468017 -0.0023286 0.382229 0.0201694 0.0408573 0.128067 0.0407947 -0.108398 0.259213 -0.219675 0.101064 -0.0373416 0.0831237 0.00781198 -0.0616885 -0.216112 -0.167044 -0.0184294 -0.0638733 -0.301473 0.179633 -0.0674171 0.114139 
-0.0481741 -0.0149709 0.0129251 0.0986652 0.00377864 -0.00197349 -0.00770463 -0.141752 0.0580968 -0.0909971 0.0814807 0.0180777 0.0477032 0.00133358 0.0719982 0.0543524 -0.0599252 0.129705 -0.143767 -0.0210356 0.0134594 0.00119644 -0.0583109 -0.0753218 -0.105182 0.0585579 -0.0131714 -0.0143107 0.00893808 0.0318821 -0.0930047 0.0424593 
0.00557122 0.0455656 -0.0819736 -0.0152543 0.012787 -0.00553134 -0.0392403 -0.0483013 -0.00639765 -0.0689741 -0.0403033 0.0210374 -0.0163834 -0.00537763 0.0595361 0.0294469 -0.0386851 0.0902055 -0.0356757 -0.0997318 0.0154271 -0.0636204 0.0802832 0.095373 0.0353884 0.00326534 -0.0561745 0.0186774 -0.0164401 0.0302442 -0.0273053 0.0302718 
-0.112162 -0.0402645 -0.03877 0.102479 -0.066233 -0.0339494 -0.223301 -0.390581 0.0387258 0.041823 0.0366914 0.501218 0.0674498 0.0361073 0.0199877 -0.0177516 -0.0874696 0.101911 -0.38334 0.130196 -0.0147154 0.051196 -0.0105814 -0.198292 -0.400564 0.0547604 -0.0585194 0.0130838 -0.233028 0.252812 -0.00880109 0.194601 
0.00479697 0.0101767 0.0243721 0.218625 -0.0693771 -0.0207197 -0.180379 -0.526349 0.0332477 -0.0701057 -0.0710305 0.166166 0.0944087 0.0402943 0.54938 0.109956 -0.0840655 0.337576 -0.482278 0.0862855 -0.069788 0.068127 -0.00520607 -0.284619 -0.18219 0.000740519 -0.0469827 -0.0197178 -0.201869 0.181458 -0.0958928 0.223387 
0.0332697 -0.0353511 -0.0219993 0.0969444 -0.0156814 -0.0705779 -0.0325033 -0.0702479 0.0510847 -0.0836864 0.00283365 0.176994 0.0358043 0.0187934 0.214053 -0.0179641 -0.0273239 0.233684 -0.0983225 -0.000419968 0.000488142 -0.0429457 -0.0640637 0.0131472 -0.131716 -0.0232301 -0.123044 -0.0219293 -0.086267 0.0110243 -0.14576 0.0617792 
-0.0988356 0.0496437 -0.0160372 0.0156073 -0.130321 -0.0180149 -0.107638 -0.622878 -0.0883983 -0.0629366 0.0110249 0.645768 0.15609 0.0479766 0.0197603 0.0507488 -0.127578 0.185104 -0.5831 0.225297 -0.0799317 0.0338158 0.0315091 -0.356465 -0.46798 -0.0764903 -0.0467953 -0.0424438 -0.448864 0.38197 -0.202416 0.178732 
-0.0216597 0.024654 0.0713399 0.0601281 0.0114131 -0.015876 -0.111274 -0.237688 -0.0082971 -0.102647 -0.0700928 -0.0280213 0.0455309 -0.0332861 0.376285 0.0548712 -0.061892 0.25252 -0.245005 0.0578108 -0.123016 -0.0372822 0.0497796 -0.143747 -0.0544672 -0.0520919 -0.0770049 -0.0160103 -0.193477 0.0390849 -0.0402899 0.0175954 
-0.091547 -0.0394702 0.0290509 0.0868631 0.0428508 -0.0141826 -0.00733426 -0.130433 0.0212749 0.0134419 -0.042572 0.0734518 0.052062 0.00954664 0.245907 0.0437313 -0.0605398 0.155077 -0.179631 -0.0525461 0.0446735 -0.0541878 -0.00499787 -0.143057 -0.0772418 -0.023286 -0.0165285 -0.00878642 -0.0187723 0.00284354 -0.00418033 -0.0150727 
-0.00850544 0.0171304 -0.0440094 -0.0914567 -0.0349183 0.0374772 -0.0224911 -0.0620875 0.048315 -0.082952 0.0121465 0.311005 0.0370925 0.11534 0.0889351 -0.000870749 0.0309582 0.219091 -0.0366762 -0.0172986 0.011015 -0.032833 0.052916 -0.0161585 -0.174661 -0.0770207 -0.00769241 -0.230476 -0.114395 0.0241239 -0.0811052 0.106494 
-0.0502428 0.0268605 0.0734752 0.0475874 -0.0614579 -0.0101109 -0.0460352 -0.101336 -0.0359265 -0.141509 -0.0691687 0.185887 -0.0454791 -0.018491 0.123633 -0.060618 -0.175246 0.186685 -0.0682898 -0.0690213 0.0148061 -0.0113288 -0.0260801 -0.0450063 -0.0789291 -0.106346 -0.0600094 -0.0929104 -0.114121 0.0686478 -0.0979558 0.0832166 
0.0276761 -0.126046 0.0386315 0.485641 0.0143684 -0.111897 -0.274156 -1.07415 -0.00892879 -0.15899 -0.245663 0.0817642 0.176812 0.0748496 1.36062 0.403865 -0.333468 0.910543 -1.00906 -0.0344885 -0.0450115 0.0510852 -0.0778752 -0.593173 -0.405265 -0.00750189 -0.369107 -0.174717 -0.552605 0.301265 -0.435323 0.40875 
-0.0136127 0.0729422 -0.0687705 -0.00103272 -0.114027 0.0799164 -0.04953 -0.122099 -0.0446639 0.0598443 0.0148939 0.163657 0.0863766 0.00708695 0.0541262 -0.0108126 -0.0709091 0.0887501 -0.234313 0.0557427 -0.0109499 0.0540588 0.00576929 -0.00604798 -0.269221 -0.0283895 0.0514742 -0.0253575 -0.141731 0.0997731 -0.133061 0.091841 
-0.0964572 0.0614852 -0.000598123 0.0575489 0.0273509 -0.0331989 -0.0876779 -0.359035 0.0636382 0.0804289 -0.0174835 0.299839 0.014951 -0.0584355 0.12838 0.00990798 -0.107676 0.077711 -0.287067 0.119735 -0.0397029 0.0295979 0.0393366 -0.113921 -0.249244 -0.0621761 0.0348426 -0.0377494 -0.15482 0.229064 -0.000542545 0.0522609 
-0.068002 0.0941565 0.0159954 0.166243 -0.0611921 -0.0253724 -0.177924 -0.496378 -0.12004 0.0676843 -0.0393181 0.171771 0.158055 0.0104057 0.428979 0.121785 -0.134169 0.198783 -0.455594 0.022527 -0.0925337 -0.0104729 0.0664257 -0.23769 -0.132327 -0.0576592 -0.0686964 -0.100574 -0.187925 0.137692 -0.147073 0.0687346 
-0.00294841 0.00484714 -0.00950208 0.187077 -0.0806295 0.0271962 -0.239141 -0.620125 -0.0258073 0.0748978 -0.0478651 0.591192 0.116574 0.0333504 0.328865 0.137653 -0.136176 0.0399671 -0.636123 0.267035 -0.138023 0.0226348 -0.0306713 -0.411388 -0.328589 -0.0555638 -0.0773915 -0.0587182 -0.328012 0.355293 -0.103216 0.182686 
-0.0279243 -0.0937372 0.030217 -0.0221128 0.0180205 0.0535492 0.0105549 -0.178202 0.0732806 -0.00402795 -0.0655672 0.0936468 0.105832 0.0126041 -0.0477985 0.0476352 -0.0994949 0.0250883 -0.134028 0.0477771 0.0926515 0.000400676 0.00698519 -0.0439252 -0.0314024 -0.0263466 -0.0180181 0.0730741 -0.0873486 0.0630223 -0.0705784 0.090833 
-0.0183081 -0.010845 -0.0315464 0.27954 0.00853352 -0.15232 -0.205487 -0.581813 0.0563473 -0.0858901 -0.145315 0.0398522 0.0496338 0.133593 0.527716 0.186169 -0.0808193 0.468866 -0.525385 0.0577793 -0.000462995 -0.0204855 -0.0514947 -0.343315 -0.130897 0.0436235 -0.194335 -0.105291 -0.281997 0.0603221 -0.233152 0.227169 
-0.10812 0.0287402 0.0658184 -0.00442873 -0.0357166 -0.00408986 -0.104623 -0.250401 -0.0282999 -0.0124163 -0.00537479 0.338698 0.0581531 0.0399044 0.0148873 -0.0233936 0.0302662 0.111481 -0.405085 0.150209 -0.0974292 0.0857467 -0.028177 -0.214477 -0.186715 -0.0346634 -0.0265969 0.0466816 -0.178253 0.188904 -0.0378248 0.163086 
0.00619882 0.0119526 -0.10826 0.397806 0.0973483 -0.0932509 -0.14014 -0.888908 -0.0630856 -0.130228 -0.146053 0.248842 0.265182 -0.151796 0.893983 0.303956 -0.115822 0.547643 -0.811861 -0.0755267 0.0218325 0.0249114 -0.137107 -0.497975 -0.205857 0.0601737 -0.233424 0.00885349 -0.310506 0.261352 -0.286968 0.306084 
0.0714344 -0.0035479 0.0921233 -0.0981167 0.014167 0.0993929 -0.0235369 -0.24186 0.0843142 -0.00135575 -0.0152507 0.274608 0.0191482 -0.0452501 0.0641696 -0.0281126 -0.0208375 0.155395 -0.0918203 0.0118733 0.00374963 -0.0341957 -0.0194355 -0.129518 -0.197281 -0.0486163 -0.0133457 -0.0493116 -0.167312 0.142592 -0.117628 0.145204 
0.0385309 -0.0190288 0.0544842 0.188191 -0.0734403 -0.00277033 -0.0852308 -0.21167 0.0250689 -0.0368205 -0.0810471 -0.0376386 0.0808468 0.0723196 0.309466 0.119718 -0.097544 0.262204 -0.241185 -0.0100824 0.0397451 -0.0367711 -0.0783153 -0.156675 -0.086791 0.0948648 -0.0678519 -0.015249 -0.0838155 0.126975 -0.145775 0.134923 
-0.0594601 -0.0175324 0.000127517 0.0232773 -0.104142 -0.0659409 -0.0211255 -0.246772 0.00587048 -0.070118 -0.0038149 0.267196 0.0222956 0.00460343 0.0236251 -0.0243821 -0.0665205 0.0526908 -0.177741 0.0996172 -0.00460996 -0.0793576 0.0157158 -0.0495061 -0.21461 0.0031044 -0.0472528 0.012024 -0.172263 0.0127345 -0.0595681 0.0694401 
0.00576332 -0.0284425 -0.0399319 -0.0155188 -0.0133371 0.016906 -0.0980628 -0.148866 0.0342812 -0.0652357 -0.0254602 0.247483 -0.0310812 0.0056449 0.0492067 -0.0114227 -0.154505 0.08921 -0.162987 0.14838 0.000544881 0.110891 -0.0163845 -0.0508047 -0.131663 -0.0683382 0.111244 -0.0740205 -0.190666 0.108941 -0.0836308 0.0176351 
-0.0740313 -0.0566964 0.00861532 0.112586 -0.115921 0.039936 -0.116139 -0.261602 0.0437913 0.0492691 -0.0789106 0.349227 0.00138572 -0.0235914 0.0885568 0.0411442 -0.00714314 -0.0054999 -0.214408 0.182928 -0.0943773 -0.0151089 -0.0990472 -0.165115 -0.278646 0.00641744 -0.0116062 0.0251144 -0.0995309 0.0909264 -0.0304813 0.0444147 
-0.0158368 0.0967945 -0.0754513 0.218538 -0.0612711 -0.0973589 -0.185329 -0.5595 -0.0442078 -0.00582318 -0.0464716 0.0322336 0.0871513 0.0903351 0.681984 0.148421 -0.0908368 0.450191 -0.568934 -0.00905023 -0.0698549 0.0121524 -0.039297 -0.283242 -0.209418 0.0275537 -0.145588 -0.0453197 -0.186675 0.202943 -0.173144 0.179605 
0.0199623 0.0687176 0.0152533 0.0727778 -0.0117271 0.0103714 -0.0681062 -0.278799 -0.00301893 -0.0389339 0.00889725 0.112443 0.047922 0.023357 0.355312 0.0517405 -0.0953054 0.33526 -0.270791 -0.0169377 -0.0261359 0.0427067 -0.0768971 -0.103149 -0.181006 0.00152949 -0.240799 0.013056 -0.173103 0.0206244 -0.0839644 0.0832784 
-0.013119 0.00686843 0.0310219 0.0415105 -0.07437 -0.0141237 -0.0295674 -0.0408444 0.0380064 -0.0297824 0.0192039 0.175743 -0.00225774 -0.0314966 0.118647 0.0334154 0.0262822 0.135784 -0.0562595 -0.097258 0.0441237 -0.0409843 -0.0209735 -0.0460909 0.0348378 -0.114091 -0.071255 -0.0264968 -0.104574 0.140643 -0.0379387 0.107976 
0.0107445 0.0111736 -0.0350237 -0.0107967 -0.032291 -0.0156385 0.0161198 -0.388235 0.00244291 0.0549713 -0.0169169 0.374537 0.150249 0.019116 0.00116039 0.0225352 -0.0705137 0.0543951 -0.311552 0.262648 -0.0265547 0.0208278 -0.0123243 -0.255848 -0.231592 0.00335371 -0.000404062 0.0802586 -0.289594 0.276016 -0.053959 0.0997285 
-0.11424 -0.000585485 0.0358253 0.310261 -0.0859867 -0.00287667 -0.309598 -0.718424 0.0265287 -0.0275446 -0.212317 0.453464 0.145862 -0.039936 0.709821 0.155161 -0.0882211 0.338985 -0.752117 0.178419 0.0313798 -0.0208167 -0.0639874 -0.52406 -0.232163 0.0823715 -0.111924 -0.0658343 -0.298504 0.309645 -0.170492 0.298693 
-0.0637628 0.0164296 -0.0287297 0.0584665 -0.131642 0.0154737 0.0285805 -0.336077 0.00075327 -0.0224923 0.0278902 0.471481 0.04803 -0.00530729 0.091504 0.0868754 -0.115453 0.178298 -0.367097 0.129732 0.0251058 -0.00466086 0.0319863 -0.139725 -0.410652 0.0188429 -0.00327554 0.0748484 -0.316041 0.201521 -0.0540895 0.132339 
0.0200713 -0.00515832 0.00632943 0.093307 0.000833057 -0.00231277 -0.123139 -0.376026 -0.0390304 -0.0497178 -0.0732455 0.272993 0.0794163 -0.0117831 0.0989645 -0.0463555 -0.0778227 0.075177 -0.30313 0.130151 -0.0672516 0.0953136 -0.00342983 -0.196194 -0.100523 -0.00432506 0.061995 0.0900896 -0.151171 0.163936 -0.000336332 0.164352 
-0.048705 0.00178583 0.00379501 -0.0129794 -0.0509627 -0.0509408 -0.062608 -0.106891 -0.0233124 -0.0930104 -0.00568805 0.121805 -0.048937 -0.0347787 0.0886944 -0.00082174 0.0597662 0.133487 -0.00936754 0.0516372 -0.0370321 -0.104558 -0.0289835 -0.0102147 -0.0315735 -0.116632 -0.0645507 -0.000588345 -0.162217 0.130014 -0.0797887 0.0973087 
0.0270053 -0.0669493 -0.0302159 0.20241 -0.0548162 -0.1092 -0.215496 -0.557609 0.0258426 -0.0147761 -0.0710566 0.19012 0.0814977 0.0739435 0.641862 0.12317 -0.0931069 0.348508 -0.435637 0.0493167 -0.0242666 0.0155796 0.0222387 -0.337407 -0.109886 0.0409786 -0.092192 -0.0691091 -0.25936 0.0676591 -0.167087 0.219358 
-0.0861092 -0.0285896 -0.0403148 0.0992235 -0.012645 -0.0257539 -0.111264 -0.501228 -0.0530296 -0.0615066 -0.0620706 0.49196 0.155362 0.0317501 0.200066 0.0838544 -0.132015 0.0835765 -0.439599 0.116723 -0.0693859 -0.00102411 -0.0333949 -0.206549 -0.23186 -0.0394185 -0.0361685 -0.0996663 -0.281981 0.297547 -0.0328279 0.0282186 
-0.0672522 0.060486 0.0587239 0.0152536 0.0675765 -0.0570185 -0.0694252 -0.11413 -0.0286777 -0.0322222 -0.0171218 0.0978261 0.015393 0.00227648 0.205384 0.0205747 -0.0364332 0.189649 -0.0538865 -0.0342146 0.0389582 0.0613176 0.0247864 -0.0509807 -0.0940652 -0.0633177 0.000293748 -0.122958 -0.156504 0.0800502 -0.151681 0.078089 
0.0674893 0.0178254 0.0387439 0.430441 -0.0263227 -0.13849 -0.210042 -0.881478 0.00337479 -0.0828345 -0.0905169 0.336394 0.141036 0.00443469 0.887481 0.203541 -0.0915377 0.432773 -0.819796 0.146093 -0.0566739 0.0127765 0.0129055 -0.448754 -0.322573 0.0186697 -0.198608 0.0139927 -0.320586 0.303422 -0.241865 0.320834 
-0.0698062 -0.0112368 0.0114831 -0.013071 0.0178958 -0.0382252 0.00212751 -0.220418 -0.0116643 0.0425631 -0.0287879 0.260586 0.0220321 0.00860201 0.109234 -0.00183279 -0.150637 0.0697027 -0.207181 0.0739722 0.0332267 0.0251121 -0.0622055 -0.0632895 -0.127687 -0.0349166 -0.0201044 -0.0627791 -0.129074 0.116737 -0.0587455 0.121785 
0.0390601 0.042 -0.0342033 0.187088 -0.116521 -0.114689 -0.0587767 -0.390728 0.0288927 -0.0181977 -0.0121323 0.162064 0.233114 -0.0177164 0.532364 0.0376094 -0.0586289 0.23088 -0.412991 -0.0656596 -0.0442867 0.0477834 -0.00281151 -0.213489 -0.105035 0.000856661 -0.0915998 0.0336505 -0.201391 0.177459 -0.130733 0.153859 
-0.0599176 0.0385043 -0.0013014 0.0135296 -0.0653522 0.0494498 -0.093475 -0.300474 0.0799995 -0.0159668 -0.0437946 0.326379 0.0536692 -0.0304446 0.0637388 -0.0371171 -0.0936874 0.0715337 -0.299043 0.110857 0.074667 -0.0629497 -0.000785786 -0.0834607 -0.25858 -0.035068 0.0470933 -0.0186918 -0.178078 0.166547 0.0520464 0.0435705 
-0.0606926 -0.0388565 -0.0590374 0.0793553 -0.0464767 -0.0581316 -0.115316 -0.363916 0.130103 0.0525745 -0.0683074 0.213199 0.0643547 -0.00811392 0.300177 0.0447676 -0.00783714 0.101806 -0.346524 0.183033 -0.112956 -0.0224248 -0.0155681 -0.233163 -0.0988681 0.0821127 -0.0480499 0.0177213 -0.126994 0.171001 0.0168204 0.106524 
-0.052538 0.0282728 -0.0208882 0.163373 0.0403073 -0.0970726 -0.153491 -0.449686 -0.0538957 -0.0482918 -0.135903 0.203153 0.0420324 0.0107407 0.504038 0.0852686 -0.123074 0.221131 -0.415432 0.0791994 -0.0463015 -0.0725365 -0.0390682 -0.275855 -0.0771827 -0.000707718 -0.0572437 0.00541598 -0.217061 0.22126 -0.163501 0.0841368 
0.0746141 -0.0123788 0.0170875 0.0583322 -0.00573173 -0.0281691 -0.040257 -0.254484 -0.0422669 0.0669846 -0.0888986 0.124487 0.0227168 0.0332435 0.0232718 0.0309979 -0.0196905 0.0132564 -0.275868 -0.0499546 -0.0350248 -0.0253938 -0.0161367 -0.0951455 -0.137535 -0.0283903 0.00108382 -0.0359426 -0.0719785 0.150366 -0.0468696 0.0572012 
-0.0531283 0.001533 0.0210503 0.00535839 -0.032046 -0.00513981 -0.00771928 -0.268407 -0.0672019 -0.0304805 0.0243027 0.349244 0.0684795 0.0327037 0.00717206 -0.0268459 -0.0252346 0.16525 -0.257057 0.147187 -0.0223821 0.0580284 -0.107348 -0.123814 -0.146486 0.0505268 -0.0325632 -0.00267981 -0.102232 0.133182 -0.0511717 0.0907487 
-0.0337644 -0.0717466 0.0124073 0.0853134 -0.0248402 0.0011765 -0.000148168 -0.0464078 -0.052104 -0.0428193 0.031787 0.163826 -0.0632886 0.0564685 0.142237 -0.00307044 -0.0653835 0.211062 0.0229843 -0.0364204 0.0748404 0.121739 -0.0456227 -0.0139542 0.0118839 -0.082684 -0.0749981 -0.139054 -0.108799 0.0999526 -0.125744 0.0585749 
-0.0173451 0.0365724 -0.0235596 0.0246817 0.0253805 -0.0428329 -0.082252 -0.167819 -0.106646 -0.113397 -0.100615 0.0522239 0.011318 -0.0137579 0.251886 0.0926227 0.0720109 0.0975341 -0.167249 -0.0280106 -0.00788856 0.0121111 -0.00863147 -0.0425301 -0.175991 -0.0588726 0.0160189 -0.0690681 -0.204742 0.0365884 -0.123939 0.0422643 
0.0255687 -0.0109406 0.0348227 0.421233 -0.0661655 -0.0324846 -0.219082 -0.857128 0.00754124 -0.0490768 -0.0988646 0.261051 0.187882 -0.0113797 0.810547 0.155351 -0.144211 0.424142 -0.796001 0.200003 -0.0774653 0.0200519 -0.0852799 -0.430044 -0.193894 0.0229787 -0.147083 0.0305465 -0.198555 0.360574 -0.180878 0.240052 
0.0421348 0.0509162 0.0505706 -0.0166912 -0.0382189 -0.0104751 -0.0180173 -0.100422 0.0122206 -0.0563187 0.0868713 0.0636554 0.0941471 -0.0110712 0.0832883 0.0235347 -0.0423619 0.170775 -0.0675344 -0.0360487 0.0239065 0.00901782 -0.0177253 -0.0793731 -0.0505797 -0.0389226 -0.0713851 -0.0939915 7.09281e-05 0.0299664 -0.0584938 0.0374859 
0.0765375 0.0912087 -0.0202476 0.399546 -0.0280391 -0.051064 -0.212255 -0.835514 0.0366228 -0.0948712 -0.138977 0.0726598 0.188777 0.117432 0.993279 0.207727 -0.187325 0.691661 -0.69507 0.00717478 0.00680595 -0.0533126 -0.0903728 -0.311993 -0.295757 -0.0315266 -0.256117 -0.13243 -0.374998 0.285182 -0.353422 0.272764 
-0.00497134 0.0428726 -0.0784433 0.174697 -0.027977 -0.0937915 -0.127983 -0.36514 0.0427385 0.0443102 -0.0305674 0.211888 0.0193953 -0.0151885 0.333387 0.105982 -0.0676711 0.232613 -0.30025 0.0125864 -0.0336979 0.0150963 -0.0697333 -0.165199 -0.203373 -0.0128628 -0.112967 0.036556 -0.139137 0.115512 -0.148381 0.227193 
-0.104371 0.030917 0.0273722 0.049693 -0.0846137 -0.021594 -0.075307 -0.316971 0.0731222 -0.0494306 -0.0615481 0.314444 0.0457829 0.0234225 0.0421545 -0.0271301 -0.135796 0.0685143 -0.20199 0.0693343 -0.0401252 -0.00740219 0.0115309 -0.184983 -0.164045 0.0605319 -0.027906 0.062866 -0.16827 0.146827 -0.0962229 0.139182 
-0.116148 0.129638 -0.063127 0.112032 -0.0893687 0.0115699 -0.0779529 -0.298106 0.0274267 0.0324696 0.0143426 0.397475 0.0775286 -0.00258083 0.134485 -0.0227471 -0.0927124 0.0507877 -0.313546 0.0464174 -0.0143026 -0.0257096 0.0360043 -0.187801 -0.277119 -0.00911654 -0.013158 0.0264766 -0.279162 0.193051 0.0100559 0.0783105 
0.0349067 0.0827052 -0.0171068 0.0393196 -0.0514568 -0.0109493 -0.0215475 -0.401017 0.0317788 0.0780827 0.0303324 0.332982 0.0811521 -0.0531444 0.129314 -0.0449282 -0.0890662 0.00702185 -0.416065 0.19468 -0.0872117 -0.0259451 -0.0443561 -0.205101 -0.219517 -0.0575087 -0.00614363 0.0293056 -0.211138 0.21207 -0.062376 0.12334 
0.0151432 -0.0190852 -0.035893 0.0788892 -0.0878369 -0.0503404 -0.0185562 -0.27454 0.076639 -0.0076971 -0.0621217 0.236214 0.054478 0.00809887 0.252814 0.0447933 -0.0633741 0.0456838 -0.317968 -0.00948859 -0.0556057 -0.0369194 0.0472208 -0.123459 -0.137997 -0.0497157 -0.0313774 0.0198398 -0.0928467 0.0707814 -0.0564893 0.0687873 
-0.0146686 0.0427536 0.0764548 0.431872 -0.104037 -0.103711 -0.237258 -0.929478 -0.0028173 -0.0854896 -0.157919 0.158052 0.231205 0.0954207 0.989539 0.251841 -0.166869 0.672334 -0.869939 -0.0098807 -0.00983971 0.0763154 -0.120649 -0.465945 -0.311742 -0.0181201 -0.187488 0.0187165 -0.326338 0.336956 -0.300361 0.344983 
-0.0355467 0.0169165 0.0692116 -0.00457216 0.0868099 0.0624063 0.0540703 -0.158228 0.00690273 -0.15358 -0.0574647 0.170217 -0.0820934 0.061345 0.19782 0.0302087 -0.0692072 0.164783 -0.130097 -0.0294427 0.0171361 0.0105752 -0.0370573 -0.0607061 -0.106112 -0.0220105 -0.0265107 -0.099515 -0.0739775 0.0603708 -0.0598134 0.188559 
-0.00392275 0.00383613 -0.0173857 0.0682151 -0.024684 0.058029 0.0272392 -0.102495 -0.0171334 -0.0498235 -0.0265056 0.0487836 0.0646181 0.0106576 -0.0650741 0.00809553 -0.0358444 0.0410623 0.0279504 0.0608801 -0.00246831 0.0782337 -0.0307714 0.00766047 0.0218692 0.0621993 0.0496727 -0.0619477 0.0620962 -0.0407245 0.0696428 0.000736259 
0.055688 0.0232494 0.058244 0.0508158 -0.0103232 -0.0192565 0.00947493 -0.152377 0.0645992 -0.0441912 -0.0329287 0.169098 -0.0369894 0.000274024 0.0630436 0.0397505 -0.0715092 0.124277 -0.164464 0.0565755 0.00586617 0.0518674 -0.0125238 0.0265589 -0.014078 -0.142614 -0.0123282 -0.0905077 -0.0975637 0.0790215 -0.118602 0.0516251 
0.0209092 0.0120864 0.0775398 0.0488647 -0.00509968 0.0782907 0.000837512 -0.0486225 0.00674838 -0.0708865 -0.0427305 0.124103 -0.0342995 0.076788 0.0841171 0.0495491 -0.0104508 0.0461303 0.0571355 0.0146211 0.0241016 0.0299463 -0.00710051 0.0442519 0.0273232 -0.0489771 -0.00490007 -0.0610128 -0.00506356 0.0535802 -0.0954475 0.07827 
0.00272164 0.138664 0.0132377 0.313431 -0.0139911 -0.0040959 -0.138141 -0.686693 0.0506962 -0.147798 -0.0497202 0.111806 0.0956681 -0.0277256 0.862716 0.145235 -0.171016 0.62199 -0.580382 -0.0176406 -0.0231187 -0.1413 -0.0138073 -0.348751 -0.326129 0.0132365 -0.206891 -0.0873742 -0.301713 0.138354 -0.235824 0.275292 
-0.0944637 -0.0177218 -0.0179253 0.0892517 -0.0767575 0.0452447 -0.136595 -0.491737 -0.0493815 -0.0132929 0.00530041 0.461036 0.0983775 0.0519858 0.0508776 0.0233945 -0.189833 0.128879 -0.313435 0.179156 -0.0636102 -0.0130308 -0.0743775 -0.231244 -0.387842 -0.0248158 -0.0379306 -0.0205111 -0.232109 0.318619 -0.0710594 0.148841 
-0.00775294 0.0188599 0.0662751 -0.0029599 -0.10267 -0.0699608 -0.0763564 -0.0897697 0.0134064 -0.110738 -0.045168 0.126057 0.0275735 0.00710203 0.0901887 -0.0281236 -0.0212134 0.0923329 -0.162892 -0.00374511 0.00672509 -0.00838995 -0.0591838 -0.00515173 -0.09591 -0.0457631 -0.0278333 -0.0793901 -0.0902689 0.180769 -0.109566 0.0612157 
0.0590295 -0.0202384 -0.0441006 0.132179 0.00327754 -0.0570039 -0.0900128 -0.117328 0.0198795 -0.0890078 -0.0634186 -0.0173608 0.110305 0.015536 0.212202 0.095196 -0.0999253 0.0928446 -0.146103 0.00633128 -0.0901431 -0.0547258 -0.0743481 -0.151407 -0.0796662 0.0668602 -0.0161182 -0.0319653 0.0173619 -0.0284809 -0.0838203 0.0549527 
0.00289451 0.0769836 0.0427468 0.223467 0.0137633 -0.0361044 -0.131599 -0.59276 -0.0328621 -0.0797693 -0.0828592 0.209377 0.098216 0.0667462 0.571447 0.121004 -0.104352 0.34465 -0.546005 0.024734 -0.0349444 -0.0731024 -0.0210992 -0.360693 -0.18047 0.00676551 -0.0333503 -0.0653425 -0.213575 0.334976 -0.0951765 0.198121 
-0.0270431 -0.00424202 -0.0237258 0.362677 -0.0121007 -0.12409 -0.213934 -0.896432 0.0726458 -0.0865786 -0.128435 0.123113 0.162192 0.0817232 1.06902 0.266445 -0.176538 0.767182 -0.739672 -0.0084086 -0.0757642 0.0341795 -0.00978407 -0.485044 -0.404386 -0.0268697 -0.345113 -0.0534754 -0.42451 0.289975 -0.36962 0.369826 
-0.0377142 0.103413 0.0299522 0.148256 -0.0830019 -0.0114909 -0.194825 -0.428387 -0.0228056 -0.104978 -0.0104953 -0.0320307 0.137808 0.126082 0.466377 0.220415 -0.103591 0.391092 -0.289587 -0.0670937 0.0210049 0.0526487 0.0307261 -0.222303 -0.208049 0.0187302 -0.149302 -0.0829867 -0.335858 0.115331 -0.255877 0.165443 
-0.0499618 -0.0204674 0.0291327 0.340341 -0.0484202 -0.152289 -0.275079 -0.791788 0.0287284 -0.0810665 -0.0853817 0.244703 0.0628157 -0.0559883 0.891706 0.115388 -0.0739885 0.471048 -0.678955 0.0498293 -0.0317717 0.0173189 -0.0395567 -0.332 -0.154217 0.012223 -0.156996 0.0309484 -0.320347 0.214188 -0.0512118 0.273909 
0.0242346 -0.0650985 -0.0728573 0.0108147 -0.0149128 -0.0269402 -0.0278344 -0.106011 0.0289071 -0.0548263 0.0452372 0.158792 0.084436 0.0109454 0.0183517 -0.0555788 -0.00700588 0.0391564 -0.122559 0.0367015 0.0345592 0.0586938 -0.042162 -0.119058 -0.0634388 -0.0321914 0.0389421 0.00449726 -0.0499019 0.0533913 -0.0356587 0.170623 
-0.115239 -0.0611225 0.0927511 0.174277 -0.0565677 -0.0432294 -0.0853537 -0.348929 -0.0143827 -0.0383012 -0.11039 -0.0245899 -0.010675 0.0148826 0.461305 0.0792246 -0.151064 0.305235 -0.323788 0.0480959 -0.0282131 0.0520175 0.00283446 -0.228388 -0.115414 -0.0151207 -0.0859425 -0.189979 -0.20596 0.170883 -0.0786725 0.115366 
0.102399 0.0429551 0.0588452 0.118963 -0.0287545 -0.0895688 -0.010631 -0.17802 -0.0568808 -0.153883 -0.129921 0.00114082 0.0183035 -0.0135683 0.289292 0.00273913 -0.0466981 0.253777 -0.231828 0.057106 -0.0961788 -0.0163713 0.00708282 -0.0887268 -0.134729 -0.032819 -0.0774269 -0.089473 -0.168506 -0.0232353 -0.233348 0.111778 
-0.14321 -0.0356434 -0.075532 -0.0283667 -0.0556648 -0.0445687 -0.00962587 -0.192033 0.00525723 0.0108933 0.0311163 0.0799726 -0.017663 0.0609684 -0.00428505 0.0325908 -0.0789845 0.0312894 -0.214178 0.0993007 -0.0255555 0.0464574 -0.0346161 -0.0442944 -0.14622 0.0391692 0.0536412 -0.0446473 -0.143242 0.0652671 -0.112924 -0.00431398 
-0.0582247 0.00653081 -0.0410643 0.0511044 -0.00358807 0.0723323 -0.0354508 -0.101085 0.0286159 -0.0199331 -0.0151539 0.0674171 -0.0220545 -0.0273338 0.101963 -0.0284942 -0.162465 0.1176 -0.118966 -0.00879758 0.047274 -0.0389917 0.00491567 -0.0670882 -0.028226 0.024984 -0.00676805 -0.0291709 -0.075992 -0.0227741 -0.0249459 0.0429352 
-0.0299828 -0.0396526 -0.0170235 -0.0102234 -0.0955191 -0.0281246 0.030969 -0.18324 0.000587554 0.0345954 -0.0234526 0.248409 -0.0225844 -0.0146574 0.0451318 0.0281513 -0.0899648 0.0168178 -0.209482 0.125395 -0.0547378 0.0523457 -0.0335098 -0.117207 -0.236256 -0.0896437 -0.00987995 -0.0209075 -0.124342 0.123168 -0.0574385 0.0410036 
0.0216438 0.0282001 -0.017221 0.263404 -0.0294997 -0.0738665 -0.126251 -0.543379 -0.0412766 -0.0673595 -0.0911645 0.155641 0.199204 -0.00895534 0.704143 0.215563 -0.0810099 0.479644 -0.532388 0.0118576 -0.0194873 0.0650648 -0.0899873 -0.402712 -0.167441 -0.0158671 -0.186305 0.0560264 -0.277721 0.206789 -0.139502 0.261028 
-0.0692395 -0.0565978 -0.0749361 0.0169375 0.0146922 0.0156301 -0.142909 -0.233266 -0.00263493 -0.0702562 0.00791738 0.216394 0.069464 0.0256081 0.0512687 0.0677094 -0.0267135 0.0301641 -0.153102 0.104324 0.0957183 0.0549432 0.0469814 -0.0597968 -0.203073 0.0514574 -0.10696 0.0451824 -0.050264 0.0714119 -0.0332502 0.0391011 
0.0592646 -0.0696127 0.0655287 -0.0372236 -0.0416765 0.0642893 -0.0749841 0.0370129 -0.00337578 0.0500056 0.0286546 0.0665227 -0.00029732 -0.0267865 0.0252396 0.0410742 -0.0572052 -0.048421 -0.0900814 -0.0138414 0.0507585 -0.0690198 -0.0313665 0.0660745 0.010894 -0.0878636 -0.0292319 0.00295944 -0.0445389 0.0724018 -0.0250152 0.0243493 
0.0186015 -0.0185281 0.00833984 0.244458 -0.0274683 -0.0503755 -0.197894 -0.515037 -0.0377492 0.00240218 -0.0554909 0.165687 0.066427 0.0180462 0.526614 0.0645079 -0.137068 0.241248 -0.493411 0.0540212 -0.0237798 0.0567204 -0.0201095 -0.329671 -0.125081 0.00753856 -0.0421194 0.0547455 -0.189209 0.192702 -0.0980476 0.131566 
-0.0620401 0.045443 -0.0542842 -0.0142598 -0.056851 0.000624689 0.0206779 -0.0279208 -0.0990528 -0.139094 -0.0203125 0.182526 0.0192541 -0.00326965 0.154563 0.0130294 -0.0206133 0.20131 -0.0506308 0.0428639 0.00711195 -0.0563322 -0.00146081 -0.012218 0.0112399 -0.120563 0.0619671 -0.0437722 -0.121043 0.143128 -0.0740083 0.129076 
-0.124393 0.0218208 0.0250122 0.0297844 -0.0811339 -0.0196343 -0.127675 -0.453156 0.000538835 -0.152636 -0.0760727 0.766267 0.040337 -0.0551497 0.291704 0.0585763 -0.220416 0.454025 -0.355124 0.206412 -0.0340658 -0.0159275 0.00234565 -0.204524 -0.348092 -0.18808 -0.103332 -0.227373 -0.389423 0.388538 -0.312306 0.2559 
-0.0318668 0.0932142 0.0712349 -0.0445719 -0.0399515 0.0309643 -0.0312139 -0.0916727 -0.0315095 0.0118904 -0.0578427 0.0600547 0.0541421 -0.0105571 -0.024906 0.0415304 -0.102495 0.146711 -0.10695 -0.0217399 -0.0303036 0.0216336 -0.0504438 -0.0642207 -0.135751 -0.0224369 0.065365 0.0284559 -0.0233684 0.0457216 0.0171469 0.0908569 
-0.0769049 -0.0192575 -0.0616292 -0.0321544 -0.013807 -0.0122516 -0.00341158 -0.150064 -0.00172915 -0.114351 -0.027086 0.195602 -0.116107 0.0313805 0.337672 0.089674 -0.0720952 0.263018 -0.102295 0.0190644 0.0436297 0.0747575 0.0208297 -0.0679195 -0.148254 -0.0136795 -0.0993124 -0.164416 -0.118507 0.115579 -0.1173 0.0466405 
0.00510627 -0.0672322 -0.00663442 0.0809626 -0.0422065 -0.0908376 -0.0592896 -0.246781 0.0233705 -0.0466199 -0.0192994 -0.0162203 0.0519142 0.02816 0.196666 0.0569916 -0.0354854 0.162284 -0.124568 -0.00336379 -0.0315261 0.0460892 -0.0930225 -0.079039 -0.0500749 -0.0817487 -0.0501955 -0.036927 -0.0846141 -0.0464231 -0.0518818 0.103553 
-0.0514715 0.0187523 0.0411046 0.0345265 -0.0527656 0.0257677 -0.00261058 -0.356307 -0.0131131 0.0659503 -0.0141888 0.252104 0.0958166 0.08756 0.0770652 0.0110355 -0.105335 0.113472 -0.241074 0.0897733 -0.0460219 0.0113064 -0.0307196 -0.169436 -0.193619 -0.0549997 0.0506689 -0.0628991 -0.100984 0.0158674 -0.0609903 0.0878816 
0.000542677 0.0390358 0.0679703 0.226505 0.0186097 -0.0183456 -0.174353 -0.355861 0.048536 -0.0459801 -0.102366 0.200828 0.0627518 0.0561237 0.380004 0.037556 -0.0107068 0.111837 -0.356072 -0.000130246 -0.022596 -0.0733589 -0.00199281 -0.115063 -0.154794 0.0198981 -0.0658564 -0.0808395 -0.103166 0.100372 -0.0951295 0.0985345 
-0.0424095 0.0462702 -0.0421938 0.0857755 -0.0127163 -0.0543894 -0.171048 -0.361772 0.0317644 0.00359871 -0.0421392 0.0881356 0.12167 -0.00610485 0.399629 0.0420633 -0.0727653 0.184113 -0.311754 0.0437392 0.014962 -0.0363974 0.0772754 -0.173562 -0.0977921 0.0248183 -0.118727 0.0687523 -0.0679093 0.142519 -0.0801184 0.142733 
-0.0241945 -0.0185953 0.0358368 -0.0209213 -0.0373082 -0.0153419 -0.0298043 -0.324029 -0.0176356 0.0534004 -0.0341668 0.390039 0.0584034 0.0472632 0.0293481 -0.0652905 -0.170423 0.179577 -0.245705 0.0874441 0.0239198 0.04113 -0.0351189 -0.203679 -0.243072 -0.0316877 0.048628 -0.0332134 -0.250715 0.148044 -0.0338304 0.0236369 
0.0344333 -0.0192368 -0.0631237 0.00196423 -0.0149306 -0.0429656 -0.0604127 -0.118508 0.0236957 -0.024781 0.0414768 0.059178 0.0158589 0.0288118 0.103673 -0.0791236 0.0500825 0.148183 -0.0376259 0.00839169 -0.0168699 -0.00621206 0.0290522 -0.0319704 -0.105196 -0.0132964 -0.0675965 -0.00989172 -0.0973894 0.0509079 0.05165 -0.0471515 
0.0235381 0.0517987 0.0103611 0.0604013 -0.0560269 -0.0668534 0.01538 -0.00164214 -0.0503834 0.0304139 -0.029546 0.0314125 0.00276864 0.0496191 0.0243226 0.0193674 -0.0267892 0.00143761 -0.0375841 0.0450644 0.0271883 0.0708783 -0.0197057 -0.00403882 -0.128331 -0.068373 0.0435405 0.0534922 -0.00637415 0.01377 -0.0611307 -0.00868709 
-0.00297865 -0.00345621 -0.0170647 -0.0526355 0.102552 0.00539101 0.040154 -0.160324 0.0515658 0.0985468 -0.0613838 0.144607 0.0157161 0.0155849 0.006343 0.0674329 -0.0329704 0.030364 -0.113914 0.0635223 -0.0237708 -0.00233261 0.0445163 -0.0238732 -0.0304434 0.0241964 0.0543687 -0.062107 0.0264558 0.11709 0.0886853 0.0639986 
0.00929417 -0.0613103 0.0266618 -0.0505181 0.0854923 -0.00618563 -0.0502023 -0.0277899 -0.022141 -0.0502923 -0.0145744 0.0789462 -0.0245155 -0.0640735 0.110208 0.0552503 -0.0159803 0.120542 -0.116193 0.0152489 0.106288 -0.0323274 0.0380316 -0.0416556 -0.0350471 -0.0567246 -0.0522737 -0.0848638 -0.0482229 0.00821026 -0.049087 0.0147487 
-0.0359562 0.000185301 0.0716607 0.0744668 -0.107538 -0.0411632 -0.122355 -0.143903 -0.0192097 -0.04628 -0.0440699 0.101505 0.055563 0.0478853 0.33106 0.0788949 -0.0817948 0.294818 -0.140918 0.0527919 -0.0421841 -0.0200378 0.04269 -0.0737011 -0.149954 0.0181301 -0.101954 -0.100173 -0.173652 0.0500025 -0.158266 0.129823 
-0.0452924 -0.0231137 -0.0441349 -0.0559077 0.0498357 0.0185717 0.0566509 -0.023287 0.0175626 0.00138139 -0.0409826 0.0402241 0.0129208 0.003552 0.0214581 0.0796764 0.0272079 0.0328057 -0.0119721 0.0627928 0.0171832 -0.0372872 0.112125 -0.0504413 -0.0128881 0.0305001 -0.00143272 -0.0802512 -0.00550337 0.00991767 -0.0257376 0.0281886 
-0.0371165 0.133876 0.00393984 0.180593 -0.089606 -0.0264254 -0.0556139 -0.216456 0.00988933 -0.0225171 -0.00299984 0.018603 -0.00252402 -0.0719489 0.30955 0.0921585 -0.0241431 0.249015 -0.176443 -0.0174398 0.0442624 0.0505673 0.0434954 -0.125309 -0.0329184 -0.0304859 -0.0882889 -0.0348419 -0.124238 -0.00424718 -0.0964742 0.102745 
-0.10936 -0.00394242 0.0759371 0.0713292 -0.059752 -0.0214338 0.0325845 -0.0212579 -0.0438777 -0.11606 -0.0140892 0.219093 0.0106674 -0.00688587 0.150427 -0.0802129 -0.0918806 0.188246 -0.0778828 -0.00564331 -0.0533187 -0.0170048 -0.0689758 -0.0547916 -0.104472 -0.0558709 -0.0548732 -0.0867208 -0.175395 0.110623 -0.0660468 -0.0288334 
0.020492 0.0775372 -0.0142736 -0.0123834 -0.0272038 -0.0694535 -0.0316445 -0.0921551 0.110233 -0.0417773 0.0176055 0.140282 0.0346687 0.0444057 0.000251324 -0.0117273 -0.00878854 0.0371956 -0.138846 0.0556022 0.0173958 0.0223432 -0.015071 -0.0733721 -0.0325941 0.00301348 0.0683548 -0.0085729 -0.00178997 0.0761004 0.0456214 0.0472922 
-0.0195975 0.029208 0.00719664 0.0352397 -0.0697974 0.0502682 0.0334364 -0.30907 -0.00615023 0.0273675 0.0307407 0.48913 0.00423196 -0.050844 0.0475781 0.0289056 -0.0885693 0.147636 -0.292563 0.181912 -0.0288363 -0.0157203 0.0438691 -0.161381 -0.206464 -0.132638 0.0263537 -0.0799384 -0.202496 0.145931 -0.105386 0.126395 
-0.0586058 0.0459694 0.0640926 0.0116504 -0.0420695 -0.0739075 -0.0308176 -0.143521 -0.0804463 -0.0210311 -0.0452145 0.0466881 0.00713788 0.0775731 0.175789 0.0302231 -0.093501 0.0614756 -0.101164 0.0201135 0.0407145 -0.0716517 0.068042 -0.0717489 -0.0923372 -0.0909203 -0.0505029 0.0682534 -0.0664042 0.0769937 -0.134449 0.0875572 
-0.120216 0.0391378 -0.0520731 -0.0234036 -0.088255 -0.0190936 -0.0293164 -0.423961 0.0461944 -0.00021901 -0.0321245 0.56919 0.0693263 -0.0219272 0.350196 0.0449105 -0.182495 0.434708 -0.294224 0.0676176 0.0504704 -0.0327069 -0.042619 -0.155615 -0.214524 -0.135773 -0.00464308 -0.253623 -0.380975 0.282003 -0.283191 0.254021 
0.0302735 0.041955 -0.06119 0.0500063 -0.0606433 0.0117122 -0.127416 -0.226501 0.0425954 -0.111055 -0.0523379 0.0363284 0.0828519 0.0609695 0.276442 0.152929 -0.101557 0.218319 -0.184539 0.0501774 -0.0866639 0.00729874 -0.0176042 -0.137347 -0.0500679 0.0232934 -0.0437926 0.0344238 -0.108617 0.151091 -0.122179 0.102902 
0.0606656 -0.0361981 -0.0160063 0.361879 -0.0187497 -0.066909 -0.16541 -0.765548 0.0269498 -0.0242296 -0.120847 0.279815 0.13859 -0.0114125 0.828112 0.0480467 -0.139633 0.500341 -0.673182 -0.0052132 -0.0604204 0.0233678 -0.0609229 -0.443874 -0.246486 -0.0159002 -0.220562 0.0334429 -0.298686 0.270007 -0.176375 0.247983 
0.0103465 -0.0853666 -0.0548542 0.0762631 -0.0987679 -0.0390503 0.0566812 -0.0626201 -0.0275859 -0.0694238 -0.0275263 0.113325 -0.0435554 0.0560858 0.0775777 -0.045264 -0.0600492 0.0740336 -0.127371 -0.00126444 0.0316209 0.0905621 -0.0516476 -0.000163899 -0.0832382 -0.0563708 0.0433882 -0.00557089 -0.078231 0.0306051 -0.041182 0.0205175 
-0.0172008 -0.133488 0.0270125 -0.0308522 0.0413183 -0.0516313 0.00448863 -0.0325006 -0.0105901 -0.0286829 0.0458229 0.127827 0.0843067 -0.0456751 0.0640061 0.0901528 -0.0268702 0.226893 -0.0875675 0.0223599 0.0448282 -0.0110615 -0.0549726 -0.0168273 -0.0486706 -0.0801543 0.0102619 -0.0123304 -0.0955737 0.052839 -0.0842692 0.0698317 
-0.0421687 0.0291225 0.019686 0.0475843 -0.0524909 0.0562692 -0.124013 -0.467367 0.0410916 -0.0233229 -0.0316495 0.435364 0.096642 0.0525545 0.0362022 -0.0533462 -0.140368 0.252595 -0.31062 0.0941177 -0.0839509 0.0317909 0.0619789 -0.21734 -0.291409 0.0285591 -0.043433 -0.058699 -0.211147 0.238775 -0.0837841 0.229965 
0.0222787 0.0455883 0.063859 -0.0101889 -0.0279507 -0.060881 -0.0264308 -0.0307175 0.0192764 0.0288977 -0.0225636 0.148721 0.0864313 -0.0259112 0.0989191 0.0529107 -0.0082512 -0.0105713 -0.0183563 0.100275 -0.0125942 0.0610011 -0.0612434 -0.0345599 0.0110205 -0.0654265 0.0162413 -0.0199117 -0.0447182 0.055048 -0.0903246 -0.0337238 
-0.0318855 -0.0560248 -0.0131464 0.0580587 0.00397646 0.00612208 0.0332445 -0.0686305 -0.0849294 -0.050957 0.00895979 -0.0571554 0.000444606 0.0509551 0.118788 -0.000385558 -0.00165222 0.0580523 -0.133731 0.0570774 -0.0839577 0.0918873 -0.0806314 -0.0193086 -0.0946793 0.0349384 -0.0204681 -0.0342369 -0.0689022 0.0376555 -0.0487588 0.139583 
-0.0407722 -0.0222788 -0.00869261 0.0693872 -0.0502873 0.00665928 -0.0168208 -0.184418 -0.0174197 -0.020589 -0.0490088 0.243247 0.0120848 0.0168826 0.0685371 0.0701632 -0.0561589 0.099441 -0.165689 0.0932601 -0.00773257 -0.024684 -0.0204925 -0.145394 -0.142867 -0.136953 -0.0353342 -0.0783884 -0.125855 0.111284 -0.0907929 0.0957924 
-0.0368717 0.00655286 0.0455932 0.129234 -0.0328136 -0.0245483 -0.107298 -0.247394 0.0308943 -0.113287 -0.0601628 0.0301863 0.021367 0.0856152 0.318695 0.0172611 -0.124029 0.215005 -0.253428 -0.0942714 -0.00329671 -0.0825808 -0.0526642 -0.0903586 -0.105756 0.0117724 -0.14164 -0.0349764 -0.107171 0.0136101 -0.139109 0.119185 
-0.121966 -0.0118393 -0.0782706 0.0652519 -0.0419692 -0.0278582 -0.0840239 -0.344229 -0.0462355 0.0136537 0.0725844 0.408701 0.0106399 0.0282411 0.061251 -0.0664639 -0.0899739 0.0179572 -0.357866 0.210695 0.0129629 -0.0548735 -0.0781727 -0.33343 -0.274064 -0.00388846 -0.0520348 -0.0555081 -0.110049 0.248533 0.0287522 0.128876 
0.0278204 -0.0179655 -0.0435697 0.100864 0.0377685 -0.0681234 -0.137615 -0.318686 0.00259748 -0.0947999 -0.118175 0.146703 0.0416497 0.0491379 0.505815 0.0582274 -0.0415606 0.248687 -0.235595 0.0536775 -0.0062082 -0.0556454 -0.0202848 -0.164017 -0.0618384 0.0124601 -0.0942771 0.0291754 -0.118384 0.0127182 -0.0534643 0.0543463 
0.00502259 0.0934298 0.0455866 -0.103018 0.0353164 0.00291651 -0.0724233 -0.10594 0.0284269 -9.82542e-05 0.010635 0.11121 0.0271715 0.0454121 0.0919864 -0.0199814 0.014167 0.0953898 -0.113712 -0.0465791 -0.038427 -0.0152398 0.0148765 -0.00672371 -0.131779 0.00987524 -0.025051 -0.0599282 -0.0355567 0.0385895 -0.048072 0.00408104 
-0.0514521 0.0625516 0.0139696 0.149359 -0.00940873 -0.00539098 -0.0812654 -0.287606 -0.0673618 -0.0463148 0.0153786 0.16016 0.124495 0.0223401 0.198609 0.0847048 0.0296112 0.175446 -0.316037 0.104856 -0.012765 0.0377015 -0.0725811 -0.147214 -0.130327 0.035222 -0.0179672 0.0415523 -0.12064 0.110254 -0.0623986 0.133734 
-0.0470436 -0.0734333 0.0387636 -0.0235425 0.0462015 0.042341 0.0405963 -0.156529 -0.0372285 -0.0324318 -0.0469453 0.251794 0.026231 -0.00979259 -0.0300865 0.00200793 -0.0468337 0.123949 -0.0472033 0.0158991 0.0105054 0.0324563 -0.0217799 -0.03301 -0.133388 -0.0987704 0.0429224 -0.00223596 -0.118728 0.0951859 -0.0559554 0.0956969 
-0.0696633 0.0182471 -0.0014415 0.245027 -0.0637256 -0.0459772 -0.149095 -0.566108 -0.00717226 -0.130448 -0.135346 0.19859 0.128548 0.00419657 0.696562 0.142873 -0.0905521 0.347407 -0.440156 0.109454 0.00394193 -0.0167633 -0.00557973 -0.387739 -0.161735 0.016444 -0.125118 0.0427919 -0.157105 0.234712 -0.156562 0.231749 
-0.0554329 0.00263853 0.0320832 0.0935216 -0.0113629 -0.0333096 -0.0323008 -0.283224 -0.000500799 0.17972 0.0161584 0.320902 0.00649108 0.0436847 0.237511 0.038165 0.00761233 0.10312 -0.247717 0.116732 -0.0104714 0.000974091 0.0371285 -0.14721 -0.132818 0.0721945 -0.0344404 0.013394 -0.0697826 0.127223 0.0881316 0.082363 
-0.0647555 -0.0711678 -0.000885714 -0.0132438 -0.0251932 -0.0262771 -0.0471863 -0.356714 0.0244314 -0.0398672 -0.0460894 0.451979 0.0139184 -0.0369695 0.143108 -0.047426 -0.135935 0.224381 -0.253972 0.161555 -0.0364314 -0.03824 -0.0128912 -0.13777 -0.350795 -0.110544 -0.0549703 -0.178951 -0.312605 0.275965 -0.159066 0.202855 
-0.0372022 -0.0494485 -0.0299716 0.259663 -0.0317838 -0.0270238 -0.132609 -0.589009 -0.0453381 0.038771 -0.125408 0.443776 0.158039 0.0538115 0.269233 0.0254082 -0.0372938 0.109763 -0.608507 0.152017 -0.0641611 0.0557802 -0.100733 -0.358694 -0.240034 -9.93332e-05 -0.0317 -0.000627976 -0.273332 0.326026 0.00287354 0.103086 
0.0732522 -0.0631946 -0.0148845 0.0485325 -0.0462959 -0.0342515 -0.0466546 -0.086114 0.0587433 -0.0631219 -0.0171462 0.0195174 -0.0307246 0.0650345 0.116119 0.0429245 -0.026921 0.146613 -0.0794488 0.00719841 -0.0267667 0.0474143 -0.0119637 0.0125702 -0.0365605 -0.00819211 -0.12806 0.0241935 -0.0586352 0.00185197 0.00422568 -0.0258509 
-0.0794539 -0.0414449 0.0363336 0.140259 0.0441819 0.00107218 -0.11326 -0.327635 -0.0552441 -0.0506387 -0.0105634 0.0806088 0.0318743 -0.015426 0.413959 0.129615 -0.0362714 0.337745 -0.412833 -0.0115127 -0.0420038 -0.0265731 -0.00485758 -0.162228 -0.0721789 0.0016334 -0.020008 0.0563711 -0.0378072 0.138948 -0.168008 0.178707 
0.0658092 -0.0342354 0.0423708 0.0340483 0.0638732 0.0157781 -0.0308817 0.0749034 0.0505012 0.0409127 -0.00716516 0.140356 -0.0335982 -0.0329217 0.0885289 -0.0103051 -0.0543275 0.0435033 -0.0606191 0.00400836 0.0672741 0.0182668 -0.0326692 -0.0228524 0.0536961 0.00208422 -0.056745 -0.0496047 -0.0307512 -0.0521125 0.00636146 -0.0488242 
0.0603358 0.0501009 0.0230057 0.137931 -0.0426303 -0.0618356 -0.0706423 -0.276417 -0.0322396 -0.0138332 -0.087897 0.0508828 0.0598297 0.00545964 0.306375 0.0683595 -0.0561847 0.231711 -0.27894 -0.00982951 -0.0454713 -0.0374949 -0.00823376 -0.130427 -0.0770487 -0.0157901 -0.0915222 -0.0129181 0.00139735 0.0119691 -0.0893151 0.0486838 
-0.0165671 0.0354962 -0.0398966 0.0831552 -0.0921859 0.0471879 0.0149932 -0.0594819 0.0536495 -0.0268783 0.0459632 0.205949 -0.0230191 0.031045 0.161177 0.0105129 -0.0340775 0.0656375 -0.0577368 0.0329105 -0.0648226 0.0170308 -0.0412277 0.0348115 -0.0973317 -0.0533982 -0.0691229 -0.0936621 -0.125551 0.0479688 -0.0417331 0.0838893 
0.0216599 0.0975989 -0.0273631 0.0213108 0.00405851 0.0198994 -0.0903125 -0.149367 -0.0398698 -0.0621581 0.00378649 0.200953 -0.00332639 0.040022 -0.0314263 -0.0855611 -0.0506106 -0.0149136 -0.041077 0.0243503 0.0321542 -0.0468813 -0.0118096 -0.00313222 -0.163443 -0.0475337 -0.0411391 -0.0746178 -0.116455 0.0840269 -0.00731698 0.0171991 
-0.0165087 0.0336933 0.0183717 0.0792536 -0.0601713 -0.00382175 -0.0311163 -0.176796 0.00271308 0.00113734 -0.057491 -0.0325238 0.0707023 0.0189372 0.165706 0.105001 -0.0339476 0.164013 -0.100957 -0.05688 -0.00343178 0.0934491 -0.0624469 -0.00825804 -0.0555811 -0.064688 0.0279013 -0.0239676 -0.13545 -0.0135244 -0.0730641 0.0663855 
0.0217529 -0.0194142 -0.0316635 0.454299 -0.0247605 -0.0133614 -0.226728 -0.887443 -0.0476403 -0.12407 -0.139645 0.128666 0.0989155 0.0338063 1.06447 0.246912 -0.169973 0.597175 -0.735076 -0.00329399 0.0110234 0.0261676 -0.0137746 -0.50973 -0.181956 0.0248674 -0.17872 0.0105558 -0.26673 0.262806 -0.349013 0.362289 
-0.0507667 0.0168473 0.0300157 0.0225222 -0.0394041 0.0125679 -0.0518126 -0.309542 -0.0104168 -0.0631156 -0.0614478 0.483998 0.0319855 -0.0224896 0.125674 0.0436628 -0.15304 0.303768 -0.218624 0.0991119 -0.0230862 0.0897533 -0.00351523 -0.0646201 -0.183711 -0.057315 -0.0236613 -0.135391 -0.300659 0.238204 -0.133464 0.149824 
-0.0051425 0.00191536 0.0382616 0.171597 -0.00690137 -0.0499137 -0.0393518 -0.429122 -0.025059 0.0247548 0.00734302 0.126246 0.120882 -0.0877336 0.593791 0.0521374 -0.115573 0.329188 -0.397882 0.006928 -0.032098 -0.0116266 -0.0574722 -0.254857 -0.061866 -0.0277245 -0.241195 0.0755609 -0.189542 0.0990213 -0.137915 0.14354 
-0.00069992 -0.0185023 -0.0029731 0.178092 0.0367589 -0.020771 -0.147037 -0.475391 -0.0419505 -0.0584651 0.00297683 0.376638 0.0909098 -0.0624469 0.344905 0.128723 -0.0177178 0.129886 -0.443233 0.192415 -0.0402534 -0.00175299 0.0467944 -0.325584 -0.179165 0.0737493 -0.0524404 -0.0686439 -0.188398 0.252344 -0.0550806 0.182411 
-0.0519242 -0.00916292 0.0487053 0.0238301 -0.0763296 0.0154513 -0.0778527 -0.231461 0.0430023 -0.101208 0.0124684 0.151401 0.0600736 0.0177951 0.049905 0.108376 -0.147575 0.163301 -0.0785708 0.0128799 0.007469 -0.0312134 0.0251505 -0.0461448 -0.0990866 -0.0411026 -0.0417487 -0.0627552 -0.0547146 0.0507198 -0.0362024 0.135185 
-0.000217683 0.0371658 -0.126438 0.25549 -0.0559083 -0.123461 -0.152842 -0.820241 -0.0419511 0.0287546 -0.0575683 0.141001 0.247627 0.042633 0.884716 0.200591 -0.12591 0.441601 -0.687184 0.0476595 -0.0283311 -0.0128114 -0.0140776 -0.40783 -0.195072 -0.0133917 -0.242286 -0.037367 -0.273089 0.251585 -0.19775 0.294384 
-0.0220308 0.0550636 0.00801594 0.0680967 -0.00527359 0.0197751 0.00704818 -0.00534822 0.0315768 -0.0270581 0.0619187 0.1128 0.0233431 0.0412177 0.103805 -0.0215817 0.00352326 0.13982 -0.09409 0.0674299 -0.0832568 -0.0300669 -0.0207853 -0.021304 -0.00992024 -0.0197038 -0.058087 -0.0718604 -0.0876647 0.078052 -0.151499 0.0777877 
-0.0130009 -0.044125 0.0106246 0.137922 -0.0573646 -0.0519454 -0.122303 -0.26163 -0.0581337 0.00158651 -0.118993 0.158193 0.0710537 -0.0452967 0.418481 0.140859 -0.1163 0.219936 -0.308607 0.0255702 0.0244585 -0.0279989 -0.0267241 -0.279479 -0.0556294 0.0466782 -0.0374572 0.00719705 -0.171339 0.128313 -0.121927 0.187655 
-0.0917882 0.0238281 0.0473514 0.00238146 -0.0238485 -0.0421848 0.00188338 -0.0469194 0.0547402 0.041504 -0.00257922 0.035501 -0.00949563 0.0545162 0.0314873 0.0102726 -0.0227822 0.0145389 0.0407244 -0.0152168 -0.072906 -0.0390223 -0.0792029 -0.0373239 0.0700437 -0.00459071 -0.048947 0.0461267 -0.106129 0.00110657 0.0178206 -0.00364101 
0.0450513 0.0111008 -0.02959 0.310752 -0.0896462 -0.0429535 -0.191542 -0.652791 0.0532027 -0.0219563 -0.113179 0.0564443 0.130685 -0.0108715 0.745437 0.17384 -0.107302 0.419757 -0.484975 -0.0136715 0.000992424 0.0179128 -0.0137805 -0.379331 -0.117356 -0.0158702 -0.175197 -0.0437435 -0.291742 0.209147 -0.248131 0.205701 
0.0599544 -0.0693528 -0.088129 -0.014803 -0.016152 0.0021215 -0.0606637 -0.149146 0.0343999 0.066246 -0.0294077 0.118259 -0.0418263 0.0123063 0.0754741 -0.0672465 0.0588475 0.00230029 -0.127405 0.0494047 -0.0224934 0.0541012 0.066108 -0.0744611 0.0126389 0.015036 -0.0159447 -0.0678912 -0.13443 0.0797278 -0.0865405 -0.0415583 
-0.0233076 0.0644678 -0.0291589 0.195203 0.00754657 -0.0791641 -0.138108 -0.416706 -0.0034092 -0.098369 -0.0444214 0.0378538 0.0576773 0.0547531 0.505991 0.106146 -0.116936 0.24525 -0.269887 -0.0571495 0.02545 -0.0533777 -0.0192086 -0.150195 -0.146966 -0.0367252 -0.154154 -0.0314126 -0.150887 0.124783 -0.148067 0.182552 
-0.103256 -0.128409 0.0626262 0.0116595 -0.0528351 -0.0847686 -0.0193026 -0.103652 0.0154339 -0.0772465 -0.0226812 0.304242 -0.00735928 0.0341831 0.210571 0.0104188 -0.0978022 0.0448485 -0.0874759 0.0298923 -0.0292494 0.000855845 -0.0319469 -0.0349365 -0.0170089 -0.0492405 -0.0124494 -0.0783806 -0.162854 0.10338 -0.094703 0.111162 
0.0395441 0.0429841 -0.00494022 0.113069 -0.0590083 -0.0326416 -0.0656166 -0.348562 -0.0134363 -0.160451 -0.10386 0.170916 0.115145 -0.0144633 0.540839 0.154684 -0.111159 0.414838 -0.321184 0.103758 -0.00164228 -0.0236869 -0.0248774 -0.148782 -0.253934 -0.0786701 -0.15135 -0.0825223 -0.166329 -0.00952893 -0.229834 0.0975945 
-0.0255323 0.0424318 -0.0280861 0.293339 0.010638 -0.05008 -0.129421 -0.53245 -0.0195996 0.000592517 -0.0870362 0.09308 0.132685 0.00894511 0.585408 0.145966 -0.0814564 0.377124 -0.511457 -0.0769537 0.0336863 -0.0606585 0.0352111 -0.235976 -0.164476 0.011629 -0.217057 -0.0619971 -0.242728 0.217083 -0.116163 0.222737 
-0.00335017 -0.0133285 -0.0536247 0.190948 0.0166435 -0.0993609 -0.0829702 -0.329304 0.0675245 -0.0760392 -0.0683247 0.0335182 0.0518711 -0.0299511 0.470203 0.157252 -0.096904 0.262987 -0.306945 0.00939579 -0.00535682 -0.00244696 -0.0208353 -0.14292 -0.118318 -0.0435646 -0.073554 -0.0509947 -0.166191 0.13699 -0.0768876 0.108008 
0.080534 -0.0628538 -0.0222745 0.143671 -0.0815957 0.00255049 -0.0223984 -0.0694231 0.0747679 0.0185878 -0.0200232 -0.0127523 0.0510905 -0.00382766 0.228451 0.11351 0.0053123 0.115441 -0.11918 -0.00800698 0.00910118 0.0103598 -0.0615555 -0.142918 -0.0426517 -0.0332203 -0.0867604 -0.0339473 -0.14248 0.0074349 -0.0539356 0.101208 
0.00900385 -0.028852 0.0116969 0.391832 0.00683491 -0.0584089 -0.282605 -0.950956 -0.0353607 -0.102862 -0.0538172 0.179845 0.134802 0.0794389 1.06412 0.286559 -0.143571 0.690955 -0.760515 0.035562 0.019997 -0.00752082 -0.0667196 -0.390431 -0.27822 -0.0373092 -0.323603 -0.0325296 -0.382979 0.266554 -0.304273 0.282114 
-0.0218151 0.000927505 0.0692105 -0.0204558 -0.10907 -0.0342952 0.0393483 -0.181862 -0.0926861 -0.0073759 -0.00888585 0.204582 0.0317686 0.0617263 0.0608759 -0.0267838 -0.0866759 0.144298 -0.186625 0.0236165 -0.0212649 0.0545241 0.030216 -0.0932552 -0.157216 -0.0107289 -0.0571096 0.0260452 -0.127167 0.0776183 -0.0459893 0.149013 
0.0505105 0.0650585 0.0583269 0.195566 -0.0490728 -0.0861068 -0.136566 -0.382613 0.0276716 -0.108723 -0.0116356 0.0253012 0.0895324 0.0484146 0.514212 0.152888 -0.164924 0.409945 -0.309923 0.0857703 -0.0590127 -0.0762928 0.0124036 -0.137709 -0.170024 -0.00590829 -0.168781 -0.040179 -0.242292 0.0465484 -0.238532 0.19376 
-0.0244356 -0.0301467 0.00540168 0.281927 -0.0658888 -0.0155805 -0.157068 -0.623931 -0.0706226 -0.00523252 -0.0606337 0.259862 0.103609 -0.00434665 0.677879 0.179573 -0.136314 0.269717 -0.63376 0.0453265 -0.0696832 -0.00694815 0.0342375 -0.317169 -0.282 0.0428566 -0.12041 -0.0545474 -0.191612 0.257337 -0.16511 0.169836 
-0.0358964 0.0517192 -0.0308192 0.00660016 -0.0687778 -0.0665352 -0.0219425 -0.0716769 -0.055293 0.00786576 -0.0117102 0.162997 -0.0500593 0.0253977 0.0322782 0.0137686 -0.0232234 0.0340957 -0.0999787 -0.0430456 -0.0934534 -0.0374322 0.0138219 -0.0323088 -0.096001 -0.00936354 -0.0183645 -0.063191 -0.0528891 0.0680392 -0.0996804 0.0617153 
-0.0647205 0.0039822 0.0128635 0.0347374 0.0253337 -0.00493032 -0.0409187 -0.15501 -0.143687 -0.0168507 0.0297928 0.200463 0.00623651 -0.0383832 -0.0148971 0.00945374 -0.0430027 0.147596 -0.181015 0.102758 -0.0853888 -0.0143259 0.0399398 -0.075829 -0.19482 0.0340063 -0.0259556 -0.000783635 -0.10179 0.0648734 0.0220001 0.0576609 
0.003968 0.005362 -0.0300693 -0.0153445 -0.0175672 0.0225618 0.00441024 -0.0939421 -0.071561 -0.141776 -0.0402367 0.221721 -0.0364946 -0.0563447 0.212967 -0.0223958 0.0104792 0.200214 -0.0578815 -0.0508187 -0.00791937 -0.0377032 0.0703869 -0.0361979 -0.0527529 -0.0720987 -0.0971273 -0.198012 -0.224867 0.177526 -0.177357 0.0852754 
0.023334 -0.00408095 0.0557213 0.171402 -0.0557106 0.0369598 -0.0795559 -0.377524 0.0793866 -0.115411 -0.0364296 0.0360207 0.0568966 0.0469733 0.442553 0.133505 -0.0693683 0.342098 -0.362259 -0.0571304 0.0441615 -0.0336443 0.0433635 -0.156222 -0.113443 0.10035 -0.208891 -0.0426013 -0.137373 0.0747953 -0.125669 0.148495 
-0.0387951 -0.0767526 0.0798294 0.402568 -0.0778347 -0.0775279 -0.166722 -0.850635 0.0474908 -0.0404715 -0.0663359 0.374969 0.142084 0.0735557 0.753892 0.152456 -0.10134 0.400277 -0.801067 0.20205 -0.04583 0.00283676 -0.0982643 -0.431104 -0.244573 0.0770637 -0.160458 0.0594169 -0.312416 0.307672 -0.0875817 0.2206 
-0.00783906 -0.017392 0.0764992 0.0590771 -0.049957 0.0279293 -0.111506 -0.201836 0.076639 -0.0426693 -0.0741748 0.159197 0.00394584 0.0178326 0.0183832 0.050146 -0.00626153 0.0322285 -0.217098 0.0699743 -0.0223654 0.0402965 -0.0542325 -0.049933 -0.0731848 0.0366918 0.00919907 -0.00379717 -3.96545e-05 0.0672493 0.0290727 0.0330376 
-0.0354098 0.107231 -0.00140948 -0.0507889 -0.00534665 -0.0045047 0.0535751 0.072816 0.0367106 -0.104017 0.0178128 0.0300551 0.0290619 0.00143403 0.00344088 -0.0139012 0.0309993 0.0599809 0.0802273 -0.00248821 0.0211323 0.0527344 -0.0336489 0.0564019 -0.0126133 0.0092195 0.00814144 -0.0920829 -0.0827757 0.0323414 0.0429547 -0.0817108 
0.0617382 -0.0426152 0.0290576 0.0173836 -0.0553826 0.0137281 -0.0578768 -0.0175301 0.0623327 -0.0399288 -0.0321467 0.0992525 0.119309 0.0852269 -0.0559951 -0.00666366 0.0569038 0.0437444 -0.0367108 0.011253 -0.0515096 -0.00179926 0.0111116 -0.0288585 -0.0590208 -0.0422658 0.0739418 -0.0377207 -0.170553 0.0481361 -0.0541351 0.104095 
0.0189616 0.0570355 -0.00713169 0.321425 -0.0648664 -0.00469348 -0.120368 -0.675611 -0.0129286 -0.023121 -0.0790195 0.210482 0.245207 -0.0573389 0.778504 0.192844 -0.0542457 0.407567 -0.611262 0.0468904 -0.120627 0.00545525 0.00460169 -0.330833 -0.11847 0.00769352 -0.128509 -0.00527396 -0.157636 0.180568 -0.174826 0.320798 
0.00511274 -0.0602465 -0.0788438 0.0447567 0.0243266 0.0333061 -0.051717 0.0511084 0.000669371 -0.0846084 0.0303772 0.113946 -0.0803969 -0.0138642 0.0967485 -0.0691912 -0.0728657 0.179459 -0.0133537 -0.0604088 -0.017693 0.0882005 -0.0574984 0.0138805 -0.0734607 -0.0495276 -0.0986404 -0.0208603 -0.0865268 0.0507381 -0.0248836 0.0439488 
-0.0614999 -0.0154609 0.0155979 0.00609479 -0.0213702 -0.00275547 -0.0164593 -0.0564329 -0.0421714 -0.05028 -0.0124271 0.129921 0.0436812 0.00185576 0.275521 0.0159798 -0.0809559 0.154573 -0.0605522 0.0592763 0.0238278 -0.0398719 -0.00887666 0.016948 -0.00429174 0.0276949 -0.0465189 -0.134523 -0.0293095 0.0935254 -0.0421872 0.0902294 
-0.0298101 0.0507531 -0.0153721 0.130616 0.0349305 -0.050158 -0.0451578 -0.290534 0.0447833 0.00919984 -0.081057 0.18395 0.144146 -0.0212929 0.368523 0.110836 -0.032402 0.138973 -0.27932 0.0879753 -0.0257829 0.0994525 -0.0705332 -0.0720936 -0.0756458 -0.0503662 -0.111636 0.0338705 -0.241013 0.106956 -0.118658 0.180243 
0.0323736 0.0578664 -0.0317895 0.304104 -0.069464 -0.093158 -0.227196 -0.770568 0.0375704 -0.0555402 -0.169851 0.402743 0.0882754 -0.0570459 0.80014 0.117341 -0.0499252 0.404818 -0.687357 0.162338 -0.00131785 -0.0587016 -0.0666639 -0.429736 -0.176092 0.0109111 -0.1038 -0.0609162 -0.325035 0.221993 -0.229057 0.255863 
0.00145075 -0.0938636 -0.0135184 -0.0361592 0.0839037 -0.0264104 -0.0166545 -0.0803138 0.0543574 -0.0511492 0.0255984 -0.00337496 0.0355049 0.0373051 0.120909 -0.0210573 0.027387 0.0540787 -0.0198113 0.041963 -0.0208706 -0.0280774 -0.015866 0.0169519 -0.0744865 0.027908 -0.0977484 -0.0450983 0.0310716 -0.0407481 -0.0352161 0.116585 
0.00108065 -0.0386727 0.0414573 0.196229 0.0105178 -0.0863072 -0.0749129 -0.292404 -0.0191194 -0.0813166 -0.0572031 -0.0939876 0.0371981 0.0245398 0.487326 0.112339 -0.141223 0.267578 -0.245571 0.0210034 0.0169613 -0.0155444 -0.102814 -0.276173 -0.0384335 -0.000184954 -0.0628966 -0.0740773 -0.192597 0.0896696 -0.154939 0.144936 
-0.0538302 0.000325579 0.00105846 0.0839889 0.00253443 -0.0612015 -0.0223698 -0.329909 0.066443 -0.173669 -0.0298574 0.131984 0.0689954 0.113306 0.508909 0.0631821 -0.12467 0.419464 -0.250778 0.0457271 -0.0686269 -0.0454719 -0.0145261 -0.132708 -0.247474 -0.0598804 -0.135616 -0.149838 -0.293673 0.0520286 -0.355387 0.295148 
-0.0310692 0.0816034 -0.0666907 0.202668 0.0648099 -0.0494112 -0.0507223 -0.415337 -0.0166165 -0.100066 -0.113276 0.0158109 0.0535634 0.0907324 0.425886 0.126068 -0.0816855 0.255851 -0.215791 0.0214403 -0.0478681 0.0608182 0.0228696 -0.184684 -0.170616 -0.0607922 -0.0866556 -0.0248184 -0.216226 0.112453 -0.0768165 0.0961931 
0.0299903 0.0476123 -0.0124621 0.0232327 0.049775 -0.019922 -0.00576156 -0.25734 -0.0182048 -0.118451 -0.0799428 -0.00913357 0.041151 0.0851166 0.20017 0.0534016 -0.0522557 0.233835 -0.148942 0.0159882 -0.101036 0.0528965 0.0132389 -0.0750268 -0.0699962 -0.0123646 -0.0454002 -0.0798916 -0.0844446 0.093485 -0.0842438 0.0694461 
-0.00303754 0.0321868 -0.093293 0.0378934 -0.0591592 0.00860229 0.069681 -0.174582 -0.0267377 0.0107208 0.00124423 0.294854 -0.0227625 0.0149904 0.197882 -0.0386218 -0.0475536 0.139517 -0.102966 0.0634653 0.00689938 -0.00644081 -0.0112379 -0.138513 -0.0400584 -0.0672516 -0.0889291 -0.126266 -0.125164 0.0964691 -0.0446132 0.0751015 
-0.073516 0.0295129 -0.029315 0.0660281 0.00971707 -0.0362712 0.0733889 -0.132235 -0.0451297 0.0477201 -0.0283694 0.0573652 0.0582958 0.0851502 -2.04781e-05 0.0422905 -0.0308015 0.0237641 -0.131214 0.15052 -0.0169275 0.00156216 0.0414443 -0.0543245 -0.0774315 0.0376418 0.0101411 0.018739 -0.0772106 0.117639 0.00356123 -0.0169465 
-0.0642778 0.0525892 -0.0861887 0.108637 -0.0150125 -0.059671 -0.089049 -0.363474 0.0318129 -0.0155293 -0.067884 0.0324036 0.0445937 0.0695144 0.289105 0.0295761 -0.063392 0.235362 -0.265997 -0.0400435 0.0272011 0.0611313 0.00168474 -0.0625759 -0.141118 -0.0843484 -0.0480403 -0.073937 -0.14725 0.101449 -0.153547 0.142007 
-0.0510212 -0.00156348 0.027119 0.095763 0.0013776 -0.0591473 -0.123833 -0.278227 -0.0736742 -0.0161855 -0.0570264 0.0847441 0.0300587 -0.0618155 0.188547 0.0344112 -0.0459262 0.0522722 -0.29352 0.0541315 -0.029867 -0.0242038 0.0323756 -0.133446 -0.121596 0.00732185 -0.049857 -0.0066976 -0.0913341 0.0923106 -0.0534764 0.113377 
-0.0555919 0.0371734 0.00017659 0.00444721 -0.0899148 -0.00140792 -0.0514783 -0.261371 -0.0211973 0.0187143 -0.0651954 0.380144 0.0753921 0.026313 0.0981343 0.0771061 -0.194637 0.116353 -0.257426 0.0533121 0.0497076 0.0101338 -0.0340216 -0.219391 -0.233193 -0.00374912 0.0612587 0.0134344 -0.175807 0.226541 -0.0880003 0.177046 
0.0373565 0.0428072 -0.119907 0.297778 0.0733547 -0.0292725 -0.179691 -0.74287 -0.0432087 -0.149079 -0.0211431 0.0461191 0.0484361 0.0694661 0.900014 0.272204 -0.228594 0.641538 -0.554834 -0.0131537 -0.0101417 -0.064023 -0.0623074 -0.383461 -0.295084 0.0436277 -0.290427 -0.199578 -0.372591 0.255726 -0.410978 0.264519 
0.0332703 0.00294324 0.034269 0.0587772 0.0273433 -0.0560676 -0.14602 -0.2526 0.0520697 -0.0205102 0.0110488 0.241751 -0.0256828 0.0293271 0.0230688 -0.068375 -0.116352 0.121175 -0.139946 0.0613935 -0.0514974 -0.0844929 0.0455734 -0.165903 -0.176596 0.028696 -0.0117047 0.0221245 -0.11749 0.116025 -0.0974112 0.177124 
-0.0525844 0.0353344 0.0268318 0.183574 -0.0413356 -0.0430416 -0.109466 -0.517447 -0.00241709 -0.0282544 -0.00513088 0.412603 0.0883084 -0.0176263 0.21505 0.110852 -0.0562671 0.0786967 -0.474837 0.145225 0.000734297 -0.0291259 -0.0232914 -0.322677 -0.248741 0.0994155 -0.0821692 -0.0367881 -0.209691 0.256146 -0.0467716 0.0918971 
-0.0514497 -0.0363125 -0.0626148 0.0486259 0.0143476 0.00385336 -0.0675077 -0.2731 0.10343 -0.075083 -0.0777288 0.211639 0.0250641 0.00591232 0.508763 0.0372775 -0.0766141 0.361478 -0.296024 0.0282607 -0.0326706 0.037391 -0.126692 -0.184179 -0.216681 0.0272295 -0.0847289 -0.0857961 -0.179581 0.0728164 -0.254667 0.176933 
-0.0402516 0.0390809 -0.0182956 0.101676 -0.0363748 0.0676211 -0.196685 -0.528395 -0.0940546 0.0671967 -0.000434395 0.553946 0.0895482 -0.0634348 0.183577 -0.0405981 -0.137952 0.120979 -0.493326 0.14468 -0.0292843 0.0519755 -0.0416806 -0.252979 -0.305 0.0199511 0.00330939 0.000896589 -0.286461 0.232804 0.0141202 0.137242 
-0.0766867 0.00831032 0.106979 0.26742 -0.0321328 -0.0345524 -0.115484 -0.560245 -0.00347868 -0.0530295 -0.079844 0.0791103 0.12098 0.0588545 0.689748 0.191554 -0.210918 0.45003 -0.562712 -0.0363157 0.0346761 -0.0951465 0.0309772 -0.308785 -0.208677 -0.00844936 -0.129294 -0.0470115 -0.285647 0.167212 -0.220105 0.198944 
-0.111016 -0.0149183 -0.0083568 -0.0239294 -0.102768 -0.00207153 -0.133681 -0.417694 0.0486269 0.0679693 -0.0146355 0.423627 0.0577838 0.032164 -0.0223309 0.00388481 -0.189791 0.137762 -0.425212 0.190834 -0.110205 -0.0401261 0.0416874 -0.187897 -0.372864 -0.0154917 -0.0592236 -0.0334624 -0.251206 0.314147 -0.0629408 0.173058 
-0.0565546 0.0698194 -0.0175917 -0.0722213 -0.0626502 0.0107434 -0.0722752 -0.420517 0.063465 -0.0446228 -0.0257638 0.465086 0.0396077 -0.0990456 0.165482 -0.0369139 -0.105845 0.24515 -0.276245 0.110465 -0.0130824 0.00786403 -0.0176041 -0.201908 -0.373069 -0.128049 0.0498477 -0.0736171 -0.325257 0.354715 -0.18523 0.109596 
-0.0249089 0.0303656 -0.0290894 0.0854206 -0.0251598 0.0326822 -0.0440286 -0.27462 0.0708729 -0.040861 -0.0364758 0.0509753 0.0399103 0.162921 0.413466 0.0651316 -0.0797949 0.24998 -0.249431 -0.00500184 -0.0932267 0.0211336 -0.0244052 -0.115963 -0.108798 -0.0140282 -0.111703 -0.102001 -0.177697 0.074717 -0.12387 0.0673627 
-0.0909177 0.0490853 -0.0426423 0.108243 -0.10332 -0.0253637 -0.173467 -0.530159 0.0829247 -0.00634718 -0.0098739 0.548518 0.0767609 -0.0152544 0.199904 0.0852493 -0.0865631 0.108444 -0.492193 0.276448 -0.0081657 0.0314456 -0.0172659 -0.240897 -0.411336 -0.0182419 -0.0811145 -0.022981 -0.307224 0.326471 0.0219942 0.11754 
-0.0778915 -0.0294057 0.0284047 0.0894251 -0.114694 -0.0622559 -0.140029 -0.458876 -0.0818462 0.0223845 -0.0172306 0.572635 0.0381279 0.00355565 0.135279 -0.015539 -0.176008 0.276544 -0.417482 0.167527 -0.0281841 -0.000648006 -3.42958e-06 -0.224117 -0.438594 -0.055677 0.0345451 -0.122151 -0.35867 0.337672 -0.152624 0.205991 
0.00189962 0.0757828 0.00616848 0.246471 0.037095 -0.0881777 -0.162161 -0.562083 -0.0412752 -0.000850449 -0.0459002 0.184735 0.120191 -0.077627 0.623484 0.111568 -0.0634069 0.28084 -0.44944 -0.0266592 0.000640967 -0.046925 0.0185532 -0.264647 -0.134671 -0.011007 -0.145512 -0.0126169 -0.16863 0.192862 -0.139115 0.125176 
-0.0938227 -0.00930717 0.0562809 0.0121433 -0.0959656 -9.3713e-07 -0.0888674 -0.371461 -0.0334835 -0.0478746 -0.0729169 0.362338 0.0930678 -0.0622184 0.0698129 -0.0793356 -0.127766 0.230358 -0.24698 0.0816 -0.0332105 0.0356459 -0.000140721 -0.171175 -0.307644 -0.00646833 0.0340809 -0.0251813 -0.267208 0.206526 -0.117963 0.223107 
-0.139037 -0.0908964 -0.0134396 -0.0413136 -0.0438292 -0.0614718 -0.150426 -0.451146 0.00164591 -0.0502503 -0.06741 0.712475 -0.0668061 0.0301262 0.2016 0.00182029 -0.226434 0.50291 -0.355857 0.08119 -0.130864 0.0434143 -0.00996898 -0.208172 -0.327943 -0.123437 -0.00800415 -0.211419 -0.431315 0.276086 -0.301926 0.258857 
-0.0265361 0.0714518 -0.0408436 -0.0184559 -0.108017 -0.114224 -0.0349966 -0.161864 -0.00784727 -0.0682924 -0.0733174 0.350061 0.0175357 -0.0422817 0.190279 -0.0585054 -0.153535 0.257963 -0.0961527 0.0220937 0.0186828 -0.0501695 -0.016244 -0.065903 -0.0424282 -0.16645 -0.0410608 -0.125614 -0.187123 0.118723 -0.113754 0.0440941 
-0.00588794 0.0291206 -0.0197993 0.561223 -0.0473788 -0.0583533 -0.39538 -1.29292 -0.0667237 -0.074255 -0.150536 0.226028 0.264847 0.0897693 1.48956 0.395433 -0.231202 0.848651 -1.1295 0.0144463 -0.0375376 0.0740731 -0.0443885 -0.673235 -0.349329 0.0787605 -0.38666 -0.0778574 -0.434715 0.41207 -0.332475 0.444005 
-0.0381498 0.0103104 -0.0091508 -0.0736684 0.0236666 -0.088654 -0.0029923 -0.0896587 0.0471816 -0.111575 -0.0212867 0.251976 0.0283465 -0.0711679 0.15927 0.0344128 -0.109696 0.113113 -0.0647367 0.0108038 0.0107041 -0.0325898 -0.0789489 -0.00394162 -0.0311483 -0.0658157 -0.0456573 -0.0595171 -0.059362 0.0583183 -0.107647 0.0579976 
-0.0567451 0.0530268 -0.0693101 0.51689 -0.102822 -0.0667178 -0.242564 -0.853388 -0.0371987 -0.0486475 -0.078005 0.114473 0.127754 0.0109513 1.01314 0.258236 -0.135443 0.700615 -0.840744 0.0239461 -0.101192 0.0180177 0.0211192 -0.383427 -0.314262 -0.0578845 -0.178085 -0.0291364 -0.3859 0.188953 -0.282505 0.364983 
0.0161291 0.0536366 -0.0689915 0.00431477 -0.0118819 -0.0238316 -0.0239701 0.00663448 -0.0257479 0.00438048 0.0169101 0.0341947 0.0605056 0.0813337 0.0546268 -0.0183276 -0.00503816 0.0843344 -0.0448099 -0.0255441 -0.0237058 0.0510177 -0.0837418 0.118496 0.0287024 -0.027755 -0.000753137 -0.0457911 -0.0601363 0.110801 -0.0439489 0.0501651 
-0.0239999 -0.00344465 0.0572821 0.0507696 0.0392496 0.00135253 -0.084306 -0.207292 -0.0407326 0.0335436 -0.0600203 -0.10972 0.0902924 -0.0141544 0.302416 0.0534753 -0.106127 0.132612 -0.175477 -0.0382793 -0.0276258 -0.0271844 0.0313918 -0.0864832 -0.139636 -0.0238026 -0.0887075 -0.0533379 -0.139189 0.0378818 -0.147194 0.200437 
-0.0284222 0.00206323 0.00198311 -0.0367578 -0.0508167 -0.00303822 -0.0508336 -0.0373762 -0.0282083 -0.0160432 -0.0768549 0.235142 0.0724456 0.0227683 0.10114 -0.0214996 -0.1135 0.159971 -0.127362 0.0005344 -0.025041 -0.0214969 -0.0516435 -0.0609271 -0.169538 -0.0359824 0.0106808 -0.140282 -0.10705 0.251262 -0.111959 0.0573056 
0.0341488 -0.0177628 0.0237193 0.0980918 -0.0270745 0.030791 -0.0674862 -0.21207 0.096323 -0.040848 -0.0316129 0.050287 0.182718 0.115097 0.324131 0.130978 0.00366338 0.1545 -0.204588 0.0565589 0.0090631 -0.0155643 0.119864 -0.0987174 -0.127613 0.0371053 -0.0430388 -0.0666359 -0.150985 0.109496 -0.110779 0.0663276 
-0.191649 -0.0517078 -0.0225167 0.183381 -0.26616 0.0391441 -0.296378 -1.06705 -0.0381825 0.0253583 -0.0801132 1.11257 0.20358 0.0282896 0.19599 -0.000364756 -0.23459 0.201249 -1.05537 0.508519 -0.0442279 -0.0467749 -0.0626102 -0.673007 -0.830715 -0.129497 0.0386685 0.0241384 -0.563413 0.69326 -0.0393629 0.323531 
-0.0496331 -0.00495919 0.0262562 0.00340734 0.0512498 -0.0392017 0.00322654 -0.0158784 0.0673181 -0.0318872 -0.0342725 0.0863624 -0.0325328 0.011705 0.237966 0.0774506 0.0251644 0.0914665 -0.0919885 0.0549884 -0.0744568 -0.0298456 0.0103827 -0.0431496 -0.0377013 -0.0341394 -0.0840026 -0.0490248 -0.111197 0.0579672 -0.144379 0.0508604 
-0.101119 -0.0278936 -0.0293874 -0.00670849 -0.0177868 -0.0258319 -0.0613531 -0.0335701 0.0348835 -0.0406752 -0.0123808 0.103353 0.0616257 0.0390477 0.0180044 0.0697222 -0.0154947 0.0424769 -0.17854 0.0105954 0.0334708 -0.01164 0.00614466 -0.116489 -0.0993929 -0.0394984 -0.0298166 -0.0373941 -0.0357219 0.0747083 -0.0117973 0.0922476 
-0.130286 -0.0257277 0.0494165 0.0485267 -0.126936 -0.0516569 -0.158931 -0.52148 -0.00429518 0.0252673 -0.0156172 0.662527 0.0644465 0.00738512 0.0308935 -0.0508089 -0.238973 0.223413 -0.541318 0.270337 -0.0584852 0.00337449 -0.00866898 -0.222762 -0.532043 -0.0601077 -0.0918243 -0.0296275 -0.471411 0.317709 -0.097606 0.132687 
-0.0170131 -0.022484 0.052681 0.0556749 -0.0196357 0.00237134 -0.00319056 0.0280918 -0.00114021 -0.0530516 -0.101774 0.169063 -0.0209096 -0.0312337 0.0311465 -0.0408858 -0.0936537 0.100967 0.0564702 0.0471842 -0.0219122 -0.0867447 0.0146546 0.0181931 0.0280862 -0.0601627 0.0972999 -0.0516349 -0.0662581 0.010059 -0.0863835 0.0445062 
-0.0491631 -0.0554059 -0.0147208 0.102978 -0.00764901 0.0375613 -0.0935273 -0.252579 0.0140981 -0.152153 -0.106818 0.0763097 0.0180518 0.0932932 0.520484 0.0930159 -0.116318 0.368645 -0.32512 0.0292425 0.0575702 -0.0440556 -0.0417374 -0.0742159 -0.170025 -0.0124333 -0.129396 -0.115874 -0.247135 0.158379 -0.213816 0.185136 
0.0157356 0.0692621 -0.0579979 0.196084 -0.0418076 -0.0845698 -0.219283 -0.41109 -0.0267366 -0.0228204 -0.0159739 0.0187673 0.0754578 0.0565024 0.508948 0.161983 -0.227943 0.393511 -0.412311 0.00801495 -0.0162287 -0.0299254 -0.0334273 -0.188451 -0.239285 -0.0204434 -0.0761171 -0.0294871 -0.165202 0.123774 -0.160855 0.139753 
0.0670613 0.0421574 0.0555118 0.287779 -0.0767603 -0.02416 -0.21872 -0.690117 0.00242577 0.0892535 0.000818287 0.582639 0.12441 -0.0152666 0.401925 0.04364 -0.166477 0.214427 -0.737081 0.301967 0.00866688 -0.0455989 -0.0991155 -0.425287 -0.34589 0.0296701 -0.101028 -0.0699014 -0.28306 0.417068 -0.0757323 0.258503 
0.00458028 -0.0243067 0.0906949 0.0378138 -0.0116102 0.018867 -0.0235274 -0.059748 -0.0477401 0.08434 0.0176311 0.0855457 0.000598658 -0.0220265 -0.00641155 0.010804 0.0156536 0.0258107 -0.0859803 0.0478512 -0.0129598 0.0461945 -0.033869 -0.0707117 -0.0311153 0.0264008 0.00866813 -0.0234566 -0.0201834 -0.0159283 -0.0385102 -0.00434253 
-0.0169637 -0.0705782 -0.0192574 -0.0247838 -0.0118434 -0.0635562 0.0197608 -0.0824489 -0.0111644 -0.0279534 0.00378943 0.132981 0.0302124 0.107128 -0.0667213 0.00166243 -0.0565616 0.0112699 -0.0395119 0.0587519 0.0947773 0.051772 0.0380613 0.033231 0.0256858 0.00998448 0.0457801 0.00442404 -0.0847985 0.0325734 0.0481034 -0.0548467 
-0.0553772 0.0278857 0.0582968 0.270491 -0.0526558 -0.0704109 -0.155649 -0.60167 -0.0068461 -0.154575 -0.100132 0.134875 0.106263 0.0162366 0.6469 0.193311 -0.149058 0.415323 -0.52136 -0.0353938 0.0203194 0.0973574 -0.0355354 -0.405298 -0.12982 -0.0225626 -0.247962 -0.0559722 -0.286955 0.13592 -0.241538 0.274832 
0.00882843 0.0143878 -0.00899093 0.0758608 0.0492951 -0.00392717 -0.10076 -0.179465 0.0526572 0.0905395 -0.0347218 0.124796 -0.0428054 -0.0165867 0.0528408 0.0270389 -0.0512657 0.0128209 -0.0395782 0.0676642 0.0409273 0.0461646 0.0673859 -0.0394949 -0.0929885 -0.0183319 0.0188258 -0.0308201 0.00361072 0.0370043 0.0594706 0.0240442 
-0.0642654 0.0319627 0.00987474 0.294404 -0.0487302 -0.0475395 -0.190867 -0.582146 0.0294055 -0.135106 -0.182026 0.0912087 0.174781 0.0742706 0.726033 0.155059 -0.176218 0.489802 -0.587318 0.0156132 -0.0213144 0.00262089 -0.00543709 -0.373916 -0.22308 -0.0467088 -0.184018 0.0197891 -0.268104 0.138003 -0.20202 0.208395 
-0.0614703 0.0191418 0.0416985 0.0768455 -0.100214 0.0305739 -0.128674 -0.687199 -0.00589988 -0.0863993 -0.113773 0.713678 0.0751159 0.00151489 0.0192842 -0.00876819 -0.209031 0.248621 -0.578458 0.264327 -0.0873933 0.00589072 0.0125976 -0.273062 -0.460681 -0.0389439 -0.0067053 -0.0321773 -0.362285 0.39619 -0.093136 0.161644 
-0.00280036 0.0671361 0.0391563 0.255022 -0.0430734 -0.0843478 -0.128692 -0.666863 -0.0177495 -0.206526 -0.160345 0.0195185 0.106579 0.124853 0.773812 0.186047 -0.17581 0.622771 -0.60081 0.0625182 -0.000562703 0.00379702 0.022092 -0.330616 -0.343384 -0.0601368 -0.156705 -0.0620897 -0.355631 0.123507 -0.254838 0.185084 
-0.0316135 0.024944 0.0371333 0.0313672 -0.0951881 0.0687581 -0.102652 -0.247279 -0.0718542 0.0343769 -0.0061018 0.207491 0.0982999 0.0570632 0.0916314 0.0186356 0.013582 0.0644954 -0.276639 0.0661128 -0.0485813 -0.0939807 -0.0172837 -0.0826322 -0.0302789 0.00575929 -0.0433815 0.00103324 -0.119949 0.138898 -0.00842314 0.0734354 
-0.0373019 0.00329729 -0.0964206 0.0573577 -0.0927088 0.00288189 -0.0999989 -0.153871 0.112522 -0.0435665 -0.0878783 0.284787 0.0151629 0.0595881 -0.0284882 -0.0131017 -0.0270312 0.0236601 -0.125362 0.193994 0.0474808 -0.00184224 0.000771203 -0.149958 -0.137026 -0.0491159 -0.0672286 -0.0379552 -0.178407 0.173401 -0.102174 0.014644 
-0.00190422 -0.0260472 0.023481 0.155658 -0.023775 -0.0825853 -0.123188 -0.503852 -0.0173951 0.034606 -0.105785 0.0529133 0.167942 0.0552001 0.580554 0.0970913 -0.165339 0.332176 -0.496743 -0.0237904 0.00172601 0.0613134 -0.098873 -0.302832 -0.137399 -0.0465534 -0.143108 -0.0527045 -0.241363 0.149358 -0.185519 0.19014 
0.00320142 0.0505907 0.0294587 0.206578 0.0431404 -0.0665164 -0.181764 -0.482279 -0.0218138 -0.112063 -0.0772561 -0.00481616 0.0753718 0.0426363 0.54664 0.157169 -0.161443 0.389951 -0.407931 0.00723535 0.0408026 -0.0334017 0.0141848 -0.23679 -0.207623 -0.00580326 -0.187515 -0.00291514 -0.161465 0.178436 -0.133186 0.199151 
-0.201041 -0.0367903 0.00578642 0.11693 -0.0289784 -0.0314364 -0.116671 -0.533879 -0.0794567 -0.0227903 0.0231386 0.570891 0.124987 -0.0143566 0.0424303 -0.00563774 -0.171501 0.104102 -0.451545 0.285148 -0.0865647 -0.0559498 -0.0649984 -0.279209 -0.386537 0.0271122 0.0215674 0.0343203 -0.300992 0.221191 -0.085101 0.129962 
0.0270497 -0.0377732 0.0425961 0.311584 -0.0327632 0.00413587 -0.238296 -0.631962 -0.0395771 0.0233527 -0.126455 0.239348 0.0965052 0.133946 0.713635 0.119452 -0.127201 0.352066 -0.584427 -0.00033955 -0.0593047 -0.0250106 -0.00333489 -0.427792 -0.147637 0.00781172 -0.173426 0.0390028 -0.303538 0.275071 -0.13887 0.292192 
0.00455488 -0.0778269 0.0220684 0.031476 -0.0647392 -0.0201888 0.0347686 -0.0638034 0.0318861 0.00600387 -0.0341345 0.0751159 -0.0531358 -0.0229962 0.136933 0.0166597 -0.0670404 0.0466494 -0.0646385 0.0322613 0.00517871 0.00880832 -0.016159 0.00288966 -0.0607503 0.0670735 -0.0380806 0.0279917 -0.0840307 0.0458417 -0.0270618 0.0363782 
0.0638042 -0.0181019 0.0312527 -0.0113087 0.00666231 0.0284256 0.0276436 -0.0931761 0.0347802 -0.120583 -0.0654505 0.205902 -0.0291018 -0.0359234 0.25316 -0.0610943 -0.130157 0.252809 -0.0818343 -0.0120232 -0.0272493 -0.068922 0.00897983 0.0498067 -0.20282 -0.100553 -0.0843489 -0.15314 -0.154991 0.150247 -0.189368 0.0880125 
-0.0331794 0.0116171 0.0354436 -0.000449233 -0.0337109 -0.100727 0.0426616 -0.210816 0.0360083 -0.124011 -0.00357528 0.438868 0.0654444 -0.0163056 0.179777 -0.028882 -0.0704297 0.300445 -0.129087 -0.0169127 -0.011587 0.0876669 0.0511335 -0.123267 -0.146862 -0.163651 -0.134765 -0.235737 -0.230137 0.240499 -0.213099 0.135156 
0.00900207 -0.0295687 -0.124336 0.0137736 -0.124566 0.0516064 -0.0314396 -0.334679 0.0619976 -0.071149 -0.0570936 0.457541 0.0512558 -0.0447771 -0.0574436 0.0248025 -0.108169 0.130323 -0.325588 0.198146 -0.0373125 0.0514451 -0.0091684 -0.153593 -0.380834 -0.0625813 -0.00688855 0.0148846 -0.180459 0.168922 -0.0724856 0.157674 
-0.07632 -0.0341252 0.0347478 -0.0255753 -0.0255155 0.0172188 -0.0499351 -0.237992 0.00162441 0.0388485 -0.0115831 0.279772 0.0747151 -0.022423 -0.0453748 -0.0069888 -0.0120871 0.105399 -0.175277 0.0697191 -0.00209718 0.0112433 0.0405469 -0.0992405 -0.172393 -0.0852196 -0.0659736 -0.0117404 -0.115473 0.139182 -0.0749325 0.165612 
-0.0785949 0.000738911 0.0107807 0.337489 -0.128275 -0.0153951 -0.330222 -0.879085 0.0164529 -0.0412227 -0.0356508 0.549658 0.139197 -0.014044 0.72679 0.122345 -0.0452439 0.237576 -0.802838 0.240779 -0.0145905 -0.122658 -0.0241603 -0.530747 -0.315056 0.0303577 -0.178238 -0.0722805 -0.323453 0.333373 -0.093307 0.224369 
-0.00345832 0.00840655 -0.0259333 0.240276 -0.0641842 -0.104333 -0.12776 -0.51649 -0.0455152 -0.0176207 -0.0461109 0.205909 0.171084 0.000172452 0.476895 0.13525 -0.019065 0.200194 -0.530492 0.101252 -0.0726311 -0.0223309 -0.0262306 -0.348846 -0.246507 -0.0285947 -0.0923749 -0.0178149 -0.174173 0.16943 -0.0602371 0.157023 
-0.0204269 -0.00636004 -0.0904517 -0.0409129 -0.0671735 -0.0842801 -0.0320892 -0.331074 0.0660986 -0.00500069 -0.0383524 0.480318 0.017667 0.0293654 -0.0971334 -0.00935205 -0.081823 0.036532 -0.384197 0.197444 -0.0221753 0.000174155 -0.0119213 -0.111224 -0.290807 -0.0401991 0.0400112 0.0529836 -0.27248 0.264185 -0.0551448 0.0290354 
0.0112954 -0.0060266 0.0489955 0.022392 -0.0409762 0.0555866 -0.0620981 -0.132359 -0.0118876 -0.0720292 0.00737942 0.159851 -0.000517046 0.0166483 0.00720995 -0.0658026 -0.0735574 -0.10806 -0.0655576 0.0672921 -0.0216466 -0.0221812 -0.0321621 -0.0772284 -0.0761192 -0.0151255 -0.0859572 -0.0208187 -0.0105454 0.0337783 -0.0175871 0.0662274 
-0.0677088 0.0337273 -0.0348766 0.10556 -0.03844 -0.0281967 -0.0249487 -0.0391207 0.0380432 -0.0346131 -0.0138284 -0.0217359 0.0554922 -0.0228059 0.0612789 0.0373683 -0.0674833 0.108394 -0.101461 -0.0588338 0.0317357 -0.00359862 0.054994 -0.0471029 -0.0487838 -0.0998099 -0.0157715 0.0616469 -0.0287855 0.0806641 -0.0432842 0.0966585 
0.0326251 0.0214997 0.0118041 0.220355 -0.0107397 -0.10132 -0.132899 -0.508923 0.0133194 -0.0138005 -0.0656088 0.0466766 0.0633074 0.0182301 0.611256 0.192608 -0.164971 0.482565 -0.468333 0.00777383 -0.0916484 -0.0719183 0.0456532 -0.279154 -0.258532 -0.083202 -0.174168 -0.133892 -0.225646 0.216099 -0.214376 0.17146 
-0.0450036 0.0571479 -0.0270663 0.173475 0.0179981 -0.137812 -0.139305 -0.545866 -0.00292704 -0.0942979 -0.0689066 0.0794296 0.0670316 -0.0270709 0.580176 0.152309 -0.148405 0.505541 -0.464691 -0.0147938 0.0386656 -0.0352219 0.0142096 -0.297495 -0.184011 -0.0336518 -0.132921 -0.0535827 -0.241332 0.134711 -0.316657 0.217627 
-0.0502383 -0.0530185 0.00747637 0.0123862 -0.0676592 0.00307443 -0.0550144 -0.182451 0.0349896 -0.0283484 0.076347 0.250717 0.0441238 -0.018547 0.0165403 0.100974 -0.0866736 0.0663647 -0.235647 0.117638 0.00546167 -0.0666255 0.0471564 -0.114687 -0.108845 0.0930885 0.0532266 -0.0439041 -0.175318 0.134508 -0.0771647 0.0956379 
-0.0665239 0.034109 -0.0598674 -0.0527107 -0.0515749 0.0222936 -0.0122324 -0.118442 -0.0748718 -0.0542964 0.0352712 0.0756241 -0.0158363 -0.0265883 0.0997482 0.0411414 0.0226727 0.043643 -0.0683861 -0.0382922 -0.0273125 -0.0319928 -0.0539666 -0.101784 -0.0640825 -0.0513222 -0.0700974 -0.00554741 -0.0345304 0.0565993 -0.0140874 -0.00611038 
0.0834346 0.0292516 0.0253734 0.101757 0.0219485 0.0340802 -0.148675 -0.315666 -0.0561505 -0.0765885 -0.053987 0.132047 0.0559484 -0.0049566 0.377846 0.113503 -0.0828718 0.292901 -0.374545 0.0155446 -0.0468475 0.0198504 -0.0553685 -0.154822 -0.0537232 -0.0384415 -0.107754 -0.0080063 -0.15628 0.219829 -0.0812909 0.116226 
-0.0372762 -0.0194951 -0.0198547 -0.0897315 -0.0945121 -0.0305135 -0.0491336 -0.0366247 -0.00413143 -0.0441385 -0.0123761 0.0323674 0.00369829 -0.00428798 0.129481 -0.0812722 0.0256547 0.0382906 -0.0550598 0.00483955 0.00948576 -0.0344208 -0.040344 -0.0262807 -0.0468798 0.0621061 0.0192475 -0.0239303 0.0241714 -0.00131043 -0.0779877 -0.0467462 
-0.0969548 -0.0173059 0.0179411 0.0748559 0.0578647 -0.0478788 -0.0518518 -0.110019 -0.0062788 -0.156371 0.062822 0.160162 -0.0594677 -0.0250192 0.176907 0.114082 -0.0203516 0.194521 -0.103766 -0.0165784 -0.0271953 -0.0874756 0.0183798 0.0204869 -0.157445 -0.0982817 -0.0795873 -0.190133 -0.0723667 0.117764 -0.112452 0.130967 
0.0104161 -0.0407587 -0.00636839 0.0388463 0.0485266 -0.0244517 0.0375803 -0.136618 0.000991642 -0.123841 -0.0718559 0.259696 -0.0363424 0.0398791 0.402855 0.00155498 -0.0874812 0.255345 -0.182145 -0.00171543 0.00503946 -0.0741222 -0.0331824 -0.0387036 -0.224346 -0.0615354 -0.172193 -0.105223 -0.230263 0.123187 -0.124901 0.155155 
0.0189578 -0.0263194 0.0073493 0.227222 -0.0263093 -0.0502173 -0.124256 -0.249319 0.052906 -0.0742162 0.0176369 0.0213952 0.0558876 0.0113533 0.455273 0.0609 -0.0529022 0.241408 -0.397485 0.00977469 0.000970543 -0.013962 0.033337 -0.167529 -0.0364303 -0.0100123 -0.128161 -0.017071 -0.066017 0.0819477 -0.0589029 0.118313 
-0.0196862 -0.0128127 -0.00568695 -0.00385733 -0.0259066 -0.0677303 -0.00523611 -0.0857618 -0.0790911 -0.0648084 0.0454694 0.232978 0.0577502 -0.0429536 0.191101 -0.0421816 -0.0538147 0.128711 -0.0471997 -0.0725696 -0.0492977 -0.0078913 0.00830625 0.0699236 -0.0541804 -0.148902 -0.0115351 -0.15719 -0.101779 0.0757737 -0.0952565 0.0266817 
-0.0970928 0.0800859 0.00587926 0.00746732 -0.0251531 -0.0105141 0.0201005 -0.201229 -0.0227132 -0.0727402 -0.00121579 0.35365 -0.0325829 0.0312546 0.180043 -0.0870335 -0.107322 0.215279 -0.141308 0.0409854 -0.053203 0.01439 0.0714729 -0.0916967 -0.155826 -0.0350688 -0.0506324 -0.0852487 -0.16955 0.13951 -0.0831972 0.144885 
-0.0167157 0.0441645 0.0448706 0.0417349 0.0130037 -0.0653077 -0.0500158 -0.301432 0.0562947 -0.0573649 -0.0536123 0.0727639 0.0307087 0.0792292 0.299865 0.0648862 0.0359975 0.203937 -0.228135 0.00806067 -0.0592538 0.00131338 -0.0414701 -0.211046 -0.0292254 0.0500014 -0.00779711 -0.0647573 -0.104835 0.146631 -0.0419807 0.079716 
-0.0619821 -0.0757819 0.0220883 0.0812992 0.04143 -0.0170395 0.0189934 -0.0411527 -0.0933567 -0.0872552 -0.00615231 0.106919 -0.0699231 -0.0455 0.158212 0.00742804 -0.125633 0.210019 -0.0411651 -0.0361218 -0.0750685 0.0903839 -0.104413 -0.0318963 -0.101167 -0.0703075 -0.0213201 -0.058065 -0.0535087 0.113619 -0.103315 0.123323 
-0.0618093 -0.0932563 0.00367286 -0.0414904 -0.0864272 -0.0558215 0.00579816 -0.106619 -0.0444613 -0.0156581 -0.0492356 0.1286 -0.0934098 0.0331997 0.0458819 -0.00851677 -0.0842928 -0.0107938 -0.0768824 0.0462569 0.0268378 0.0560922 0.035601 -0.0892704 -0.0485773 -0.0361181 0.103688 0.0174249 -0.0340434 0.0518551 0.00517834 0.0677537 
