0.313144 -0.108224 0.251455 0.246363 0.256858 -0.286485 -0.195051 0.164537 -0.222664 0.13006 -0.000885042 0.141618 -0.161732 -0.0136922 0.399606 0.319575 0.149074 0.188262 -0.367551 0.0688819 -0.49062 -0.321736 -0.431379 0.278107 -0.350951 -0.129271 -0.386031 -0.448722 0.464276 -0.284505 0.0605773 0.311224 0.14995 -0.207308 0.169699 0.0226887 0.00815834 0.407347 -0.211248 0.224135 0.0233874 0.261503 -0.103116 0.240952 -0.241273 -0.160631 0.249083 0.355827 -0.438797 0.679647 0.0629335 -0.488235 -0.368814 0.188315 0.354139 -0.138087 -0.453336 -0.597416 -0.10736 -0.47601 -0.273254 0.439251 0.363601 0.299114 -0.239886 0.0727216 -0.146271 0.220464 0.0341162 0.142073 0.0666336 -0.440316 -0.0799821 0.272947 0.356808 0.172553 -0.274672 0.271295 0.177421 -0.168485 0.17708 -0.351579 -0.0711416 0.331555 0.524875 -0.186814 -0.301562 0.437945 -0.159351 0.20393 0.332495 0.0977796 0.177206 0.316895 -0.0766952 0.279195 -0.130186 0.537586 0.162116 0.58073 -0.0357352 -0.293752 0.403963 0.307842 -0.401194 0.358517 0.130812 -0.121148 0.0811164 -0.225451 0.232437 -0.231659 -0.0608859 -0.316602 -0.348948 -0.232972 0.079503 -0.0871394 -0.39985 0.509808 -0.401565 -0.394103 -0.00381126 0.219577 0.405267 0.288311 0.196948 -0.108685 0.289648 -0.16857 -0.220612 -0.349091 -0.124845 -0.259108 -0.35672 0.19196 -0.3719 0.282956 -0.3454 0.224612 -0.440091 0.414509 -0.475848 0.0928303 -0.362158 -0.264752 0.278084 0.206849 0.175359 0.425945 0.170228 0.0931777 -0.416201 -0.37994 0.0312401 -0.46679 -0.478285 -0.306984 -0.0158304 0.243927 0.10783 0.218736 -0.457143 -0.358214 0.462797 -0.313178 0.310001 -0.417578 0.318757 -0.470953 0.325862 -0.445205 -0.515003 0.345886 -0.0453683 -0.337436 -0.372218 -0.114418 0.642779 0.192824 -0.144861 0.0875011 0.0955919 -0.0508725 0.156346 -0.397796 0.035188 0.209178 -0.252167 0.40967 0.135859 0.352776 0.272586 0.117627 -0.477434 0.0984248 0.508215 0.315408 0.3296 0.281529 0.328006 0.0399148 0.265286 0.435243 0.126465 0.0798533 -0.320955 0.26844 0.299072 -0.498487 0.132883 -0.248362 0.167449 -0.359543 0.138699 -0.209161 -0.176149 -0.307741 -0.471377 -0.162493 -0.273566 0.206045 0.0490031 0.317523 -0.279501 0.0624178 0.339934 -0.399452 0.00538434 0.0865704 0.403085 -0.0615361 -0.186417 0.295301 -0.0683471 -0.503066 -0.145858 0.11448 0.28056 -0.268097 0.141717 -0.0204437 -0.0206548 -0.211557 0.244284 -0.359579 0.153042 -0.532898 -0.101617 0.214504 0.15522 0.155174 -0.203326 -0.333504 0.125306 0.100933 0.211285 -0.172083 0.210503 -0.306807 0.395128 0.146979 0.23165 -0.30077 0.0623366 -0.465516 -0.260814 0.338065 0.0760679 -0.470099 -0.398777 -0.174123 0.133085 0.119802 0.162125 -0.28015 0.253907 -0.248616 -0.191135 -0.320066 0.569953 -0.525986 0.229618 -0.169649 -0.367081 -0.0846497 0.423107 0.38733 0.22712 0.178371 -0.38833 0.19934 -0.0933937 0.237243 0.29813 0.368228 0.302875 -0.359372 0.264692 0.0241939 -0.24077 0.347771 0.361598 0.34734 0.063109 0.0863879 -0.3834 -0.273088 0.341556 0.0446574 -0.0155105 0.288933 -0.00680983 -0.218522 -0.324447 0.121686 0.201713 -0.370235 0.133919 0.00933389 0.250357 0.197074 -0.326153 -0.290804 0.0373957 -0.438976 -0.362699 -0.142251 -0.216533 0.351535 0.449553 0.150201 0.31405 0.274632 0.0591984 -0.184725 -0.120627 0.0922183 0.0962687 -0.23074 -0.36632 -0.441509 -0.395375 -0.111571 -0.16303 -0.238621 -0.184542 -0.425591 -0.0730892 0.364567 0.148316 -0.244305 0.139962 0.217206 -0.00892557 -0.390232 0.26938 0.115251 -0.020456 -0.296636 0.0472952 -0.0769315 0.214345 -0.120387 -0.272196 -0.224057 0.202492 0.223032 0.443171 -0.205243 0.338879 -0.374436 -0.104175 -0.585033 0.198114 0.444642 -0.242371 -0.394007 0.319095 0.179645 -0.520145 -0.060386 0.350862 0.26299 -0.339698 -0.0360723 0.261333 -0.411566 -0.456615 -0.14184 -0.252696 0.162841 0.267339 -0.38294 -0.463056 -0.450957 -0.0572373 0.270988 -0.1571 -0.0823785 -0.388042 0.0994952 0.0809113 0.0529841 0.0708211 -0.129925 -0.220797 0.273126 0.0310085 -0.395406 0.117346 0.0681338 0.104979 0.0676219 -0.281245 0.293744 -0.435408 -0.428835 0.27112 -0.343308 -0.0153322 -0.283456 0.406579 -0.280965 -0.168665 0.377132 -0.152717 0.285056 0.129105 -0.484826 -0.244536 0.21141 0.136189 0.270517 -0.198484 -0.287762 -0.325987 0.137974 -0.436755 0.155366 0.0449785 0.100501 -0.305985 -0.121955 -0.223164 -0.0785677 -0.274203 -0.153935 0.0402443 -0.415461 0.0720797 -0.58216 -0.151277 -0.112233 -0.215374 0.204622 -0.250998 0.149533 0.122697 0.356666 0.177992 0.381029 0.213409 -0.153662 0.0711641 -0.503393 0.024424 0.288043 0.131709 0.0980629 0.0471036 -0.0918821 -0.140136 0.201888 0.286019 0.169562 -0.418847 -0.483564 -0.451075 0.0306505 -0.32665 0.0507271 0.175542 0.0458429 -0.513852 -0.496012 -0.203301 -0.302234 0.109472 0.501397 -0.359127 -0.197826 0.140085 0.322516 0.173302 -0.213738 0.336935 -0.336311 -0.392417 0.0208528 0.501625 0.146569 0.351359 -0.310833 -0.136772 0.235055 0.308198 0.0678249 0.219354 0.327338 -0.267462 0.392021 0.0932639 0.324822 -0.0187369 0.0775437 0.387278 0.343936 0.244566 0.142086 0.0703469 0.456284 0.340807 -0.211798 0.312768 0.0727355 -0.0462661 0.223156 0.271295 0.276594 -0.266767 0.129633 -0.0183732 -0.375415 0.190651 0.501835 0.281785 0.243699 -0.109552 0.166177 0.159074 0.10196 0.0579147 -0.42255 0.0535607 -0.533947 0.267547 0.102628 0.237347 0.042803 -0.461084 -0.0129291 0.000302485 -0.45086 0.255532 -0.110616 0.0913688 -0.0877064 -0.386118 -0.089335 -0.278254 -0.115884 -0.50725 0.215114 -0.132918 0.26986 0.130199 -0.069643 -0.0166788 0.639765 -0.489568 -0.436115 0.0996275 0.0555783 -0.296461 -0.278778 0.107659 0.323226 0.296131 0.0356638 -0.0750221 0.496812 0.378091 0.356123 0.257086 0.235175 -0.181067 0.104021 -0.324728 -0.0132383 0.292644 -0.0424711 0.597635 0.370518 -0.360755 0.0416314 0.26901 0.0998974 0.379809 -0.258645 0.261806 0.408615 -0.161756 -0.0935364 0.00668661 0.0897163 0.127045 -0.359847 0.016203 -0.175329 0.23739 0.361833 -0.294705 0.126099 0.338504 -0.434516 -0.139875 -0.338066 0.111364 0.0782968 0.241804 0.130103 -0.450289 0.0441468 0.0874332 -0.305821 -0.503749 -0.176901 -0.490287 0.57999 0.109182 0.212879 0.327819 0.517722 -0.339072 -0.0788068 -0.0143809 0.332624 0.155986 0.678032 -0.350294 -0.219975 0.350197 -0.126084 0.327332 0.21594 -0.0169378 -0.236339 0.397431 -0.467101 0.266472 0.177737 -0.0933974 0.370294 -0.334866 -0.252378 -0.404005 -0.365745 0.14472 -0.359491 -0.379952 -0.327692 0.598893 -0.501872 -0.358168 -0.385854 0.00321134 0.102598 0.379693 -0.41223 0.206092 -0.440353 -0.166282 0.0328265 -0.0677802 -0.271227 -0.270351 0.362905 0.0848293 -0.374759 -0.480231 -0.136362 0.151082 0.164605 -0.158796 0.429514 -0.478848 0.0239559 -0.351744 0.139716 0.130119 -0.213718 0.257713 0.10209 -0.174172 -0.460581 0.0965539 -0.0560573 0.165248 -0.157946 0.305644 -0.226664 0.161817 -0.247294 0.231372 -0.342942 0.121398 -0.46332 -0.422139 -0.372107 -0.268244 -0.369756 0.141649 -0.521305 0.348377 0.391287 -0.460246 0.280617 -0.00899256 -0.257309 0.126991 -0.332481 0.062874 -0.0085189 0.276816 0.346258 0.0542093 0.124428 0.243448 -0.290235 -0.273823 0.140222 0.00579984 -0.48681 0.612796 -0.20599 -0.350171 0.0408532 -0.123063 -0.17899 0.181555 0.125749 -0.0621655 -0.310885 0.210185 -0.230377 -0.326332 0.221859 -0.247173 0.154755 -0.547099 0.243497 0.31847 0.0673756 -0.18509 -0.215652 0.036664 0.498616 -0.270982 -0.305646 -0.435031 0.0773184 0.364332 0.115487 0.0731477 0.233392 0.419269 0.158049 -0.163257 -0.179711 -0.473607 -0.462718 -0.513734 0.0209674 -0.223958 0.177162 0.298217 0.0671419 -0.0340967 -0.422563 -0.354619 -0.0159895 0.333692 -0.451109 -0.496407 -0.326731 0.184171 0.0784167 -0.418655 0.437386 0.298622 -0.370959 -0.0478263 0.263098 0.197923 -0.508385 0.0660664 0.345928 0.201214 0.368596 -0.418485 0.493528 0.326881 -0.438732 -0.245121 -0.302884 0.287389 -0.405086 0.269843 -0.258397 -0.369211 0.405038 0.224802 -0.425795 0.427719 0.292687 -0.160328 0.148902 0.042249 -0.0776016 0.0221854 -0.180447 0.137681 -0.416709 -0.431677 -0.132649 -0.3698 0.230517 -0.393619 0.237719 0.0893042 -0.328878 0.150329 0.0623015 -0.213744 0.343268 0.243848 -0.43568 -0.551433 -0.0179167 -0.12403 -0.384543 -0.0627773 -0.347975 -0.196198 -0.0671555 -0.510605 0.106374 -0.441228 -0.0378781 -0.441933 0.251085 0.250027 0.0925443 0.380827 0.346657 -0.450926 -0.469556 0.0996432 -0.369538 0.388685 -0.40536 -0.161311 0.127387 0.169904 0.155112 0.133751 -0.0986247 0.375481 0.069151 0.307157 -0.288226 0.228814 -0.138285 -0.116625 -0.402334 0.20414 -0.165985 0.233398 0.388231 0.231988 0.310471 0.178188 0.151516 0.0572148 0.182489 0.0571354 0.157173 0.184377 -0.475576 0.253141 0.113376 -0.412096 -0.426483 -0.345531 -0.171221 0.283734 0.201839 -0.35407 0.117439 -0.186653 -0.405821 0.303662 -0.410144 -0.0269951 -0.228195 -0.314901 -0.218549 0.14232 0.426192 -0.279773 -0.017636 0.278854 0.402713 -0.416767 -0.203021 0.06334 0.163254 0.321998 -0.271531 0.188749 0.0904681 0.287509 0.303652 0.232326 -0.486278 0.112769 0.109709 0.238227 -0.106148 -0.254758 -0.419612 0.234762 -0.389702 -0.34778 -0.170755 -0.0745532 -0.159287 0.114326 -0.463208 -0.20703 0.340034 0.114937 -0.430791 0.285919 0.383335 -0.128376 -0.164542 -0.15276 -0.249683 0.0960091 -0.502725 0.299186 -0.0987817 0.326499 0.267284 -0.07675 -0.0488408 -0.221863 -0.339784 -0.28597 0.0669853 -0.220794 -0.40205 0.33133 0.0452673 -0.016854 -0.343321 0.324968 -0.374995 -0.237212 -0.367497 -0.51813 0.357809 -0.215167 0.219958 0.164437 0.0645243 -0.331612 -0.513868 0.389438 0.226851 -0.434815 0.234064 -0.298758 0.374065 0.0326709 0.181537 0.0434532 0.257015 0.283938 0.183173 -0.120167 -0.313005 0.317249 -0.379472 0.218354 -0.194168 -0.172913 0.0637626 -0.0399803 0.134478 0.188784 0.0443471 0.08345 -0.513346 -0.253958 -0.308856 0.3197 -0.0755486 -0.280217 -0.141832 -0.324387 -0.15124 0.0534193 -0.0831405 -0.162464 -0.457149 -0.467774 0.239975 0.304542 0.344912 -0.0123554 -0.240124 
-0.238389 -0.172843 0.00420027 0.471164 0.340371 0.307829 -0.144686 -0.491885 -0.0923706 -0.476011 0.117161 0.50903 -0.451679 0.389606 -0.245275 0.442049 -0.129311 -0.0531922 -0.0566729 0.0485797 0.238811 0.51411 0.507988 -0.254279 -0.555443 -0.496136 0.457051 0.410427 -0.353729 -0.102833 -0.375155 -0.199018 0.312045 0.120531 -0.545637 -0.0588647 -0.112379 0.0504975 0.0999361 0.453076 0.0776369 -0.225146 0.369583 0.300485 -0.492198 0.580589 0.034864 -0.0637633 -0.201978 0.887468 0.456783 -0.437197 0.435052 0.558487 -0.217106 0.470347 0.524371 -0.445017 0.381256 0.556668 -0.00372386 -0.377146 -0.217279 -0.100014 0.123003 -0.267071 0.271906 -0.504171 0.265427 -0.152588 0.410829 -0.327604 0.0557495 0.31933 0.607294 0.176079 0.146584 -0.0351463 -0.589315 0.606572 -0.0952439 0.451996 -0.459449 -0.164959 0.35119 -0.225298 -0.348505 0.45565 -0.129909 -0.579181 0.325539 0.440518 -0.597965 0.497005 -0.37456 0.272111 -0.403628 0.749835 0.237986 0.817776 -0.257972 0.0373358 -0.24783 0.449647 -0.298906 -0.302729 -0.0100421 0.438563 0.0642618 -0.0473443 0.475478 0.428644 -0.125269 0.506786 -0.377363 -0.362585 -0.297856 -0.164894 0.467499 0.345073 -0.19349 0.100155 0.0130604 -0.0126565 0.0843266 0.33487 -0.5589 0.160331 0.200644 0.197158 0.00530594 0.41441 -0.611249 0.175086 0.220913 0.0144668 0.295974 -0.240336 -0.25564 -0.114448 0.126042 -0.197555 -0.351293 -0.568239 -0.40685 -0.105568 -0.221155 -0.0720615 0.346585 -0.273152 -0.59173 -0.497057 0.243416 0.0134407 0.0517752 -0.344737 -0.355495 0.0345832 0.433405 0.466153 -0.347879 -0.0409411 0.232835 -0.0389647 -0.299046 -0.0544396 0.605217 0.400077 0.280072 -0.349736 -0.20834 -0.330414 -0.0714697 0.0531937 -0.36137 0.0761996 0.42941 0.00954737 0.596946 0.246519 0.170836 0.690421 0.337253 -0.125023 0.034422 -0.224085 0.21688 0.300452 0.377718 0.125048 0.119595 -0.453662 0.551167 -0.212573 0.0608299 -0.696068 0.337719 0.110839 0.537058 0.00547618 0.445116 -0.579992 0.336538 -0.175165 0.157822 -0.593254 0.340379 0.0322707 0.0964543 0.270105 -0.409783 -0.393094 0.337791 0.446765 0.141366 -0.226744 -0.298945 -0.341406 -0.534358 -0.812201 0.230067 0.146171 -0.346721 0.308924 0.467441 0.321729 0.486879 0.220884 -0.20816 0.178688 -0.212303 -0.451287 0.301179 0.452968 -0.195906 -0.127551 0.414086 -0.403518 0.446319 -0.151055 0.486548 0.519946 0.0754153 0.245148 0.478098 -0.449614 -0.561075 -0.395564 -0.213957 -0.545315 -0.143847 -0.539067 0.141077 -0.0361759 0.25988 0.126643 -0.173568 -0.12798 -0.142756 0.0621359 -0.312642 0.0173277 0.220861 0.368041 -0.200018 0.547725 -0.277531 -0.231373 -0.532031 -0.435374 0.0732182 -0.495145 -0.482639 -0.416258 0.32729 0.521011 -0.180495 0.29268 -0.41458 0.0525624 0.407369 -0.122477 0.162146 -0.0692362 0.425477 -0.211136 -0.351795 -0.255694 0.346116 -0.106849 0.228395 0.390994 0.352591 -0.061863 0.358781 -0.272427 0.00243347 0.455248 -0.105149 0.0412357 -0.532521 0.573051 0.149968 -0.276737 -0.515756 -0.205602 -0.446122 -0.202615 -0.296516 -0.304477 0.430539 0.545545 0.180095 -0.0226877 -0.240789 0.118737 0.39851 -0.15711 0.270156 0.0783868 0.335865 -0.000689201 -0.15706 0.0472363 0.376602 -0.499667 0.21082 -0.315559 -0.56261 -0.549338 0.317387 -0.527142 0.630923 -0.142589 -0.414805 -0.515699 0.146155 -0.294872 -0.165898 0.252782 0.0206332 -0.327113 0.142217 -0.606421 0.262829 -0.567306 0.293556 0.0201116 -0.121238 0.0533221 -0.50697 -0.425867 0.494407 0.00862997 0.219376 0.289131 0.112292 -0.0752289 0.538843 0.0249625 -0.0838794 0.242345 0.189729 -0.112685 -0.563888 0.26997 0.000176953 0.174729 -0.357937 0.330079 -0.0334715 0.0563648 -0.511879 -0.516419 0.347828 0.630488 -0.542617 0.026316 -0.0858176 0.00640476 -0.552666 -0.107891 0.150496 0.534083 0.392854 -0.277471 0.355413 -0.133003 0.13279 0.227586 0.469274 -0.468743 -0.0156341 0.000174225 -0.021265 -0.0661035 -0.265829 0.534396 -0.867309 -0.235881 0.247199 -0.017296 0.542634 0.413666 0.0360432 0.144226 0.0897987 0.109367 -0.382904 0.461035 0.51426 -0.35711 -0.0963369 0.0660724 -0.404001 -0.213501 0.292498 0.429163 0.207519 -0.0747255 0.0939249 0.0375939 0.162178 0.52349 -0.506234 -0.33263 -0.0680079 -0.130326 0.722566 -0.00352761 0.114472 0.314631 0.567616 0.0455658 0.0201719 -0.01329 -0.450089 -0.439301 -0.52075 -0.133141 -0.674598 -0.697519 -0.0315178 -0.115894 0.0537121 0.124316 0.103321 -0.165203 -0.0303654 -0.308521 0.329231 -0.489495 0.28019 -0.177469 -0.510319 0.41538 -0.186511 0.00810478 -0.434183 -0.0843184 0.728599 0.339766 -0.503696 0.553058 -0.387115 0.0659219 -0.000970049 -0.0475752 0.260764 0.0957339 0.187534 0.283034 0.0604828 -0.456763 -0.252381 -0.423528 0.222969 0.241973 -0.0446592 -0.429018 0.507267 -0.366214 -0.183594 0.372935 0.0719878 -0.205642 0.0385299 0.483326 0.479163 0.506382 -0.265839 0.318321 0.0160219 -0.0415434 0.348795 0.201066 0.542932 -0.250223 -0.551672 0.160749 0.407296 0.191057 -0.0424049 -0.153596 0.253802 0.0916241 0.055582 -0.0229167 -0.189975 0.646773 0.179577 -0.18219 -0.333565 0.642604 0.482064 0.358102 -0.13686 0.138725 0.369911 -0.516508 -0.491173 -0.343077 0.507031 0.11847 -0.0143268 0.144414 -0.365513 -0.126015 0.535198 -0.109812 0.428516 0.26958 0.499744 -0.279097 -0.493417 0.500002 0.388128 0.163614 -0.384814 -0.587403 0.219115 0.556879 -0.310742 0.340041 0.420759 -0.396382 0.182612 -0.540002 0.280636 -0.122664 -0.463488 0.361071 -0.00408727 0.517712 0.0216467 0.401322 0.119969 0.314497 -0.434897 -0.0187393 -0.497685 -0.561996 -0.377149 -0.501162 -0.638567 -0.0978652 0.26689 -0.52779 0.466125 0.460921 -0.516426 -0.00112546 0.341364 -0.387081 -0.212575 0.0321949 -0.00949463 0.643032 0.206939 -0.498844 -0.128641 0.477963 0.579111 0.502658 0.250116 -0.0709726 0.208682 -0.365731 -0.392771 0.349976 0.357631 -0.303525 0.40236 0.55874 -0.267971 -0.506115 -0.199166 -0.703381 -0.288193 -0.422568 0.529298 -0.24606 0.16101 0.177275 -0.0610829 0.713849 -0.377399 0.425016 0.482263 0.280945 0.483235 -0.0729581 -0.0711739 0.442706 -0.242648 -0.502489 -0.267541 0.397424 -0.347909 -0.0852658 0.176719 0.470277 0.143878 0.0129837 0.478762 0.450276 0.0619756 -0.511461 0.430356 0.527751 -0.353009 0.422673 0.497634 0.69162 -0.0409842 -0.248211 0.36151 0.254655 -0.395114 0.674417 -0.1145 -0.446276 -0.28652 0.398567 0.65008 -0.165174 0.450935 -0.283793 -0.247705 -0.375728 0.263602 0.36545 -0.71537 -0.107787 -0.249025 0.468124 -0.300192 0.42612 0.518387 -0.385719 0.0838721 -0.383084 0.5811 -0.0620429 -0.575916 -0.0605227 0.274859 0.51549 -0.307736 0.476214 0.192112 -0.0066342 0.60506 0.272687 -0.170693 0.503995 -0.537597 -0.164092 -0.308877 -0.326392 -0.0899147 0.491055 -0.683529 0.119052 -0.32915 -0.0532183 -0.0562097 -0.0465529 -0.29237 -0.00559116 0.177574 0.366896 0.233261 0.147765 -0.228002 0.101117 -0.678783 -0.763126 0.00205595 -0.794503 0.601925 -0.46808 0.212193 0.461691 0.456777 0.550541 0.456436 0.465937 -0.312026 -0.403691 -0.491647 0.18495 -0.517785 -0.426962 -0.212753 -0.1209 -0.050152 0.343928 0.256949 0.257216 -0.445432 -0.246872 0.0838943 0.227931 0.556725 0.489833 -0.201192 0.506088 0.492016 0.333805 -0.471904 0.500304 0.421562 0.229778 0.609491 0.246633 0.22839 0.23117 0.131196 0.554424 0.356333 0.257817 0.225282 0.363152 0.415905 0.430626 -0.423157 -0.158096 0.0655465 0.548065 -0.56501 0.326161 -0.227012 0.113713 -0.136603 -1.04474 -0.117466 0.336836 -0.505762 -0.245845 0.0170822 -0.404398 -0.283867 -0.0723396 0.565382 0.459674 -0.265208 0.246923 -0.00979158 0.276004 0.112079 -0.344032 -0.0581305 -0.226431 -0.432837 -0.25476 -0.228421 -0.298123 0.0702785 0.273117 -0.447933 0.0772914 0.0564693 -0.335673 -0.416725 0.38695 -0.0627749 0.0793172 0.084936 0.161511 0.446428 -0.423025 0.174993 0.531969 0.11281 0.0306561 0.308736 0.234802 -0.374269 -0.14522 -0.0652654 0.686257 0.137207 0.446918 -0.453894 0.196588 -0.231017 -0.228312 0.544176 0.303876 -0.470925 -0.358819 -0.0821495 0.0383391 -0.0597789 0.0409906 -0.11937 0.30085 -0.587108 -0.551837 -0.269902 0.365012 -0.441384 0.40566 0.256476 0.213762 -0.150612 0.0902005 -0.155414 0.208118 0.310449 0.383637 -0.0443238 -0.211403 0.245801 0.113889 -0.548685 0.507267 0.325955 0.489051 0.230539 0.453865 -0.55513 -0.522592 -0.00991845 -0.191342 0.033378 0.641194 -0.508822 0.0620516 0.509433 -0.180869 -0.0419321 -0.657194 -0.28507 -0.22853 0.26901 0.00313346 0.207803 -0.385487 -0.29409 -0.058584 0.578373 0.050546 0.343818 0.305157 -0.552186 0.358872 0.263483 0.552117 0.421025 -0.213848 0.449069 0.289378 -0.0529271 -0.298539 -0.51877 0.59834 -0.200951 -0.231695 0.163596 -0.25286 -0.0543397 0.526079 -0.311722 0.124859 -0.438491 -0.564995 -0.5302 0.311994 -0.227564 -0.392484 -0.303754 -0.368986 0.18305 -0.962323 0.52263 0.28992 0.422061 0.122295 0.115881 0.0939665 0.621815 -0.0687538 -0.14315 -0.103043 0.308802 -0.0432186 -0.0448414 -0.367735 0.118659 0.487132 -0.236952 -0.350656 0.492275 -0.0730157 0.127993 -0.510404 0.0139329 0.147907 0.528672 0.184913 0.439249 -0.260667 0.373356 -0.0119482 -0.378301 0.227445 -0.188165 -0.837609 -0.30667 0.355022 0.283689 -0.338524 -0.258407 -0.52839 0.105526 -0.501936 0.0385048 0.546223 -0.489426 -0.291644 0.507126 -0.320542 -0.268334 0.660455 0.180751 0.262901 0.555241 -0.447583 -0.0648087 0.35277 0.373919 -0.309209 0.649707 0.106076 0.273927 -0.362383 -0.356205 0.5101 -0.300494 -0.0361835 0.355376 0.472561 0.230314 -0.484621 0.459386 -0.284922 -0.246873 -0.12527 -0.289777 -0.273155 -0.00576679 -0.243466 -0.00458382 0.30044 -0.48991 -0.450581 -0.0838526 -0.507002 -0.106035 0.447572 0.407011 -0.596234 -0.519793 0.560503 0.108318 0.367838 -0.530261 0.384757 0.388914 -0.197054 -0.313671 0.0566329 -0.207256 0.441741 0.219542 -0.440214 -0.432722 0.374172 0.0272003 -0.102505 -0.437317 -0.557696 0.118388 0.0761955 0.271816 0.135802 0.492931 -0.393517 0.201109 -0.826288 0.522058 0.0708259 -0.433415 -0.539676 -0.0767687 0.214723 0.319286 0.0703901 0.0696305 0.157806 0.344165 0.266856 
