-0.0528099 0.0308999 -0.0134558 -0.00846037 
-0.118393 -0.0709959 -0.000788525 0.00401753 
0.0231371 0.0086752 0.0250795 0.0329689 
-0.108667 0.00940623 0.0191463 -0.0767007 
-0.00579789 -0.0437276 0.0380167 -0.0271785 
0.140453 0.0670972 0.0323973 0.067564 
0.00315577 -0.0426568 0.000707416 -0.0424105 
-0.0225386 -0.0102542 0.0173232 0.00643209 
-0.0981106 -0.0701637 -0.04667 -0.0475664 
-0.0581086 0.0229323 -0.0131455 0.013765 
-0.00720984 -0.0273838 0.0100124 0.00610738 
-0.033066 -0.0012362 0.00803604 0.00542563 
-0.00213423 0.00143145 0.0226144 -0.0274968 
-0.0228823 -0.0119985 0.0288517 0.0244645 
-0.0172372 -0.0170726 0.0245082 0.0326527 
0.00479206 -0.0054182 0.00374575 -0.0312209 
0.0141388 0.0272079 0.0183261 0.0270726 
0.0751637 -0.0132727 0.0184894 -0.00866187 
-0.0254014 -0.0284978 0.0131134 -0.0114118 
0.0121135 -0.0227683 0.0416777 -0.0298944 
0.00565229 0.0133907 -0.0120049 -0.0499164 
-0.125071 -0.06084 0.0102076 -0.0443949 
0.0841959 0.0401422 0.00561725 0.0246839 
-0.148634 -0.00280833 -0.00777036 -0.0271333 
0.0226488 -0.0152771 0.00906346 -0.00301729 
0.0112038 -0.020431 0.00958291 0.0261466 
-0.0529898 -0.038759 -0.0416686 -0.0548815 
-0.0612763 -0.058489 -0.0266577 -0.0448653 
0.131445 0.0589256 0.00513258 0.0876747 
0.0743321 -0.0136731 0.000227922 0.0166526 
0.0243831 0.0289912 0.0313604 0.0366676 
0.0273694 -0.00111529 0.0188943 0.00875892 
0.149351 0.0318809 -0.0148848 0.035541 
0.0993851 0.0547611 0.0602861 0.0866926 
0.124214 0.00298934 -0.0234812 0.0383279 
-0.0778233 -0.0297623 0.0163444 -0.058503 
-0.0324972 -0.0296044 -0.0365451 -0.0394814 
-0.00618744 0.00737758 0.00237168 -0.0296961 
-0.136397 -0.0593108 -0.0646979 -0.0875384 
0.178895 0.0793788 0.0487048 0.0864571 
-0.0976229 0.00763866 0.0284454 -0.0195222 
0.000798931 0.0402423 0.00272543 -0.00501582 
-0.0600154 0.000159589 0.0323492 -0.0242113 
-0.165848 -0.029906 -0.0242277 -0.0903991 
0.0343775 0.00762019 -0.0310762 -0.0240079 
-0.0365108 0.0177615 -0.0173643 -0.00524114 
-0.0765766 -0.0308071 0.00330453 0.0225711 
-0.00961266 -0.000663352 0.0186936 -0.0212313 
-0.160073 -0.0421763 -0.00916407 -0.0420496 
0.0058538 -0.0250017 -0.0300284 0.0140474 
0.066269 -0.020975 -0.0372466 0.0492674 
0.00577402 -0.00639214 0.0361759 0.00644704 
-0.150597 -0.0756265 0.0127061 -0.0835821 
0.147511 0.0180641 0.0284742 0.0938412 
0.0795221 0.00341944 0.047114 0.0405185 
0.00451277 0.00234265 0.0128442 0.0228979 
-0.0874327 -0.0359225 -0.0119725 -0.006594 
0.00430391 0.0120504 -0.0121458 -0.0109438 
0.0596003 0.00501277 -0.0179397 0.0186364 
0.0305176 -0.0255933 -0.033659 0.039026 
-0.0153315 -0.0433214 -0.0388575 -0.0292107 
-0.064007 -0.00166569 -0.0437303 -0.00444621 
0.106897 0.0732142 -0.0128613 0.0257141 
0.00318659 0.0308787 -0.0315909 0.0135852 
-0.1283 -0.0291464 -0.0323496 -0.0268015 
-0.108517 -0.0155882 -0.0515738 0.000556653 
-0.0131964 -0.00747296 0.000388386 0.0503213 
0.0265843 0.0202263 0.0377126 0.0410897 
0.0109039 0.0381317 0.0433094 0.0256949 
-0.0387476 -0.0537184 -0.0132966 -0.0292215 
-0.0375253 0.0121182 0.0243792 0.00570649 
0.107231 0.0790799 -0.00708232 0.062976 
0.00132993 0.00301013 -0.0133466 0.0233541 
-0.0299111 -0.00771178 0.0184727 -0.0190598 
0.0221196 -0.0283733 -0.0206283 -0.0226906 
0.0109785 -0.0381391 -0.0414158 -0.0153653 
-0.037954 -0.039386 -0.0269726 0.0121031 
-0.0533328 0.00312049 -0.045262 -0.0371798 
-0.0482537 0.0152298 0.0175258 0.00658131 
0.0187658 0.0396464 -0.0119228 -0.0240361 
-0.00176745 0.0192506 0.0427482 0.0190683 
-0.0304459 0.0190657 -0.0407345 0.0358637 
0.0302673 -0.0188205 -0.031364 0.0141697 
-0.00522783 -0.0254741 -0.03644 0.000459106 
-0.112735 -0.0556811 -0.0479997 -0.0510998 
0.0717806 -0.0147758 0.0138257 -0.0110348 
0.0407142 -0.0138911 0.0365233 0.01522 
-0.0742969 -0.0407612 0.0254057 -0.000555836 
0.0573859 0.0415602 0.000998294 -0.0236965 
0.00960427 0.00296277 -0.0397553 0.000298163 
0.0858716 -0.00366111 -0.0180819 0.0075335 
-0.02544 -0.02859 0.0194868 0.00524074 
0.0064032 0.0382671 -0.0372575 -0.00183165 
-0.0566516 0.00801397 0.00777602 -0.0469886 
-0.051195 0.00208093 0.0192092 -0.0206886 
0.0680237 0.0265196 -0.0309366 0.0436686 
0.0552995 0.026934 0.0512759 -0.00816884 
-0.122028 -0.0768577 -0.00277641 -0.00119501 
-0.110337 -0.00473453 -0.0402727 -0.0285442 
-0.0342163 -0.0424708 -0.0169779 0.0143832 
0.0794776 0.00486407 -0.0250386 -0.0229834 
-0.065465 0.0144414 -0.0397163 -0.0501376 
0.058741 0.0583572 0.00142314 0.00500191 
-0.0712184 -0.030512 -0.0598955 -0.0752422 
-0.118517 0.0110001 -0.046575 -0.0678956 
0.0374995 0.0236671 -0.0363125 -0.0283886 
-0.0495975 -0.0376662 0.0172555 -0.00672574 
-0.20087 -0.104528 -0.0418875 -0.10546 
-0.0101363 -0.00301785 -0.017518 0.00198955 
-0.00428865 -0.00198536 0.0162393 0.0182686 
-0.026379 -0.0428085 0.026617 0.0172883 
-0.000435482 0.0283951 0.0208726 0.00292364 
0.0240772 0.0331734 0.0158184 0.0244167 
0.162361 0.0805279 -0.0159544 0.0483975 
-0.0344107 0.0315358 -0.0408965 -0.00381333 
-0.0906937 -0.0260254 0.0104087 -0.0190433 
0.0358172 -0.0396912 -0.0321 -0.0246229 
-0.0151636 0.0207253 0.032769 0.0145391 
0.0659282 0.0327541 0.00262087 0.00182866 
0.00165564 -0.0264591 0.0312903 -0.0163881 
-0.0365583 0.00317062 -0.0347846 0.0236527 
-0.0161746 -0.0340099 -0.0375978 -0.00637384 
0.0411468 -0.0344999 0.033971 0.0423351 
-0.0737526 -0.0181754 -0.0129828 -0.0373996 
0.116137 0.0543127 0.0374066 0.018154 
-0.00404062 0.00896637 0.0365044 -0.0194446 
-0.098601 -0.0426874 -0.00545625 -0.00939245 
0.138234 0.04652 -0.00733086 0.0736716 
0.0744035 -0.0112212 -0.000969215 -0.00317794 
-0.0404917 -0.0095892 0.0159295 -0.027722 
-0.0450542 -0.0109544 -0.0279565 -0.0561243 
0.0316859 0.0505688 0.0209867 0.0637841 
0.002972 -0.0106323 -0.034151 0.0419068 
0.0838957 -0.0226945 -0.0172558 0.000224845 
0.0560086 0.0549205 -0.0258855 0.0727569 
-0.125021 -0.0686312 -0.00508687 -0.0696711 
-0.0505826 -0.0539335 -0.000982945 0.00544939 
-0.0556647 -0.040835 -0.0441519 -0.0554052 
0.107249 0.0192442 0.000729545 0.00347767 
-0.00887565 0.0491341 -0.0293361 0.028143 
-0.00852951 -0.0204748 0.0183902 -0.014431 
-0.0238517 0.0363428 0.00554864 0.0148951 
0.0252577 0.0136962 0.0160937 -0.0390075 
0.0311719 -0.0150078 -0.0152302 -0.0186066 
0.00315936 0.040531 -0.0352476 0.0490221 
-0.0234863 -0.0272643 -0.0259336 -0.0289691 
-0.0107266 -0.00050422 -0.0165467 0.0229908 
0.0597312 0.0211806 0.0197143 0.0630535 
0.0209999 -0.0171411 -0.0231701 -0.0423192 
0.0558209 0.0610776 0.0317648 0.0827847 
-0.0144477 -0.0136688 -0.0422365 -0.0228351 
-0.0855577 -0.0524906 -0.0109394 -0.081822 
-0.0569695 0.000383919 -0.0386288 -0.015966 
-0.00923197 -0.0292066 0.00722677 -0.0201076 
0.0348352 -0.0408611 -0.0156088 -0.00287091 
0.0144062 0.0436562 -0.0083668 -0.0140627 
-0.0206043 0.0126417 -0.0175995 -0.000772139 
-0.0689896 -0.068705 -0.0130859 0.00607606 
-0.128761 -0.0431574 -0.0474804 -0.0868913 
0.0419648 0.0306944 -0.0225238 -0.0242669 
-0.0558756 -0.0311339 0.00663125 -0.0399363 
0.0180485 -0.0113849 0.026242 0.0107567 
-0.00692254 -0.0332177 -0.0349811 0.0402007 
-0.199571 -0.063617 -0.0526018 -0.0922219 
-0.0140591 0.00924727 0.0285741 0.0155123 
0.105569 0.0208301 0.0163402 0.0874262 
0.0229657 0.016115 -0.039345 0.0156627 
0.00977312 -0.0120177 0.0346282 0.0450716 
0.0189445 0.00640792 -0.0182139 -0.0062596 
0.0157022 -0.045065 -0.0445975 -0.0219377 
-0.0425917 -0.0375837 -0.0192332 -0.0286059 
0.0137106 0.00425124 0.0064886 0.0256394 
-0.0472515 -0.016401 -0.0131 0.00522592 
0.00169578 0.0280489 0.00351343 -0.0121571 
-0.0103972 0.00323026 -0.0388594 -0.0473375 
0.0361658 0.0404893 0.0439558 0.00929819 
-0.00944296 -0.0233433 -0.043447 -0.00853133 
-0.0109757 -0.0375023 0.02924 0.00776029 
-0.0752451 -0.050245 0.0225807 0.0112671 
0.0175747 -0.00596461 0.0155695 0.0239802 
0.0927256 -0.0130179 0.000267864 0.022977 
0.222825 0.111216 0.0623798 0.0818624 
-0.0470597 0.0170178 -0.0130603 -0.0285222 
0.0317862 -0.00167894 -0.0412701 -0.0107126 
-0.105962 -0.0900608 0.00191755 -0.0923576 
-0.0985045 -0.0112251 0.00754088 -0.0435086 
0.0327426 0.0108488 -0.0243576 0.00394743 
-0.0798538 0.0232101 -0.0250951 0.0105846 
0.037872 0.0135425 -0.0273883 0.0301589 
-0.057091 -0.0672727 -0.02906 -0.0639034 
0.0881355 0.0477199 0.0116946 0.047689 
-0.0194977 0.00595722 -0.0317077 -0.0403603 
-0.00291448 0.0371257 -0.0290402 0.016079 
0.075752 0.0603763 -0.0217461 0.0259416 
0.0958386 0.0259806 0.0613261 0.0461031 
-0.0609281 -0.0352811 -0.0240173 -0.0411361 
0.0766389 0.0196793 -0.027364 0.0223528 
-0.0296935 -0.0167538 0.00740142 -0.0180735 
-0.120207 -0.0653144 -0.0421471 -0.0424968 
0.0723351 0.0103595 0.0147097 0.0145259 
-0.110802 -0.0165891 -0.0496547 -0.0892549 
0.000959277 -0.0269294 -0.00344125 -0.0372725 
-0.0370795 -0.0189232 0.00940728 0.0167219 
-0.0606928 -0.0748546 -0.0425267 -0.0185501 
-0.0386507 -0.0328225 -0.0263563 -0.0533635 
0.0119852 0.0345917 0.0078531 -0.0468807 
-0.0808213 0.0113521 -0.00287416 0.0121573 
-0.093598 -0.0577298 -0.0323894 -0.0234077 
0.132621 0.0300846 0.0244498 0.0501695 
0.0089451 -0.0388338 0.0204045 -0.0210054 
-0.061147 -0.0332492 -0.0415315 -0.0450199 
0.0475991 0.0105626 -0.0268862 -0.0191304 
0.0195109 -0.0113153 -0.0310396 0.000575975 
-0.0412906 0.0126579 -0.000305849 -0.0156809 
0.0299136 -0.0251108 -0.0125931 0.0377335 
-0.0664892 -0.00694928 -0.0172894 -0.0506879 
-0.0173437 0.0526057 0.0236643 0.0277424 
-0.0517565 -0.00955506 0.0394711 0.00650758 
0.21807 0.0468209 0.0767119 0.0726944 
0.0625174 -0.0160034 -0.00304288 0.00772425 
0.115955 0.04719 0.049527 0.0796266 
-0.111521 -0.0480306 -0.0448788 -0.0112298 
-0.011525 0.0021728 0.0134856 0.016237 
-0.145284 -0.0857236 0.0127755 -0.0810575 
-0.0488676 0.00537583 0.0332336 -0.0370197 
-0.0680263 0.0215906 0.0171424 0.0238801 
0.00492642 0.0398411 -0.0136059 0.0324195 
0.0270682 0.00928203 0.0365918 -0.0194631 
-0.038292 0.0219809 -0.0391575 -0.014301 
-0.0331428 -0.0190583 -0.0265011 0.00893176 
0.0233992 0.0286219 -0.0157668 -0.0456166 
0.0364672 -0.0251341 -0.0234625 0.0402283 
0.0054379 -0.0417589 -0.0396073 0.0221284 
0.0903633 0.0480395 0.0313837 -0.0181106 
-0.0594183 -0.0672375 0.00356283 -0.0403142 
-0.0981059 -0.0311034 -0.00198594 -0.0299516 
0.0341975 0.0409769 -0.0271531 0.0214825 
-0.0336503 -0.0148198 -0.0318869 0.038907 
-0.132183 -0.0437806 0.0216238 -0.0849742 
-0.116699 -0.0807066 -0.0647297 -0.0618962 
-0.160001 -0.0915841 -0.0397567 -0.0850521 
0.141733 0.00909599 0.00439874 0.049745 
-0.025972 -0.04005 0.0398794 0.0304726 
-0.0608629 -0.0143056 -0.00790495 -0.0720501 
0.0298959 0.0305847 0.0166637 0.015846 
-0.174679 -0.0304329 -0.0312195 -0.0901745 
-0.000420075 -0.00254385 -0.0175835 0.0452093 
-0.0623017 -0.0446856 -0.0227948 0.000112098 
-0.0594844 0.00017243 -0.0419545 -0.039674 
0.108222 0.0283793 0.0428923 -0.00413374 
0.14171 0.079826 0.0596999 0.0381833 
-0.0482644 -0.0192676 -0.0270906 0.0132904 
-0.117375 -0.000333062 -0.0263063 -0.070228 
0.0101467 0.0254681 -0.015088 0.0284945 
0.0156537 0.0257462 0.0254609 0.0384082 
0.0277422 -0.0371112 -0.0012739 -0.0237188 
