-0.0275644 -0.0663435 -0.0608836 -0.0512821 -0.184944 0.080376 0.000276212 -0.0356675 0.0287843 -0.16658 -0.13831 -0.116893 -0.0405989 -0.0267723 -0.0646626 -0.114468 -0.101136 -0.112584 0.0979243 -0.0452077 0.0298578 0.0962446 0.0982158 -0.155473 0.0928522 -3.53114e-05 0.0487541 0.051273 -0.110079 0.0630641 0.000508334 -0.0533928 -0.0365362 0.0697099 -0.0816966 -0.158138 -0.0855797 -0.122546 0.0691883 -0.119282 -0.0190156 -0.274052 -0.0374711 -0.182427 0.027336 0.0163192 -0.0229827 -0.201909 0.108564 -0.204771 -0.135854 0.0791289 0.0366565 -0.118141 -0.0837633 0.0157513 0.0258232 0.124663 -0.0984773 0.135934 0.0511599 -0.0952437 -0.107284 -0.0901913 0.0349068 -0.135973 0.000478914 -0.118428 0.0271009 -0.118101 -0.147179 0.114842 -0.0573929 -0.00643651 -0.191992 -0.0535893 0.0530604 -0.120443 -0.16411 -0.0101379 -0.132542 0.0163717 -0.0613428 -0.16858 0.00144144 0.0094052 0.0137252 -0.116933 3.60533e-05 -0.156919 -0.212817 -0.0783455 -0.0351276 -0.0754429 -0.000292155 -0.109758 0.0128288 -0.107889 0.00190234 -0.193508 -0.0662461 0.040016 -0.132799 -0.104683 0.0423663 -0.10025 -0.0624096 0.00364761 -0.0730747 0.0314384 0.0116585 0.0450497 0.00171831 0.0752607 0.091602 0.0650567 -0.131804 -0.050101 0.0668169 0.000540699 0.100553 0.103072 -0.0795424 -0.114592 -0.211955 -0.0153351 -0.0710379 -0.0700997 0.00651557 0.038381 6.74874e-05 0.0663236 -0.142366 0.065185 0.0296088 -0.0487688 0.100038 0.0048717 0.0359894 -0.00305983 0.0910722 -0.164578 0.12494 -0.0671931 0.10646 0.0944409 -0.0103042 0.000915936 -0.202519 -0.131367 -0.186452 0.0118567 0.129763 0.11793 -0.0301604 0.0589754 0.108026 0.114078 -0.000140397 -0.0115296 -0.0645373 -0.125253 0.0386333 0.093061 -0.175877 0.0141676 -0.0844192 0.115213 -0.0894291 0.039959 -0.130875 0.0474115 0.0602843 -0.182231 -0.152084 0.0524638 0.100788 -0.0278198 -0.0883321 -0.0917663 -0.0416043 -0.0519071 -0.0967914 -0.104829 -0.0920189 0.0988558 -0.092613 -0.077562 0.000263881 -0.201101 -0.0920388 -0.124422 -0.117829 -0.126725 0.0671673 0.00569655 -0.0261926 -0.113736 -0.0869451 -0.052915 -0.0927727 0.00938243 -0.150001 -0.187821 -0.225266 -0.155745 0.0283549 -0.0807523 -0.0747479 0.132603 -0.0414022 0.0340638 -0.105308 0.0148055 -0.0410793 0.0407896 0.0203452 0.0890299 0.10811 -0.0651697 0.0455638 -0.164696 -0.0931617 -0.244908 0.0679665 0.00158388 -0.0834503 0.0969936 -0.213204 -0.0624333 -0.209855 -0.041403 0.0478621 -0.105844 -0.0521484 0.109857 0.0452179 -0.0750142 0.00602803 0.0759583 -0.142466 -0.0128731 -0.0248503 0.00623894 -0.135174 0.0430284 0.0143282 0.113735 -0.0746388 -0.363633 -0.141305 0.000208725 0.0336331 0.0804919 -0.158191 -0.0780952 -0.0734864 -0.01218 0.0100095 0.0892711 -0.016286 -0.0738598 -0.0698168 0.0602382 -0.117232 0.057933 0.0186923 -0.0448601 -0.183379 0.0377095 0.104752 -0.0476606 -0.134408 -0.128239 -0.0972383 0.0300332 0.00784247 -0.0251279 0.000420156 0.109907 -0.0945634 0.0873245 -0.112832 -0.0219453 0.0700558 -0.0313373 -0.00945444 -0.163118 0.00519653 -0.115077 0.0530984 -0.222898 0.0580044 -0.0659375 -0.143708 -0.0646983 -0.121124 0.0877397 -0.22865 -0.141299 0.0310273 -0.0678544 -0.18314 0.00213202 -0.039537 -0.0912865 0.0284607 0.02012 -0.0134624 -0.0418212 -0.0108846 -0.0582221 -0.102101 0.0675317 0.110691 -0.0748729 -0.224544 0.0917207 -0.046711 -0.0687272 -0.0922807 -0.061311 0.0938829 0.0150508 -0.0912928 0.126504 0.091755 0.0100201 -0.0285653 -0.134622 -0.186532 0.0537469 -0.112662 -0.163711 -0.122432 0.0105851 -0.031714 -0.0655892 -0.132451 0.0723174 0.0878244 0.109518 0.0975598 -0.126746 -0.0581585 0.069734 0.0304614 0.111466 -0.493384 -0.103441 0.00306522 0.061762 -0.0690034 -0.0800253 -0.00635874 0.0316203 0.00257222 0.000655555 -0.142158 0.0914357 -0.0931527 0.0176656 -0.14268 -0.0725241 0.038275 0.0469155 -0.0979053 -0.149522 -9.14478e-05 0.0107437 -0.11192 0.0520563 0.00197319 0.0663408 -0.0553696 -0.0243871 0.0515428 0.11916 -0.0001458 -0.062827 0.143266 -0.0870301 -0.145966 -0.109623 0.0401917 -0.243491 -0.0952523 0.0520862 0.0946362 -0.0161559 0.000406197 -0.189922 -0.0591949 0.100911 0.127537 0.100908 -0.0187435 -0.181546 0.00375644 -0.00181474 0.0963458 -0.174158 -0.104346 -0.0706056 0.00156107 0.0394497 0.0118011 -0.113693 -0.0195824 0.063402 -0.13924 -0.122819 -0.142741 -0.154228 0.0377424 -0.0484893 0.0567018 0.101353 -0.135547 0.117887 -0.0537005 0.0969926 -0.0541157 0.0536868 0.0197056 -0.160924 0.0199794 0.00224106 -0.129639 0.11685 0.0574083 -0.262853 -0.136483 -0.107138 0.0540593 0.0712649 0.0377889 -0.138422 0.0518328 -0.130431 -0.15186 -0.103719 0.089446 -0.000263041 0.0146429 0.0184215 0.0809991 0.0411138 -0.0831791 0.064876 -0.0589696 0.146973 -0.0311689 0.0120792 0.020689 -0.208 0.0127764 -0.176189 -0.0598548 -0.129044 -0.255893 -0.152872 -0.0198534 0.0105898 0.00172469 0.0872989 -0.104715 0.00282595 -0.157929 -0.0898639 -0.112814 -0.0543164 0.0424233 -0.205488 -0.0757925 -0.0668957 0.029599 0.108914 0.11069 -0.0831475 0.0320749 -0.154086 -0.119032 -0.104826 0.0705096 0.0584871 0.0570398 0.0447714 -0.0604254 -1.26555e-05 0.0374712 0.0131308 -0.0382241 -0.0176627 0.00498056 0.0836964 -0.0074634 0.036465 0.103884 -0.0267074 -0.0784164 -0.0446924 -0.07764 0.0259916 -0.0397776 -0.227574 -0.0268703 -0.120293 -0.156747 -0.192393 0.0164897 -0.16107 