{
  "layerType": "Dense",
  "inputShape": 2,
  "outputShape": 1024,
  "weights": [
    [0.351811, -0.304723, 1.16841, 0.793809, 0.578319, 1.2726, 0.152524, 0.0631911, -0.530643, -0.520416, 0.788162, 0.568537, 1.677, 3.19423, 0.981491, 0.0412246, 0.158243, 0.637754, -0.164473, 0.132563, 1.26491, 0.456843, -0.526403, -1.57653, 1.29247, 0.644243, 0.202188, -1.71169, -0.696155, -0.571893, -0.948844, -0.067179, 0.795675, -0.71032, -0.0268506, -1.01813, 0.081339, -1.53432, -1.3393, 0.309372, -0.61105, -0.230648, -0.402052, 0.690035, -0.862788, -1.24658, 0.537844, 1.23139, -0.48574, 0.269908, 2.78919, -0.251367, 0.962669, 0.566749, -0.357513, 1.08294, -0.908524, -0.288543, 1.8713, -1.23713, 0.246187, -1.39299, 0.894323, 0.8187, 0.93434, -0.540748, 0.770472, -0.0591949, 0.682216, 1.40547, -0.102827, -1.04465, 0.588928, -0.866684, 0.684513, 0.528179, 0.333847, -0.508194, -1.36403, 0.663312, -0.330918, 1.33795, 0.69534, 1.30804, -0.996679, 0.682944, -1.90887, 1.42422, -1.44801, -0.3109, 0.502453, -0.142969, 0.621398, 1.06115, -0.961112, 2.86884, -1.79633, -0.94294, -0.49995, -0.0149003, 0.136083, -1.61081, -0.463292, 1.41068, -0.191099, 0.870799, 1.76342, 0.173338, -1.89842, 0.522361, -0.289329, 0.808273, 0.0374167, -0.0021892, 2.84553, -0.229263, 0.112035, 1.32022, 0.248498, -1.1957, -0.372362, -1.1277, -0.580916, -0.497334, 1.41848, 1.05643, -0.754874, -1.72104, -1.19966, 0.92576, -1.34931, -0.204957, 0.426103, 1.18075, 1.21666, -0.924867, 1.59138, 0.361051, -0.675778, -0.942044, 0.815666, -0.978099, -0.770685, 0.714565, -0.532736, 0.517216, -0.336301, -0.142411, -0.578047, 0.490093, -1.6047, 0.240659, 0.16846, -0.244555, 2.48737, 0.841027, 1.39427, -1.05952, 0.290472, -0.992737, 0.659115, 1.19759, 1.54998, 0.598603, -0.355708, -0.411276, 0.708371, -0.384267, 0.610442, 0.646884, -1.75067, -0.736575, -0.120015, 1.38819, 0.252822, -1.03515, 0.649193, 0.218924, 0.00900994, -0.67493, 0.566896, 0.978794, -2.00079, 0.989221, 0.0746189, -1.4566, -0.298521, 0.0159094, -0.62899, 0.823509, 1.09768, 0.464173, 0.895594, 0.174848, 0.857333, 2.07358, 0.187302, -0.636979, 0.129426, 0.938674, 1.33548, 1.10943, 1.3708, 1.39492, 0.0464888, -0.316216, 0.268883, -0.619779, -2.22685, -1.07699, -2.21919, 0.610405, -1.07139, -0.833175, 1.63374, 1.19991, 1.10374, 0.394345, -0.44608, -0.53902, 1.15434, 0.43201, -1.37848, 0.33453, 0.859073, 0.129033, 1.23737, -0.326824, -1.81647, -0.75797, 1.5632, -0.329145, -0.80667, 0.782236, 1.28148, 0.201072, 0.845396, -0.917763, -0.404458, 0.548691, 0.657887, -0.0532782, -0.0873852, 0.908954, 0.67695, 0.752299, 1.03152, 1.44265, -0.96493, -1.24111, -0.381321, -0.141538, 1.43839, -0.967192, -1.12967, 0.219881, 0.840689, 1.04003, 0.677754, 0.41319, 0.82403, -0.619255, 0.746669, 0.898749, 1.47558, 0.0860761, 0.963098, -0.315018, 0.541566, 0.769023, 0.638617, 0.235411, 0.0487898, 0.994802, 0.810214, 2.17703, 1.28203, -0.15969, -0.894081, -0.851339, 1.2599, -1.64323, -1.69591, 0.460161, -0.815797, -0.922469, 0.567458, 0.686786, 0.43293, -1.06687, -0.147956, 1.13059, -0.62648, 0.120488, 1.32049, -0.988067, 0.279677, -0.10031, 0.384886, -0.404833, 0.540247, -0.840846, -1.93422, -1.35757, 0.761708, -1.39808, 0.126097, 0.657679, -0.0956397, 0.0391194, 0.261031, 0.81753, -0.851209, 0.471415, 0.0724671, 0.604849, -0.688083, 0.361834, -1.5878, 0.453608, 1.07454, -0.101995, 0.992551, 0.855612, 0.21219, -0.469083, -0.424527, -0.209721, -0.390797, -0.980435, -0.205312, 1.12096, 0.246717, 0.959015, -1.31929, -1.23866, 1.31029, -0.299887, -0.925656, -0.790714, 1.58422, -0.962078, -1.18369, 0.523742, -0.101289, 1.521, 0.854799, 0.379369, -1.16964, -1.70373, 0.519391, 1.00421, 0.372198, 0.336036, 1.20958, 0.367492, -0.282989, 1.14806, 2.47697, 1.23141, -0.287592, 0.829236, 0.0867371, 0.513909, -0.356195, 0.0210575, -1.24451, 0.120709, -2.07908, 2.16392, -1.89522, -0.171312, -1.56565, -1.01538, -0.0183513, 1.2641, -0.0647278, 0.0819271, -0.500188, 0.158525, 2.44642, 3.21309, 1.32736, 1.47321, -0.252599, 1.34642, 0.559152, 2.61729, 1.02894, 2.76538, 1.42947, 0.928365, 0.468071, -1.21027, 1.65733, 2.20875, -0.0780382, 0.239915, 2.05708, 0.553133, 1.43207, 0.716921, 1.26677, 1.35229, 0.249539, -0.163892, -0.439608, 1.75783, 0.355467, 0.41196, 0.580922, 0.705534, -0.993386, -0.0369732, -0.0485521, -0.0152955, 1.05081, -0.704878, 0.467517, -0.109445, 0.0752784, -0.117723, 1.616, 0.199177, 0.868334, -0.316582, -0.159205, 1.5514, 1.80886, -0.0629698, -1.2935, 0.066547, -1.65897, -0.336166, -2.14356, -0.0227146, -1.03778, -0.516857, 1.10254, 0.435342, 2.14173, 0.135247, -1.21407, -0.281149, 0.650987, 1.3218, 1.38205, 1.06853, 2.09792, -0.726375, 0.527817, -1.0697, 1.80416, 1.07931, -1.84911, 0.358074, 0.219397, -0.0227408, 0.0657008, -0.974333, 0.749484, -0.556273, 0.376008, 0.491272, -0.374353, -0.212155, 1.79675, -0.726498, -0.1686, 0.934158, -0.420949, -0.698464, -0.162903, 0.160487, 0.438094, -0.0554376, 0.8278, 0.609963, -0.882454, 1.76273, -1.36075, -0.815548, 0.197874, -1.24537, -0.662356, -1.22284, -0.434767, 1.44703, 1.11864, -0.108641, -1.53362, -1.00193, -0.937605, -1.33166, 0.235399, -0.527176, 1.28659, 0.17406, 0.965878, -1.5422, 0.705627, -0.0165213, -1.01511, -0.0411357, 0.162629, 0.0625849, -0.00541574, 0.280011, -0.962759, -0.989574, 0.28146, 1.83603, -0.292683, 0.636632, 0.43425, -0.20753, 1.89055, 0.619218, -0.204502, -0.00878199, 0.707836, -0.279715, -0.641209, -0.0584054, 1.34052, 3.09353, 0.999996, -0.313473, -0.698312, -0.888596, -0.895781, 1.00007, -0.523255, -0.819668, 0.132639, 0.575499, -0.0902954, -0.208788, -0.285861, 0.360965, 0.952565, -1.22915, -1.5094, 0.861361, 1.34288, -0.497818, 0.725681, -0.160098, -1.08617, 0.0704069, 0.566326, -1.15743, 0.0958157, 1.13258, -0.513269, -1.22298, -0.850124, 0.246108, -0.4733, 1.39339, -0.427837, -0.495697, 0.61726, -1.24326, -0.116251, -0.564166, 0.060296, -0.905855, 2.34238, 0.917881, 0.144144, 0.592481, 0.64111, 1.64497, 0.578339, 0.312523, -0.636891, -0.44271, 2.21709, 0.879401, -0.0349072, 0.349057, -0.691206, 0.814992, 0.310355, -0.59579, 0.316491, 0.674318, -0.935185, -0.315197, 0.736842, -1.00231, -0.594752, 0.769758, 1.06344, -0.87127, 0.998728, 0.183785, 1.26457, 1.84676, -0.588435, 1.15848, -1.42183, -1.79626, 0.00337742, 0.55066, -0.915513, -1.62188, 1.09365, -0.985897, 1.36731, 0.223669, 0.528287, -0.638194, -0.904712, -0.240286, -2.28655, 0.571817, -1.19255, 0.478673, 0.854699, -0.492701, -0.0963423, 0.265063, -0.630175, -0.427922, 0.245491, -0.0505317, -0.122021, 0.0865867, 0.0258183, -1.09379, 0.358371, 1.16843, -1.10508, -1.84014, -0.155303, 0.116677, -0.685457, 0.18467, 0.821784, 0.980341, -0.805476, 0.420011, -0.412432, 0.213296, 0.345619, -0.615114, 0.147818, 0.770358, 1.09239, -2.35718, -1.89807, 0.253249, 0.191287, -0.603598, -1.06607, 1.14356, 2.02095, 0.523742, -0.270052, 1.84561, -0.731376, -1.32683, -0.169428, 1.10653, -0.175619, 0.426269, 0.00897602, 1.18361, -0.0172362, 0.193762, -1.91618, -0.853321, 0.58321, 1.22387, 0.350252, -0.159931, 0.989521, -1.29765, -0.802261, -0.591608, -1.12926, 1.21252, 0.500941, -1.30261, 0.0978093, -0.530935, -0.617139, -0.808427, -0.898245, -0.363636, -1.05862, 0.342964, 0.465631, -0.900289, 2.19918, -0.13479, 1.02211, 0.2762, 1.86053, 2.65765, 0.696467, 0.334865, -0.167511, -0.78976, 0.451802, 0.823631, -0.993888, -0.256044, -1.17032, -1.15105, -0.96678, -1.22711, 0.177315, -0.973776, 0.709437, -0.666957, 2.23735, -0.355987, 1.26868, -1.49461, -0.178544, 2.2252, -1.02247, 0.610701, -1.47954, -0.425599, 0.482545, 0.0680753, 0.191683, 0.652276, -0.979718, -0.665086, 2.03969, 0.00634497, 0.348189, -1.10143, -2.12507, -0.287196, -0.271526, -0.436456, 0.68643, -2.78774, 0.570359, -0.588979, 0.0427492, -0.518646, 1.02964, 0.412228, -0.183245, 0.985428, 0.278706, 0.122633, -1.19554, 0.189966, -0.336211, 0.36092, 2.0508, -0.822931, -1.87502, 1.59457, 0.3, -0.423937, -0.712191, -1.2118, 1.58326, -0.228026, -1.08648, -0.497018, 0.152012, 0.0045148, -1.01701, 0.535356, -1.01258, 1.83424, 0.34429, 0.70157, -1.63536, -0.0864758, 1.10743, -0.27664, 0.204257, 2.33164, 1.61821, 0.520411, 0.881139, -0.15274, -0.649668, 0.872906, -0.104198, -1.0038, 0.340215, 0.508041, -0.175148, -0.375233, -0.230898, 0.194172, -0.222275, 0.63092, 0.356694, -1.05853, 1.2995, 0.641658, -0.0136818, 1.87437, -1.86503, 0.381803, 0.1718, 1.29086, 1.66726, -0.47875, -0.221391, -1.11034, -0.0962344, 0.103655, -0.989477, 0.000939261, 0.532351, 0.227652, 0.597403, -0.159203, 0.844086, -0.579648, 0.394812, -0.135954, -2.00537, 0.742359, 1.03495, -1.34292, -1.23057, -0.182116, 0.930314, 1.10029, -0.743326, 0.934645, -1.77824, 0.881665, 0.649456, -0.00924317, 0.541622, 0.157839, -2.24565, -1.3117, -0.320168, -0.216878, -0.95839, 0.540446, 0.366678, 1.1411, 0.215294, -0.508951, 1.34103, 2.37673, -2.3901, -0.262841, -0.900594, -2.39359, -0.360142, 1.59764, 0.851651, -1.78064, 0.471919, 0.633541, 0.816893, 0.615532, -0.29023, 0.475746, 0.772467, -0.615386, -0.996191, 0.393331, -1.10914, -0.350267, 0.617731, -0.833051, 0.579507, -0.710938, 0.8388, -0.235747, 0.567598, 0.0852353, 0.440977, 0.34108, 0.20034, -0.501717, 1.50266, 1.48866, 0.669857, -0.238259, 0.862369, 0.17378, -0.954654, -0.258195, -1.17085, -0.371166, 0.273823, -0.68454, 0.103994, 0.376442, 0.225194, -0.0271802, -1.70721, 0.241642, -1.5007, 0.0378894, 0.769225, 1.28811, 0.986115, 0.986726, 0.17581, 0.0182646, 2.65144, 1.05363, -1.3807, 1.48043, 1.26341, 1.41859, 0.752872, -0.00375608, 0.817082, 0.262, 0.0875911, 0.13189, -0.202526, 0.690334, 0.0826356, 0.841007, 0.4759, -2.35121, -0.514316, -1.8407, 1.43577, 0.026755, -1.23306, 0.430423, 1.59728, -0.384585, -0.0623681, -0.734525, 0.222617, -1.20187, 0.843017, 0.887495, 0.769436, -0.468583, -1.4909, 0.995619, -1.09426, 0.762195, 0.170582, -0.381602, 0.982417, 2.52308, -0.997401, 0.783746, -0.197155, -0.588986, 0.60382, 0.396132, -0.538447, 1.19671, -1.10312, -0.606332, -0.549635, 0.0340481, 0.312013, -0.755751, -1.3366, 1.01998, -1.01494, 0.66992, -1.84116, 0.898876, -0.483283, 0.752732, 0.541006, 1.846, 0.947599, 1.25603, 1.41258, -1.43835, -0.155257, -2.69584, 0.700887, 1.36901, 0.57724, -0.143, -0.289876, 0.28465, 1.02214, 1.36166, -0.932833, -0.282681, 0.402075, 0.133438, 0.344237, -0.549697, -2.17059, -1.54934, 0.810808, -0.507562, 0.894887, -0.407231, 1.32135, -0.334786, 0.788708, -2.02599, -0.125691, 0.780663, -1.44402, 0.202739, -0.649028, 1.67167, 0.109896, -0.597224, 0.636399, -0.8411, 0.91616, 0.397384, 0.562734, -0.892867, -0.309462, -0.976401],
    [0.149511, 0.0426879, -0.749039, -0.121687, 0.737162, 0.611664, -1.42777, -0.898575, -1.87454, -0.389622, 1.50663, 2.19637, 0.630294, 0.188703, -0.959683, 0.48574, 0.702301, -1.1795, -0.673054, 0.290404, -1.35908, -0.5815, 1.45163, -0.360163, -0.816723, 1.77174, 0.122525, 0.0382326, 0.0693059, 0.207019, 0.0449253, -0.153225, -1.33032, -0.866837, -0.943599, 0.227055, 0.432743, -1.31753, 0.375315, 0.0288729, 1.75085, 2.24316, -0.477668, -0.701311, -0.275919, -0.768364, 3.52622, 1.1248, 1.24726, -0.451764, 0.214168, -0.374676, -1.37115, 1.02196, 0.318272, 0.693389, 0.763884, 1.16913, -0.236344, 0.543146, -1.40641, 0.866552, 0.146616, -1.72156, -1.72337, 2.72332, -0.247521, 0.270257, -0.514271, 1.24236, -0.174535, 0.804483, 0.787977, -1.89428, 1.03611, -0.843233, 2.09576, -0.948358, 0.705644, -0.772542, 1.71573, -0.485582, -0.379188, 1.57549, -0.290968, -0.994635, -0.0125371, -0.127481, 0.232911, 1.83761, 0.985959, 1.63391, 0.38955, 0.20281, 0.56382, 0.512674, 0.437999, 1.7125, 0.331226, -0.570443, -0.506519, 0.505351, -0.268613, -0.489129, 0.430921, 2.49818, 0.171212, 0.484447, -1.33288, -0.0249119, -2.06567, 0.0854015, 1.52341, -1.18013, -0.809815, 0.816191, 1.2539, -0.0528327, -1.29518, 2.03705, 0.0593772, -1.12579, -1.68546, 1.11995, 0.29325, -0.259902, -0.856961, 1.10401, 0.0514273, 1.14862, 0.823584, 1.47669, -0.769501, -1.0551, -1.9285, -1.29527, 1.29729, -1.28058, 1.66534, -1.07644, -0.719688, 0.231123, 1.33959, -1.44403, 0.0267796, 0.0286795, -1.38626, -0.188135, -1.60895, 0.685481, 0.286696, -0.540704, -0.807126, 0.559259, 1.3565, 0.529125, -0.841586, -0.771206, -0.708935, -0.0225763, -1.11879, 1.71072, 0.882748, 0.819599, 0.472588, -0.421283, -0.312286, -0.596726, -0.167087, 1.13725, 1.00608, 1.27247, -0.169481, 0.567568, -1.69121, -0.0778143, -0.5879, -0.622109, -1.36666, -0.301478, -0.146936, 0.988955, 1.36419, 0.0481722, -1.17337, -0.0503354, -1.1457, -0.629259, -1.1747, -0.959233, -1.2163, -0.301109, 0.0899156, 1.23186, -0.499944, 0.415473, -0.295501, -0.723226, -1.09838, 1.2351, 1.19241, -1.3757, 1.00007, -1.62592, 1.46515, 0.932593, 1.22433, -1.75983, -0.302955, 0.0996485, 0.686736, 1.60136, 1.47145, -0.751892, -1.43303, -1.46744, -0.813992, -1.07904, -0.325243, -0.13768, -0.673301, 1.80227, 0.462652, 0.758027, -0.820282, -0.494542, -0.179022, -0.42616, -1.21325, -1.9525, -0.387893, -1.71943, 0.172989, -0.0984391, 1.21112, 1.41908, 0.199963, 1.39246, -1.00333, -0.37336, -1.75504, 1.49745, -0.253468, -0.899726, -1.65235, 0.360403, 1.42537, -0.331, -0.427971, -0.701673, 0.549144, 0.909212, -1.61854, 0.814807, -0.203234, -0.787373, 0.189041, 1.21953, -2.01294, -1.72879, -2.30285, 0.14305, -0.23821, -1.95467, -0.982524, 0.62324, 0.809354, 0.639555, -1.23493, -0.310034, 0.712771, -0.745642, -2.96517, -1.19227, -1.26002, -0.0104607, -0.22848, 1.12446, -1.36687, -0.310723, -1.80886, -1.33783, 0.407739, -0.791686, 0.361838, 1.02776, 2.33154, 1.14661, 1.3326, -2.25246, -0.554716, -0.754252, -0.332823, -1.48092, -0.90437, 1.26698, -0.318831, 0.6863, 2.30656, 2.3463, 0.0898228, 1.05673, -1.25279, 1.44475, 0.809429, -0.537035, -0.00600663, 2.05637, 0.244011, 0.42344, -0.366353, -1.66461, 1.2519, 0.759039, -0.0532413, 2.33827, -0.817601, 0.99383, 0.662181, 0.678213, 1.8833, 1.69479, -0.267636, -0.488647, 1.17883, 2.00144, 1.10736, -0.305422, 1.37649, 0.905468, -0.535059, 0.832935, -0.338129, -0.86847, 0.198698, -0.835279, -0.186617, 0.0294089, -0.79476, 1.38748, -0.930213, 0.705294, 1.13444, -0.897379, 0.0734612, -0.67016, 0.294871, 0.0922441, -1.46078, 0.435414, -1.11918, 0.881531, -0.690123, -3.24768, 1.20656, 0.295583, 1.50236, -0.0772905, 0.343587, 0.655995, 1.15255, -0.318337, 0.0281557, -0.88227, 0.129537, 0.713419, 0.438009, 0.501888, 0.128652, -0.0424164, 0.471296, -1.28845, -0.349554, 1.21452, 0.55282, 0.792506, 1.66327, -1.16538, -0.69975, -1.22523, 0.254838, 0.310319, 1.27717, -0.872688, -0.645338, 1.17481, 1.50638, 0.738136, 1.24231, 0.754771, -0.241013, 0.244967, -0.403019, 0.926127, 1.05984, 0.220107, 0.424753, -1.34995, -0.0882771, 1.31887, -0.290013, -1.63706, -1.25288, -1.41512, 0.105328, 0.858996, -1.2909, -0.277103, 0.311303, 0.0438995, 0.983404, 0.59686, -1.35382, 1.51667, -0.19887, -1.73322, -1.39828, -1.499, 1.4148, 0.638234, -0.713546, -1.19028, -0.312461, 1.28317, 0.778642, -1.5401, -0.174269, 1.89405, -2.40701, -0.341658, -1.32862, 0.070001, -0.244169, 0.429077, 1.44238, 0.656507, -0.728175, -0.896641, 0.367429, 0.379163, 0.341656, -1.47801, -0.258822, 0.869021, -1.50305, -1.14823, -1.03082, 0.62615, 0.264639, -1.82606, 1.54479, 1.0788, 2.12806, 0.429574, -2.28349, 0.730795, 0.0920481, -0.606723, -0.225464, 0.476369, 1.04288, 0.701016, -0.0609605, -1.66911, 0.904331, -2.59648, 2.41565, 0.0758364, 1.14007, 2.02592, 0.711645, 0.195828, 0.0418156, 1.38498, 0.237611, -1.40032, 0.497155, 0.96209, -0.53676, 0.718498, -0.383064, -0.419409, -0.530626, 1.94748, 1.55035, -0.0255026, 0.616697, -1.18247, -0.887592, 2.69507, -1.19023, 0.885104, -1.43983, -1.09381, 0.608911, 0.388464, -0.979076, -0.090213, -0.0325636, 0.605393, -1.27184, 0.318552, -1.79897, -1.01314, -0.341712, 0.621304, -1.15812, -0.624233, -1.37153, -1.09435, -0.231475, -1.10251, 0.583383, -0.599762, -1.29462, -0.544647, 0.0674043, 0.920484, 0.790372, 2.30462, 0.946663, 0.421861, 0.653439, -0.991267, -0.723418, 1.11998, -0.524635, -0.0128018, -1.60166, 1.12888, 0.778878, -0.0726065, -0.551796, 0.657423, -0.573001, -2.01591, 1.3626, 1.83019, 0.4735, -0.249982, -1.30552, 0.0333585, -0.672777, -1.28228, 0.837181, 0.0742058, -0.910092, -1.71217, -1.8208, -1.28613, 0.532165, -0.275987, -0.617566, 0.17996, 0.345765, -1.79127, 1.41332, 0.631678, -0.980286, 0.607926, 1.96688, -0.243591, -0.168409, -0.284409, 2.61593, 0.28253, 2.08451, 1.64073, -1.12458, 0.170084, 1.55554, 2.12092, -0.633928, -1.06688, -0.288996, 0.859336, 1.11214, 1.38247, 1.53485, -0.354292, 1.70248, 0.557763, -0.624589, 2.60421, 0.986363, -0.509858, 0.0385847, 1.10431, -0.43809, 0.619114, -2.24692, -1.72553, 0.206288, -1.2599, 0.144878, -0.513413, -0.0639273, 0.912876, -0.784659, 0.139968, -0.869484, 1.15647, -1.22031, 0.475398, -0.557704, 0.586706, -1.68561, 1.63251, 2.34776, 3.03152, -0.0803796, -0.32042, -1.93655, -0.163443, 0.383053, -0.145309, 1.24875, 0.299315, -0.100497, -1.75799, -0.644099, 1.19327, -1.67932, -0.299024, 0.786116, 0.350241, 0.0801234, 0.0724349, -0.71053, -0.847738, -0.136048, -0.830345, 0.863174, 0.625345, 0.10632, -0.484506, 0.272608, 0.652259, 0.229557, 0.109037, -0.453799, 0.572456, -0.206248, 0.851272, 0.283181, -0.694086, -0.571728, -0.618107, -0.45736, -1.7305, -1.03309, -0.424676, 0.355087, -1.04379, -0.523002, 0.836154, 0.564804, 0.815168, 0.405856, 0.362417, -0.855617, 0.193726, -1.57275, -0.0986869, -2.34624, -0.161169, -0.893114, 0.915983, -1.27685, -0.204724, 0.629629, 2.10171, 0.457335, 0.445395, 1.39089, 0.260051, -0.853282, -0.483058, -0.0592598, 1.17282, 0.285935, 0.192478, 1.35477, -0.905329, -0.10633, 1.88007, -0.181259, 0.0020922, 0.724927, 0.308063, 1.3697, 1.56753, 0.918839, 0.712691, 0.79212, -2.02292, -0.4412, -1.04458, -1.23083, 0.0665692, 0.716287, 0.243322, -0.106214, -0.626799, -0.953853, 1.62854, -0.752047, -0.2283, -0.50211, -1.94588, -0.675221, 0.69148, 0.479917, 0.241815, 0.591087, -0.372951, 1.85936, 0.2305, 0.12344, 2.53165, -0.385518, -1.4279, 0.773084, 0.67739, -1.04198, -1.34785, 0.453952, -0.0958735, -0.944477, -0.894794, 0.260055, -0.827387, 1.17109, -0.074272, -0.652666, -0.579072, 0.142879, -0.592423, 0.109432, 0.751234, -0.892198, 0.616116, -1.20507, 0.99744, -0.870053, -0.612865, 0.527993, 1.40969, 0.981697, 0.788338, -0.0333032, -0.287437, 0.864429, -0.786228, -1.07278, 1.34174, 0.0388111, 0.525289, 0.725204, 0.332054, -0.426581, 0.165143, 0.410804, 1.45385, 1.47013, 0.830747, -2.06883, 1.82509, -0.277989, 1.14905, -0.198237, -1.517, 0.0580836, -0.410432, -0.434807, 0.0406358, -0.17764, -0.885619, -0.811928, 0.425563, 1.36448, 1.21961, 0.0450024, 1.67753, -0.0911745, 0.781192, -0.0612139, 0.156923, -0.58411, -0.106983, -1.34333, 0.481055, -0.561301, 0.487906, -0.318457, -0.0233055, -0.503336, -1.26362, 1.45509, 1.54814, 1.5028, -0.876313, 0.0807154, 1.0762, 0.500346, -0.360672, -2.13341, 0.881703, -0.228055, -0.779565, 0.697911, 1.39586, 1.0447, -1.81424, 2.19334, 1.03378, 0.564176, 1.30588, -1.20415, -0.380641, -0.420814, 0.751294, -1.06608, 1.02271, -1.97546, 0.158817, 0.113682, 1.1544, 0.736568, -2.13668, 1.1797, -1.08165, 0.679327, 0.330566, 1.69623, 0.388175, -0.200693, 1.7063, -0.917791, 0.808607, -0.402424, -0.380778, -1.36193, 0.10498, 1.03246, -0.26504, -1.00675, 0.507905, 1.04081, 0.168147, 0.804708, 0.954282, 0.290761, 0.767297, -0.641838, -0.169092, -0.0326695, 0.984203, 0.0686207, 0.626124, 1.48499, -0.915912, -0.0523185, 0.510206, -0.29703, -0.2038, 0.218348, 0.246133, 0.38038, 0.160081, 1.59913, -0.8607, -1.68906, 0.478634, -0.3279, -1.07743, -0.675283, -0.970997, -2.44794, -1.31903, -0.20957, 1.20231, -0.293023, -0.483443, -0.705399, -0.337095, -0.329979, 1.62473, -0.474099, 0.789481, -0.202945, 1.05604, -0.310851, 0.35891, -0.602309, -1.04706, -1.14224, 0.602373, -0.620775, -0.838578, -0.0575745, 0.176035, -0.23812, 0.755633, 1.3204, 2.12259, 0.802773, -0.905233, 0.947484, 0.179983, 0.686634, -0.292325, -1.78779, -0.223943, -1.01624, 0.843461, -1.11001, -0.117689, 0.378433, 0.0545155, 0.438537, 0.181849, 1.48734, 0.520698, 0.621446, -0.538625, -0.0202226, -0.480655, 1.97872, -0.303008, 0.428158, 1.48404, -1.02706, -0.113801, -1.90882, 1.90579, 0.930915, -0.291144, -0.99715, 0.0903186, -2.18622, 0.0759136, 0.849009, 0.368477, 1.91214, 0.438553, 1.03339, 1.9476, -0.780202, 0.365166, 1.05225, 0.605581, 0.352477, -0.607502, -0.563228, 2.03589, 0.640916, 0.823405, -1.36194, 0.356353, -1.36028, 0.986004, -1.26073, -1.24028, -0.283856, -0.747631, 0.736252, -2.27732, 0.164771, 1.26437, 0.905316, 0.883618, -1.49486, 0.0497232, -0.700231, -1.24421, -0.05038, 1.14937, -0.160146, 0.863562, -0.487741, -0.145088, 0.768452, 0.0919952, -0.0499773, 0.224318, 0.295516, 0.164235, -0.332367, -0.181192, 2.0282, 0.945035, -1.28917, 1.67896, -0.466047, 1.32655, -1.07812, 0.429755, -0.965577, 0.783977, 0.435541, 1.27128, -1.37029, 0.958376, 0.92311, 1.24037, 1.88284, -0.208952, 1.24803, 0.49627, 0.40335, 0.705897, -1.00922, 2.05662, -1.38923, 0.286257, 0.700045, 0.793551, 0.3425, -1.52669, -0.887535, -0.738062, -0.262317, 1.69514]
  ],
  "bias": [
    -0.00308933, -0.0305533, -0.00507652, -0.0931734, -0.0209225, -0.104002, 0.0952851, -0.0130392, 0.00212513, 0.00153291, -0.0214865, -0.0157344, -0.0547866, -0.116731, -0.00951113, -0.0330145, 0.0149623, -0.0200571, -0.0728315, -0.0423199, 0.0969922, 0.010836, -0.040952, -0.0365659, -0.0144607, -0.0297256, -0.100946, 0.0644301, 0.0347048, 0.0474554, -0.0556711, -0.0666636, -0.00369813, -0.0475989, 0.148002, -0.0181531, 0.0266933, 0.0531217, -0.0369263, -0.0148952, -0.103791, -0.0164842, 0.0198734, 0.0477333, 0.0758318, 0.127359, -0.0171035, -0.0747704, -0.0758243, -0.0234534, 0.0438634, -0.00565491, -0.0918607, 0.0528191, 0.0131658, 0.00592616, -0.0299955, 0.0486161, 0.157572, -0.0236821, -0.0410359, -0.0230858, -0.0312197, -0.00569074, 0.0441435, 0.0514518, -0.103737, 0.0673281, 0.0945702, 0.0252205, -0.00547421, 0.0173464, 0.0507272, 0.091536, -0.0137202, 0.0357913, -0.0469912, 0.0988928, -0.0105499, 0.0531691, 0.0516906, 0.0688311, -0.0332012, 0.0390802, 0.00408683, 0.0468933, 0.00413845, -0.0476176, 0.0458349, -0.00977667, 0.0198419, -0.0138823, 0.0663695, -0.0569702, -0.0605209, 0.0573931, 0.0659479, 0.0253737, 0.044326, 0.0188425, -0.0733648, -0.00787454, -0.0206951, -0.0533792, 0.0970382, 0.0284466, 0.043729, 0.0183968, 0.017798, 0.0592197, 0.0255186, 0.0698672, -0.000960454, 0.0179876, 0.0645187, 0.0112937, 0.0540415, 0.118536, -0.0200546, 0.00740668, -0.00159386, -0.104666, 0.0823823, -0.0346815, 0.139957, 0.0278986, 0.0322261, -0.0341983, 0.041614, 0.0593304, 0.00710078, 0.00689452, -0.00899466, -0.0891754, 0.0175317, 0.114873, 0.0358207, 0.0132917, -0.036421, -0.15101, -0.0720804, -0.0165397, -0.0810813, 0.0897344, 0.065253, 0.00430874, -0.0152775, 0.0934598, -0.0668657, -0.0838757, -0.0277934, 0.0172898, 0.047665, 0.0498686, 0.0576356, -0.0195055, 0.0931945, -0.112553, -0.103728, -0.0181714, -0.0299021, 0.00568941, 0.0448016, 0.0274532, 0.0211907, -0.0958915, 0.0664095, -0.0642871, -0.0526239, 0.0890501, 0.0761091, -0.0553644, -0.011838, 0.120771, -0.0407394, 0.0135825, -0.0122976, -0.110079, 0.0714986, 0.0745692, 0.0256839, 0.0313522, -0.0229407, 0.110706, 0.0151266, -0.0811828, -0.00276786, -0.0202525, 0.00399837, 0.0604819, -0.0428481, -0.00906584, -0.172589, -0.000827782, -0.00350237, -0.0524539, -0.0390466, -0.113423, -0.0165942, 0.0610113, -0.0357046, 0.0462718, -0.067549, 0.0308333, -0.0555188, -0.0952396, 0.0476224, 0.0476677, -0.0155044, 0.0430541, 0.0085107, 0.0282194, 0.0950909, -0.170429, 0.0188984, -0.0116536, -0.0605839, 0.045518, -0.0603646, -0.110328, 0.0595508, 0.0347658, 0.0955493, -0.0244997, -0.03128, -0.0720002, -0.049917, -0.0187827, 0.0180343, 0.0724912, 0.0320119, -0.103378, -0.023401, 0.0395356, 0.0307084, 0.048906, -0.0431211, 0.0158203, 0.021481, 0.0169975, -0.0116298, 0.0602735, 0.0155168, -0.0114609, -0.0602172, -0.0440213, 0.0255585, 0.025774, 0.0253734, -0.0695697, 0.0721504, 0.0179013, 0.111719, -0.0627744, 0.0202502, 0.0341613, -0.132907, 0.0377206, -0.0371014, -0.0074704, 0.159122, 0.0102476, 0.0696007, -0.0495406, -0.0182574, 0.0533198, -0.0888551, 0.0274466, 0.0906113, 0.0790611, -0.0344874, 0.0134296, -0.0323062, 0.0553443, -0.0884789, -0.0578941, -0.0481913, 0.00230185, 0.0318016, 0.016836, 0.0556121, -0.02623, 0.0238701, 0.0790191, -0.0179907, -0.0303972, -0.0349809, 0.00134968, -0.00835654, 0.0277051, 0.0261909, -0.01388, -0.0133166, -0.0480546, -0.00982909, -0.0417818, 0.0291403, 0.0433067, 0.0480393, -0.0713813, 0.126591, -0.0579737, -0.0063887, -0.0825225, -0.00606112, -0.0322813, 0.010893, -0.0149023, 0.0842733, -0.0552533, 0.00855145, 0.00125765, -0.0327687, -0.0389181, -0.0701182, -0.00344438, -0.109562, 0.0815047, 0.0583759, -0.016133, 0.0162103, -0.044541, -0.0380525, 0.0834768, -0.016552, -0.0543626, 0.0222306, -0.0799017, 0.0237929, -0.037531, 0.14198, -0.0221749, 0.105624, -0.072961, -0.000428958, -0.0259188, -0.0131644, 0.0012711, 0.0910818, 0.0282094, 0.0113068, -0.0654303, 0.0519227, 0.0214283, -0.035891, 0.134366, 0.0977764, -0.138154, 0.0680348, -0.0556249, 0.00380518, 0.0714985, 0.0150676, -0.0198787, 0.075526, 0.13621, -0.0558166, -0.0126371, -0.0485655, 0.0184243, 0.0104883, -0.0536282, 0.0187415, 0.00971337, -0.0349459, -0.00871742, -0.0487916, -0.00897863, -0.0200368, -0.173786, -0.0304953, -0.0338948, -0.117087, -0.00708342, -0.0361117, -0.0547835, 0.0434073, -0.134447, -0.115267, 0.0430029, 0.000219145, -0.00876121, 0.039326, -0.0595249, 0.0133782, -0.0343729, 0.0257159, 0.0253039, -0.0169585, 0.00332534, -0.0132714, 0.0120127, -0.105686, -0.0940093, 0.0451613, -0.0157604, -0.00961574, 0.0595905, -0.120804, -0.0396244, -0.0209632, -0.058635, -0.0502486, 0.0151411, 0.0648436, -0.00545954, -0.00349702, 0.0569197, 0.0276379, -0.0877177, 0.0268418, 0.0255444, -0.0280059, 0.0500301, -0.012855, 0.0546475, 0.0289878, -0.0587343, 0.011844, -0.0428902, -0.00539096, 0.0238529, 0.0675113, 0.0371736, 0.0054052, 0.20356, 0.00061537, 0.0300339, -0.0074975, 0.0367961, 0.063812, 0.00880745, 0.0363074, -0.00134282, 0.0382384, 0.0129743, 0.109501, -0.119181, -0.131231, -0.0419758, 0.0433493, 0.00817048, 0.0181429, -0.00223969, -0.0554185, 0.0732406, -0.00881824, -0.0208786, -0.0577576, -0.0866323, -0.00573939, 0.0463334, -0.0634786, -0.0202272, 0.156549, 0.0271194, 0.0159285, 0.026317, -0.0563375, 0.0403902, 0.0342176, 0.0797329, -0.0423825, 0.12999, 0.0357463, -0.0110701, -0.0355285, -0.0185599, 0.0747895, 0.0645116, -0.0356297, -0.0477579, -0.0595218, 0.0218233, -0.0195667, -0.00951597, -0.0327943, -0.00253667, 0.0407828, -0.114793, 0.0453695, -0.0629053, -0.0684691, 0.0277448, -0.0837929, -0.00184578, -0.0161199, 0.0115963, 0.116839, -0.000378855, 0.0473629, -0.00486452, 0.0106846, 0.0703792, 0.0114558, 0.0101797, -0.0760785, -0.0219912, -0.124057, -0.0563821, 0.0472602, -0.0385186, -0.0323911, 0.117715, 0.0314251, 0.0546464, -0.0901209, 0.0759631, -0.0945824, 0.115964, -0.0578997, -0.0322859, 0.0146121, 0.0153544, 0.0674535, -0.0976459, 0.135459, -0.026165, 0.0243309, 0.0245288, -9.02572e-05, 0.0246729, 0.00656456, -0.0327604, -0.022727, 0.016443, -0.0170558, -0.0454033, 0.0861054, 0.0362584, -0.00602328, 0.0356258, -0.0365296, 0.0325132, -0.0481293, -0.0488056, -0.00260059, 0.0187047, 0.00679097, -0.0499965, 0.0555347, -0.0444234, 0.0223, 0.0936956, -0.0952835, -0.0927167, 0.0540665, 0.108381, -0.014507, -0.0839621, 0.0380825, 0.0593007, 0.0287955, 0.00364621, -0.0772779, -0.064574, 0.0396147, -0.0345327, -0.00924569, -0.00898531, 0.021152, 0.00432045, 0.0438755, 0.0417929, -0.0166287, 0.0665698, -0.0230212, 0.0787153, 0.180707, 0.150102, -0.104867, 0.003258, -0.0545265, -0.0051159, 0.0200448, 0.00884433, -0.0125552, -0.0661215, -0.0368268, 0.0100851, 0.0404371, 0.0108761, -0.0520838, 0.0397023, 0.0182699, -0.0234594, -0.00663649, -0.0136399, 0.0184551, -0.00722294, -0.0703682, 0.00106597, 0.0597094, 0.0214678, -0.0584439, -0.0177892, 0.0309087, -0.0821973, 0.0204043, 0.0787991, -0.0241138, -0.0167459, 0.0587396, -0.03116, 0.0244906, -0.0163723, 0.0795934, -0.0717826, 0.0600531, 0.00441405, 0.0354486, -0.0728471, -0.00543793, -0.0354065, 0.00200037, -0.056972, 0.0612476, 0.0287999, 0.020739, -0.00868819, 0.0249923, 0.0935586, 0.0476834, -0.0519769, -0.0227354, -0.0100588, 0.0884949, -0.0712234, -0.00465807, 0.0022367, 0.124792, 0.0297953, 0.0359925, 0.0632744, -0.0503867, 0.0511878, 0.04613, -0.0388149, 0.0350246, -0.0752502, 0.0869665, -0.028095, -0.0046505, 0.0168383, 0.0669478, -0.00183705, 0.0663352, 0.0104509, 0.0206316, -0.0263554, 0.00821476, 0.0425954, -0.00719285, 0.0341111, -0.005423, 0.0663165, -0.016912, 0.0394609, -0.0038824, -0.0856121, 0.0813591, 0.0276167, -0.113322, -0.0229562, -0.0701104, -0.0546963, 0.106608, -0.0558004, -0.0887177, -0.0223874, -0.00718104, 0.0291361, 0.00694829, -0.00294697, 0.0448187, -0.0950786, 0.037956, -0.020971, 0.00412173, 0.00207964, 0.0537457, 0.0174898, 0.0867907, -0.0300243, -0.00670241, -0.00842971, 0.0134673, -0.0278938, -0.0127164, 0.0045999, 0.0960398, -0.0253677, -0.0714189, -0.0228768, -0.0341853, -0.089896, 0.00161503, 0.0473324, 0.0117789, -0.0737198, 0.0177149, 0.0304388, 0.0720316, -0.00458495, -0.0961793, -0.0685569, 0.0231053, 0.0321705, -0.0308501, 0.000976046, 0.029092, -0.0518324, -0.0261752, -0.0236112, -0.0204752, -0.00609163, 0.0423009, -0.0903106, 0.0155609, -0.0649385, 0.0543462, 0.0354272, -0.0452317, 0.0263712, -0.0446091, -0.00437789, 0.0707114, 0.0284884, 0.0336109, 0.118101, -0.0552556, -0.038337, 0.00894382, 0.0134053, 0.13189, -0.0143116, 0.0138133, 0.019784, -0.0230972, -0.053965, -0.056554, 0.0397985, -0.0536783, 0.00663099, 0.125449, -0.00511259, 0.0497715, 0.0661915, -0.00261163, 0.0497185, 0.00829745, -0.0131583, 0.0165816, -0.0513655, -0.0190122, -0.0787925, 0.0620185, -0.0581557, -0.0340196, 0.0041886, 0.0862235, -0.0575035, -0.00723402, 0.0210814, -0.0232102, -0.018456, -0.0981221, -0.0155104, -0.0176309, 0.0234266, -0.017636, 0.0824465, 0.0428839, -0.0377446, 0.0116913, -0.0226118, -0.0601332, 0.0131171, 0.0216313, -0.0470035, 0.00169769, -0.0183608, 0.0378239, 0.00634117, -0.0778433, -0.0307257, 0.0804299, 0.0384024, 0.00790162, 0.0516939, -0.070546, 0.045267, -0.179703, -0.0269562, -0.087594, 0.0343276, -0.101042, 0.0175705, -0.00311418, -0.0429096, 0.013088, -0.0206189, 0.0328242, -0.0118095, -0.000742895, 0.0854375, -0.076027, -0.02068, 0.0679223, -0.151679, -0.0148584, -0.0836735, 0.0518417, -0.0770639, -0.0123814, -0.023766, -0.0411765, 0.00767622, -0.0399087, 0.0599129, -0.0560285, -0.0168107, -0.0626293, 1.10932e-06, 0.0769942, -0.0692513, -0.0749175, 0.00392376, -0.0418739, -0.0533189, -0.034678, -0.0984295, -0.0408901, 0.0859014, 0.0268202, 0.0219403, 0.0310704, -0.00448388, 0.0271667, -0.0887439, -0.0140255, -0.00670415, -0.0294292, -0.0211354, -0.00545783, -0.144994, 0.0103126, -0.0341983, 0.0124745, -0.107198, -0.0201233, 0.00234217, 0.0775294, 0.101803, 0.0167361, 0.0615411, -0.0329971, 0.00762727, -0.0338628, 0.097945, -0.0238745, 0.0168493, -0.0803763, 0.0196416, 0.0518243, 0.0200558, 0.0578344, -0.00354428, 0.0591449, 0.0396834, 0.111512, -0.00581661, 0.111529, 0.0157539, 0.019336, -0.0369879, -0.0605901, -0.0446715, 0.033904, 0.0402579, -0.0280358, -0.0533496, -0.127112, 0.0767371, -0.0464668, -0.0927886, 0.162714, -0.0695282, -0.00142167, -0.0322741, -0.0563198, 0.0401565, -0.0587489, 0.0725084, -0.00569069, -0.0135387, -0.05524, -0.0415048, -0.0197136, -0.0776439, -0.00520924, 0.00372489, 0.0248157, -0.00386359, 0.0299379, 0.0203186, 0.0265408, 0.0270864, 0.00844618, -0.0421766, 0.0303084, -0.0222604, -0.113881, -0.0310346, 0.0529192, 0.058332, -0.0491765, -0.0889089, -0.0451124, 0.0192702, 0.083717, 0.065925, -0.00554055, -0.00869724, -0.0495958, 0.0296497, -0.0349197, -0.113516, 0.0241411, -0.0248659, 0.0492028, 0.00872181, -0.0298228, -0.0390929, 0.0488442, -0.0104659, -0.0230016, -0.0167439, -0.0284161, 0.024753, 0.0124849, 0.0731124, 0.0493067, 0.0151099, 0.0432715, -0.0462512, -0.0163536, 0.0147307, -0.0383437, 0.0101268, -0.0555404, -0.0417796, 0.0244752, 0.201119, 0.0511586, 0.0699817, -0.029867, -0.102421, -0.0905854, 0.0269078, 0.0304869, 0.0273752, 0.0194201, -0.0654366, -0.0386519, -0.0453724, -0.0136672, 0.0280741, -0.00324437, 0.0141614, 0.125499, 0.036524, -0.0870407, -0.0516033, 0.132726, -0.0687408, 0.120502, 0.0101618, -0.0464333, -0.0452009, 0.0307924, -0.0522114, 0.0315597, -0.0693958, 0.00812122, 0.102937, -0.0400446, -0.0423342, 0.0279824, -0.00690756, -0.0111977, 0.0371594, 0.0521958, 0.0809344, 0.046413, 0.0367298, -0.095793, 0.0480283, -0.0526984, -0.044921, -0.0333696, 0.0364052, 0.00218232, -0.117932, 0.0834188, 0.0182782, -0.00769353, 0.0792143, -0.0258001, -0.115558, 0.057086, -0.0050942, 0.0623875, -0.0189472, 0.0297779, -0.0192601, 0.054376, -0.111628, -0.12965, -0.0607358, 0.0653131, 0.0152947, -0.00230291, -0.0484451
  ]
}
