0.00408214 0.118501 -0.136791 -0.159292 
-0.0150534 0.0893837 -0.0611476 -0.258918 
-0.00910692 0.0809438 0.0375066 0.229507 
0.00695916 0.00276783 0.0643356 -0.154796 
-0.0123821 0.0349724 -0.0398349 0.286061 
-0.000882588 -0.00532342 0.0543365 -0.148657 
-0.0108132 0.0380234 -0.024331 0.0570044 
0.00815079 0.0759372 0.0228548 -0.0934107 
0.0104027 0.0393552 -0.00286785 0.145527 
0.00999651 -0.0273 0.0188377 -0.0454448 
0.0142973 0.00109643 -0.020186 -0.0119637 
-0.0154311 -0.0118514 0.0419465 -0.0700151 
-0.00987109 0.0252995 -0.00320457 0.0816991 
-0.0011618 0.0220714 -0.0251674 -0.0224455 
0.00857382 0.0733285 -0.0247351 0.322726 
0.0100724 0.0624102 -0.0765461 0.240156 
0.00320921 0.0486325 0.0188169 -0.0427162 
0.0102679 0.0375445 0.11012 0.184247 
0.00248365 0.10224 -0.00174307 0.207188 
0.00437257 -0.0045925 0.00427125 -0.0235709 
0.00158237 0.0772668 0.0527292 -0.311112 
0.0149126 0.0714578 0.00324496 0.144173 
0.0120602 0.0747236 0.0313741 -0.166636 
-0.0123846 0.0425663 -0.0790879 0.141645 
-0.011584 0.10001 -0.0148431 0.21832 
0.0144699 0.032086 0.00847249 0.057221 
-0.0108042 0.0627545 0.0251011 -0.21647 
0.00461964 0.105641 0.032854 -0.235085 
-0.0157223 -0.0160378 0.109475 -0.258852 
0.00449767 0.0955345 0.0168573 -0.125395 
0.0054291 0.0186292 -0.0452245 -0.0821733 
-0.000236585 0.129728 -0.121139 -0.139234 
0.00546131 0.0519596 -0.0426775 -0.0519244 
-0.00333468 0.0170492 0.0610046 -0.0925172 
0.00284834 -0.0392587 0.0494903 -0.0968272 
-0.00919404 -0.0204323 -0.00295414 -0.00813666 
-0.011258 0.00973423 -0.0116214 -0.0164107 
0.00290726 0.024813 0.0503321 0.257599 
-0.0101214 0.0518467 -0.0198235 0.135443 
-0.00586529 0.00971615 0.0648939 -0.142559 
-0.00412715 0.0433792 -0.0246495 -0.0823781 
-0.00683836 0.0702428 0.0989455 0.23753 
-0.0101499 0.00845992 -0.0671881 0.0563141 
0.0056503 0.0967787 0.0366294 -0.123119 
-0.00456816 0.0694777 0.00619235 0.127403 
0.012251 0.0306653 -0.035059 -0.0397704 
0.00238595 -0.00809078 0.0765045 -0.154116 
-0.0163927 -0.0213911 0.109191 -0.220521 
-0.01508 0.0611193 0.0355698 -0.255111 
-0.00272572 0.00752551 0.102087 -0.232315 
-0.0100946 0.00648838 -0.0216768 0.0128265 
0.0152602 0.116528 0.023734 -0.254005 
-0.000540137 0.0906789 -0.000412969 -0.180107 
-0.00479492 0.0682477 -0.0835131 -0.117436 
0.0124678 0.0318567 -0.00780428 -0.0952836 
-0.0056878 0.0725324 -0.00234447 -0.0939303 
-0.00278899 0.0662964 0.0495901 -0.255785 
0.0130443 0.0625299 0.0469449 -0.291456 
-0.00863145 -0.00750325 0.00544302 -0.0221023 
-0.0127094 0.107624 0.0407963 -0.248635 
-0.011852 0.0785881 0.0120849 0.164883 
-0.00197688 0.146434 -0.124769 -0.100469 
0.00394333 0.0107311 -0.0104322 -0.108079 
-0.0114042 0.0763595 0.0280139 0.279953 
-0.0133437 0.121703 0.00798639 -0.201996 
0.0112441 0.0130369 -0.027998 -0.04407 
-0.00353139 0.0670988 -0.0406581 -0.255443 
0.0107853 0.0761241 0.0805562 0.224906 
0.00851056 0.050154 -0.0702623 -0.202672 
-0.000748903 0.0830271 -0.0717995 -0.134511 
-0.00872808 0.0123137 0.00120069 -0.0217669 
0.00188694 0.0863985 0.0489046 -0.279079 
-0.00265966 0.0874375 -0.0681216 -0.26034 
-0.00721929 0.167603 -0.158768 -0.168725 
0.0112781 0.145032 -0.137451 -0.0493211 
0.00241172 0.0200067 -0.00161372 -0.0558105 
-0.00516379 0.00725254 0.121356 0.0117188 
-0.0143554 -0.0130622 0.0729691 -0.139657 
-0.00998217 -0.0153322 -0.0282203 -0.0309215 
0.000599836 0.0383498 -0.000499657 0.0748959 
0.0146225 -0.022163 0.0452226 -0.109457 
0.0102371 0.0274247 0.158128 -0.0208341 
-0.00608723 -0.00968593 0.059494 -0.01158 
-0.00292804 0.0361466 -0.038706 0.296432 
-0.00640712 0.0235511 0.0855241 -0.17441 
-0.011479 0.102112 -0.00040854 -0.235868 
0.00437164 0.0395355 -0.0957072 0.12428 
0.0121598 0.0783529 0.0112281 0.330399 
0.0015655 -0.00967604 0.0142005 0.00396312 
0.0136068 0.0173196 -0.0196781 0.120609 
-0.0074541 0.00936652 0.100968 -0.232799 
0.00590114 0.0670858 -0.0781056 -0.240067 
-0.00598053 -0.026428 -0.0070929 -0.0402812 
0.00362347 0.00534164 0.0193519 -0.0955379 
-0.00450808 0.0297285 -0.0108251 -0.00382185 
-0.00480573 0.115739 0.0319923 -0.135809 
0.0120659 0.0607603 -0.0237185 -0.18313 
-0.00168242 0.0609692 0.0215289 0.246458 
0.014029 -0.000654234 -0.0059948 -0.0529823 
0.00442793 0.086603 0.000753613 0.341172 
-0.014367 -0.0161785 -0.0118506 -0.0120035 
-0.0116135 0.063492 0.0109407 0.176542 
-0.0131738 0.103251 0.0504604 -0.145498 
0.0142692 0.106812 0.10072 0.331021 
-0.00831024 0.104913 0.00811407 0.211821 
-0.0118022 0.1215 0.0934582 -0.124111 
-0.0150687 0.0789549 -0.0614692 -0.117491 
0.0116229 -0.017372 -0.00821165 -0.00922541 
0.0010728 -0.0132488 0.0312182 -0.0687318 
-0.00458261 0.0418154 -0.0796841 0.102411 
-0.0161316 0.0585305 0.0307497 0.245323 
0.00979992 0.0173721 0.0349046 -0.129894 
-0.0125646 0.038822 -0.00748713 -0.127004 
-0.00553536 0.0630615 -0.00488346 0.164092 
-0.0124054 0.00138768 0.03778 -0.119889 
0.00294651 0.0636295 0.0103978 0.138464 
0.0108958 0.0367536 -0.0295117 -0.121347 
-0.0121056 0.0769795 -0.0272313 -0.20996 
0.0115572 0.0756873 0.00424466 0.15222 
0.0148201 0.159758 -0.136374 -0.218212 
-0.00166112 0.0753693 0.0376851 -0.226405 
0.00544978 0.10113 -0.00254695 0.180065 
0.0103134 0.0517597 -0.0548399 -0.181595 
0.0124486 0.100953 -0.102614 -0.127426 
-0.00937126 0.0426799 0.0117778 0.370606 
-0.00577048 0.126231 0.0425954 -0.141848 
-0.00707668 -0.00620145 0.0641622 -0.111605 
-0.000584651 0.0309584 -0.00891329 0.079207 
-0.0115088 0.0373054 -0.0116448 0.200908 
-0.00215606 0.0483053 0.00114913 -0.090355 
-0.0146461 0.00717363 0.0633733 0.00053275 
-0.012867 0.0486033 -0.00608745 0.174915 
0.00466855 0.0265616 0.0123991 0.0787323 
-0.00434141 0.0628913 -0.0102667 0.147313 
0.00607205 -0.00285477 0.112869 -0.114043 
0.00886914 0.0474008 0.0455849 0.180205 
-0.014384 0.111877 0.0105504 0.225763 
0.004985 0.0268132 -0.0524185 0.201121 
0.00843105 0.0172807 0.0639678 -0.155702 
0.00634046 0.00347325 0.0534945 -0.12919 
-0.0133152 0.11827 -0.00719577 -0.194932 
0.0145047 0.0128715 0.0994137 -0.232455 
0.00686975 0.0952144 0.0392446 -0.279253 
-0.00536735 0.0188275 0.00387035 -0.0443725 
0.0102274 0.0814896 0.013872 0.191759 
0.00332441 0.0255356 0.0719245 -0.126087 
-0.0146767 0.0646026 0.114548 0.2496 
-0.00746452 0.084937 -0.086441 -0.121514 
-0.00693968 0.0610979 -0.0658196 -0.138577 
-0.0133856 0.093696 0.0685154 0.373575 
0.0129262 0.0516297 -0.0591893 -0.0905645 
0.0102548 0.0868855 0.0530128 -0.0903557 
-0.0148418 0.118231 -0.0157661 0.228382 
-0.0139336 0.0399568 0.0158559 -0.229541 
-0.00647897 -0.00575011 0.00413941 -0.0507529 
0.00653923 0.133351 0.0311685 -0.272182 
-0.000791852 0.120408 -0.00116046 -0.210913 
0.00349414 -0.00501008 0.0609633 -0.121053 
-0.0116844 0.0041254 0.0517953 0.0097693 
0.000149965 0.0780891 0.0480302 -0.0992155 
0.0118854 0.0652939 -0.0698664 -0.143701 
-0.00840711 0.0756481 -0.0962837 -0.0714914 
-0.000605918 0.0831426 -0.009578 -0.237334 
0.0120736 -0.00553632 0.045819 -0.182268 
0.00790411 0.0716995 0.0591975 0.377783 
0.00882515 0.0138289 0.0817791 -0.0821666 
-0.0139918 0.0647164 0.0213457 0.311538 
-0.0117099 0.0722683 -0.0513211 0.16089 
-0.00492867 0.0099355 0.0691487 0.25471 
0.00142943 -0.0140867 0.0650788 -0.235853 
0.0133727 0.0416508 0.0170816 0.291819 
-0.00539103 0.152585 -0.00744489 -0.165436 
0.0150171 0.00646016 0.107701 -0.178582 
-0.000325498 0.095022 0.0450188 -0.138446 
-0.0115919 -0.0194013 0.0280456 -0.0724408 
-0.0126366 0.0709173 -0.0146567 0.201255 
0.00564705 0.0177821 0.0206823 -0.200416 
-0.00635517 -0.0172584 -0.00116126 0.0087188 
-0.000520408 0.0924791 0.0213677 0.338721 
-0.0151463 -0.0113699 0.0901226 -0.170487 
-0.000351045 0.0308172 0.0174467 -0.105153 
0.0110567 0.0645789 -0.0779314 -0.242587 
-0.0141524 0.0209644 -0.0462167 -0.071293 
-0.010985 0.000884964 0.0503617 0.00304881 
0.0101486 0.0099988 0.0414584 -0.103388 
0.0121188 0.100276 0.0129575 -0.240161 
0.0134757 0.0713888 -0.0906631 -0.203882 
0.00913022 0.0800377 -0.109837 -0.125544 
0.00360063 0.0540884 -0.0141781 0.130292 
-0.00730628 0.106091 0.0932054 0.357956 
0.00626252 -0.00437192 0.0237755 -0.0829397 
-0.00567161 0.0110721 0.0143869 0.265991 
0.00724669 -0.00321571 0.0619349 -0.148482 
-0.0103957 0.00518336 0.0266005 -0.0738978 
-0.00970489 0.00379865 0.0483717 -0.271962 
-0.00187509 0.0046643 0.0144613 0.144702 
0.0120911 0.117645 -0.10545 -0.156757 
0.000331855 0.0336397 0.0163229 0.318433 
0.00918603 0.156223 -0.155245 -0.187201 
-0.0140898 0.017882 0.0751401 -0.168531 
0.0024407 0.0719405 -0.00752322 0.393628 
-0.0046503 0.0125781 0.0105643 -0.0688222 
0.0080602 -0.0431176 0.0915063 -0.208483 
-0.0131942 0.198113 -0.18475 -0.270519 
0.000130226 0.0698582 -0.0753411 -0.117798 
0.0122471 0.0106712 -0.0119369 -0.0267102 
0.00619184 0.0867824 0.0141608 0.205076 
-0.00910321 -0.00278853 0.0854086 -0.180756 
0.0103646 -0.0201822 -0.00417625 -0.0975937 
0.00170357 0.0669707 0.0571338 -0.26305 
0.000758762 0.0191825 0.0680655 0.106044 
-0.00689868 0.0708666 -0.00377489 0.167558 
0.00743935 0.0369901 0.0402414 0.107332 
0.000980311 0.0770209 0.00146816 -0.163363 
0.00155347 -0.00411843 0.037684 -0.109876 
-0.00213952 0.0655169 0.00667216 -0.113822 
0.00455611 -0.00169122 0.0480521 -0.0876322 
0.00844863 0.00422891 0.047329 -0.136582 
0.00603456 0.0128888 0.0943967 -0.180815 
-0.0146209 -0.00483496 0.119542 0.00380966 
-0.00353777 0.0584866 0.0139728 0.130532 
0.0083758 0.0689468 -0.074654 -0.104148 
-0.0158168 0.0301744 -0.0572061 -0.12577 
0.00728346 0.0951115 0.0535406 0.372493 
-0.0151441 0.0476866 0.00203127 0.136755 
0.0014894 0.0258319 -0.0549386 -0.12606 
-0.00615192 0.0668998 -0.111103 -0.172008 
0.00245983 0.0331152 0.0210247 -0.211553 
0.00420909 0.00285672 0.0364691 -0.00282256 
-0.00608585 0.0368335 -0.0517892 -0.16135 
-0.00951551 0.0846313 0.0155103 0.363879 
0.00400203 -0.0123568 -0.0131164 -0.00637047 
0.00667137 0.033316 -0.0411588 0.0565315 
-0.0108433 0.110916 -0.104065 -0.10221 
0.00155407 0.00149379 0.00164544 -0.0122303 
0.00804749 0.0759071 0.026808 -0.276054 
0.000699669 -0.00706097 0.134981 -0.00231854 
-0.0134945 -0.0168771 0.0279818 -0.0869402 
-0.0028626 0.0315622 0.0782533 -0.157826 
-0.00369367 0.0566367 0.0372443 -0.170442 
0.0043674 -0.0127903 -0.0136325 -0.0468577 
0.00611088 0.0180077 -0.0051961 -0.0448494 
0.00503231 -0.0131206 -0.007027 -0.00753713 
-0.0111713 0.0404401 0.00040525 0.130579 
0.000902966 -0.00368098 0.058919 -0.123966 
-0.00897088 0.0758397 0.0339695 -0.17899 
0.00222343 -0.00902546 -0.00556018 -0.0310032 
0.0111214 0.0678781 0.0399046 -0.258422 
0.00279222 0.0550028 -0.0162073 -0.139437 
-0.00518911 0.0851355 -0.0988713 -0.190058 
0.0100019 0.0548038 0.0424864 0.150208 
-0.00105663 -0.0129477 0.110635 -0.0277935 
0.0143331 -0.0091378 0.0277276 -0.0890066 
0.00959151 0.0164109 0.0940728 -0.114549 
0.00853198 0.03126 -0.031897 0.0166975 
0.0149056 0.0067361 0.0501901 0.0173835 
0.011356 0.0284959 -0.0371971 0.107739 
-0.0103754 0.0446103 -0.0114876 0.0936744 
-0.00527444 0.0224368 0.000690182 0.172957 
-0.0155239 0.0289227 0.103961 -0.0576712 
0.00710828 0.0833498 0.0363183 0.328016 
-0.0148712 0.0488963 0.0355443 0.158626 
0.000414903 0.00594276 -0.0021382 -0.0435709 
0.00755295 0.0660187 -0.0167454 0.150964 
-0.0116966 0.013249 0.0186109 -0.0438359 
-0.00543296 0.0923466 0.0175058 -0.238965 
0.00968549 0.0415729 -0.0134444 0.15843 
0.0105367 0.018265 0.0248174 -0.108656 
0.00853222 0.0936314 -0.0843942 -0.0890809 
0.0128477 -0.00521248 0.108281 -0.145209 
-0.00238462 0.0979428 0.0302837 -0.242348 
0.00650919 -0.00874978 0.123263 0.0112783 
0.0136587 0.0393404 -0.0442849 -0.0505828 
0.00753637 -0.0270204 0.0465299 -0.0845607 
0.00628622 -0.00588479 0.130392 -0.00179352 
0.00838944 0.0518827 -0.0130129 0.119312 
-0.0125094 0.086822 -0.0843967 -0.129289 
-0.00133466 0.0769764 -0.00724726 0.110376 
-0.0133942 0.108103 -0.0301432 -0.258588 
-0.00259681 0.0545383 0.040966 -0.178885 
-0.000650735 0.103409 0.05092 0.377457 
-0.00941086 0.0488741 0.076574 -0.277911 
-0.0149406 -0.0140687 -0.019657 -0.0766984 
-0.00383041 0.105062 -0.00797643 -0.22211 
0.0151203 0.0802511 0.0288083 -0.18033 
0.00683849 0.00492161 -0.0168474 -0.0129805 
-0.00383573 0.121285 0.0656797 -0.143556 
-0.00887645 0.10293 0.0290036 -0.13491 
0.01509 0.116514 -0.114564 -0.140945 
-0.00254378 0.10288 -0.105382 -0.148258 
-0.0147034 0.112107 0.00595074 -0.225993 
-0.00797385 0.0175139 0.0946985 0.0915933 
-0.00341649 -0.00168401 0.0352682 -0.0720485 
-0.00265883 -0.0209348 0.0772958 -0.154113 
-0.0035683 0.0579696 -0.0260126 0.344302 
0.00711509 0.102389 0.0204643 0.343247 
0.00601645 0.0322785 0.00900577 0.273975 
-0.00825381 0.0652214 0.00373774 0.177064 
0.00460347 0.125714 -0.10288 -0.125639 
0.00251166 0.0166517 0.00790094 0.0543175 
-0.0144703 0.124174 -0.0105279 -0.251283 
0.0104203 0.00234661 0.0280809 0.212075 
0.00108938 0.102711 0.0381837 0.330955 
0.0108777 0.0673416 0.00559 0.303947 
0.00755534 -0.0137102 -0.0205769 0.0133701 
-0.0135266 0.00578499 -0.0164923 0.0618943 
-0.00689162 0.0316673 0.0716726 -0.131011 
0.0014112 0.0217031 0.05562 -0.0933199 
0.00317057 0.0287283 0.078911 -0.19004 
0.0145982 -0.00221765 -0.00159248 -0.0199481 
-0.00370719 0.0277647 0.0077753 -0.0629991 
-0.0160234 0.0704195 0.0340415 0.284733 
0.0121741 0.00230245 -0.0146301 0.0105669 
0.0132451 0.0329127 0.0619629 -0.130738 
0.013304 0.0812471 -0.0241769 0.156028 
-0.0110941 0.0123616 0.0782136 0.103509 
0.0116287 0.047529 0.0748241 0.186184 
0.00101232 0.120408 -0.0165503 0.194831 
0.0049402 -0.00908514 0.0165992 -0.0598701 
-0.0124985 0.0545733 -0.073154 -0.219686 
0.00140176 0.00822088 0.0112229 -0.0878754 
-0.0118021 0.0929619 -0.0942951 -0.183825 
-0.0150989 0.0906568 -0.00575035 0.204326 
0.00728096 0.0734834 0.00949762 0.174135 
0.00796224 -0.00609697 -0.00694964 -0.0388453 
-0.0101864 0.117472 -0.00830741 0.228246 
-0.0138342 0.0721058 0.0355033 -0.228917 
-0.0035715 0.0340124 -0.0207113 0.103484 
-0.0127774 0.0331703 -0.00381015 0.10512 
0.008593 0.101593 0.0326689 -0.138178 
0.0144451 0.088928 0.0991268 0.31184 
-0.00104841 0.0671112 -0.0619296 -0.0891028 
-0.0131738 0.133667 -0.119745 -0.159516 
0.00330789 0.129903 -0.128347 -0.123605 
-0.0110972 0.00557947 0.0127549 -0.00788231 
0.00183236 -0.00749025 0.0221014 -0.0414568 
-0.0100447 0.0344577 0.0514158 0.00633117 
-0.0122081 -0.00490711 0.00621018 -0.0426494 
-0.0147507 0.0562495 -0.0439028 -0.0939236 
0.00647811 0.00787155 0.0415467 -0.116236 
0.0124847 0.100562 -0.0142039 -0.133086 
-0.0139195 0.0424961 0.0439194 -0.260568 
0.0097569 -0.000721736 0.106707 -0.140226 
-0.0121177 -0.00400559 0.0236661 -0.0763044 
-0.00961592 0.0399665 -0.0458681 0.056728 
-0.0127878 0.0463379 0.00361884 -0.143174 
0.0120886 0.00428653 0.0806589 -0.000421724 
-0.00534099 0.110418 0.0120057 -0.258321 
0.00637238 0.00279159 0.0671338 -0.00336083 
0.00498785 0.0856983 0.0186814 0.346239 
-0.013678 0.0249669 0.0183673 0.0473991 
0.0149997 0.104842 0.00497382 -0.135878 
0.00944098 0.0304326 -0.0140426 0.13639 
0.0112302 0.104618 -0.0837723 -0.106362 
-0.0123204 0.0460531 -0.0357783 -0.105909 
-0.0130191 0.103863 0.000961924 0.190886 
-0.0086701 0.10215 0.034157 -0.120617 
-0.0020377 -0.00101318 0.091282 0.00305579 
-0.00691675 -0.0101182 0.00557928 -0.00660147 
-0.00902874 -0.0034265 0.0703326 -0.165623 
0.0139068 0.0267262 0.0253623 0.0597062 
0.00995453 0.0707728 -0.0238905 -0.145852 
0.00434242 0.14119 -0.12786 -0.154 
0.00556008 -0.00982159 0.0715289 0.0271546 
0.000404041 0.0408256 0.0260983 -0.154104 
0.00402953 0.00332921 0.129564 0.00574226 
0.00291673 0.0200169 -0.0501898 0.166563 
-0.00631531 -0.0333413 0.0663499 -0.102573 
0.00052068 0.186552 -0.169518 -0.244669 
0.00839331 0.0261274 -0.0758485 0.0845001 
0.00134575 0.153107 -0.139146 -0.209556 
0.00729686 0.0779872 -0.0512193 0.157076 
0.00852137 0.06174 -0.057418 -0.230368 
-0.00566846 0.144564 -0.0184528 0.263505 
0.00877842 0.0848981 -0.0698175 -0.092912 
-0.0131044 0.0811416 0.0258481 -0.0897262 
-0.00278268 0.00201365 0.0563735 -0.115832 
-0.0133878 0.000137636 0.0744051 -0.144824 
0.0136357 0.135323 -0.124858 -0.168399 
-0.00130925 -0.0123158 0.00726341 -0.0586206 
-0.0139667 0.11197 0.0233251 -0.279115 
0.00978763 0.0310516 -0.0128004 -0.00649738 
-0.00182746 -0.0187752 -0.00161023 -0.120362 
0.00564611 -0.0130124 -0.00669628 -0.0487054 
0.000598662 0.0613901 -0.0123482 0.180385 
-0.000802468 0.0122087 -0.0178705 -0.0324527 
0.00524594 -0.00647779 0.0793315 -0.191132 
-0.0116803 0.00438947 0.055819 -0.222911 
-0.00798801 -0.0140703 0.0822632 -0.206078 
-0.0135494 0.0438263 0.0058409 0.0720934 
0.0143694 0.00981159 0.0242618 -0.0692281 
-0.00110132 -0.00861159 -0.0151939 -0.0332868 
6.23626e-06 -0.0159135 0.00159446 -0.0778855 
0.0148341 0.0301458 0.0958316 -0.126546 
0.0135376 0.127104 0.0128894 0.266378 
0.00599992 0.0283786 0.148945 -0.0748071 
-0.00536986 0.00576919 -0.0214898 -0.0233769 
0.00677997 0.0295628 -0.00515528 0.215194 
-0.0131777 -0.0217732 0.0505005 -0.113683 
-0.00391968 -0.0234084 -0.0213919 0.0457709 
-0.0097703 -0.00828533 0.0759076 -0.194018 
0.0150448 -0.00356904 -0.0159153 -0.0188754 
0.0139059 -0.0128336 0.0424801 -0.0789544 
0.0135402 -0.0116886 0.0115126 -0.0386972 
-0.0121181 0.0250731 0.0424258 0.0912773 
-0.00560431 0.0291666 -0.00581835 0.093937 
0.00569154 0.0725625 0.0196864 -0.130642 
-0.0152582 0.0545244 0.0328174 0.298808 
0.00630511 0.0790482 -0.0530624 -0.166447 
-0.00878925 0.0736007 0.0193324 -0.21554 
0.0136157 -0.000433866 0.0725681 0.0987833 
0.0120298 0.00692468 -0.0256466 -0.0483327 
-0.0139766 -0.0240289 0.0589273 -0.099178 
-0.00119261 0.00352505 0.0106978 -0.0263076 
-0.00596207 0.0644041 -0.0214302 0.177525 
-0.00585079 0.0929926 -0.111684 -0.153589 
-0.0147307 0.131149 0.0208886 -0.264465 
-0.00895822 0.00488993 0.0560648 -0.226082 
0.0143812 -0.0116811 0.0829673 -0.208803 
0.00698108 0.0788736 0.0141886 0.179935 
-0.014654 0.0496642 -0.0425011 -0.108623 
-0.0116034 0.0714977 0.0374791 -0.157002 
0.00770449 0.108005 0.0404126 -0.106077 
-0.0145585 0.00138706 -0.0168775 0.0328922 
-0.00512376 0.0418677 -0.040265 0.0587798 
-0.00833687 0.115248 0.0443729 -0.124501 
-0.0137184 0.0142942 0.00963414 0.00732687 
0.0136088 -0.015474 -0.0220436 -0.0813012 
0.00735863 0.0115705 0.0806131 0.134523 
0.0075076 -0.00110064 0.0740668 -0.229136 
-0.0150142 -0.0079546 0.0391109 -0.150126 
-0.00132396 0.0753962 0.0149684 0.230376 
0.00470208 0.0187431 -0.0711594 -0.04365 
-0.00749651 -0.0806692 0.0222991 -0.159016 
0.0111502 0.0424376 -0.0139365 0.119132 
-0.00644649 0.0235074 0.0517495 -0.165184 
-0.000325183 0.00182518 0.106935 -0.114508 
-0.00135019 -0.0118111 0.035116 -0.0629506 
-0.00516055 0.101581 0.00393015 0.237488 
-0.0109625 0.0791862 -0.0868711 -0.14438 
-0.00953849 0.121345 -0.109217 -0.17088 
-0.013271 0.0520757 0.10457 0.195927 
-0.00862465 0.092545 0.0286881 -0.15691 
0.00654322 0.0906129 -0.0555478 -0.271234 
0.0115635 0.0619248 0.000945651 -0.111177 
0.00644091 -0.00908244 0.0202016 -0.0520478 
0.00362653 0.061276 0.00440929 0.170339 
-0.0122325 0.00527674 0.0583612 -0.0517823 
-0.00180982 -0.00831792 0.00181364 -0.00342288 
-0.00633862 0.0173629 0.0859085 -0.135372 
0.00464627 0.0454841 -0.0826443 -0.197617 
0.00824563 0.0406133 0.0591774 -0.27886 
-0.0119512 -0.0127791 0.053248 0.0131567 
-0.00696714 0.0186926 0.093485 0.0114558 
-0.00946081 0.0216321 0.0339512 -0.108808 
-0.0106743 0.0274371 -0.0454784 -0.0483825 
0.00512422 0.0684383 -0.0210846 0.12832 
-0.0116391 0.0332826 0.0125016 0.12798 
0.0100223 0.0165267 0.00750471 0.0450636 
-0.00970803 0.167819 -0.147795 -0.213125 
0.00966126 0.0509866 -0.0809058 -0.0982181 
-0.0150204 -0.00513781 -0.00401571 -0.0738111 
0.00721739 0.0367136 0.0855363 0.17475 
0.0145294 0.0409126 0.00185358 0.112594 
0.00469657 -0.0379172 0.0636175 -0.108002 
-0.0067739 0.147507 0.0144874 -0.265526 
0.00500067 0.0116952 0.00310708 -0.0717009 
0.000748761 0.0267677 0.079841 -0.180703 
-0.00973915 -0.00477871 0.0693667 -0.0189703 
-0.00443311 0.0448595 -0.0791321 -0.143639 
-0.0118814 -0.0145292 -0.0208933 -0.0581374 
-0.00819231 0.00530775 0.0885002 0.00610553 
-0.00844358 0.00662496 0.0884669 -0.0516342 
-0.00225967 0.0111361 0.0222327 0.144307 
-0.0136402 -0.00191715 0.0847464 -0.159268 
-0.00675554 -0.00647515 -0.00934874 -0.0310658 
0.00185261 0.0277337 0.207745 0.0187166 
0.0129438 -0.00346523 0.0526368 -0.254809 
-0.0084736 0.110518 -0.010122 0.254306 
0.00333997 0.0909947 -0.0738558 -0.082682 
-0.00870189 0.00536871 0.0900699 -0.086191 
-0.00396573 0.06418 -0.0569321 -0.127516 
-0.00551452 0.0910301 -0.101724 -0.128194 
0.0146849 -0.0119827 -0.0289014 -0.0171489 
0.00136067 0.0395581 0.0610409 -0.276004 
-0.0151283 0.0271509 0.0627485 -0.286098 
0.00217373 0.0530259 0.0235962 -0.124153 
0.00306312 0.0563974 -0.0179898 0.133007 
-0.0104114 0.0204531 -0.0329761 0.0732294 
-0.00374888 0.12011 -0.145307 -0.15337 
-0.0146471 0.00152666 0.0420049 -0.193219 
-0.00872254 0.0207459 0.0182035 -0.0862351 
-0.00549404 -0.0041417 -0.0209322 -0.0383073 
0.000521773 0.0913962 0.0251281 0.246476 
0.000771523 -0.00202479 0.0768674 -0.0283547 
-0.00153561 0.039708 0.0197372 -0.069564 
0.00644852 0.107669 0.0233427 -0.122765 
0.00643157 0.00935143 0.159135 0.0110217 
-0.00460444 0.0844423 0.019472 -0.170637 
0.00778229 0.0118241 -0.0219467 -0.0697914 
-0.00583033 0.0121666 0.0768803 -0.166623 
-0.00190514 -0.0166499 -0.0183425 -0.0342501 
-0.0027991 0.0495829 -0.0370695 0.314984 
0.00285573 -0.0121835 0.0776744 -0.122461 
-0.000464685 0.011392 -0.0192278 0.0153096 
0.013284 0.071178 -0.0806239 -0.171023 
0.0023232 0.132731 -0.124827 -0.182659 
-0.0151981 -0.0192963 0.0158309 -0.0386471 
0.0119377 0.0367045 0.0982624 0.153006 
0.0140259 0.0501665 -0.0509044 0.265233 
-0.00126339 0.0646036 -0.0130084 0.16458 
-0.00194113 0.0243882 0.0959665 -0.200694 
0.000970419 0.0466694 -0.0483767 -0.0936662 
-0.0103774 0.0352936 -0.00584928 -0.108201 
0.00925874 0.0062892 -0.0456318 0.0266266 
0.0124864 0.0436804 -0.0616769 -0.126768 
-0.00150938 0.136179 -0.143221 -0.102814 
0.00216675 -0.000923179 0.0813678 -0.158638 
0.0106595 0.0330682 0.0265693 0.206388 
0.0150174 0.0354514 -0.0469144 -0.0503022 
-0.00473597 -0.000316197 0.0879668 0.00456368 
1.84179e-06 0.183523 -0.168146 -0.23536 
-0.00243899 3.14526e-05 0.0924387 -0.218779 
-0.0133928 0.0379555 -0.0139028 0.107857 
0.00588331 0.0409344 0.0509893 -0.111527 
0.00651932 0.00560195 0.0227465 -0.0532074 
-0.0150708 -0.00106255 0.0456759 -0.0744143 
0.0137251 0.0083137 0.012865 0.176412 
0.00249791 0.0447705 0.0364068 0.206209 
-0.0058778 -0.0111152 0.071421 -0.166793 
0.005519 0.0182781 0.0402163 -0.0786571 
0.0122623 0.00927616 -0.0280196 -0.0213478 
0.00198078 0.052892 -0.0341902 -0.171326 
-0.0107865 0.00206489 0.1163 -0.132076 
0.00663429 0.121632 -0.139241 -0.160861 
0.0125936 0.0897421 0.144198 0.292554 
-0.00757294 0.149058 -0.145789 -0.190989 
-0.0152062 0.0414909 -0.075965 -0.0840245 
0.00440305 0.0102362 0.0353085 -0.0225361 
0.0098542 0.0855887 -0.0945513 -0.232407 
-0.0140976 0.0164776 -0.0334534 -0.0709037 
-0.00469743 0.00483142 0.0798795 -0.0242713 
-0.00700274 0.00271907 0.00988125 -0.0596276 
-0.00514961 0.0764217 0.0455066 -0.196758 
0.00239101 0.0519258 -0.0784048 -0.184364 
-0.00398272 0.124909 -0.0154043 -0.220115 
-0.0106425 0.0112832 0.0552702 -0.110482 
0.00120294 0.0598587 -0.0628475 -0.162385 
0.00860525 -0.0171647 0.0959922 -0.191625 
0.00409813 0.0198318 -0.0456779 -0.0716877 
0.0103798 0.0917474 -0.121836 0.172844 
0.00748687 0.0108685 0.00550136 -0.034196 
-0.0112808 -0.0162086 0.0128282 -0.00302202 
0.0052677 0.0858065 0.0337143 -0.268254 
-0.0140643 0.00461729 -0.030238 -0.0646661 
0.00996954 0.0126474 -0.0156543 0.0764992 
-0.00496821 -0.0122597 -0.0450128 -0.0335152 
-0.00711 0.0109207 0.00928735 -0.00962839 
0.0152449 -0.00804117 0.0634778 -0.149305 
0.0111507 -0.0099012 0.0331526 0.0225029 
-0.0112156 0.000608737 0.118408 0.00586625 
-0.00538583 -0.0161493 0.0104215 -0.055414 
-0.011317 0.0146204 0.0565097 -0.216824 
0.00887422 -0.00468081 0.144153 -0.0149269 
-0.00645231 0.0231535 -0.0365861 -0.0317116 
-0.00534063 0.0148407 -0.0396321 0.20778 
-0.0133877 0.00182231 0.0155037 -0.0800679 
-0.0129098 -0.0140993 0.0176635 -0.0422106 
-0.0090284 0.063663 -0.065902 -0.168165 
-0.000670816 0.0836846 0.0683032 0.382997 
-0.00851194 0.120156 -0.00984 -0.220339 
-0.00912528 0.0962847 0.0167574 -0.251143 
0.0015939 0.0217079 -0.0245547 -0.0330726 
-0.00516861 0.0519541 -0.054606 -0.0610248 
0.00845472 0.0572656 -0.0161556 0.182104 
0.000780476 0.0691246 -0.0128696 0.141051 
0.00772734 -0.0179286 -0.0102014 -0.0323837 
0.0100511 0.0773174 0.0671318 -0.130379 
-0.00957879 0.0721715 0.0198625 -0.0814988 
0.00711435 -0.00900432 0.0262711 -0.0193636 
0.00168042 0.0660517 -0.0747396 -0.214296 
0.00924651 0.111588 -0.11329 -0.121297 
0.00917638 0.0916279 0.0222875 0.343006 
-0.0160894 0.0859171 0.0420159 0.34532 
0.00457691 0.106053 0.0220178 -0.129273 
0.00354818 0.0691488 0.0380602 0.219729 
-0.00201982 0.0190306 -0.0394688 0.0229599 
0.0151198 -0.00814904 -0.000968511 -0.0460357 
-0.00848516 0.0459983 -0.113195 0.140513 
-0.0115654 0.00873577 0.0288136 0.0224304 
-0.00111831 0.0520508 0.023601 0.345998 
0.00338297 0.0670933 -0.062979 -0.193645 
0.00751582 0.0313745 -0.0418309 0.259352 
-0.0105081 0.0769535 0.0177862 0.364013 
-0.0107215 0.0872174 0.0119431 0.186271 
0.00593474 -0.010253 0.00999491 0.00878209 
0.0130822 -0.00351767 0.0272845 0.172197 
0.0136911 0.0972381 -0.127892 -0.146059 
0.00452949 0.0022956 0.109908 -0.214266 
0.00564198 -0.00600417 0.0508513 -0.114907 
-0.00187495 0.061976 0.0671841 -0.081952 
0.0092 0.0397703 -0.00974508 -0.125104 
0.00195253 -0.00799671 -0.0230925 0.113855 
-0.00474205 0.079035 -0.0473886 -0.224808 
-0.0157076 -0.0282507 0.0173537 -0.0580749 
0.00684246 0.0487243 -0.0686856 -0.189642 
0.00484581 -0.00807262 0.0321989 -0.0608785 
0.000863567 0.0588417 0.0220528 -0.131364 
0.00474285 0.00277118 -0.00734596 -0.027648 
0.00698795 0.0462765 -0.00491687 0.0921227 
-0.01544 0.0100336 0.0865471 0.0217946 
-0.00252613 0.01933 0.106986 -0.219971 
0.0109069 0.00982465 0.0300245 -0.160415 
-0.00459653 0.0533479 -0.0357031 -0.107218 
-0.0108997 0.07813 0.0436081 0.286493 
0.013884 0.0991066 0.00823351 0.224669 
0.0100931 -0.00858657 0.0063764 0.00330652 
-0.00824923 0.0574262 0.0410995 -0.192183 
-0.0105443 -0.0414467 0.0607556 -0.101961 
-0.0127936 0.0114279 -0.0552194 -0.028569 
-0.00798257 0.068915 -0.0855032 -0.143055 
-0.0059168 0.0297185 -0.0258131 -0.0204624 
-0.00939634 0.100564 0.00636559 -0.281867 
-0.00970396 0.069864 -0.0546515 -0.205888 
-0.00982354 -0.0060254 0.0284375 -0.0524178 
-0.00240455 0.0193692 0.0408588 -0.146277 
0.00911522 0.0699323 0.0459086 -0.278116 
0.00164026 0.0199893 0.0014594 0.106962 
0.00902726 0.0580259 0.0631119 -0.29816 
0.0127975 0.0083221 0.0525958 0.213783 
-0.0121489 0.00977304 0.0668586 0.00175811 
0.00415405 0.00322731 -0.0179287 -0.0703146 
0.0118893 0.162134 -0.171825 -0.216454 
-0.00587599 0.147654 0.102955 -0.153526 
-0.00772224 0.0570122 0.0178883 -0.182513 
-0.000895558 0.00737705 -0.00172564 -0.0131857 
-0.00658928 -0.0102704 -0.0155962 -0.0306421 
-0.0114053 0.0754114 -0.0992389 -0.0887991 
0.00847457 0.0623987 -0.0692245 -0.126621 
0.00504028 0.16005 0.0563283 -0.16159 
0.0105324 0.0914853 0.0336848 -0.218792 
0.00085091 0.044993 -0.01989 0.149673 
-0.0149986 -0.00732251 0.0920215 -0.19559 
-0.00702634 -0.000190002 0.111885 -0.0132154 
-0.00696308 0.0199331 0.0164766 0.295076 
-0.00978407 -0.0204378 -0.0139746 -0.0642099 
0.00940779 0.0873576 -0.0906529 -0.267301 
-0.00877903 0.050019 -0.0237402 0.144662 
-0.00799968 -0.00612152 0.0980159 -0.233635 
0.0126689 0.0364178 0.176071 -0.0418967 
0.0132552 0.0386343 0.0156231 0.275015 
-0.00261647 0.00937307 -0.0539432 -0.03929 
-0.000785612 0.0826012 -0.0808565 -0.0792968 
0.0074573 0.134837 0.0543576 -0.139894 
-0.00921444 0.0740002 -0.0150766 0.18246 
0.00964044 0.0320982 -0.0107634 0.138884 
-0.00871225 0.0979626 0.0255697 -0.214805 
-0.00646486 0.0113757 0.0208762 -0.175368 
0.00523934 0.0508948 -0.0537162 -0.0959654 
0.0107746 0.0714715 0.00418026 0.202626 
0.0113042 0.0829992 -0.000369766 -0.181188 
0.0134042 0.0689894 -0.0185044 0.176887 
0.00873023 0.0164941 0.0427503 0.241792 
-0.000407091 0.0950351 0.0351614 -0.296327 
0.00855941 0.0214104 0.0891075 -0.163833 
-0.0140762 0.0374381 0.0762735 -0.152644 
1.98286e-06 0.0749633 -0.0402115 -0.18204 
-0.0136315 0.0130519 0.086241 0.140543 
0.00571168 0.149003 -0.131568 -0.0954231 
-0.0031591 0.118783 0.0270119 -0.250338 
-0.0128226 0.00886518 0.0568914 0.0730665 
-0.00373225 0.0844614 -0.10281 0.201643 
-0.0129776 -0.033873 -0.0634455 0.0567213 
-0.0124604 0.00561377 0.0311902 0.00515906 
-0.00360746 0.016086 0.00968664 0.0467898 
-0.00328165 0.0280615 0.00770314 -0.13644 
-0.00455745 0.072256 -0.00244662 0.173004 
0.00664286 0.0313872 0.0339513 0.307661 
0.010734 -0.00510096 0.0227352 -0.0608757 
-0.00670016 0.0843291 -0.00993519 0.195481 
0.011564 0.13266 -0.00972359 0.24721 
-0.00834176 0.0569056 -0.0355188 -0.174906 
-0.0127465 0.120632 -0.129703 -0.140138 
-0.010062 -0.000594027 0.0619022 -0.127209 
-0.00324221 -0.0136003 -0.000324914 0.00118385 
0.0112902 0.0149207 0.03447 0.312525 
-0.0142986 -0.00577631 0.0910727 -0.235386 
-0.0130066 -0.000770775 -0.028993 0.000888698 
-0.0144256 0.0713584 0.0148742 0.178387 
0.00312634 0.0606116 -0.0671895 -0.117931 
-0.0138555 0.106335 -0.0907668 -0.116917 
-0.00216766 0.0492452 0.0158888 0.086874 
-0.00925728 -0.00754862 0.00551409 0.207219 
-0.00325681 0.0370462 0.0748259 0.11776 
-0.00573531 0.0238964 0.101403 -0.0456064 
-0.00878001 0.124752 -0.00673468 0.266052 
0.00654716 -0.0131919 0.0615358 -0.134339 
0.00966885 0.104001 -0.13629 -0.13113 
-0.00268931 0.00842762 0.0741529 0.137488 
-0.0103199 0.0461593 0.0838209 0.14757 
-0.0133623 0.0780329 0.0233564 0.313471 
0.00332678 0.00888365 0.0995876 0.0232627 
-0.00942702 0.103421 -0.100849 -0.133807 
-0.00824885 0.0211056 0.128217 0.0263974 
-0.0158991 0.042281 -0.0344541 -0.0677899 
0.00478973 0.0334015 0.0528102 -0.190825 
0.00568667 0.0324175 0.0172516 0.0894905 
0.0115909 0.131656 -0.0179293 0.240791 
-0.00745159 0.041926 0.0985051 -0.121854 
-0.0109 0.095733 0.0217773 -0.206304 
-0.011511 0.0580477 0.0213707 -0.158613 
0.0105221 0.100603 -0.00892599 0.185718 
0.00641308 0.017561 0.00571077 0.0638842 
-0.0153347 0.0861764 0.0393467 -0.260323 
-0.00588352 0.123441 -0.137735 -0.184554 
0.0142846 0.174619 -0.158864 -0.237796 
0.00292226 0.0254117 0.0493867 -0.224461 
-0.0152977 0.147657 0.0504548 -0.15001 
-0.0140579 0.00945466 0.0459347 0.0124228 
-0.00280157 0.0584442 -0.00364566 0.163232 
0.000209272 -0.0224876 0.0329756 -0.076063 
0.0112107 0.0300739 0.0528767 -0.191988 
-0.00605517 0.0375491 -0.0415388 -0.0650458 
0.00389371 0.0872597 -0.0774377 -0.253571 
-0.00909146 0.0197802 0.06324 -0.147903 
0.00113937 0.0256942 0.0203626 0.303927 
-0.0142446 0.0747755 -0.0682959 -0.194865 
0.0111927 -0.0117912 -0.00454348 -0.0211498 
0.00476978 -0.0146552 0.00177674 -0.0554906 
-0.0149127 0.0510129 -0.00337058 0.175774 
0.0148389 0.0541144 0.00566912 0.13565 
0.00776133 -0.0150152 0.0855674 0.121782 
0.00856582 0.0065749 0.00604271 -0.0361006 
0.0147503 0.0987396 0.0662068 -0.306913 
0.00446625 0.0962817 0.0374626 -0.136491 
0.00561318 -0.00099219 0.10688 -0.0560519 
-0.0101181 0.118989 0.0180381 -0.141518 
-0.0155329 0.0631567 -0.066303 -0.164019 
0.00881933 -0.00317246 -0.00637946 0.0690597 
-0.00661143 0.0384223 -0.00716398 0.123883 
-0.00628277 0.0822725 -0.067909 -0.101175 
-0.00198594 0.0370858 0.0151504 -0.0449885 
0.00950614 0.0279594 0.00610576 -0.0340731 
0.0131834 0.0135788 0.0742125 -0.122068 
-0.00277058 0.0953948 -0.0982929 -0.147583 
-0.00463668 0.0387283 -0.0664746 0.0816109 
0.0153663 0.0757112 0.0139722 -0.175903 
-0.000466436 0.0296089 0.105465 0.191252 
0.0136197 0.0193558 -0.116268 0.137879 
-0.0118234 -0.000211654 0.092734 0.153755 
-0.0085475 -0.0032355 0.0712598 -0.261213 
0.00709191 0.101401 -0.116228 -0.140102 
0.0140606 0.00731914 0.0952149 -0.191914 
-0.00260462 -0.0242346 -0.00679077 -0.0243682 
-0.0132009 0.0352811 0.00684735 0.107057 
-0.0061827 -0.0108097 0.0375396 -0.0872121 
0.00948573 0.000514585 -0.00288348 -0.0586251 
0.0099752 0.0151466 0.00750523 -0.093801 
-0.00619709 0.0499884 -0.0141674 0.152831 
0.000871058 0.0564565 -0.056399 0.130567 
-0.0126587 0.11459 0.0385841 -0.238005 
0.0117885 -0.00959254 -0.00260047 -0.00167742 
-0.00301214 0.0571575 -0.00598623 0.320058 
0.00575323 0.0593704 -0.0479471 -0.121202 
-0.00629807 0.076167 -0.0814947 -0.250401 
0.00760104 -0.000246924 0.0788673 -0.177558 
0.00223797 0.16307 -0.172358 -0.233422 
-0.0155896 0.0697057 -0.0763216 -0.114637 
-0.0105734 0.10076 -0.0162161 -0.266387 
0.00796643 -0.0337322 -0.0929347 0.0755165 
-0.00861747 0.103121 0.0415011 -0.242206 
-0.00326933 0.143911 1.25966e-05 0.239722 
0.00087013 0.0148264 0.104247 -0.240512 
-0.00935094 -0.0105813 -0.0184817 -0.0211597 
0.00313753 0.0515637 0.0225334 -0.100847 
0.00946156 0.0825631 -0.0890962 -0.140237 
-0.015413 0.105527 -0.102006 -0.0566483 
0.0145722 -0.0174248 0.0110814 -0.024029 
0.00168684 0.108356 -0.0841847 -0.22677 
0.00902096 0.0701882 0.0606 -0.254327 
-0.00133835 0.0388183 0.0492779 -0.163996 
0.00447263 0.081339 -0.095902 -0.284804 
-0.000817462 0.112376 0.0714648 -0.133977 
0.0145715 0.114591 0.00800678 0.223566 
0.0153025 0.0410181 0.053198 -0.22994 
-0.00340369 0.0694337 -0.016276 0.165305 
0.00318188 0.0133613 -0.0120078 -0.0424441 
0.0116192 0.0180704 0.0118431 0.0858039 
-0.0112087 0.101666 -0.00483818 0.197907 
-0.00348667 0.0922329 0.0132517 0.385721 
0.012498 0.102504 0.0996499 0.291991 
0.00158306 0.0831948 0.00424395 0.211571 
0.0122251 0.00152016 -0.00864534 -0.026846 
-0.00430767 0.0997546 -0.119776 -0.114356 
0.0149124 0.0323396 -0.0402457 -0.0559663 
0.00836917 0.00309764 0.115581 -0.145086 
0.00163205 0.0477016 -0.0741435 -0.183103 
0.00686528 0.041988 -0.0173215 0.167586 
0.00620617 0.0158072 -0.0396322 0.16021 
0.00488861 0.0391029 -0.0192992 0.326634 
-0.0143883 0.0158751 0.0794982 -0.214294 
-0.0152012 0.0175982 0.00403611 -0.0855907 
-0.00661837 0.0896462 0.0648287 0.340204 
-0.0154457 0.0752174 0.021574 -0.238196 
-0.00428394 0.0604168 -0.00593512 -0.104602 
-8.68734e-05 0.0155011 0.0840814 -0.133187 
0.00214578 0.0491326 0.015905 -0.0872539 
0.00516226 0.00898229 0.0901706 -0.170564 
0.00434642 0.0668031 0.0328852 0.192703 
0.0116153 0.0353115 0.0361927 -0.142568 
-0.002432 0.105872 -0.00292024 -0.19528 
0.00717687 0.143153 -0.15449 -0.203947 
0.0149562 0.0593706 0.0252721 0.202115 
-0.014337 0.127715 0.00868076 0.240777 
-0.00930408 -0.0190272 0.00306099 -0.10421 
-0.000310383 0.135559 -0.12359 -0.171385 
0.000449762 0.044822 0.00444609 0.105446 
-0.00491639 0.0753074 -0.09581 -0.151107 
-0.0101546 0.0274963 -0.00402908 0.00249441 
-0.0124209 -0.00371964 -0.0215897 0.00631724 
0.0100062 -0.00924626 -0.0176842 -0.0382543 
-0.00876595 0.0449048 0.00632927 -0.103552 
-0.000105624 -0.0206283 0.0332647 -0.0643546 
-0.00998789 0.120949 -0.0441962 0.20548 
0.00817255 0.0886471 0.0142634 -0.265387 
0.00210071 0.015455 0.086602 -0.050835 
0.000178328 0.0866905 0.00896196 0.19996 
-0.00354682 0.0416525 0.0159529 0.113975 
0.0147128 0.0690446 -0.0669984 0.213238 
0.00290377 0.122433 -0.0784986 -0.0892404 
-0.0153854 -0.0435106 -0.00896073 -0.0421979 
-0.0156249 0.0041323 0.150502 0.0164847 
-0.00556753 0.0338109 0.0999895 0.161673 
0.00423752 0.0566947 -0.0491845 -0.179714 
0.0144691 0.0545172 0.0131594 -0.102016 
-0.0154478 0.140841 -0.12372 -0.172181 
0.00841774 0.104441 -0.124624 -0.149894 
-0.00718827 0.0213056 0.0530161 -0.214053 
0.0109171 0.0150282 0.107968 -0.152159 
0.0137084 -0.00328636 0.00146154 -0.0364832 
-0.00440099 0.00294147 -0.0662604 0.0539864 
-0.00482778 0.0860519 -0.0148231 0.176072 
-0.0123487 0.00633243 -0.00206768 -0.0282417 
-0.00293925 0.0781654 -0.0187519 0.210262 
0.0134534 0.0448627 0.00175356 0.11487 
-0.0100736 -0.0230281 -0.00827376 -0.00177063 
0.00740626 0.154738 0.0106538 0.281348 
-0.00415735 -0.00515226 0.00533088 -0.041279 
-0.0143413 -0.0165548 0.0695904 -0.175836 
0.0131187 0.0124745 0.00294892 -0.00449897 
0.00997431 0.123857 -0.00177786 -0.254304 
0.00326007 0.0865379 -0.0938163 -0.0846417 
0.00449081 -0.00225883 -0.0442958 -0.0565109 
-0.0126737 0.00596297 -0.0646103 0.092501 
-0.00773767 0.0915258 0.0405656 0.331612 
-0.00648603 0.0652858 0.0384006 0.272725 
0.00345891 0.0246356 0.148438 -0.0937572 
-0.0150366 0.008769 0.0919966 -0.183419 
0.00981073 0.0816764 -0.0952037 -0.231578 
-0.0126698 0.089002 0.0177884 0.192647 
-0.000237739 0.0668071 -0.034849 0.32336 
-0.0146885 0.0463428 0.0539401 -0.231197 
-0.00704261 -0.0375743 -0.00307097 -0.00455086 
8.13886e-05 -0.0280648 0.0489218 -0.091078 
-0.000764778 0.008837 0.0695411 0.0713529 
-0.0111046 0.00818523 -0.0261279 -0.0413717 
-0.0152441 0.0376124 -0.0473604 -0.14758 
0.0134094 -0.0190432 -0.00338248 -0.00846436 
-0.0100069 0.113105 -0.127804 -0.165546 
0.0148424 0.0580572 -0.0615958 -0.184532 
0.00240064 0.103978 0.0551579 -0.135844 
0.0109526 0.0511289 -0.00251351 -0.153096 
0.00030222 0.112226 -0.0797118 -0.104433 
-0.00991461 -0.00945835 0.0370717 -0.075872 
0.00385017 -0.000534129 0.0436177 -0.032779 
0.000709561 0.0690691 0.0264303 -0.235193 
0.00510465 -0.0105233 -0.00161847 -0.0817427 
0.00633633 -0.00508952 0.0372695 0.00622355 
-0.0153955 0.115884 -0.107732 -0.134482 
0.00354 0.162568 -0.154257 -0.206286 
0.00330846 -0.00367027 0.0115583 -0.0909317 
-0.00852908 0.0605728 -0.0361182 0.241038 
0.00312395 0.0623385 -0.0606524 -0.0870539 
0.00106195 0.00142869 0.0431577 -0.0725683 
0.00258068 0.0311181 -0.0119554 -0.0814662 
-0.00504441 -0.0220161 0.0548321 -0.0907557 
0.00477328 0.0384618 -0.064155 -0.158819 
0.00747054 0.0315522 -0.0411758 -0.0716333 
0.000895943 0.0427073 0.0152021 -0.0550216 
0.00929962 0.113426 0.0298415 -0.285692 
0.0012797 -0.00588449 -0.00430038 -0.0729616 
0.00171001 -0.010114 0.0685665 -0.0246085 
-0.00769886 0.0105409 0.098241 -0.118309 
-0.0133926 0.00689142 0.0704323 -0.162363 
-0.0129103 0.00240536 0.039588 -0.109703 
0.0068012 0.00400028 0.060727 -0.14302 
0.00795997 -0.002262 0.0682564 -0.172324 
0.00318441 -0.0038897 0.0800741 -0.140576 
0.00939712 0.0184397 0.0363075 -0.176656 
0.0142181 0.070875 -0.0927371 -0.17697 
0.0105012 0.0458857 -0.00105636 0.135324 
0.0150962 0.091545 -0.0757862 0.188894 
-0.0133794 0.0759569 0.0910724 0.287818 
-0.0106676 0.087721 0.00467084 -0.196327 
0.000864246 0.0604944 -0.0629111 -0.211878 
0.011745 0.0648416 -0.0105344 0.118392 
-0.0138566 0.020917 0.0304527 -0.194525 
-0.00874894 0.0319288 -0.0535476 0.0827266 
-0.000259922 -0.0143508 -0.00848553 -0.0322877 
0.0130953 0.165615 -0.158461 -0.222486 
-0.00604873 0.0185635 0.104516 -0.0568998 
0.00331242 0.0187675 -0.00592789 -0.0528958 
-0.0127402 0.119962 -0.0957742 -0.0867103 
-0.00204406 0.0694658 -0.0418721 0.25827 
-0.00790738 0.083977 0.0381603 -0.200055 
-0.00681204 0.0217264 0.0295879 -0.0976835 
0.0137452 0.0521028 -0.0767852 -0.169739 
-0.0112009 0.0330705 0.0783595 0.112154 
-0.00523893 0.0971947 0.14935 0.314958 
0.00690422 0.00158089 0.0384839 -0.0853622 
-0.00729888 0.0617678 -0.0753568 -0.119627 
-0.0138044 0.045774 -0.0525392 -0.075773 
-0.00949243 0.0805274 0.037828 0.269399 
0.00470968 0.0375522 -0.0672087 0.217313 
0.0107609 0.0461825 0.112986 0.231818 
-0.00232704 0.132495 -0.00690181 0.262153 
-0.00837308 -0.0102911 0.0595969 0.0770484 
0.00648237 0.0211667 0.0743553 0.127163 
-0.00814586 0.0924615 -0.0902034 -0.132453 
-0.0134482 -0.0212011 -0.00324105 -0.0620413 
0.0107428 0.0175671 0.137774 -0.00330629 
0.00821837 0.108904 -0.018777 0.231305 
0.0044236 0.0129582 0.103701 -0.208256 
-0.0118142 0.00974581 0.0639785 -0.182175 
-0.00301892 0.0607026 0.0249512 -0.190725 
-0.00246587 0.00313107 -0.026481 0.0955124 
0.00632775 -0.00739494 0.0298219 -0.00482159 
0.0110499 0.0263291 -0.0334151 0.0479073 
-0.0136395 0.0432279 0.0553398 0.14003 
0.0151749 0.0996184 0.0148666 -0.193504 
-0.0143946 -0.0119124 0.0450843 -0.0955597 
-0.0132282 0.0697873 0.0397043 0.292623 
-0.00958763 0.056908 -0.0546895 -0.103474 
0.0140716 0.0163558 0.0506214 -0.199824 
0.00212568 0.0728939 0.0416614 -0.0959632 
0.0131513 0.0117984 0.0542378 -0.130624 
-0.00136353 4.41625e-05 0.0497302 -5.74324e-05 
0.00706623 -0.000847685 -0.00401946 0.00674006 
-0.0054185 0.0186931 0.0346834 -0.0576866 
-0.00072559 0.00119066 0.0664857 -0.0666767 
-0.00500808 0.0285728 -0.0414122 -0.06083 
-0.00674128 0.0431703 0.0723041 -0.243386 
0.0123081 0.138627 -0.142035 -0.130099 
0.0150847 0.0997893 -0.0700782 -0.281472 
0.010064 0.0706808 0.0595977 0.293531 
0.0143149 0.047549 -0.0927605 -0.149273 
0.011198 0.0511929 -0.0395998 -0.167235 
0.00891502 0.0297051 -0.0264245 -0.073432 
-0.00905238 0.00714755 0.0723071 -0.0634322 
0.0139563 0.0715996 -0.00828425 0.147315 
0.0105191 0.0245082 0.161304 0.00972654 
-0.00965365 -0.00114555 0.0347451 -0.0293947 
-0.00717312 -0.00890218 0.0364876 -0.107346 
-0.0104273 0.0274145 0.0531639 -0.222278 
-0.00843768 0.0758016 -0.0967298 -0.133498 
0.0137032 0.0432624 -0.0504837 -0.137127 
0.0073344 0.0878555 -0.0791661 -0.240946 
0.0154599 0.0701654 0.00342597 0.183669 
0.00830983 0.0750902 0.119814 0.276396 
0.01109 0.0223329 0.081736 -0.191167 
-0.0119757 0.0414898 -0.0626791 0.0962328 
0.00110937 0.0999566 -0.0377064 0.163885 
-0.00850038 0.140496 0.0347407 -0.312067 
-0.0117389 0.100469 0.0725945 0.315449 
0.00217134 0.0857635 0.00664367 -0.102216 
-0.0147179 0.0254127 -0.0578507 0.221213 
-0.00269359 -0.0164644 0.00224802 -0.0375724 
-0.0155005 0.0175228 0.111081 -0.00894215 
-0.00408003 0.0310773 0.060747 -0.109815 
0.00839033 0.181127 0.0174972 -0.225521 
-0.00112341 0.0955225 0.0326075 0.366487 
-0.000610264 0.0929476 -0.0770932 -0.135287 
0.00046166 -0.00969449 0.0706806 -0.166702 
-0.00917988 -0.0149424 -0.0146048 -0.0847409 
-0.0128427 0.0497696 0.0300903 -0.201029 
0.0141525 0.148685 -0.11939 -0.0717592 
-0.00953041 0.010858 0.0104948 0.0495726 
-0.0032984 0.0533233 0.0581322 0.14562 
-0.000868175 -0.0128406 0.0400052 0.00592365 
0.00519791 0.0347663 0.00632708 0.242346 
-0.0128955 0.140864 -0.132992 -0.186554 
0.00548023 -0.022199 0.0071703 -0.0569949 
-0.00444006 0.0946124 -0.0404184 -0.250806 
-0.00590516 -0.0164726 0.08019 -0.103542 
0.00718278 0.131812 -0.0974327 -0.170088 
0.0128048 0.0618646 -0.0701491 0.191029 
0.00365852 -0.00227861 0.127431 -0.00774907 
0.00176853 0.00997457 0.0237697 -0.0950912 
-0.0145663 0.0407546 -0.0212563 0.0856511 
-0.00164759 -0.0141035 -0.00493451 -0.047235 
0.0140476 0.0294071 -0.0258724 -0.104934 
-0.000311563 0.010088 0.114116 0.00955334 
0.00914755 0.0309983 -0.028695 -0.0467976 
0.00644359 -0.000356117 -0.0177775 -0.000973937 
0.0136287 -0.00143951 0.0253404 0.0202397 
0.00996141 0.0360515 0.050845 -0.27226 
-0.00267495 0.00371672 0.111577 0.020469 
-0.00954366 0.0640149 0.000717412 0.189693 
-0.000779699 0.0568121 0.0186708 0.170802 
0.0068 -0.0063531 0.0191777 0.00100628 
-0.00165471 0.0679689 -0.0159299 0.167088 
0.0142166 0.0220798 -0.0781893 -0.0524914 
0.00958786 0.0163649 0.137221 -0.0428218 
-0.0078919 0.0147866 0.0878499 -0.00106276 
0.00809495 -0.0194308 0.00435012 0.0108143 
-0.009799 -0.0191196 -0.0450538 0.0351847 
-0.0128331 0.0136212 0.115572 -0.0401604 
0.00647585 0.129728 -0.0142667 0.257026 
-0.00236902 0.111297 -0.0064034 0.245035 
0.0133644 0.0801274 0.0570409 0.240077 
0.01264 0.124454 -0.0660179 -0.106479 
-0.0074798 0.184209 -0.157376 -0.242703 
0.0147515 0.0296885 -0.0250386 -0.131863 
0.00276327 -0.00446478 0.06497 -0.0646173 
0.00346564 0.000859375 0.0576337 -0.158823 
-0.0053646 0.0248012 0.082479 -0.00217987 
-0.00299782 0.00807047 -0.0187685 -0.00997652 
0.00231597 0.101935 0.0322681 -0.121403 
-0.010778 0.0167084 -0.013013 0.135334 
-0.00456362 0.0942412 -0.0937117 -0.117683 
0.0113145 0.00698656 0.0193953 -0.0577686 
0.0028653 0.0527296 0.0275021 -0.22008 
0.0101018 0.0709857 -0.0418033 -0.212209 
-0.00128452 0.0106553 0.197655 0.0251509 
0.0100001 0.0209835 -0.0490458 -0.0659814 
-0.000403567 0.0395511 0.0412179 -0.132023 
0.00925996 0.0742431 -0.133332 0.182355 
-0.0124515 0.134303 -0.14059 -0.159588 
-0.0113371 0.00172994 0.135661 -0.0307772 
-0.00440182 0.088622 -0.0867453 -0.0519212 
-0.00904997 0.0130768 0.017958 -0.0998018 
0.000776864 -0.0282602 -0.0123509 -0.00367211 
-0.00515503 0.102393 -0.0601424 -0.226478 
-0.012981 0.0105143 0.0223872 0.048106 
-0.0050842 0.0844745 0.0181859 -0.0829017 
-0.00591546 0.0825061 0.0499757 0.365972 
0.002386 0.187871 -0.173842 -0.167108 
-0.00023739 0.0125337 0.0558599 -0.201649 
0.00508152 0.0715055 0.0526276 -0.287189 
0.0109926 0.139064 0.00156215 0.265945 
0.00576756 0.0644126 -0.010908 0.314679 
-0.0132927 0.0599767 -0.0193271 0.284609 
-0.0060579 0.133178 0.0148061 0.263597 
-0.0061612 0.00620167 0.02315 0.0122025 
-0.00559035 0.00639833 0.163076 0.017391 
-0.000507758 -0.00964118 0.0760264 -0.141043 
0.00455049 0.114309 -0.0943305 -0.113843 
0.0116241 0.0418839 0.0534059 0.104079 
-0.00611453 0.0829022 0.0452102 -0.240202 
-0.00352565 -0.0133219 0.0514657 0.00146035 
0.00846347 0.0125115 -0.0158113 0.00964117 
-0.00941351 0.047873 -0.0193507 -0.140851 
0.00798337 0.0561676 -0.0560011 -0.0947168 
0.014073 0.141032 -0.146689 -0.184656 
0.00981214 0.0662411 -0.0783393 -0.184933 
0.00752071 0.0662993 -0.07078 0.123545 
0.00319584 0.00858747 0.0754151 -0.158145 
0.00599954 0.00782381 0.0124088 -0.0463663 
-0.0115364 0.0207514 0.0539346 -0.262098 
-0.00158875 0.115976 0.0441647 -0.140942 
-0.00187911 -0.012271 -0.000673835 0.0021144 
-0.0121583 0.0299307 -0.0252953 0.0869368 
0.00656801 -0.00774697 0.0372793 -0.0594867 
-0.0150822 0.102136 0.055408 0.341022 
0.00143971 0.142408 0.0608213 -0.144214 
-0.00548339 0.10538 0.01906 -0.192053 
-0.00370929 0.0532354 -0.016412 -0.0915092 
0.0114212 0.119507 0.0651947 -0.123203 
0.012414 0.0245219 0.0503363 -0.198217 
0.000929843 0.0108755 0.115765 -0.218121 
0.0140021 0.114646 0.116289 -0.137158 
0.000367604 0.112174 0.0184545 -0.252613 
-0.00904841 0.104196 -0.114762 -0.125642 
0.00578152 0.147831 -0.177996 -0.217189 
-0.00144407 0.0152472 -0.0173872 -0.0404447 
0.000819985 0.000266281 0.13731 -0.144622 
0.00900384 0.00503225 0.0808746 -0.136564 
-0.00859673 0.0468618 -0.00300872 0.135484 
-0.0154907 -0.00400849 0.0223886 -0.0655135 
0.00269302 0.056418 0.0192692 0.111604 
-0.00868755 0.0760567 0.0929499 0.218384 
-0.0122313 0.107391 0.0247033 -0.26213 
-0.00817894 -0.0174728 0.0642428 -0.126294 
-0.00851974 0.106788 -0.0353533 -0.265534 
-0.0143277 0.082663 0.0432717 0.284297 
-0.0126772 0.00576265 0.0704917 -0.119244 
-0.00472816 0.0043444 0.0430677 0.0721261 
0.0024091 -0.00535571 -0.00892086 -0.0381644 
-0.00893832 0.00127854 -0.00310623 -0.130919 
0.00110277 0.0265966 -0.0137448 0.0923564 
0.0119412 0.0658286 -0.0799979 -0.189843 
-9.83961e-05 0.0911174 -0.0761758 -0.227421 
-0.000538818 0.0953987 0.0580084 -0.296655 
0.000666974 0.0429892 0.061514 0.330525 
-0.0145096 0.00250875 0.0977487 0.0124339 
0.00243226 0.0701327 0.00142676 0.343193 
0.0068016 -0.00189127 0.0531902 -0.208044 
-0.0149509 0.0114251 0.126683 0.00263349 
-0.015047 0.120884 -0.142398 -0.162173 
-0.00105991 0.012887 0.0817439 0.012727 
0.00761757 0.0277823 0.0390893 -0.184722 
-0.00668668 0.00586828 0.117959 -0.00835289 
0.00285169 -0.0314546 0.0216594 0.000968266 
0.00307036 0.00667801 0.0602564 -0.25052 
0.00293927 -0.00657809 0.0982874 0.105455 
-0.00347906 0.120617 0.0522791 -0.135647 
-0.0050163 0.0377393 0.212022 -0.0554486 
0.00875405 -0.015802 0.096878 -0.203399 
-0.014034 0.00711245 0.12327 -0.103139 
0.00199705 -0.0252661 0.00333871 -0.0372261 
-0.0137819 0.0894671 0.0181533 -0.173778 
-0.0164108 0.118413 0.0341666 -0.14583 
0.00506846 0.0774992 -0.101513 -0.173686 
-0.00647724 0.0632421 -0.000980494 0.293323 
-0.00508977 0.0066924 0.0496196 -0.129446 
0.0045678 -0.0140417 0.0540635 -0.00573834 
0.00159243 0.017426 -0.169419 0.188102 
0.00307373 0.0785846 0.0215144 0.26678 
-0.0056837 0.0694343 -0.0144646 0.179396 
-0.0130211 -0.00255386 0.0884808 -0.156152 
0.0153257 -0.0200542 4.10049e-05 -0.0131683 
0.0113893 0.0440324 -0.0461633 0.163258 
0.0137858 -0.000676262 0.00649426 -0.0545672 
0.00527348 0.0230462 -0.0296049 -0.11414 
0.0040933 0.0893266 0.0301351 -0.115857 
-0.0145784 0.0639564 0.0590319 0.309352 
-0.00561421 -0.000533134 0.0444487 -0.0244204 
0.00476458 0.103066 0.0287221 0.364098 
0.00781246 0.00241043 0.0673402 -0.150268 
-0.00177345 0.0254252 0.06888 -0.155608 
-0.00328534 -0.0476536 -0.122458 0.130024 
-0.00491329 0.0549475 -0.000346049 -0.112184 
0.00368137 0.120665 0.0335322 -0.140026 
-0.00675564 0.0377238 -0.0815355 -0.0817031 
0.000720342 0.0277171 -0.0212367 0.0887733 
-0.00397586 -0.0147608 0.0401613 -0.0680417 
-0.0081413 0.01537 0.00351743 -0.0589201 
0.00986897 0.0888799 -0.0338974 -0.207276 
0.0125693 -0.0125408 -0.00776156 -0.0128718 
-0.00271301 0.0115557 0.102565 -0.0228064 
-0.00892717 0.0151834 0.09405 -0.23737 
0.00707042 0.0728547 -0.0969506 -0.162935 
0.00261255 -0.00893161 0.0268443 -0.0637632 
-0.00381175 0.0373986 0.0644098 0.161948 
-0.00943115 0.0275301 -0.0216533 -0.066158 
0.00050544 0.0755685 0.0284329 0.309599 
0.0015214 0.0482025 0.0273859 -0.1422 
-0.0124693 0.053079 -0.0399378 -0.0688305 
-0.00169882 0.101721 -0.0971337 -0.1975 
0.00353083 0.0246877 -0.0141721 0.00887703 
-0.0108034 0.130144 -0.105923 -0.136359 
-0.00718048 -0.000935552 0.0379475 -0.161652 
-0.0104839 0.00885931 0.0245609 -0.0882507 
0.014337 0.0490798 -0.0150771 0.106668 
-0.00778661 0.0674302 -0.0764849 -0.137846 
0.00874458 0.105742 0.0134696 -0.180355 
-0.00652531 0.0253216 0.131197 -0.012633 
0.00096478 0.0787223 0.0276927 -0.237325 
0.0111018 0.0148571 0.0344169 -0.218968 
0.00237322 0.0125226 -0.00121576 0.0561516 
0.0140584 0.016817 0.0341939 -0.139128 
0.0111249 0.003258 -0.0196713 0.00186264 
-0.00226407 0.0730027 0.0531559 0.21175 
-0.00273748 0.0931574 -0.00092805 0.208864 
0.0075958 0.203016 0.0197273 -0.264567 
0.0106076 0.0222357 0.0343877 -0.167491 
-0.0151835 0.0409568 0.110039 0.204956 
0.00566496 0.00232 -0.0098724 -0.0690193 
0.00293074 0.0828205 -0.0792883 -0.229997 
-0.00349804 0.0829731 0.0063547 0.125618 
0.0123099 -0.00757833 0.0455397 -0.132233 
-0.0066092 0.00055394 -0.00698817 -0.0437099 
-0.00262563 0.0842652 0.0455244 0.300587 
-0.00511708 0.0276605 0.0280719 -0.097056 
0.00269967 0.0494104 0.0529543 -0.160725 
-0.00560397 0.0872357 -0.0491354 -0.250196 
-0.0129514 0.098982 -0.110322 -0.177106 
-0.000421553 0.0712972 -0.0891046 -0.252184 
-0.012446 0.025927 0.0714912 -0.216829 
0.0115637 0.106621 -0.0792605 -0.2646 
-0.00492562 0.0875871 0.0517489 0.353552 
-0.0125819 0.146681 -0.153825 -0.16178 
-0.00197415 -0.0130846 0.0616024 0.0493187 
-0.00358748 0.0722176 0.00192083 0.149499 
-0.00166031 0.0601752 0.0174844 0.156871 
-0.0120223 0.00144916 -0.035685 0.0377303 
0.0055786 -0.00197765 0.00110696 0.0306281 
0.0085726 0.0574343 -0.0433199 -0.206372 
0.0119654 0.00045575 0.0654539 -0.108211 
-0.0143686 0.0737129 -0.0558295 -0.168138 
-0.014957 0.0939729 0.0193684 0.285715 
0.00506073 0.0480808 -0.0237795 -0.131691 
-0.0140662 0.193814 -0.196227 -0.258302 
-0.00945523 0.0527928 -0.0785286 -0.087928 
-0.00161743 -0.0178038 -0.00567982 -0.0349591 
-0.0105049 0.148736 -0.157897 -0.196732 
0.00837387 0.0405877 -0.0885132 0.137593 
-0.0088613 0.012537 -0.0617659 0.0617423 
0.000663116 0.0725657 -0.0675862 -0.224114 
0.00162102 0.0283193 -0.0184191 0.126481 
-0.000122076 -0.0131096 0.135566 -0.0126969 
0.00895828 0.011873 0.109615 0.0402705 
-0.00509335 -0.0195576 0.0826021 -0.189905 
-0.0039811 0.00793278 0.0150127 -0.0213831 
-0.0119892 0.0356176 -0.0579874 -0.0679073 
0.000384848 0.095262 0.0238529 -0.256718 
0.0129641 0.0600611 0.0435893 0.326935 
0.0112984 0.0319697 -0.0582519 0.075951 
0.014022 0.0503503 -0.0496406 -0.0465539 
-0.00882953 0.12536 0.0234324 -0.175538 
0.00658379 0.0626543 0.00781305 0.128588 
-0.00551901 0.0812819 -0.0901336 -0.224154 
-0.00160465 0.0166333 0.0158214 0.307869 
0.00347246 -0.013366 -0.0568789 0.0414719 
0.00418077 0.088548 -0.110278 -0.115308 
0.0114103 -0.00654783 0.099288 -0.0859109 
-0.0126317 0.0904665 -0.0641143 -0.106054 
0.00309717 0.005683 0.0578655 -0.144053 
-0.015822 -0.036989 0.0326057 -0.0672666 
0.00937038 0.162104 0.0241889 -0.276163 
0.0132524 0.00794213 0.0709852 -0.162637 
0.014221 0.0398071 -0.0468511 -0.11534 
0.00343601 -0.0124895 -0.0184387 -0.00811057 
-0.0070996 0.0263303 0.0681937 -0.152712 
0.0133413 0.109207 0.0259524 -0.215974 
-0.00363283 0.0268468 0.153829 -0.0699943 
0.00497127 -0.011773 0.0735183 -0.15439 
0.0134324 0.0653125 0.0171189 -0.106666 
-0.0126325 -0.0100401 -0.0101666 0.0193619 
-0.00479776 0.0364488 -0.00812794 0.147958 
0.00633999 0.0726086 0.00371852 0.12565 
0.00867613 0.0894726 0.00527604 -0.146891 
0.00264407 0.11891 -0.00640775 0.28004 
0.00760127 0.0859379 0.0146481 -0.239882 
-0.00349638 -0.0220909 0.0694395 -0.132294 
0.0033375 0.0318578 0.00974161 0.0970401 
0.00620497 0.0243124 0.0594276 -0.164873 
-0.00638552 0.0690073 -0.0877695 -0.124923 
-0.0092264 0.152679 -0.167843 -0.227482 
-0.0102147 0.0201644 0.0128133 0.223033 
-1.57376e-05 0.0236255 0.0626357 -0.114318 
-0.0129299 -0.0187345 0.0542464 -0.113128 
-0.00930861 0.0528328 0.0128572 0.0760641 
-0.00756811 0.000964943 -0.0730404 -0.0453864 
0.0116696 0.0852264 -0.0200871 0.205204 
0.0072422 -0.00477991 0.0680732 -0.15642 
-0.000311713 -0.0210303 0.00841862 -0.0722175 
0.00229205 0.078474 0.0409535 0.265421 
0.00568319 0.0397763 -0.00430407 0.0990279 
-0.00518392 0.0195035 -0.00660136 0.0651202 
0.00418822 0.0898944 0.0464616 -0.116837 
-0.00638358 0.151927 0.0248367 -0.215144 
-0.010469 0.0956139 0.0683294 0.281725 
-0.0153738 0.02135 0.00578679 0.0754719 
0.00611149 0.174279 -0.165069 -0.19846 
0.00115807 0.172765 -0.169237 -0.229716 
0.0126774 0.0488683 -0.0560608 -0.122396 
0.0104591 -9.60306e-05 0.0999285 0.111318 
-0.00167697 0.0392107 0.00897484 -0.111552 
-0.0153718 0.00488078 0.0882571 -0.196735 
-0.00623781 0.133069 -0.0160876 0.294005 
0.0100682 0.105588 0.0109466 0.21323 
0.0109205 0.00469194 -0.00061836 0.1325 
0.00730433 0.123008 0.00643667 0.276001 
-0.014445 0.0274818 0.0419955 -0.111977 
-0.0159322 0.0142808 0.0582626 -0.248821 
0.00987442 0.0486596 0.0247226 0.124268 
-0.0112134 0.0250303 -0.0413235 -0.0931839 
-0.000959376 0.00175691 0.00179431 -0.0561555 
-0.0113748 0.0151232 0.0543268 0.0957561 
0.00370088 0.0235518 0.0184194 -0.140185 
0.0144167 0.0579096 -0.0632279 -0.223217 
0.0077022 0.0640095 0.0111511 0.106501 
0.00241334 0.0423326 -0.0680423 -0.161752 
-0.0139536 0.140059 -0.0032947 -0.244101 
0.00540617 -0.00718729 0.00922302 -0.0295785 
-0.00221175 0.00455286 0.0673233 0.0928489 
0.0143216 -0.0199086 0.0799816 -0.179395 
-0.0149667 0.0412078 0.00142466 0.126236 
-0.0157432 0.190372 -0.181456 -0.223775 
0.0120763 0.0761548 -0.00324049 0.159702 
-0.0113084 0.0212418 0.0798962 -0.143424 
-0.00875966 0.0653276 0.0182287 -0.221016 
-0.00260266 0.00424269 0.103793 -0.076292 
-0.00192449 0.055626 -0.0627229 -0.165232 
0.0105798 0.102887 -0.126993 0.212968 
0.0134327 0.00962883 0.20777 -0.000377703 
0.0154908 0.110609 -0.00539836 0.190031 
0.00701745 0.015582 -0.0126196 -0.0703291 
0.0142331 0.083062 0.0389022 0.369988 
-0.0036679 0.0513669 -0.0245896 0.162521 
0.000689757 -0.0136474 -0.0208677 -0.0698975 
0.00558628 -0.00556858 0.0467302 -0.17701 
-0.0147113 0.04893 -0.0722763 -0.158997 
-0.00094904 0.0140988 0.0121469 -0.0850161 
-0.0125909 0.069302 -0.0399146 -0.191406 
0.0109414 0.075184 -0.0694602 -0.194189 
0.0149136 0.102103 -0.0851088 -0.245877 
-0.00644243 0.0527699 -0.00244787 -0.0989413 
-0.00601404 0.0588079 0.00978556 0.098954 
0.0121245 0.00924615 0.0733588 -0.229805 
0.0079025 0.150003 0.0264536 -0.203444 
-0.0107453 0.0596102 0.0521172 0.190123 
-0.00101346 -0.005614 -0.0217929 0.101656 
0.0105864 0.108577 -0.0997083 -0.104959 
0.00506388 -0.0120735 0.0683744 -0.161801 
-0.00478047 0.0747111 0.0365284 -0.101565 
-0.00912585 0.0808643 -0.016349 -0.208491 
-0.0158601 0.00101835 -0.0195437 -0.0544575 
-0.012234 0.0664523 -0.0785234 0.130193 
0.0094763 0.0192643 -0.0411056 0.0666249 
0.0101299 0.121592 0.0424301 -0.137857 
0.000535128 0.0314012 -0.0209157 0.0602929 
-0.0157377 0.0120847 -0.0127322 -0.0415034 
-0.0117035 0.0832786 0.0296991 -0.284763 
0.00838112 0.126074 0.0419157 -0.137828 
0.0129728 0.0240595 -0.0352593 -0.0894523 
-0.000503708 0.0957107 -0.0302685 0.179505 
-0.00584152 0.160365 0.00657082 -0.2664 
0.000596036 -0.00952075 0.0590952 -0.0864458 
0.0142317 0.10064 -0.00740135 0.237549 
-0.0102579 0.0375462 -0.0127797 0.113587 
0.000832481 0.119031 0.00504456 -0.15105 
-0.0122352 0.010105 0.009218 -0.160798 
0.00373227 0.159232 -0.152882 -0.217699 
-0.00810908 0.0641686 0.0240664 -0.116936 
-0.00801117 0.0418431 0.0846116 0.152117 
-0.0109401 0.035857 -0.0155969 -0.1008 
-0.0140733 -0.00941374 0.0158803 -0.0864915 
7.91458e-05 0.02486 -0.0311059 -0.105497 
0.00916895 0.0594559 0.092748 0.238338 
-0.00596489 0.0135016 0.0276009 -0.01215 
-0.00988434 0.00127406 -0.0214253 -0.0576568 
-0.00268838 0.0223352 -0.0370475 -0.0212806 
-0.00129074 0.0632721 0.0439342 0.186981 
-0.00209049 -0.0202873 0.000655955 -0.00648695 
-0.00626762 0.0297689 -0.0028719 0.0918593 
-0.0092322 0.0262177 -0.0255254 -0.12193 
-0.00250817 -0.00480379 0.0962271 -0.185988 
0.00655303 0.050598 0.0589797 -0.231725 
0.0129167 0.0139982 0.123451 0.00476569 
-0.00778611 0.0652221 0.0283972 -0.141736 
-0.00818944 0.122557 0.0177834 -0.278254 
0.00501201 0.0163772 0.0608566 -0.225264 
0.011291 0.0932056 -0.0841456 -0.135789 
-0.0113041 0.0150126 0.0496905 -0.233202 
0.0102318 0.0121639 0.0134079 0.303312 
0.0129067 -0.000499084 0.0169993 -0.0754699 
0.00971593 0.068873 -0.133055 0.158033 
-0.00583625 0.0483332 0.0558635 -0.276907 
0.00200476 0.0395321 -0.0743679 -0.120853 
-0.0092798 0.0352032 -0.0693576 0.0941971 
-0.0053673 0.0406765 -0.0382123 -0.0298317 
0.00373641 0.0732506 -0.0873048 -0.0933487 
-0.00646027 0.0374287 -0.0607047 -0.148131 
-0.00139453 0.0102183 -0.0118433 0.00621982 
-0.00206107 -0.0203823 0.130435 -0.0220178 
-0.00478622 0.0560656 -0.0154986 0.188388 
-0.00757838 0.0921306 -0.0968298 -0.116978 
-0.0156726 0.0366138 0.08034 -0.276173 
-0.00390661 0.095728 -0.0751996 -0.134921 
0.0152306 0.0610028 -0.059978 -0.178369 
-0.0055912 0.0145177 -0.0139852 0.0798331 
-0.0123363 0.000990934 -0.01815 -0.0157406 
0.00767532 0.0865644 0.0347685 -0.258515 
0.00148748 0.0244935 0.0322293 -0.183328 
-0.00984132 0.0571401 0.034676 0.309581 
0.00282804 0.00549543 0.0716475 0.00492194 
0.00203245 0.0653506 -0.0677123 -0.136241 
-0.00720484 0.0329873 0.0289547 0.210577 
-0.0137653 0.00702993 -0.0139956 -0.0270685 
0.0138626 0.0706967 -0.0273236 -0.223039 
0.0110501 -0.0224903 0.00975023 -0.10904 
0.00417814 0.0135511 -0.0066915 -0.0592314 
-0.0144348 0.00735486 -0.0277168 0.00905273 
-0.00221564 0.0181269 0.125555 0.00311802 
-0.01564 -0.0163704 0.0336566 -0.067038 
-0.0125516 -0.0167025 -0.00434786 -0.0117144 
0.0111918 0.110206 0.0206976 -0.266901 
0.00759945 0.000443339 -0.0211006 -0.0553972 
-0.0131123 0.00843075 -0.0150583 0.0326053 
-0.0104475 0.0349482 0.0311107 -0.0456313 
0.0133062 0.0177747 0.104605 -0.209398 
-0.00777738 0.104102 -0.122017 -0.156702 
-0.0138205 0.00550819 -0.0150971 0.000161949 
-0.0023059 0.0612978 -0.0758329 -0.212148 
0.00833256 0.166413 -0.00667039 -0.199599 
0.00746864 0.0171102 0.0550434 -0.228951 
0.0145747 0.0799599 -0.0921201 -0.10531 
0.00357226 0.018223 -0.0139665 -0.0759869 
0.008335 0.0333426 0.0715644 -0.296044 
0.00558178 -0.00699407 -0.0271232 -0.0100306 
-0.00697301 0.0317999 0.0381914 -0.0796942 
-0.00406084 -0.00899422 -0.0237524 -0.00767077 
0.0144757 0.118963 0.00876368 0.263778 
0.00920376 0.0732267 -0.0324493 -0.186515 
-0.0115216 -0.00443039 0.0374723 0.0481839 
-0.00916476 0.113853 0.0378285 -0.143485 
0.000708983 0.0025754 0.0801303 -0.195307 
0.00275951 0.0143511 0.124556 0.0184887 
-0.00680299 0.103336 -0.089821 -0.127753 
-0.00990238 0.0428512 0.0126199 -0.0738542 
0.00840974 0.0228869 0.071839 0.107591 
-0.00469974 -0.00947498 0.0552337 -0.122215 
-0.000198785 0.0580268 0.00105934 0.344743 
0.0037407 0.109917 0.0261838 -0.256975 
0.0114787 0.00271272 -0.0124138 0.00833737 
-0.00860872 0.0546561 -0.0694068 -0.176573 
-0.00660925 0.0339211 -0.0308213 -0.0622404 
0.00122903 0.0154765 -0.00202466 -0.0986664 
0.00117859 0.0186699 0.0450949 -0.107921 
0.0116724 0.112691 0.059641 -0.139516 
0.000885369 0.0208707 0.0374112 -0.246042 
-0.00732791 0.0183706 -0.105324 0.116862 
0.00856703 -0.00543414 0.0717237 -0.151105 
-0.0118476 0.0112861 -0.00435787 -0.0251722 
0.0109129 0.0713646 0.0360661 0.293075 
0.00885729 0.0977949 -0.0949433 -0.0710899 
-0.0155748 0.00863807 -0.0132927 -0.0327731 
0.0106767 0.0505285 -0.053035 -0.0786609 
-0.00587164 0.0111198 0.00284756 0.079727 
-0.00111444 0.0351992 -0.0137943 -0.0301665 
0.00449943 0.0156964 0.113699 -0.0674783 
-0.00775311 0.0240664 0.102164 -0.225552 
0.00272268 0.0266318 0.0143667 0.361605 
0.00353991 0.0713448 0.00601292 0.188444 
0.0120588 0.00574927 -0.00951667 0.109514 
0.00496793 0.0153078 -0.00944176 -0.0573705 
-0.00375147 0.0191754 0.0813965 -0.123853 
0.00246246 0.0575131 -0.0234946 0.181984 
0.00390638 0.0568797 0.0205907 0.218253 
-0.00876633 0.000946003 0.074084 -0.186691 
-0.00642691 0.0486429 -0.040429 -0.0262715 
0.0125944 -0.0250914 -0.0282394 0.0349556 
-0.0140649 -0.0345322 0.026073 -0.060612 
0.0136664 -0.00374247 0.0232832 -0.0491374 
-0.00569451 -0.00469506 -0.00585026 -0.0393602 
0.00183538 0.126029 0.0277565 -0.156332 
0.00601983 0.0160309 0.116889 -0.10123 
-0.00490973 0.117663 0.012937 0.262121 
0.0101265 -0.0313572 -0.0146954 -0.0177961 
-0.0121419 0.0335202 0.00925739 -0.125938 
-0.0112851 -0.0252376 0.118369 -0.248543 
0.00600162 0.00559359 -0.000656917 -0.0557219 
0.0129526 0.0098449 0.0652666 0.0780406 
0.0130259 -0.0221615 0.0643033 -0.129067 
-0.0101434 0.152808 0.0491472 -0.160792 
-0.0126803 0.0599242 -0.0595213 -0.148941 
-0.00235493 0.0105907 0.00348043 -0.06627 
0.0108494 -0.0124651 0.00727447 -0.00891143 
-0.00733343 0.0827769 0.0380413 0.03514 
-0.00789212 0.0504839 -0.167494 0.182112 
-0.00925345 0.0270126 0.0731621 -0.25186 
-0.0154604 0.000717022 0.0494008 -0.116441 
-0.00644554 0.0999082 0.0319029 -0.282442 
0.00658397 0.170366 -0.00997049 -0.289319 
0.00692551 -0.0211061 -0.00425059 -0.00934624 
-0.00829908 -0.000672617 0.0218178 -0.0499982 
-0.0140891 0.0604366 -0.0591017 -0.180672 
-0.00601603 0.0214524 0.0110206 0.0962186 
-0.00239136 -0.0419979 0.0104403 -0.0498964 
0.001862 0.0087411 0.100958 0.023391 
0.00978424 0.0198782 -0.0241989 -0.0572134 
-0.00284161 0.0699222 -0.0032897 0.182843 
0.00332933 0.029796 -0.0387565 0.208739 
0.0101902 0.118216 -0.00594196 0.249903 
-0.0148589 0.0211197 0.0595089 -0.138569 
-0.00483984 0.0195583 0.115468 -0.00293122 
0.0096135 0.0218629 0.0528682 -0.245418 
-0.0149122 0.0888136 0.0749016 0.258123 
-0.00589304 0.00258918 0.0468432 -0.0729676 
-0.0123984 -0.0155845 -0.00426123 -0.0197989 
-0.00116792 0.142679 0.0144822 -0.208487 
0.0121423 0.0306788 0.0837545 -0.0440468 
0.0093886 0.123016 0.0423511 -0.162529 
-0.0140009 0.0319869 0.112724 0.198428 
0.00746728 0.00720413 0.114689 -0.11055 
-0.0147023 0.0795123 0.0490003 0.383196 
-0.0155783 0.0421207 -0.0234303 0.165672 
-0.0136082 -0.00583156 0.040401 -0.0717295 
0.000949574 0.085229 -0.0792411 -0.256227 
-0.00188593 -0.00539737 0.0487624 -0.0690586 
-0.00368515 0.0817172 -0.0762688 -0.0948462 
0.00983892 0.0649903 -0.0895429 -0.22475 
0.0027245 0.0497385 -0.0508686 -0.056039 
-0.0133506 0.0747604 -0.077461 -0.118955 
0.0148137 0.0163237 -0.0428076 -0.100628 
-0.0132374 0.096468 0.0047131 0.231746 
0.000346424 0.102273 -0.0181575 0.207747 
-0.00197493 0.0897584 0.00322233 -0.159531 
-0.0136039 0.0562527 0.03994 0.180277 
-0.0123021 0.0619048 0.0850019 0.200711 
-0.00991356 0.0837313 -0.062612 -0.199541 
0.00926218 0.0602949 -0.0169607 0.188802 
-0.0014521 0.117338 0.0724027 -0.142322 
0.00282253 0.0860616 -0.00880001 -0.146722 
0.011334 0.0486525 -0.0190295 0.142408 
0.00425135 0.0295138 0.00788168 -0.0661029 
0.0146655 0.059197 -0.0659735 -0.20896 
-0.0143265 0.0124901 -0.00156766 0.123624 
0.0130827 -0.0145563 -0.027764 -0.0117545 
-9.06356e-05 0.173185 -0.162305 -0.242999 
-0.00352749 0.054852 0.117623 0.251744 
0.00845549 0.0741835 -0.0333617 -0.00680198 
0.0149458 0.0288658 0.000818926 0.150936 
-0.00257218 -0.00306352 0.00332593 -0.0753784 
0.000723483 0.0340273 -0.000940742 -0.0304871 
-0.0131495 0.00274504 0.0901031 -0.0868495 
-0.00172332 0.023231 -0.0301077 -0.0560017 
-0.0112183 -0.0155737 0.00946785 -0.041655 
0.00145838 0.114339 0.057371 -0.133577 
-0.00591255 0.0614179 0.0148814 0.134357 
0.00802602 0.145692 0.0376082 -0.300329 
-0.0152164 0.0563386 -0.0685702 -0.18566 
-0.00787271 0.0874069 -0.10318 -0.0972693 
-0.00164669 0.0415497 0.0563937 0.136086 
-0.00872675 -0.00412214 0.0679482 -0.0453132 
-0.0056365 0.027121 0.0431596 -0.0021565 
-0.00134207 0.0495134 0.0837775 0.201583 
-0.0139659 -0.0014366 -0.027086 -0.0449339 
-0.010701 0.0220446 -0.0208812 -0.0540346 
-0.00720463 0.0143906 0.008814 0.0156641 
0.00870681 0.0181393 0.0480277 -0.146215 
0.00827959 0.144105 -0.16459 -0.20323 
-0.00587425 -0.0117008 -0.0109913 -0.043604 
0.0140486 0.018896 0.0410461 -0.165035 
0.00788983 0.0891134 -0.0188998 0.151102 
-0.0160479 0.0938701 0.0474667 -0.145745 
-0.00875902 0.156718 -0.140456 -0.164029 
-0.00576801 0.0526491 -0.0155959 0.18106 
-0.0155499 0.028112 0.056276 -0.0820363 
-0.0105187 -0.000851832 0.0367765 -0.00694019 
0.00142028 0.0312923 -0.00818687 -0.0778596 
-0.000392608 0.0284141 0.0731118 -0.261889 
-0.00143337 0.0733293 -0.0146693 0.191472 
-0.00402468 0.098874 0.0514586 -0.260997 
-0.0038161 0.0286093 -0.012788 -0.0940859 
-0.010133 -0.0329795 0.0317211 -0.0662153 
-0.0125332 -0.0111984 0.0273923 -0.0766166 
0.00634809 0.0124961 0.0409898 -0.0696624 
0.0152792 0.0582017 0.00390464 0.130493 
0.00172347 0.09551 0.0126991 -0.152462 
0.0104983 0.024786 0.101267 -0.198439 
0.00131249 -0.00348904 0.0507038 -0.00835617 
-0.010206 0.159722 -0.119535 -0.189642 
-0.0107815 0.0259269 -0.0496476 0.101593 
0.00637715 0.0751136 -0.018685 0.334036 
-0.00483549 0.0470235 -0.00418935 0.158897 
-0.010356 0.0327709 0.0783987 -0.190347 
-0.00824417 0.0788131 -0.0829233 -0.167895 
-0.0039994 0.0893635 -0.115361 -0.143355 
-0.00414889 -0.0152139 0.0122749 -0.0234364 
-0.00885667 0.0265883 0.0660616 -0.189077 
-0.0133872 0.00983764 0.100566 -0.20832 
-0.0139611 -0.0133603 0.0538451 -0.0126291 
-0.00054415 0.145334 -0.133921 -0.179856 
-0.00032993 0.0796968 -0.00578784 0.153885 
-0.0120233 0.0382114 -0.0437975 -0.0584498 
-0.00384218 -0.0120758 0.0646279 -0.146624 
-0.00184557 0.0560403 0.0322905 -0.195197 
0.0121814 0.0110957 -0.018273 -0.0387238 
0.00824287 0.092644 0.0596782 -0.241969 
0.0137472 0.0436288 -0.0827977 -0.121715 
-0.0153744 0.00596553 -0.0236935 -0.0136162 
0.000776357 0.112046 0.00865745 -0.2142 
0.00647035 0.0303349 -0.0141224 0.242005 
-0.0051767 0.00907996 0.0261825 0.00967961 
-0.0161267 0.0738084 0.0463771 -0.136161 
-0.000402571 -0.0060606 0.000685453 -0.0245166 
-0.0079792 0.0073428 0.0796872 -0.188464 
0.00711237 -0.00882771 -0.00957145 -0.0182191 
-0.00706054 0.103951 -0.122229 -0.141393 
-0.00376882 0.113986 0.00811101 -0.235929 
0.00394108 0.0120689 -0.0336064 0.0285549 
-0.00456612 0.0225306 0.0618378 -0.251801 
-0.00503369 0.0419739 0.0523438 -0.275547 
0.00692021 0.0551801 0.00202387 -0.151898 
0.0114312 3.50923e-05 0.0797128 -0.199504 
0.00132699 0.0484871 0.0377827 0.021216 
0.00678287 0.0242659 -0.00571099 0.123325 
-0.0117566 -0.0200544 0.0554453 -0.132317 
0.0106026 0.0249596 0.0820532 -0.260374 
0.00118027 0.0879204 0.0357025 -0.136082 
0.00503595 0.0911205 0.0464445 0.316609 
-0.0134035 0.139163 -0.00699338 0.233963 
-0.0123881 0.0215782 -0.0194352 -0.0521407 
2.25575e-05 0.0678717 0.0292498 0.180797 
0.00127148 0.00335714 0.0567478 -0.0681968 
-0.00584676 0.019404 -0.0784505 0.0869383 
0.0150667 0.00911239 -0.0312238 -0.0637045 
0.00502889 0.0611049 -0.0133228 -0.119924 
0.0103468 -0.0142071 0.112779 -0.235002 
-0.0120162 -0.0319292 0.0402762 -0.0773299 
0.00795675 0.0916523 0.0375116 -0.258071 
-0.00428877 0.00422373 0.0875551 -0.0179173 
0.000944156 0.0829989 -0.0739442 -0.0885399 
-0.00480826 0.0165459 0.00288442 -0.112349 
-0.00919351 0.0247798 0.00318176 -0.0890593 
-0.00426349 0.0439593 -0.0800237 -0.156851 
0.00404013 0.0315877 -0.0271021 -0.0261308 
-0.0118669 -0.0220379 -0.00606402 -0.0421463 
0.000178847 0.0887067 -0.0496387 0.149344 
-0.00730791 0.0184139 0.10662 -0.0940269 
-0.000665761 0.0239232 0.0206592 -0.0932185 
-0.0029528 -0.00104383 0.0430105 -0.103373 
-0.0128425 0.0556934 0.017892 -0.171033 
0.000894637 0.121074 -0.0968601 -0.152873 
0.0076113 0.0639172 0.016703 0.327178 
0.0142091 0.0968876 0.0132172 -0.0872523 
0.00956356 0.0318948 0.0453112 -0.244917 
0.00398976 0.0549007 0.0280701 -0.196926 
-0.000310989 0.149783 -0.0261972 0.277684 
-0.00772168 0.00837097 0.0659947 -0.196427 
-0.00337585 0.0784396 0.00832807 0.219656 
0.0110736 0.115856 0.0316558 -0.137481 
-0.00209347 0.0774842 0.0025189 0.20233 
0.0147945 -0.00797549 -0.00556707 -0.036607 
-0.00630779 -0.0122063 -0.0155803 -0.0286618 
-0.00620536 -0.00451841 -0.0257839 -0.00906472 
-0.00497671 0.081401 0.064797 -0.151244 
-0.00587009 0.00405433 0.0946807 -0.10459 
-0.00445746 0.140341 -0.125056 -0.182472 
-0.00473039 0.0994474 0.109929 0.341715 
0.00944838 0.0455292 0.0199913 0.200572 
0.00863751 0.0132051 0.0151277 -0.125387 
-0.00853529 0.0202297 -0.00540215 -0.0930145 
-0.00640354 -0.0266847 -0.0140187 -0.00651246 
-0.010039 0.0393406 -0.0097912 -0.102479 
-0.00521153 0.0727615 -0.0149913 0.201866 
-0.0118468 0.0199933 0.118603 -0.161911 
0.00435236 0.0580729 -0.0175859 0.155708 
-0.00537604 0.115747 -0.0971353 -0.145612 
0.000387732 0.0746926 -0.0449792 0.129527 
-0.00463079 -0.0230309 -0.0148591 0.00798767 
-0.00194225 0.076733 -0.0899063 -0.139692 
0.00560582 0.163482 -0.158383 -0.233102 
0.0141302 0.0398327 -0.0400901 -0.0514422 
-0.00654492 0.00879396 -0.0162214 0.0140343 
0.00248956 0.0822031 0.033386 0.273349 
-0.00548799 0.0979603 0.0248738 0.335685 
-0.000207505 -0.00447842 -0.0228672 -0.0190456 
0.00488727 0.0333649 0.0524191 -0.272216 
9.27513e-05 0.129681 0.0556426 -0.138733 
0.000103771 0.102184 -0.115744 -0.187023 
-0.00381331 0.00896977 0.187849 0.0119747 
0.006268 0.0344734 0.00593668 -0.0930272 
-0.0153846 0.14763 -0.139442 -0.167011 
0.00373014 0.111106 -0.100324 -0.144495 
0.00559639 0.00522792 0.011683 -0.00794222 
0.00707953 0.0296769 -0.0137731 0.146049 
-0.00425819 0.0445184 -0.0253554 -0.0760043 
-0.00855942 0.0614967 -0.0497665 -0.0450663 
0.00832951 0.131636 -0.00337427 -0.206169 
-0.0121814 -0.000156829 0.0867436 -0.166129 
0.0113667 -0.0316595 -0.0135508 -0.0101753 
-0.00347325 0.0180406 0.0551691 -0.238368 
0.0026628 0.0653126 0.0455583 -0.221795 
-0.0113246 0.115606 0.0917323 -0.112135 
-0.0102708 0.0479605 0.0186362 0.371649 
0.0105758 0.034608 -0.0454296 0.0672017 
0.00923474 0.0694818 0.0134498 -0.124944 
-0.00912014 0.0270815 -0.144531 0.131503 
0.015069 0.125218 0.00748696 -0.13086 
-0.00304828 0.0810714 0.00075852 0.204124 
0.0114853 0.076224 -0.0813422 -0.113653 
0.0105994 0.132682 -0.103773 -0.160461 
0.0152086 0.0747276 0.0227963 -0.239783 
0.0123477 0.0315943 0.0200689 -0.102133 
0.0108231 0.00601565 0.0256462 -0.122535 
-0.0017127 0.0189723 0.0964562 -0.222531 
-0.00218505 0.0686378 0.00113596 0.177136 
0.014131 0.0606171 -0.046409 -0.0791003 
-0.0089258 0.116549 0.0979668 -0.146952 
-0.0139422 0.0218215 0.0209923 -0.21485 
0.000594125 0.0719527 -0.0646366 -0.217443 
-0.0107485 0.00465619 0.0286262 -0.200957 
0.0117676 0.195926 -0.181228 -0.250164 
0.00359684 0.061624 -0.04458 -0.210497 
0.0147239 0.140269 0.00812457 0.269939 
0.0151816 0.101339 -0.0637274 -0.263079 
0.0113074 0.102504 -0.104043 -0.110264 
-0.00969464 0.0782628 0.00230137 0.272663 
-0.0114531 0.087721 -0.140575 0.191318 
-0.00881677 0.0689857 0.0226942 0.307032 
-0.0107561 0.0193484 -0.00386907 -0.0320991 
0.00421966 -0.00594505 0.0024396 -0.00211962 
-0.0160046 0.178866 -0.139609 -0.234014 
-0.00214317 0.020532 -0.0542852 0.169205 
-0.0123786 0.0327084 -0.0137063 0.0945412 
-0.0140488 0.1183 0.0225788 -0.149657 
-0.0107764 0.00952436 0.0682383 -0.240684 
0.00186955 0.0395341 0.127691 -0.0271927 
-0.00772659 0.0407826 -0.0129837 0.172068 
-0.00381916 0.00767922 0.0929266 -0.116361 
-0.0132352 0.0711225 -0.0618264 -0.237402 
-0.00220151 0.0564815 0.0155478 0.320636 
-0.00869777 0.125748 0.0315568 -0.275697 
-0.00282426 0.0314411 -0.012818 -0.00809694 
-0.0108318 -0.00609567 0.151961 0.0165811 
0.012357 0.00996341 0.053538 -0.102779 
0.00239521 0.0184322 -0.0190731 0.0339902 
-0.00620069 -0.0042521 -0.0114216 -0.0186416 
0.0033763 0.0200555 0.0797119 -0.149831 
-0.00377935 0.0604205 -0.0151731 -0.141966 
0.013477 -0.0031657 0.039188 -0.0647815 
-0.00325418 -0.000323081 0.0984145 -0.190337 
-0.000209829 0.0816334 -0.0795363 -0.194033 
-0.0020427 -0.0100836 0.0359752 -0.0835444 
0.00569711 0.0469912 0.00618001 0.13677 
-0.0109921 0.0371325 -0.0530806 -0.0514986 
-0.0133551 0.0150613 0.11151 -0.170843 
-0.0117244 0.0664204 -0.190068 0.228842 
0.0142006 0.0148156 -0.00738975 -0.00804831 
-0.00178351 0.0400363 0.056282 -0.196621 
-0.00811015 0.0528136 0.0313905 -0.124654 
0.0145588 0.130096 0.00522144 0.236392 
0.00134767 0.00161934 0.0908803 0.0612782 
-0.0143983 0.0340895 -0.0320505 0.312114 
-0.00491705 0.0299008 -0.00287428 0.266156 
0.0078026 0.0777213 -0.036824 0.348368 
0.0047913 0.142688 0.0373364 -0.137341 
-0.00614719 0.113886 -0.14546 -0.145517 
-0.00601291 0.0530607 -0.0153728 0.154393 
-0.00343133 0.0124442 0.172615 0.0212454 
0.00909452 0.110249 0.00499381 0.253208 
0.00300028 0.0156543 -0.0627617 0.120249 
-0.00250219 0.182307 0.0112707 -0.27827 
-0.00614805 0.0839278 0.0164289 0.209318 
-0.0157882 -0.000204834 0.0242329 -0.15869 
-0.011581 0.0103528 0.118516 -0.0510642 
0.00508948 0.0612042 -0.0495999 -0.204444 
-0.00674637 0.0738313 -0.0770727 -0.186399 
-0.00904385 0.0593417 0.0940236 0.193523 
0.00687861 0.101799 -0.0831825 -0.152408 
0.00243937 0.101989 -0.00850737 0.209094 
-0.0065022 0.0264372 0.025514 -0.10971 
-0.0046967 0.0731877 -0.0638076 -0.201623 
-0.00962714 0.0280237 0.00107685 -0.0465386 
0.00850466 0.0681578 0.0432415 0.324013 
-0.00705465 0.151876 -0.140449 -0.172529 
0.00176364 -0.0123439 0.0231943 -0.0893155 
-0.0130906 0.0255725 0.0271824 0.330827 
-0.00353332 0.0859802 0.0479801 0.306819 
-0.0125132 0.0313349 0.0268204 0.230882 
-0.00206036 0.0296203 0.171479 -0.0624273 
-0.010677 0.0727471 -0.0170692 0.21311 
0.0011721 0.0751576 0.0215291 0.312453 
-0.00355002 0.0505954 0.0794619 0.197553 
-0.0032973 0.0936258 -0.0875996 -0.12265 
0.00963274 0.0139231 0.0519494 -0.12199 
0.00059914 0.0426199 0.113503 0.18131 
-0.00952257 0.0834478 -0.0805262 -0.0879488 
0.0014049 -0.01866 0.090168 -0.00737413 
0.0145068 0.0872646 -0.0664181 0.285927 
-0.00785021 0.119765 -0.126021 -0.172013 
-0.0155054 0.000411462 0.0566466 -0.115537 
-0.00222148 0.0788888 -0.0597192 -0.117765 
0.00148191 0.0958802 -0.1149 -0.15145 
0.0114653 0.102874 -0.107119 -0.158155 
-0.00569784 0.0193348 0.0966994 -0.188711 
0.013424 0.0199292 0.212724 0.00189554 
0.010575 0.0694259 0.00118919 -0.105306 
-0.0141359 -0.0049699 0.0365085 -0.0717787 
0.00321728 0.0888961 0.0616662 -0.107592 
-0.00805953 0.124552 0.0194492 -0.26675 
0.00106058 0.0892919 -0.0652882 -0.124891 
-0.00781557 0.0928516 0.00199333 0.186702 
-0.000880777 -0.00805408 -0.00511356 -0.0142051 
-0.00638813 0.00216562 0.00499915 -0.0715536 
-0.00367841 0.0963467 0.0207388 -0.183277 
0.00554472 -0.00312536 0.0284234 -0.0746667 
-0.00345565 0.0250237 -0.0472822 -0.0446256 
-0.00176684 0.0421537 0.107564 -0.11528 
0.00122778 0.0568285 -0.00165173 0.12818 
-0.0150554 0.0229761 -0.0164858 -0.0198438 
-0.00864312 0.0140059 0.0601834 -0.171186 
0.0139358 0.0133328 0.0582846 -0.227945 
-0.0146391 0.0953369 -0.0468849 -0.23301 
0.0131537 0.063536 0.0355639 0.281639 
-0.00536268 0.125438 -0.139048 -0.132867 
-0.0119937 0.015952 0.152915 -0.0428034 
0.0110962 -0.0165291 -0.0111064 -0.0312358 
-0.00965368 0.0402759 -0.0340012 -0.0903772 
0.00555965 0.0196866 0.0316591 -0.0773422 
9.19954e-05 0.0347782 0.0257646 -0.0420193 
0.00131485 0.0546338 -0.0354874 0.118048 
-0.0117989 -0.00504709 0.0273046 0.00409124 
0.00657428 0.0227894 0.0466708 -0.0642708 
-0.00622267 0.0666522 0.0192668 -0.240414 
-0.0063432 0.0506089 -0.0586503 0.0795615 
0.00822333 0.00614482 0.0721344 -0.137192 
0.00660512 0.0464856 -0.113292 0.120446 
-0.00017621 -0.0302472 0.0371329 -0.0772436 
0.0123003 0.000811202 0.00140217 -0.0800888 
-0.00451274 0.12658 0.00764475 -0.243958 
-0.010107 0.0432235 -0.0259114 -0.0709874 
0.0106896 -0.00823487 0.000112543 -0.00154129 
-0.00520589 0.0516568 -0.0427744 0.11247 
-0.0109872 0.0148563 0.0991808 -0.101144 
-0.00246959 0.0643036 -0.0655077 0.238918 
0.0090214 0.000288214 -0.0289822 0.0109809 
0.0131535 0.00770975 0.011281 -0.0114865 
0.0119835 0.0219628 -0.036669 -0.0604314 
-0.0148751 -0.00882749 -0.0138125 -0.0287882 
0.0042833 -0.00353459 0.0633524 -0.161142 
0.0136359 0.034481 0.0207119 -0.233733 
-0.00841869 0.0253942 0.0769485 0.113445 
-0.00527683 0.00160806 0.0451968 0.215419 
0.0131138 0.00598963 0.0177379 -0.0662217 
-0.0106058 0.0247685 -0.0415428 -0.0699248 
0.011284 0.0537045 0.0177494 0.20007 
0.00764087 0.0113135 0.0558963 -0.10458 
0.0132244 0.0374199 0.0947089 -0.0772573 
-0.000486861 0.014013 0.165966 0.0111024 
-0.0103392 0.0387283 -0.00101436 -0.0374256 
-0.0159629 -0.019778 -0.0216266 -0.0815401 
0.0044632 0.0289741 -0.0305289 -0.0821527 
-0.0117475 0.0242525 0.112746 -0.217459 
-0.0021641 0.101848 0.0270531 -0.234486 
0.00623767 0.0516558 0.0742429 0.156127 
0.000879933 0.012017 0.0364222 -0.196191 
0.000685475 0.0178958 0.114663 -0.00222767 
-0.00283865 0.0464898 -0.030382 0.331269 
-0.0114524 0.077266 0.0218785 0.230012 
-0.00273289 0.0937199 0.0283271 -0.242986 
-0.0118422 0.117 0.025811 -0.270437 
-0.000467581 0.00659577 -0.0165494 0.0246615 
-0.00854228 -0.00267671 0.010256 -0.0747514 
-0.0037001 0.000382487 0.121224 0.0234785 
0.00993414 -0.00141748 0.00128323 -0.00908859 
0.00479733 0.0664539 -0.0208667 -0.171497 
0.00545689 -0.00993814 0.0605623 -0.122205 
-0.00677374 0.128259 0.0123499 -0.18943 
0.00606055 0.0789769 0.0541412 -0.31388 
0.00882103 0.0415751 0.0216514 -0.188473 
-0.0131922 -0.016699 0.0914564 -0.189241 
0.00154798 0.0987858 -0.0318355 0.187852 
-0.0118148 0.0940822 0.0382299 0.294333 
0.00861127 0.0218545 0.0142809 0.196167 
-0.00238802 0.00507495 -0.0296151 -0.0379755 
-0.00262503 -0.00172399 -0.0281972 0.00131741 
0.000669351 -0.0110006 -0.0147046 -0.0656786 
0.0108805 -0.0160168 -0.0153656 0.0110524 
0.0134479 -0.0138212 0.0681719 -0.00795878 
0.00846227 0.0698504 0.122077 0.240405 
0.00912166 0.0533361 0.0286142 0.266261 
0.0100545 0.0643085 -0.0394603 -0.201839 
0.000796031 0.039035 0.00566109 0.118049 
0.0131447 0.0251076 -0.00869444 0.189478 
-0.00754869 0.0124211 -0.00684626 -0.0620373 
-0.012478 0.00140956 0.0556378 -0.268771 
-0.0062539 0.0108962 0.10985 -0.231807 
-0.00512309 0.117956 -0.136115 -0.17421 
0.0105873 0.0696229 -0.0266756 0.360774 
-0.0143164 0.0497341 0.0349955 0.177915 
-0.000322498 0.109597 0.051642 0.346485 
-0.0130185 0.11733 0.0441329 -0.308356 
-0.0154622 0.107613 -0.0220476 -0.195054 
0.011518 0.00112661 -0.00734566 -0.00426021 
-0.0129066 0.046859 -0.0113179 0.107024 
-0.0135087 0.0519501 -0.0863512 -0.187131 
-0.0147907 0.0908017 0.0437546 -0.13596 
-0.00912179 0.121194 0.0079319 0.264466 
0.00172387 0.0367431 -0.0692571 -0.142974 
0.00938369 0.0417683 -0.0284323 0.347388 
0.00894643 0.00822195 0.126278 0.0109032 
-0.0141947 0.0465102 -0.0106605 -0.201049 
0.0104413 0.0289015 0.0474847 -0.230705 
-0.000676694 0.0966478 0.0254732 -0.20341 
0.0013592 0.0438309 0.0494167 -0.190402 
-0.0118706 -0.000902486 0.0641853 -0.139476 
0.00117849 0.074158 -0.0791619 -0.217064 
0.00635079 0.0240503 0.0130147 0.11965 
0.0113569 0.000871841 0.0665502 -0.101151 
-0.00573723 -0.0142819 0.0492836 -0.204895 
-0.0103099 0.0155002 -0.0139516 0.0295257 
0.00945062 0.192524 -0.173234 -0.221787 
-0.000422238 0.0978163 -0.11042 -0.257257 
-0.0107668 0.0575105 0.0329977 0.223277 
-0.0081842 0.0591803 0.017557 0.187716 
-0.0133714 0.0985062 0.0240785 -0.263014 
-0.000668935 0.0348488 0.034657 0.224283 
0.00350168 0.0474292 0.0369115 0.142783 
0.00136677 -0.00451185 -0.00182581 -0.0958291 
-0.0141595 0.0488996 0.0402852 0.19901 
-0.00128093 0.105181 -0.0442838 -0.24202 
-0.00011392 0.0436637 -0.0301161 0.255137 
-0.00879779 0.0956466 -0.0983972 -0.172239 
0.00781084 0.00919267 -0.00737209 -0.0413412 
0.00890797 -0.00279674 0.0346655 -0.0733655 
-0.0137746 0.110827 0.00448404 -0.217747 
-0.011901 0.174059 -0.15974 -0.241272 
-0.00751625 0.0667577 0.0257101 -0.122048 
0.00633863 0.119077 0.00143557 -0.215568 
-0.00061075 0.0169357 0.0447166 0.0638018 
-0.0109377 0.0624003 0.00475641 0.147106 
0.0120441 0.0811925 -0.0710452 -0.235948 
-0.00288132 0.0983397 0.032338 -0.15223 
-0.00738462 0.0577876 -0.0142243 0.152051 
0.012779 0.0182959 -0.0300039 -0.104369 
0.0145205 0.0981169 0.0311256 -0.203103 
-0.00655558 0.0172931 0.210032 -0.0476827 
0.0151642 0.124173 -0.0705976 0.224968 
0.00275574 0.0113262 0.0648681 -0.163053 
0.0103315 -0.00532542 0.0396311 -0.172095 
-0.00280717 0.0836757 0.0103042 0.188611 
0.00170388 0.0786259 -0.020894 0.139601 
-0.0129642 0.00844678 0.0775819 -0.177985 
-0.0155032 0.0629844 -0.058266 -0.0897344 
0.0101964 0.0214621 0.0536392 -0.212605 
0.000150572 0.093199 0.0409295 -0.113602 
-0.0125984 -0.0338711 -0.00723595 -0.0505476 
-0.00918088 0.140813 -0.11269 -0.146035 
-0.0127505 0.0303289 -0.0679761 -0.151649 
0.0135027 0.0407149 -0.0620398 -0.0984576 
-0.0144539 -0.0126265 0.0313014 -0.0867882 
-0.00562355 0.173154 -0.151124 -0.209599 
-0.00079492 0.00210108 -0.042452 0.0317572 
-0.0147306 0.120858 -0.0552858 -0.312687 
0.015354 0.0231853 -0.0384547 0.0207719 
0.00330795 0.0205735 -0.0123449 -0.0592734 
-0.00495849 0.0317998 -0.033066 -0.128521 
0.000921799 0.077172 -0.0328182 -0.21049 
-0.00665798 0.00729374 0.0972935 -0.228594 
-0.00795601 -0.0302246 0.00389075 -0.0177818 
-0.00117462 0.138846 0.056513 -0.151387 
0.00909513 0.0906909 0.0184417 -0.150849 
0.00549954 0.100608 -0.0793935 0.192736 
-0.0125964 0.15808 -0.135091 -0.194855 
-0.0153156 0.00340234 0.0533927 -0.00429158 
0.0133938 -0.0326169 0.0235054 -0.0813982 
-0.000771664 0.0263893 0.106772 -0.159886 
0.0100684 0.0110263 -0.0109324 0.00376005 
0.000183008 -0.0102219 -0.00960244 -0.0326396 
-0.0133465 0.0757248 0.0533897 0.283183 
-0.00592961 0.0065272 -0.027299 0.0560472 
0.0140429 -0.00313513 0.00993779 -0.0878021 
0.000969139 0.0174927 0.0972698 -0.134271 
0.00567896 0.098835 -0.0689405 -0.114933 
-0.00171157 0.00417995 0.00911887 -0.044032 
-0.00643629 0.00870692 0.0816098 -0.0802609 
0.00242645 0.000343736 0.0783627 0.0622022 
0.0151948 0.0564659 0.0100784 -0.171611 
-0.00481275 0.127013 0.0224912 -0.261969 
0.00363305 0.0606519 -0.0163667 0.165955 
-0.00822543 0.0899592 0.0902509 0.277126 
-0.00049488 0.0603425 -0.0834831 -0.0638439 
0.0142622 0.0779434 -0.00201359 -0.180345 
-0.00284625 0.0615585 -0.0162488 0.131509 
-0.00684129 0.127222 0.0210163 -0.282853 
-0.00238924 -0.0367172 0.0366359 -0.0853639 
0.00262641 0.0947971 -0.0625066 0.207414 
0.0137349 -0.00140772 -0.00709364 0.0053277 
-0.00854886 0.207035 -0.195103 -0.230966 
-0.00464984 0.111655 0.0205411 -0.262364 
-0.00680597 0.120563 0.00384294 0.236987 
0.00722273 0.124417 0.119952 -0.144986 
0.0106459 0.00625628 0.0287184 -0.13834 
-0.00296943 0.0749741 0.0397352 0.0285568 
-0.00911163 0.0551178 0.0162016 0.296036 
0.00300008 0.0265352 -0.0192301 0.147408 
0.00155075 0.0678039 0.0356601 -0.0794231 
0.00683948 0.140534 -0.145145 -0.19728 
-0.00831576 0.0429791 0.18388 -0.0376229 
-0.00164517 0.0880052 -0.0758577 -0.274855 
0.00618409 0.00569992 0.0885294 -0.179837 
-0.00710556 0.104488 -0.095655 -0.122713 
0.0110283 0.018324 0.0415381 -0.163967 
0.0116343 0.088841 0.0572474 -0.153609 
0.000763482 0.0168419 0.00259495 -0.0443383 
-0.0083683 0.0925251 -0.0868539 -0.11748 
-0.00171023 -0.00509591 0.10558 -0.0217883 
-0.00337889 0.0309664 0.0129046 -0.186615 
0.0114908 0.153425 0.0585569 -0.164702 
-0.00105969 0.016356 0.0969347 -0.102741 
0.0067582 -0.0141765 -0.00106929 -0.00713434 
-0.00309796 -0.0177974 -0.027088 -0.0838856 
-0.0144174 0.135748 -0.145029 -0.186849 
-0.0118998 0.0545669 -0.0677228 -0.121445 
0.000967478 0.0192452 0.150595 -0.0455739 
0.00846968 0.154815 -0.109166 -0.0884061 
-0.000327428 0.0515131 0.00202528 0.168222 
0.00599874 0.0982257 0.00133752 -0.186903 
0.0135137 -0.0224457 -0.0241548 0.00868358 
-0.00900807 0.0576444 -0.00728454 0.159306 
0.0046601 0.0254963 0.0361688 -0.137659 
-0.0138004 -0.00216649 -0.0120508 -0.0615682 
0.00358673 0.0883399 -0.00523422 0.195023 
0.00119984 0.0476815 -0.0599426 -0.144115 
0.0123866 0.0173378 0.055961 -0.093593 
0.000586428 0.104693 -0.0359344 0.206253 
-0.00395822 -0.0150141 0.0792772 -0.106979 
-0.00842046 0.0104688 0.0114842 0.0452653 
0.00587367 0.0282621 0.0824325 -0.218846 
0.00885436 -0.0125536 0.0332713 -0.0949349 
0.0119678 0.0723802 0.0291224 0.259633 
3.41604e-05 0.0965454 0.0454844 0.30116 
0.0109972 0.115358 -0.0184115 0.271209 
0.00829496 0.108989 0.0136959 0.264021 
-0.0121117 0.0786506 0.0295528 0.297241 
0.00976859 -0.0181889 0.0259698 -0.0611507 
-0.0153242 0.123247 -0.0992557 -0.114919 
0.014712 0.131644 -0.013085 0.253644 
0.00217493 -0.00955086 -0.0116875 -0.0749749 
0.0124411 0.0977984 -0.0805305 -0.0429337 
-0.00705753 0.0266579 -0.0222693 0.130774 
0.00376212 0.0976892 -0.0100958 -0.11279 
0.00444361 0.00419317 0.0105396 -0.0619328 
2.77649e-05 0.0768688 0.0186873 0.167514 
-0.00705488 0.0533444 0.0195962 0.289019 
0.0140076 0.00699399 0.0323091 -0.0878865 
0.0015878 0.020995 0.0678051 -0.197301 
-0.00788663 0.0796811 0.0169881 -0.226938 
0.0078643 0.0684164 0.132211 0.25959 
-0.00442364 0.00432135 0.00179748 -0.0188552 
0.00508903 -0.0012936 0.0195149 -0.0933755 
0.00366411 0.0255172 0.0749185 -0.193838 
0.0083542 0.0521905 0.045685 -0.261981 
0.00189034 -0.0170389 0.0142696 -0.0442154 
0.00849888 -0.00902469 0.0413777 -0.0742702 
-0.0118981 0.0435075 -0.0200706 0.18481 
-0.0091338 0.0397053 -0.0705333 -0.0970649 
0.0119401 0.0413605 0.025083 0.217902 
0.00488326 -0.00304095 0.0727638 -0.178118 
0.00224702 0.0129266 0.0889532 0.00706118 
-0.00150165 0.107406 -0.019136 0.246493 
0.0062354 0.153507 -0.162988 -0.181256 
-0.00583692 0.0389333 -0.0253036 -0.036445 
0.00287664 0.0822429 -0.00695312 0.223046 
-0.00779044 0.159285 0.00209312 -0.283392 
-0.0151589 -0.000197663 -2.47734e-05 -0.0142001 
-0.0134225 0.0373398 0.098645 0.170888 
0.0111073 -0.0144935 0.011394 -0.085211 
0.00221253 0.0729404 -0.0964641 -0.264276 
-0.00153119 0.00418649 -0.0113676 0.013361 
-0.00806672 -0.0216566 0.0159761 -0.058624 
-0.00138524 0.107046 -0.110035 -0.124596 
-0.010463 -0.0229636 0.018906 -0.0534294 
