-0.13119 0.00464954 -0.00612848 0.0200675 -0.0102192 -0.0949165 0.00690848 -0.00413077 -0.0120278 -0.168332 -0.028342 0.0195896 -0.139863 -0.0998086 -0.153434 -0.0116834 -0.0584651 -0.0724507 -0.102173 -0.00368271 -0.0130626 -0.125176 -0.135378 -0.126179 0.0153509 -0.129563 -0.10193 -0.134931 -0.17172 -0.0163543 -0.140719 -0.1219 0.0127583 -0.00561647 0.00528673 -0.00384347 -0.0299643 -0.0128498 -0.0278721 -0.00765266 -0.0381539 -0.0907554 0.0121343 0.0217241 -0.138908 0.0202551 -0.00697007 -0.00937903 -0.0229487 -0.0115832 0.0157473 -0.0513675 -0.112967 -0.104523 -0.0074001 -0.0979641 -0.144412 -0.0503763 0.0166199 -0.142374 -0.0115766 -0.178182 -0.00765239 -0.107091 0.00307979 -0.107507 -0.0633859 -0.125995 -0.083221 -0.0610461 0.0143246 -0.027494 -0.0182606 -0.0120873 0.0271453 0.0125876 0.0028784 -0.00491724 -0.118759 -0.125441 -0.0664162 -0.132086 0.0146421 -0.00771589 -0.0148608 -0.0478713 -0.0668549 0.0198614 -0.0106469 -0.103731 -0.0114577 0.0165575 -0.0978393 0.0223512 -0.1031 0.0215975 -0.103696 -0.0198914 0.0117338 0.0250879 -0.0753835 -0.00980975 -0.158591 -0.0106627 -0.0253395 -0.137693 -0.00296562 -0.0777295 -0.0367044 -0.0106616 0.0199796 -0.0882477 0.00611221 0.00765447 -0.0554264 -0.0704171 -0.107852 0.00464541 -0.128558 0.0208775 -0.141259 -0.0116157 -0.00431093 -0.0051645 -0.0109375 -0.0131212 -0.105695 0.00273986 -0.00637144 -0.0548638 -0.0569363 0.00526625 -0.0012535 -0.0512564 -0.00868627 -0.0610158 -0.117043 -0.108265 -0.0208422 -0.00506309 -0.061921 -0.00876061 -0.0276642 -0.210368 0.0127805 -0.0976521 -0.0953266 -0.00479831 0.0160275 -0.159767 -0.0918565 -0.112194 -0.0499947 -0.0140667 -0.000687819 -0.0376536 -0.0379828 -0.0106966 0.0155697 0.0210024 -0.0532325 -0.0692786 -0.0117649 -0.0164851 -0.169131 -0.0141395 -0.0101851 -0.0949224 -0.0128303 -0.027068 -0.125131 -0.0246468 -0.0229267 -0.00987317 -0.0510352 -0.0108875 -0.117569 0.00321039 -0.011243 -0.0107482 -0.0506061 0.0185452 0.0136239 -0.0473726 -0.0638548 -0.178919 -0.0441268 0.0158746 0.00989688 -0.011316 0.00547199 -0.00662015 -0.11454 -0.0480875 -0.0164879 -0.106792 -0.0111226 -0.00988559 -0.0100521 -0.00720918 -0.0142005 -0.0959721 0.0214175 -0.148942 -0.00400343 -0.178246 -0.106129 -0.00704002 -0.00928112 0.00509287 -0.0917139 -0.0681914 0.0133377 0.00615255 0.0103187 -0.0454476 -0.0599059 -0.0584434 -0.0838059 -0.0782435 0.00187591 -0.00404095 -0.159451 -0.0118321 -0.110168 0.0110492 0.0141179 -0.00986029 -0.0774137 -0.0362078 -0.00840228 -0.196948 0.00725132 -0.00886861 -0.0329378 -0.0269479 -0.0886699 -0.0720207 -0.00899403 -0.0930265 -0.116676 0.0159434 -0.0164255 0.000796815 0.0206538 -0.0936925 -0.111234 -0.0316268 0.00991038 -0.00174879 -0.0607906 -0.0881361 -0.0524988 -0.0143667 -0.0320277 -0.00326654 -0.0826345 -0.0663565 -0.0869061 -0.0799543 -0.144477 -0.0447771 0.00963434 -0.10269 0.00347379 -0.113901 -0.0498622 -0.00706439 -0.00230723 -0.057658 -0.0132476 -0.133688 0.00914761 -0.0667905 -0.0454336 -0.112076 -0.00515438 -0.0828926 0.00792627 0.00711498 0.0263533 -0.0252781 0.0170042 -0.00950952 -0.118291 -0.0754269 -0.00779533 -0.138746 -0.00691054 -0.0677928 -0.00659062 -0.013574 0.0128446 -0.00588642 0.0238217 -0.147666 -0.106802 0.00689628 -0.00595147 -0.0160478 -0.147547 0.0249615 -0.135671 -0.00672764 -0.150633 -0.0412651 -0.0770269 -0.0163976 -0.117126 0.007879 0.0163256 -0.00973641 0.00589169 -0.0101584 -0.121607 -0.00700298 -0.0463717 -0.0207203 0.010414 -0.0110064 -0.00856021 -0.0635739 -0.123785 -0.00987761 -0.0889592 -0.0802863 -0.113255 -0.0975617 -0.132245 -0.00747004 -0.0160985 0.00582969 0.0238477 -0.106568 0.0107376 -0.171323 -0.0404611 -0.00249317 -0.0417027 -0.0603236 -0.0136929 -0.027382 -0.0120805 -0.0684639 0.00660917 -0.176912 -0.0741614 -0.0156863 0.00380818 -0.00941604 0.00680532 0.0110342 -0.109679 -0.00556176 -0.0511735 -0.100778 -0.00901999 -0.050105 -0.135041 -0.0111034 -0.0265087 0.00894046 -0.00789773 -0.0143432 -0.160966 0.0024327 -0.00482404 0.00906022 -0.168437 0.00924055 -0.0084436 -0.0120978 0.0182224 -0.175622 0.0180122 -0.00733668 -0.157941 -0.0149226 -0.0961626 -0.00436151 -0.0711177 0.00328745 -0.154401 -0.150714 -0.0384937 0.00804073 -0.00906089 -0.0220601 -0.0258232 0.00481962 -0.116589 -0.0951309 -0.00711631 -0.0155504 -0.0199879 -0.022125 0.00897571 0.0232263 -0.00173864 -0.0505078 -0.0984787 -0.0279763 0.0145642 0.0108694 -0.0257038 -0.0484069 -0.0609551 -0.00935268 -0.110303 -0.122055 -0.141764 -0.11679 -0.00204579 0.00538689 -0.0824033 -0.11548 0.00509402 -0.127628 0.0219879 -0.0167755 -0.0280254 -0.00926053 -0.00747538 -0.119459 0.0185629 -0.128312 0.00624234 -0.0980002 -0.111233 -0.0195195 -0.00683654 -0.00775606 -0.163003 -0.00772067 -0.00738767 -0.0121065 0.0133538 0.00534766 -0.0781375 -0.0758985 -0.00384347 -0.116212 -0.0144323 0.00442006 -0.00387758 -0.0330814 -0.00822647 -0.0230129 -0.0134865 -0.0251043 0.0118001 -0.0582778 0.00954183 0.00585662 0.00927792 0.0176358 -0.0195868 -0.00345509 -0.152352 -0.00892242 -0.11167 -0.00826351 -0.087165 -0.116363 -0.00158347 -0.017925 -0.00138808 -0.00696443 -0.00847938 -0.00358178 -0.0416934 0.0100703 -0.00380687 -0.103857 -0.117271 -0.0918577 -0.0784502 -0.131574 -0.0199584 -0.081434 0.00210761 -0.0598238 -0.0860413 -0.0501202 -0.0174445 -0.0271034 0.0041081 -0.122121 -0.0493775 -0.0123564 -0.0240655 0.00773042 -0.0493293 -0.116256 0.01396 -0.000164176 0.0246104 -0.0294263 0.0145283 -0.0432312 0.0202741 0.00993813 -0.120302 -0.0179531 -0.057312 -0.0747838 -0.00870513 -0.0171268 -0.00424941 -0.0114001 -0.0909987 -0.126907 0.00683502 -0.0112469 0.017266 0.0134383 -0.118817 -0.00675941 0.0187368 -0.186094 -0.0723028 -0.00806023 0.024738 -0.0591259 -0.00803985 -0.0360573 -0.0645433 -0.0824108 0.0208567 -0.0060988 0.00997439 -0.00898324 0.0179251 -0.0241343 -0.129191 0.021097 0.0206178 0.00837634 -0.131825 0.00662321 0.0055369 -0.0636229 -0.11187 -0.00791112 0.0132695 -0.0322955 -0.0896612 0.0150689 0.0176571 0.0015711 -0.0736713 0.0135282 -0.00906749 -0.10762 -0.0947475 0.0142219 -0.0460004 0.0143142 -0.058044 -0.00444855 -0.1392 -0.162931 -0.0585696 -0.0998294 -0.0469337 -0.0897007 0.0103211 -0.172515 -0.10954 0.0284716 -0.0818798 -0.0176082 -0.0101729 -0.0579857 -0.0249417 -0.0104743 -0.00264031 0.0271042 0.0125216 -0.135067 -0.0450903 0.0193266 -0.0153712 0.0256012 -0.00949777 -0.00574357 5.89826e-05 -0.155787 0.0114804 -0.0637968 -0.0138736 -0.0885215 0.0219797 -0.0147992 -0.139234 0.0158305 -0.0846805 -0.121318 -0.142114 -0.0832248 0.0204358 -0.00913705 0.000310873 -0.0399975 -0.0297711 0.0179528 -0.0669512 -0.100771 0.0172374 -0.0722977 -0.106329 -0.116005 -0.0820096 0.0155446 -0.00631724 0.016088 -0.075508 -0.110274 -0.0529981 -0.0015832 0.0113321 0.018848 -0.0918693 -0.0163193 -0.0715318 0.00578591 -0.0170082 0.020466 -0.151263 0.0240226 -0.00361632 0.0189211 -0.00960418 0.0248644 -0.0153555 -0.0478958 -0.086657 -0.0120252 -0.0659358 -0.0115291 -0.0188234 -0.126035 -0.00670628 -0.0856358 0.0267463 -0.00488228 0.0142602 -0.0424239 -0.134163 -0.0431673 0.0198801 -0.0716015 -0.10455 -0.00788974 -0.0209378 0.0132086 -0.0237576 -0.108766 -0.137623 -0.0586033 -0.0436016 -0.0632103 -0.0116957 -0.0235727 0.0141733 -0.0173969 0.0136254 0.0157488 -0.156634 0.00149475 0.00803513 -0.0186341 -0.117286 0.0104332 0.00727586 -0.122732 -0.142198 -0.00832162 -0.0487415 0.012667 -0.0238491 0.0204057 -0.141215 -0.0061025 -0.0944744 -0.0110093 -0.0203813 -0.016552 0.0113509 -0.0475186 0.0106997 -0.0890326 -0.00939515 0.00789198 -0.0525146 -0.0266601 -0.122656 -0.132759 -0.00448182 -0.0926891 0.0260359 -0.137851 0.0125354 0.0123269 0.0194192 -0.138155 -0.124538 -0.0572221 -0.0356042 -0.046983 -0.139815 -0.0107097 0.0068926 -0.0437018 -0.123865 -0.00910804 -0.0208576 -0.0103715 -0.054283 -0.00673817 -0.0664483 -0.0202303 -0.00221002 0.00983503 -0.0202471 -0.0109465 -0.0335432 -0.140362 0.0205931 -0.0598343 0.0103567 -0.0813344 0.0140182 -0.129783 0.0241947 -0.0638928 -0.0832807 0.00592317 -0.00231091 -0.126902 0.0150069 -0.0392512 -0.0400742 -0.0947199 0.0181672 -0.100309 -0.0809033 -0.0918493 -0.00749523 -0.0817251 -0.0703902 -0.0106865 -0.00645358 -0.00266169 -0.0108511 -0.0914706 -0.0482222 0.0197152 -0.133646 -0.0269757 -0.0165651 -0.148558 -0.144755 -0.0403043 0.0141507 0.0197298 -0.12985 0.0128212 -0.00682793 -0.0713049 -0.0155557 -0.0279824 -0.0223475 -0.107133 0.0100143 -0.0854374 -0.106629 0.00775169 -0.0172732 -0.121363 -0.0896827 0.0040621 -0.00943685 -0.0280567 0.016156 -0.10015 -0.00456021 -0.00347885 -0.0398642 -0.0106365 0.0216584 -0.0553203 0.00847175 -0.0176482 -0.0917157 -0.0188763 -0.0681596 0.0135997 -0.00393604 -0.122657 -0.0200609 -0.00757873 0.0211555 -0.0238329 -0.129233 0.00263763 -0.00547958 -0.023886 0.0229017 0.00171012 -0.0704231 -0.00755662 -0.0825645 -0.0154983 -0.0104696 -0.00797144 0.00602587 -0.00518298 -0.176161 -0.149088 -0.0712612 0.0103002 -0.0637097 0.00240971 -0.011088 0.00445122 -0.0200725 -0.00365922 -0.10763 -0.00903725 0.0124239 -0.0979142 -0.0537443 0.00417519 -0.0044095 -0.010572 -0.0031966 -0.138684 -0.147767 0.0172875 0.00773142 0.00764171 0.0185406 0.0135877 -0.00899637 0.00776707 -0.0196526 -0.102451 0.0155233 0.000860186 -0.0930899 -0.00514367 -0.0885723 -0.10237 -0.150263 -0.124848 -0.0853218 -0.0182437 0.00724806 -0.0527657 -0.124833 -0.0191137 0.023884 -0.00240526 0.0140536 -0.00563872 -0.182132 0.0132797 0.018009 -0.103292 0.0217544 -0.0159536 0.0196105 -0.0653426 -0.00751453 -0.0249565 -0.00501872 0.025054 -0.0937899 -0.0082236 -0.00833586 -0.00580737 -0.00453948 0.0200711 -0.120573 0.00760047 -0.20173 0.00904809 -0.0012241 -0.147284 -0.110345 -0.103281 -0.0304011 -0.0370454 -0.0487244 -0.128087 -0.00900644 -0.00612312 -0.0677351 -0.0610045 -0.0478836 -0.0132928 0.0266044 -0.0196331 -0.0696888 -0.0142162 -0.0155119 -0.0108905 -0.0547502 -0.00732127 -0.00530524 0.0193597 -0.00459254 -0.00771059 0.000192251 -0.0120891 -0.00415898 -0.00275595 -0.00777549 -0.0108955 -0.0616996 -0.00313577 0.0206785 -0.0917023 -0.00726482 -0.0208654 -0.0604627 0.00966054 -0.0046626 -0.111094 -0.0559545 -0.126484 0.0209617 0.0137543 -0.0273683 0.0208084 0.00328289 0.019028 -0.0361669 0.00124473 -0.139892 -0.0065572 0.0168035 -0.0343819 -0.117632 0.0174973 -0.0487888 0.00879752 0.0194567 -0.128815 -0.0362382 0.00462809 -0.0101814 0.011288 -0.0230573 -0.0562516 0.0127445 0.0120388 -0.0958653 0.00966463 -0.0483903 -0.00145691 -0.0840878 -0.00916566 -0.00639814 0.0142299 0.015542 0.0117733 -0.00576863 -0.0184864 -0.0503294 -0.0225884 -0.0210046 -0.138796 -0.00999062 -0.00766364 -0.0862119 -0.0727265 -0.0181414 -0.063268 -0.137448 0.019498 0.000741963 -0.118943 0.0119816 -0.0156957 -0.0315043 -0.0117985 -0.148209 0.0199387 -0.00986837 -0.0805684 -0.101162 -0.010287 -0.0976979 -0.00661789 0.0103486 -0.120477 -0.134948 0.0135516 -0.000401244 -0.0459028 -0.0845507 -0.140997 0.00410006 -0.0174339 -0.00494543 -0.0879713 -0.0546903 -0.110637 0.00286583 -0.092784 -0.123862 0.00260123 0.0119103 -0.217228 -0.0597891 -0.0119095 0.00407304 0.0133032 -0.00855432 -0.0116392 -0.0994529 -0.00300808 