0.104012 2.09159 1.18205 -0.865832 -0.620993 -0.190192 -1.64076 1.15555 -2.44471 1.52142 0.615722 2.50717 -1.07146 0.453318 -0.819283 -0.153305 -1.79362 0.462541 -0.0766933 -0.575038 -0.920742 0.691456 -0.816885 0.489743 -0.481555 -0.141581 0.545855 -0.407461 -1.29157 -0.646684 -1.59175 2.54461 2.04948 1.69612 0.731519 0.0400387 1.14573 -0.25996 -0.0849969 1.02869 -0.47065 0.649427 1.04137 -1.18175 0.349443 -0.424309 0.896121 -0.683198 -0.656518 0.849542 -0.920883 1.65807 -0.082525 -0.273182 -0.198584 2.70651 -0.456189 0.243646 -1.27552 -1.66608 -0.628404 -0.095497 -1.9197 -0.486666 1.20759 -0.151087 -1.31485 -0.534507 0.200102 -1.19528 -0.974896 0.0202681 0.160904 -1.69573 -0.0570667 1.34524 -2.36725 1.05485 0.155636 0.0985925 -0.0791313 3.23402 -0.702414 -0.966777 -0.0332967 -1.55388 -0.502995 1.53304 -1.19049 0.595712 -0.731643 0.590281 -0.81956 -0.774528 -1.06816 0.837007 1.28548 0.118603 -1.49303 -0.908042 -1.42102 -0.839981 0.0832006 0.366867 -1.35338 1.20407 -0.170683 -0.73118 -0.0571088 -1.10093 -0.669954 -0.193889 -0.47646 -0.878187 0.197657 1.00285 -0.280444 0.124785 2.03135 -0.0637389 -1.06996 -1.16435 -1.14618 -0.242607 1.02979 1.36319 0.190124 -0.204128 0.448073 2.00749 -1.64786 -0.107441 0.17995 -0.286429 2.49502 1.81401 0.151899 -0.368001 1.09614 1.12704 -0.567318 0.478459 -0.784642 0.936033 -0.741038 0.0503857 -0.128779 0.457196 -1.29789 -0.388525 1.57737 0.592976 -0.873229 -0.246947 0.367406 -1.13882 -0.349027 0.411288 -0.402057 0.621323 1.52166 0.352333 0.951369 -0.153205 -0.362629 -1.2702 0.696208 -0.894394 0.963161 0.274541 0.604846 -0.11615 -1.48743 0.114427 0.361662 -0.60973 1.09741 -1.49265 0.22567 -0.191837 -0.479853 -0.519291 -0.0343782 -0.559221 -1.09876 -1.24547 0.372312 0.154833 0.350595 0.624121 0.683374 -0.558394 0.467068 1.24559 -0.956831 0.101614 -0.809 -0.370985 0.456053 0.634366 0.0794075 0.248308 1.10926 -0.345993 0.909125 -0.140003 2.13583 0.607642 0.704737 0.400001 1.11832 -0.569372 1.47224 -0.179197 -0.0511062 -0.735374 1.19674 1.37089 -0.432468 -0.684592 -0.047777 -0.413869 0.286547 0.506931 0.437158 -0.119044 -0.238746 0.383869 1.01872 2.29263 1.10496 0.523842 -0.279739 -0.410929 1.09577 -0.248546 -1.22297 2.72912 -0.940562 -1.13612 2.15383 -1.43716 0.994468 -1.76162 -1.36548 1.16021 -1.74948 -1.77368 0.205103 -1.30835 -1.33197 0.254451 1.69863 0.0722776 1.15916 0.0774388 0.937599 -0.266766 0.913723 -4.02407 0.67604 -0.392932 -2.41106 0.151187 1.64009 1.24247 -1.43783 -0.269348 -0.214716 1.1037 -0.306058 1.03012 -2.42438 2.58659 -0.591488 -0.866569 0.739174 0.876928 -1.93067 -0.144445 -0.314055 1.4217 -0.166277 -1.38529 -0.858119 -1.13528 -0.340324 -1.48205 -0.344509 0.287832 1.7585 1.65564 -0.834142 0.126825 0.010632 0.260451 1.22649 1.81281 0.353381 0.646632 -0.387636 0.0148498 0.991551 -0.306015 0.62047 2.46941 0.150128 -1.81862 0.625922 -0.601162 -0.393016 -1.00036 0.181408 -0.0112862 1.21535 1.20025 -1.40763 1.6366 0.438721 0.474003 -1.25108 0.79212 -1.41519 0.913418 0.900584 -0.366521 -0.113509 2.34104 -0.338507 -1.58163 0.645993 -0.685845 1.43153 -1.37588 -0.332669 0.778611 0.482049 0.98881 0.786699 -0.311433 0.0761329 -0.495779 0.849866 -0.813979 -0.0839177 0.942435 -1.08497 -0.176084 0.603931 0.062954 -1.45638 -0.657343 0.376341 0.162023 0.129151 -0.368121 0.810068 0.584854 1.14307 -0.335777 1.2583 -0.569351 1.35151 -1.31441 -0.0750802 -0.694952 1.63689 -0.409659 0.556103 -0.230733 0.697228 0.0200226 0.63533 -1.71253 1.53451 1.40102 0.0436249 0.424366 1.51605 -1.11406 1.27564 -0.801093 -0.29949 -1.57688 -0.22951 1.14168 -1.48154 0.268059 0.629715 -0.0922496 -2.41922 -0.805925 0.297563 0.290608 -1.09156 -0.585875 -1.20752 -0.225124 -2.87359 1.27936 -0.885914 1.24963 1.27358 0.921339 0.464842 -0.81173 -2.30534 -2.34181 0.48116 1.44701 0.318958 -0.72877 0.94518 -0.633761 1.42897 -0.66408 0.855444 0.482256 0.142466 -0.158486 -0.517241 -0.875487 1.74605 0.146639 -0.819966 -1.09359 -0.684796 0.434365 0.382702 0.821886 -0.468405 -0.692885 -1.27586 0.269768 -0.216173 0.636103 2.30103 -0.685186 0.681186 1.69947 1.65649 0.0513141 -1.32738 -1.07074 -1.13441 -1.86966 0.111561 -0.682373 -1.11128 -1.41881 -0.954451 1.50958 0.168308 -1.17077 0.391029 1.19378 0.703164 1.38143 0.393632 0.339897 0.930611 0.309814 -1.41402 0.324581 2.0429 -0.280381 0.298129 0.578391 0.670162 0.704148 1.57003 0.449382 0.0711345 -0.917705 0.946156 1.08327 -0.604199 -1.04001 -0.184821 -1.37174 -1.69365 -1.28614 0.450133 1.17147 -0.553998 -0.40669 -0.844099 0.0242195 -0.528975 -0.237646 -0.664814 0.124765 -0.107365 -0.985655 -1.34596 0.288287 -0.172763 0.450026 -1.92604 -0.705858 -0.288263 -1.43144 -1.48954 -0.288674 -0.970158 0.74297 -0.250208 0.384587 -1.43047 0.31498 -0.010698 -0.727614 0.392076 2.59858 0.718993 -0.348254 1.66014 -0.869525 -0.416145 0.719924 0.521559 -0.57494 -1.05484 -0.356558 1.69132 0.739303 1.03306 1.19796 -1.11112 -1.38264 -1.4014 0.947954 -0.175573 -0.35947 0.751445 0.746057 -0.244487 0.408553 1.61859 -1.33103 0.348604 -0.791495 -1.05476 -1.36762 -0.288171 0.377964 -0.0796359 0.3134 0.0100098 -1.16325 2.28193 -0.66748 1.3128 -1.43185 0.159437 -0.448788 -0.218796 -0.453493 0.104136 0.851837 0.00276346 -0.944074 0.53575 -0.384268 -0.39773 0.172394 -1.07997 -0.507885 1.20557 -1.40734 -1.37977 -0.60586 -2.07497 -0.767825 -0.343402 0.568318 1.14854 0.4758 -0.353737 -0.666836 -0.703203 0.428645 -0.161635 -1.274 -1.3117 -0.397367 0.764805 -0.165833 -0.0487059 0.549228 2.63337 1.62871 -0.453406 2.01955 -0.289729 0.246526 0.290709 -0.688002 -0.179087 -0.818285 0.454543 -0.441459 0.779044 0.358179 0.86074 -0.494688 -0.544579 -0.189822 0.496332 -0.890917 0.541112 0.552681 -0.00296334 0.145093 -0.180704 -1.02597 1.19392 0.945348 0.633458 1.15126 -0.22299 0.112929 -0.892364 1.0078 -1.80093 -1.23093 -1.57507 -1.28007 -1.09479 -0.158614 -1.12914 -0.294966 -1.50305 -0.303168 0.684361 1.18081 -0.729705 -0.000770756 0.615945 1.09644 -1.54703 -1.23936 -0.578676 0.307157 -0.607512 -0.215114 -0.901169 1.0281 1.27867 0.0717286 1.44982 -0.7994 -0.618548 0.592058 -0.0129781 0.650712 0.595623 0.422283 -0.644234 0.367037 0.0206078 1.98494 -0.754372 0.621905 -0.381661 0.340372 -0.482352 -0.943149 -0.250803 0.321977 -0.595258 -0.266603 -1.63196 -1.42662 0.209944 0.333156 1.19392 0.323367 0.401208 1.41092 -1.16253 -1.21952 1.49623 -0.497103 0.493758 0.125382 1.89591 -0.071423 -0.127137 1.00283 0.449572 -0.752549 -0.281985 1.66492 -0.41174 -0.0508092 -0.358396 1.83416 1.03252 0.60277 -1.17513 2.82416 0.417137 -1.40519 -0.491653 -1.65787 -0.107883 0.304535 -0.603878 -2.55296 -0.439852 -0.042629 0.562731 -1.59048 0.255651 0.172699 -2.36569 -1.05495 0.602781 1.21428 1.08914 3.17219 1.1769 0.679324 -0.297191 2.06513 -0.0216639 0.339747 -0.143069 0.102686 1.15184 -1.20741 -0.344334 1.19003 1.49782 0.555805 0.281046 2.46772 -1.92806 -0.603585 0.818465 -0.0796431 -0.239908 1.74367 -1.64223 1.87109 -0.323595 -1.08411 0.15394 0.37434 0.303996 0.843508 -1.13555 0.548461 -1.20678 0.627929 1.10272 -0.0414596 2.55711 -0.861244 0.0539389 -0.989263 1.30456 0.0907573 -1.93269 -2.12443 -0.899798 0.318468 -0.10387 -0.247501 -1.20946 0.129594 -0.834564 0.63078 1.51414 0.29115 -0.926425 1.1493 -0.744887 0.436109 0.679663 -1.5986 0.617836 1.10444 0.358784 -2.81263 -0.250487 0.76922 -0.449958 -1.97947 1.2074 -0.819581 0.576566 -1.59071 1.23334 -1.27276 -1.64112 0.391862 0.0472444 -0.456336 -0.204305 -0.495078 1.36235 2.36906 1.38849 0.393422 -0.434693 -1.34933 -0.822322 1.15549 -0.870157 0.910695 0.859966 1.32286 0.203901 1.41147 -1.44696 -0.269044 -0.590149 -0.595699 0.146056 0.0958929 -0.711633 -0.206675 0.68962 -0.598891 -0.5079 -0.801699 -0.831316 0.543362 1.113 0.854628 0.588018 -1.45451 -1.20635 0.91768 0.19482 0.155515 -1.23481 -0.902503 -0.0529931 -0.833711 0.263812 1.14623 -0.66927 2.31989 0.433114 -1.71403 0.95944 -0.0284027 1.2866 -0.287144 -0.989777 1.03951 -0.0753319 -0.844951 -0.752524 0.308669 0.777311 0.0794366 -0.809262 -1.08147 -1.94126 -1.37334 -1.03676 -0.428342 -0.518804 1.31572 0.695241 -0.417993 0.659942 1.34567 2.5135 0.709579 0.907648 -1.4977 -0.123545 0.066747 0.520102 1.07003 -0.21133 -1.00983 -0.88717 0.9083 0.135559 -0.149369 0.131554 -0.34454 1.4769 0.471191 0.327459 0.447008 1.20239 0.868131 -0.887194 1.60788 -0.18132 0.431151 -1.10632 -0.787913 0.256519 0.503802 -0.320374 2.2251 0.0443297 0.74533 0.511326 -1.42889 0.257317 0.441743 0.159503 -1.21322 1.48354 -1.2192 -1.27977 -0.441248 0.0319733 1.14548 1.65048 1.67505 -0.192574 1.27625 0.791655 -0.104922 0.339127 1.25487 0.308493 -0.0680395 0.825155 -0.795238 -0.632386 0.371044 -0.399047 -1.3489 -0.703542 0.902433 -0.267786 0.92949 -0.0840611 -1.5121 -2.13901 1.04901 0.443479 -0.52789 1.51052 -0.102696 1.06921 0.472995 -0.332761 -0.750704 0.440235 -0.108037 -1.34711 -0.159037 0.36206 -0.99634 0.391417 1.04072 -1.06316 -1.26086 0.250167 1.27752 0.600055 -1.346 -0.460429 0.627228 -2.22542 -0.107826 0.0982986 0.324196 -1.17728 0.983586 0.404764 1.62495 -0.0508963 1.50469 -0.710975 -1.84528 -1.0516 -0.330701 0.418697 -0.143776 0.655176 -0.761043 -1.54005 -0.484827 -0.315063 -0.592237 -0.66247 -0.717908 0.427379 -1.47351 -0.978875 1.32311 0.965187 0.132228 -0.620903 -1.23324 -1.57529 0.159943 -2.34306 -1.5937 -0.0399893 -0.97469 1.1102 1.72139 0.982938 0.638634 0.251028 0.275108 1.48535 -0.973815 1.0742 0.983239 -0.0729225 0.660108 -0.495065 -1.78425 -0.121957 0.741473 -0.0567911 -1.0358 -1.12177 -0.967815 
-0.320792 0.673763 -0.00520476 0.759148 -0.136986 0.542825 1.25011 0.959358 0.132347 0.811647 -0.263472 -0.258488 -0.268781 -0.433661 -1.82848 -0.564887 1.58148 0.679384 -0.941075 -1.08295 -3.33885 -0.28498 -0.165254 0.769235 0.2333 1.38183 -0.495317 0.585031 0.572271 -0.409949 -1.16423 -1.06057 0.396619 0.644826 -1.04047 0.9924 0.0497109 -0.81085 1.07356 0.416992 -1.93284 0.0660891 -1.30914 -0.66399 -0.40006 1.66843 -0.999752 -0.472504 1.16407 -1.47459 1.04636 0.0946696 0.408774 0.338594 -1.11266 -0.229271 0.707385 -1.78879 -0.954658 -0.110552 -0.897445 0.909388 -0.721134 -0.600861 -0.839304 1.36998 0.0122419 -0.599246 0.621168 -0.807191 -1.50627 0.352648 -0.389313 0.0282215 1.41796 -1.11219 -1.00922 -0.0394376 0.391824 -1.31518 -1.33602 1.02898 -0.0322567 0.7074 1.21632 1.80237 -0.0131768 0.549452 -0.193458 2.04587 -1.04506 0.440649 0.440924 -0.643585 0.259815 1.12507 -0.136933 -1.12046 -0.0522074 2.36148 -0.988449 0.795217 -1.09359 1.30287 0.995985 -1.11071 2.38666 -1.27186 1.1843 0.246199 1.08169 1.33736 0.44996 -0.6846 -1.16492 -0.371946 2.28391 0.221741 1.00804 0.996846 0.274474 0.447749 0.845971 0.757141 1.99403 -1.43677 -0.177261 -0.867814 -0.554096 0.608943 -0.839257 -1.00465 0.378399 1.67618 0.903488 -0.114342 1.96621 -0.417574 0.301696 -0.214663 -0.385246 -0.0468394 -0.668947 1.16932 -0.0163789 -0.456485 1.40069 -1.53023 -3.60791 -0.446653 -1.47333 0.0738137 0.681722 1.0335 0.723311 -0.619058 -0.410191 -0.529382 -0.145434 -0.570932 -0.776938 -0.623933 -0.0615792 -1.22744 0.303766 -0.693562 -0.309829 -2.91372 -0.0344783 1.931 -0.47259 -1.00519 -1.27601 -0.467325 0.056646 -0.720532 -0.0810278 0.519496 0.813886 -0.569247 0.922893 -0.989814 1.61185 0.822549 -2.02702 1.60423 0.00601478 0.945228 -0.409434 0.34313 -1.18227 -0.403117 0.121623 1.70715 -1.95693 1.19006 1.41084 -0.984776 1.85596 -0.685549 0.940714 -0.151472 1.07295 0.31392 0.502982 -1.28516 -0.821427 1.16672 0.582626 0.209102 1.92376 -0.72454 0.152437 1.75621 -0.647128 -0.129298 -2.15761 0.0720789 2.31193 -0.0860869 -0.209063 0.03549 1.68423 -1.00525 -1.11226 0.92086 2.09369 -0.145097 0.293592 -1.05949 0.212496 0.217848 -1.31571 -0.0569638 -0.039278 0.750137 -0.641557 0.099664 -0.265144 1.42028 -1.05368 1.2207 1.06998 -0.746428 -1.9621 -0.146949 1.10751 -1.66283 1.32425 -1.32619 -3.17194 -2.11622 2.54612 -1.22363 1.838 -0.584507 -0.0226655 -1.60088 0.0236959 1.55044 -0.899312 0.0393637 -1.10428 -0.792676 -0.224906 0.42914 2.11272 -0.0477418 -0.181033 1.01495 0.200103 1.18306 -1.10345 -0.0248978 0.665887 0.0706774 0.99116 0.831787 0.491045 1.86904 -0.130794 -1.79352 -2.69185 0.238621 -0.651818 2.4763 1.48211 -0.192886 0.15879 0.076778 0.281149 0.378989 0.359277 -0.560761 0.989909 -0.117097 -1.20076 -1.57447 0.758573 -1.50679 -1.9225 0.719724 -1.00208 -0.524614 0.785087 -0.133786 0.848066 1.12927 0.0366004 -0.521576 -0.356305 -0.871825 0.489302 -0.0684329 0.27933 -0.596211 0.315761 -0.37729 1.10268 2.65545 0.684016 0.949976 -0.987065 1.59575 -1.13851 0.761754 0.122653 -0.081429 -0.503019 0.364791 -0.0133342 0.0903732 0.49408 -0.262141 -0.701235 -2.89587 -0.772692 0.22089 -1.02681 0.347556 -0.840592 -1.09261 -0.566114 -0.425402 2.20178 0.421412 -2.22345 -0.13617 0.183815 -0.636229 0.125166 1.46401 0.411301 1.30147 0.172734 0.22875 -0.0810514 0.253436 0.89958 -0.202216 -3.50927 0.787967 -0.183653 0.518988 -0.836993 0.171198 1.47379 -0.896257 -0.709877 -0.116076 -1.54299 0.298641 0.115018 -0.776325 -0.326162 -0.228425 -0.520931 0.793056 0.537549 0.392106 0.310692 -0.589302 -0.834187 -0.462383 1.5748 0.293081 1.73187 -1.17924 -1.41478 -0.542414 -0.637855 -1.38382 -1.92676 -0.918708 0.346289 -0.67207 0.404673 -0.512304 1.1718 1.44963 -0.993572 -1.74982 0.147937 -0.455052 0.833435 -0.432765 3.10857 0.419654 0.0304168 -0.424008 0.362172 1.10438 0.401413 1.90756 -0.00288348 -1.34388 0.45693 0.393102 1.10024 -0.253295 -0.654069 0.702714 0.805943 0.651901 -0.350499 0.729199 0.244193 -0.479234 -1.17037 1.70878 -0.687438 0.259146 1.00593 -1.66623 -0.375889 -0.909203 -0.087259 -0.363465 -0.637723 -0.401196 0.30659 -1.44134 1.02395 -0.560211 -0.610886 1.38558 -0.593808 -0.833154 0.68111 -1.04158 1.07551 1.84578 -0.607842 0.0215282 -0.337348 -0.25348 -1.19183 0.960602 -0.827819 2.20127 -1.10653 -0.00328352 1.08424 1.0689 1.93244 -2.7101 0.0653885 0.272472 3.37429 -1.29026 -0.221846 0.618015 -0.921799 -1.32651 -2.45572 -0.581904 0.422619 0.684503 -1.24111 1.04123 0.225504 -1.46311 1.2321 1.31082 -1.74692 0.765991 -0.640881 -0.0816051 0.138637 -0.341661 -0.813114 0.547751 -1.48781 -0.756797 0.100437 -0.992913 1.53538 0.754458 1.08474 0.128587 -0.545265 -1.87243 -0.520273 1.12408 -0.556585 1.45088 -0.0292337 0.296554 0.163898 -0.134299 1.28542 -1.06585 -0.538783 -0.241616 1.61576 0.196586 -1.05853 0.261551 0.708277 0.403807 0.923338 -0.627464 0.980694 -0.596672 -0.0796525 -0.490353 0.704423 -0.0383651 -0.420015 1.01347 -1.28367 1.12141 0.0404397 1.18018 -1.65746 1.26144 0.0360101 -0.0974095 -1.02802 0.473677 -0.77954 0.770207 -1.73153 -1.14448 -0.673702 -0.950552 1.13604 -0.909874 -0.0246939 -1.62826 0.0597482 -1.61721 1.028 0.011971 0.297962 -0.199721 1.29357 -0.276618 0.759139 0.438085 0.888405 2.03766 0.319396 0.744059 0.273244 -0.188843 0.0290302 -0.329435 0.739183 -0.736685 1.83209 -1.34685 -0.0748652 -0.0554862 -2.52993 -0.726918 0.360588 0.0298734 1.32026 -0.0411926 0.404034 -2.15926 -0.216546 0.681817 1.58326 -0.704588 -0.321072 1.25111 -1.24107 -1.17759 -0.470123 -0.138154 -0.21368 0.069676 -1.39548 0.816757 -1.87956 -0.487751 0.636369 1.01009 -0.25699 -0.975779 -0.8471 -0.0724927 0.0940625 -0.125001 -0.641912 -0.129039 -0.722215 -0.22209 0.0693572 1.35316 0.957325 0.415699 0.0577301 2.72655 0.211025 -0.3243 -0.299093 1.1462 -1.72795 0.215463 1.47796 0.757094 0.333186 0.146767 0.951419 -0.803795 0.583127 0.276316 0.136909 0.76504 -0.0298577 -1.12819 -2.30936 1.93441 0.544551 1.44307 0.0382457 0.805554 2.64175 -0.727764 -0.0168367 -0.797665 -1.02704 0.800992 0.704658 -1.45937 0.11191 0.0502666 -2.3075 -0.697573 -1.0398 -0.517341 -0.204407 -0.623162 0.946445 0.010116 0.960352 -0.973278 0.474795 -1.44204 -0.893914 0.269126 -0.330292 0.188093 0.510854 0.50359 -0.123857 0.0732561 -0.00225289 -0.571914 -0.31784 -1.90774 -0.543445 -0.72642 -0.563746 -0.981128 0.095683 -0.536456 1.10874 0.349168 -0.666324 -1.45516 -0.954089 0.0763443 -0.220688 0.315601 0.554719 1.30084 0.522753 -2.91301 -0.469858 -0.0576264 -1.40407 -0.987642 -0.640616 0.9359 -0.535062 0.0272355 -1.09435 0.491859 1.28557 -0.500278 -0.403539 0.30732 0.15519 -0.354542 1.82117 -0.773729 -1.67818 -0.189691 -0.819282 0.70031 -0.121124 -0.882996 0.689419 -0.550203 -0.54794 -0.0133907 0.736977 0.681163 -0.422083 1.38754 -0.784217 0.863764 -1.46894 1.1613 -1.42916 -0.356463 0.215334 -1.24864 -0.640065 1.09659 1.18218 -0.136273 -1.50014 0.990804 -1.097 0.829377 0.214065 -0.271891 1.69911 2.36871 0.191696 -0.344392 0.702443 0.268856 -0.208289 -0.581678 1.19011 0.412113 -0.205801 1.47839 -0.179472 0.355489 2.66827 -0.351219 -2.5484 1.06501 1.51191 0.687593 -0.195932 -2.04926 -1.83203 1.66108 -0.279938 -1.36846 0.403305 -0.184718 0.0244161 1.88043 -0.0842458 -2.09662 1.53013 0.904586 -0.326012 0.0863396 0.877807 -0.804448 0.904529 0.957446 0.123693 0.693062 -0.129813 0.331879 0.35827 -0.203802 -0.638572 -0.802352 -1.31932 -0.458285 -0.212774 -1.28236 -1.18866 0.352763 1.27677 0.0232568 1.35552 -1.49809 -0.449302 1.40923 -1.23729 0.257213 0.821567 0.497751 0.695929 1.14012 0.0990382 0.804907 0.121041 0.631848 0.520087 0.292633 0.207067 1.08653 0.219527 0.770424 0.548508 -0.111329 0.0814525 0.46923 0.502575 -2.03865 -0.908888 1.18036 0.818617 -1.77934 1.56514 0.06502 0.878954 -2.66296 -0.306178 0.649685 -0.827958 0.361434 -0.320313 0.195524 0.71454 0.938615 0.500187 0.818872 -1.29983 0.106905 -0.900839 -1.65921 0.136922 -1.58245 0.434506 0.837383 0.549656 -1.44088 -0.63535 -1.00098 -1.11888 -0.629429 0.165019 0.799509 -0.697495 -0.455413 -0.43162 -1.96853 -1.11952 0.807966 -0.584439 -0.486381 1.28079 0.464909 0.70595 -1.15101 1.15566 -0.154894 -0.793401 1.25715 -0.242721 -0.804246 -0.683234 1.56339 -0.168407 1.21934 -0.02657 1.29946 0.00528452 -2.58216 -0.601612 -1.80999 -0.528379 -0.938806 0.767797 0.429876 0.920638 0.00232021 -0.102464 -2.02676 -1.16125 1.52712 0.445835 0.132482 -1.84618 -0.335284 0.242474 -0.664432 -0.0867983 0.316493 -1.39929 -0.185986 1.30517 -0.0514785 0.469297 -1.54905 -0.316618 -0.752519 -0.503519 0.532731 0.405424 0.863034 -0.358095 -0.418252 -0.702611 -0.120305 -1.1688 -0.0856578 -0.634436 0.062514 1.05612 1.40177 1.23732 -0.516715 -1.10373 -1.43431 -0.0615246 -0.847825 -0.903898 -1.05682 -0.730757 0.68043 1.15667 0.986076 -1.1913 0.151949 1.06087 -0.469531 -0.850894 0.795801 -1.36799 -0.0129096 0.59556 -0.657862 2.80262 -0.481583 -1.15401 0.59412 1.33703 -2.66859 -1.73323 -0.91798 0.39666 -0.260953 1.1119 0.708706 -1.22965 -0.403557 0.399934 0.0820569 -0.645145 -0.902071 0.399581 -0.37473 0.207115 0.394496 -1.35051 1.13787 -0.492892 -0.43476 1.77682 -0.792954 0.471808 0.846155 0.059152 -0.469257 0.3456 -1.31445 1.80196 0.250652 1.03652 -0.270727 -0.0905793 1.52782 -0.120686 1.03767 1.42788 0.237147 0.748795 0.624227 0.509924 -0.455904 -1.51539 0.356419 -0.108012 -0.249151 0.400105 0.0168795 1.04715 -1.01342 -0.130964 -0.696278 -2.03969 -1.70913 -1.014 -0.00921127 0.549703 1.24601 0.621626 -0.347843 -0.252696 1.57408 0.0987613 0.396335 -1.07192 -1.10964 0.0722469 0.724756 -0.0128189 0.146732 
