-0.0158586 -0.0363765 0.00557416 0.0128498 -0.0162503 0.0108502 0.00361847 0.00740679 -0.0318155 0.00818118 0.0197323 0.0025406 -0.033253 -0.0034785 -0.010941 0.0310452 0.00272097 0.0202488 -0.0133867 -0.00968133 0.00248692 -0.00856701 -0.0673412 0.00347766 -0.0295711 -0.0334789 0.0102628 -0.0833121 0.04196 -0.025711 0.034067 -0.0188618 
-0.00582175 0.0219853 0.0127869 -0.000839086 0.007697 0.000698857 -0.0180184 0.012528 -0.00672759 0.010273 -0.00580488 0.00358811 -0.000809232 0.00463634 0.0105726 0.0405456 0.00996722 0.0206736 -0.000207911 -0.0120366 -0.00882866 -0.023588 0.0192745 0.00946853 -0.00582689 0.0338451 0.0729052 0.0163606 0.0235897 -0.0053505 0.0412861 -0.00162372 
-0.0160725 -0.0129464 -0.0215582 0.0118503 -0.0165956 -0.0145061 -0.00508523 -0.00338119 -0.0325397 -0.0316745 -0.0223096 -0.0103185 -0.0126143 0.0157078 -0.0107545 0.0385461 0.0123348 0.0128544 0.0124208 -0.0311875 0.0179179 -0.0237948 -0.0767565 0.0031782 0.00554438 -0.0488372 0.000418911 -0.109158 0.00821216 -0.00656157 0.0120065 0.00933948 
-0.0161508 0.0191772 -0.00536915 -0.015705 0.0103932 -0.02355 -0.0234027 0.00167731 -0.00231685 -0.0310992 0.0657318 0.00147688 0.0277139 -0.0149261 -0.00864667 -0.0225774 -0.0149734 -0.0141071 0.00287116 -0.0490063 -0.0106471 -0.0421644 0.0579506 -0.0623461 -0.0326945 -0.057333 -0.0404508 0.0732942 -0.0652065 0.0856896 -0.0660445 -0.0088847 
-0.00970606 0.00393951 -0.000228008 -0.0259297 0.00059434 -0.0136436 -0.0136054 -0.000916716 -0.0101356 -0.0585578 0.041304 -0.0012147 0.00728154 0.0118295 -0.0125234 0.0105192 -0.0207388 0.020842 0.0195024 -0.0335815 -0.0155135 -0.0146822 0.0119076 0.00903018 -0.0422372 -0.0473334 0.00122731 0.0391275 0.00637446 0.0703658 0.00767865 0.0103187 
-0.015236 -0.00301475 -0.0130112 0.00408255 0.000766523 -0.00763186 -0.0260425 -0.000372693 0.00996649 -0.0119455 -0.00508748 -0.0300871 0.0357421 -0.0148334 0.0138768 0.00543126 0.00912274 0.0155987 -0.00568861 0.0174373 -0.000785571 -0.0467618 0.0597033 0.0106315 -0.0114282 0.000903855 0.0163217 0.0456809 0.00846302 0.045366 0.034475 -0.0111527 
0.0212984 0.0143008 0.0124154 -0.00180661 -0.0103974 -0.0118573 -0.0230328 0.0146799 -0.00933733 -0.0100126 0.0130877 -0.0229013 0.000707981 0.00212787 -0.0187808 0.0481651 0.00466626 0.00315573 0.0125549 -0.0179987 0.0039999 -0.015889 0.0574842 0.0128473 0.00286185 0.0512568 0.0613414 0.0525609 0.0571525 0.015208 0.0353741 -0.000678969 
-0.0134741 -0.022046 -0.0206873 -0.00119164 0.00299622 -0.0165317 -0.00905763 0.0123951 -0.00503265 -0.0128918 0.156854 0.0121865 0.00189415 0.0195929 0.011072 0.00361669 0.00117879 0.00245155 0.00675574 -0.0234967 0.0184648 -0.00375037 -0.0467003 0.0556752 -0.0176884 -0.038381 0.0598954 -0.0510493 0.0701054 -0.185333 0.0838718 0.00978976 
-0.0155413 0.00112678 -0.0239218 0.00768222 0.00279621 -0.00248211 -0.00792955 -0.0132538 0.0149796 -0.0203722 -0.0199852 0.00454234 0.00387775 0.00328362 -0.0112303 0.0294064 -0.00359002 0.019601 0.0219447 -0.00487296 -0.00555184 -0.0132165 0.015776 0.0118641 -0.0103431 0.0256351 0.0336489 0.0139073 0.0288051 0.0336288 0.0330344 0.00498795 
-0.00737063 -0.0177448 -0.00648809 0.0170086 0.00708601 0.0157807 -0.0182214 -0.00329936 -0.0144707 -0.0177505 -0.0226676 -0.00168113 -0.0209415 -0.0062947 -0.00529116 0.0787246 -0.00581287 -0.00382971 0.0113026 -0.000316243 0.0175729 0.00938939 0.0170668 0.0632269 -0.0120349 0.015326 0.144626 0.00875341 0.138336 -0.0103031 0.13073 -0.0187262 
-0.00211868 -0.0152408 -0.0245046 -0.0181589 0.0193921 -0.0187168 -0.00435405 -0.0168566 -0.00595834 -0.000777191 0.0280963 -0.0130419 -0.00758726 -0.0202595 0.00822931 0.0119057 0.00289143 -0.00196811 -0.012035 -0.00583599 -0.0116719 0.000368922 0.0433323 0.00772331 -0.00401281 -0.0113991 0.011651 0.0196179 0.0173838 -0.0223749 0.00246966 -0.0134489 
-0.00709229 0.0257399 -0.0191028 -0.0146063 0.00769174 0.00717779 -0.0345774 0.00676895 0.0209996 -0.0609183 0.103708 -0.0103559 0.0325277 -0.000263553 -0.0186911 0.100725 -0.0100439 -0.00318271 -0.00962886 -0.0300829 -0.0181532 -0.0393008 0.10052 0.00622493 -0.0279453 -0.0286255 -0.00848984 0.128058 0.0201349 0.0334358 0.00877934 0.00473524 
-0.0171252 0.0266402 0.0095705 0.0110269 0.0145675 -0.00922707 0.0062314 -0.00574892 0.00481522 0.0108456 -0.024715 0.0135703 0.0298307 -0.0226051 0.0147665 0.0499317 0.00558787 -0.00796052 0.0188229 -0.00302078 0.00613804 -0.0214389 0.0518936 0.0353625 -0.0284079 0.015046 0.176005 0.0161351 0.111744 0.00703158 0.0653773 -0.0231409 
-0.00204171 0.0354639 0.00522041 -0.0136202 -0.00862014 -0.00327815 -0.016897 0.00740159 0.0160703 -0.0264657 0.0396619 -0.0145867 0.0496404 -0.00552096 0.00881551 0.0475665 -0.0224626 0.00814721 -0.0157555 -0.0125949 0.0180229 -0.0179083 0.0727387 -0.0187658 -0.0467697 -0.0121832 0.0132875 0.072697 0.0186372 0.0329098 -0.0140891 0.0133087 
-0.00209926 0.000327119 -0.0181739 0.00977322 0.00143727 0.0105864 -1.44916e-05 -0.0180098 -0.0211869 -0.00695729 0.0134265 -0.0139271 -0.0457241 -0.0091387 0.0130346 0.0514816 0.0193501 -0.0183418 0.0218942 6.56304e-05 0.0110613 -0.0221407 -0.0755158 0.0422683 0.00524667 -0.0486296 0.0237654 -0.124172 0.0431353 -0.0337946 0.0288707 -0.0058077 
0.0174384 -0.000891829 -0.0201625 -0.00879897 0.0178325 0.00750505 -0.0337167 -0.0179707 0.00248109 -0.0654474 0.064373 -0.0170576 0.0107878 -0.0119864 0.00807478 -0.00216457 -0.000444738 0.0123369 -0.013425 -0.0408781 0.0153715 -0.0374849 0.0219532 0.00216318 -0.026628 -0.0850676 -0.0636772 0.0875221 0.0280261 0.0902271 -0.0297175 0.0162226 
-0.00899464 -0.0160191 -0.00899044 -0.0133204 -0.0180458 0.013924 0.00166696 -0.00539784 0.0103086 -0.0124115 0.024502 -0.0115593 -0.000995165 0.00759202 0.00641668 0.014235 -0.00109802 0.019343 0.0128394 -0.0124293 -0.0125703 0.0213586 -0.048241 0.0314857 -0.0247681 -0.0239823 0.0122646 -0.0600988 -0.000206882 -0.00509361 0.0371188 0.00159135 
-0.0179382 -0.0268604 0.0116242 -0.0148143 0.0213371 -0.00852241 -0.00195404 0.0167379 -0.00970832 -0.00762312 -0.0150829 -0.0134021 -0.0360501 0.0143854 0.00594816 0.0347959 0.0106944 -0.00231551 0.0197323 0.0119227 -0.00210443 -0.0220009 -0.0383889 0.00754803 -0.0206973 -0.0215985 -0.0170642 -0.0708439 0.00201243 -0.0112151 -0.00639027 -0.00152733 
0.00177676 0.019661 -0.0137663 -0.00176261 -0.0177147 -0.0204172 -0.0166871 0.00547665 0.0129173 -0.0193699 0.0174497 0.00506671 0.0127308 -0.0163504 -0.00629309 0.00517046 -0.0208959 -0.00580782 -0.0145637 0.000569831 -0.00373424 -0.036759 0.0742733 0.0104259 -0.0081155 0.0185751 0.027833 0.0338238 0.049113 0.00734619 0.0270325 -0.011577 
0.0175399 -0.00957604 0.0155335 0.0209816 -0.00075174 -0.011104 -0.000872381 -0.0168258 0.015892 -0.0073345 0.0231319 -0.0151279 -0.0181827 -0.00708381 -0.00523637 -0.0206771 0.00957325 0.00314432 0.00377875 -0.0226748 0.00843927 -0.00192153 0.00904718 -0.00790704 -0.028476 -0.00487427 -0.00862142 0.0209266 0.0147152 0.0220802 -0.0221633 0.0158455 
-0.00491904 -0.015075 -0.0181169 0.0118877 -0.00898091 -0.0142878 -0.0431102 -0.0197417 0.0264473 -0.0153268 -0.00629199 -0.0317311 0.011959 -0.0193735 -0.0163053 0.0102054 -0.00691953 0.0131871 -0.0130679 -0.0194619 -0.00638302 -0.0517413 0.0522095 -0.00107034 -0.0105703 0.0340623 0.0447305 0.0604826 0.0189313 0.0121178 0.0360269 -0.00697257 
-0.00529248 0.0100658 -0.0330509 0.00301951 -0.0194281 -0.0191928 -0.0137977 -0.0299799 -0.00132455 -0.0564916 -0.00579988 -0.0064778 0.0306258 -0.0362603 0.0115039 0.0641484 -0.0165231 -0.0181812 -0.0143491 -0.0309549 -0.0156851 -0.0233036 0.0469096 -0.0171696 -0.0226787 -0.0823076 0.057154 0.041203 0.0236248 0.0900282 0.00936021 0.0104956 
-0.0116051 0.00792076 -0.0324963 -0.0138302 0.0204919 -0.0240391 -0.0331379 -0.0181228 0.000955226 -0.0415966 -0.0467219 -0.0202187 0.0223774 -0.0193334 0.00530804 0.0655812 0.01844 0.0217736 -0.00483161 -0.0344336 0.0109001 -0.0410909 -0.0014587 0.00414332 -0.0345697 -0.0572713 0.040254 0.0276126 0.0510037 0.0855756 0.0366859 0.0154688 
-0.0132729 -0.0341216 -0.0118047 -0.0155182 -0.00376034 0.00381025 -0.00240849 0.0168966 -0.0357913 -0.0010652 0.0121834 0.0167867 -0.0362555 0.0185097 0.0199821 0.0154292 0.0188706 -0.000296768 -0.00921762 0.000333262 0.0187073 -0.00459392 -0.0837741 0.0193536 -0.0104226 -0.00882667 -0.0157812 -0.112452 0.00947486 -0.016129 0.0255259 -0.014848 
-0.0178803 0.00378202 -0.0247149 -0.00284603 0.0188634 0.00668442 -0.0160712 -0.0205775 -0.00367302 -0.0149458 -0.0335483 -0.00607472 0.0283542 -0.0419454 0.0100534 0.0778552 0.00099929 -0.0166581 -0.011304 -0.011411 0.0017482 -0.0233666 0.11266 0.0335001 -0.00624468 0.0501115 0.171704 0.0720917 0.111591 0.016772 0.10519 -0.0254652 
0.00481813 0.00545901 -0.00331111 0.00010429 -0.00656191 0.0170006 -0.000415712 0.00713974 0.00522723 -0.00550758 -0.0129799 -0.0188717 0.0138308 -0.0262727 0.00903903 0.0457401 -0.0125813 -0.0215119 0.00228629 -0.00364241 -0.00298979 -0.0131966 0.0678755 0.0362652 -0.0147284 0.0290535 0.170408 0.0141404 0.0827486 -0.000627702 0.0941915 0.00932495 
0.0171045 -0.0115784 -0.0377412 -0.0161823 -0.0161142 0.00391859 -0.0067246 0.00323909 0.00151994 -0.0530604 -0.00447717 -0.0343242 -0.00284693 -0.0209736 -0.0180449 0.0771275 0.0115029 0.00872607 -0.0158285 -0.0206959 -0.0186061 -0.054236 0.0172989 0.00755705 -0.00911716 -0.0106292 0.0279776 0.000528329 0.0227168 0.0802688 0.0493498 0.0178157 
0.0148776 0.0157728 -0.0438298 0.0160631 -0.0124281 -0.0307077 -0.015099 0.000503107 0.0109623 -0.0308361 -0.0233607 -0.011753 0.0453137 -0.016163 -0.0219628 0.101765 0.00323841 -0.00780225 -0.0100218 0.00591791 -0.0067253 -0.0167715 0.122032 -0.0035246 -0.0246747 -0.0123833 0.0515896 0.146671 0.061356 -0.0240797 0.03684 0.00793162 
0.0143408 0.000180945 0.0106633 -0.0216524 -0.0185463 -0.00199128 0.00500382 -0.00535493 -0.0346813 -0.00631896 0.0372132 -0.00245472 -0.0430851 -0.0233835 0.0101337 0.082123 -0.0101413 -0.0152788 0.00251544 -0.0112074 -0.0181352 0.0104944 -0.0761111 0.0428701 -0.0334874 -0.0481801 0.0165973 -0.137643 0.0424161 -0.0482855 0.0664893 0.00988616 
-0.0141671 0.00655049 -0.00220793 -0.0127973 0.0214061 -0.0048078 -0.00357264 -0.0158663 0.025863 -0.0140405 0.010044 -0.0149353 0.0187281 -0.0137027 -0.0149587 0.0343723 0.0099752 0.0121047 0.00316979 0.0167943 0.00218866 -0.0126 0.0495074 0.0111823 -0.0337418 0.00151955 0.0470474 0.0221846 0.0211173 0.0171996 0.0359811 -0.00865597 
0.018816 0.0075755 0.0046648 0.0177393 -0.0138806 -0.0106825 -0.0202719 -0.0144291 0.0145623 0.0101608 -0.00452928 -0.00613175 -0.00507831 0.00562105 -0.00857494 0.0366578 -0.00151871 0.0181601 0.0161635 -0.0313786 -0.00091434 -0.00698422 0.0295237 0.0467092 -0.0110639 -0.0197874 0.126175 0.00193468 0.0943304 -0.00570695 0.0645468 0.00163579 
-0.0191836 -0.0079262 -2.29221e-05 -0.0121608 0.0205101 0.00208259 -0.00773648 0.0148061 -0.0221228 0.0139426 -0.00257744 0.00257472 -0.0223762 0.0045719 0.00739607 0.031786 -0.000245153 0.00254519 -0.0176028 -0.0346187 0.0215884 0.00906278 -0.0745122 0.0194861 0.0121499 -0.0489313 -0.0107537 -0.0824768 0.0221834 -0.0270538 0.0299761 0.00215101 
0.0118938 0.0211472 0.00857641 0.00728697 -0.00882015 -0.0162384 -0.0175767 -0.00192575 -0.00757784 -0.0141875 0.0212597 5.45504e-05 0.0118437 -0.0326221 0.0118632 -0.0483723 0.00102793 0.018755 -0.0246609 -0.024561 0.00753121 -0.0157127 0.0141224 -0.0326322 -0.0143034 -0.066895 -0.00505434 0.0437378 -0.0648344 0.0591295 -0.0583663 0.0184763 
-0.00701846 0.0103474 -0.00749378 0.00431775 0.0178728 -0.0172695 -0.0194758 -0.0217397 -0.0150453 -0.0123124 0.0132989 -0.00248379 0.0137529 -0.00802158 0.00273579 -0.000898536 0.00280918 0.0051699 0.0118532 -0.0111925 -0.0135446 -0.000711214 0.0443818 0.0194534 0.00322034 -0.00707956 0.00787773 0.00202269 0.0291476 0.0327202 0.0290283 -0.0171553 
0.00579373 0.00023087 0.0124324 0.00116483 0.0145426 -0.0191553 0.00368305 0.0190397 0.00227381 -0.00614069 -0.00699768 -0.013573 -0.0262893 -0.0204145 -0.00171197 0.0961117 0.00918683 -0.00884904 0.013997 0.00995748 -0.0169933 0.00756777 0.0151462 0.09984 0.011282 0.0210645 0.173983 -0.0189794 0.161163 0.00865321 0.163611 -0.00062391 
-0.000585876 0.0103736 -0.0184925 -0.00816569 0.0151757 0.00729501 -0.0112449 0.000954039 -0.020809 0.0113713 0.0123784 -0.0193519 0.0142211 -0.00825316 0.00658329 0.0139353 0.00553743 -0.00141084 -0.000416363 0.0109612 -0.0136365 -0.00884275 0.00613182 -0.00600905 -0.0117124 0.00940563 0.032805 -0.0207871 0.0205014 0.0153724 0.0264459 -0.0185431 
0.00645223 0.0139497 -0.00524046 -0.000622156 -0.00134047 0.00606081 -0.0219281 0.000975802 -0.00447394 0.0131278 0.00419971 -0.0115944 -0.0145605 -0.0125102 0.0145884 0.0198623 0.00940559 -0.00747261 0.000377058 0.0148963 0.00594666 -0.0132451 -0.0107958 0.0235017 0.016311 0.0187646 0.0103888 0.00186554 0.0317952 0.0129751 0.0173672 0.000857046 
0.00460041 -0.0486767 -0.0210333 -0.0225058 0.00658008 -0.0215652 -0.0141202 -0.0220668 -0.00667935 -0.0366866 -0.026604 0.012136 -0.0459494 -0.0171335 0.00779687 0.0537123 -0.0049259 -0.0107116 -0.0204624 -0.0410659 3.96844e-05 -0.0282382 -0.152859 0.00317281 -0.0388414 -0.0930683 -0.0241366 -0.131338 0.0192009 -0.0103786 0.0111574 -0.00283392 
0.00316715 0.00423299 -0.0140662 -0.0139093 0.00379476 -0.0239283 -0.0186051 -0.00380415 -0.00911903 -0.0104065 -0.00249828 0.00198215 0.0198727 -0.0260315 0.0121743 0.00267701 -0.000648143 0.0152362 -0.00474528 0.0217709 0.0195484 -0.0159661 0.0181885 -0.0180199 -0.0107815 -0.000293564 0.00508954 0.0116745 0.0347996 0.00799571 0.0271986 -0.00305648 
-0.0179125 0.0127349 0.00308164 0.00310913 -0.00244045 -0.0280276 -0.0470314 -0.00179338 0.0208812 -0.038879 0.0977723 -0.0197829 0.0378966 -0.0277358 0.00424192 -0.0417074 -0.0262662 -0.0174438 -0.0151105 -0.00930033 0.00275769 -0.018068 0.0468486 -0.0832964 -0.053784 -0.0667119 -0.0279142 0.120525 -0.0808231 0.0876716 -0.123014 0.00840298 
0.00883288 -0.0143754 -0.00686243 -0.0162781 -0.0158405 -0.000845775 0.0108899 0.00968724 -0.017361 -0.0185183 -0.0161408 0.0137769 -0.00404634 0.0132724 -0.0164924 -0.0100724 0.0201914 -0.00460624 -0.00396699 -0.00701657 -0.0190646 -0.00689241 0.00387625 -0.0270823 -0.00610079 -0.0322311 -0.0210374 -0.0117128 -0.0157446 0.0145173 -0.00480309 -0.01472 
0.0054934 -0.0267157 -0.00808021 0.0111366 0.00628021 -0.0146829 -0.000483565 0.0100602 -0.0147866 0.0075154 0.0173489 0.0112217 -0.0170113 0.00954616 -0.0109224 0.036853 -0.0169086 0.00867214 -0.0195031 -0.0224968 -0.0150184 0.00778246 -0.0592702 0.0280446 0.00635664 -0.0284929 0.0262434 -0.0711626 0.0305338 -0.0278475 0.0341464 -0.00460151 
0.00531224 0.0364304 -0.0265541 -0.0135391 0.0191403 0.00242011 0.00377951 -0.0143007 0.016622 -0.0231982 -0.0185471 0.00991983 0.0356239 -0.0182854 -0.00296005 0.0453298 -0.0154923 0.00136557 0.00351057 -0.0180046 -0.0123596 -9.98669e-05 0.145237 -0.0201068 -0.0290245 -0.00743777 0.00878553 0.127939 0.00586465 0.0955596 0.00921998 0.0124498 
0.00061216 0.0191825 -0.0220364 -0.00673639 -0.000427959 -0.0230898 -0.0133963 0.0102835 0.0132885 -0.0141416 0.0416614 0.0079963 0.00262074 -0.016492 -0.00671687 0.00210151 0.0100351 -0.0177754 0.0177215 -0.0479047 -0.0182313 3.62324e-05 -0.0122518 -0.00409832 -0.021665 -0.0585692 -0.0052529 0.0551228 -0.00658518 0.0669826 0.00723793 0.00774882 
0.0190748 0.0163462 -0.0291832 -0.00571553 0.011447 0.0125345 -0.0148781 -0.0039414 0.0187248 -0.0293394 -0.0123472 -0.0170432 0.0154359 0.0011752 0.0145476 0.058868 0.0194527 0.0159903 -0.00382296 -0.0324344 0.0132575 -0.0122972 0.0692053 0.0458374 0.00188772 0.0583388 0.165219 0.0146645 0.0918918 0.031946 0.114499 -0.02548 
0.00392636 0.0564737 -0.0216567 -0.0115746 0.0134409 0.00103608 -0.0160928 -0.00344872 0.0516273 -0.0570028 0.0144386 -0.018959 0.0884684 -0.00826639 0.00865429 0.0921956 0.00872522 -0.0146234 0.0143097 -0.0173892 0.00835917 -0.0362076 0.213993 0.00652302 -0.0365822 -0.0397973 0.0357468 0.223714 0.0137876 0.129965 0.0122079 0.00890685 
-0.00407842 -0.0393417 -0.0185377 -0.015061 0.0134147 0.0143292 0.00523851 0.00897212 0.00541229 0.00119519 -0.0164346 0.0143066 -0.0200116 0.0167594 0.0150448 0.0253809 -0.021557 0.0154629 -0.0204899 -0.00548089 -0.0103415 -0.0278204 -0.0982005 0.00663744 -0.0235159 -0.063436 -0.059721 -0.111754 -0.000492417 0.00951001 -0.0183832 -0.0217657 
0.0152982 -0.0304806 -0.0123474 0.00454125 -0.0187976 -0.018014 -0.0167541 -0.0201951 0.00380875 -0.0121958 -0.0213264 0.00111304 -0.0323202 0.0186041 -0.017161 0.0587305 0.00939723 -0.0130957 -0.00751947 -0.0392535 -0.011138 0.0039151 -0.086517 0.013943 -0.000421093 -0.0398116 0.00869007 -0.112036 0.0174285 -0.023116 0.0189386 0.00194238 
-0.00599919 0.0188917 -0.0374816 -0.00631881 0.0137717 -0.0051982 -0.0146962 0.0117551 -0.00787849 -0.0250202 -0.00303523 -0.00473538 0.0245662 -0.0168748 -0.0176895 0.0220093 0.0162881 0.000725574 -0.00701687 -0.0120468 -0.0114668 -0.0423444 0.0862626 -0.00383963 -0.0431665 0.0469445 0.0858219 0.0811726 0.0718685 0.0158215 0.035223 -0.0258597 
0.0113204 -0.00207544 -0.00849906 -0.00363727 -0.0159555 0.013306 -0.050377 -0.0236255 -0.00225833 -0.0455144 -0.00019766 -0.000191396 -0.00286904 -0.0355339 -0.0165629 0.173263 -0.00294678 0.00474386 -0.00841549 -0.0174921 0.00820231 -0.0535157 0.00866791 -0.0899465 -0.0386208 -0.0410669 -0.0462031 -0.0395915 -0.147744 -0.56664 -0.187736 -0.00709022 
-0.0089704 0.0361555 0.00714131 -0.00681805 0.0171744 -0.0182634 -0.0160578 -0.0154865 -0.00403941 -0.0320003 0.0939677 -0.0135334 0.0437082 -0.0110242 0.0122987 0.0430517 -0.0138188 -0.00968756 -0.0160142 -0.0108539 -0.00593704 -0.039758 0.0966595 -0.0202494 -0.0207952 -0.0625764 0.0125866 0.0921272 0.047435 0.0402557 0.0106384 -0.0130381 
0.0130912 0.0165345 -0.0159367 0.00366709 0.0143589 -0.0135975 -0.0328449 0.0175265 -0.0105588 -0.027504 -0.0169801 0.00459421 0.0148532 -0.0332728 -0.0149018 0.0706328 0.00224056 0.00161107 -0.00664028 0.0177103 0.0108227 -0.0444477 0.136297 0.0530859 -0.0407552 0.0905537 0.17141 0.0565437 0.131403 0.0273104 0.113746 0.0145101 
0.0211705 0.0199409 -0.0201777 0.0090669 -0.00870377 -0.00328637 -0.0147916 -0.0133048 -0.0124616 -0.0534657 -0.0322338 -0.0231569 0.000503326 -0.0280039 0.00552181 0.0923322 -0.0198582 -0.021047 0.0106198 0.00198476 -0.0206999 -0.0176024 0.00347881 -0.0106795 -0.0415867 -0.0487472 0.0280703 0.00732326 0.0345264 0.0769243 0.0215092 -0.00553341 
-0.00753646 0.00613179 -0.0191109 0.00141633 0.0131348 0.0130997 -0.0495582 0.00922531 0.000589842 -0.0502398 0.0422672 -0.0170819 0.0568957 0.00295976 -0.00836094 0.153625 0.0145974 -0.0107933 0.0026493 -0.00632823 -0.018655 -0.00613303 0.105339 -0.0106272 -0.00980411 -0.0412898 0.0172877 0.132243 0.0390701 -0.309892 0.0187565 -0.0169991 
-0.010324 -0.0333052 0.0113825 -0.0206335 -0.0175696 0.0126636 -0.0263633 -0.0143218 -0.0356901 -0.0155936 0.0141016 0.0119843 -0.045514 -0.0217151 0.00930658 0.0376606 -0.0117512 -0.00388841 -0.0182104 -0.0213889 -0.00505175 -0.0137437 -0.0818848 0.0204546 -0.00824111 -0.044474 0.0181799 -0.111587 0.0221999 -0.021933 0.0419397 0.0105959 
0.0190609 0.0118015 -0.00396502 -0.0247188 -0.0213426 0.00537012 -0.0374714 -0.0279329 0.00269605 -0.0223101 0.0189731 -0.0234801 0.0607967 -0.0122855 -0.00698246 0.0545369 -0.015316 -0.000726374 -0.00490163 -0.0122626 0.00949774 -0.0445891 0.147697 -0.00828382 -0.0281745 -0.00930759 0.0332528 0.11459 0.0313039 0.0535265 0.0244964 -0.000586887 
-0.00707877 0.0105739 -0.032365 -0.0112024 0.00121098 -0.00319139 -0.0289308 -0.00209974 0.0082447 -0.0453141 -0.0296024 -0.0160174 -0.00543689 -0.0439784 0.00396843 0.0889417 0.013332 -0.0146197 0.0157349 -0.00848035 -0.00796085 -0.01768 0.0315068 0.022747 -0.0215858 -0.0291105 0.0768676 0.00560637 0.0545701 0.0831004 0.0533722 0.0134511 
-0.00139581 0.0132832 -0.036928 0.0168893 -0.01252 -0.000971216 -0.0110267 0.0150466 -0.00481013 -0.0284355 -0.020647 -0.0181193 0.0523928 -0.00490481 0.00761045 0.0937662 -0.0152669 0.0123608 -0.0149638 -0.000657626 0.00992556 -0.00577263 0.125885 0.0596625 -0.0311866 0.0986401 0.195929 0.114106 0.183806 0.0519285 0.157312 -0.0116257 
-0.0143326 0.0122086 -0.0158119 -0.00814672 0.0174644 0.0150492 -0.0314373 -0.0270872 0.0232709 -0.0261492 -0.00537108 -0.0170238 0.049172 -0.0265982 -0.0239713 0.057761 -0.0233309 -0.0148187 -0.0175519 -0.00512528 -0.0162148 -0.019726 0.122135 0.00271362 -0.01056 -0.0398873 0.0161309 0.165565 0.0364164 0.0828276 -0.00910088 -0.0220359 
0.00475257 0.00595962 -0.0401461 -0.00526019 0.00331933 -0.00996609 -0.0253099 -0.0272467 -0.0104112 -0.0658382 -0.0367762 -0.00476105 -0.00389291 -0.0394003 -0.00339032 0.0867186 0.00538048 0.00823428 -0.0259644 -0.000625632 -0.0127238 -0.0484983 0.00451879 0.0287636 -0.039879 -0.0169198 0.0718948 -0.00458677 0.0405212 0.0977137 0.0248392 0.0127652 
0.00265589 0.0111277 -0.020498 -0.0181783 -0.00946218 0.0145852 -0.0213928 -0.000372343 -0.0183687 -0.00861719 -0.0105177 -0.0156737 -0.00413909 -0.00322317 0.0020898 0.0255619 -0.00286634 0.00638759 0.000462301 0.00709651 0.0194617 -0.000303745 0.043157 -0.00340684 -0.00541133 0.00903834 0.0373289 0.0554074 0.0181377 0.030047 0.032026 0.0160159 
-0.00134522 -0.0295333 -0.0190095 0.010106 -0.0127583 -0.00930923 -0.0145113 -0.0124079 0.00290776 -0.00186112 0.0241503 -0.0230273 -0.0436447 -0.0193969 0.013983 0.0687966 0.00897022 -0.00628847 -0.00704327 -0.00900028 -0.0124718 0.0204824 -0.109218 0.0536702 -0.0171872 -0.0367968 0.0422031 -0.0931354 0.0226061 -0.0550676 0.07145 0.0122486 
0.0207824 -0.00587562 0.00395303 -0.0152946 -0.0183106 0.0142863 -0.00987969 -0.0189107 -0.0250867 0.0124092 -0.00433267 -0.00207166 -0.00999694 -0.0198287 -0.0127669 0.0671821 -0.00388191 0.00365296 -0.00372646 -0.00778361 0.00433339 -0.0050134 -0.087777 0.00479923 -0.0334046 -0.0435219 0.0178516 -0.111853 0.00676216 -0.0348426 0.0346108 -0.0200683 
-0.00775479 -0.00645103 -0.0103352 -0.00529081 0.00697464 0.00700929 -0.00721301 0.0218569 -0.0169772 0.000639475 0.00651018 -0.00289252 -0.0232985 0.0149406 -0.011709 0.0292708 -0.00433482 0.00809313 0.0166869 -0.0342642 -0.016119 -0.00475866 -0.114448 -0.000721196 0.00552963 -0.0199932 -0.0301043 -0.141458 0.00763623 0.00492261 0.00706455 0.00629534 
0.00684529 -0.00330532 -0.0351915 -0.0100811 -0.0208717 -0.004202 -0.0189769 0.00194031 -0.0104542 -0.000588151 -0.0160402 0.0134374 0.019075 -0.0185965 -0.016911 0.000834379 -0.0163239 -0.0208036 -0.0126698 -0.0100757 -0.000935096 -0.0242481 0.0217958 -0.00376768 -0.0292689 0.0269104 0.0235798 0.0198206 0.0307029 0.00547734 -0.000180644 -0.00570093 
0.0148511 -0.0102562 0.0100819 0.0157764 0.0145134 -0.0198069 -0.00242755 -0.0199648 0.018673 0.00253933 -0.0264281 0.00657689 -0.0210318 -0.0172838 0.0167469 0.033489 -0.0142349 -0.0154054 -0.00391798 1.90849e-05 -0.00155554 0.0127691 -0.0101844 0.0448853 0.0078319 -0.00594724 0.0649735 -0.00406242 0.0897138 -0.0101375 0.0519895 0.00643933 
0.00499399 0.0233041 -0.0110176 -0.00520996 0.0145195 0.0152083 -0.0150432 0.00723761 0.0134317 -0.0225072 -0.00526603 -0.00397486 0.0290854 -0.0195618 0.00926957 0.0630521 0.00197143 -0.0154206 -0.00352747 -0.0291699 0.0211374 -0.0176144 0.071174 0.0130892 0.000181424 -0.000847737 0.0129036 0.0756805 -0.000593435 0.0263633 0.00394862 0.00938288 
-0.0164787 0.0116091 -0.0144052 0.0200399 0.0205012 0.00689425 0.0108795 0.00195123 -0.0252599 -0.0109111 -0.0270744 0.00912174 -0.00778126 0.0146441 0.00417839 0.0689497 -0.0214127 -0.0168256 -0.0113616 -0.0275272 0.00651694 0.0157755 -0.0183021 0.0792789 -0.0016647 -0.023357 0.106099 -0.0472471 0.134771 -0.0434717 0.147512 0.00342276 
0.00789004 0.0242981 -0.00162013 0.00396032 -0.00457259 -0.0106799 -0.0280925 -0.00336157 0.0163495 -0.0286787 0.0355945 -0.0183076 0.0132008 -0.0314476 -0.00252895 0.0290083 -0.0177269 0.00981151 -0.0141784 -0.00280629 0.00493509 -0.0350949 0.0670566 -0.0092719 -0.0307206 -0.0169646 -0.0109865 0.0863781 0.00616644 -0.0895265 -0.00600416 -0.0216645 
-0.00540829 0.022071 0.00695169 0.0116888 -0.00949582 0.0152435 -0.00915502 0.017309 -0.0125674 0.00728011 -0.00558754 -0.00746673 0.0123022 0.0054283 0.00427454 0.0441578 -0.00723202 0.0156394 0.00638363 0.0137383 0.0175804 0.0204755 -0.0010644 -0.00591372 -0.000552788 -0.0243811 0.0233516 0.0346849 -0.0115375 -0.03972 0.0408003 -0.00643883 
-0.021377 0.0199289 -0.0255609 -0.0123197 -0.0025674 -0.00792656 -0.0373212 -0.00491329 -0.00123184 -0.0418808 0.0684386 0.00394073 0.0487565 -0.010871 0.00784269 0.038173 -0.00407394 -0.00527963 -0.0131596 -0.0335057 -0.00612333 -0.0210869 0.0754384 0.0202131 -0.00892781 -0.0542301 0.0306737 0.107425 0.0181927 0.029074 -0.0049436 -0.00677888 
-0.00239101 0.00813725 -0.01907 0.0126257 0.0190795 0.00589834 -0.0163077 -0.0172524 -0.00427022 -0.0293206 0.0124008 -0.023452 0.0100444 -0.0146623 -0.000851395 0.0545433 -0.0167719 0.0173815 0.0208734 0.00540932 -0.00180678 -0.0284077 0.0853591 0.0276544 -0.0172916 0.0688458 0.0994025 0.0978136 0.0866234 0.0388816 0.0725452 -0.00365847 
-0.0188739 0.0228602 -0.00775038 -0.0224191 0.0158675 0.0162564 -0.0204561 -0.0189213 -0.0034017 -0.0227736 -0.0218664 -0.00218063 0.0183846 0.0126377 -0.0186611 0.0356411 0.0124919 -0.0194339 -0.00273144 -0.0130208 -0.000500235 0.012503 0.0134889 -0.0143886 -0.0166878 0.0155268 -0.00778007 0.000826635 0.0118822 -0.0029104 0.0257928 0.00573013 
-0.0032317 0.00148522 0.00373109 -0.0141061 -0.00925665 0.00806593 -0.0333019 0.000661311 0.0237888 -0.0281771 0.0136613 -0.00371493 0.00844963 -0.0189422 0.0045804 -0.0131642 -0.0133818 -0.0157872 0.00288975 -0.0171145 -0.0196011 -0.0317 0.0187436 -0.0111181 -0.0434996 -0.0779084 -0.00538777 0.0491966 0.00466941 0.0633662 -0.00600812 0.0196084 
0.0211137 0.00383071 -0.0201958 -0.0171918 0.0144053 -0.00348125 -0.0237089 -0.00583216 0.0108271 -0.0756743 0.106078 -0.00475039 0.0242963 -0.0343212 -0.0162426 -0.0119896 -0.0163347 0.0172243 -0.00199734 -0.0503084 -0.0159671 -0.0335457 0.0784088 -0.0632894 -0.0410898 -0.083433 -0.0584743 0.109352 -0.0399189 0.115061 -0.116665 0.0172964 
0.0024293 -0.00715609 -0.0168531 -0.00778361 0.019347 -0.0186581 -0.0340443 -0.0158728 -0.00868406 -0.0196419 -0.00215561 0.00168311 0.000971882 -0.00910593 -0.00295652 -0.0383607 -0.0113814 -0.019027 -0.00629824 -0.0235739 0.00615858 -0.0323501 -0.0172704 -0.0235926 -0.023661 -0.0340359 -0.0515712 -0.0130327 -0.0234103 0.05645 -0.0402883 0.0190712 
0.0164369 -0.00404752 -0.0238789 0.0128857 -0.00190758 -0.0102122 -0.0288622 0.00890423 0.0237765 -0.0290645 -0.0843572 0.000845508 0.0157624 0.00557138 0.00687055 0.069543 -0.0200691 -0.0182521 -0.00437296 0.00354491 -0.0165451 -0.0272625 0.0434126 0.0049472 -0.0309474 -0.0148031 0.0432748 0.0149157 0.0541227 -0.0111782 0.0191364 0.0136051 
-0.011981 0.0268585 0.00885749 0.00745148 -0.0156622 0.012657 -0.00920681 -0.0179139 -0.00689461 0.0103138 0.00670088 0.00443747 0.0405775 -0.00212594 0.00620676 0.0855369 -0.000286256 -0.0169632 0.0050951 -0.00230629 -0.00641691 0.000275287 0.0479505 0.0107747 -0.0311095 -0.0150901 0.019829 0.111104 0.0281397 -0.0961301 0.0357578 -0.0204178 
-0.0174708 -0.00135363 0.00945482 -0.0114615 -0.0078206 -0.0148966 -0.00635084 -0.00647215 -0.0228047 -0.017838 -0.0287167 0.0166449 0.000804572 0.00680791 0.0162747 0.0890064 0.0151951 0.00104508 0.0136632 -0.0241733 -0.0168352 0.0178115 0.0169403 0.0709285 0.00593851 0.00634006 0.153948 -0.0209562 0.182412 0.00919608 0.172217 -0.0210262 
-0.00197124 0.0414775 -0.027436 0.00711129 0.00787642 -0.00241282 -0.0458778 0.000526848 0.0500502 -0.0585836 0.0053275 -0.0193762 0.0906838 -0.0180415 0.000232152 0.0897152 -0.0144395 -0.00533314 0.0148078 -0.0287621 -0.00682226 -0.027079 0.205911 -0.0112552 -0.0441335 -0.0296629 0.0454648 0.228709 0.0307586 0.144502 0.00351212 0.0179236 
-0.0152272 0.00131687 0.00956728 0.0140313 -0.00317796 0.015356 0.00242864 -0.0101357 -0.0288933 -0.00748742 0.00986402 0.0170788 -0.0328296 -0.0103039 0.00847274 0.0198482 0.00566946 0.008373 0.00750972 0.0139587 -0.00611103 -0.016959 -0.0539361 0.0175248 0.00314983 -0.0347672 0.0143336 -0.0643757 0.0217477 -0.0042408 0.00192909 0.0186029 
-0.0220291 0.00354911 -0.0170513 -0.00582907 0.00792812 -0.0185548 -0.014351 0.000593512 0.00308978 -0.0414514 -0.0994845 0.00174161 -0.00748871 -0.0365035 -0.0162134 0.0108477 -0.0186431 0.0158562 -0.0112881 -0.0130685 0.0215683 -0.0299236 -0.0708558 0.0137924 -0.0204294 -0.0574272 0.0587146 -0.0687353 0.0409039 0.0678686 0.0281355 -0.00892338 
0.0147893 -0.00853949 0.0102408 -0.000301897 0.00495769 0.00135187 -0.0141273 -0.00495 -0.0210704 0.0108151 -0.0131792 0.00578843 -0.00257561 -0.00944607 -0.0188978 0.0498206 -0.00961502 -8.33228e-05 0.0131815 -0.0236142 -0.01804 0.0111001 0.0653531 0.0546655 0.00683216 0.0207974 0.1583 -0.00361022 0.0998839 0.0152154 0.0865673 0.00412551 
-0.0204498 -0.0180936 -0.0138778 0.00499608 -0.0194955 -0.00388755 -0.0274732 -0.0178009 -0.0241259 -0.0168515 0.0180256 -0.00237123 -0.0190534 0.0209108 0.0163749 0.0322136 -0.00329454 0.00898799 -0.00910351 -0.0124548 0.00517946 -0.0126917 -0.0891833 0.0217236 -0.0284388 -0.0325484 0.00784237 -0.0778566 0.0164621 -0.0197846 0.0398369 0.000702263 
0.017203 0.0757057 -0.0190333 0.0151049 -0.0112292 -0.018107 -0.0506161 -0.00820937 0.0516832 -0.0238109 -0.0748321 -0.028476 0.113451 -0.0326578 -0.0169993 0.0612114 0.00628225 0.00046663 0.0160385 -0.0288359 0.0125772 -0.0316654 0.287973 -0.0287142 -0.0518491 -0.0206903 -0.00314512 0.340504 -0.0841129 0.242989 -0.102424 -0.02117 
-0.00551428 -0.00163161 0.0117001 0.00348901 0.00252767 -0.0245344 -0.0204708 -0.0198657 0.0223894 -0.0203131 -0.0168958 0.0100342 0.00408171 -0.0106959 -0.0144483 0.0137925 0.0215315 -0.0143435 -5.12592e-06 0.010528 0.000859958 -0.0128195 0.0532992 0.0276513 -0.0267777 0.0406765 0.0614631 0.0181669 0.0417299 0.00411273 0.0438197 -0.00523716 
0.00936841 -0.00133502 -0.0341972 -0.0131864 -0.00864807 -0.0185557 -0.0174526 -0.0109473 0.0047006 -0.0142685 -0.0275946 0.00675877 -0.000975529 -0.0234331 0.0162012 0.0270527 -0.000481233 -0.00248542 0.0131415 -0.0235691 0.0162724 -0.0160299 0.0792681 0.0137747 -0.0369702 0.0745842 0.10307 0.0323543 0.0769794 0.0222759 0.0861244 0.0096916 
0.014611 0.0216192 -0.0222536 -0.0206542 0.0173243 -0.00966886 -0.0341718 -0.0134324 0.0324737 -0.0398881 0.00496239 0.00635626 0.0370587 -0.0250647 -0.0265021 0.11794 -0.000913494 0.0131318 -0.0114514 -0.0236042 -0.00963488 -0.00418557 0.0554368 -0.0495579 -0.0218701 -0.017835 -0.0362855 0.0900032 -0.0766685 -0.361689 -0.0694461 -0.0142423 
0.0115088 0.0167204 -0.0163348 0.00527906 -0.014331 0.00603772 -0.0250763 -0.0168155 -0.0106313 -0.0191036 -0.0215328 -0.0255802 0.00725324 -0.0258311 -0.0099296 0.00313316 0.0177989 0.0053931 0.00229091 -0.0130576 0.00153912 -0.0283796 0.0333761 0.00443496 0.00545546 0.0521639 0.0268566 0.00902613 0.0229771 0.0241848 0.0286333 0.0116307 
0.00482379 0.000977162 -0.00247651 0.0121895 -0.00583205 -0.000604869 0.0177913 0.00322182 0.00474153 -0.0228774 -0.00567028 -0.0165778 -0.0260577 0.014525 -0.0108891 0.0839197 0.000158001 0.015071 -0.013618 -0.0285389 0.0176639 0.00685888 -0.0176808 0.0996114 -0.00155901 -0.00193211 0.169113 -0.0319428 0.150812 -0.0293436 0.16992 0.0117832 
0.015811 -0.0156666 0.00191158 -0.0170652 0.00224612 -0.00328708 -0.017032 -0.0152603 0.00539279 -0.0452449 0.0369443 -0.00961962 -0.0129815 0.00710948 0.00107325 -0.0144755 0.00417691 0.0134569 0.0127618 -0.0329323 0.00147386 -0.0378851 -0.0278129 -0.0314384 -0.0295305 -0.103392 -0.0929875 0.0339793 -0.0297344 0.0950083 -0.0295459 -0.00932553 
0.00599504 0.00529796 -0.00864953 -0.0173298 0.0121186 -0.0152238 -0.0245172 -0.0198129 0.0219888 -0.0549997 0.106502 0.00671943 0.00540358 -0.0136046 0.00891798 0.0694592 -0.00902539 0.00542453 -0.00886071 -0.0127362 0.0120168 -0.0137741 0.0590696 -0.00809136 -0.0526932 -0.0616515 -0.00578469 0.0858975 0.0367978 0.0513893 0.0110416 -0.00429899 
-0.0212871 -0.0155249 0.00394329 0.0125712 0.00246209 -0.0153468 -0.0180267 -0.0108209 -0.0142934 -0.0224081 -0.0210459 -0.0113567 -0.00183792 -0.0248561 -0.0185987 0.127054 0.00538945 0.00147869 0.0177566 -0.0134289 -0.00804354 -0.0220336 0.0123325 0.081055 -0.0227767 0.0187887 0.180317 -0.0153243 0.16795 -0.0120181 0.157924 0.00349776 
0.00938156 0.0411716 -0.00948626 -0.0162164 -0.0147078 -0.0053339 -0.036039 -0.0131363 0.0186433 -0.0392325 0.108875 -0.0345204 0.0359805 0.00499587 -0.022018 -0.018147 -0.00589168 -0.0211609 0.00881687 -0.0200778 -0.0184436 -0.0278557 0.0476458 -0.0511457 -0.0428556 -0.0415139 -0.0453347 0.0836563 -0.0459341 0.109012 -0.0661103 -0.0174893 
0.00697862 -0.0116165 -0.0100952 0.0135577 0.00870046 0.0155403 -0.010063 -0.0108114 0.00730338 -0.020498 -0.0063426 -0.00731713 -0.00847719 -0.0049175 0.0132394 0.0531733 0.0016321 0.00704281 0.000344181 -0.00536908 -0.0124483 0.00192106 0.0584591 0.0391224 -0.0061775 -0.00635398 0.143019 0.0290643 0.0852127 -1.79376e-05 0.0467921 -0.00214825 
0.00395876 0.00298287 -0.00935375 -0.0134842 -0.00693435 0.00374137 -0.0234974 -0.0280896 0.0197072 -0.0139019 0.0242642 0.00779621 0.000993046 -0.0165003 0.00174582 -0.044257 0.0146963 -0.0165807 0.00426459 -0.0459401 0.0138012 -0.0152605 0.0109067 -0.0173043 -0.0151078 -0.0760173 -0.0434931 0.0410485 0.00768282 0.0745175 -0.0381184 0.00293688 
0.0172059 0.00471266 0.00929126 -0.0128101 -0.0146392 -0.00736432 -0.0141442 0.0218763 -0.00628924 0.0011711 0.017097 0.00839582 -0.0124394 -0.00329906 0.0119161 0.0729872 0.0105567 -0.00167757 -0.015477 -0.00931834 -0.0206871 0.0137775 0.0671295 0.051103 -0.0105835 0.004623 0.144836 0.0144168 0.0907908 0.0110193 0.0573363 0.00180073 
-0.0166098 0.0244039 0.00761534 -0.0150342 -0.00745772 -0.0249902 -0.0467727 -0.00561005 0.0178412 -0.0627486 0.0198721 -0.00513696 0.0297581 -0.0255271 0.00755105 0.201978 0.00578226 0.0193587 -0.0203118 -0.0172595 0.0184524 -0.0487232 0.0403367 -0.0508523 -0.043841 -0.0569952 -0.001625 0.00549883 -0.0486647 -0.541832 -0.075255 0.0150877 
0.0195028 0.0158094 -0.0188886 -0.01293 0.0112802 -0.0058649 0.00228159 -0.00304025 0.0166136 -0.026379 0.0356943 -0.00613 0.0225565 -0.0218379 -0.0170078 -0.00583422 -0.0205285 -0.00719137 -0.00815174 -0.0392783 -0.00182382 0.00755259 0.0263229 -0.00141333 -0.0375783 -0.0350102 -0.0366792 0.0607388 -0.0209743 0.0430864 -0.026303 -0.0058885 
-0.00037981 0.0125362 -0.000301667 -0.01707 -0.0128347 -0.00260002 -0.0241235 0.00541384 -0.0196527 -0.0648525 0.0170876 -0.00547119 -0.000682181 -0.0091356 -0.0114864 0.160161 0.0143418 0.0103193 -0.00381112 -0.032243 0.0101226 -0.00879694 -0.0028267 -0.0752246 -0.044974 -0.0419665 -0.0331863 0.0047454 -0.151817 -0.563418 -0.179498 0.0108917 
0.0220515 0.0167432 -0.0242249 -0.013362 -0.00286214 0.0132214 -0.0176559 -0.00091388 -0.0209475 0.0013039 -0.0106027 -0.00643177 -0.00757066 0.00387443 0.0170327 0.0194372 -0.00493077 -0.00278897 0.0081722 -0.0240533 -0.00294705 -0.0240667 0.0421336 0.0375882 -0.00979525 0.00402399 0.0969599 0.00870908 0.0576459 0.0170521 0.0401871 0.00897685 
0.00978646 0.000283723 0.00210751 -0.0176388 -0.0116552 -0.0258274 -0.00492849 -0.0105453 0.0106455 2.74665e-05 0.00834475 0.0112384 0.0156575 -0.011267 -0.0176853 0.0355316 -0.020158 0.0146302 -0.0183386 -0.000401348 0.0155581 -0.0371115 0.0289137 -0.00653789 -0.0121123 0.0346066 0.055551 0.0240769 0.0402424 0.0090179 -0.00301241 0.000202222 
0.0114057 -0.0418715 0.0103276 0.02023 -0.0191565 -0.00620387 -0.0168178 0.0105274 -0.0278927 0.013681 0.0177495 0.00996831 -0.0316002 0.0121876 0.0124339 0.0653418 0.00302715 0.0184078 -0.0189558 -0.0185974 0.0210082 -0.00715783 -0.0857231 0.0304839 -0.018576 -0.0386701 0.0241353 -0.125704 0.00136843 -0.0330537 0.0630218 0.00886821 
0.0173158 0.0207266 0.00450632 0.0145332 0.0188923 0.0152646 -0.0274552 -0.0242735 0.0340578 -0.0556422 0.0497443 -0.0192097 0.00380662 0.00471729 -0.0242588 0.00622087 0.00950609 -0.0160995 -0.0154661 -0.0214631 0.00150866 -0.00682534 0.040387 -0.00740325 -0.0313935 -0.0738565 -0.053175 0.1021 -0.0390334 0.0786931 -0.0471662 -0.0220747 
0.00415243 -0.00586572 0.00078633 -0.00262624 -0.0158669 -0.000760957 -0.00190622 -0.018984 -0.0155648 -0.00831957 -0.00715719 -0.0243721 0.0337784 -0.013986 0.0154475 0.0619782 0.011778 -0.0139125 -0.00170761 -0.00579588 -0.0144171 -0.00420788 0.0691639 0.0543846 -0.039182 0.072663 0.116053 0.0469835 0.103924 0.0475807 0.0776655 0.014176 
-0.0175278 -0.0305827 -0.00197102 -0.0123625 0.0132927 -0.0147778 -0.0113935 0.0142755 0.00643536 0.013586 0.0348612 0.00420746 -0.0270557 0.0172873 -0.0102503 0.0429901 -0.0191784 0.0110852 0.00198938 -0.0243372 0.00550744 0.0106044 -0.0875128 0.0384545 -0.0261128 -0.0271252 0.0344388 -0.082044 0.0261093 -0.0341005 0.0504368 0.00419089 
-0.0138887 0.0115927 0.016896 0.0208457 -0.016964 -0.0139694 0.0099459 -0.018168 -0.0275697 0.00856869 0.00807528 -0.00181272 -0.00373704 -0.0168239 0.0103054 0.0383131 0.0165876 -0.00904391 -0.0184601 -0.005873 -0.0192012 -0.0153168 -0.0511596 -0.00625389 0.00892115 -0.0367279 0.000114092 -0.0509852 -0.00876766 0.00623954 -0.00895768 -0.00920881 
-0.0135928 0.048557 -0.0226895 -0.0120674 -0.0179739 -0.0257433 -0.0259323 -0.0254224 0.0427247 -0.0454346 0.00215429 -0.00772568 0.0454687 -0.0224553 -0.00627975 0.0443064 0.00674441 -0.000434228 0.00700271 -0.00517216 0.00813672 -0.00279107 0.172458 0.000681264 -0.0447151 -0.0133252 0.0342936 0.159969 0.0452205 0.113856 0.00481654 -0.0150477 
0.0137558 0.0127459 -0.0012833 0.0167045 0.0160287 0.0165394 -0.0280257 0.00912872 -0.0164275 -0.00195433 0.000961493 -0.00622184 -0.0196964 0.00905853 0.00691891 0.00282055 -0.0127363 -0.00241726 0.0019621 0.00868179 -0.00289207 -0.00362163 -0.00996428 -0.00750768 -0.0178392 -0.0346495 -0.0173159 -0.00652156 -0.0247217 0.0214681 -0.0175978 -0.0207739 
0.0200066 0.0230027 0.00650831 0.0122408 0.0143138 0.0159169 -0.00456966 0.0191949 0.010164 0.00487691 -0.00540717 0.00546062 0.0188303 -0.0310509 -0.000485103 0.030826 0.000713407 -0.018232 0.0159695 0.0212753 0.00571588 -0.0210018 0.0319801 0.0216057 -0.0059883 -0.00202291 0.0140732 0.0463326 0.0142467 0.0206564 0.0301121 -0.0135617 
0.00134195 0.0319118 -0.0255707 -0.0116319 0.0118103 -0.000204217 -0.0417099 -0.0148375 0.0179411 -0.0371345 0.0950526 -0.0282127 0.0351037 -0.00619154 -0.0194156 -0.0368539 0.006514 -0.0214948 -0.0177311 -0.0364421 -0.00790371 -0.0202118 0.0595028 -0.0412402 -0.0219279 -0.0502648 -0.0135384 0.0832592 -0.0921684 0.0936406 -0.115554 0.00594191 
-0.00362158 0.0167298 0.00107066 -0.0180867 -0.0187261 -0.0200836 -0.0190095 -0.00353676 0.0366655 -0.0241461 0.00850217 -0.00469113 0.0360106 -0.0453582 0.0177868 0.0666098 -0.0208297 -0.0151266 0.00182328 -0.018869 0.0138394 -0.00828289 0.0977461 0.00596387 -0.0295849 -0.0414964 0.0401551 0.110904 0.0352784 0.0289055 -0.00146907 -0.0190438 
0.00108933 -0.0113483 -0.0119435 0.00390082 -0.000573979 0.0168587 -0.0133615 -0.00236304 0.00898178 -0.0210457 -0.0175654 -0.0169057 -0.0119942 -0.0212089 -0.00450401 0.00387795 -0.0109294 -0.0184534 0.00341168 -0.0222154 -0.0191985 0.0139257 0.0259956 0.0144188 0.0160318 0.00415014 0.0289541 0.0149304 0.0272898 -0.00431766 0.0384185 0.0205724 
0.000875499 -0.0123786 -0.0220065 -0.0265234 0.0210973 0.00170974 -0.0286959 -0.00256222 0.0252341 -0.0364725 0.022834 -0.0339296 0.0214545 -0.0406819 -0.0125618 0.0930962 -0.00803563 0.0151079 -0.0272845 -0.0333134 0.0103265 -0.0255658 0.0542581 0.0115872 -0.0498555 -0.0783859 0.0334051 0.0339748 0.0241651 0.0890713 0.0227555 0.0148576 
-0.0124005 -0.00479667 0.000595314 -0.0166794 0.0216706 -0.0134433 0.00541999 0.0187463 0.0257446 -0.0111251 0.0144084 -0.00212661 0.0427112 -0.027797 0.000993111 0.0415371 -0.0171368 0.00567326 0.00814156 0.0143857 -0.0078727 -0.0117217 0.0888228 0.0333723 -0.0108168 0.0886977 0.13816 0.037559 0.0786469 0.0247278 0.107664 -0.0179021 
0.0100447 0.0236248 -0.0168064 0.00711648 -0.0121947 -0.0163802 -0.00146677 -0.0140052 0.0224805 -0.00882794 0.00727568 0.0095392 0.0329952 -0.0155646 -0.0181707 0.0274262 -0.019238 0.015076 0.0156129 -0.0110105 -0.0013792 -0.0171067 0.0782819 0.0205767 -0.0234201 0.0573823 0.108431 0.0288884 0.0789888 0.00362625 0.0819234 -0.0249232 
-0.0203986 0.0196995 0.0098884 -0.0107911 -0.0121231 -0.00652705 -0.00256926 -0.0149616 0.0189081 -0.0107658 -0.0256964 0.0139916 0.00854342 -0.0154533 0.0155579 0.067715 -0.0208146 0.0100036 -0.014085 -0.00576844 -0.0161095 0.0197825 0.0132737 0.0428115 0.00633432 0.0173482 0.100424 -0.0310263 0.0636287 -0.0102163 0.0677901 -0.0202124 
-0.0069188 0.0201676 -0.0117032 0.00212457 -0.0106189 0.0105891 0.00737291 -0.0111207 -0.0180727 0.00621277 -0.018975 0.010052 0.0262468 -0.0269724 0.00252053 0.0443491 0.0103417 0.011773 -7.29784e-05 0.0127484 0.0110918 -0.0201274 0.0178271 0.0169152 -0.0269853 -0.00283022 0.0630311 -0.0062083 0.0355321 0.0180401 0.0189741 0.0116589 
0.00742794 0.00336801 -0.0342603 0.0143246 -0.00987462 -0.0310984 -0.0390099 -0.0153666 0.0192232 -0.0472615 -0.0385851 -0.00016417 -0.00196356 -0.0206815 0.011456 0.0615092 -0.000423429 -0.00844979 0.0125743 -0.0290822 -0.00178092 -0.0454911 0.0289434 0.00491572 -0.0371813 -0.0444469 0.0502399 0.025815 0.0237035 0.0728467 0.033027 0.0112651 
-0.013036 0.018406 0.00916585 -0.00407652 -0.0187949 0.0159477 -0.00876038 0.0129913 -0.0133396 -0.0100597 -0.022278 -0.0108531 0.0055187 -0.0044362 -0.000959506 0.189853 0.0109381 -0.00113307 -0.0035055 -0.0272708 0.00917008 -0.0293988 -0.0104877 0.0142531 -0.0208146 -0.0312367 0.0163639 -0.00449569 0.0433063 -0.340036 0.0715536 -0.00780374 
-0.00178734 0.00276877 -0.00861571 -0.00185304 -0.00868052 -0.00155513 -0.0151724 0.00149071 0.0134997 -0.0372317 -0.0204978 -0.0148734 0.0351877 -0.0154612 0.000752875 0.0358654 -0.0168979 -0.019629 0.0213688 0.0190235 -0.00984694 -0.00806646 0.08801 0.0307382 -0.0333413 0.0495114 0.0847179 0.0548855 0.0438036 0.0220341 0.0463335 -0.000173277 
0.00768719 0.00460467 -0.0402416 0.0177501 -0.0161018 -0.00462014 -0.0148287 0.0118892 0.0190411 -0.0226457 -0.0144173 -0.00508836 0.00350712 -0.00995236 -0.0137341 0.0119953 0.0142309 -0.0118795 -0.0170044 -0.0179395 -0.0202431 -0.0437927 0.0718927 -0.00619859 -0.00973749 0.0206802 0.0514311 0.0621945 0.0503684 0.00800928 0.0237557 0.00139884 
0.00736205 0.00798973 0.00379698 0.0131792 -0.00938136 -0.0178517 0.00334818 -0.0176685 0.00772585 0.0106479 0.0092637 0.0163098 0.00231182 0.019298 -0.0130588 -0.00559636 -0.0138658 -0.00632365 -0.00166532 -0.0112915 -0.00553594 -0.0028866 -0.000299617 -0.0173065 -0.0174028 -0.0197248 -0.0208211 -0.0163905 -0.0108885 0.00383245 0.0103699 0.0178476 
-0.0112669 -0.027106 0.00915269 -2.21412e-05 -0.00318669 -0.00857345 0.000139666 -0.0173314 -0.0359881 -0.0135403 0.0213659 0.00157321 -0.040178 -0.0133196 0.0201442 0.0179277 0.000598035 -0.0022074 0.00956755 0.00577897 0.018808 -0.0160986 -0.110913 -0.0162294 -0.0207219 -0.0502177 -0.0608475 -0.113813 0.00403303 0.0321377 -0.00165838 0.0144788 
-0.0112728 -0.0452881 -0.00618097 0.00395855 -0.00554863 0.0204531 -0.00789943 -0.0051222 -0.0292264 -0.0136749 -0.0427467 -0.00501478 -0.0200709 -0.0215557 -0.0209368 0.0755038 -0.00276863 0.0142893 -0.00162726 -0.0252004 -0.0207448 -0.0121277 -0.125442 -0.00439762 -0.0200516 -0.0606825 -0.0410375 -0.162066 0.0095049 -0.0260391 -0.0107044 0.0137651 
-0.0142157 0.00140795 -0.00382785 -0.00195387 -0.00481426 -0.0144761 -0.0498198 0.00234427 -0.0145515 -0.0550537 0.0278856 -0.0360901 -0.0105213 -0.00979464 -0.0024194 -0.00761102 -0.0134838 -0.022089 -0.0126976 -0.0411638 0.00140996 -0.00756351 -0.000807326 -0.0319885 -0.0300186 -0.0880552 -0.0654389 0.0165213 -0.0186609 0.0842144 -0.00636131 0.00575857 
0.0104344 -0.00853637 -0.0143779 -0.0163794 0.0091089 -0.0129947 0.0166704 0.0109035 -0.0141313 -0.0116773 0.0028934 -0.00119835 0.00248976 -0.0111102 -0.00809499 0.0817125 -0.00786477 0.00540317 -0.00197092 0.00856717 -0.00207036 -0.0207109 0.0115661 0.105918 -0.0129213 -0.00790647 0.129706 -0.0268344 0.157368 -0.038127 0.15775 -0.0105717 
-0.000405813 0.0163867 -0.0116051 -0.0150445 0.0195998 -0.0116073 0.0107375 -0.0119947 0.0100543 -0.00466622 0.0106869 -0.0117254 -0.00675459 -0.022192 -0.00355692 0.027029 0.016803 0.0173746 -0.0143137 -0.00735927 0.0209927 -0.0255108 0.0322862 -0.00322215 -0.0124795 -0.00434749 0.00681871 0.0214177 0.0096687 0.00633476 0.00134161 0.0189617 
0.00162647 0.0462952 -0.0174529 -0.00363113 -0.0133587 -0.0204391 -0.00474465 0.00810719 0.0398959 -0.015674 -0.0489484 0.00549446 0.0650487 -0.00219255 -0.017111 0.0365153 -0.00470636 -0.0046987 -0.0181055 -0.0155908 0.0039522 -0.0155403 0.14403 -0.0573535 -0.00268494 -0.0321959 -0.0357617 0.163344 -0.0416608 0.125422 -0.0800642 0.00107421 
-0.00666343 -0.000877114 -0.0337878 3.85857e-05 0.000938662 0.00701593 -0.0182645 -0.0120286 -1.39496e-05 -0.0179606 -0.0260199 -0.0126246 -0.0140226 -0.0213465 -0.0164532 0.035427 0.00921953 -0.00983975 0.0194926 -0.0145259 0.00945465 0.00108335 0.00627684 0.00479047 -0.0345236 -0.0153335 0.0357632 -0.0107302 0.0373144 0.0355915 0.0123476 -0.0100704 
0.00432601 0.00581147 0.00279962 -0.0185244 -0.00742918 -0.0184721 -0.0101877 0.0122883 0.0110338 -0.00958805 -0.0158834 0.00621761 0.0270539 -0.0204843 -0.0103713 0.0165842 0.00309122 -0.00892499 0.0182446 -0.00991933 -0.0150083 -0.0217052 0.0443819 -0.0105617 -0.000157347 0.019546 0.0149175 0.0361344 0.0357357 0.022889 0.0348387 -0.00241506 
-0.00962376 0.0178125 -0.019127 0.000852541 -0.0210304 -0.0311632 -0.027707 0.000616769 0.0092027 -0.0339012 -0.0196705 -0.0112137 0.0204501 -0.0156722 -0.0171633 0.0655362 -0.0200353 -0.0186427 0.00305213 -0.028912 -0.00681011 -0.0285765 0.010523 -0.0150333 -0.0371626 -0.0323861 0.0492879 -0.0028851 0.0255281 0.0727809 0.0306225 0.00283042 
0.00489109 -0.0122183 -0.0121849 0.00504381 -0.00543351 0.00537788 -0.00767184 -0.0212362 -0.019717 0.0120461 0.160961 -0.0244893 0.0111793 0.00807468 -0.00528261 0.0118082 0.0129044 -0.0167049 0.0143398 0.000521435 0.00604489 -0.0132813 0.0235383 0.0682354 0.00932546 0.0866411 0.0191039 -0.0411098 0.110281 -0.371297 0.106205 -0.00874273 
-0.0157848 -0.0161013 0.0013634 -0.00174808 0.00780557 -0.0172824 -0.0114746 0.0125993 -0.0156633 -0.0391018 0.0155923 -0.00256635 0.0251562 -0.0287121 -0.0137439 0.0213578 -0.00637201 -0.019884 0.00950139 0.0223591 -0.00971749 0.00332592 0.0514454 -0.0146261 0.00517185 -0.0157069 0.0213715 0.0399815 0.0346055 -0.00339603 -0.00510888 0.0190775 
-0.0155799 -0.0155533 -0.0248291 0.0107257 -0.0075907 -0.0302791 -0.0099344 -0.00793186 -0.011993 -0.0274509 -0.0213539 0.0102595 0.0257228 -0.0353498 0.00167099 0.00733378 -0.00896739 -0.00638362 -0.0192226 0.00314618 -0.00651494 -0.0447679 0.047871 -0.00255889 -0.0404914 0.027978 0.027388 0.0499733 0.00926124 -0.00496782 0.0397249 -0.015855 
-0.0120555 -0.0157352 -0.0200231 0.000777958 -0.000289486 0.00909998 0.0119209 0.00549236 -0.0231558 0.0109233 -0.00125439 -0.0257951 -0.0339789 -0.0139058 -0.016898 0.0329425 0.000380161 -0.00958312 -0.0180987 0.00473688 -0.0070176 0.00807822 -0.0746767 0.000601023 0.00231952 -0.0429347 -0.0315992 -0.0599435 0.00407229 0.0044159 -0.0118358 0.0104429 
0.0115416 -0.00857275 -0.0375191 -0.0146199 0.0155462 -0.0233857 -0.00240193 -0.0231746 -0.00682442 -0.0318997 -0.0175784 -0.0153889 0.0289491 -0.0380074 0.0170417 0.0166267 0.00275514 -0.0207931 -0.0169157 0.0194904 0.0138616 -0.0302542 0.0484193 0.00673809 -0.0116066 0.0154919 0.0412385 0.0460728 0.00632855 0.0308509 0.000375453 0.00738973 
0.00812698 -0.0179827 -0.0213699 0.000842099 0.00535808 0.0183718 0.00357064 0.0148202 -0.0150813 0.00908255 0.00403636 -0.0183097 -0.000590427 -0.0142863 -0.00340508 0.0425995 -0.0128803 0.0062784 -0.00177529 -0.0302894 -0.0163523 0.0121616 -0.0550069 0.0439186 -0.00859475 -0.0429916 0.0115344 -0.0718957 0.0241464 -0.0364602 0.0305213 -0.0112776 
0.0128386 -0.00181855 -0.00514336 -0.007201 -0.0136926 -0.0107212 -0.023218 0.00592862 -0.00929891 -0.0212274 0.0053287 -0.0238488 0.0303342 -0.028616 0.00604452 0.0665369 0.0191323 -0.0145648 0.0204796 -0.0158909 0.020163 -0.0143445 0.0505184 0.0296433 -0.010164 0.0577283 0.113794 0.0496268 0.100666 0.00913105 0.0796865 -0.00713275 
-0.00154133 -0.0161461 0.0153205 0.00588464 0.0142437 -0.0188485 -0.0134289 0.0213327 -0.00771631 -0.0222136 -0.0122663 -0.0144027 -0.0257082 0.0146933 -0.0159907 0.0232259 -0.0233363 -0.0167269 -0.00657901 0.00981223 0.0102111 -0.00762802 -0.0599481 0.00786226 -0.000271578 -0.0345126 0.00363056 -0.0731081 0.00915004 -0.0194318 0.0331312 0.0205174 
0.0075692 0.01204 -0.0221133 -0.00390813 0.00991088 0.00775457 -0.0183697 -0.0108337 -0.017673 -0.0247283 0.00174209 -0.0169684 0.0141242 -0.0154334 0.00369696 0.0189414 0.0156735 -0.022052 -0.0055344 0.00445333 -0.00609733 -0.011413 0.0720971 -0.0155835 -0.0376877 0.0237752 0.048677 0.0496902 0.053457 0.00359705 0.0330281 -0.000240981 
0.0151401 -0.0323243 -0.0177761 0.00114228 -0.011875 0.00299445 0.00846571 -0.0111295 -0.036644 -0.0119997 0.0123994 -0.000954831 -0.0575886 -0.0113141 -0.0215576 0.0789967 -0.0132779 -0.00152753 0.00178383 -0.0123456 -0.00809395 -0.00128382 -0.10672 0.0214693 -0.0265725 -0.0674865 -0.0290467 -0.152584 0.00336763 -0.0207489 0.0502455 -0.0229335 
-0.0121884 0.0280815 -0.0219105 -0.00614744 -0.00312206 -0.0138458 -0.00673085 0.00471096 0.0216517 -0.0367459 -0.0229266 0.00647412 0.0331695 -0.0329814 0.0115833 0.0826502 0.0133159 -0.0042877 -0.00272919 -0.0133597 0.0188438 -0.0428754 0.107392 0.0295962 -0.0411374 0.103534 0.12628 0.0739394 0.136602 0.0123582 0.101461 0.00838039 
0.0178778 0.0199137 -0.0125341 -0.00790039 -0.00703345 0.0187754 0.0188639 -0.0157631 -0.0130487 -0.0184094 -0.0251217 0.00848027 0.0027974 0.0128821 0.00328727 0.0708378 -0.00931925 -0.0193836 -0.00447364 -0.027296 -0.0152749 -0.0264181 0.0280444 0.0539056 0.00115049 -0.00800427 0.183716 -0.0100101 0.13412 0.016438 0.111695 0.00085497 
0.0162651 0.0135902 0.00114248 -0.0164424 0.00134783 0.00893624 -0.017918 0.0128343 -0.0145575 -0.0257164 -0.00684995 -0.00843573 0.0140921 -0.0300631 0.00956338 0.0597892 -0.00894083 -0.0129706 0.0134979 -0.004219 -0.013091 -0.0328576 0.100645 0.0627221 -0.00626145 0.0647996 0.126891 0.0589381 0.0964195 0.0332833 0.077953 -0.0256094 
-0.00965894 -0.0149872 -0.0263051 0.0114906 0.018064 -0.00281578 -0.00469452 0.0200402 0.0238851 -0.0294839 -0.00157901 -0.018633 0.0118126 -0.0237401 0.010954 0.0271241 -0.000655411 0.00464077 -0.0138982 0.011032 0.0118843 0.00366178 0.0541929 0.0103047 -0.026229 0.00544172 0.0241261 0.0379933 0.0469954 0.00711958 0.0214107 -0.0220823 
-0.0117117 -0.00170327 0.0170557 -0.0166321 -0.00886224 -0.00110966 -0.0206802 -0.0111599 -0.00383807 0.000831572 0.00856751 -0.0213031 -0.0056433 -0.0112592 0.013211 0.0351934 0.0149939 -0.0219917 -0.021174 -0.00530959 0.0190372 0.00779725 -0.0702042 0.00666829 0.00484249 -0.0356931 0.0164979 -0.0631836 0.017708 -0.0312229 0.0468447 0.00791547 
0.0128086 -0.00720252 0.0156717 -0.0191179 -0.0196941 0.0195287 -0.0122169 0.010185 -0.00913397 0.00776587 0.0137736 -0.010105 -0.036922 0.00787675 0.00658826 0.0541111 0.00736803 0.00864023 0.00300398 -0.00344985 -0.00420575 0.0104915 -0.0415079 -0.000994053 -0.0258437 -0.0344218 0.0123539 -0.0582015 0.00507327 -0.0101654 0.0113738 -0.0155915 
-0.0185037 -0.000404277 -0.0165978 -0.0196037 -0.0176822 -0.00118024 -0.00605995 -0.003726 0.00681138 -0.0221189 0.0995757 -0.0139564 0.0159943 -0.00485422 -0.00826023 -0.0432003 -0.0103161 0.0196706 0.00719739 -0.0137737 0.0103831 -0.0189797 0.0780061 -0.0385492 -0.00916509 -0.0262509 -0.0130957 0.0673216 -0.080727 0.0758367 -0.101821 -0.00570087 
0.0171279 -0.0131563 0.000599836 0.0199826 -0.0117473 -0.0050166 -0.0021245 0.00550309 -0.0358509 -0.00375183 -0.00558261 -0.00594592 -0.047838 -0.00288108 0.00247055 0.0660639 -0.00670437 -0.00717755 -0.00839931 -0.0337652 0.0170988 -0.0122063 -0.0776016 0.0413889 -0.0335207 -0.0535956 0.0349654 -0.122 0.00525548 -0.0465939 0.0602619 0.0180576 
-0.0202885 -0.0153398 0.0179939 -0.0101909 0.00511747 -0.000206488 0.0176998 0.0100294 -0.0248208 0.0194712 -0.0211161 -0.0154958 -0.0070699 0.0125767 0.0115687 0.122005 -0.012517 -0.0171898 0.0211448 -0.0278858 -0.00455734 0.0168498 0.0226353 0.0872706 -0.0185519 0.0157913 0.184956 -0.0350391 0.151013 -0.00934002 0.158449 -0.0139347 
0.010456 -0.0183891 0.00155073 -0.00713454 0.0144314 -0.00309478 -0.0195979 0.0175902 -0.01393 -0.00824238 0.112337 0.0116988 -0.0281252 0.0196003 0.0065295 0.0292489 -0.0185611 0.00699085 0.000808997 -0.00837269 0.00470376 -0.00629675 -0.0132909 0.0587929 -0.020378 0.00117544 0.0223343 -0.0582291 0.0407444 -0.160226 0.0811719 0.018317 
-0.021209 -0.00910597 -0.0378784 0.0113742 0.00712321 -0.01729 -0.00907654 -0.022556 0.0104761 -0.0147751 0.0184439 0.00390825 0.0293202 -0.0229567 -0.013177 0.0473387 -0.010239 0.012355 -0.00506072 0.0167962 -0.0152591 -0.0327391 0.0524261 -0.0011636 -0.0414756 -0.00705913 0.0654692 0.0188011 0.0468086 0.00543313 0.0161387 0.01093 
0.00963413 0.0124749 -0.0137466 -0.00844731 -0.0212903 -0.0114619 -0.015632 0.00874676 -0.00231112 -0.0292805 0.00271688 -0.0215129 0.0369216 -0.00566471 -0.0169074 0.00801539 0.00466774 0.00605713 -0.0173812 0.011684 -0.0204065 -0.00215039 0.0328288 -0.00920804 -0.0382799 0.0352789 0.0498841 0.0643119 0.0273216 0.0385377 0.0330196 -0.0212278 
0.000869843 -0.00258376 -0.000709323 0.00133847 0.0162541 0.0190397 -0.0135258 -0.0138393 -0.00806564 0.0106232 -0.00502583 -0.0107449 0.00674881 0.00311633 0.000775433 0.00410124 -0.0123439 0.00624456 -0.0223537 -0.0118386 0.00259326 -0.018223 -0.00112328 0.00331805 -0.022043 0.0191188 -0.00414663 -0.000361954 0.0144462 -0.0366026 0.000835985 -0.00509968 
0.00879645 -0.00595013 -0.00522249 -0.00149462 -0.0210374 -0.0244071 -0.00332207 -0.00740391 0.0292538 -0.0412607 -0.00560956 -0.0058321 0.0415884 -0.0390422 0.0115306 0.0899782 0.0124091 0.0158393 -0.0111925 -0.00488732 0.021328 -0.0149007 0.124149 0.0255228 -0.0150573 0.086276 0.137341 0.0819503 0.137107 0.0152543 0.127285 -0.0132086 
-0.0128418 0.0276759 -0.00722466 -0.0163118 -0.0215051 -0.00422764 -0.0126443 0.0216506 0.0206695 -0.0420123 -0.00645749 -0.0096448 0.0213083 -0.0256603 -0.00370223 0.0508522 -0.00856876 0.0116165 -0.00397722 -0.00623518 -0.00238148 -0.0299335 0.0959958 0.0299515 -0.00998033 0.106311 0.145627 0.0805577 0.150259 0.0397089 0.125266 -0.0243 
-0.00288865 0.014991 -0.0268618 -0.0048501 -0.0065249 0.0081313 -0.0140063 -0.0164906 0.0258201 -0.0399209 0.00735344 -0.0167221 0.0128042 -0.0305851 -0.00861417 0.028829 0.0193632 0.0116472 -0.019064 -0.00488768 -0.0167038 -0.0209382 0.0414195 0.0231622 -0.0265749 -0.00136922 0.0356621 0.0227158 0.0364172 0.00800909 0.00813776 -0.018099 
0.0209387 0.0201768 -0.00779521 -0.0118935 -0.00341305 -0.0281424 -0.0260704 -0.0139744 -0.00483847 -0.0525763 0.0352316 -0.0105888 0.0247768 -0.0384642 -0.00892605 0.0392775 0.0110872 -0.00279769 0.000715211 -0.00138967 0.0152289 -0.0419411 0.111007 -0.0180087 -0.0370374 -0.0383512 0.0056043 0.0746881 0.0283058 0.0382076 -0.007645 -0.000255017 
-0.0177231 0.0331154 0.00843059 -0.00429794 0.0166105 -0.0152538 -0.0135813 0.00872739 0.011914 -0.0389412 0.0996285 -0.00614924 0.0314885 0.00222669 0.0169879 -0.013375 -0.0144618 0.00547466 -0.00668379 -0.0468227 0.0117141 -0.0351736 0.0495119 -0.06443 -0.0312033 -0.0499823 -0.0439862 0.0827659 -0.0711002 0.0919558 -0.0753358 -0.016844 
-0.014598 -0.00283107 0.00566053 -0.0202078 0.0113133 0.00327902 -0.0219648 -0.013999 -0.0144862 0.000163311 0.014024 0.0162052 -0.00571431 0.0164138 -0.00382454 0.0694849 0.00144658 0.0171336 0.0162893 -0.0152101 -0.0128386 -0.0187691 0.00113604 0.0641403 -0.00119988 -0.00187589 0.121732 -0.00944434 0.106123 -0.00177621 0.103307 0.0198985 
-0.0207962 -0.0172425 -0.0204574 0.0111746 0.0206966 -0.02037 0.0136166 -0.0136317 -0.00755816 0.00888296 -0.0162183 0.0161536 -0.0064677 0.00290606 0.00589555 0.0269604 -0.00379123 0.00150141 0.00632097 -0.00412788 0.00687714 -0.0247758 -0.0616553 -0.00207217 -0.00924956 -0.0381602 0.00854378 -0.0783692 0.0265243 -0.0103884 0.00525539 0.0211565 
0.0223555 -0.0014541 -0.0196489 0.0167419 -0.00477952 -0.00226291 -0.0351991 0.0167671 0.00916018 -0.0431134 0.0185538 -0.0164055 0.0331925 -0.0249027 0.00832467 0.0193189 -0.0156718 -0.00452458 -0.0245 0.014142 -0.0038661 -0.0302039 0.0307763 0.0230294 -0.00879201 0.0311489 0.0434962 0.0563485 0.0369133 0.0183605 0.041086 -0.00287921 
0.0181487 0.0131864 -0.0193434 -0.0116416 -0.00525931 0.000676306 -0.0229227 0.0220022 0.0273302 -0.0358154 -0.00390804 0.00863775 0.0289156 -0.0330878 -0.0150084 0.0376785 0.00298175 -0.0115678 0.00970389 0.0221772 0.0103949 -0.00647733 0.0693866 0.0119301 -0.00735 0.00303414 0.0471935 0.0389247 0.0414086 0.0192634 0.0365341 -0.000554327 
-0.0192092 -0.0297539 0.0168455 -0.00412848 -0.0210068 -0.0164665 -0.00908514 -0.0206899 -0.0297385 0.00938627 0.0295408 -0.0254436 -0.0599894 -0.0174748 -0.0251387 0.0721236 -0.00855353 0.00834627 0.00273645 -0.0369644 0.00013027 -0.00419913 -0.0982752 0.0191004 -0.010676 -0.0599433 0.00867561 -0.138731 0.0304814 -0.034769 0.068644 0.00717783 
0.00691102 0.0169589 -0.032727 0.00583423 0.0166644 -0.00319567 -0.000799487 -0.0139748 0.00159735 -0.0130433 -0.0105181 -0.00958954 0.0265553 -0.0262533 -0.0234583 9.42836e-05 0.021637 0.00373866 -0.0125204 0.000858441 -0.0203128 0.00417566 0.0572902 0.0110618 -0.0264383 0.00529639 0.0591135 0.0626619 0.0310337 0.0339203 0.0259843 -0.0189278 
0.000505136 0.0323255 0.00699778 -0.0116529 -0.00632959 -0.00552745 -0.0383565 -0.00185982 0.00217125 -0.0419842 0.0867656 -0.0022785 0.00503327 -0.0294757 -0.026112 -0.0456113 0.00699275 -0.0112816 -0.00181321 -0.028825 -0.0123189 -0.0429938 0.0588291 -0.0573935 -0.0444041 -0.0816682 -0.0427509 0.0844108 -0.0726373 0.120103 -0.113616 0.0087022 
0.0121505 0.00158233 -0.0485328 -0.0207185 0.00307576 -0.006148 -0.00523952 0.00342887 0.0198725 -0.0533639 -0.0238578 -0.00875931 0.0423632 -0.0218763 0.00709988 0.0971585 0.0209324 -0.00849339 -0.0228205 -0.0140405 0.00466067 -0.0284002 0.138261 -0.0130716 -0.0509125 -0.0231349 0.0324333 0.119225 0.0176404 -0.0344128 0.0420078 0.00793306 
-0.008168 0.0265517 0.0152916 0.0127354 0.00592303 0.0105259 -0.0223612 -0.0226864 0.0260013 -0.0457903 0.0407636 -0.0208969 -0.0200636 -0.00905018 -0.00124446 -0.056756 0.00612345 0.00691772 -0.015317 -0.0426742 -0.0096186 -0.00496957 -0.00984219 -0.0311888 -0.0151489 -0.0949236 -0.0623706 0.050517 -0.012197 0.0936724 -0.0372117 -0.0103329 
-0.00486412 0.0134825 -0.0402639 -0.0251734 -0.00683679 0.00320697 -0.0300402 -0.00842784 -0.00854152 -0.00878169 -0.00332522 -0.0269245 0.0264729 -0.0353945 -0.019876 0.0534525 0.019067 -0.00692675 0.0039518 -0.00963264 -0.0139921 -0.0422782 0.102493 0.0240485 -0.0130266 0.109405 0.151402 0.0898678 0.120293 0.0359124 0.125607 0.00372338 
-0.0194693 -0.0327856 0.0106883 -0.00550585 0.0185395 0.0174881 0.00418562 -0.0202597 -0.000574611 -0.0105715 -0.00364768 -0.0170985 -0.0220916 -0.00829623 -0.00563692 0.0511408 0.00529294 -0.0225199 0.0117641 0.000765485 -0.0170984 -0.0118249 -0.0613516 0.0384496 -0.021089 -0.0262662 0.00744288 -0.0855727 0.00888513 -0.0381921 0.032927 -0.00816399 
0.00634971 -0.00519466 -0.0132707 -0.00139041 -0.02092 -0.0118043 -0.0106717 0.0154983 0.0221933 -0.014667 -0.0288519 -0.0130205 0.0107775 -0.0230607 0.0181495 0.0743021 0.000933828 0.0119593 0.00489379 0.00966736 -0.0203255 -0.0235157 0.0948655 0.0334369 -0.0320344 0.0632898 0.145457 0.0811859 0.120283 0.0260435 0.119193 -0.0226776 
-0.000528771 0.0187072 -0.0215163 -0.00355316 -0.015075 -0.0222472 -0.0236902 0.0214136 -0.0134655 -0.0338398 -0.00322665 -0.0286196 0.0438784 -0.0297858 0.0127855 0.0259198 -0.0133896 -0.000507138 -0.0178664 -0.00997074 0.0215356 -0.023619 0.077728 -0.0021176 -0.0198287 0.028772 0.0821268 0.0550202 0.0647017 0.0487754 0.0214958 -0.0137758 
0.00171376 -0.00586929 0.0148597 0.00556082 -0.0142817 -0.0146288 -0.00800132 -0.015318 -0.015376 -0.0370734 -0.0215571 -0.00590218 -0.0374362 -0.015427 -0.0244046 0.0682391 0.00376684 -0.0172509 0.0205835 -0.0141508 0.00915291 -0.00840163 -0.09926 -0.00312462 -0.0395011 -0.0506689 -0.0444524 -0.123689 0.00652854 -0.0165092 -0.00538219 -0.0158097 
0.00601467 -0.0233847 0.0148484 0.0138467 -0.0112352 9.36695e-05 -0.021134 0.0163631 0.000517122 -0.00696613 0.0942876 -0.0177992 0.00254941 -0.00267203 0.0154796 -0.00219346 0.00360956 0.0154013 0.0176911 -0.00577717 -0.00657136 0.0145287 0.0125963 0.0288652 0.00299465 0.00113692 0.0242369 -0.033335 0.0718747 -0.191982 0.0614958 -0.00673538 
0.00209491 -0.00353198 -0.0344222 0.0101101 0.013423 -0.0205667 -0.00565644 -0.00474836 0.00693635 -0.039745 0.0022571 -0.025615 0.0168122 -0.0218465 -0.00975907 0.00140471 -0.0106328 -0.0119356 -0.00398882 0.00438138 -0.0187485 -0.0391253 0.065537 0.0152181 -0.034974 0.000819898 0.0223889 0.0533134 0.0365763 0.0175644 0.00729244 -0.0137106 
0.0123993 -0.000757444 -0.0473722 -0.000584115 0.0050751 -0.00297188 -0.000833164 -0.0218308 0.0170266 -0.0336359 -0.0340145 -0.0191308 0.0283053 -0.0246448 -0.00183984 0.0638349 0.0149708 0.0196134 0.0101673 0.00744638 0.0213347 -0.0165691 0.0253648 -0.0133711 -0.0462599 -0.0192207 0.0645946 0.0296412 0.0242872 0.0578819 0.00971854 0.0160399 
0.00170534 -0.013171 -0.00565874 -0.0160674 0.0167087 -0.00175357 -0.011389 0.00819099 -0.0176304 -0.00206579 -0.0197577 -0.0229596 -0.00731567 -0.00332243 -0.0108845 -0.0135294 0.000177565 -0.0170574 0.0208568 -0.00035592 0.0196972 -0.000549284 0.0183409 -0.019143 -0.0139632 0.00444459 0.0301789 0.0126833 0.0146332 0.0267308 0.00315425 -0.0166306 
-0.0175697 0.104543 -0.0170679 0.0140464 -0.00177064 -0.0021557 -0.0368325 -0.0143324 0.0610681 -0.0508495 -0.0882441 -0.0235109 0.125586 -0.00465855 -0.00455419 0.182321 0.0118383 0.000642948 -0.015838 -0.0182616 -0.0158194 -0.0210133 0.400073 -0.010972 -0.0546834 -0.0319045 0.00509913 0.488257 0.0163868 0.291873 -0.0321928 0.0146019 
-0.0094215 0.00240331 0.0112149 0.00714476 -0.019397 -0.00384297 -0.0321974 -0.0144436 -0.0069004 -0.0144181 0.0317943 -0.0110868 0.0126927 -0.0148974 -0.0126908 0.00454179 0.0107111 0.00280876 -0.000850645 -0.0010114 -0.0032122 -0.0184979 0.00172036 0.00728838 -0.0353371 -0.0465703 -0.00892728 0.0500003 0.00731711 0.0489735 0.00610355 0.0217495 
-0.0107118 0.00644368 -0.00102354 -0.00966745 -0.0182952 -0.026892 -0.00292339 -0.0116425 0.017008 -0.0172535 0.00260442 -0.00435206 0.0161882 -0.0298111 -0.0164183 0.0355542 0.00743928 0.00775501 0.0026671 -0.021745 -0.016445 -0.0325394 0.0277357 -0.00371547 -0.0149964 -0.0055694 0.0117187 -0.00690859 0.013539 0.0242314 -0.00535883 0.00640212 
0.00887403 0.054546 0.00926074 0.0075366 0.0157059 -0.00307484 -0.0499784 -0.00445814 0.0132527 -0.0293712 0.0711843 -0.00262298 0.0901619 -0.0267763 -0.00609529 0.135919 -0.0247773 -0.0199474 0.0048506 -0.0447819 -0.0179802 -0.0264691 0.197788 8.96881e-05 -0.0496409 -0.0241155 0.0221226 0.225723 0.0532511 -0.297374 -0.00464019 0.00732169 
0.00335642 0.00633837 -0.00862228 -0.00606286 0.0192987 -0.00276555 -0.0369555 -0.0304539 0.0104173 -0.0365457 0.0895317 -0.0135879 0.0348797 -0.022194 -0.0200064 0.0655711 -0.0108645 0.0159619 0.0160108 -0.0258894 -0.000970328 -0.0204885 0.0890387 0.00757817 -0.0307895 -0.0279846 -0.000759693 0.0747225 0.0111048 0.0267358 0.0220445 0.0169489 
0.0186186 -0.00117788 -0.0103877 0.0153004 0.0218001 -0.0024778 0.0144609 -0.00222843 0.015305 0.00535446 0.0161571 0.0011423 0.0246763 -0.0250687 -0.00758488 0.00811445 0.0160192 -0.00886843 0.0101074 -0.0101062 0.0126795 0.00395955 -0.00418054 -0.00434999 -0.0168617 -2.48868e-05 0.042697 0.00709249 0.0462773 -0.00154732 0.0202638 0.0148888 
0.0152576 4.44076e-05 0.0095169 0.0131687 -0.0138628 0.00279115 -0.0183496 -0.022636 -0.0177767 -0.0253926 -0.00962931 -0.0155422 -0.0290198 0.0178959 0.000840834 0.0110641 -0.0134286 -0.00971816 -0.00525032 -0.0303581 0.0195975 -0.009524 -0.0617103 -0.0136091 0.00119749 -0.0211658 -0.018375 -0.0450505 0.0231579 -0.00659405 0.00535175 0.0145237 
0.0127617 -0.00160769 -0.0157757 0.0175893 0.0161189 0.0103276 0.00832882 -0.0158807 -0.0109698 -0.0207452 -0.00650524 -0.0188134 0.0244506 -0.00192382 -0.0105944 0.0429532 -0.0116911 0.0102573 0.013995 -0.00833262 -0.0159772 -0.000873174 0.0646243 0.0316424 -0.0176596 0.0670245 0.0835351 0.0650968 0.0428845 0.0155201 0.0378777 0.00855817 
-0.00340776 -0.00692364 0.00957222 -0.010948 -0.0219271 0.010068 -0.0126434 -0.0205694 0.00476563 0.000467511 0.0154084 0.013175 0.0332196 0.00572859 0.00754225 0.0246627 -0.00203669 0.000586268 -0.0156638 -0.00293802 -0.000371002 -0.00811482 0.0610846 -0.01938 -0.00985674 -0.0288944 0.0104416 0.0741291 -0.00171144 -0.105309 -0.00327514 0.00683526 
-0.0179083 -0.000843131 0.0153855 -0.0218012 0.0208455 -0.00996285 -0.0369291 -0.0148984 -0.0026412 -0.0271162 0.0346073 0.00833668 0.0116474 0.0101242 0.0174841 0.0153242 -0.00588563 -0.0152534 -0.00263308 -0.00457818 0.00812448 -0.0407977 0.0202413 -0.0275665 -0.0433096 -0.0363856 -0.0146909 0.0611867 0.00333525 0.0525808 -0.00220497 0.0125277 
-0.00583716 0.0375467 -0.00285258 -0.010822 -0.00829994 -0.0274766 -0.0128903 -0.00782849 0.025914 -0.0124729 -0.0126666 -0.0278822 0.0533085 -0.0249714 -0.0228663 0.0706684 0.00423976 0.00170699 -0.0115145 -0.0220222 0.00261193 -0.0323648 0.100299 0.0089457 -0.0459137 -0.0321387 0.00853895 0.108608 0.0236507 -0.00851161 0.0121284 0.0124039 
0.0209397 -0.0315669 -0.0154813 -0.0139486 -0.000910391 0.0137371 -0.00994017 -0.0164044 -0.00810858 -0.0393427 -0.0386622 -0.00207139 -0.031507 -0.00916529 -0.0218185 0.0761409 0.0135408 -0.00263177 0.00515757 -0.0238731 0.0145991 -0.0306048 -0.144015 0.0265127 -0.0288588 -0.0732401 -0.0477922 -0.131139 -0.00193069 -0.0499712 0.0265023 -0.0160577 
-0.000738106 0.0324184 -0.00530832 0.0196168 0.009615 -0.0151391 -0.0211272 -0.0016208 0.0115941 -0.00768757 -0.0290711 -0.0191752 0.0469972 -0.00997241 -0.00175015 0.0501919 0.0121375 -0.0170287 -0.00528811 -0.000660494 -0.0111432 -0.00329513 0.0740248 0.00484302 0.0028159 -0.0263939 0.000506261 0.1117 -0.0138964 0.0482225 -0.0212784 0.00752801 
-0.0172943 0.0025974 0.00637345 0.0132103 0.00907595 0.015114 -0.00950403 -0.0151942 -0.00349463 0.002247 0.0739683 -0.00947028 0.0198525 0.012051 -0.0107795 0.0795489 0.0170726 0.00807999 -0.00508633 -0.0353954 -0.00944549 0.0162567 0.0206107 0.0250251 0.0107659 -0.0576005 0.0615877 -0.0052396 0.0584402 -0.101507 0.0967806 0.00556815 
0.00501481 0.0229428 -0.00948558 -0.0137759 -0.00766401 0.00654015 -0.0373915 -0.00259813 0.0154843 -0.0382267 0.109765 -0.0255527 0.0375651 -0.0204494 -0.0227036 -0.0413146 -0.0209895 -0.00136032 0.00194308 -0.0447104 -0.00578345 -0.0318416 0.0934902 -0.0906965 -0.0239104 -0.0655811 -0.00783281 0.127297 -0.107538 0.100737 -0.170459 -0.0123996 
0.0145874 0.00170838 0.00205759 -0.0151723 -0.00181496 -0.0209423 0.0179303 0.0164087 0.0101415 -0.0192584 -0.016556 -0.005007 -0.00597812 -0.0086751 0.0187491 0.0456346 0.0129314 0.00507553 -0.0158881 -0.0162822 -0.0165467 0.00578312 -0.0155296 0.0608923 -0.0197638 -0.0209235 0.0483906 -0.0162442 0.0610357 -0.0103417 0.0926793 -0.0138076 
-0.0121382 0.00770995 -0.0348406 0.00414655 0.00157532 -0.0207298 -0.0153856 -0.00678585 -0.000936936 -0.0186635 0.0127137 0.00485724 0.00170439 -0.0157102 -0.00104956 0.0411597 -0.00644085 0.00850417 -0.020732 -0.000456855 -0.00742703 -0.0235427 0.0601282 0.00456159 -0.019279 0.0378168 0.0460086 0.0782236 0.0389035 0.0140451 0.0134779 0.0039728 
0.00698476 -0.00943474 -0.00506885 -0.0130273 0.0154979 0.0187769 0.00307892 -0.0133355 -0.00393606 -0.00594296 0.222582 0.00844282 -0.0373221 0.00295422 0.00583335 -0.0352882 -0.00912145 0.009022 0.0191466 -0.0100064 -0.00871136 -0.00576381 -0.0612996 0.0717613 -0.0173491 -0.0330267 0.0845831 -0.0610507 0.0761044 -0.375065 0.101481 -0.0176576 
0.00689674 0.0786039 -0.0105467 -0.00452024 0.0165417 0.0145802 -0.0211721 -0.0064771 0.0424424 -0.0290549 -0.0601641 -0.0190877 0.0884125 -0.0322114 0.0117931 0.0711761 0.00656722 0.0132458 -0.0111338 -0.0422028 -0.0130668 -0.0266365 0.283209 -0.0431744 -0.020677 -0.0127324 -0.0278979 0.316281 -0.0426118 0.248 -0.0856776 0.00577308 
0.0148364 -0.00802093 -0.0163235 0.00582722 0.0102705 0.013895 -0.028229 -0.0231187 -0.0119187 -0.016997 -0.000841264 -0.0316709 -0.0262552 -0.0107033 0.00527639 0.0132969 -0.0207295 -0.0209635 0.00268873 -0.0306777 -0.000809962 -0.00925031 -0.0948423 -0.0124088 -0.0237291 -0.0757142 -0.0640225 -0.12179 -0.0258872 0.0194407 -0.0250167 0.0188993 
0.00924014 0.00756697 -0.00161744 -0.00854649 -0.0206432 0.0109745 -0.0393701 -0.00697932 0.020922 -0.0332106 0.104369 -0.0300708 0.0181951 -0.0232728 0.0059931 -0.0177671 -0.0113031 -0.0074804 0.00836397 -0.0233503 0.0172769 -0.0246732 0.0533577 -0.0537892 -0.0248488 -0.0620745 -0.0224658 0.0922192 -0.0416615 0.112074 -0.0618301 -0.0101604 
0.0216215 -0.0155038 0.0100034 -0.0231966 0.000331301 -0.0117948 -0.00265183 -0.019284 -0.0287553 -0.0196671 -0.0127902 -0.00361036 -0.0219297 -0.0171738 -0.0234218 0.0287549 -0.00478297 0.0146165 -0.021398 -0.024871 0.0014211 -0.0207961 -0.0851568 0.00399834 -0.000152882 -0.0537183 -0.0355659 -0.117681 -0.00835764 0.00365581 0.0161975 -0.0138637 
-0.0214077 0.00511794 -0.0175026 -0.00469174 0.00349666 0.0114582 -0.0309738 0.00311457 -0.00125766 -0.0269124 0.0492007 0.00123815 -0.00417307 -0.0172483 -0.0249014 0.00922019 -0.0183258 -0.019511 0.0155362 -0.0262881 -0.0117677 -0.0221976 0.0114475 -0.0233071 -0.0580401 -0.0625772 -0.0386508 0.0616879 0.00074396 0.0903753 -0.000986593 -0.0171647 
-0.00603233 -0.000126442 0.00614351 0.0192405 0.00390051 -0.0110521 0.0110247 0.0140488 -0.0206803 -0.0157987 0.153014 -0.00962025 -0.0060554 0.0127891 0.0180839 0.0565959 0.0170692 0.017061 0.00371755 -0.0180418 0.00022936 0.0127689 -0.0304459 0.0501667 -0.00793336 0.0114675 0.054693 -0.0478907 0.0711812 -0.211301 0.0947499 0.0151055 
-0.0204279 -0.000961191 0.0110758 0.000911761 0.00402965 -0.000267089 -0.0309655 0.00698581 0.0160162 -0.051145 0.0254172 -0.024314 -0.018365 -0.0250888 -0.0233553 0.00836677 -0.0264027 0.0061587 -0.0224219 -0.0318064 -0.00150942 -0.0340314 -0.0200555 0.00973999 -0.0190457 -0.0519271 -0.0529658 0.0243395 -0.0175196 0.0759278 -0.031436 -0.00787857 
0.00505948 -0.0441017 0.0198166 -0.0147683 0.00447676 -0.00480642 -0.0292029 -0.00741999 -0.0163497 -0.0209222 0.00508658 -0.00224817 -0.0418069 0.00780086 -0.00165122 0.0652727 -0.0103817 0.00282745 0.0219452 -0.00685406 0.013516 -0.0214725 -0.101371 0.0240517 -0.0352493 -0.0644791 0.00210523 -0.138829 0.0175586 -0.0254777 0.0423032 -0.016361 
-0.0191362 0.00340206 -0.00735024 0.00575054 -0.0221929 -0.00549722 -0.0339284 0.000568879 0.00693343 -0.0110442 0.00714015 -0.0242423 -0.0160632 0.00660488 0.000144813 -0.00508961 -0.00950978 0.00169904 -0.00274822 -0.0307697 0.00640227 -0.0212563 -0.0185457 -0.0015867 -0.0109269 -0.0335231 -0.0604378 -0.0274972 -0.00944195 0.0456404 -0.0271524 0.0079201 
-0.00806531 0.00949064 -0.0100351 -0.00847487 -0.0181188 -0.00785572 0.0176607 0.0118739 0.0199691 -0.0208992 0.0115942 -0.0140669 0.0221951 -0.0097831 0.0182144 0.0664252 0.0194522 -0.00298038 -0.00529054 -0.0119392 0.00761605 -0.0232782 0.0310949 0.0491788 -0.00537535 -0.0274708 0.179438 -0.0136807 0.103323 0.00582574 0.136954 -0.00946467 
-0.0077402 0.000476884 -0.0181611 -0.00773951 0.00775424 -0.0065315 -0.0346048 0.00162763 0.0185784 -0.0528824 0.0207416 -0.00571811 0.0184135 -0.00699915 0.0144228 0.0256779 -0.00458935 -0.0108472 -0.0262061 -0.0175233 -0.00689098 -0.0371832 0.0512959 -0.0195268 -0.0189241 0.0106597 0.0302196 0.0689844 0.0166126 0.0227517 -0.00238998 0.00163167 
0.00160705 -0.00741473 -0.0208395 -0.0152948 -0.00562198 -0.0136044 0.00422192 -0.0181122 -0.0270414 0.000471842 0.0028553 0.00202155 -0.0156133 0.00492442 -0.0201274 0.0305371 0.0144672 -0.0177493 -0.00953599 -0.0289168 -0.00383653 -0.00383603 -0.101594 -0.0146898 -0.0268367 -0.048664 -0.0269122 -0.106335 0.0133143 0.0117931 -0.00900461 -0.0108788 
0.00454073 -0.0342858 -0.00202243 0.0180459 -0.00570825 -0.00861847 -0.0347012 0.00241007 -0.0296501 -0.00528879 -0.0142834 -0.0304074 -0.0308179 -0.00604174 -0.015005 0.0230055 -0.00213901 0.000525693 0.00810588 -0.00185944 -0.0175538 0.00841962 -0.122117 -0.00902828 -0.0211681 -0.0431137 -0.0497007 -0.12714 -0.00355877 0.00342915 -0.00675072 -0.0133972 
-0.0164628 0.026464 -0.0455154 -0.00205325 -0.0099362 -0.0223975 -0.0358287 -0.00564637 -0.00807706 -0.0347047 -0.150905 -0.00398345 0.0376234 -0.0194683 -0.018301 0.0874337 -0.0104035 0.0154332 -0.00475022 -0.0115058 0.0121962 -0.0306135 0.0549437 -0.00225116 -0.036759 -0.0136683 0.054214 0.0530044 0.0626739 -0.0180597 0.0225483 0.00460469 
0.0161528 -0.0154188 -0.0113616 -0.0159694 0.00339279 -0.00344572 0.00546565 0.0108868 0.0125827 -0.0170681 -0.00771277 0.0146219 0.00673703 0.00214916 -0.00486045 0.0395625 -0.00322318 0.0174265 -6.04585e-05 -0.0176103 -0.00380988 -0.0151225 -0.0175012 0.0606609 0.00308136 0.0158973 0.0943308 -0.0504885 0.109075 -0.0250686 0.0758409 0.00704674 
-0.0205203 -0.00347035 0.00172743 0.00226139 0.00868742 -0.00685116 -0.0148875 0.00666866 0.00770662 -0.00293629 -0.00513472 -0.00908337 0.010561 0.007206 0.00125564 0.0645677 0.0175327 -0.0176153 -0.0200738 -0.0125345 -0.00896623 -0.013828 0.0420119 0.0169918 -0.0195821 0.0545708 0.117702 0.0262239 0.0845996 0.0101499 0.10321 -0.0106342 
0.00396885 0.0293965 0.0151072 -0.0129337 -0.00752939 -0.0131319 -0.00212189 0.0110377 -0.00610703 -0.0302498 0.0725694 -0.0114055 0.0191387 -0.0329255 -0.0106391 -0.0268497 -0.0207542 -0.00612309 0.00562294 -0.0298594 0.0168203 -0.00907601 0.0522952 -0.0563531 -0.0298246 -0.0278174 0.00376619 0.0851758 -0.0805837 0.0633871 -0.106366 0.00944377 
-0.00277777 -0.0159426 -0.0472529 0.00737845 -0.00524477 0.00736326 -0.0158303 -0.00978457 0.000713159 -0.055255 0.00669182 0.00565258 -0.0108297 -0.0368992 -0.00918304 0.0612748 0.00721049 -0.0197908 0.000916278 -0.016938 0.0122707 -0.0499768 0.0309373 -0.0122022 -0.0126185 -0.0445191 0.0553891 -0.012724 0.0141121 0.0827964 0.0323333 -0.00314876 
-0.0203991 0.00699908 -0.0116928 -0.00525015 0.00709921 0.0190056 0.00681249 -0.0198872 -0.0208575 0.00262506 -0.00661977 -0.0190739 -0.0234114 -0.00750861 -0.00463242 -0.00337288 -0.0044982 -0.0186741 -0.00290483 -0.0290381 -0.0137868 -0.015936 -0.0420213 -0.0308854 0.000381967 -0.0545993 -0.0662484 -0.00175897 -0.0329124 0.046243 -0.0307282 -0.010899 
0.00208571 0.0101381 -0.00224575 -0.0146067 0.00237748 -0.000124474 -0.0138401 0.00575917 0.00299299 -0.0166404 0.0119963 0.00380015 0.0265581 -0.0204136 0.00217018 0.0208814 -0.00622294 -0.019755 -0.0006871 0.00143422 -0.00552338 0.00602702 0.057837 0.00901193 -0.0282838 0.0520618 0.0524384 0.026516 0.0628844 0.00351199 0.0589075 -0.0233793 
0.01978 -0.00468912 -0.0205577 -0.00184575 0.0160726 -0.00104143 -0.0221558 -0.00620163 0.0220991 0.00901491 -0.0250053 0.00490901 -0.000592499 -0.00267863 0.0189473 0.0433174 0.00952848 -0.00147725 -0.0161865 -0.0234074 -0.0073013 0.0016238 0.0383963 0.027163 -0.0129964 0.0214279 0.112823 0.0474891 0.073681 0.00721596 0.0432381 -0.0016855 
0.00752136 -3.6062e-05 -0.0354757 -0.00146743 0.016205 -0.0216151 0.00797305 0.0140296 -0.0129003 0.00277469 -0.0069012 -0.0155723 0.0246179 -0.0135624 0.014899 0.0398664 -0.0220555 -0.0200106 -0.00361846 -0.00906148 0.0135047 -0.00721922 0.0883734 0.0248892 0.00292779 0.0651283 0.0994996 0.05153 0.111732 0.0100726 0.0627674 -0.000438216 
0.00643049 -0.00209401 -0.0403834 -0.00413558 -0.00921286 0.0118566 -0.0225119 -0.00461775 0.0263688 -0.0108807 -0.00498863 -0.0106458 0.0259514 -0.0180743 0.0110616 0.068333 0.00774096 -0.00938726 0.0100958 -0.00368359 0.0203588 -0.0228996 0.128954 0.0714374 -0.0439487 0.0748599 0.167722 0.0566059 0.134572 0.0339009 0.131681 0.0121904 
0.0101723 0.00733735 -0.00354948 0.0217339 0.0124544 0.00956941 -0.00473609 0.00949374 -0.00327609 -0.0178601 0.204011 0.0170111 0.0218126 -0.0192593 -0.00778161 0.0140828 -0.00469544 -0.0164766 0.0181743 0.00987655 0.00493003 0.00570985 0.034565 0.08782 0.000911898 0.085792 0.0841269 -0.0562927 0.143376 -0.479331 0.124482 -0.0242625 
-0.0118465 0.00245089 -0.0431095 -0.0245578 -0.0137023 -0.013527 -0.00555441 0.00811316 0.00417029 -0.00379193 0.0106584 -0.0196674 -0.00454122 -0.0382532 0.00669907 0.0228798 -0.0131151 0.00451698 0.0133064 0.0156635 -0.0099253 -0.0377595 0.0400614 0.0232998 -0.0029568 -0.00352196 0.0117612 0.0197435 0.0321144 -0.000604848 -0.000449371 0.0176106 
0.000334381 0.00929833 0.0190676 0.00666582 0.00386996 0.00677041 -0.0140823 -0.0217484 0.0278855 -0.0296994 -0.0300651 0.00603024 0.0281228 -0.0246592 -0.0112779 0.0217209 0.00449673 -0.0151836 -0.00804275 0.00951236 -0.0089573 0.00659686 0.115973 -0.0450442 -0.0280401 0.00725373 -0.0248939 0.144818 -0.0706448 0.0667842 -0.0405766 0.000778933 
0.00975826 0.0166793 -0.0143316 -0.00879779 0.0027322 0.00731982 -0.00431794 -0.0112791 0.0168273 0.00984562 -0.0224851 -0.0144149 0.0171464 -0.0111434 0.0111773 0.044168 -0.0014514 -0.0161308 -0.00315344 0.00318021 -0.0213104 -0.00949421 0.0411348 0.0214323 -0.0157551 -0.0165761 0.089151 -0.012654 0.0837075 0.0207873 0.0806473 -0.000181007 
0.0154357 -0.0162039 0.012522 -0.00869611 0.00979482 -0.014472 -0.0227046 -0.00157381 -0.0159971 -0.0309937 0.045242 0.0015771 -0.0251909 -0.001325 -0.0106406 -0.0323851 0.00766448 0.012234 -0.0133789 -0.0244336 -0.0157404 -0.0351701 -0.0425036 -0.0247427 -0.0325263 -0.113107 -0.0683616 0.0131727 -0.0497045 0.106362 -0.0269172 0.0215093 
0.00563884 0.0311759 -0.0272665 -0.0107248 0.0206274 -0.0310642 -0.0474294 -0.0317711 0.0297193 -0.0212243 0.0055026 -0.00333156 0.0461369 -0.0378316 -0.0143108 0.0855598 -0.0208957 -0.000891497 -0.0168852 -0.0307104 0.00758874 -0.0416367 0.126382 -0.0133418 -0.0336449 -0.032968 0.0345588 0.121876 0.0511892 0.0175505 0.0165104 0.00273572 
-0.0215271 0.030018 0.0135772 0.0183467 -0.0213488 0.0159728 -0.0415877 0.00373367 0.0250688 -0.0112466 0.0516536 -0.0115162 -0.000666828 -0.0014338 0.0147913 0.0183596 -0.0150145 -0.0161796 -0.00813344 -0.00669189 -0.00356261 -0.038874 0.0232267 0.013017 -0.0243013 -0.0385763 0.00573026 0.0493118 0.0307301 0.0407202 -0.0221135 0.0160792 
0.0187692 -0.0227359 0.0117413 0.0162151 0.0220205 0.0117401 -0.0124485 0.00958918 0.00951736 -0.0417029 0.00394567 0.00615826 0.0211804 -0.0204196 -0.0212331 0.0837431 -0.00921449 -0.000338807 -0.0204864 -0.00361665 0.00183545 -0.0327222 0.00311246 -0.0312535 -0.0151559 -0.0401248 -0.0232698 -0.0135517 -0.102521 -0.335947 -0.103615 0.0208665 
-0.000110097 -0.00529751 -0.00918984 -0.00403258 -0.0174854 -0.0052285 -0.0240584 0.011961 0.0206055 -0.0201304 0.01037 0.0038345 0.0372419 -0.0115323 -0.0226084 0.0171926 -0.0079044 -0.0155672 -0.0173446 0.0162734 -0.00845802 -0.0121747 0.063299 0.0260745 -0.00620234 -0.000977941 0.0491219 0.0598332 0.0402049 0.0361195 0.039711 -0.0155616 
-0.0147011 0.0166374 0.00799943 -0.0106123 -0.00136953 -0.0183836 -0.0178996 -0.00732732 0.0153785 0.0126315 -0.0187494 0.0122558 0.0121638 -0.0155256 -0.0140829 0.00917923 -0.00597907 -0.00517201 0.0162588 0.00100493 -0.0126649 0.00685767 0.0301009 0.00831038 -0.0274717 -0.0118458 0.0502831 0.0165902 0.0345149 0.0136155 0.0280163 -0.0115682 
0.0133772 0.0178671 -0.000828884 -0.0120766 0.0156763 0.00466037 -0.00758058 0.0045774 0.00655467 -0.0046251 0.0389771 -0.0194425 -0.0121559 0.00512069 -0.0145553 -0.0165392 -0.0182766 -0.0189039 -0.0216744 -0.0209769 0.0132079 -0.000595486 0.0255625 -0.0101846 0.00530826 -0.0212426 -0.00271695 0.0181882 -0.0297707 0.0405225 -0.0509219 -0.00920313 
-0.00742925 -0.00973986 0.00287791 -0.0155246 0.000355694 -0.0146462 0.011003 -0.0202399 -0.00362003 -0.00919831 -0.00225783 0.0141967 -0.0558682 -0.00289821 -0.00998835 0.0495003 -0.0011248 -0.00622525 0.00692126 -0.0259555 -0.0169556 -0.0190495 -0.129056 0.00187191 -0.0071375 -0.0339235 -0.0476484 -0.157556 0.00929612 -0.0191718 0.0366227 0.00146618 
-0.0109304 0.0244227 0.00654205 0.0111071 -0.0153078 0.00340235 0.0119212 -0.0172264 -0.02048 -0.0256201 -0.0214609 -0.0175454 0.00753863 -0.0103935 -0.00093161 0.0366618 0.0127963 -0.0137864 -0.00579161 0.00398663 -0.00843255 -0.00582141 0.0633004 0.0607998 -0.0248127 -0.0159749 0.145291 0.0043358 0.0823084 0.00113815 0.061149 0.00369261 
-0.00151601 0.0164929 -0.0189503 0.0023627 -0.00273505 -0.0192068 -0.00643616 -0.00671144 -0.00615195 -0.0120267 0.0154469 0.00436855 -0.00678094 -0.0292858 0.0140126 0.0202613 -0.00313645 -0.0125146 0.0151656 -0.00251914 0.00972012 -0.00428344 0.0243741 0.0197137 -0.00155507 -0.0184578 0.0177131 0.00844772 0.00676087 0.057256 0.0328321 0.0081694 
-0.0113061 0.0164652 -0.0134256 0.00241681 0.00736666 -0.0253531 -0.049416 0.00872632 0.033049 -0.0303683 0.099575 -0.0359243 0.0101652 -0.00920841 -0.0226309 -0.00827096 0.0089983 -0.0208739 -0.0115228 -0.0288413 0.0182671 -0.0487126 0.0672754 -0.0256118 -0.0237329 -0.0356886 -0.0492386 0.0862536 -0.0474414 0.0955034 -0.0584795 0.00302371 
0.00359559 -0.0140249 -0.014837 -0.0117777 -0.013059 -0.00478242 -0.0144659 -0.0185151 -0.00715984 0.0173353 -0.0164742 -0.00380831 0.0106051 -0.0146097 -0.020079 0.0255884 -0.00890022 -0.00343952 -0.0195688 -0.0177203 -0.0014386 -0.00207628 0.00346866 0.00938588 -0.00925494 -0.0043676 0.0670942 0.019675 0.0343779 -0.0129374 0.0314596 0.0168046 
-0.00961196 0.0123656 -0.043383 -0.00480243 -0.0215847 -0.0162864 -0.0145502 -0.00695777 0.00203779 -0.0208899 0.0141009 -0.0330392 0.0455546 -0.00919511 -0.00392685 0.0165774 -0.00784997 0.00278798 0.000665359 0.0158994 -0.0171706 -0.0247943 0.0550175 0.00963362 -0.0136578 0.0270633 0.0530161 0.0499457 0.052193 0.037917 0.0102943 0.0077218 
-0.0136747 -0.0150573 -0.0264561 -0.0163507 0.00389775 0.00651503 -0.0189737 0.0125029 0.00213205 -0.037872 0.0478182 -0.0085093 -0.0142767 -0.0215 0.0147873 0.0183548 -0.020774 -0.00486234 -0.00946526 -0.0349213 0.0198157 -0.0276833 -0.00642969 0.0105469 -0.00841919 -0.0680518 0.0374964 -0.0212358 0.0288088 0.0780377 0.00301445 0.0139918 
-0.0201929 0.000352857 -0.020167 0.00554458 -0.00313247 0.00472728 0.00482245 -0.0215963 -0.0263065 0.00357135 -0.00307331 -0.0128036 -0.0208417 -0.00382342 0.0160195 0.0561318 0.0157865 -0.00947094 -0.00695502 0.00639477 0.0115822 -0.0215115 0.0036888 0.0645399 -0.0263494 -0.00568195 0.0904907 -0.0139601 0.0934843 -0.0182503 0.111872 -0.0149185 
0.0191679 0.0262536 0.00898599 -0.0116197 -0.01026 -0.00821026 -0.0398045 -0.0215268 -0.00271472 -0.0261415 0.0919799 -0.0316078 0.0225292 -0.015957 -0.0116073 -0.0219354 0.00553505 0.00836843 -0.0212783 -0.0315014 0.0110917 -0.0213881 0.0534329 -0.0283547 -0.0152437 -0.0620293 -0.0262734 0.0918313 -0.0390678 0.0928326 -0.08192 0.00315979 
0.0127617 -0.00639544 0.00401397 -0.0219099 0.00807942 -0.0143709 -0.0164976 0.0110664 -0.00538873 0.00139001 0.0176673 0.00325778 0.0108478 -0.0244035 -0.0232346 0.00774808 0.0205912 -0.0152472 0.00793931 0.0135409 0.0133168 0.00125959 0.0532458 0.0244857 -0.0300533 0.0144388 0.0832537 0.0553018 0.035828 0.0146377 0.0260708 -0.0252289 
0.00122602 0.0128966 -0.0285684 -0.017479 0.00380476 -0.0123269 -0.0116286 0.00354593 0.00972521 -0.0286342 0.114451 -0.00934266 0.0227441 -0.0126476 0.010166 0.0567481 0.00647699 0.000223544 0.0104568 -0.0315495 -0.006003 -0.0335141 0.0982853 -0.00461781 -0.0355316 -0.0548668 -0.00291696 0.137197 0.0304306 0.042554 0.00689738 -0.014434 
0.0166004 0.0355354 -0.0186712 -0.00675695 -0.0117735 -0.0145523 -0.0374238 -0.011245 0.00784268 -0.0257346 0.0196295 -0.0175179 0.0426571 -0.0423937 0.00227904 0.0528042 -0.00203645 -0.000455579 0.0105528 -0.00836457 0.0178204 -0.0427451 0.112427 -0.00323798 -0.03278 -0.0280754 0.00479743 0.102057 0.023078 0.0633449 -0.0018491 -0.0160985 
0.012911 0.0160422 0.00234715 -0.0215508 -0.0163614 0.0182409 -0.000801434 -0.00487528 0.0205957 0.00677446 0.016684 -0.00582951 0.0224102 -0.00225438 0.00953075 0.00261094 -0.0219617 0.00467507 -0.0117289 0.0156138 0.015269 0.00281508 0.018175 -0.00479138 -0.0120423 -0.00317373 0.00597124 0.032889 0.00249374 0.0341304 0.0111621 -0.0108117 
0.0065832 -0.0050172 -0.0255202 0.00990534 -0.00984721 0.00805316 -0.0260655 -0.0197348 0.00715453 -0.0380872 -0.0134636 -0.0109953 0.00996622 -0.0263785 0.0105095 0.048984 0.0171198 -0.0213044 -0.00112764 0.00450569 0.00743996 -0.00116271 -0.00432171 0.0249146 -0.0207509 -0.00675265 0.0308064 0.0253508 0.026862 0.037124 -0.000585755 -0.0140747 
0.00582012 0.0185348 -0.030174 0.0129716 -0.0114501 -0.020254 -0.0518712 0.00339904 0.00994161 -0.0404242 0.105204 0.0013897 0.0510936 -0.0369571 -0.00264663 -0.00851719 -0.0250604 -0.0189594 -0.00428286 -0.0254891 0.0197333 -0.0222458 0.102432 -0.0709295 -0.0434486 -0.0620354 -0.0168649 0.144052 -0.0738418 0.0719772 -0.13245 -0.0118612 
0.00981055 -0.00487312 -0.0331652 0.0170342 -0.00688316 -0.0201387 0.00313687 0.00633802 0.0202755 -0.0387162 -0.00928067 0.00109207 0.00564288 -0.0360098 -0.00249605 0.0452449 -0.0147389 -0.0194368 0.0178109 -0.0225127 0.00902125 -0.0125074 0.0872099 0.0236418 -0.00194072 0.0729738 0.162923 0.0553679 0.129863 0.000917107 0.111416 -0.00059055 
-0.0126855 0.0128973 0.00145717 0.00198494 -0.0175815 -0.00721475 -0.013511 0.019401 -0.00952504 0.00923241 -0.00235804 -0.00289802 0.0100415 -0.0164259 0.00762571 0.0726097 -0.0106768 0.00500297 -0.0161499 0.00993122 -0.0110582 0.000581986 -0.0192254 0.0619877 -0.0234737 0.0202916 0.150008 -0.0486686 0.122584 -0.0214712 0.156623 -0.0156722 
-0.00726354 0.00731739 -0.0136153 -0.00765944 0.00960247 0.0103374 -0.0219828 -0.0152284 0.0187236 -0.0493955 -0.00325441 -0.00877995 0.0223941 -0.0282636 -0.000487448 0.079508 -0.0194756 0.0104432 -0.000723586 -0.00578955 -0.00823672 -0.0258014 0.117677 0.0552389 -0.028872 0.0868709 0.168086 0.0844109 0.151471 0.0390524 0.13333 0.00826916 
0.0142387 0.000353642 -0.0154349 0.00071281 -0.00395792 0.00245837 0.00573385 -0.0159947 0.00651709 -0.0104786 0.00673336 0.0126642 0.0211485 -0.013919 -0.00713426 0.0471331 -0.0204097 0.0157621 -0.0132967 -0.0121569 -0.00681655 0.00229424 0.0476628 0.0337561 0.00681549 0.0180784 0.0662066 0.00778229 0.0272187 0.0227004 0.0336894 0.0130656 
-0.0080573 -0.00501986 -0.00602442 0.00975506 -0.0171515 -0.0199093 0.0161434 0.0106585 -0.00877328 0.00302943 -0.00847964 -0.0137687 0.00930417 0.0185281 -0.0161388 0.131626 0.0143394 -0.00579456 -0.00937655 -0.0218564 -0.0196969 -0.0164306 0.012324 0.110956 0.00104366 -0.0138237 0.148601 -0.0299519 0.148015 -0.0141702 0.178989 -0.00871812 
-0.0216191 -0.0327273 -0.0178122 -0.0171772 -0.0190527 0.02021 0.0152936 0.00176294 -0.00896475 -0.00160286 0.0252919 -0.00532753 -0.0192594 -0.0223128 -0.00697828 0.0092032 -0.0050901 0.00609086 -0.001742 -0.00705162 0.0145103 -0.0041089 -0.0507784 0.0189853 -0.000919543 -0.00114665 -0.00812933 -0.0515696 0.000994164 -0.00230318 0.00708895 -0.0200063 
0.0214233 -0.0221219 -0.0147675 -0.0199258 -0.0187109 -0.020977 0.00421596 0.00525919 -0.00665366 -0.00455935 -0.028145 0.0153191 -0.00956015 -0.0068087 -0.0139569 0.103029 -0.0194175 0.00789143 -0.00942876 0.00902176 -0.0171758 0.00230836 -0.00557546 0.0819125 -0.0236953 0.0177647 0.125263 -0.0474414 0.148008 -0.023094 0.129255 0.00934382 
-0.00145023 0.00106321 0.00269623 0.000959574 0.00394113 -0.00825486 -0.023526 -0.0203251 0.0155625 -0.0267859 -0.0838395 -0.0140297 0.00628193 -0.0217658 -0.0166486 0.0359979 0.0213556 -0.00284417 0.00362438 -0.0235987 -0.0203338 -0.0307346 0.0106465 -0.00807981 0.00707593 -0.0298844 0.0229536 -1.44513e-05 0.0254801 -0.000409267 0.016493 -0.0234497 
-0.00439896 -0.000726107 -0.0156475 0.0190746 0.012174 0.0037027 -0.0291935 0.00611879 0.0262734 -0.0353685 0.0195945 -0.00152916 0.0132743 -0.0350779 -0.00872896 0.014385 0.00105884 0.021412 0.0005876 0.00399836 -0.0184054 -0.0256113 0.0628503 -0.0163584 -0.0171245 0.00996472 0.0537008 0.0677189 0.0160298 0.0108956 0.043122 -0.0020939 
0.00314745 0.0106237 -0.00310233 -0.00948377 -0.008433 0.0014212 0.0046169 -0.0156745 0.0179805 -0.00465876 0.0564416 -0.0220381 -0.0107964 -0.0184148 0.00310564 -0.0170687 -0.0133035 -0.0163488 -0.0196561 -0.0281595 -0.00223707 0.00354976 0.0218021 -0.012739 -0.0309306 -0.0541351 0.0157233 0.0375918 -0.0449089 0.0577957 -0.0376307 0.0174434 
-0.00167862 0.00146 -0.012814 0.010336 -0.0193151 -0.0134422 -0.0295837 0.0113242 -0.0113038 0.0077382 -0.00568332 -0.0185003 -0.0068122 0.00278062 0.00953309 1.1195e-05 0.0106316 0.0160927 0.015738 -0.0229503 0.012798 -0.0195713 -0.00870224 -0.0242474 -0.0187178 -0.0393978 -0.0149333 0.0281974 0.0220717 0.0220094 -0.00195635 -0.00365176 
0.0115161 0.00250758 -0.0137292 0.0137914 -0.0214701 -0.0110854 0.00491785 -0.0138007 -0.021145 0.00665464 0.00573918 -0.0026018 -0.0249269 -0.0167455 -0.0215244 0.0135654 -0.0226742 0.0180609 -0.00642915 0.00479395 -0.0148611 -0.000310788 -0.0339361 0.0172324 -0.0035788 -0.0338325 -0.00283675 -0.0556307 0.0139257 -0.0243733 0.0494638 -0.012317 
-0.00157249 -0.0121065 -0.0287145 -0.00249239 -0.00527333 0.00590356 0.00127365 0.00537589 -0.00124183 -0.0306843 -0.0196323 0.00609776 -0.00326322 -0.0236687 0.013983 0.00703593 -0.01762 -0.0129899 0.0215352 -0.00944765 0.00937335 0.00362822 0.0466087 0.00345486 0.0128489 0.0437019 0.0600599 0.0288422 0.0421978 0.0221565 0.0437582 -0.0240527 
0.0163878 0.00498594 -0.000721591 -0.0118411 0.00175333 -0.0158443 0.0130702 0.0196183 -0.0222651 0.0188713 0.0130961 -0.0089621 -0.0303718 0.000695533 0.00133232 0.0250155 0.0088565 0.0016297 0.00175516 -0.0115306 -0.00676745 -0.0103539 -0.0360215 0.00998401 -0.0213501 -0.0235521 0.0234552 -0.0427397 0.00348709 -0.0193943 0.0396672 -0.0181538 
-0.00447629 -0.00746292 -0.0253448 0.0168728 -0.00556421 -0.0193919 0.00517004 0.00208725 -0.00870604 -0.0176168 0.0192452 -0.0119239 -0.00605489 -0.0169806 0.00551715 0.0288958 -0.0197397 -0.0127343 -0.011855 -0.00399485 0.000210211 0.00339145 0.0486603 0.0117396 -0.0160745 0.0145382 0.0337749 0.0450217 0.00786597 0.00195538 0.0328898 -0.00216734 
-0.00403584 -0.0304114 -0.00146931 0.0113203 -0.00261748 -0.00713613 -0.0104838 0.00762749 6.53412e-05 -0.0125521 -0.000859275 0.0156845 -0.0193689 0.00944501 0.0104288 0.0700572 0.0184244 -0.0214912 -0.0120349 -0.0180801 -0.0212476 0.0193391 -0.101677 0.0310584 -0.0104281 -0.0355011 0.00718127 -0.0948696 0.0330575 -0.0519309 0.0387924 -0.0193507 
-0.00696065 -0.00487079 0.0173306 0.0114851 -0.0217997 -0.01238 -0.00809711 0.0175142 -0.0107614 -0.00646864 0.0132114 -0.0136852 -0.0303999 0.00763868 -0.0191935 -0.00107913 0.008496 -0.00800755 0.00798137 -8.45864e-05 -0.00920878 0.0108377 -0.0708139 0.0122935 -0.0127794 -0.027205 -0.0392398 -0.0887033 -0.000343354 0.0281711 -0.0168293 0.0201169 
-0.00606826 0.0135187 0.00792815 -0.0079869 -0.00661879 -0.0161566 -0.024974 0.00995094 0.0356263 -0.0353512 -0.0496005 0.0138407 0.0642106 -0.0191977 -0.0148307 0.0651484 -0.000848963 0.0174807 -0.00827181 0.00298708 0.00966269 -0.00739196 0.14106 -0.0210947 -0.0327916 -0.0303133 -0.020636 0.177561 0.0167282 0.102955 0.0039859 -0.0125557 
0.00303113 0.00204479 -0.0181072 0.0146629 0.00781911 0.00641025 -0.0095388 -0.0121558 -0.0159448 -0.0157011 -0.0169332 0.00777769 -0.0102406 -0.019829 0.000663225 0.0653875 -6.53397e-05 0.0185691 -0.00508342 -0.0218668 0.00181105 -0.0431396 0.0107287 0.0105053 -0.033801 -0.023578 0.0296577 0.00132224 0.0509821 0.0624711 0.012647 2.5404e-05 
0.00729321 0.0206492 -0.00182658 -0.0070943 0.0160217 -0.0119494 0.0109001 0.0193056 -0.0178727 -0.0164638 0.0140212 -0.0135174 0.0115132 -0.0038807 0.0164315 0.0258649 -0.0062058 -0.00524953 2.4654e-05 0.0132043 0.00184926 0.0134594 0.0112998 0.045669 -0.00942527 -0.0205228 0.0417578 -0.0128888 0.0437902 -0.00652665 0.0739082 0.0162553 
-0.00519864 -0.0003403 -0.0464742 -0.0167463 0.00561726 0.00558045 -0.0432034 0.0015396 -0.0118959 -0.0647365 -0.00684125 0.000730268 0.00990916 -0.0199747 -0.0173955 0.11144 -0.0102184 0.00745977 0.00599303 -0.00086583 -0.000262375 -0.0452871 0.0315157 0.0226712 -0.039039 -0.0278994 0.0448872 0.0266982 0.0299789 0.0863453 0.035352 -0.00552078 
0.00274108 0.0187389 -0.00384065 -0.0160768 0.0117928 0.0117483 0.0117165 0.0176996 0.0234259 0.00436712 0.0128153 -0.00845671 0.0287583 0.00704784 -0.00998592 0.0205694 0.00572775 -0.016679 0.0178684 -0.0169721 -0.00034604 -0.010114 0.0337753 0.0483756 -0.0250849 0.0390312 0.0901519 0.029788 0.0712369 -0.00964017 0.0831654 0.0148259 
0.0174356 -0.0120902 -0.0170426 0.0058452 -0.00308332 -0.0199782 -0.00231173 -0.00487978 0.00829805 -0.0112651 0.0265767 0.00826326 -0.0328619 -0.0143835 0.0152065 0.0710528 -0.0103426 0.0122951 -0.0189378 -0.000418633 -0.00556529 -0.0205019 -0.0604386 0.031719 -0.0192255 -0.0485805 0.0374698 -0.072291 0.0139053 -0.035498 0.0490308 -0.0125969 
-0.00667904 0.00274516 0.0177297 0.012904 0.0138249 -0.00230948 -0.013965 0.0132236 0.00399632 -0.0204171 0.189599 -0.0205576 -0.0255536 -0.00178511 -0.0211545 -0.0202416 -0.00915634 -0.0172712 -0.00675387 -0.00454471 -0.0130049 -0.0207694 -0.0372296 0.0441017 -0.0150005 -0.0274097 0.0503521 -0.0453596 0.0475557 -0.255733 0.101091 -0.00271796 
0.0076482 0.029244 -0.0319388 -0.00501554 -0.00703436 -0.0105703 -0.0238873 -0.0155527 0.00756938 -0.00917938 -0.0241092 -0.000550541 0.022581 -0.0304417 -0.0138798 0.0788852 -0.00217431 0.00634403 -0.0070166 0.00730058 0.00879569 -0.0156424 0.0916228 0.0320143 -0.00378328 0.090012 0.162731 0.0535064 0.129238 0.0375802 0.124875 0.0116958 
0.00451042 0.0224786 -0.0297894 0.0162058 -0.00691077 -0.00320205 -0.0333203 0.0149588 0.00482689 -0.0326048 0.00451271 0.00640223 0.024085 -0.00462598 -0.00162494 0.00343648 0.00146242 0.0162149 0.0114313 -0.0116608 0.000981971 -0.00212104 0.0400138 0.00391943 -0.0256425 -0.00710938 0.0513603 0.0540483 0.0413934 0.00806104 0.026328 -0.0127284 
-0.0203313 0.0275464 -0.0196225 -0.00695563 0.00589563 -0.0112741 -0.0161337 -0.0161737 0.00904538 0.00430693 0.0174324 -0.0133278 0.0226414 -0.00929474 -0.00386555 0.0547529 -0.00535658 -0.0103124 -0.000226461 0.00346129 -0.0117996 0.00174275 0.0566376 0.0515993 -0.00300508 0.0395475 0.17199 0.0198477 0.0841892 0.0249517 0.109644 -0.0197905 
0.0167604 -0.0196484 -0.000318914 4.155e-05 -0.00428586 0.0102974 0.00614263 -0.0181639 0.00101521 0.00398464 -0.0105239 -0.0121972 -0.0144527 0.0155799 0.00188288 0.0931245 -0.0138079 -0.0187741 -0.00184903 -0.0155763 0.0151533 0.0126971 -0.000942219 0.0793045 0.00492081 -0.00959601 0.136191 0.00554464 0.124815 0.013564 0.120472 -0.0211654 
0.0215298 0.00368452 0.00312638 -0.00526069 -0.00428557 -0.0124134 -0.00112138 0.0220156 0.0122986 0.0174035 -0.0151963 -0.0240583 0.0124309 0.0155169 0.00222086 0.0557434 0.0213635 -0.0204864 -0.00065054 0.00681303 0.017632 -0.000891864 0.00174296 0.072372 0.00777239 0.00452747 0.123127 -0.0418764 0.114532 0.00506057 0.1002 -0.00423899 
-0.00314619 0.0258722 0.00992944 0.0110241 0.02122 -0.0126391 -0.00790396 0.00762185 0.00104753 -0.046759 0.0898288 -0.0292646 0.00190679 -0.0115789 -0.0183288 -0.0453171 -0.00242159 0.00583475 0.0138679 -0.0264212 -0.0146921 -0.0264621 0.0428162 -0.0732978 -0.00700272 -0.021189 -0.0355521 0.0755266 -0.0635424 0.073203 -0.0815599 -0.0197121 
0.0209702 0.0319474 -0.00660843 0.0150811 0.0218543 -0.00260674 -0.0146994 -0.0229463 0.0370111 -0.0339223 -0.0152491 0.00351573 0.0345704 -0.0290366 -0.0247062 0.102182 -0.0178569 0.0174869 -0.020825 -0.0250321 -0.011624 -0.0424623 0.12839 -0.0147434 -0.0487812 -0.0286805 0.0350984 0.149262 0.0390033 0.0633909 0.02785 0.00282001 
-0.0213648 -0.00206925 0.00296054 -0.0224428 -0.00231113 -0.00522892 -0.01408 -0.0075625 -0.0290512 0.00125495 -0.00165814 -0.0120685 -0.0393484 -0.010693 -0.0213824 0.0270393 -0.0159441 -0.0127952 0.00103275 -0.0142414 0.00271614 0.0142548 -0.0573477 0.0300149 -0.0188491 -0.046132 0.0107307 -0.0520829 0.0109302 -0.0267624 0.0339284 -0.00640754 
-0.0182533 -0.0171716 -0.0229995 -0.00122344 -0.00219332 -0.00231642 0.000353939 -0.00311127 -0.0101155 -0.0406958 0.00251231 -0.0174449 0.000129607 -0.00104007 -6.39523e-05 0.0535765 -0.0154437 -0.0196724 0.0179894 0.000433569 0.0176378 -0.0202037 0.00737796 -0.0123471 -0.0158271 -0.00204751 0.00867142 0.0280208 0.0157466 0.0463348 0.0101717 -0.00673493 
0.00566656 0.016958 0.00937367 -0.0205084 -0.00514435 0.00892573 0.000421381 0.00490071 0.021204 -0.0116735 0.0132909 -0.0132099 0.00946456 -0.012876 0.0161938 0.0585358 9.44283e-05 0.0185204 -0.00941006 -0.0145874 -0.00225056 -0.000389538 0.0618511 0.0188195 -0.005896 0.0332564 0.167578 0.047624 0.0733728 0.00436093 0.0789906 0.00759498 
-0.0182783 -0.00295874 -0.00469733 -0.00401682 -0.0164686 -0.00905189 -0.030638 -0.0197834 0.0240362 0.00135159 -0.00373058 -0.0129609 0.0109096 -0.024198 0.0177453 0.0360868 -0.0101862 -0.0115616 -0.00672438 0.0101029 0.0206401 0.00106231 0.0510447 0.0105617 -0.0142032 0.023015 0.0457349 0.0451829 0.00623392 -0.00240615 0.0167196 -0.0193282 
-0.00613745 0.0565248 -0.000316671 -0.00649283 0.0122925 0.00228864 -0.0347879 -0.000879306 0.0637367 -0.0289869 -0.0850132 -0.0350086 0.0920105 -0.0327843 -0.0238048 0.0631036 -0.0160464 -0.00197029 -0.0121314 -0.0387564 -0.00484649 -0.0481264 0.292773 -0.0641923 -0.0268421 -0.0335973 -0.0378681 0.373445 -0.131701 0.172754 -0.177434 0.0210073 
-0.00281649 0.0160282 -0.0304541 -0.01685 -0.00861377 -0.0323561 0.00245335 0.0215812 -0.013497 -0.0502992 -0.0170374 -0.0192047 0.0109213 -0.0395305 0.0149069 0.0266787 0.00753182 -0.0113047 0.00953918 -0.0167566 -0.00874772 -0.0209766 0.106148 -0.00840267 -0.0372799 0.039317 0.0912479 0.0922797 0.064312 0.0588995 0.0490019 -0.0217006 
0.00323444 -0.00787868 -0.00790776 0.0138703 -0.00952298 -0.0112277 -0.00270089 -0.0139664 -0.00358787 -0.00338644 0.0272113 -0.0100851 -0.0160232 -0.00332742 0.0158899 -0.00915468 0.00866606 0.0058266 0.0180496 -0.0456047 -0.00922019 0.00540649 -0.0309775 -0.0193092 -0.0180441 -0.0885206 -0.0629958 0.00644139 -0.0498852 0.0722263 -0.0401333 0.00807775 
-0.00400406 0.0172053 -0.00665136 0.00753344 -0.0169397 -0.00637505 0.0161775 -0.000925935 -0.000230043 -0.00504202 0.0205097 0.00234579 -0.0054119 0.00881772 -0.000456224 0.0311816 0.0024553 -0.00172926 -0.0191171 0.0170844 -0.00479572 -0.0199358 0.0215606 0.0240272 -0.0128291 0.0227228 0.0149474 0.0257351 0.0349008 0.021357 -2.10655e-05 -0.0143531 
0.000986638 0.0154259 -0.00799301 0.00185451 -0.0131247 0.00627114 -0.0400023 -0.00174693 0.00560132 -0.0541406 -0.0318133 -0.00349048 0.0297162 -0.0151489 0.00635453 0.0765584 -0.0102999 0.0114775 -0.0096812 -0.0055281 -0.0215175 -0.0201634 0.0249847 0.000926842 -0.0305911 -0.0144724 0.061611 0.00658483 0.0395916 0.0616456 0.0248679 -0.0213859 
0.0173551 -0.000667121 0.00605136 -0.0185234 -0.00691364 0.0132955 0.00865616 0.0171749 0.0196247 -0.0255227 0.00262553 0.0157278 0.021005 -0.0133748 -0.00243175 0.0111395 -0.01965 0.0165022 0.0120479 -0.0248924 0.00560039 -0.00936379 0.0281874 0.0010943 -0.0175472 0.00725927 0.0691351 0.0243066 0.0463706 0.0190018 0.0597686 -0.0048965 
-0.0104687 -0.0129651 0.00131501 0.00348567 -0.00134995 -0.0105515 -0.00405713 -0.0041362 -0.0273907 -0.0205346 0.012865 -0.0220654 -0.037965 0.0121925 -0.0138334 0.0590905 0.00628429 -0.0227293 0.00119745 -0.0254107 -0.00408671 -0.0223154 -0.0961165 0.0422486 -0.0150176 -0.031734 0.0222302 -0.0855301 0.0288599 -0.0540103 0.056593 0.00987498 
-0.0206945 0.00231605 -0.00517497 -0.00111438 -0.0120913 0.0159384 0.0127626 0.00135007 0.00300927 -0.0166617 0.0184378 -0.0125567 -0.0514642 0.0175215 0.0105836 0.0650859 0.017135 -0.00898041 -0.0207413 -0.0234295 -0.00666689 -0.00601005 -0.110238 0.0383728 -0.0291606 -0.0439493 0.0192206 -0.0976763 0.0323914 -0.0351124 0.0390497 0.0147466 
-0.0134936 0.0265943 -0.00974506 -0.0073346 0.00850974 -0.0142705 -0.00500844 -0.00178606 0.0104681 -0.0286486 0.0832272 -0.0103872 0.0158597 0.00267467 -0.0135881 -0.00491947 -0.0214838 -0.00867364 0.0111005 -0.0254561 0.00944071 -0.00577538 0.0262065 -0.0059495 -0.035426 -0.0596796 -0.0227938 0.0500776 -0.0236233 0.083156 -0.0546079 -0.000233467 
