0.387506 -0.135298 0.349884 0.893127 0.533605 -0.326288 -0.357115 0.306448 -0.802952 0.241253 0.0448272 0.397661 -0.457706 0.00822093 0.577583 0.500009 0.155229 0.241465 -1.17255 0.113075 -0.592221 -0.820326 -0.406812 0.350855 -1.21993 -0.324405 -0.439345 -0.478197 1.49595 -0.321514 0.0021574 0.370132 0.126042 -0.229042 0.507636 0.0254522 0.0718871 0.519401 -0.751692 0.821658 0.0141493 0.309672 -0.324129 0.435044 -0.721305 -0.147506 0.902567 1.27556 -0.503689 1.34011 0.0307917 -0.513772 -0.37949 0.171752 0.395822 -0.174007 -0.517478 -0.564255 0.0843578 -0.523937 -0.921354 0.502738 0.413385 0.457081 -0.271623 0.0636695 -0.144912 0.303679 -0.0290539 0.172687 0.118076 -0.557755 -0.1038 0.469386 0.433493 0.227525 -0.188837 0.786474 0.134625 -0.436448 0.608652 -0.323895 -0.0510194 0.527695 0.995777 -0.217633 -0.72505 0.532039 -0.154593 0.229116 1.34708 0.0454541 0.156269 0.373235 -0.0598887 0.476608 -0.125986 0.397762 0.187785 0.57292 0.0429743 -0.984801 0.504114 0.497602 -1.1929 0.426993 0.14668 0.00146603 0.386193 -0.596801 0.40212 -0.238015 -0.0752104 -0.921619 -0.330078 -0.773273 0.0281575 -0.116547 -0.90176 0.489303 -0.469023 -1.05803 -0.0501815 0.295163 0.660674 0.494908 0.617646 -0.438732 0.345311 -0.172933 -0.202881 -0.964497 0.117169 -0.833529 -0.365353 0.270544 -1.26957 0.393408 -0.371875 0.738319 -0.484523 1.33962 -0.552288 0.209817 -1.0795 -0.292132 0.324848 0.290759 0.164044 0.598236 0.181945 0.29342 -1.29788 -0.430142 0.246374 -0.542119 -0.499324 -0.308997 -0.0331861 0.36238 0.0575285 0.27191 -0.503241 -0.384411 0.634621 -0.308801 0.534758 -0.956315 0.548778 -0.490259 0.495007 -0.455076 -0.498932 0.476023 0.383305 -1.11973 -0.388394 -0.109245 0.549171 0.977752 -0.185478 0.00266344 0.117253 -0.0460053 0.58648 -0.488837 -0.0252373 0.293682 -0.722854 0.573928 0.40502 0.485188 0.805293 0.417248 -0.515886 0.282772 0.381118 0.56171 0.432994 0.974244 0.665017 0.252659 1.20586 0.595246 0.205135 0.118602 -1.15088 1.03018 0.389848 -0.513915 0.156399 -0.93021 0.160272 -0.327196 0.621794 -0.223585 -0.194131 -0.284285 -0.461658 0.122094 -0.768771 0.212937 -0.0171707 0.604711 -0.763979 0.0254863 0.222758 -0.444528 -0.0277868 0.0571656 0.615967 -1.90684e-05 -0.352887 0.372437 0.0261878 -0.566942 -0.152312 0.446048 0.91393 -0.32897 0.175387 -0.0404686 0.0259565 -0.71993 0.687402 -0.380134 0.124003 -0.53592 -0.110007 0.212964 0.215152 0.107633 -0.179158 -0.311872 0.110243 0.110669 0.265875 -0.538076 0.336207 -0.289663 0.532162 0.247936 0.157102 -0.846328 0.212915 -0.497128 -0.873025 0.407003 0.232358 -0.42196 -0.473393 -0.127412 0.106391 0.451141 0.137084 -0.676624 0.325549 -0.641741 -0.216733 -0.365281 0.624622 -0.576776 0.323996 -0.209635 -0.375753 0.0245957 0.526577 0.469217 0.344355 0.208938 -0.471932 0.18044 -0.132432 0.873417 0.607139 0.559588 0.490291 -0.993185 0.316535 0.0622003 -0.258219 0.448329 0.544701 0.497466 -0.057683 0.108347 -0.353869 -0.234391 1.09362 0.088354 -0.0524086 0.47158 -0.0508844 -0.24807 -0.910473 0.18077 0.258471 -1.1184 0.325831 -0.0618571 0.341878 0.229177 -1.13849 -0.971653 0.181904 -1.28696 -0.443791 -0.563578 -0.588336 0.483318 0.487256 0.148653 0.377508 0.347355 0.0607923 -0.169672 -0.108473 0.162309 0.115458 -0.2709 -0.381224 -0.507014 -0.417164 0.43681 -0.344076 -0.265031 -0.156926 -0.514677 -0.0732519 0.589747 0.0949361 -0.260015 0.226607 0.308308 -0.0382373 -1.08745 0.431821 0.107715 0.0407115 -0.335313 0.0813922 -0.0895615 0.404362 -0.0958809 -0.308483 -0.15547 0.30799 0.555288 0.599626 -0.487039 0.496355 -0.935635 -0.115599 -1.51618 0.309588 0.311761 -0.232948 -0.39557 0.401976 0.220042 -0.555495 -0.0439061 0.493465 0.209864 -1.00572 0.138452 1.09472 -0.460333 -0.437361 -0.406407 -0.198021 0.154345 0.312674 -0.365992 -1.49857 -0.451015 0.0902461 0.396704 0.627204 -0.239316 -0.432971 0.0788583 0.419106 0.197684 0.113477 -0.514079 -0.257265 0.520709 -0.0632775 -0.412887 0.126479 0.0274875 0.532454 0.102147 -0.981573 0.36159 -0.536736 -0.442161 1.22419 -1.02264 -0.0395753 -0.332023 0.371896 -0.26216 -0.354655 0.43113 -0.175709 0.312008 0.173079 -0.516599 -0.276908 0.363017 0.109763 0.891332 -0.665857 -0.325612 -0.313976 0.361006 -1.33437 0.188166 0.325198 0.251884 -0.357447 -0.134657 -0.222186 -0.0861491 -0.947277 -0.128286 0.0350263 -0.354492 0.0332402 -0.559627 -0.119554 -0.0956581 -0.222947 0.226556 -0.73849 0.205147 0.0620635 0.520125 0.211406 0.307053 0.222442 -0.632495 0.582929 -0.572658 0.340675 1.0337 0.0932675 0.136969 0.285652 -0.0972929 -0.153562 0.264902 0.9167 0.162935 -0.318333 -0.516188 -1.43494 0.234077 -0.298634 0.128899 0.239997 0.0628926 -0.55108 -0.570624 -0.243583 -0.757414 0.178952 0.399105 -0.374251 -0.183427 0.161265 0.449232 0.124509 -0.203688 0.430932 -0.299251 -0.398059 -0.0072489 0.960862 0.16712 0.550881 -0.326424 -0.136778 0.207904 0.409447 0.204848 0.242095 0.532928 -0.918603 1.16812 0.0423516 0.440607 -0.121619 0.0376583 0.452537 0.912967 0.366629 0.112159 0.130743 0.606471 1.27916 -0.603718 0.420341 0.294442 0.424262 0.326925 0.351443 0.938843 -0.234242 0.100321 -0.0721833 -0.359043 0.358551 0.415788 0.423978 0.162294 -0.0895725 0.0703993 0.0838595 0.118887 0.282952 -0.417832 0.0522837 -0.541811 0.63224 -0.0399661 1.0839 0.00408504 -1.0202 0.159189 0.008659 -0.542448 0.303056 -0.418095 0.117469 0.0417061 -0.38015 -0.0759481 -0.243868 -0.108643 -0.509278 0.172435 0.0903725 0.409229 0.390365 -0.0692111 -0.0632902 0.622749 -0.512005 -0.513182 0.141921 0.127267 -1.00773 -0.819365 0.128043 0.479035 0.266044 -0.0446689 -0.0836795 0.393214 0.590495 0.555585 0.446452 0.34491 -0.214453 0.225255 -0.810178 -0.0161574 0.585109 -0.0671767 0.519142 0.623682 -1.04752 -0.0400854 0.334526 0.31851 1.22791 -0.265301 0.291102 0.475748 -0.606858 -0.12022 0.306472 0.0322107 0.356942 -0.340712 0.120249 -0.510749 0.129557 1.25797 -0.333274 0.109774 0.453925 -1.27009 -0.134978 -0.371088 0.550302 0.0805553 0.187949 0.0995015 -0.547231 0.0285224 0.280896 -0.299977 -0.565965 -0.579885 -0.586029 0.463672 0.0816423 0.26987 0.456137 0.49929 -0.381567 0.037442 0.129269 0.308459 0.15129 0.520862 -0.432628 -0.81596 1.14212 -0.130294 0.527477 0.249479 -0.084168 -0.801552 1.34145 -0.353221 0.482451 0.10457 0.25362 0.485514 -1.02919 -0.766537 -0.424373 -0.328243 0.143374 -1.12831 -0.428806 -0.981798 0.501123 -0.590717 -0.351579 -0.383452 -0.0791152 0.168301 0.428713 -0.50461 0.115171 -1.17596 -0.317224 -0.00875275 -0.251858 -0.237434 -0.960029 0.540478 0.301841 -1.09118 -1.42332 -0.0926131 0.354339 0.749327 -0.142627 0.595864 -0.515518 -0.0170711 -1.00104 0.161582 0.263455 -0.507703 0.481107 0.163127 -0.157697 -1.50075 0.786654 0.340172 0.200784 0.201376 0.533721 -0.169904 0.313339 -0.183035 0.308291 -0.371109 0.137325 -1.38127 -0.380381 -0.424003 -0.309177 -1.05958 0.114373 -0.529504 0.43521 0.562358 -0.481988 0.480197 -0.0173024 -0.895121 0.402162 -0.372998 0.121952 -0.0803324 0.863552 0.535419 -0.0461772 0.081478 0.224973 -0.974061 -0.766613 0.157728 0.17441 -0.595071 0.479061 -0.170982 -0.315422 -0.0212114 -0.366334 -0.683689 0.232828 0.162098 -0.0740897 -0.266285 0.210336 -0.475599 -0.340038 0.267248 -0.784808 0.198713 -0.532208 0.390051 1.09506 0.102229 -0.600124 0.495904 0.282699 0.359975 -0.85432 -0.749406 -0.512653 0.015177 0.541242 0.115235 -0.0250853 1.00806 0.546821 0.26221 -0.205589 -0.420283 -0.536227 -1.39715 -0.541689 0.0878512 -0.23939 0.211068 0.342174 0.125169 -0.0872619 -0.506922 -0.352603 -0.0831162 0.488652 -1.30934 -0.481326 -0.9209 0.2017 0.149276 -1.1595 0.623103 0.422956 -1.17751 0.116908 0.281719 0.273439 -0.499985 0.0582046 0.311483 0.313724 0.586843 -0.463728 0.303652 0.560012 -0.477739 -0.263322 -0.299091 0.336654 -0.430589 0.297938 -0.273316 -0.407602 0.527294 0.326257 -1.35791 0.484328 0.385532 -0.584216 0.198246 -0.0525951 -0.0281715 0.151421 -0.213882 0.347915 -1.17832 -0.514668 -0.144042 -1.13423 0.197993 -1.21004 0.406378 0.227805 -0.28298 0.198897 -0.00642956 -0.214194 0.505195 0.324639 -0.415403 -0.477168 0.176928 -0.311214 -0.990019 0.112691 -1.17426 -0.644132 -0.0255417 -1.59719 0.153092 -0.409948 0.00539128 -0.514738 0.300355 0.269183 0.21743 0.538787 0.45267 -0.451427 -0.490307 -0.0599428 -1.08445 0.577062 -0.463313 -0.0403192 0.483261 0.135211 0.194988 0.0206931 -0.0123464 0.393216 0.043512 0.476982 -0.315105 0.321301 -0.148371 -0.125082 -0.476365 0.304374 -0.134822 0.243112 0.506911 0.357743 0.424284 0.245267 0.415562 -0.000295546 0.490668 -0.0405819 0.0846268 0.192424 -0.580637 0.260603 0.0796307 -0.3517 -0.395258 -0.308555 0.826587 1.00674 0.780227 -0.359755 0.183271 -0.737828 -1.10147 0.456415 -0.457541 -0.0702901 -0.683452 -0.342764 -0.499605 0.154303 0.509523 -0.287714 0.239978 0.3116 0.524437 -0.425757 -0.221494 0.0420047 0.156583 0.428541 -0.273619 0.17454 0.165687 0.440818 0.414129 0.300812 -1.495 0.105507 0.14606 0.291612 0.273324 -0.205689 -1.31804 1.1879 -0.375284 -0.382366 -0.508724 -0.0422891 -0.292023 0.169362 -0.464132 -0.198246 0.473757 0.117812 -0.424038 0.347537 0.749814 -0.103052 -0.16657 -0.128039 -0.240119 0.124479 -0.504027 0.433925 -0.114271 0.472939 0.17067 -0.0703878 -0.0509849 -0.214497 -0.846588 -0.246628 0.06713 -0.213817 -0.415384 0.283284 -0.0509039 -0.0719951 -1.03309 0.402234 -0.407229 -0.5616 -0.947245 -0.624746 0.484305 -0.249277 0.413592 0.150303 0.155074 -0.32784 -0.500077 0.602405 0.329619 -0.423475 0.359233 -0.369219 0.514802 0.047629 0.204 -0.0287316 0.425033 0.434163 0.218707 -0.129796 -0.325835 0.410272 -1.08414 0.1434 -0.201334 -0.489593 0.237022 -0.0593456 0.122578 0.215213 -0.0208563 0.0399509 -0.568167 -0.217265 -1.05792 0.259463 -0.0506861 -0.930092 0.135247 -0.285679 -0.143248 0.00871686 -0.194183 -0.162054 -1.45667 -1.37901 0.369226 0.40519 0.571138 -0.000446101 -0.22052 -0.348406 -0.137336 0.0132052 0.400686 0.250114 0.321276 -0.125257 -0.430826 -0.108808 -0.370848 0.0962579 0.502607 -1.06342 0.412002 -0.333946 0.30939 -0.21032 -0.03968 -0.0874196 0.0492947 0.274233 0.59384 0.493657 -0.44988 -0.56996 -1.49975 0.538647 0.518866 -1.4927 -0.073169 -0.308699 -0.314784 0.327041 0.145275 -0.504679 -0.036803 -0.0305686 -0.0731981 0.109168 0.394983 0.0372223 -0.737899 0.913981 0.179971 -0.507742 0.51661 -0.027091 -0.470754 -0.151926 0.545794 0.476988 -0.459865 0.407828 0.420599 -0.348581 1.2671 0.477104 -0.508398 0.350423 0.525979 0.18188 -0.511058 -0.328603 -0.751876 0.377781 -0.65954 0.293946 -0.551658 0.712395 -0.201798 0.464747 -0.248664 0.0768029 0.172001 0.466956 0.173531 0.13393 -0.0822391 -0.594599 0.594093 -0.129067 0.583102 -0.430819 -0.227279 0.355088 -0.197965 -0.348837 0.188421 -0.127262 -0.53682 0.194066 0.445506 -0.475977 1.17359 -0.332305 0.141169 -0.406316 0.48402 0.19633 0.49654 -0.256796 0.0412857 -1.07196 0.427857 -0.995589 -0.415905 0.0403214 0.404729 0.278477 -0.0514474 0.400507 0.510356 -0.118865 0.600142 -0.362633 -0.348307 -0.722013 -0.150643 0.473887 0.133569 -0.489935 0.380516 0.270085 -0.161157 0.0649139 0.160764 -0.534646 0.176109 0.364808 0.205248 0.00826673 0.51197 -0.303895 0.195664 0.235453 -0.0608393 0.354835 -0.34947 -0.194621 -0.594701 0.15646 -0.376263 -0.239065 -0.532251 -0.420984 -0.306145 -0.320731 -0.0759594 0.331546 -1.18538 -0.548329 -0.372518 0.265532 0.331893 -0.0575723 -0.736446 -0.299733 0.213185 0.490782 0.364291 -0.322843 -0.13585 0.244619 -0.0755952 -0.459923 -0.104196 0.566713 0.423565 0.128453 -0.834046 -0.893591 -0.320118 -0.169018 -0.0889615 -0.218191 0.0590154 0.478331 -0.0125351 0.583736 0.159077 0.143437 0.548229 0.341287 -0.352669 -0.0560752 -0.68464 0.115864 0.209036 1.0967 0.120937 0.126814 -0.498301 0.550698 -0.451649 0.115405 -0.506295 0.305462 -0.0605603 0.553142 -0.235334 0.327912 -0.37407 0.256739 -0.303441 0.350224 -0.593702 0.941819 -0.0418552 0.0227157 0.873327 -0.455815 -0.332929 0.868449 0.450893 0.0611097 -0.805243 -0.736216 -0.359178 -1.57856 -0.475573 0.736615 0.147324 -0.31217 0.247404 0.524111 0.388139 0.660902 0.662705 -0.470105 0.122204 -1.15475 -0.433754 0.292305 0.44301 -0.562432 -0.368765 0.41598 -0.410998 0.428554 -0.412492 0.484093 0.578146 0.0371005 0.201692 0.431826 -0.430579 -1.65852 -1.1965 -0.709895 -1.55563 -0.263403 -0.506242 0.184349 -0.0315632 0.216893 0.109025 -0.261248 -0.109877 -0.605802 0.0477595 -0.498139 -0.0431336 0.158398 1.06127 -0.682452 0.599832 -0.892712 -0.315074 -0.445512 -0.397083 0.053462 -1.24056 -0.40524 -1.09754 0.270953 0.612796 -0.897927 0.27084 -0.395484 0.048649 0.31129 -0.105459 0.0676618 -0.0881032 0.410297 -0.574053 -0.515945 -0.385 0.296749 -0.54454 0.286868 0.948638 0.357005 -0.144575 0.193121 -0.797428 -0.37975 0.490348 -0.366419 0.188818 -0.557041 0.480386 0.0633168 -1.04946 -0.527799 -0.179606 -1.33469 -0.628894 -0.427082 -0.289744 0.502767 0.445626 0.194551 -0.042044 -0.163865 0.0422851 0.340224 -0.109736 0.214277 0.0606142 0.287903 0.00528042 -0.49747 0.0303231 1.06106 -0.492083 0.169683 -0.325142 -0.59115 -0.507857 0.269577 -0.489073 0.573967 -0.216601 -0.925485 -0.551513 0.142515 -0.556213 -0.131628 0.278025 0.0178752 -0.252173 0.116053 -1.04485 0.285894 -0.57314 0.310646 0.00184281 -0.423352 0.0639345 -0.506185 -0.396248 0.530596 -0.0323721 0.18771 0.355091 0.0406581 -0.130244 0.499532 0.278077 -0.0845111 0.179159 0.356507 0.00576733 -0.574004 0.242061 -0.183318 0.164802 -0.492558 0.347996 -0.0698184 0.0373062 -0.4784 -0.498288 0.2923 0.296998 -0.559706 0.0348379 -0.193495 -0.00146159 -1.49836 -0.102976 0.0702812 0.499329 1.11959 -0.222361 0.213604 -0.121342 0.158719 0.676753 0.588779 -0.511652 -0.0224018 -0.0427666 -0.0186011 -0.0675562 -0.265464 0.504482 -0.458204 -0.666236 0.820746 0.109358 0.483205 0.312565 0.151979 0.173018 0.134639 0.0569708 -0.313128 1.29071 0.629897 -1.05298 -0.590204 0.268785 -0.363633 -1.01071 0.356955 1.07332 0.12799 -0.183396 0.319599 0.259192 0.191337 0.550323 -0.447122 -1.48607 0.0463436 -0.228629 1.43374 0.268997 0.118264 0.716243 0.559324 -0.055292 0.313872 0.0471664 -0.647319 -1.0531 -0.496026 -0.249844 -0.554614 -0.602988 0.028409 -0.121616 0.0261589 0.159737 0.275815 -0.138886 -0.0199608 -1.01504 0.393636 -1.42108 0.792103 -0.165788 -0.498434 0.380508 -0.170075 0.0778898 -0.400903 -0.172945 0.561844 0.27218 -0.448997 0.635826 -0.9183 0.382876 -0.0727168 -0.178712 0.226325 -0.00851419 0.150765 0.295427 0.0454192 -1.30743 -1.17729 -0.422943 0.270634 0.282178 -0.0787082 -1.04534 0.522592 -0.262152 -0.79884 0.243847 0.0549721 -0.669774 0.0439726 0.538641 0.320692 0.199726 -0.82194 0.311143 -0.0729731 -0.19818 0.275878 0.179888 0.463861 -0.752704 -0.609776 0.0726087 0.346966 0.162077 -0.150818 -0.121668 0.264089 0.214481 0.242389 -0.0880303 -0.278832 0.541848 0.177277 -0.334003 -0.862822 0.497465 0.500854 0.37332 -0.242235 -0.0139452 0.288465 -0.521566 -1.07713 -0.541322 0.355446 0.380002 -0.147612 0.398428 -0.724234 -0.251206 1.14659 -0.182661 0.476736 0.266913 0.593396 -0.879124 -0.43486 0.203766 0.26394 0.117734 -0.391276 -0.533326 0.0611436 0.3898 -0.875782 0.303431 0.856004 -0.394694 0.141984 -0.530425 0.158854 0.0153482 -0.480816 0.435227 -0.038395 0.500355 0.0968106 1.06571 0.0769013 0.31085 -0.474053 -0.137617 -0.495246 -0.564076 -0.332717 -0.481433 -0.368512 -0.665761 0.732414 -0.539657 0.48477 0.520951 -1.35991 -0.00312604 0.30364 -0.220317 -0.500694 0.0249453 -0.0959816 1.37593 0.411011 -0.505076 -0.115193 0.205806 0.448357 0.351794 0.114742 -0.10928 0.184443 -0.872892 -0.355587 0.328229 0.573697 -0.332978 0.373231 0.548586 -0.247273 -0.452736 -0.363039 -1.58516 -0.422381 -1.22766 0.459307 -1.13665 0.153077 0.141044 -0.00128788 0.556316 -0.333904 0.434395 0.532134 0.322308 0.484121 -0.180782 -0.00523569 0.397197 -1.12604 -0.467032 -0.861035 0.412584 -0.748963 -0.0387157 0.182351 0.550172 0.14852 -0.0632103 0.431443 0.539828 0.0752493 -0.508427 0.481837 0.225794 -0.283855 0.343318 0.404569 0.400967 0.035757 -0.792047 0.336284 0.16775 -0.432563 0.930292 -0.00339458 -0.441503 -0.453602 0.38787 0.646189 -0.427792 0.445334 -0.759908 -0.359254 -1.1465 0.219463 0.383139 -0.481093 -0.214168 -0.211627 1.28453 -0.982566 0.397621 0.534248 -0.389495 0.0540147 -0.374001 0.60359 -0.0917682 -1.53942 -0.106806 0.273851 0.453564 -1.11355 0.512007 0.135511 0.00785661 0.595508 0.333113 -0.522958 0.538909 -0.512222 -0.233953 -0.949849 -0.320272 -0.120547 0.554779 -0.562721 0.0404217 -0.279339 -0.183215 -0.185626 0.0655588 -0.298532 -0.0973651 0.366543 1.0793 0.0719546 0.437929 -0.756382 0.118235 -0.484368 -1.31915 0.0173234 -0.425621 0.468624 -1.33846 0.135503 0.570684 0.467543 0.637651 0.475602 0.421217 -0.855697 -0.322396 -1.42036 0.242941 -0.510262 -1.19073 -0.321179 -0.239444 -0.0783995 0.187669 0.269779 0.242238 -1.19333 -0.203729 0.0297266 0.211022 0.563692 0.430125 -0.18362 0.588571 0.492528 0.400807 -0.40177 0.39184 0.500022 0.271101 0.300061 0.696259 0.249726 0.152461 0.0895097 0.590752 0.332178 0.646898 0.206545 0.374875 0.36051 1.09678 -0.341148 -0.223637 0.380786 0.386267 -0.587364 0.182131 -1.05238 0.0540179 -0.120682 -0.437708 -0.122609 0.224198 -0.425161 -0.723104 0.0465881 -0.356344 -0.46138 -0.124551 0.483038 0.379724 -0.353314 0.138527 -0.0270496 0.289068 0.144562 -0.673566 -0.0412565 -0.200678 -0.450947 -0.488695 -0.325626 -0.704168 0.408912 0.282122 -0.49014 0.0835158 -0.012599 -0.646162 -0.371238 0.454783 -0.0408701 0.0391987 0.100786 0.120599 0.934359 -0.417978 0.159718 0.462847 0.3172 0.0656639 0.323865 0.595962 -0.297898 -0.237044 -0.061293 0.316219 0.0413572 1.24815 -0.456656 0.217097 -0.366248 -0.178856 0.592687 0.359673 -0.496574 -0.556791 -0.204316 0.368846 -0.165911 0.0374262 -0.102295 0.696215 -0.526916 -0.595179 -0.35144 1.07605 -1.07716 0.468026 0.336184 0.184802 -0.0663475 0.315146 -0.0516949 0.0727107 0.317911 0.444601 -0.123956 -0.649338 0.324124 0.0120656 -0.53249 1.33023 0.4158 0.63437 0.28088 0.563674 -0.611652 -0.499111 0.0172286 -0.595938 0.0167298 0.466058 -1.4849 0.0495753 0.595567 -0.229631 -0.118953 -0.484116 -0.452288 -0.396768 0.805493 -0.0570088 0.209626 -0.342826 -0.425954 -0.164995 0.593637 -0.0672149 0.352837 0.291529 -0.547676 0.378669 0.220395 0.399954 0.322087 -0.170704 0.445672 0.258625 -0.0585254 -0.187682 -0.473173 0.598178 -0.298683 -0.446676 0.0806286 -0.878805 -0.121826 0.526408 -0.854565 0.0247369 -0.432994 -0.482699 -1.30678 0.935832 -0.353599 -1.06759 -0.790784 -0.370554 0.202176 -0.482271 0.434063 0.225282 0.414949 0.048191 0.115724 0.449954 0.547282 -0.184476 -0.202907 -0.164451 0.268109 -0.0597757 -0.136156 -0.542449 0.125337 0.529138 -0.369487 -1.14773 0.515262 -0.0689539 0.417539 -0.442688 -0.0493162 0.149812 0.4496 0.134884 0.330815 -0.360319 0.326188 0.209905 -0.299072 0.163049 -0.330074 -0.548135 -0.919487 0.416395 0.167367 -0.37233 -0.736341 -0.580704 0.452413 -1.21535 -0.0325746 0.602006 -0.523583 -1.33481 0.508777 -0.277539 -0.555862 0.513444 0.250694 0.276318 0.538742 -0.352839 -0.137689 1.02919 0.307883 -0.325305 0.557261 0.209744 0.290658 -0.311332 -0.346236 0.525777 -0.287412 0.00455927 0.315258 0.469441 0.143844 -0.377129 0.453587 -0.932157 -0.400785 -0.0324717 -0.893764 -0.290966 0.292891 -1.08728 -0.0392015 0.532557 -1.19658 -0.339885 -0.253846 -0.500286 -0.213473 0.435441 0.491822 -1.5259 -1.4845 0.499248 0.32455 0.337815 -1.43703 0.287379 0.258135 -0.712019 -0.299903 0.300714 -0.949016 0.50066 0.508358 -0.427294 -0.454789 0.369195 0.100849 -0.161799 -0.452679 -0.529417 0.227166 0.397944 0.317806 0.138315 0.363975 -0.395968 0.155457 -1.38707 0.543432 0.0864664 -1.24961 -0.572982 0.0388211 0.235059 0.323486 -0.0632619 -0.0546379 0.302543 0.348188 0.250178 
-0.389444 -0.552225 0.175797 0.406619 -0.307061 0.259746 0.125473 0.190144 -0.496476 0.298343 0.237433 0.216828 -0.212735 -0.0691979 -0.144297 -0.350671 0.107947 0.506257 -0.423096 0.058917 0.0577174 -0.255693 0.100775 -0.469338 -0.594345 -0.110805 0.021221 0.0551338 0.662279 -0.165116 -0.220983 -0.405348 -0.150396 0.412296 0.487748 0.00144969 0.1956 0.108865 -0.427812 0.381293 -0.207331 0.428868 -0.069498 0.178712 -0.25528 0.25288 0.361901 0.55942 0.228525 0.613371 -0.00453469 -0.220817 -0.19908 -0.415473 -0.207118 -0.171347 0.0316621 0.309453 0.45045 0.0165499 -0.45115 -0.292002 0.111964 0.053747 -0.420316 0.0498672 -0.549648 0.346446 -0.430817 -0.359756 0.105484 -0.055542 -0.519268 -0.505069 -0.416572 -0.10606 0.292666 0.466263 -0.199483 -0.048679 0.415844 0.327238 0.274236 -0.302063 0.51687 -0.482918 -0.0846329 -0.0139887 0.375189 -0.0845268 0.592769 -0.539659 0.0849651 0.0831465 0.0607124 0.253875 -0.402333 0.100661 0.00567973 -0.175046 0.25777 -0.504574 0.253682 0.371579 -0.48494 0.393427 -0.34321 0.42147 0.231565 -0.0688472 -0.0436738 0.0320961 -0.238974 -0.407072 0.170432 -0.381561 -0.276955 -0.402302 0.032921 -0.372777 0.0607604 -0.0322311 -0.379146 -0.358504 -0.270172 0.260695 0.460969 -0.259263 -0.191675 -0.0958215 0.0833634 -0.603886 0.031669 -0.305156 0.319711 0.195723 -0.535426 -0.456739 0.0777992 0.374412 0.0189775 0.620744 -0.175126 0.349989 -0.446186 0.476141 0.539259 -0.0676914 -0.379892 0.182587 0.0604743 0.250514 -0.420636 0.238714 0.426269 -0.114321 -0.0360751 0.253116 0.168761 0.261392 -0.388739 -0.269703 0.259917 0.173989 0.0784081 0.0867423 -0.114442 0.0219259 0.0582061 0.400972 -0.0531629 -0.444903 0.400385 0.250996 0.427067 -0.603686 0.208203 0.350323 0.0187617 0.477444 -0.0127982 -0.546151 0.0574599 0.186946 0.327428 -0.0746268 -0.494167 -0.299217 -0.417351 0.319133 0.528134 -0.13739 0.556862 0.250115 0.499844 0.00920706 -0.255125 -0.128911 -0.43329 0.436708 -0.218652 -0.00268683 0.531456 -0.440279 -0.289549 0.289718 -0.512072 0.542064 0.0960642 0.0604752 0.299277 -0.526802 0.112737 -0.168126 0.34935 -0.163548 0.265409 0.349375 0.10221 0.433129 -0.00619144 0.0134255 -0.277036 0.112731 -0.378358 -0.285514 -0.504697 -0.0164684 0.0729599 -0.407803 -0.121068 0.293323 0.116937 -0.299827 0.393587 0.356198 0.450591 0.566236 0.388201 0.0611619 0.0330053 0.0807413 0.16917 -0.460303 0.497247 -0.0682805 -0.0393648 0.180264 -0.262916 -0.499113 0.160652 0.354784 0.0546338 0.406074 -0.104905 0.271498 -0.336642 -0.127436 -0.214027 0.232714 0.125474 0.0766595 -0.00621074 -0.39684 0.320175 -0.144076 -0.554991 0.21533 -0.185527 0.357645 -0.229382 0.36191 -0.0837509 0.519153 0.489272 -0.231892 -0.118753 -0.0898257 -0.535274 0.150338 0.0765888 0.152197 -0.00682113 -0.468448 0.0417135 0.42757 0.381816 0.205865 -0.169566 -0.440914 -0.0906896 0.406957 0.162614 0.484385 -0.345677 -0.0108961 -0.208941 -0.451339 -0.37884 0.0698956 -0.548551 -0.0379375 -0.0084949 -0.0344511 -0.127493 -0.0682223 0.264281 0.260149 0.51868 0.313167 -0.112915 -0.034758 -0.0739076 0.399816 -0.08507 0.481556 0.336645 -0.262173 0.195042 -0.43001 -0.079659 -0.493869 -0.594724 -0.50299 0.505896 -0.502856 0.0387271 -0.395948 -0.285401 0.206397 0.29917 -0.236391 -0.400038 -0.372543 0.219086 0.0106094 0.087877 -0.0413512 -0.263975 0.00595704 -0.264842 0.157556 0.392149 0.225291 0.0444812 -0.112604 0.1646 -0.111817 0.243173 -0.125305 0.0285511 -0.320239 -0.12227 0.0414725 -0.220514 -0.318793 0.189308 0.349352 -0.0218412 0.448169 0.0526712 -0.330734 -0.27064 0.174454 -0.130636 0.433284 -0.302775 0.51358 -0.101353 -0.097463 -0.0709621 0.0385044 -0.47327 -0.341657 -0.197838 0.179251 0.217189 0.448652 -0.484638 -0.0580915 -0.258426 0.0665011 0.125991 0.106109 -0.518604 0.536116 0.53957 0.276517 0.343136 -0.16326 0.236371 -0.139609 0.0834334 0.482221 -0.614249 0.447485 0.454154 -0.247778 0.471372 -0.233106 0.127713 -0.187475 0.501743 0.27035 0.157814 -0.339293 -0.11836 -0.0890648 -0.380695 -0.0811888 0.324591 -0.0994864 0.553776 -0.0152182 -0.594689 -0.437063 -0.0407081 0.435141 0.479532 -0.326623 -0.230839 0.0749192 0.18906 0.389077 0.0344287 0.229104 0.335626 -0.0766168 0.410205 0.242929 0.2617 0.069432 -0.435961 0.251866 -0.326993 0.203082 0.41449 0.175084 -0.586059 -0.45176 -0.465771 0.407357 0.00242917 -0.54936 -0.160376 0.00917413 -0.51637 0.299026 -0.0619738 0.459731 -0.46461 0.24979 0.057953 0.250876 0.137829 -0.406316 -0.146088 0.00519869 0.0611407 -0.171043 -0.28047 -0.185213 0.386713 -0.277808 0.556175 -0.407178 0.578077 0.524546 0.252259 -0.471318 0.567997 0.301017 0.415197 -0.0070645 0.431793 -0.234755 0.503123 0.442979 -0.566558 -0.0842005 0.406805 -0.359454 -0.354962 -0.0730716 0.426687 0.300326 0.0232743 -0.235784 -0.204382 -0.442678 0.169724 0.0124074 -0.116168 0.0777847 0.302001 -0.113266 0.18588 0.323602 -0.210397 -0.128216 0.443528 -0.249336 -0.241519 0.277307 0.234859 -0.495683 -0.47987 0.254919 0.494514 -0.325557 -0.46888 0.484927 -0.240419 -0.204861 -0.221217 -0.3327 -0.422282 0.430238 0.0824425 -0.12873 0.390342 -0.267986 0.526576 -0.289057 0.254277 0.220067 0.224655 -0.0742226 0.02307 0.554841 0.296073 -0.169834 -0.334265 0.48988 -0.413901 0.507816 -0.500357 -0.360922 0.159265 -0.565857 -0.24067 0.293648 0.449613 0.0574264 -0.462424 -0.316019 0.341759 -0.365977 0.619357 -0.208177 -0.0274629 0.438989 0.0233739 -0.0556794 -0.338703 -0.281043 -0.370598 0.366151 0.180097 0.119217 0.287862 -0.0413216 0.453472 0.498302 -0.0457278 -0.413954 0.519706 -0.0195923 -0.356853 0.171343 0.0196439 -0.0277942 -0.107132 -0.147927 -0.601069 -0.104819 0.0292267 0.319707 0.191486 0.0253649 -0.462039 -0.273662 -0.0521214 0.187926 0.203097 0.109522 0.406591 0.36117 -0.162036 0.072806 -0.0187208 -0.387081 -0.399704 -0.0648078 -0.433128 -0.0110472 -0.0541733 -0.397956 0.607512 0.121487 0.263491 -0.0757972 -0.506903 -0.453837 0.359079 -0.444408 0.139273 -0.154364 0.446012 -0.294069 0.363799 0.639273 -0.00119212 -0.261799 0.17688 -0.477525 0.328359 0.0214707 0.521959 -0.274308 -0.43771 -0.117295 -0.0942989 -0.449163 0.293292 0.0759535 0.0952702 -0.418024 0.182055 0.0581683 0.273423 -0.0941884 -0.529398 0.430196 0.0293931 0.355226 0.519445 -0.381779 -0.359926 0.403511 -0.119779 -0.569653 0.47741 0.36194 -0.156898 -0.03716 -0.557357 -0.466174 0.643939 0.495846 -0.0891245 -0.411607 -0.141275 0.29902 -0.409341 -0.480211 -0.155437 0.307119 -0.239464 -0.598191 -0.134229 -0.558924 -0.033687 -0.133437 0.424528 0.479206 -0.369008 0.386755 -0.432664 -0.143414 0.238499 -0.148462 -0.149294 0.0839554 -0.195929 0.189904 -0.552571 -0.105984 0.37519 -0.561718 -0.313561 -0.373703 -0.371398 0.278517 0.436512 -0.10655 0.323273 -0.223156 -0.451445 -0.421455 -0.193467 -0.0444701 -0.315374 0.279573 0.371221 -0.599445 0.312478 -0.450663 0.438901 0.337931 -0.0434184 0.183964 -0.22567 0.310739 -0.26927 0.11561 -0.00663776 -0.343671 0.492895 -0.216919 -0.149132 -0.296716 -0.0365754 0.015165 -0.503242 -0.0903609 0.375696 0.379543 0.175915 -0.584675 0.500004 0.487371 0.0286119 -0.510664 0.342838 -0.0556501 -0.433391 -0.027245 -0.0640585 -0.571404 -0.289478 0.385181 0.241704 0.0740807 0.194555 0.425144 -0.338655 -0.402535 -0.31827 -0.424328 -0.0787125 0.116173 -0.0397725 0.374059 -0.432852 -0.0586115 -0.238961 0.504084 -0.242833 0.468899 0.500471 -0.280617 0.575571 0.0183152 -0.274937 0.261443 0.4915 -0.0757394 -0.419677 -0.180768 -0.0245828 -0.0391786 -0.183764 -0.358219 -0.540129 0.550905 -0.41245 -0.287481 -0.502954 -0.215368 -0.121761 -0.150045 0.432627 0.370845 -0.121943 -0.488615 -0.193773 0.18688 -0.550563 0.104758 0.113876 -0.581703 0.368749 -0.0878213 0.0387485 -0.492178 -0.25801 -0.0318948 -0.08228 -0.0181409 0.398638 -0.636935 0.43121 -0.422861 -0.330112 0.428328 -0.516366 -0.199602 -0.334029 -0.34254 0.0985149 0.0178012 0.146804 0.0260492 -0.135942 0.451405 0.0806461 0.191269 0.159883 0.0662168 -0.228612 -0.267197 0.106659 -0.533584 0.246186 -0.430773 -0.343246 -0.508743 0.0491378 0.292419 -0.0833332 -0.113783 0.321836 -0.296912 -0.0143497 0.428114 -0.386598 0.0183665 -0.409479 -0.12603 0.114417 0.323482 0.406276 -0.380389 -0.174546 -0.256726 -0.376623 0.407536 0.402927 0.302618 -0.0638508 -0.428703 0.533543 -0.588573 -0.295538 0.259693 -0.520945 -0.0170963 0.262446 0.221405 -0.252087 -0.309563 -0.421763 -0.452404 0.061684 0.115662 0.464473 0.235233 -0.506428 -0.437243 -0.337384 0.148062 0.500787 0.590394 0.337865 -0.182928 -0.317997 0.485664 -0.281685 -0.430989 0.261256 0.191367 -0.219536 0.191747 0.226771 0.0630624 -0.0874952 0.367913 -0.479862 -0.32799 0.0604466 -0.154336 -0.100371 0.208533 -0.173602 0.458358 -0.327076 -0.194663 0.145442 -0.204147 -0.000795511 0.244751 0.460167 0.0222798 0.246166 0.368588 0.417159 0.564329 0.23887 -0.504238 -0.50864 -0.14271 0.27781 -0.112588 -0.409784 -0.12181 0.440839 0.0612576 -0.174928 -0.523544 0.293063 0.476522 -0.200104 -0.264553 0.0529061 0.175666 -0.450537 0.297198 0.557287 0.227647 -0.448547 -0.000813924 0.0218593 -0.454468 0.517436 -0.444323 0.2863 0.307142 -0.347501 0.00537332 0.32916 -0.382064 0.628865 0.0705872 0.133306 -0.428486 0.481422 0.052366 0.265381 -0.175166 0.0873703 0.0862181 -0.305236 0.408445 0.249951 0.364111 0.0782495 0.306059 0.0434039 0.0757946 0.0413841 0.114203 -0.452629 -0.571884 0.174077 -0.486217 -0.328731 -0.1216 0.327699 -0.197805 0.427613 0.149275 0.164681 0.420746 -0.328186 -0.261523 -0.52005 -0.440976 0.426173 0.29792 -0.068043 -0.158663 -0.172622 0.275311 -0.163845 -0.412249 -0.0326784 0.416039 0.371361 -0.504253 0.0505827 -0.082557 0.13556 0.00383558 -0.0805558 -0.236404 0.0848232 0.179025 0.158055 -0.0528114 -0.491823 0.0674182 -0.517353 0.186125 -0.00222536 -0.365106 0.466291 0.0507256 -0.13391 0.390301 -0.192809 0.399898 -0.223921 0.18067 0.107082 0.117716 0.236781 -0.541969 0.064777 0.0791432 -0.503248 -0.486514 0.478054 0.241333 0.0479778 -0.1189 0.488941 -0.512657 -0.582763 0.217652 0.0374688 -0.425589 -0.28289 0.109038 0.280556 0.248552 0.363393 0.278558 -0.16646 -0.261379 0.0828926 0.133974 -0.416578 0.401822 -0.207239 0.259909 -0.133752 -0.492017 0.337444 -0.477453 0.103249 0.447704 -0.533083 0.0962724 0.197167 0.140837 -0.542385 0.189053 0.200701 -0.590133 -0.111628 -0.204606 -0.512821 0.0880671 0.347433 0.411407 -0.175604 0.181485 0.150118 0.139614 0.440616 -0.291648 -0.245733 -0.475903 -0.452225 0.0376459 0.410012 0.0819673 0.111348 0.161605 0.0911171 -0.346989 0.0720809 0.174776 0.355291 -0.261409 -0.302924 0.370665 0.41205 0.535264 0.450775 -0.264477 -0.37137 -0.520118 0.385292 0.471905 0.424919 -0.424774 0.171467 0.0126204 0.35135 0.0314908 0.409257 -0.489703 0.137039 0.421376 0.18484 -0.119011 -0.00663969 -0.190169 -0.523147 -0.473863 0.0111114 0.099454 0.226985 -0.130783 0.335078 0.404377 -0.410781 0.227457 0.322178 0.478481 0.45548 0.456579 0.490391 0.329422 0.451595 0.532222 0.455273 0.0493583 -0.00509757 0.287279 -0.457904 -0.150839 0.338179 0.164583 -0.317971 0.071152 -0.567612 0.259405 0.340003 -0.400906 0.425545 -0.216825 0.182329 0.132485 0.124221 0.0362283 0.0227923 0.243451 -0.386462 -0.225841 0.250635 -0.355014 -0.303816 0.24674 0.512511 -0.388834 0.120303 0.393589 0.235531 -0.447134 0.181474 0.333578 -0.126023 0.0472395 -0.029796 0.131052 -0.535923 0.024268 -0.117047 0.325782 0.0942274 -0.30413 -0.387396 -0.271894 0.351204 0.264307 0.21635 -0.210339 0.0132169 0.430935 0.186396 -0.397471 -0.486966 0.394489 0.45946 0.58606 -0.507051 -0.053201 0.384866 0.345377 0.159672 0.0182015 0.0782916 -0.548228 -0.517271 -0.520071 0.175328 -0.546214 0.136499 -0.465146 0.362012 -0.423949 -0.268081 0.486181 -0.103889 -0.392315 0.270678 -0.41926 0.0396745 -0.268107 -0.476105 -0.372482 0.0008706 -0.40459 -0.456049 -0.0968257 -0.47045 -0.504095 0.440982 0.494583 0.488514 0.0754714 0.0340253 -0.0466715 0.122254 0.00168083 0.00642404 -0.270625 0.106899 -0.483613 -0.167872 -0.0766387 -0.241945 0.131698 -0.0583405 0.177772 0.330351 -0.305333 0.410847 -0.247214 -0.0170179 0.445468 -0.0830353 0.488042 0.539272 -0.0515701 -0.0838161 -0.56554 -0.0483726 -0.130854 -0.639107 -0.102757 0.50277 0.0670924 0.362848 -0.00158418 -0.411122 -0.106091 0.285653 0.259258 -0.101446 -0.499676 -0.487998 0.210509 0.0971837 0.125293 -0.179619 -0.132689 0.303874 -0.357737 0.254482 -0.279862 -0.505402 -0.384807 -0.284757 0.487837 0.0362011 0.187729 -0.660554 -0.530996 -0.569468 -0.624322 0.000942668 0.456938 0.115307 -0.187624 -0.0628519 0.205912 0.211541 -0.424738 -0.191047 -0.395126 -0.37968 0.00985608 0.366836 0.362978 -0.508826 -0.251596 -0.433906 0.38396 -0.0747462 0.363256 -0.407283 -0.170439 0.489302 -0.215346 -0.0756455 0.107234 -0.545884 -0.072429 0.133255 -0.437505 -0.00853988 -0.427109 -0.507997 -0.508395 -0.0467392 -0.0849155 0.264326 -0.37881 0.162551 -0.436468 -0.190957 0.371048 0.162389 -0.387532 0.00689812 0.169915 -0.113836 0.223024 0.0684478 0.39331 0.0439611 0.266499 -0.232284 -0.0835875 -0.391002 0.222087 -0.586255 -0.369833 -0.343524 0.186626 -0.186009 0.149604 0.33723 -0.185308 0.214013 -0.252175 0.367745 -0.0172594 -0.0615113 -0.0667105 0.166362 0.27087 -0.368264 -0.269863 0.55362 0.219965 0.491635 -0.156184 -0.0943288 0.100115 -0.336391 0.458934 -0.136822 -0.029205 -0.114665 -0.0200897 -0.340836 -0.0132782 0.186964 -0.154387 -0.325451 0.473849 0.474939 -0.604555 -0.189744 0.206463 -0.202783 -0.407945 -0.369304 0.280537 0.0819489 0.310191 0.0633487 0.273815 -0.45176 -0.0198439 0.000147028 -0.489902 0.268316 0.467331 0.15322 0.468007 0.419928 0.510945 -0.0686926 -0.182167 -0.0788902 0.137946 0.38152 -0.405257 0.471832 -0.487606 -0.441037 0.447193 -0.396797 -0.0911622 0.137081 -0.0873167 0.0532373 0.35665 -0.490059 -0.413578 0.134422 0.225427 0.548458 0.237167 -0.418626 -0.105182 0.277125 0.492227 -0.13263 -0.090838 0.393385 -0.389456 -0.134181 -0.219287 0.0049355 0.371233 0.423655 -0.191917 0.546427 0.406914 -0.0342222 -0.463734 0.342168 0.0200288 -0.0433105 -0.068355 0.443953 0.650932 -0.18186 -0.522792 -0.450377 0.454845 0.290516 -0.572709 0.125525 0.508053 -0.0435358 -0.17624 0.35309 0.324151 0.299562 0.217616 0.43158 -0.50659 0.506994 -0.084014 0.650682 0.464793 0.26645 0.507294 0.29135 -0.367053 0.545213 0.065463 0.134517 -0.209786 0.501164 0.119686 -0.0982425 -0.242514 0.239399 0.0359031 -0.410025 0.0164808 0.1055 0.243262 -0.121558 -0.574821 -0.382464 -0.449338 0.404841 0.337729 0.389368 0.300503 0.474184 0.385939 -0.381215 0.463418 0.286518 0.453905 0.408249 0.0578879 -0.52862 0.424281 -0.539109 0.268494 -0.251055 -0.534109 -0.102027 0.150562 -0.247389 -0.517957 -0.414709 -0.0704153 0.164158 0.330596 -0.40762 -0.613863 0.378893 -0.286422 -0.362217 0.15368 -0.482432 -0.48926 -0.111323 -0.443748 0.505574 0.0424661 -0.568055 0.175015 -0.02997 0.430915 -0.321174 0.0433753 0.340489 -0.359843 -0.168413 -0.482881 -0.250282 0.255399 0.232804 0.0408739 0.390534 0.509294 0.533814 -0.0365778 0.241786 -0.392757 -0.013566 0.0641267 -0.236781 0.255079 -0.295672 -0.0398021 0.316597 0.103713 0.00287462 0.265395 -0.457108 0.0377692 -0.0517027 0.174749 -0.0235409 0.195123 -0.403979 -0.260995 0.498007 0.0377659 -0.160266 -0.358768 -0.206918 -0.531327 0.157781 -0.448902 -0.507851 0.0910939 0.0701392 0.250089 0.202141 -0.475344 -0.27294 -0.447115 0.355182 0.0409502 -0.0253792 0.0719724 -0.382214 0.516884 -0.144358 -0.159804 0.0269618 0.314441 0.473543 0.610677 -0.0552305 -0.406541 -0.238143 -0.199048 0.117485 0.105838 -0.0593576 0.380953 0.150275 -0.500146 0.530427 0.213221 0.172174 0.0617844 -0.184844 -0.134083 0.0954529 0.290033 -0.100649 -0.174161 -0.224353 0.552051 0.502203 -0.0476723 0.381869 -0.249826 0.245418 -0.0928887 -0.459939 0.177783 -0.121426 -0.0683882 0.293783 0.163131 0.408825 -0.0956365 -0.242553 -0.161286 -0.245855 0.470621 -0.133738 -0.452813 0.18202 -0.603431 0.260788 -0.49972 -0.0936725 -0.209748 0.418838 0.355141 0.160364 -0.30301 0.339138 0.0994008 0.130084 0.158425 0.33586 -0.0848329 -0.577413 0.397317 -0.521883 -0.0420395 -0.147864 0.375127 -0.410592 -0.215584 -0.233036 -0.119561 0.103105 0.0931041 -0.155307 0.437061 0.284279 -0.528242 0.477219 -0.0155544 -0.402057 -0.109439 0.299063 -0.570756 -0.263113 -0.0942825 -0.272178 0.6089 0.497633 0.411705 0.142223 0.367812 -0.130378 0.176133 0.211969 -0.152853 -0.35074 -0.507182 -0.253114 -0.243664 -0.109494 0.0225153 0.180753 0.585585 -0.565329 -0.471768 0.437592 0.315326 -0.524852 0.330584 -0.218819 -0.395863 -0.458403 -0.530664 -0.321115 -0.00970728 -0.145432 -0.00793228 -0.0585272 -0.0545747 -0.149772 -0.373892 -0.313501 0.173917 0.298705 0.440043 -0.594133 0.455119 -0.494958 -0.151719 -0.276221 -0.0487525 0.323055 0.40834 -0.128484 0.411906 0.431973 -0.281344 0.217519 0.599605 -0.483633 0.542356 -0.45495 -0.22308 0.502542 -0.264356 0.24858 -0.0109702 0.293965 -0.472528 0.41815 -0.326051 -0.197066 -0.274017 0.292156 -0.458029 -0.495022 0.343378 -0.639182 -0.303141 -0.483295 -0.369571 0.133816 0.387682 -0.390637 -0.510095 0.308317 -0.412981 -0.341854 -0.058756 -0.469724 -0.153341 -0.0568031 -0.281796 0.147728 -0.0701373 0.130003 -0.0884322 0.37261 -0.116181 0.0881928 0.309972 -0.0325225 0.368318 0.4605 -0.30491 0.332706 -0.41673 -0.507892 0.422844 -0.298179 -0.415052 -0.405083 0.462091 0.523119 -0.231195 0.452303 0.317343 -0.104488 -0.379523 -0.410777 -0.0145517 0.0162264 0.0909491 0.211947 -0.342962 0.472704 -0.287736 0.0207114 0.330626 0.149864 -0.505155 0.138967 -0.402766 0.352086 0.00505305 -0.188251 0.173246 0.068048 -0.193308 0.0349008 0.274969 -0.0423141 0.108631 0.143603 -0.0967823 0.509663 -0.00185217 -0.30422 -0.197095 0.162306 -0.151546 0.312263 -0.304219 0.508765 0.0244078 -0.182468 0.494601 0.399081 0.366351 0.289874 -0.0361705 0.479604 -0.158473 0.105989 0.321373 0.39348 0.41365 -0.0798153 -0.0825886 -0.245093 0.611907 -0.299633 0.263 0.0972888 0.334213 -0.259608 0.067927 -0.156336 -0.111951 0.336759 0.576871 0.29422 0.164686 -0.384803 0.364353 -0.338988 -0.00751442 0.222684 0.595324 -0.270718 0.0540032 -0.0450123 -0.258508 0.383991 0.575992 0.50343 0.235157 0.447271 -0.0254849 -0.38322 -0.419791 -0.0807204 -0.125922 0.412402 0.648524 -0.277352 -0.360676 0.0485687 0.135745 -0.0425881 -0.108783 0.0736779 -0.31959 -0.534509 0.253821 -0.636888 -0.371894 -0.241377 0.259943 -0.414077 0.0483606 -0.255066 0.0517627 0.36239 -0.467043 0.0616585 0.286226 0.345218 -0.081687 -0.301713 -0.569119 0.141428 0.121615 -0.0951328 0.0339504 0.104057 0.111437 0.107953 -0.472331 -0.254585 -0.506968 -0.0560855 0.264095 -0.231028 -0.0323514 -0.00581187 -0.173644 0.134223 0.0861268 -0.50882 0.289725 -0.370696 -0.233412 -0.204918 0.499864 -0.217011 0.453868 0.278693 -0.381365 -0.283674 0.467138 -0.264746 0.397718 0.0803067 0.116595 -0.113466 -0.401651 -0.244025 0.56707 -0.267382 -0.0277985 -0.588053 0.187517 -0.235438 -0.250557 -0.419301 0.25157 0.0768819 0.298434 -0.0677713 0.0408796 0.0188393 0.152599 0.528041 0.348318 0.157716 -0.161944 0.232772 -0.0744298 0.0499727 0.469186 -0.109757 0.368061 0.360197 0.440462 -0.0443227 -0.261639 -0.53733 0.302968 -0.292976 -0.199724 -0.351566 -0.287657 0.562597 -0.114894 0.00692428 -0.397868 -0.259842 -0.541361 0.473661 0.190007 0.187916 -0.0534926 -0.139034 0.206174 -0.270417 0.500883 -0.563263 0.516995 -0.101265 0.0809346 0.370856 0.346872 -0.105299 0.216753 0.223554 0.404674 0.44879 0.305604 0.0676145 -0.328555 -0.425313 0.349421 -0.120323 -0.549325 -0.168203 0.421603 -0.404295 0.0802727 0.578103 -0.555175 -0.28302 0.286612 -0.162287 0.112975 -0.114226 0.196411 0.10093 -0.0375086 0.127719 -0.648098 -0.631077 -0.0240768 0.339241 -0.115838 -0.511794 0.0106374 -0.258777 -0.494109 -0.19295 0.409624 -0.331795 -0.0479618 0.224575 0.171757 -0.0220907 0.54765 0.0786993 0.168844 0.0906144 0.0609096 0.286414 0.417758 -0.180572 -0.320391 -0.00312752 0.19585 0.377755 -0.587454 -0.370178 -0.0619608 -0.588572 -0.368087 0.397193 0.380135 0.0431483 -0.56705 -0.142222 0.356993 -0.408097 0.179615 
