-0.020121 -0.0178411 -0.00680301 0.0220531 0.0114327 0.0635327 0.0420935 -0.0238883 -0.00507395 -0.161268 0.0122859 0.0269762 -0.0659665 0.0227859 -0.0263484 0.0186182 -0.0589743 -0.00731669 0.053731 0.0880252 0.0863456 0.0223197 0.0269706 -0.0257199 0.0682922 -0.0472803 0.0248651 0.0171887 -0.0269735 -0.0228639 -0.0197647 0.00867666 0.0169135 0.00582281 0.00275944 -0.0614469 -0.00568951 0.000908309 0.0109193 -0.0110377 0.000501473 -0.0202084 0.0187232 0.00923582 -0.0664278 0.0218093 0.0374026 -0.0146769 -0.0182731 0.0343626 0.0258009 -0.0943153 0.0281382 0.0217234 -0.0455229 0.0248772 0.024871 -0.0871638 0.0162805 0.0299278 0.0131949 -0.0424141 -0.0212942 -0.072459 
0.00795746 -0.00503567 0.0155439 -0.0289722 0.0138655 0.0122534 0.0481348 -0.0152364 0.00196041 0.152295 0.0297726 0.00518823 -0.0227269 -0.00492014 -0.0493514 0.0309859 -0.025864 0.0265458 -0.000883645 0.028641 0.0559465 0.0010949 -0.0222931 0.0132265 0.0371384 -0.0322407 0.012301 0.0106998 -0.0395565 0.0377967 -0.0202085 0.0270149 -0.0237771 0.022671 0.0308454 0.156577 -0.0141543 -0.0355106 -0.0337343 0.0295952 -0.0272532 -0.0258766 -0.00301156 0.0996823 -0.013626 0.000242174 0.0475289 0.0324345 0.0346994 0.0276006 -0.0205483 -0.049911 -0.0143379 -0.0118788 0.025729 -0.0284152 -0.00958902 -0.0205587 -0.00378065 -0.0135212 -0.00437738 0.00812615 -0.0346965 0.087703 
0.00724725 0.0253745 0.00308518 0.0246304 -0.0161638 0.0101889 0.0223294 -0.00323247 0.0177235 -0.201794 -0.0110846 -0.0119638 -0.0592908 -0.0210191 -0.0139705 -0.0297815 -0.0359756 -0.00555085 -0.0164251 0.00571764 0.0279575 -0.0216628 -0.0315178 -0.0221925 0.0282769 -0.00279824 0.00148425 -0.0297771 -0.0257904 0.0308857 0.0248187 0.0173201 -0.0167589 -0.00632111 0.0100891 -0.0518925 -0.025472 -0.0180923 0.0301458 0.0232781 0.0114772 -0.0158791 -0.0183188 0.00438898 0.00362362 0.0120254 -0.019721 0.0209338 0.02676 0.00267221 0.0293074 0.0227737 0.00494225 0.0291993 0.0134957 -0.0194505 -0.000948753 0.00183643 0.00916902 0.0155655 0.0103947 0.00532984 0.00415675 -0.0284613 
0.0280928 -0.0247976 0.000670064 -0.0285913 0.0179412 0.0310759 0.0613123 -0.0057563 0.0175214 -0.127271 0.0156165 -0.0186722 -0.0712389 -0.0319525 0.0164452 -0.00191604 -0.0229816 0.0174911 0.0140548 0.0391403 0.0667747 0.026689 0.00201068 -0.013037 0.0543414 -0.0325244 -0.0292781 -0.0346963 0.00999013 -0.020701 -0.0180154 0.0295687 0.0270233 0.0163294 0.0343962 -0.0372956 -0.0121271 -0.00269188 -0.0162581 -0.0576924 0.0178727 0.0211313 -0.0111922 0.012666 -0.00577153 -0.0343453 0.0492615 -0.0195859 0.0305849 0.0354355 0.00335292 -0.0370018 0.0249299 -0.0257097 -0.0493034 -0.0355919 -0.0135757 -0.0733258 -0.0149787 -0.0274635 0.0153947 -0.00914182 0.0116779 -0.0145167 
-0.014479 -0.105424 -0.0427218 0.00457063 -0.0262289 0.0568215 0.0279032 0.0193803 -0.0109093 0.147809 -0.0136804 -0.0235719 -0.310459 -0.03916 -0.0175061 -0.0274616 -0.0273044 -0.0224779 0.0844091 0.0702656 0.0190179 0.0358116 -0.0269149 0.00398995 0.0631068 -0.0318116 0.00620636 -0.0497855 0.00196921 -0.223416 -0.0290333 0.0231981 0.0132567 -0.015105 0.0646629 0.105696 0.0198614 -0.0687365 0.0162068 -0.065799 -0.0120965 0.024294 -0.00982104 0.17682 -0.118742 -0.0754877 0.065177 -0.13118 0.0361963 -0.00666551 -0.0247658 -0.173426 -0.0274423 -0.0203207 -0.0159571 -0.0328628 0.00761516 -0.147465 -0.0109737 0.00539814 0.0320045 -0.0344183 0.00796642 0.16365 
0.0150019 0.0156708 -0.00783073 0.00363769 0.021293 0.0321933 0.0347954 -0.0181602 -0.0328846 -0.013824 0.0150631 -0.030029 0.107317 -0.0176406 -0.0328934 -0.0291758 0.00581635 -0.0138714 0.0609827 0.0613434 0.039317 -0.0398697 0.00810158 -0.02051 0.068379 -0.0328787 0.0163508 -0.00405742 -0.0126364 0.0341507 -0.0260298 0.0245423 0.0257481 -0.00457053 0.0650267 0.130866 0.00120313 -0.0176219 0.0240402 0.0242251 -0.0214276 0.0128588 0.00460994 -0.0765769 -0.0209703 0.031195 0.0680276 0.0271948 -0.0592173 0.0151238 -0.00703414 0.0206491 -0.0220854 -0.0305295 0.00798276 0.00886821 -0.0300269 0.016701 -0.0242667 -0.0121501 -0.0131068 -0.00145835 0.000906978 0.120067 
0.0233042 -0.00901391 0.0135939 -0.00625548 0.00938876 0.0613428 0.0626818 -0.0267139 -0.00599995 0.0292809 0.00329539 -0.00545771 0.0261609 0.0274215 -0.0363525 -0.0130335 -0.00747873 -0.00171229 0.0791685 0.0821334 0.051616 0.00212471 0.00445598 0.00149728 0.0497622 0.025724 0.0295346 -0.0320993 -0.0165813 0.00915115 -0.0222375 0.0197014 0.017061 0.020059 0.0496382 0.078056 0.0040664 -0.0219943 -0.00293271 0.035288 -0.03764 -0.030365 -0.00436206 -0.0307417 0.00173685 0.00205811 0.0634193 0.0169488 0.0247931 -8.37251e-05 0.00161716 -0.0511784 -0.0217589 -0.0254573 -0.032385 -0.0339243 -0.0290135 -0.0767052 -0.00916656 -0.0116657 0.00834963 1.07131e-05 0.00322282 0.0673348 
-0.000909427 -0.0311097 0.0138015 -0.0278899 0.0164138 0.0254591 0.0101725 0.0187893 -0.00884942 -0.0877286 -0.0186696 -0.0124747 -0.0340543 0.0157004 -0.0273868 0.0305736 -0.0415856 0.00443264 0.0444238 0.0572588 0.0680486 0.00479976 0.00597394 0.0158102 0.0805221 -0.0386115 -0.022301 -0.030843 0.0128378 -0.0116618 -0.00183308 0.00431052 0.0283406 -0.0166509 0.0107154 -0.0259494 0.00566622 -0.0161379 0.0102791 -0.00187479 0.0207121 0.0107321 -0.0139389 0.0352078 -0.0321825 -0.0227668 0.0509653 -0.00111045 0.0285577 -0.00823452 -0.0305045 -0.0437098 0.0202663 0.00687873 -0.0267147 -0.0140729 0.0137206 -0.0444236 0.000691343 0.000253207 -0.00703105 0.0215626 0.0092941 -0.0389851 
-0.0165611 0.044359 0.0275327 0.02037 -0.0151107 0.0091992 0.0205595 -0.0283117 -0.0206542 -0.00508529 0.0220025 0.00682221 -0.00943639 0.00812008 -0.0152135 -0.0135597 0.0332459 -0.0114113 0.0366765 0.0222937 0.035014 -0.0171021 -0.0248488 0.0108441 0.0256488 0.0137846 -0.0210874 -0.0399095 -0.00137957 0.053537 -0.0171396 0.0287074 0.0175938 -0.0217464 0.0175684 0.0138693 0.00939162 -0.0249985 -0.024568 0.0444343 -0.0042079 0.0273292 -0.00282922 0.0126567 0.0223101 0.0305658 -0.0109576 0.0150976 -0.0287857 -0.0317583 -0.0179617 0.00203476 -0.0181255 -0.0117566 0.0236809 -0.0424691 0.0262317 0.0525415 -0.0301854 -0.00223636 0.0186966 -0.00775349 -0.0125011 0.0484466 
-0.00405062 0.0480466 0.00491753 -0.0255457 -0.00739069 0.0305249 0.0355049 0.0189092 0.00620182 0.176637 0.00719696 -0.0226883 -0.128042 0.0178873 -0.0238592 -0.0168475 0.0130726 0.0245191 0.004145 -0.0074634 -0.000158559 -0.0227198 -0.0275262 -0.0226944 0.0416612 -0.022047 0.00981528 -0.00254019 -0.0157419 0.0629965 -0.0199962 0.0444613 0.0260836 0.0111605 0.0523867 0.158779 -0.00389365 -0.0151179 -0.0450955 -0.00408914 -0.0333381 0.0202015 -0.0152152 0.0780305 0.00638457 0.0390276 0.0354352 0.0170435 0.0628028 0.0175798 0.00467739 -0.0361746 0.0281963 0.00820654 -0.0138924 -0.0188504 0.0206069 0.0152868 -0.0122632 -0.0195503 -0.00461782 0.0088668 -0.0272295 0.273597 
-0.00562655 -0.0103186 -0.0238724 0.0217495 0.0303114 0.00784216 0.0331642 -0.0175576 -0.0228789 0.109087 0.00809983 0.0174538 -0.0958954 -0.0123257 -0.0396844 0.0269264 -0.0277419 0.0247548 0.049853 -0.00716309 0.0201078 -0.0137916 0.0267884 -0.00353358 -0.018131 -0.00473829 0.0151291 0.0109258 -0.032883 0.047834 0.00815243 0.0207664 0.0292082 0.0113123 0.0135456 0.162408 -0.0284937 -0.0455954 -0.0377884 -0.0020763 -0.0210083 0.0233431 -0.0293455 0.070637 -0.0262745 -0.00198784 0.0229736 0.00951159 0.0191647 -0.00979799 0.00670812 0.00483347 0.00762449 0.0020151 -0.0104441 -0.0239526 -0.0304851 -0.0438827 -0.0114726 -0.0292982 0.00828299 -0.0272604 0.0040983 0.209144 
0.0207706 0.0663938 0.0337469 0.0240292 -0.0150494 -0.0351769 -0.038897 0.0117096 -0.0288027 -0.0191786 -0.0176708 -0.0149183 -0.0123637 0.0108998 0.00695774 0.0132172 -0.0233544 -0.0100774 -0.0111942 -0.00775363 0.00917372 0.0135411 -0.0105709 0.0289283 -0.000452714 0.0260513 -0.0253032 0.0154195 0.0220091 0.0873186 0.015168 0.00501823 0.0144453 0.00948966 -0.00236313 0.0353646 0.0185448 0.00622697 0.00541129 0.0740045 0.0145319 0.0236912 -0.0246919 -0.015331 0.0335637 0.0564656 -0.0451866 0.0488969 -0.0253451 0.00337067 -0.00602939 0.0278568 -0.00556801 0.014637 -0.0144243 -0.0206553 0.000489314 0.0267782 -0.0289694 -0.00762569 0.0252171 0.0299706 -0.0222265 0.0205056 
-0.000276802 0.0226424 0.00795205 -0.0129667 -0.00239415 0.0579835 0.0346456 -0.0148386 -0.0201269 0.14494 0.00833091 0.0150323 -0.00942732 0.00443581 -0.015214 -0.0133934 -0.0337498 0.0227016 0.0756099 0.102098 0.087962 -0.0109085 0.0177889 -0.0243536 0.122027 0.02633 0.00279758 -0.00373145 0.0123954 0.018445 -0.0194592 0.0377906 -0.00469905 0.0165094 0.0632912 0.11915 -0.0238836 -0.0135775 -0.0268114 -0.00751847 0.0152711 0.0157163 -0.0254701 -0.0383664 -0.0214576 0.0038142 0.0688744 0.00235206 -0.0101218 0.0170377 -0.0302195 -0.0527486 -0.0155427 0.0185381 -0.0218773 -0.000845635 0.01495 -0.00882785 -0.0158852 -0.00452609 0.000540157 0.00285081 0.0133651 0.130944 
-0.00588209 -0.00740394 0.0152256 0.00167214 -0.0302881 0.0285955 0.0217677 0.0282133 0.0130621 0.0638373 -0.0315812 -0.0279099 -0.0162105 -0.0106065 -0.00267736 0.0258367 -0.0293705 0.00422814 0.0275172 -0.0139776 -0.00500754 -0.0233499 -0.0246096 -0.02126 0.0164612 0.0010157 0.0112337 -0.0236139 -0.0266752 0.00329673 0.0305253 0.00284335 0.0172973 0.0135862 -0.0266176 0.052218 0.0107511 0.016739 0.0122021 -0.00296128 0.0179645 0.0158676 -0.00319531 0.00588384 -0.0260224 0.033279 -0.0145332 -0.018159 0.0132205 -0.021851 -0.00469236 0.0280903 -0.0154079 0.00191868 -0.0219492 -0.0374496 -0.027741 0.0183899 -0.0216401 -0.0215299 -0.0193515 -0.0211922 0.0105897 0.0190384 
0.0246489 -0.0152736 0.0125607 0.00411827 0.00717621 0.0518418 0.0763841 -0.00556316 -0.00780755 -0.181265 0.0238083 -0.00519627 -0.0902363 -0.0302046 0.0106648 0.0286497 -0.0717788 -0.0290782 0.084292 0.0828418 0.077539 -0.019547 -0.00612714 0.00953317 0.122488 -0.0200957 0.0201824 -0.0297714 0.0203411 -0.0588493 -0.018776 0.0353283 -0.0175605 -0.031227 0.0113608 -0.0499762 0.00980733 -0.0146285 0.00112729 -0.0857194 0.0117225 -0.0290988 -0.000643659 0.0616785 -0.0874298 -0.0509452 0.0644014 -0.042762 -0.0138756 0.0340695 0.0108832 -0.0917873 0.029639 -0.026228 -0.0435432 0.0201881 0.0131384 -0.112848 0.0332866 0.00615802 0.0290399 -0.0369547 -0.0213664 -0.0361786 
-0.0162739 0.0276904 0.0226349 0.0246906 0.00909092 0.01048 0.0507763 -0.0187404 -0.0205285 -0.00603759 -0.0149062 -0.0190461 -0.266037 -0.0294749 -0.0143646 0.0110329 -0.0279935 -0.0201966 0.0373851 0.0191413 0.0267591 0.0253135 0.0208131 -0.0279432 0.0258159 0.0264572 0.00510571 -0.0323749 -0.0533268 0.0773399 0.0156073 0.0126002 -0.0178121 -2.13084e-06 0.00888212 0.0335354 0.0108305 -0.085753 -0.0189033 0.0122578 -0.00170011 -0.0110075 -0.0251558 0.0880862 0.0187566 0.0344421 0.0471896 0.0404838 0.0421774 -0.0177612 0.0111258 0.00387323 0.0280856 0.000879847 -0.0183606 -0.0847847 -0.00548382 0.0423451 0.0175025 0.00330611 0.00949289 0.0113504 0.0160588 0.0540977 
-0.023118 -0.0347699 0.00357088 0.0189668 -0.0225858 0.0456903 0.0159072 0.00869474 -0.0250601 0.115005 0.0122519 0.007614 -0.1075 -0.00494177 -0.0315841 -0.0240938 0.00416958 0.0301907 0.0141471 0.0195 0.0179587 -0.00346238 0.00423391 -0.0309663 -0.0130912 -0.00835007 0.00136253 -0.00589854 0.0231342 -0.0221938 -0.0126457 0.00381931 -0.00999999 0.0233238 0.0575226 0.0799837 0.0108843 -0.0197734 -0.0310134 0.0250809 -0.0202046 0.0222953 -0.00347592 0.0699594 -0.0231305 0.00772847 0.0541711 0.0208569 0.0427674 0.0258165 -0.000542603 -0.0357642 -0.011851 -0.0275906 -0.0156099 -0.0339234 0.000231617 -0.000253276 0.0204775 -0.0014202 -0.0289656 -0.0219607 0.00527989 0.149137 
-0.0233212 -0.0474276 -0.0473023 0.0187963 -0.023144 0.0250167 0.0220546 -0.00545897 -0.0278491 0.0690255 -0.0234411 -0.00997157 -0.151472 0.0163026 -0.0304299 -0.000110631 0.0206116 0.0188962 0.0690252 0.0120329 0.0548418 -0.0181639 -0.00349535 -0.00432995 0.0617544 -0.0204297 0.0279111 -0.0546201 -0.00737517 -0.102066 0.00288606 0.0491342 -0.024067 2.73436e-05 0.0410499 0.052727 0.0148524 -0.0644527 0.0114766 -0.00535907 -0.0292206 0.0178453 -0.0195257 0.122836 -0.0363476 -0.0527803 0.0430925 -0.0522444 0.0228596 -0.0182351 0.0103499 -0.105817 -0.0160543 -0.0243732 -0.0117889 -0.0606952 0.00185148 -0.0739236 -0.0244457 -0.0223197 -0.013533 -0.00119961 0.0203207 0.115179 
-0.0141514 0.0643659 0.0137747 -0.0302452 0.00111612 0.00165386 0.0294753 0.00978457 -0.0273594 0.0782892 0.00294399 0.0163015 -0.0757979 0.0211061 -0.042961 0.0183383 0.00965112 0.0307309 0.0452885 0.0106765 -0.0084099 -0.0229183 0.0039958 0.0110186 -0.00109813 0.035844 0.0225492 -0.0426626 -0.0264399 0.153107 0.0102622 0.0340059 -0.0217485 -0.016565 0.0341087 0.078513 0.000342471 -0.0477331 -0.0331176 0.104124 -0.0212954 0.0240033 -0.00565534 -0.0281707 0.0841081 0.0775015 0.044534 0.0440898 -0.000251697 0.0216618 -0.00268453 0.131664 -0.00289332 -0.0299443 0.0381563 -0.0339104 0.0167894 0.0936796 -0.0454996 -0.0300175 -0.027315 0.0320724 0.0274219 0.098519 
0.0293574 0.0199915 0.0303061 -0.000834563 -0.0147021 -0.00124956 -0.0203693 0.0199161 -0.018371 0.0146862 0.0251441 -0.027468 -0.113195 0.0118665 -0.0323952 0.0267686 0.00649744 0.00432736 0.0294249 -0.0156539 0.0139429 -0.00954765 0.0163697 -0.00945026 0.0277734 0.0216421 0.00399512 0.00905931 -0.00472481 0.0145789 -0.0149415 0.010091 -0.0184626 -0.0168871 -0.0213511 0.0100397 0.00435051 -0.047015 -0.0126144 0.0179339 0.00486406 -0.0191617 0.02253 0.0684795 0.0305477 0.0357369 0.0270148 0.0119307 0.0130069 0.00563269 0.00942196 -0.0193276 0.0249978 -0.00542946 -0.000506619 -0.0105661 -0.0147013 -0.0247854 0.00556242 0.0214678 0.00628488 0.0254005 -0.00774279 0.0407358 
-0.0223914 0.0478147 -0.0157039 0.0132148 0.00395437 0.0510144 0.0379531 -0.018765 0.0156169 0.080195 -0.027547 0.0123975 -0.0439189 0.0214035 -0.0228591 0.0227802 0.0213192 0.0277252 0.08565 0.0558577 0.0490034 -0.010673 -0.029697 0.0065537 0.079666 0.0273526 4.50526e-06 -0.0318106 -0.000147911 0.13078 0.0216707 0.0495603 -0.0106242 -0.0252894 0.0332596 0.0469701 0.00911067 0.0128014 -0.0319952 0.0728087 -0.0247728 -0.0217786 -0.0215877 0.00335142 0.029502 0.0447928 0.0493739 0.049563 -0.00993988 -0.00499892 0.0159826 0.12388 0.0226938 0.0174845 0.0232451 -0.0145662 -0.00411635 0.121763 -0.00587288 0.0220604 0.0250694 0.0104985 0.00845095 0.0241892 
-0.00358046 0.0382813 -0.0191032 -0.024199 0.0274481 -0.0164109 0.00660091 -0.0202836 -0.0163785 0.118494 0.0134115 -0.0154583 -0.0968846 -0.0293018 -0.0223448 0.000274921 0.0309344 -0.0026388 -0.0107693 0.00534926 -0.0107856 -0.0238393 0.0247098 0.00939728 0.0101148 0.0127445 0.00906433 -0.039426 -0.00648829 0.117582 0.00067368 -0.00628385 -0.00883052 0.0030185 0.000195012 0.055421 0.0104029 -0.0298777 -0.0267942 0.121103 -0.0254447 -0.0193606 -0.016505 0.00926115 0.0480057 0.0876212 -0.00817177 0.0973057 -0.0219458 -0.00480746 -0.00487714 0.107865 -0.0269158 -0.0114335 0.0196339 -0.0387159 0.0134532 0.117766 -0.0489175 -0.0154119 -0.0222731 0.0190721 0.00993241 0.120329 
-0.0249333 0.0541107 0.0252758 0.0173374 0.0205868 0.0477954 0.0254802 -0.00875341 0.0031586 0.0403849 -0.0288142 0.0265193 0.132395 -0.0251953 0.0117713 -0.0129704 0.0113146 -0.0114083 0.0918871 0.0435213 0.0316667 -0.0489917 -0.00822073 -0.0117069 0.0150257 -0.00459577 0.0194347 -0.0131538 0.0229186 0.0450913 -0.02995 0.0184498 -0.00372244 0.0248155 0.0724161 0.121155 -0.0127396 -0.000244975 0.00404993 0.0510548 -0.017048 0.011117 0.0211033 -0.100679 0.0393955 0.0364755 0.0839888 0.0254467 -0.0707668 0.00596655 -0.0153801 0.0382337 0.0316134 0.00729301 -0.0368676 -0.0306645 -0.0289358 0.0453169 -0.0166034 -0.0381509 0.0104576 0.00605279 -0.0279033 0.12951 
-0.00375431 -0.0470994 -0.0495355 0.0152975 0.00238806 0.0595447 0.0173723 -0.0282007 -0.00446153 0.11322 0.004536 -0.0143898 -0.237926 -0.0211608 0.00222968 -0.0130317 0.0302452 -0.024216 0.0812839 0.0482055 0.0360654 -0.00908819 0.0261331 0.0191355 0.0509586 -0.0219161 0.0209616 -0.0467127 0.0127474 -0.130406 -0.0263629 0.0301642 0.0226738 -0.0254153 0.0184793 0.0774063 0.0256446 -0.0310735 0.00111002 -0.045479 -0.0180097 -0.0290492 0.0108984 0.140863 -0.0755629 -0.0745402 0.0665195 -0.0872901 0.0635794 0.0191599 -0.0137524 -0.130469 0.0194937 -0.0188137 -0.0483436 -0.0297465 0.012259 -0.141061 -0.0299975 0.013887 0.0365919 -0.0446331 -0.0275335 0.173396 
-0.0131091 0.00879537 -0.0127195 -0.0186854 -0.0253044 0.0836853 0.0266967 -0.00855094 0.0222559 -0.00904862 0.0250185 -0.0156974 0.112864 0.00626423 -0.00439382 -0.00681059 -0.00793962 0.0279436 0.093199 0.0400432 0.0227491 0.00354911 -0.0263117 0.0255381 0.0289317 -0.0253546 0.00979603 -0.0373506 -0.020558 0.058145 0.0232611 0.0554764 -0.0271359 -0.0232539 0.0739365 0.111704 0.0300116 -0.0245852 -0.00469997 0.0493495 -0.0189634 -0.00427823 -0.0213766 -0.0927113 -0.0164119 0.0378859 0.0879666 0.0275556 -0.0154059 -0.00743598 0.0279023 0.0420614 0.00346714 -0.0300826 0.0157354 -0.011996 -0.020244 0.0158682 -0.0163636 -0.0111811 0.0108282 -0.00533021 -0.0332305 0.104223 
0.00194447 0.0216818 0.0102783 0.00124141 -0.0250504 0.00996034 0.0141101 0.00724307 0.00997587 0.0213077 0.0266755 0.0181865 0.0144866 0.00407858 -0.0108945 -0.0203066 -0.0411189 -0.00835076 0.0112131 0.0342967 0.0236325 -0.0279309 0.0281157 0.0061993 0.0533507 -0.00316832 -0.0264296 -0.0312093 0.0160922 -0.0205694 0.00602862 0.0114432 0.0242861 -0.016241 0.0466347 0.0761021 -0.0010638 -0.0281576 0.00453761 -0.0187881 0.0151509 0.000788954 0.0287205 -0.0275678 -0.0393765 -0.00669102 0.0257576 -0.0221883 0.0119947 0.00554448 0.00591553 -0.0459767 0.013455 0.00262351 0.0155355 -0.0170152 -0.0311779 -0.000765121 -0.00299329 0.0173184 0.031187 -0.0274995 -0.022568 0.0652796 
-0.00746027 0.0184168 0.0256249 0.0229171 -0.0126995 0.0258958 -0.0126788 -0.0230692 0.0302671 0.103405 -0.00910928 -0.026985 -0.0292066 0.0156836 -0.0296255 -0.0241586 0.00467681 0.018894 0.0162051 0.0010627 0.0173899 -0.0392994 -0.00352557 -0.0105747 0.0575831 0.0424747 -0.019729 0.0125554 -0.031728 0.0856081 0.0139239 0.0219721 -0.00735392 0.00508487 0.0137863 0.0499138 -0.027995 -0.0245414 0.00980913 0.0376055 -0.0198026 -0.0205797 -0.021271 0.0123654 0.0791014 0.0353712 0.0517946 0.0363392 -0.0255073 -0.0267144 -0.0114956 0.0938257 -0.0229368 0.0162228 0.0462352 -0.0406462 0.0147562 0.0562435 0.0196191 0.0125564 -0.00771337 0.0251746 -0.0147241 0.0813793 
-0.0165782 0.0441394 -0.00158392 -0.0125883 0.0293202 -0.0200988 -0.0163533 -0.0121814 -0.00362474 -0.0245618 -0.0334695 -0.00804933 0.0097614 0.0202668 0.00422604 -0.0300255 0.0606764 0.0307734 -0.0056941 -0.0409324 0.00577582 -0.0119765 -0.0235396 -0.00384654 -0.0182255 -0.011085 -0.0132384 0.011819 0.00127067 0.0793157 0.0103213 0.0255484 -0.0198877 -0.0230435 -0.0217978 -0.0756838 -0.00528515 -0.0261145 -0.00622544 0.0775648 -0.0301331 -0.0020869 -0.0144286 0.029181 0.0470853 0.0624563 0.0258532 0.0210289 0.0254508 -0.000623179 -0.0130343 0.118214 0.0139548 -0.00551226 0.00480676 -0.0303293 -0.00321987 0.0927176 -0.0192299 -0.0271111 -0.0362478 0.04693 -0.026829 -0.0253223 
-0.0270626 -0.0249954 -0.0131415 -0.000370808 0.0266672 0.0442035 0.0279804 -0.0311666 -0.0119572 -0.201785 -0.0299742 0.00374569 -0.14472 -0.0330812 0.0188694 0.00284009 -0.0241924 -0.0244488 0.0143776 0.0559435 0.0508526 0.00128343 0.0183144 -0.0309448 0.0909426 -0.0431511 -0.0206528 0.000979276 -0.0441281 -0.0434622 -0.0225938 -0.0107071 0.00547857 -0.00202034 0.0215556 -0.0819373 -0.00927871 -0.00510154 0.0132856 -0.0326773 0.0111733 0.00230125 -0.0143896 0.0240722 -0.0305805 -0.0367442 0.0369112 -0.0371683 -0.00536372 -0.0253085 0.00284626 -0.0450991 -0.00928439 -0.00979175 -0.00721297 -0.0439824 -0.00367519 -0.0266606 -0.014848 0.00337474 -0.0261951 -0.0170085 0.00281435 0.0253205 
0.0239799 0.00310232 -0.010264 -0.016537 -0.0226924 0.0265428 0.0215255 0.0155548 -0.00262671 -0.0202542 0.0278641 -0.0297017 -0.0370742 0.0150052 -0.0269532 -0.000243278 0.036386 0.0122672 -0.0123719 -0.0227338 -0.0285666 -0.0323805 9.47603e-05 0.00217554 0.025774 0.023988 -0.0273015 -0.033469 -0.0349914 0.0579019 0.0303304 0.0342735 0.0203124 -0.0119548 -0.0150829 0.0601378 -0.0179766 -0.0520192 0.0122879 0.0464839 -0.0164697 0.0117796 0.0141345 -0.000953922 0.0309219 0.045211 -0.0232993 0.00585546 0.00245077 -0.0151032 -0.0066904 0.0714393 -0.0157838 0.0244549 -0.00451504 -0.0312472 0.00770759 0.0419092 -0.00237058 0.0110554 0.0284887 0.0112883 0.0130527 0.0544383 
0.0193445 0.0232967 0.0138393 -0.029406 -0.0258308 0.0092685 0.024139 -0.0078058 -0.0216542 -0.0161182 0.0290656 0.00575181 -0.0155919 -0.031296 0.0155256 0.0249367 -0.0192654 -0.0194525 0.0173794 0.0293606 -0.0103393 0.0132649 0.0305263 0.0141596 -0.0057021 -0.00459013 -0.001799 -0.0336109 0.0295 -0.0307032 0.0175782 0.0252242 -0.0207637 0.000979962 0.0279282 -0.0256871 0.0302699 4.10736e-05 0.00897765 -0.0336603 0.0276661 0.00469052 0.0148564 -0.0161872 -0.00706804 -0.00368182 -0.00708584 0.0189513 0.00931772 0.0185619 0.00445148 -0.0017235 0.00337957 0.00371559 -0.00393305 0.00416381 -0.0277858 -0.0496788 0.00529906 -0.0293691 -0.012191 -0.00966313 0.0201401 -0.0218221 
0.0254046 0.0615941 0.0219009 0.0254072 -0.019628 -0.0645108 -0.0642817 -0.0209785 0.0212028 -0.108572 -0.00702368 -0.00536756 0.0252829 0.0129815 -0.00231307 -0.0282646 -0.0152514 0.025191 -0.0357467 -0.0954445 -0.0557219 0.000561494 0.00836974 0.00238508 -0.0915546 -0.00582472 0.00482611 0.0153976 0.0140561 0.10025 -0.0290429 -0.0343728 -0.0277756 0.0114225 -0.0446286 -0.000896551 0.029438 0.0134936 -0.027212 0.0869803 -0.00710474 0.022814 -0.0157704 0.0431606 0.0647994 0.0585484 -0.0503388 0.0280542 0.020885 -0.00269417 -0.0249138 0.0760266 0.0277512 0.0146993 0.0234512 0.00415082 0.0278065 0.0743849 -0.0244327 0.00559211 -0.0518367 -0.00741808 -0.015531 0.074941 
0.0171766 0.00267825 0.015881 0.0153395 -0.0123388 -0.00455942 0.00871379 0.00817529 -0.022157 0.0438744 -0.0112968 0.0147203 -0.0671913 -0.0330909 0.0152697 -0.030507 0.00624488 0.026943 -0.0161791 0.0141844 0.017829 0.00758319 -0.032194 0.0106734 0.0224852 -0.0316488 -0.0103851 -0.0274651 -0.0277757 -0.0223691 0.0206096 0.0348685 -0.0105376 0.00882185 0.0200308 0.0255713 0.0252732 -0.0311904 -0.0126193 -0.0274534 -0.0262634 0.00497751 0.0189565 0.0381912 -0.00540066 -0.00511061 0.0176326 -0.0318684 0.0152274 0.00840744 0.0189429 -0.0389218 -0.0195225 0.018051 0.0195999 0.0109996 0.0218574 -0.0363076 -0.023374 -0.0306931 0.0244934 0.0256114 0.025225 0.0153398 
0.00700114 0.114686 0.0422219 0.0019892 0.0205641 -0.0271342 0.00107177 0.0268334 0.00740575 0.0636792 8.93886e-05 -0.0151506 -0.123144 -0.0370621 -0.0465541 0.00512305 0.0282287 -0.0117554 0.0142613 0.0200328 -0.0292149 -0.0364328 0.0193916 0.0288337 0.0148153 0.0547831 0.0299707 -0.0189969 0.0037405 0.23699 0.0278055 0.00875776 -0.000829276 0.015896 -0.0210351 0.0448115 0.0209326 -0.0595215 -0.0471201 0.115751 -0.0661323 0.0142798 0.0190447 -0.0283218 0.102758 0.0876431 0.01217 0.112986 -0.0207654 -0.00246865 -0.000588761 0.156966 -0.0193171 -0.0124768 0.0589556 -0.09043 -0.0157911 0.14028 -0.000495202 -0.0369444 -0.00189798 0.0479917 0.0138029 0.0810241 
0.00914568 -0.0252775 -0.0195895 -0.00066106 -0.00189548 0.0356068 -0.0231382 -3.43993e-05 -0.00607231 0.0738643 0.00707417 -0.016614 -0.147324 -0.0221754 0.0108253 0.016652 0.0126707 -0.0105435 0.0304678 0.0422938 0.0227545 -0.00987726 -0.0294886 0.0242028 0.0447464 0.019968 -0.0274521 -0.0186739 0.0146701 -0.0750277 0.00681753 0.0218042 0.00442706 -0.0330251 -0.00755862 0.0108539 0.00991732 -0.0559366 0.00697414 -0.0509324 0.0197799 -0.0218684 -0.0107691 0.106025 -0.0447029 -0.0655849 0.0435165 -0.0701111 0.0262231 -0.0122022 -0.0290708 -0.0940727 -0.0011082 -0.0272967 -0.047126 -0.0303196 -0.0263327 -0.090439 0.0265479 0.0309592 0.0299316 -0.00857414 -0.000904517 0.0720679 
0.00425341 0.00388016 0.000406153 -0.0170913 0.00536601 0.0143172 0.013122 -0.00356821 -0.0153525 0.0190141 -0.00343573 0.0106925 0.0169818 -0.0181337 0.0149772 -0.0132825 -0.0009269 0.0215441 0.0423117 0.0787037 0.0664354 -0.0148712 -0.00577042 -0.0287834 0.0589793 -0.0088816 -0.0295794 -0.00686953 0.0257427 0.00461028 0.0219462 0.0291053 -0.0251326 -0.00899514 0.0480414 0.104249 -0.00327765 -0.0323539 -0.024334 0.0144498 0.0027146 0.00459145 -0.00744959 -0.041884 0.0177783 -0.0189279 0.0574038 -0.0134354 -0.0477273 -0.0240182 -0.0151302 0.0294296 0.00848166 0.0103628 -0.0301453 -0.0266588 -0.0295852 -0.0288773 -0.00533803 0.0270081 0.00567041 -0.00988711 -0.00460676 0.140291 
0.0126629 -0.0112575 -0.0077936 -0.0218644 -0.0223182 0.0238595 0.0350118 0.014727 -0.0272513 0.0890143 -0.0211381 0.0207372 -0.0571539 0.0216858 -0.0451943 -0.00281503 0.0199558 -0.00631594 0.0205284 0.025685 -0.006232 -0.00019769 0.00583133 -0.0256512 0.0230326 -0.0247569 -0.0285408 -0.0352648 -0.00952846 0.0164518 0.0164901 0.000113597 0.00581269 -0.0258111 0.0120455 0.113044 0.00906182 -0.0474657 -0.012515 0.0271543 -0.0185749 0.0101838 0.00603074 0.0676897 -0.00379104 0.0207851 0.0148016 0.0108836 0.00161217 0.0115181 -0.0277658 -0.0306568 -0.0199936 0.00915338 -0.0103585 -0.0182362 0.0183677 -0.0206512 0.00592442 -0.0187549 0.0115659 -0.00255368 -0.00713173 0.127332 
0.0072025 0.0340546 -0.016637 -0.0147747 0.0270824 0.0119069 0.0461037 -0.0115422 -0.00661883 -0.286013 -0.0217009 0.025409 -0.13638 -0.0040498 -0.00081995 -0.00234172 -0.0390229 0.00121305 0.0123483 0.0128737 0.00156042 0.0310887 0.0283707 -0.0292502 0.0134099 0.00445492 -0.0120032 -0.0493336 -0.0370556 0.0533394 0.00513084 0.0147118 0.000230877 0.0153233 -0.0322384 -0.0649168 -0.000251723 -0.061589 0.0201168 0.0179817 0.0120502 0.0268281 0.021299 0.0639141 0.00029531 0.00894028 -0.0120862 0.0282543 0.0282825 -0.0228272 0.0279502 -0.0165305 -0.0316183 0.0253414 -0.0345211 -0.0339266 0.00580081 0.00549007 0.00369733 0.0208989 -0.0417839 -0.0194041 0.00592868 0.0299547 
0.0250721 0.0832155 -0.0123612 -0.00564183 0.0161873 0.0402772 -0.00452269 -0.00557521 0.0200114 0.0867905 -0.00744622 -0.0142998 -0.0544266 0.0142554 -0.0104611 -0.01006 0.0473873 0.0227424 0.00816795 -0.0152646 0.029836 -0.0356139 -0.00359166 -0.00465577 0.0362736 0.0510018 -0.0147457 -0.0497418 -0.0379278 0.162839 0.0169343 -0.0113851 0.00555349 0.0247621 0.0150234 0.0555837 0.0185633 -0.0310158 -0.0113219 0.111847 -0.0031141 -0.0234256 0.0294291 -0.00650135 0.0925419 0.0887305 0.0355022 0.100857 -0.00125282 -0.0215871 0.0288861 0.113342 0.0117712 -0.00597894 0.0645886 -0.0388235 -0.00644739 0.0842889 -0.00764838 -0.0121256 -0.0268381 0.0176192 0.00518488 0.128892 
-0.00669215 -0.0085882 -0.0220288 -0.018715 0.0195504 -0.0375821 -0.0163089 0.0144705 0.0299519 -0.11228 -0.029771 0.027818 -0.0393465 0.0234795 0.0262447 -0.000628568 -0.0308718 0.0220456 -0.0970894 -0.0562478 -0.0736222 -0.0221637 -0.00734089 0.0106182 -0.103398 -0.0208557 -0.0183507 -0.0200869 -0.00251934 0.0593661 -0.0213806 -0.0680916 0.0206945 -0.0173283 -0.0614622 0.0540746 -0.0262426 -0.0430645 -0.0159744 -0.0302188 0.0311175 0.00196707 -0.0293359 0.053029 0.0110055 0.0480112 -0.0805624 0.0243767 0.0310771 -0.0277309 -0.0108071 -0.00338556 -0.0184258 0.0132512 0.0174478 -0.0124726 0.019945 0.049979 0.0316581 -0.00165644 -0.0280001 -0.019154 -0.00155625 0.142564 
-0.00947332 0.022421 -0.0162031 -0.0044566 0.0194734 0.00601677 0.00162256 0.0164901 -0.0218126 -0.00613977 -0.00366092 0.00763621 -0.0134591 0.0085067 -0.0234791 -0.0140361 0.0233033 0.000642876 -0.0107757 -0.0222818 -0.0143044 -0.030381 0.00878628 -0.0255404 -0.0287009 0.00779626 0.00399123 0.0117264 0.0102741 -0.00928401 -0.0112648 -0.0275047 0.0166883 0.00193685 -0.000945369 0.0176168 -0.0225004 0.0238871 -0.0140057 -0.00719936 -0.00222668 0.018992 0.0265242 0.0329806 0.00383566 -0.0158881 -0.0145809 -0.00163029 0.00539559 0.00529678 -0.00388402 0.0347508 0.0116428 -0.0263361 0.0311887 0.00679509 0.0107478 0.0123174 -0.00489204 -0.00881047 -0.00142699 0.0196305 -0.00453049 0.0255478 
-0.0131608 0.119619 0.0469442 -0.00329066 0.0243316 -0.0421229 -0.0127169 -0.00592798 -0.0286417 0.0337016 -0.00643856 0.00015052 -0.0119885 0.00947341 -0.000859384 -0.0061161 -0.0117532 -0.0135273 -0.0457686 -0.0164319 -0.0453858 -0.0428568 0.0100225 -0.0285504 -0.038075 -0.00388658 -0.00491044 -0.0244223 0.0186438 0.213448 0.00875662 -0.0377931 0.0164603 0.00366034 -0.00976519 0.0268836 0.0202793 -0.0258952 -0.0454306 0.159214 -0.0440443 -0.00516541 -0.00659708 0.0171463 0.0502397 0.076563 -0.0445164 0.0915637 -0.0129338 0.00192839 -0.00938974 0.159176 0.016923 -0.0306634 0.0610231 -0.024325 -0.0260338 0.113499 0.00435347 -0.0373242 -0.0169445 0.0164389 -0.0163496 0.0700271 
0.02982 0.0304843 0.00943382 0.0188821 -0.0120781 0.0375728 0.0353577 -0.0080769 -0.0220095 0.0594671 -0.0128767 -0.0153906 -0.0320386 0.00112245 -0.00375675 0.0275254 -0.0434059 -0.0298506 0.050676 0.0598359 0.00541756 0.0282947 -0.0158633 -0.02164 0.0257007 -0.0290737 -0.0188893 -0.0156532 -0.00968273 0.00231703 -0.0037918 0.0165416 -0.0115761 -0.0283753 0.00629001 0.0914756 0.0185343 -0.000620116 -0.0356562 0.0326616 -0.034665 -0.0143077 -0.0161052 0.047976 0.00524402 0.0265267 0.0220287 0.0263358 0.0550505 -0.0141655 0.0106475 0.0032344 -0.0252999 0.0258089 -0.0231996 -0.0403968 0.0303243 -0.0341551 0.00999318 -0.00621793 0.0204249 -0.0248134 0.0226158 0.00919823 
-0.0160119 0.00700256 0.0218899 -0.0281436 -0.0244191 -0.0858518 -0.103428 -0.0210877 -0.027253 -0.218336 -0.00431641 0.0225417 -0.0835606 -0.0330608 0.0220451 -0.0241815 -0.0205069 -0.00455273 -0.14604 -0.139791 -0.114625 -0.000396068 0.00807175 -0.00716057 -0.153709 -0.00735755 0.0221184 -0.02773 -0.0121109 0.0751536 -0.00186199 -0.0521925 0.0269227 -0.0179176 -0.0591903 0.0356377 -0.0301386 0.00289655 -0.0298034 -0.012934 -0.0180184 0.0196232 0.0293063 0.0549735 0.0424576 0.0453446 -0.116503 0.0081053 0.00771007 -0.0157353 0.000757876 0.0391128 0.00878701 -0.0222888 0.0300766 -0.0283223 -0.00191277 0.0521903 0.0168347 -0.0281092 -0.0584086 -0.0172864 0.0205387 0.19584 
-0.00984184 0.0279657 0.00374547 -0.00871603 0.00194675 0.0231376 -0.00216912 0.00849097 0.00714795 0.0087087 0.0269155 -0.00115792 -0.013296 -0.0114275 0.00601684 -0.00605054 0.025776 -0.0208144 0.0377188 0.00407738 -0.00825544 0.0257193 0.0188479 0.020545 0.0211161 0.00316462 0.0254485 -0.0179891 -0.00199156 0.0489455 0.0236855 0.031666 -0.00467299 -0.0045737 -0.00908096 0.0725256 -0.0180637 -0.00434029 0.0060881 0.045768 -0.0224769 0.00118082 -0.0105253 -0.0210336 0.0396931 0.0450525 0.0262645 0.0257729 -0.026097 0.015602 -0.0211597 0.0309868 0.0111794 0.0287612 -0.0021907 -0.0128411 -0.00567138 0.0124452 0.02046 0.027296 0.0336707 0.0215756 0.0233113 0.0394742 
-0.020245 -0.000138407 -0.00580218 -0.00665933 0.0247175 0.04785 -0.00435462 -0.0266432 0.000627478 0.0475256 -0.0025214 -0.00931363 -0.0111447 -0.0160507 -0.0356885 0.0135353 -0.0209174 -0.0208471 0.000601456 0.0368807 -0.00462496 -0.00279823 -0.0160577 0.00252801 0.0418316 -0.0182718 0.00251976 0.01393 0.0193185 0.0381886 -0.0189396 -0.016554 0.00657707 0.00541847 0.00889514 0.0165928 0.00464072 0.00213261 0.00097116 0.00381307 -0.0222822 -0.0291326 -0.00268949 0.0167095 0.0102875 0.0169054 0.0187194 0.00994202 0.00603556 0.0114402 -0.0279452 0.0589929 -0.0178597 -0.0127496 -0.00030935 0.0249973 -0.00638091 0.0606451 0.0138753 -0.0196746 -0.0114445 0.0364719 -0.0164682 0.0529297 
0.0021961 0.053114 0.00536431 -0.0231538 -0.0133799 -0.0221028 -0.0546568 -0.000858019 -0.0322312 -0.0638416 -0.0198212 -0.0149784 0.0380016 0.0159419 0.0137949 0.0160873 -0.0151255 0.00846098 -0.0580052 -0.0590837 -0.0296211 0.0248121 0.00907601 -0.0102761 -0.0773547 0.00885269 0.00414052 0.0400933 5.4617e-05 0.105544 0.0221638 -0.0124531 -0.00270106 -0.0158276 -0.0711302 0.0157227 -0.0177016 0.00182804 -0.0369233 0.0352226 0.0325699 -0.00203815 -0.00143415 -0.0130679 0.0320374 0.015872 -0.0392542 0.0552437 0.0262985 -0.0120933 -0.00996502 0.0982678 -0.0195471 0.030339 -0.00255949 0.0374507 -0.00894632 0.0843856 0.0250808 0.0136514 -0.0551977 0.0277075 0.0140232 0.051391 
0.0280294 0.0552989 0.0133206 -0.0205263 -0.0254618 -0.0928309 -0.0867605 -0.0277288 -0.0116128 -0.190543 -0.0335892 0.00281655 -0.0432967 -0.0308803 -0.00860042 0.0147036 -0.00910922 0.00620297 -0.13648 -0.133256 -0.112165 0.0129897 0.00338084 -0.0310418 -0.205691 -0.000470482 0.0182058 -0.0276038 -0.038383 0.0770592 -0.0154464 -0.100701 -0.0119244 0.0202378 -0.100836 0.0713273 0.0105675 -0.0120352 -0.0147665 0.0408189 0.0109511 0.00825661 0.00354105 0.0760266 0.0412918 0.0596356 -0.131819 0.0196814 0.0233554 -0.00434241 0.0233684 0.0195829 -0.0276352 -0.00433445 -0.022585 -0.0388178 0.0198668 0.0661683 0.0117445 -0.030493 -0.0798667 0.0286831 -0.0260028 0.240954 
0.00917938 0.0667854 -0.0161788 -0.0112121 -0.0295138 0.0212377 0.000463892 0.00538432 -0.0194816 0.143868 -0.0240327 0.0266649 -0.0671743 -0.0139591 -0.0535792 -0.0188739 0.011537 -0.0291049 0.00142405 0.00393967 0.0150098 -0.0431597 -0.00523838 -0.0113931 -8.00494e-05 0.0523833 -0.00861415 -0.0358375 -0.00825599 0.145431 -0.0194222 0.0180531 0.0208936 -0.0142374 0.0370683 0.0961417 0.0196433 -0.0815534 -0.0254447 0.0756706 0.00339365 0.00494744 -0.0304137 0.0121636 0.0359483 0.0468936 0.0515403 0.0563284 -0.032686 -0.0219283 -0.00554026 0.12929 -0.00432588 0.0204736 0.0072002 -0.0402926 0.019553 0.0995872 -0.040523 -0.00741717 0.0142909 0.0089918 -0.0314696 0.130772 
0.00642319 0.0510668 0.00994158 -0.00388516 0.0205827 -0.0843727 -0.0828774 0.0172768 0.00408462 -0.223668 -0.0143773 0.00352863 -0.0680984 -0.0100938 0.0207277 0.0207499 -0.00373171 -0.022474 -0.13355 -0.177744 -0.0911342 0.0182369 0.00798478 0.0173927 -0.154523 0.0215121 -0.00888887 -0.0075921 -0.0392593 0.0638344 -0.00463332 -0.0614587 -0.0232645 0.0281799 -0.107765 0.105751 0.0289891 -0.0131008 0.0020984 0.0109081 -0.0138081 -0.0177203 -0.0240208 0.0949578 0.033751 0.0598783 -0.111907 0.0186925 -0.00213938 -0.0400953 -0.0163103 0.0121248 0.00434682 0.02311 0.0215981 -0.0154914 0.0073848 0.018002 -0.00505595 0.0191731 -0.0714849 0.0218863 0.00175157 0.234915 
0.0101033 0.0574738 0.0125035 0.00893263 -0.00639467 -0.0127623 -0.0239695 0.00348431 0.00328547 0.0573701 -0.00820769 -0.0167236 -0.0630175 -0.0422229 -0.0343649 -0.0164387 -0.0128485 0.0137156 -0.0219502 0.0129943 0.00353505 -0.0647118 -0.0105325 -0.0131683 -0.0297515 0.0162887 -0.0250851 0.00242456 -0.0181339 0.0972562 -0.010711 -0.032888 -0.00789684 0.0269957 0.00887034 0.0560638 -0.0135127 -0.00218984 -0.0374097 0.162843 -0.0483697 0.0103794 -0.0227545 -0.0116425 0.0464121 0.0483762 0.00278906 0.0668023 -0.0120101 0.0227446 0.00902682 0.0873069 0.0263506 0.0297098 0.000897664 -0.0557029 0.00389661 0.0434573 -0.00353525 0.0123761 -0.0291392 -0.0172283 0.027403 0.0147612 
-0.0294193 0.0385148 -0.0220382 -0.0114945 -0.00358541 0.0141753 -0.0149216 0.00701022 -0.0210325 0.0323841 -0.0319966 0.0224694 -0.00231194 0.00687927 0.00875553 -0.00955951 0.0255651 -0.00725836 0.00755992 0.00276925 -0.000179305 -0.000481929 -0.00306839 0.0259727 0.0397321 -0.00509765 0.023906 0.0080767 -0.0265488 0.0868857 -0.012277 0.00505119 -0.00555962 -0.00421709 0.0240226 0.0883798 0.0262798 -0.0180415 -0.00119684 0.0240288 -0.0219882 -0.00175989 0.0305223 -0.0373785 0.0233434 0.0448433 0.0252429 0.0395914 -0.0306169 0.0199373 0.0295162 0.084626 -0.00908891 -0.00510747 0.0136016 -0.0362116 0.00830128 0.0660188 -0.0147761 0.0234151 -0.0134502 0.0245951 -0.0136711 0.0731088 
-0.0264958 0.0593785 -0.00411771 -0.0307564 0.0224901 0.022573 -0.0287188 -0.0254973 -0.00713567 -0.0396455 -0.0133816 -0.0011968 0.00892327 0.0245408 -0.0311453 0.029455 0.0459078 -0.0275268 -0.00658125 -0.0249835 -0.00664904 0.0200422 0.00798037 -0.0242394 -0.0270319 0.0417698 -0.0241499 -0.0172974 -0.00466538 0.0545544 0.0277476 0.00913479 -0.00485785 -0.00795596 0.00712716 -0.0561453 -0.0133795 -0.00850546 -0.0106462 0.0536933 0.0195746 0.0121458 -0.0197336 0.0143646 0.0535495 0.0127653 0.0109923 0.0223151 -0.0121642 -0.0226756 0.00734851 0.105277 -0.0374389 -0.0160599 0.0495844 -0.0321946 -0.0200417 0.0500665 0.0064041 0.0114639 -0.00377993 0.0224906 -0.007215 0.0218376 
0.0301026 -0.0481864 -0.0258151 -0.0139802 0.0205693 0.0459652 0.0399532 0.0113247 -0.0128438 0.0853441 -0.00373918 0.0221403 -0.136426 -0.0241264 -0.0347913 0.0166908 -0.0129295 0.0245074 0.0494726 0.0156915 -0.00107469 0.0132978 0.00674278 -0.0106784 0.034026 -0.0193331 -0.0255499 -0.0366123 0.0150751 -0.0454682 -0.0244777 0.0581271 0.00198389 -0.0137502 0.0171565 0.0772749 0.0278537 -0.0549538 -0.0344014 -0.0154523 -0.0219001 0.00109566 -0.0218224 0.0985918 -0.0128162 -0.0280194 0.0455409 -0.0522457 0.0262085 -0.0287911 -0.00688254 -0.0489877 0.00880506 -0.0314185 0.00946737 -0.0454859 -0.0105974 -0.0178714 -0.00810113 -0.0169441 -0.011232 -0.00427756 -0.0249818 0.183322 
0.0244493 -0.0134334 -0.0137145 0.0210703 -0.00252419 0.0172707 0.00593956 0.0139393 0.0286246 -0.218702 -0.00104603 0.007827 -0.101413 0.0277154 0.0118076 0.030163 -0.0482864 -0.0269105 0.0258953 0.0640528 0.0203332 -0.015297 0.027235 -0.000906056 0.0351112 -0.0172533 0.0157238 -0.0222976 0.0167067 0.0207522 -0.0051515 0.0358127 -0.0172914 0.0122559 0.0268681 -0.0555082 -0.0220427 -0.00951195 0.00208561 -0.0523584 -0.0267676 0.02439 0.0171163 0.0371947 0.00653332 -0.00331352 0.0292797 0.0260277 0.0070406 -0.0197629 0.00689835 -0.018721 -0.0136913 0.00311522 -0.0379953 -0.0262905 -0.0331832 0.000215502 0.028693 0.0314358 0.00986762 -0.0116959 0.0185216 -0.025363 
-0.0249138 0.0279031 0.0172286 -0.0156565 -0.0110588 -4.26847e-05 0.00466896 -0.00915153 -0.0250872 0.0298927 -0.0281059 0.0301061 -0.0111961 0.0139802 0.0198477 -0.0226728 0.0325208 0.00224225 0.0411033 0.00555252 -0.00377077 0.0225234 0.0110206 -0.0246301 0.0498678 0.0159436 -0.025701 0.00795374 0.028752 0.0788293 0.0151652 -0.00933668 -0.00277277 -0.000703792 0.00721582 0.0381011 0.0109075 0.00387582 -0.0279534 0.0542858 0.015536 -0.0199317 0.0175395 -0.00441208 0.0547426 0.0365549 0.0264386 0.0444754 -0.0191413 -0.00766621 0.0302164 0.0425248 -0.00985222 0.00998337 0.0118228 -0.025617 -0.0131859 0.0505455 0.0219631 -0.0171021 0.000721378 0.0186924 -0.00785039 0.063769 
-0.0219473 0.0615655 0.0135066 0.0205138 -0.0042266 0.0652146 0.0426394 -0.0143547 -0.0301602 0.0753508 0.0127309 0.0264867 -0.0553865 -0.0143973 0.00485337 -0.0112609 0.0330265 0.0127473 0.0607559 0.0920364 0.0436667 -0.0310093 -0.017499 0.00670505 0.084474 -0.00704458 0.0267897 -0.024894 0.0158144 0.0840802 -0.0241147 0.06249 -0.0288501 0.0206295 0.0533795 0.0192986 0.0106795 -0.0173654 0.00909249 0.0837287 0.00966326 -0.00349403 0.0104504 0.0224657 0.0678307 0.0366859 0.0299473 0.0415855 -0.0281628 0.0221473 -0.00799877 0.0926943 0.02905 0.00570396 0.000625154 0.00342556 0.0141756 0.055997 0.0180082 -0.00577143 -0.00499038 0.0483971 -0.00387795 0.0363636 
0.0204607 0.0124982 0.0216713 0.000749603 0.00699536 0.0827238 0.00541532 -0.008183 -0.0322943 0.0232217 -0.0145978 0.0131837 0.129611 -0.0113808 -0.0418948 -0.00950727 -0.0223429 -0.00036946 0.109488 0.0385675 0.0156978 -0.0118559 0.0281139 0.0164464 0.0856856 0.0177978 -0.0105279 -0.023454 0.0136247 0.0727117 0.00798276 0.0738913 -0.0313544 -0.00489632 0.0503979 0.189704 -0.027919 -0.0191004 -0.0406265 0.00875459 -0.0393066 -0.0150941 0.0216138 -0.10494 0.0234308 0.054025 0.121251 -0.00322132 -0.0463923 0.00691781 -0.0128729 0.0216634 0.0160132 -0.0165748 -0.0235639 -0.00953572 -0.0250603 0.028773 -0.00276521 0.0174288 0.0235601 -0.000558955 0.00413376 0.145427 
0.023375 0.0459369 -0.0152669 0.0284371 -0.0158787 -0.0179724 -0.0333214 0.00285621 -0.00348072 0.0827908 -0.0235962 -0.019971 -0.00909875 -0.0405365 -0.0502123 -0.00762028 0.0284679 0.000604802 0.0255112 -0.0138847 0.011792 -0.0463491 0.0265661 0.0253867 -0.0411906 0.0203596 0.0239503 -0.00226897 -0.0297374 0.053394 -0.0219365 -0.028413 -0.00862638 -0.00993557 0.0320559 0.0471452 0.0033418 -0.05395 -0.0464669 0.079669 6.12893e-05 -0.0155691 -0.0158749 0.00969486 0.0176355 0.0210212 -0.01796 0.00136886 0.0210613 -0.0204392 -7.24835e-06 0.0660891 0.00263067 -0.00472683 0.0263725 -0.0235031 -0.0241847 0.0482865 -0.0395423 -0.0280016 -0.0239779 -0.0027773 -0.0130778 0.0713361 
0.0112437 0.0828487 -0.0122929 -0.015754 -0.0122281 -0.0055426 -0.00617307 -0.0154793 -0.00291725 0.152842 -0.0271958 0.0185433 -0.132756 -0.0231818 -0.0187571 -0.0297442 0.0392884 -0.00334744 0.0271596 -0.0208954 0.0316054 -0.0467317 0.00652646 -0.0328815 -0.0189934 0.0473358 -0.0139581 -0.0694894 -0.0545449 0.195915 0.00599037 0.0407141 0.021117 0.010593 -0.00749148 0.0740515 0.0237077 -0.0806487 -0.0401506 0.127834 -0.00974903 -0.00181044 -0.0163519 0.0287127 0.101475 0.0684619 -0.0105735 0.0895657 -0.0126526 0.018131 -0.0119118 0.145843 -0.0160272 0.0258572 0.0460455 -0.0771064 0.0138842 0.148996 -0.0281968 0.00516617 -0.0207712 -0.0028186 0.0120984 0.135509 
0.0156142 0.0386144 -0.0112434 0.00902745 -0.0202646 0.021349 -0.0289094 -0.0240245 -0.0190741 0.015001 -0.0257626 -0.0315813 -0.0163279 -0.0253057 -0.0151307 -0.0270485 0.041143 0.00750822 0.0132741 -0.0166337 0.00478667 -0.0321117 0.000668059 -0.0173656 0.0247163 0.037499 -0.0242935 -0.0335621 -0.036661 0.0616612 -0.0105024 0.028114 0.00632897 0.00875363 0.00519775 0.070865 -0.00868913 -0.0241797 0.0242945 0.0348856 0.0145194 -0.0315663 0.00498788 -0.0399847 0.00400253 0.0435921 -0.000876047 -0.00945216 -0.00653782 0.0188772 -0.0192566 0.0229424 0.0221995 0.0124711 -0.00314853 -0.00375802 0.0116144 0.0402511 0.0209523 0.0128239 -0.0118501 -0.00833458 0.00402918 0.0737268 
0.0222839 -0.0451989 0.00143289 -0.017197 0.00398548 0.0388055 0.0641247 -0.0114855 0.00167009 -0.190697 0.00892969 0.00508085 -0.128956 0.0233785 0.00747251 0.0182229 -0.0223331 0.0196155 0.0694603 0.0878732 0.0675111 -0.0169471 -0.0114794 -0.0166771 0.0949101 -0.0377859 -0.0310775 0.00444436 -0.0097652 -0.0288882 0.00827775 0.00826148 0.00852881 -0.0182099 0.0249483 -0.108169 0.0172818 -0.0272793 0.0151862 -0.0562043 0.0165659 -0.0241372 0.026761 0.059532 -0.0696805 -0.0108318 0.0478469 0.00188377 0.000334308 0.0159661 -0.00561929 -0.0444318 0.0139349 0.0144388 -0.048305 -0.0285679 -0.0335089 -0.083772 -0.0211053 -0.00057999 0.0198463 0.00562986 0.011265 -0.0294102 
-0.0313375 0.0347927 0.0172869 0.0180376 0.00348155 -0.0943143 -0.0808649 -0.0160423 -0.0125925 -0.249251 -0.0246906 -0.0112065 -0.0255769 -0.0315793 -0.0136964 0.0297093 -0.00289344 0.0019432 -0.0593188 -0.102633 -0.0911993 -0.0158366 0.0147424 -0.0113121 -0.137669 0.0240767 0.0157663 0.0216956 0.00258852 0.107202 -0.00760472 -0.0497947 0.0136371 0.0305275 -0.0707192 0.0245364 -0.0205307 0.0023149 -0.013115 0.059178 0.0100324 0.0138336 0.0198443 0.0415864 0.0671843 0.0831624 -0.116658 0.0510965 0.0303354 -0.0396524 0.0195711 0.112654 -0.030994 0.00310944 -0.0156134 -0.0114932 -0.00846331 0.109988 -0.00762063 -0.0299124 -0.0652146 0.0260406 0.0132694 0.114349 
0.00845493 0.0278522 0.00235355 0.0200012 0.0123029 -0.0339745 -0.0550549 -0.0158682 0.00863678 -0.201444 -0.0131711 -0.00576126 -0.042157 0.000426576 0.0260432 0.0103364 -0.00737068 0.00923578 -0.0669915 -0.0684332 -0.0804954 0.0163433 0.0266281 0.00932199 -0.091219 -0.0155597 0.0134371 0.0227318 0.0178763 0.0999286 -0.0267414 -0.0460781 0.0058903 -0.00346567 -0.0633509 0.0139715 -0.00925499 0.00840699 -0.013647 0.030236 0.0224996 0.0255025 -0.00459221 0.0792805 0.047568 0.0383635 -0.0660995 0.023628 0.050508 -0.030424 0.00854748 0.0703279 0.0156164 0.00394722 0.0293031 -0.00822952 0.013791 0.0860423 -0.00575787 0.00530918 -0.0191649 0.0116183 -0.0210456 0.110079 
0.0237853 0.0193293 0.0224192 -0.0167103 -0.0207005 -0.00690583 -0.0201287 0.0307031 -0.0100306 0.0148552 0.0280416 0.0186733 -0.0376873 0.00624493 0.0166902 0.0293267 0.0284134 -0.00232942 -0.0224383 -0.00277939 -0.0341267 0.0277202 0.0278565 0.0179085 -0.00565285 -0.00502134 -0.00275205 -0.0100125 0.00803957 0.0452291 -0.0269491 0.00896885 -0.0232818 0.0260254 0.0219617 0.0128721 -0.0108747 -0.044694 -0.014106 0.0384698 0.0170834 -0.015271 -0.000644655 0.0181676 0.0482032 0.00558541 0.0187978 0.0259251 0.0167312 0.0245742 -0.0207805 0.0649763 0.0202875 -0.0243549 0.0173602 -0.0174858 -0.00524919 0.014514 0.0258894 -0.0239379 0.0121441 -0.0214323 0.0168825 0.0562761 
0.0275849 0.0250699 -0.0223607 -0.0141492 0.0159702 0.0197022 0.0451411 0.00196799 0.0111849 0.15334 -0.0108522 0.000859031 -0.0670386 -0.0214477 -0.049566 0.00328809 -0.0303963 -0.00998001 0.015998 0.000350703 0.0241504 0.0356124 -0.00500261 0.0236762 0.00368285 -0.00615461 -0.0276822 0.00780026 -0.0132846 0.0488406 0.00803732 0.0147081 -0.00178939 0.0126672 0.0343233 0.12872 -0.018065 -0.0262989 -0.00237684 0.045154 -0.0453166 -0.0202303 -0.00147382 0.0849716 -0.0113546 0.0189073 0.0212138 0.0142713 0.0629866 0.00756816 0.00124494 -0.0106574 0.0164847 0.0273215 -0.00582864 -0.0131638 -0.00732868 -0.0130162 -0.00370439 0.014899 -0.0371572 -0.0178335 -0.0233198 0.230879 
0.0309457 0.0264957 -0.0310717 -0.018345 -0.00404837 0.0563364 0.00308229 -0.00208795 -0.030027 0.0249373 -0.0105111 -0.00629706 0.0164362 0.00976628 0.0174766 -0.0165697 -0.0236032 -0.00390763 0.0535282 0.0239135 0.0344487 -0.0354469 0.0257187 0.0203399 0.047387 0.00108156 0.010821 0.000426278 0.0108225 0.0294412 -0.00582008 0.0433257 0.0125278 -0.00757099 0.0598282 0.0390907 -0.0166562 -0.0451795 0.00361912 -0.010184 0.00222565 0.0256823 0.0118582 0.0112575 -0.01494 0.00768876 0.0196781 0.0325772 -0.0333595 0.0216963 -0.0250849 -0.0383509 0.0239654 -0.0308294 -0.0140568 -0.0298015 0.00284482 -0.00287531 0.0204456 -0.0159672 0.0257698 -0.0158366 -0.0305217 0.0628043 
0.0149679 -0.00731306 0.0196644 0.0299546 -0.0267124 -0.0719948 -0.0600695 0.0142203 -0.0140079 -0.0984684 0.00093947 0.0215836 -0.046798 0.0158142 0.0233502 0.00589343 0.00362982 0.0273642 -0.100336 -0.0825483 -0.0363083 0.000561096 0.0145042 0.0019819 -0.105971 0.0141751 0.0211115 -0.0303502 -0.0407757 0.0733239 0.0208602 -0.0259963 0.024346 0.003388 -0.0334493 0.0794132 0.0269316 0.0145248 0.00402969 -0.0145006 0.0298378 -0.0106622 -0.0266548 0.0361152 -0.00525824 0.0512954 -0.0928633 0.0417628 0.034993 -0.0323647 -0.0158916 0.0524071 -0.000299423 0.0299839 -0.00332643 0.0136696 0.00815382 0.0110186 -0.0170923 0.0107426 -0.0664138 -0.0249628 -0.00555916 0.118141 
0.00410649 -0.0137621 0.0312733 -5.74129e-05 -0.0224358 -0.00736416 0.000961541 -0.0269429 -0.0303314 0.0627463 -0.00117647 -0.0213283 0.017434 0.00789649 0.0268662 0.00684198 0.0299586 -0.0200193 -0.0238545 -0.0364634 -0.0397022 0.0241331 -0.0176107 0.0211946 -0.0558193 0.000398662 0.00071708 -0.016176 -0.0061993 0.0407808 -0.0203283 0.0174293 -0.0255497 -0.0225356 -0.0153137 -0.00800135 0.0191136 -0.0196843 -0.0208766 0.0322073 0.0289118 0.0216984 0.0301776 0.0101657 0.0178267 0.0323093 -0.0288007 -0.00981463 -0.0218708 0.0130617 0.0028131 0.0209197 0.00716656 0.0164506 -0.0111812 0.0123035 -0.0219837 0.0393367 0.0232439 0.00101499 -0.00950903 -0.0228026 -0.000447377 0.0213684 
-0.0200539 0.0208712 0.0183719 0.0303284 -0.0237295 0.022598 0.032756 -0.027552 -0.0296902 0.137783 0.0179425 -0.00221491 -0.108665 -0.0254861 -0.00730405 0.0193605 0.0227742 -0.0124291 0.0208994 0.0293169 -0.00186683 -0.0123841 -0.020802 -0.0179288 0.0491534 -0.030762 0.0157547 -0.0204543 -0.0331808 -0.0341572 -0.0296219 0.0247097 -0.0208108 0.0215098 0.0285481 0.082564 -0.0254146 -0.0563675 -0.0176788 -0.0153767 0.0129925 -0.0200272 0.00906005 0.0779953 -0.0264671 -0.016751 0.0452974 -0.0245123 0.0458347 -0.00407873 0.0163356 -0.0124629 0.012314 0.0267471 0.026766 -0.0310956 -0.0289256 -0.0111858 0.0171023 -0.0225168 0.0236279 0.0208534 -0.00476194 0.155006 
0.0195339 0.033818 -0.00073143 0.0253742 0.0229126 0.0432037 -0.0183117 0.0135058 -0.0257366 0.179832 -0.0131537 -0.00668921 -0.115532 0.0150875 -0.018872 0.0180077 -0.0226468 -0.00309456 0.0215027 0.0467912 0.0144675 0.0105185 -0.00735818 -0.000567472 0.00444093 -0.0123275 0.0116488 -0.0253679 -0.0270159 0.0083337 -0.0039166 -0.00973016 0.0259557 0.0220687 0.0489095 0.177264 0.0202195 -0.0044711 -0.0187898 0.0476223 -0.00690659 0.0239825 -0.00748277 0.0877325 0.00692794 -0.0170794 0.0257016 0.0421361 0.0382246 -0.0334987 0.0223001 0.0203931 0.0101506 -0.0165062 0.0016812 -0.00846799 0.00529427 -0.0292813 -0.0296964 0.0147149 -0.035298 0.00623878 0.0175998 0.220808 
0.00214458 0.0461611 -0.0267382 -0.00882713 0.0168626 0.0832536 0.0103867 -0.00567374 0.000686155 0.0135004 -0.0200476 -0.0190574 0.146724 0.00524757 -0.0382594 -0.0156824 0.00985941 -0.0300113 0.0692928 0.0465792 0.0304742 -0.0238362 -0.0128927 0.0237608 0.078577 -0.00402838 0.0160387 -0.0319559 -0.0323432 0.0587841 -0.00845777 0.0691477 -0.00666161 -0.0068803 0.0983165 0.147649 -0.0271221 -0.0258923 -0.00305114 0.04038 0.00374204 0.0163154 0.0226441 -0.0883089 0.00947951 -0.00646902 0.119421 0.0106083 -0.0694036 -0.0279406 0.0102396 0.0116836 0.0277353 0.0280832 -0.0265703 -0.00381845 -0.00322721 -0.0102453 -0.00554446 -0.0066932 0.0327815 -0.021247 -0.022838 0.108282 
0.00127171 -0.00856842 -0.0125513 0.00613789 -0.000811491 0.0476193 0.00781011 -0.00511961 0.0106118 0.0932328 -0.0210172 -0.0234865 -0.0510774 -0.0259757 -0.0244467 -0.0189325 -0.03191 -0.0261255 0.029249 0.0155266 0.00925664 0.0335602 0.00854682 0.00158952 0.0727837 -0.00808623 -0.0242664 -0.00411611 -0.0101066 0.00356437 0.0168298 0.0492799 -0.000361908 -0.0307017 0.025953 0.0839002 0.029964 -0.0161568 -0.0159714 0.0208371 0.0157508 0.00453058 0.0210537 0.041183 -0.00378371 -0.0118095 0.0109666 0.0356676 0.0252758 0.0211147 -0.0302353 -0.0352462 0.0158168 0.00932413 0.0275914 -0.0226497 -0.02673 -0.0544375 -0.0153032 -0.00180809 -0.0115947 -0.0273727 -0.00011776 0.0896975 
-0.0190124 -0.0677509 0.0152422 -0.0203018 0.030627 0.072986 0.102385 0.0238004 0.0288109 -0.209265 0.0446219 0.00624805 -0.0314185 -0.015239 -0.000674531 -0.0143666 -0.116193 0.00681397 0.111927 0.166876 0.106834 -0.00504511 -0.000401039 -0.00538111 0.175787 -0.019786 0.030166 -0.0452577 -0.0283977 -0.0952896 0.0286598 0.0293374 0.0116354 0.0185904 0.0471894 -0.101458 -0.0172435 -0.0185981 0.0277221 -0.124792 0.0217836 0.00542719 0.0213508 -0.00289319 -0.0918363 -0.0489604 0.049513 -0.0785292 -0.0551258 0.036702 0.0216374 -0.213403 0.00200791 -0.0098145 -0.047199 -0.029048 -0.0142582 -0.167415 -0.0255448 -0.0064468 0.0293457 -0.0558079 0.000430917 -0.168902 
-0.0297513 0.0593885 0.0210787 -0.0151524 -0.0171433 -0.112788 -0.0756933 -0.0220301 0.0292137 -0.234809 -0.0413366 0.0212168 -0.0505721 -0.0226019 0.0294153 0.0182455 -0.0367187 0.0137161 -0.140551 -0.129355 -0.129176 0.0463893 0.00903134 -0.00334523 -0.139314 0.0218048 0.0181569 -0.0434435 -0.0432744 0.0536128 -0.021988 -0.0980765 -0.0101398 0.0236831 -0.0922188 0.069063 -0.0150152 -0.00132209 0.000192952 0.00803848 -0.0209935 0.0139925 -0.0252399 0.0924077 0.0492397 0.00123965 -0.107521 0.0651606 0.045211 0.00226913 -0.000293073 0.0600682 0.0106369 -0.0223909 -0.0129609 -0.0147536 -0.0335989 0.0105848 0.0155408 -0.0282148 -0.0682881 0.0242254 -0.0223964 0.217406 
0.0102966 0.0014025 -0.00857929 0.0265618 -0.0136202 -0.0156316 -0.0046046 -0.0103011 0.0221726 -0.136017 -0.022291 0.0183469 -0.0782407 0.0132869 0.0190401 -0.0289351 -0.0104937 -0.0124037 0.0385757 0.0097644 0.0191027 -0.0169284 0.0155384 -0.000479851 0.0187507 -0.0124022 0.0040622 0.0055677 -0.0291023 0.0172866 0.00707528 0.026113 -0.0181459 0.0290114 0.0218067 -0.0351679 -0.0263144 0.00939322 0.0241135 0.0142496 -0.0159727 0.0296456 0.0157329 0.0165116 0.00730999 0.00652724 0.011488 -0.0150201 0.0252089 0.000456709 -0.00274724 -0.0207466 0.0102572 -0.0183289 0.0125916 -0.0435838 0.00619552 -0.0154092 0.0216141 0.0185598 -0.0311935 -0.00330646 0.00600025 -0.00387151 
-0.00396031 0.0495473 0.0285866 0.00149543 -0.0122741 0.028347 0.00862355 0.00210645 0.00793387 0.0760284 -0.0275062 -0.00896023 -0.0264647 0.00327523 -0.0208656 0.00926449 -0.00632688 -0.0278685 0.0480745 0.0400072 0.00248013 -0.00813442 0.0229503 0.023665 -0.000215552 0.030064 0.011116 -0.0308513 -0.0316284 0.100047 0.00854961 0.025673 0.0103785 -0.00223136 -0.00330844 0.0819773 -0.0232577 -0.0294628 -0.0201228 0.100164 -0.00232046 0.00344815 -0.0202491 0.00534246 0.0345874 0.0694815 0.00664373 0.0494068 0.00801309 -0.0174254 -0.0218743 0.0691441 -0.0286959 -0.0301882 0.0594931 -0.0510237 0.0144815 0.0957891 -0.0123465 0.0148433 0.0263019 -0.00349456 0.00187678 0.103088 
0.0101709 0.0352614 0.0111933 0.0188144 -0.0132659 -0.0902695 -0.0422259 -0.0250182 0.0105001 -0.106841 0.00426622 0.0225742 -0.0457342 0.0260967 -0.0155506 -0.00820372 -0.0230161 -0.00926502 -0.0783258 -0.104057 -0.0782719 0.00739736 -0.00228909 -0.0244712 -0.128366 -0.0248182 -0.0300388 -0.0389252 -0.0254747 0.0525818 0.0144932 -0.0175898 -0.0168364 -0.0112364 -0.0363576 0.0450911 -0.003838 -0.0267705 -0.000343305 -0.0213071 -0.0222868 -0.0110732 0.0304346 0.053914 0.00486566 0.00584787 -0.0372311 0.0242639 0.018381 -0.0127752 0.0133838 0.0586612 0.0235603 -0.0200418 -0.0235467 -0.0385888 -0.0186787 0.00186237 -0.0168962 -0.00179903 -0.0361606 0.0308136 -0.00880175 0.154913 
-0.0171439 -0.0090663 -0.00867623 0.0102721 -0.00715542 0.044382 0.0228928 -0.00464303 -0.0112493 0.195411 -0.0307798 0.00478479 -0.0792774 -0.0265643 -0.0558109 0.0021803 1.90152e-06 0.0211076 0.00992455 0.0108316 -0.0166384 0.0105499 -0.000807044 -0.0153059 0.0126804 0.0118384 0.0141846 -0.0307793 -0.00395244 0.00566076 -0.0290075 0.0380525 -0.0221518 -0.0109111 0.0186898 0.166745 -0.00610919 -0.0508998 -0.0540686 0.0381385 -0.0455685 -0.0256215 -0.00771467 0.0561779 -0.0199365 0.0112645 0.0226381 0.034623 0.0325138 -0.0399916 -0.0146928 -0.0133893 0.00409437 0.015644 0.0132357 -0.0609002 -0.000460568 -0.0129649 -0.0219458 -0.0288072 -0.0330586 -0.0109786 0.023133 0.271033 
0.014634 0.00113239 -0.0191877 -0.0227193 0.0128804 -0.0105335 0.0289858 0.0154169 -0.0090584 -0.00616807 0.0164356 0.00459642 0.0147355 -0.0116242 -0.00963098 -0.0257355 -0.00876979 0.00848313 0.00456256 0.0323285 0.00539332 -0.0270992 0.0295281 0.0290368 0.00698562 -0.0138337 -0.0248949 0.0237527 0.00579596 -0.0177125 0.00120137 -0.0050946 -0.000629656 0.0134329 0.00339871 -0.0155461 0.0274343 -0.0105249 0.0270672 -0.00480888 0.00517363 0.0128392 0.0240259 -0.009409 -0.0261164 -0.0114393 0.0036898 -0.00355551 0.0239561 0.0245687 -0.0174314 -0.00330383 0.0296048 -0.0191608 -0.00946582 -0.00601037 -0.00235751 0.000457091 -0.0130114 -0.0289659 -0.00215921 0.0212308 -0.00742365 0.0354196 
0.00238774 -6.27184e-05 -0.0315354 -0.00114929 -0.0188459 0.0265446 0.0361378 0.0160253 0.0179252 0.136366 -0.0224039 0.016652 -0.127025 0.00206596 -0.0451033 0.0181815 -0.00369077 -0.00656954 0.0347061 0.034325 0.0387075 0.00493966 0.0192482 -0.0282924 0.0623997 -0.0291603 -0.024609 -0.029599 0.0182898 -0.0500211 -0.0140045 0.0449884 -0.0112638 -0.00891083 0.0181947 0.101136 0.00142705 -0.0196904 -0.0206949 -0.0104829 -0.0143509 -0.00300941 -0.0222807 0.0841249 -0.0555058 -0.0370996 0.0385532 -0.0213277 0.053891 -0.0164732 0.0308427 -0.064212 0.0139041 0.0187966 -0.0185069 -0.0332867 -0.0315417 -0.0489993 0.0178491 -0.033263 0.0260563 -0.029362 -0.00199378 0.171476 
0.0058089 0.0212336 0.0217994 -0.0239906 -0.0105127 0.0630401 0.0432455 0.0163321 0.00890732 0.0559832 -0.0174054 0.0132957 0.0989447 -0.0133986 -0.0292427 0.00701655 -0.0194925 -0.0128781 0.122545 0.0734966 0.0486216 -0.0301543 0.0201106 -0.022074 0.112424 0.0164436 -0.0189919 -0.00122942 0.0179545 0.0421145 0.0304293 0.0644155 -0.0153962 0.0174866 0.0798218 0.139288 -0.0299831 -0.0550074 -0.014411 0.032684 -0.00894742 0.00111973 -0.00285478 -0.0424468 0.00929589 0.026316 0.0743128 0.00725063 -0.0440019 -0.025378 0.0116674 -0.0392827 -0.00322336 4.88927e-05 -0.00780842 -0.0510065 -0.0147779 -0.0134689 0.00255776 -0.0276752 0.00649726 0.0141177 0.00772766 0.119116 
0.00484419 0.0543871 -0.00410465 0.00730341 -0.00763598 0.0121858 -0.00807937 -0.0300842 -0.0225772 0.0872627 0.00391454 -0.0321748 -0.0438484 0.0130333 -0.0287346 0.00660339 0.0269829 -0.0253994 0.0231347 -0.0156276 0.0146297 -0.0417758 -0.0169605 0.0261765 0.0256539 0.0449942 -0.0237347 -0.0340268 0.00718715 0.152767 0.0188027 -0.00670322 -0.0225543 -0.0286707 0.0328901 0.0284735 0.0108242 -0.0395197 -0.0143476 0.0943229 -0.0456311 -0.0263644 0.0216024 0.00651637 0.0685827 0.0464483 -0.0135041 0.0754569 -0.0244142 -0.0281239 0.0167211 0.117341 -0.0139024 0.0309923 0.0500743 -0.0510612 0.0296773 0.0490509 -0.0267152 0.00621955 0.0231931 -0.0106118 -0.0259734 0.0822187 
-0.0228502 -9.26488e-05 0.00649606 0.0197373 -0.0107381 -0.112153 -0.0458098 -0.00721162 -0.0231776 -0.182861 -0.0420075 0.027046 -0.0532694 -0.0195679 0.00583997 -0.0224605 -0.0190867 -0.00979336 -0.120323 -0.0985793 -0.0928541 -0.0180623 0.0108702 -0.00956832 -0.151845 0.0333379 -0.0255623 0.00642191 -0.0402263 0.0387769 0.0273555 -0.0715821 -0.0177797 -0.00437644 -0.0915668 0.0651647 -4.35141e-06 -0.011738 0.0129282 0.013843 -0.0142247 0.0273685 0.00624291 0.0353665 0.000418741 0.0109632 -0.108454 0.0306545 0.0252827 -0.027468 -0.0258205 0.0589119 -0.0135932 0.0164847 -0.0121171 -0.0251481 0.0138864 0.0221133 -0.00392424 0.0214927 -0.0584726 -0.00505217 -0.0268627 0.198814 
0.0160917 -0.0670665 -0.0219801 -0.015236 0.0219659 0.0574629 0.0962173 -0.028144 -0.0182767 -0.182711 -0.0118103 -0.00763009 -0.042069 -0.0150458 0.0180464 -0.0137158 -0.078088 -0.0302222 0.0715211 0.154092 0.124026 -0.016364 -0.013875 0.00541507 0.1646 -0.0284329 -0.00327385 -0.0284877 -0.0317907 -0.0925074 -0.0255484 0.0572769 0.00947699 -0.0111141 0.0171445 -0.0967236 0.00783297 0.0187768 0.0248638 -0.0774325 -0.0108335 0.0120897 -0.0147178 -0.0448543 -0.0765829 -0.0627309 0.0609117 -0.0421501 -0.0439633 0.0246354 -0.00289005 -0.219958 -0.0198629 0.0146077 -0.0526316 0.017049 -0.002803 -0.198189 -0.021553 0.00152493 0.0463259 -0.0401298 -0.0192672 -0.137434 
0.0167233 -0.0076307 0.0198057 -0.0066811 -0.0193637 0.0392706 0.0135847 0.00756923 -0.0226799 0.0282026 0.0220771 -0.0232439 0.0454903 -0.0147069 0.00434082 0.02617 0.00911533 -0.0209721 0.0799087 0.0271187 0.0724206 0.00059083 -0.0318799 -0.00478776 0.0714104 -0.011589 0.0271361 -0.0242495 0.00586712 -0.0105822 0.004858 0.0311308 -0.00368075 -0.00864688 0.0599724 0.0832534 0.0201903 -0.0483837 -0.0173601 0.0360829 -0.00452887 -0.0265419 -0.0230834 -0.0341076 -0.0289638 0.0236954 0.0304908 -0.00910097 -0.0363135 -0.0215191 -0.00934402 -0.00786665 0.0170361 -0.0102269 -0.00733294 -0.0239658 0.0094175 -0.0433073 0.00517997 -0.013799 0.00756255 -0.0198278 0.0161908 0.0972797 
0.0101377 0.0212794 0.00853883 -0.000656615 0.0140102 0.0981645 0.0461724 -0.0144081 -0.0327266 0.047122 0.00712544 -0.0107577 0.0538674 0.0132588 -0.0052102 -0.00302351 -0.00130296 -0.0313242 0.0791812 0.0913293 0.0611573 0.0078003 0.0286503 -0.0316787 0.076539 0.0121369 -0.00798184 -0.00140091 0.0205461 -0.00337641 0.0117012 0.062925 0.0189067 -0.0141106 0.0380614 0.113339 -0.0165032 -0.0239073 0.0141847 -0.00333699 -0.0351238 -0.00847128 0.00659707 -0.0262216 -0.0435194 -0.00972198 0.0575149 0.0365423 -0.0273656 0.000805047 0.0024691 -0.0265466 -0.00692943 -0.000533127 0.00742885 -0.0256503 -0.0195539 -0.0612751 -0.031606 -0.0290838 -0.00720301 0.0188274 0.0121697 0.0725249 
-0.0201342 0.0646285 0.0135356 -0.00423962 -0.00441404 -0.0780604 -0.0416111 0.00593855 0.0174186 -0.215667 -0.024955 0.0230772 -0.037813 -0.0133422 0.0280023 0.0196172 0.00999933 -0.0072232 -0.0869146 -0.116991 -0.0498778 -0.0151251 0.00586213 -0.0229303 -0.135439 0.0176059 -0.0134071 -0.0231915 0.00071048 0.0615855 -0.00989624 -0.0341642 0.0254236 0.0258948 -0.0771714 0.0280484 -0.0099459 0.0217314 0.0140376 0.0266095 -0.010359 -0.0229414 -0.0302396 0.0807371 0.0380979 0.069725 -0.079541 0.0338138 0.0147499 -0.0362934 -0.00644729 0.0545219 -0.0259173 -0.0317756 -0.00520544 -0.0210433 0.0138101 0.0755249 0.0103441 -0.00670065 -0.0394222 0.039066 -0.0139379 0.139264 
0.0213642 0.00999991 0.0270133 -0.0198207 0.00190532 0.0652199 0.020017 0.0173064 -0.0296068 0.0160546 0.0093604 0.000135098 0.0210728 -0.016892 0.00993432 0.00479573 -0.0313044 -0.0186285 0.068048 0.0516297 0.0256821 -0.0265674 0.012487 0.0293355 0.0801435 -0.0129242 -0.00480267 -0.0105156 -0.0229353 0.0199802 -0.0248031 0.00528693 -0.0152158 -0.031126 0.0208796 0.088372 0.025331 -0.0162768 0.00135316 0.0329369 0.018929 -0.0196888 -0.00155486 -0.0340379 -0.0263337 -0.0122455 0.0673111 0.0176317 -0.00627308 0.00769254 -0.0197043 -0.0287367 0.0191418 0.0237966 0.00814928 -0.0120251 -0.019174 -0.0618642 -0.032651 -0.00893523 0.0232134 -0.0253441 -0.00346648 0.0388475 
-0.017152 0.0238696 0.0220957 -0.02286 -0.0122621 0.0219663 -0.0140473 -0.0186483 0.0102138 0.187976 -0.00644075 -0.0284325 -0.0942509 -0.0161073 -0.0100663 -0.0105098 0.0189898 -0.0297791 -0.00599034 0.0314173 0.0487303 0.0217988 -0.0216709 -0.0229704 0.0400878 -0.015049 0.00383713 -0.00415544 -0.0111181 -0.0135129 0.0120217 0.0389238 0.0154742 -0.000304315 0.0501149 0.136613 -0.0276535 -0.00921007 -0.0316604 0.0308088 -0.0150778 0.016128 0.021431 0.0676429 -0.0354455 0.0154938 0.0421892 0.0358749 0.0523097 0.00444746 0.0038571 -0.00651389 -0.00347773 0.0133598 0.0195333 -0.054909 -0.0278432 -0.0229694 0.0109178 0.00115201 -0.0322918 -0.00137908 -0.0173711 0.251695 
-0.026734 0.0107 -0.00924933 -0.0225569 -0.0249106 -0.120205 -0.0668752 0.0058988 -0.00812195 -0.21932 0.0145257 -0.00537315 -0.0714808 0.00581065 0.00126706 -0.0244689 -0.0170186 0.0275193 -0.12965 -0.144844 -0.117507 0.0229428 0.0281475 0.0203185 -0.171785 0.0175745 -0.00565754 -0.035105 -0.0280304 0.0799562 -0.00600583 -0.0929389 0.023376 0.00880468 -0.096342 0.10161 -0.0162703 -0.0252609 -0.00813957 0.0289463 -0.0150976 0.000565309 -0.0283889 0.0854555 0.00270423 0.0313169 -0.125506 0.0375225 0.029593 -0.0251976 -0.012083 0.0160019 0.0182894 -0.0150525 0.0292132 0.000540987 -0.0320201 0.0284584 0.0402802 -0.0104581 -0.100027 -5.01817e-06 0.0123625 0.239883 
-0.0291825 0.00390701 0.032015 -0.0139481 0.0072364 -0.00541107 0.0181579 0.0141568 -0.0273488 0.0315246 -0.0162449 -0.0152289 -0.0151341 0.0224528 0.015218 0.0211157 -0.0164626 -0.0236264 0.022578 -0.035185 -0.0156362 0.0236404 0.0222735 -0.00305753 -0.0240015 0.0258752 0.0182094 -0.00941526 -0.0194264 0.0432837 -0.00807347 -0.0198221 0.0142307 -0.0119897 -0.00259355 -0.0068969 0.0206425 -0.00890441 -0.0306618 0.057564 -0.00862362 -0.0124452 -0.0217308 0.0255827 -0.00261671 0.0503055 0.00426897 0.0160181 -0.0268056 0.0101603 0.00114101 0.0313769 0.00703648 -0.00784446 0.0347633 0.0212988 -0.0189095 0.0436766 -0.0125412 -0.00588685 -0.0165877 0.0180238 0.0117675 0.0190658 
-0.0304328 -0.00451092 -0.0104426 0.0214461 0.0100726 -0.00167947 0.0215627 -0.0273306 0.0116879 -0.0143221 0.0268911 0.021432 -0.0543127 0.00365741 -0.0188166 0.0292342 -0.015299 0.0174004 0.00531133 0.0355607 -0.0120487 -0.00598501 0.0177123 -0.00831168 -0.0102439 -0.0218488 0.0186343 -0.0245709 0.0113176 0.0241828 -0.0103396 0.0264512 0.0127573 0.00765669 0.0172654 -0.0149412 -0.0301054 -0.0255613 -0.000434284 0.0147007 -0.0108332 -0.00895508 0.00410012 0.00145337 0.0364516 0.0327348 -0.0142308 -0.00298788 0.00895673 0.0102498 -0.0240769 0.0290037 -0.0303628 0.0249781 -0.0215572 -0.0388142 -0.0289036 0.038782 0.00189307 0.0249851 -0.00441475 0.0265085 0.0137689 -0.000629529 
0.0011397 -0.00706488 -0.00243933 0.00234305 0.0229893 0.0464596 0.0115741 -0.0199101 -0.0122781 -0.147196 -0.0047577 -0.0158754 -0.0999357 0.00408163 -0.00129653 -0.0163523 -0.0331382 0.00811818 -0.00642392 0.0311223 0.0413343 -0.0224563 -0.00545564 0.00682056 0.0243059 0.0199852 -0.000175251 -0.0230934 0.0104814 -0.0221772 0.00562184 0.00478556 0.0100267 -0.0279718 0.0394542 -0.0571849 -0.029747 -0.0488708 0.020155 -0.0356965 0.0305864 -0.0230908 0.00700937 0.030406 -0.00214223 -0.0237397 0.0383285 0.0287197 0.021702 0.0256543 -0.016096 -0.0403051 0.0265852 0.00991844 0.013594 -0.0541247 0.0089816 -0.0294769 8.97781e-05 0.00404582 0.00502914 -0.0292412 0.0245363 -0.00145751 
-0.0200901 0.0241672 0.0241964 -0.018578 -0.0304089 0.0311594 0.0201345 0.030197 0.0173283 -0.00403167 0.00756767 0.00140596 -0.00325492 -0.00298948 -0.00372614 -0.0268747 -0.0191937 0.0161121 0.0213573 0.0180647 0.0221087 -0.0119941 -0.0114647 -0.0242205 0.0540516 0.0204226 0.00989256 -0.00547214 0.0243898 0.0082501 0.0210713 -0.00689283 -0.00498637 0.0130099 0.00823375 0.023314 -0.00931046 0.011872 -0.0067152 -0.0206424 0.0265613 -0.029624 0.0105193 -0.0198785 -0.00969476 -0.0193076 0.0175076 0.0197896 0.0248794 0.0171548 -0.0261981 -0.0232412 -0.0225213 -0.00651438 -0.000841681 0.018491 -0.0166073 -0.0358086 -0.00876337 -0.0227812 0.0177477 -0.0179976 -0.0155243 0.00533766 
0.0285294 0.0558944 0.0176326 -0.0110507 -0.0047896 -0.104115 -0.0587651 -0.00594924 -0.0276737 -0.256853 0.00424259 0.00185758 -0.0349072 -0.0285572 0.00229947 -0.0157248 0.00599109 -0.00469643 -0.077547 -0.0708799 -0.0599023 -0.00973419 0.0224145 -0.025951 -0.13604 -0.0129345 -0.0155498 -0.0339045 -0.00282055 0.110416 -0.0175173 -0.0597822 -0.024683 0.0205114 -0.0474128 0.0306909 0.0236984 -0.0100635 0.0129727 0.0893269 0.00313317 0.00641543 -0.00077785 0.0755079 0.0648305 0.0770091 -0.0639141 0.0577605 0.0168021 -0.00195329 -0.00313217 0.074349 0.0112491 -0.0119271 -0.00882432 -0.023471 0.00174974 0.0875718 -0.0171174 -0.0260864 -0.0895825 0.00649368 0.00783349 0.0999245 
-0.0207312 0.0124113 0.0100495 -0.0282726 0.0159976 0.0161426 -0.0239798 -0.0197965 -0.0170823 0.0291219 0.0264532 0.0264162 -0.0153243 0.0255876 -0.0068866 0.0132278 0.0081013 0.0245901 0.0349577 9.40467e-05 -0.00766004 -0.0276618 -0.00798689 0.0185151 0.0201792 0.0038107 0.0269 0.00508945 0.0188312 0.0337502 0.014785 0.0394031 -0.0298838 -0.00735987 -0.0197424 0.0290688 0.0292944 -0.033446 0.0264176 0.00209768 0.00128712 0.0240015 -0.0228819 0.0289674 0.0350544 0.0185087 0.0232388 0.00560342 -0.00326588 0.00274702 0.00893822 0.0404401 0.00953132 -0.0303055 0.00666964 -0.0192951 0.000276819 0.0210612 0.0216026 -0.0130707 0.0303808 0.012194 -0.0119572 0.0500902 
0.0305196 0.0171482 0.0223387 0.0292237 -0.00675852 -0.0500434 -0.0657903 0.0279396 0.00654431 -0.178734 0.0195774 -0.00686053 -0.0215775 0.00499679 0.0227932 -0.00984855 -0.0287879 -0.00694723 -0.103971 -0.0615096 -0.0716387 0.0108927 -0.0280813 0.025942 -0.0700595 0.0262198 -0.0163506 0.0123813 -0.00595759 0.0594828 0.0234818 -0.0445483 0.0251694 0.00870442 -0.0531378 0.0242661 -0.00743611 0.00251917 -0.0226141 0.0547928 0.037425 -0.0221506 -0.00664721 0.0712223 0.0386133 0.00774988 -0.0920829 0.0566466 0.0247633 -0.0241329 0.0136844 0.0688055 0.0110003 0.0169368 0.0242422 0.00162786 0.0105845 0.0133515 0.0075224 -0.0151602 -0.0292313 0.00107725 0.019471 0.127173 
-0.0281416 -0.0413771 0.0179912 -0.00435707 -0.0292011 0.0240985 0.0419814 -0.0305907 -0.0122644 -0.0912785 0.0327657 -0.0278714 -0.0557029 -0.0234431 -0.0380742 0.00476791 -0.0574111 0.0133272 0.060824 0.0577404 0.0679195 -0.0129482 0.0135362 -0.017487 0.0991383 -0.0387734 -0.000683508 -0.0251226 0.0102496 -0.0781472 0.0227108 0.0411177 0.00846565 0.0131302 0.00918005 -0.048387 0.0235648 0.000666417 0.0219528 -0.0844687 -0.0104012 0.00665537 -0.0145288 -0.0197577 -0.0503919 -0.0453768 0.0116404 -0.0567591 0.0134148 0.013261 -0.0178987 -0.11806 -0.0264638 0.0269591 -0.0239196 0.00128576 -0.0177911 -0.124224 0.0197301 0.0262388 0.0227209 -0.00295164 0.00591226 -0.0969783 
0.00102616 -0.0573656 -0.00412291 -0.00674168 -0.00865181 0.0687376 0.0297152 0.0146425 -0.0208959 0.15266 -0.0143324 0.0220902 -0.311757 -0.0268856 -0.0569271 -0.0251068 0.0201454 -0.0151201 0.0816263 0.0764146 0.0275021 0.00268752 -0.00430445 -0.00283506 0.0603671 -0.0262361 -0.00868334 -0.0728006 -0.0435954 -0.127417 -0.0202478 0.0636642 0.0147381 -0.0356967 0.0319332 0.0756984 0.00440123 -0.058087 0.0256178 0.00244733 -0.00853719 -0.0252134 0.0109286 0.156602 -0.0768099 -0.0632503 0.084797 -0.0967112 0.0838409 -0.00948711 -0.0256529 -0.145806 0.004444 0.00141302 -0.0213589 -0.0881678 -0.0333033 -0.144884 -0.0279902 -0.0192672 -0.0154451 -0.033488 0.0191011 0.211317 
-0.0117608 0.0487885 0.0282989 0.0245354 0.00907335 0.0193772 0.00623718 -0.0218788 0.0269614 0.0271627 0.0167471 -0.0100782 -0.0498903 -0.00824449 -0.0162111 -0.0312485 0.024049 0.0112503 -0.0211496 -0.00933121 -0.0157411 -0.00226956 0.000507004 -0.0129897 0.0157731 0.0132478 -0.000697012 0.016784 0.0239395 0.0307538 0.00773066 -0.0140939 -0.00876765 0.00161452 -0.0201479 -0.00554424 -0.00980416 0.00360947 -0.0383065 0.0612059 -0.0423659 0.0253604 0.00987131 -0.028881 0.0116593 0.00143046 -0.0232873 0.000323155 0.0215788 -0.0101664 0.00558808 0.0122757 -0.0188512 -0.0251798 0.00959143 -0.047605 0.013805 0.0582709 0.0113987 0.00262389 -0.00715396 0.00537112 0.028521 0.0571039 
-0.0282054 0.00166211 0.0151339 -0.00660704 0.0265702 0.0227149 0.0085629 -0.0288064 0.0196024 -0.0190662 -0.0214515 -0.0178963 -0.00699837 -0.0108853 -0.00945712 0.00327378 0.0317174 -0.0303447 0.0144263 0.0148767 -0.0290463 -0.0178023 0.0241988 0.020181 -0.021917 0.0286841 0.0022234 0.00122208 -0.0203844 0.0509908 -0.00724377 -0.0081893 0.00694509 -0.0238853 0.0142323 -0.0136576 -0.0300767 -0.0276247 0.00283415 0.0591299 0.0166556 0.0163265 -0.0265164 -0.00420159 0.0134413 0.0237351 0.0306426 0.042589 -0.000117588 0.0145203 0.0069201 0.0773031 -0.0372427 -0.00030004 0.0150795 -0.0298117 -0.0141867 0.0319688 0.0260758 0.0016091 -0.00213644 0.00382941 0.0268185 -0.0150783 
-0.00141676 -0.0141124 -0.00128276 0.00014475 -0.0213168 0.0391389 0.0225909 0.0271393 -0.029971 0.0531666 -0.00130981 -0.0280186 -0.242124 -0.0169311 0.0065488 -0.00239564 -0.0213033 -0.00111756 0.0391472 0.0450121 0.0812401 0.0172158 -0.0012124 -0.0141595 0.0758108 -0.00873831 0.0230211 -0.0693179 -0.00156311 -0.0399774 -0.0150932 0.0311239 -0.000408236 0.0218223 0.0678688 0.0600463 -0.0196264 -0.081111 0.0156778 -0.0290399 0.00458869 -0.0277137 -0.0108776 0.131245 -0.0283187 -0.0479431 0.0284052 -0.0152552 0.0530202 -0.0191751 0.0286202 -0.0423902 0.0120008 -0.00367397 0.0131671 -0.0664918 -0.0323694 -0.0269694 -0.0054725 0.0272492 0.02388 0.00486318 -0.0225224 0.0845809 
0.00671653 0.0317537 0.0338475 0.0194604 -0.0158704 -0.0740444 -0.0879335 0.0224753 0.00479705 -0.211652 -0.0129818 -0.0246973 0.00627633 -0.00243074 0.0313585 -0.0171309 -0.00958598 0.0200351 -0.0606756 -0.114129 -0.0925899 0.0321691 0.00643583 -0.00761086 -0.119897 -0.0249307 -0.0147717 -0.013793 0.0133784 0.12424 -0.00295249 -0.0672067 0.00260915 -0.0130862 -0.0862745 0.0537034 0.0189751 -0.0116534 -0.0125814 0.0717439 0.00770981 -0.0283879 0.00110565 0.0379775 0.0663503 0.0561977 -0.104682 0.0426805 0.0154194 -0.027961 -0.00406643 0.12168 -0.0311962 -0.028877 0.0422736 0.0200678 -0.0299471 0.0901322 -0.0242322 0.0163238 -0.0510014 0.0187967 -0.0180131 0.111169 
0.0173019 0.0495407 -0.0236438 0.00513436 0.00745071 0.0570116 0.0615301 -0.0201317 0.0182337 0.11548 -0.0137942 -0.00962552 -0.00804542 0.00575794 -0.0135229 -0.0167651 0.0433294 0.0279313 0.0703492 0.0791959 0.0760262 0.00600803 0.00944496 -0.0282925 0.0345798 0.0287245 0.0259281 0.0110905 -0.0256218 0.0899419 -0.0255035 0.0631363 0.00225369 -0.0214561 0.0391458 0.0232492 0.0229314 -0.0174614 -0.0215519 0.0901607 -0.0394391 0.00693385 -0.0273904 -0.029208 0.0435793 0.0562844 0.0352404 0.0319882 -0.00475575 -0.0243978 0.0297738 0.109382 0.027319 0.00796511 0.0340829 -0.0466622 -0.0115755 0.0983013 0.0132315 -0.0095241 0.0113943 0.0464998 -0.00605434 0.0546175 
-0.0257471 0.0699095 -0.00339806 0.0300108 -0.00250378 -0.0654439 -0.0492075 0.00107018 -0.0165183 -0.174488 -0.00400946 -0.00333472 -0.0213 0.0213767 0.0130409 0.0181336 0.0161724 0.000180608 -0.098605 -0.0790734 -0.108159 0.0368442 0.026389 -0.0030447 -0.138433 0.016803 0.0265852 0.0264309 0.0116175 0.0813683 -0.0242988 -0.038045 -0.0134187 -0.00524647 -0.046763 0.0491211 -0.0273298 0.00562767 -0.029133 0.0453041 -0.0104194 0.0186952 0.0165455 0.0627971 0.0539134 0.0345869 -0.105161 0.0558579 0.0533689 -0.00531541 0.00158176 0.109093 -0.00923011 -0.00325393 0.00049271 0.0230395 -0.0206352 0.0640296 0.0214308 0.0261207 -0.0435828 0.0346344 0.0177544 0.145259 
-0.0152176 -0.0117231 0.00772344 -0.011316 -0.0257648 -0.00659761 0.0206589 -0.0136063 0.021128 0.0405699 0.019432 -0.000338922 -0.0785767 -0.0287849 -0.0327788 0.00708122 0.0103322 0.0109277 0.034634 -0.0013203 -0.003023 -0.0249156 0.0210815 -0.00863435 0.0215332 -0.000140387 -0.0113232 -0.0380701 -0.0131711 -0.0634775 -0.0241747 0.0305367 0.0122233 0.0199085 0.0527744 0.0522196 0.0222365 -0.0157853 -0.0276525 0.0144507 -0.0314433 0.0237741 -0.01744 0.0686864 0.0119841 -0.0272707 0.0236608 -0.00934699 -0.0110088 -0.027739 0.0157453 -0.054086 -0.0259563 0.00561168 -0.00567587 -0.0223301 -0.0194729 -0.00807786 0.0053416 0.00718515 0.0328764 0.00934459 -0.0140288 0.0756457 
0.00553926 -0.00953821 -0.00230064 -0.00347188 0.02735 0.0207013 -0.0111922 -0.0312659 -0.00314701 0.00181226 0.0220306 -0.00378288 0.0291752 -0.0137687 -0.0278066 0.0173269 -0.0159991 0.0225315 0.0481684 0.0151537 0.0147971 -0.00344997 0.0264009 0.0109058 0.01278 0.00381855 -0.0119646 -0.0154962 -0.0145107 0.0111598 0.0294266 0.0372621 0.0257637 -0.00481675 0.00419032 0.0499743 0.0307257 -0.00828174 0.0210044 -0.000194929 0.0177451 0.0119299 0.0247314 -0.00429109 0.0260868 -0.0297477 0.0103665 -0.0102416 0.0197633 -0.0123275 0.0142843 -0.0166131 0.0190773 0.00933603 -0.0300878 -0.0288242 -0.0182433 -0.0165876 -0.00686239 -0.0012177 0.0307943 -0.00687618 -0.00775883 0.0488069 
0.0210484 -0.0194659 0.00388992 0.0206125 -0.019301 0.0300105 -0.00475031 -0.0307342 -0.014071 0.0292526 0.00639062 -0.017093 -0.117118 0.0247481 -0.00476196 -0.0285229 -0.0167341 -0.0134539 0.0213052 -0.0104327 0.0438235 0.00364094 -0.0228564 -0.0215284 0.0362015 -0.00264427 0.0102201 -0.000237414 0.0234123 -0.0974142 0.00384952 0.0406494 0.0162414 -0.0156693 0.0326429 0.0676518 0.0227938 0.00669759 0.0308076 -0.0419361 -0.0253922 0.00456605 -0.00669583 0.045834 -0.0275212 -0.00559479 0.0180201 -0.0174986 0.00720045 0.0141273 0.0196088 -0.0739012 -0.0233897 0.028013 -0.0232334 0.0044553 0.00347757 -0.0174101 0.00472516 0.00479957 -0.0254366 -0.0314392 -0.00831809 0.090414 
-0.00473453 -0.00858861 0.0182081 -0.0131852 -0.0309908 0.0150112 -0.00939397 -0.0237797 -0.00833393 0.00886107 -0.00617094 0.0249436 0.00544865 0.0161507 0.00849879 -0.0307758 0.0129186 0.000818591 -0.0222862 9.64612e-05 -0.00636003 -0.001204 0.000458085 -0.0287189 -0.00721677 -0.0184765 0.00806685 -0.0032363 -0.0231919 0.00857346 -0.00637505 0.00946239 -0.0256131 -0.0199116 0.0256965 -0.01942 0.0292758 -0.0273176 -0.0188805 0.0182554 -0.02156 0.00842513 -0.0151521 0.0280764 0.0191193 0.0456799 0.0283131 0.0434452 -0.00251573 -0.0232964 0.000758085 0.0739696 0.0053331 -0.0301788 -0.0194954 -0.0326773 -0.0249106 0.050059 0.0153814 -0.0130868 0.0104449 -0.0112704 0.0298534 0.0382704 
-0.00975788 0.0919156 0.0418375 -0.0101721 -0.0115981 -0.0728795 -0.0174367 3.15352e-05 0.0130128 0.0435921 -0.00883672 -0.0243439 0.114349 -0.00281649 -0.0239073 -0.00742723 0.0086474 0.00160396 -0.0658951 -0.0714972 -0.0446888 -0.00569264 0.000107454 0.0108318 -0.106899 0.0104235 -0.0303485 0.0301878 0.0042938 0.0921026 0.000386256 -0.0138051 0.0282862 -0.00707205 -0.0582394 -0.013119 -0.000646424 0.0327072 -0.0158914 0.0595501 0.0161273 -0.0178456 -0.00991626 0.012363 0.0841457 0.0515711 -0.079002 0.0500863 0.0371719 -0.0100095 0.00803542 0.1287 0.0219034 -0.0231521 0.0236669 0.0309689 -0.00825185 0.0973664 0.0048649 0.0154322 -0.0770417 -0.00373456 0.0122571 -0.0155633 
-0.00102246 0.0390715 -0.00533174 0.02962 0.0135962 -0.0189417 -0.0222403 0.00158205 -0.00365143 0.0130906 -0.0178512 -0.0220528 0.000100797 -0.00948091 -0.00449526 0.025549 0.0395663 -0.0240649 -0.00508031 0.0039233 -0.0192486 0.00223716 0.000116967 0.0089283 0.0118519 -0.0185159 0.00205926 0.0176014 -0.0280336 0.0178242 -0.0249551 0.0121946 -0.0256297 0.00068234 0.00930121 0.0352326 0.0126919 0.000534456 -0.0116639 0.00277848 -0.00745218 0.00506095 -0.0117563 -0.00845841 0.0549508 0.0346465 -0.010468 0.0331903 0.0247982 0.00986475 -0.00719237 0.0280381 -0.017976 0.0240775 0.0304661 -0.044292 0.0294416 0.0351283 0.0296484 -0.0238994 0.00700498 -0.0154958 0.0200949 0.034429 
0.00741175 0.00113737 -0.000506768 -0.0108068 -0.0106957 0.0284931 0.00196046 0.0156629 -0.00579946 0.0195348 -0.0209452 -0.00969636 0.0201382 -0.00278305 -0.0269822 0.000903963 -0.0254673 -0.00121352 0.0205382 0.00318644 -0.00346125 -0.000711747 -0.000308602 -0.00985509 0.0294687 -2.9245e-05 0.000842286 -0.00455311 0.00525587 -0.00615766 -0.0225989 -0.0111726 0.020408 0.00771046 0.00998315 -0.00336709 -0.00264874 -0.0328266 0.0255462 0.0252729 0.0186424 -0.0275015 -0.0174934 -0.0103197 -0.00209321 -0.0101868 0.0370597 0.0131269 0.0172334 0.00790888 -0.0224687 -0.0269174 -0.0225878 0.00840672 0.000502437 0.0277258 -0.0227992 -0.0349147 -0.00478629 0.0139474 -0.00514639 0.00452897 0.0280497 -0.00555617 
-0.0181473 0.0538038 7.91867e-06 0.0109352 0.00222782 -0.00585449 0.00731777 -0.00851451 -0.0109388 0.101415 0.017131 0.0215798 -0.083315 0.00821141 -0.0200935 0.0240688 0.0144385 0.0122419 -0.0216603 0.00556666 -0.00446206 -0.0186584 -0.0018521 -0.00318547 0.0134366 0.0424191 -0.0181364 0.00466916 -0.0175832 0.0843984 -0.0192094 0.0254869 0.0109402 0.00425385 0.00467884 0.0351519 0.0214255 -0.0114609 -0.012191 0.0553019 -0.00586449 -0.00881995 -0.0270284 0.0178359 0.0224031 0.0561147 0.0239613 0.053237 -0.0218418 0.0140904 0.0270744 0.0937722 -0.0136917 -0.0060374 0.00217384 -0.00908848 -0.0108644 0.0652447 0.0112493 0.011495 -0.00641872 -0.0120213 0.00223682 0.0657321 
0.00890307 0.12205 0.00654863 0.000611573 0.0233909 0.0509526 0.0262574 0.00504409 -0.0155623 0.158434 -0.00872152 -0.00772679 -0.0733337 -0.0367713 -0.0232058 0.0121626 0.042473 0.0189601 0.0114998 -0.00197765 0.00140418 -0.0507243 0.0305801 0.000161289 0.0357813 0.0497149 -0.00947568 -0.047469 0.0101922 0.209798 -0.00554216 0.0333516 0.0204029 0.0183071 0.00354741 0.09917 0.0144993 -0.0392607 -0.048897 0.105901 -0.0309448 0.00792279 -0.00196914 -0.0322825 0.0950143 0.0764571 0.0425591 0.0981837 -0.0435346 -0.0301518 0.00430219 0.13599 -0.00121071 0.00360715 0.0679041 -0.0752227 -0.00396251 0.114029 -0.0277075 -0.0239788 -0.0311213 0.0494191 -0.0286928 0.180742 
0.013089 0.0243765 0.0148653 -0.00271757 -0.0290076 0.0297137 0.00248965 0.00990068 0.00312649 0.0838166 0.00954185 -0.0149176 -0.0502565 -0.0133149 -0.00433677 -0.00185962 0.00928416 -0.0103537 0.0213384 0.0260295 0.0263043 -0.0085554 -0.0225665 -0.0116191 0.026539 0.0202777 0.0153438 -0.0521132 -0.0116095 0.104506 0.0283557 -0.00634177 0.0298306 0.00594691 0.0209301 0.0126069 0.000541019 -0.0484727 -0.00434204 0.035206 -0.0336391 -0.0103812 -0.00793205 0.00305284 0.0469256 0.0168483 -0.0220186 0.0223809 -0.0107912 0.0210606 -0.030258 0.0509414 0.000772614 -0.0215725 0.0308062 -0.032615 0.0188331 0.0497747 -0.0145156 -0.0173457 -0.0240845 0.00408899 0.00721236 0.0475366 
-0.0318023 0.042448 -0.0095687 0.00158127 0.00560879 0.0188849 0.00109484 0.0197501 -0.0203665 0.0995586 -0.00758535 0.0256952 -0.0703482 -0.0167285 -0.0613711 0.00510862 -0.00557933 -0.0264731 0.019381 0.00965816 -0.0224847 -0.0290028 -0.0173343 -0.0296074 -0.0402678 0.0223805 -0.00752332 -0.0240247 -0.0327895 0.0744245 -0.001042 -0.0279306 -0.00938665 0.0125849 0.00651829 0.0665697 0.00551036 -0.0402715 -0.0115631 0.165334 -0.0447943 -0.0247878 0.0149263 -0.0140593 0.0431318 0.0685519 0.0212928 0.0722493 0.0201365 0.0237734 0.00525684 0.0478561 0.0018787 0.0191361 -0.00222153 -0.0265369 -0.00276917 0.0664536 0.00100194 -0.00880688 0.00464165 -0.00022041 0.0127417 0.0515847 
-0.0290242 -5.92291e-05 0.0207083 0.00789353 0.00637981 0.0329192 0.024051 0.0198804 0.0129183 0.0979309 -0.0152374 -0.0167353 -0.061902 -0.0222557 -0.0487351 0.0263044 -0.0499039 0.00977801 0.00308074 0.051785 0.0395363 -0.00793733 -0.0272973 0.027656 0.0677021 0.0267944 0.0031169 -0.0299279 -0.0242398 -0.00161742 -0.0194651 0.0113031 0.00438222 -0.0339078 0.0528188 0.0983186 0.006782 -0.0479074 -0.0394169 -0.00150016 -0.00589362 -0.016783 0.00702182 0.0771854 -0.0249643 0.0142219 0.0342194 0.00385426 0.0277857 0.00674752 0.0308431 -0.016485 0.0201641 -0.0279767 0.0162054 -0.035236 -0.0290565 -0.0440214 0.0156427 -0.0160665 0.00588832 -0.0335001 0.00575644 0.0369957 
-0.027143 0.0377265 -0.00796202 0.0110279 -0.0309734 -0.00984496 -0.0374356 0.00602134 0.0104411 -0.00654046 -0.0205216 -0.0266077 -0.0380157 0.0155311 -0.00378527 0.00984319 0.019983 0.00273883 -0.00731852 -0.0337745 0.000596476 -0.0213346 0.0129724 0.0105171 -0.00962977 0.0173979 -0.0286908 -0.0365993 -0.00518737 0.0765389 -0.0127638 0.0104572 -0.0114914 0.0100421 -0.0126109 -0.0334004 -0.0262042 -0.0399371 0.0237195 0.0618132 0.0264808 -0.0230175 0.0223161 -0.0126004 0.0724579 0.0233872 0.0264054 0.0159147 0.0264139 -0.00673466 -0.00748113 0.0918761 0.000128286 -0.0259317 0.00691482 -0.0402483 0.00892062 0.0670484 -0.0126772 -0.0195771 -0.0316288 0.0257828 0.026535 -0.0044982 
-0.0111094 -0.0677932 0.0015631 -0.00555232 0.010942 0.106088 0.0770004 0.00828249 0.0155557 -0.249672 0.0447608 0.00547088 -0.0650212 0.0278183 0.0114989 -0.00663137 -0.101627 -0.0164684 0.0886391 0.145476 0.131464 -0.0305711 -0.0163455 -0.0311959 0.204893 -0.0375614 -0.0143649 -0.00881318 -0.013532 -0.134342 -0.0269294 0.0656031 4.6051e-05 0.0123824 0.0368391 -0.134856 -0.00746229 -0.0256302 0.041083 -0.142137 -0.0251099 0.0205994 0.0175634 -0.014832 -0.102245 -0.0447673 0.0639908 -0.0752029 -0.00575181 -0.00821505 -0.0138535 -0.23301 -0.000331405 0.00123677 -0.0856257 -0.0398665 -0.0194488 -0.193677 0.00616027 0.00375182 0.0580228 -0.0162322 -0.0263836 -0.157131 
0.00570513 0.00450584 -0.00216831 0.0295316 -0.00743905 0.0576501 -0.00288174 0.00741299 -0.0212708 0.0307757 -0.00963782 -0.0320568 0.117685 -0.00961544 -0.0319178 -0.00395047 -0.00185543 0.00124985 0.0916173 0.0767794 0.013228 -0.00298888 -0.0309386 -0.0134838 0.0526131 0.0154472 0.021774 -0.025125 0.000628887 0.0776125 -0.00176226 0.0365167 -0.0221628 0.0247945 0.0410219 0.150009 -0.0144926 -0.0239967 -0.0293434 0.0272916 -0.0430811 4.74626e-05 -0.000388969 -0.076503 0.039735 0.0356421 0.0603326 0.0245531 -0.0527236 0.0153365 -0.00126523 0.0108581 0.0246634 -0.00139617 -0.000134428 -0.0247422 -0.0143375 0.0195082 -0.0200395 0.0154373 0.0206768 0.0313631 -0.0281275 0.132384 
0.0228218 0.00958387 -0.0151643 -0.0222644 0.00478789 0.0678957 0.0350703 0.0142848 0.0257568 -0.0109897 -0.0019746 0.0235554 0.128417 0.000441473 -0.0200458 -0.0233317 -0.0138106 0.0251441 0.0844812 0.0401964 0.0404798 -0.0478085 -0.00385554 0.0101873 0.081349 0.0218153 0.00684001 -0.0198291 0.0149022 0.0553176 -0.0312455 0.0713582 -0.0316764 -0.0181775 0.0872649 0.152262 0.0117152 -0.0162841 -0.0186944 0.0360774 -0.0154566 0.0171549 0.00365369 -0.0876243 -0.00263261 0.0485017 0.093642 0.0413368 -0.0103365 -0.0303271 -0.0283935 -0.00470055 -0.00534767 -0.00147399 -0.0440828 -0.0414234 -0.00560899 0.0139637 -0.0273847 -0.0235978 0.0110215 -0.00740981 0.0264454 0.108579 
0.0049662 0.0441855 0.0332365 -0.0132664 -0.0105607 -0.0126616 0.0245558 0.0271658 -0.0269235 0.044672 -0.00569139 -0.00153187 -0.0236345 -0.0383311 -0.0346011 -0.00646072 -0.0171349 -0.00827702 0.0103283 -0.00909815 0.0212655 -0.0118568 -0.00302484 -0.0118171 -0.0159262 0.0232067 0.00582487 0.00782313 -0.0281658 0.0509899 -0.0251697 0.0132154 -0.00394672 -0.0267963 -0.0304133 0.0447653 -0.00729394 0.0109751 -0.00554384 0.0821061 -0.0233147 -0.0255326 0.0297555 0.0203888 -0.00290343 0.00845836 -0.0114182 0.00658417 0.00519913 -0.028039 0.0092586 0.0393512 0.0186862 -0.0250446 0.0338809 -0.0428006 0.0229037 0.0299424 0.00828445 -0.0405436 -0.0271595 0.0339446 0.0138736 0.0460196 
-0.0291779 0.0392548 -0.0107046 -0.0048571 0.0105262 -0.0335419 -0.0196462 -0.0245638 -0.0270526 -0.0895676 -0.0354083 -0.0199231 -0.0590318 -0.00853442 -0.000508943 0.0244547 -0.00572948 -0.0258997 -0.0759019 -0.0985717 -0.0861404 -0.00140253 -0.00796825 -0.0264413 -0.0815646 -0.0130651 -0.0259238 0.00920358 -0.0267537 0.0707013 -0.0104048 -0.0562632 0.00195021 0.00496852 -0.0360384 0.0310314 0.00336247 -0.00629549 -0.0200951 0.0252015 0.00359623 -0.00865069 0.0199901 0.0554157 0.0348865 0.0113788 -0.0593551 0.0102967 0.00720684 -0.037814 -0.00111439 0.0330305 -0.0106578 0.0222778 0.0108526 -0.0304473 -0.0259518 0.0412172 -0.0259447 -0.0101373 -0.0403868 -0.00420233 0.00494878 0.108012 
0.0267505 0.0223614 -0.00792961 -0.000876587 0.0227242 -0.104852 -0.0991322 -0.0102256 0.0272184 -0.216227 -0.0425915 0.0120017 -0.115106 0.0057295 0.0338626 0.00531768 0.00487877 -0.00293507 -0.149352 -0.163042 -0.120816 0.0319878 -0.0169143 -0.00290359 -0.169163 -0.00890864 0.0180544 0.00342094 -0.0110224 0.0680391 -0.0284888 -0.0678575 0.00892983 -0.0146529 -0.110891 0.0778877 0.0229156 -0.0530617 0.00762637 0.0140809 -0.0185924 0.025228 0.00248951 0.0680968 0.0313103 0.0400762 -0.0874084 0.0274299 -0.00644324 -0.0472572 -0.00543113 0.0348692 0.0140186 0.00917327 0.0239524 -0.0380506 0.0244391 0.0472135 -0.00712844 0.00405312 -0.0483485 -0.00164882 -0.026646 0.245649 
0.00708979 -0.052061 -0.0324736 -0.00134845 -0.0130377 0.100096 0.0575503 -0.00937576 0.0271436 -0.197971 0.0266089 -0.00102336 -0.0631207 0.0080346 0.0163851 -0.00739899 -0.0789708 -0.0143497 0.100161 0.126444 0.132496 -0.00861223 0.0126318 0.0253876 0.117221 -0.0722151 -0.00226933 -0.04305 -0.00719123 -0.0588154 0.0105139 0.066348 0.0112814 0.0136253 0.039484 -0.0617533 0.0176193 0.0135963 0.0113562 -0.0609007 0.00119119 -0.0263109 -0.0150785 0.014461 -0.089558 -0.0531585 0.0490996 -0.0333756 -0.0271408 -0.0112196 0.025241 -0.195555 0.0101819 0.00681171 -0.0758139 0.0069661 0.0104 -0.15293 0.0103779 -0.0246988 0.0205725 -0.0357315 -0.0345783 -0.133631 
-0.0169073 -0.0334655 -0.0410247 -0.0305895 -0.0193759 0.00910643 0.0142509 0.0159767 0.000848788 0.0694073 0.0164848 -0.0164633 -0.13911 -0.0297744 0.00323585 0.000299208 -0.0187676 0.00634959 0.0412011 0.0241664 -0.00989483 -0.0148961 -3.05425e-05 0.0301495 0.0284478 -0.0209087 -0.0288912 -0.0392046 0.00577082 -0.0921673 -0.0197541 0.041171 -0.000182826 -0.0214212 0.0432802 0.0437561 0.00550451 -0.0123371 0.000471002 -0.0287314 0.0100742 -0.0184687 -0.00827012 0.0839029 -0.0379599 -0.0585965 0.0024979 -0.0303287 0.033927 -0.0199813 -0.00941369 -0.0227127 -0.0137574 0.0218846 0.0134086 -0.0437318 -0.0212766 -0.01651 -0.00996251 0.0267586 -0.025152 -0.00645972 0.0219127 0.0635077 
0.0138022 0.0328588 -0.017722 -0.0119327 0.00386349 0.0378879 0.0234922 -0.0178795 0.0243978 0.16848 -0.0281874 -0.0184639 -0.0137648 -0.0122004 -0.00229653 -0.000414324 -0.0199601 -0.0226238 0.0247634 0.0675183 0.0129927 0.00453578 0.0248688 -0.0202807 0.0401177 -0.0145635 -0.0244349 -0.0264354 0.0105496 0.0449125 0.0204561 0.0244269 0.0200523 -0.0327176 0.0456849 0.136405 0.0145078 -0.0559778 -0.00335688 0.0186908 -0.0396785 0.00987912 0.0247356 0.104193 -0.0485441 0.0141489 0.0220758 0.00580002 0.0635725 0.0177918 -0.015794 -0.0110859 -0.0204812 -0.0224938 -0.0295317 -0.0425106 -0.00231278 -0.0517764 0.0104008 -0.0185765 -0.0268237 0.000905663 0.0170601 0.114238 
0.00676753 0.0566572 0.00682856 -0.00888753 0.0292892 -0.0739985 -0.0626883 -0.031122 0.0143189 0.0249837 0.018022 0.0143024 0.084957 -0.0147494 -0.00881286 -0.00578621 -0.0294172 -0.00179887 -0.0698419 -0.0795403 -0.0394667 -0.00669679 0.00900655 -0.0213082 -0.0821508 0.0106902 -0.00210197 0.0194924 0.0376068 0.0716786 0.00344223 -0.0265779 -0.0298573 0.0285352 -0.00758712 0.0270379 -0.0301141 0.0434527 -0.0548708 0.0694375 0.0253499 0.0222631 -0.000407755 -0.00132257 0.0262459 0.0545815 -0.0288131 0.0221554 -0.005814 -0.0286868 -0.006114 0.113346 -0.00434754 -0.0283929 0.00451948 0.0336431 -0.00546128 0.0816837 -0.00289813 -0.00897522 -0.0264299 0.0441775 -0.0283896 0.0192808 
0.0264401 0.01039 0.0281944 0.0280045 0.0311816 0.0332482 0.0198583 0.0241325 0.013547 0.0470566 -0.00890777 0.0233262 -0.000669616 -0.0194124 -0.0453526 -0.0185666 0.00436746 -0.000373942 -0.014044 0.0308329 0.0123417 -0.041419 0.00959588 0.0301647 0.0217155 -0.015477 -0.00456392 -0.0120086 -0.0369017 0.0777017 -0.00687662 0.0410876 -0.000563064 -0.0157653 0.0383475 0.0363533 -0.0250348 -0.0180125 -0.0227733 0.0788742 0.00629954 0.0141478 0.0147418 0.0206756 0.0665713 0.0574895 -0.0144075 0.0343421 -0.020227 -0.0224919 -0.0202733 0.0867713 -0.0119777 0.0205666 0.0418546 0.0052911 0.0248384 0.0442837 -0.0104297 0.0196799 0.0137273 0.0362918 0.0257971 0.0500064 
-0.0209881 0.0297334 0.0147768 -0.0144404 -0.00193807 0.0427744 0.0267401 -0.0116251 0.0202246 0.0681821 -0.0162053 0.0190765 0.0538501 -0.0177546 -0.032903 -0.0309952 -0.0332395 -0.00732734 0.101264 0.100077 0.0545675 0.00353065 0.00888882 -0.0257765 0.0686406 -0.019444 -0.0279153 0.00040178 -0.0321909 0.0401734 -0.0308071 0.0380298 0.0175325 0.012135 0.0615708 0.0842138 0.0219574 -0.0211337 -0.00121172 0.0203537 -0.0129232 0.0165551 0.00254521 -0.0417746 -0.060965 0.0180492 0.0594069 -0.00263133 -0.0313699 -0.0246221 -0.0280129 -0.0645447 0.0221317 0.0117886 -0.00586923 -0.00762775 0.0253253 -0.0493864 -0.00692821 -0.0356583 0.00570622 -0.0036287 -0.0156453 0.0821126 
-0.0116548 0.0667806 0.00994402 -0.0205204 0.00142581 -0.0107724 0.0299907 -0.0286198 0.027336 0.0612159 -0.0168623 0.0278306 -0.0673188 -0.0085607 -0.0288602 -0.0120165 0.0216267 -0.00667813 0.0187416 -0.000992013 -0.0152785 -0.0419421 -0.0229609 -0.0302639 0.0198181 0.0255963 -0.0266914 -0.0457892 -0.0300215 0.0799978 -0.0054974 0.0181268 -0.0158565 0.0299785 0.0279549 0.0603271 -0.0221866 -0.0238687 0.00651494 0.0366552 -0.0428513 -0.0279775 -0.0262941 -0.017588 0.0388513 0.0346526 0.0168755 0.0174681 0.0112836 -0.0196858 -0.00818968 0.0945175 -0.0132783 0.000102904 0.0501066 -0.000114524 -0.0182267 0.032075 -0.037487 -0.00943642 -0.010468 0.0101025 -0.0286137 0.0800543 
-0.00206244 0.0348377 -0.00432625 0.00754603 -0.00378691 -0.00465624 0.0176487 -0.00267725 -0.0135225 0.172169 0.00959352 0.0162811 -0.109347 -0.0164988 -0.00633489 -0.0304928 -0.0087263 -0.0175273 0.0367806 0.023587 0.0227194 0.0329435 0.00923404 0.0259311 0.0304676 0.015997 -0.00701659 -0.0203404 -0.024371 0.0239538 0.0308602 0.0286325 -0.0176362 -0.00882881 0.00625675 0.156328 0.0106314 -0.0587569 -0.0409261 0.0496078 0.00894038 0.0227938 0.0175862 0.0473442 -0.024692 0.0184372 -0.00848036 0.0209091 0.0591521 -0.0370982 -0.00987194 -0.000803791 0.0275652 -0.0320197 0.0043668 -0.0115881 0.0179519 0.019593 -0.0292545 -0.0317188 -0.0346895 -0.0222428 0.0137289 0.22628 
0.00476963 -0.00758708 -0.0153629 -0.0158283 -0.0184725 0.0392908 -0.00235096 -0.026754 -0.0121269 0.0391259 -0.0202456 -0.00254352 0.0780983 -0.0182858 -0.0360993 -0.00122306 -0.0149587 -0.00498758 0.0235218 0.0153201 0.024544 -0.0157827 -0.0295255 -0.0154994 0.0341785 -0.0206836 -0.00960696 0.0115393 -0.0137065 0.00658722 -0.0110153 0.0617804 -0.015228 0.00325248 0.018679 0.0917931 -0.0309229 -0.0141606 -0.00210243 0.00872397 -0.0209108 0.0134847 0.0199742 -0.087513 0.0383255 0.0378673 0.0530564 0.0024279 -0.0350011 8.52443e-05 0.000940857 0.0306188 -0.0197965 0.00238309 -0.0347953 -0.00334101 0.015077 0.00569345 -0.0230538 -0.0310093 0.0153826 0.0109414 -0.0319489 0.0961544 
-0.0184173 0.0186298 -0.0124496 -0.0176835 0.00567622 0.0571779 0.0321685 0.0299248 0.0044637 0.0606129 0.0311411 0.00386592 -0.0403113 -0.000156006 0.0167556 0.0066216 -0.00767599 -0.00646209 0.0337572 0.0284095 0.0702704 -0.00882877 0.0136185 0.0108637 0.0820584 -0.0170546 0.0192724 -0.00739147 0.00718568 0.0974538 -0.0145333 0.0500286 -0.0287205 0.00428576 0.0024426 0.0257538 -0.00508447 -0.000638349 0.00204148 0.0255049 -0.0366309 0.00673417 0.00604228 -0.0131514 0.0183727 0.03337 0.0649941 0.018838 0.0212677 -0.0128718 -0.0098348 0.0960804 0.0147742 -0.027507 0.0230024 0.00170111 -0.0261361 0.0576574 -0.0297398 0.00864849 -0.0161577 0.00533819 0.00371745 0.018348 
0.02646 0.0453594 0.0297685 -0.00858503 -0.0143279 -0.0387909 -0.0359146 -0.0140574 -0.0280859 -0.0662462 0.000660562 -0.0213883 -0.000897749 -0.0017807 -0.00515279 -0.0121809 0.00875588 0.0114085 -0.0648539 -0.0475616 -0.0253562 0.0125826 -0.0201857 0.0206986 -0.0341517 -0.0100619 0.00356564 -0.0211823 0.00783064 0.0524927 -0.00773683 -0.0241806 0.0174207 -0.0173551 -0.00475922 -0.00713909 0.0114217 -0.00871493 -0.0224537 0.0593573 -0.0117857 0.0237296 0.025471 0.036635 0.0313763 0.0224687 -0.0750209 0.0169122 0.0402271 -0.0268161 0.0112034 0.0846707 0.0168898 0.0222705 0.013456 0.0204416 -0.0254277 0.0405225 0.029842 0.0140386 -0.0495227 0.00123125 -0.0101446 0.0427079 
0.00290556 0.00870112 -0.0271965 -0.0168858 0.00550658 0.0545383 0.0494126 0.0219335 -0.0152039 0.0238731 0.00652288 0.00870446 0.0959955 0.00197042 0.00555943 -0.0221776 0.00335183 8.48659e-06 0.0949518 0.0483588 0.0261754 -0.0321874 -0.0107612 -0.00299364 0.0507056 -0.0174612 -0.01507 0.0107014 0.00181901 0.0472603 0.0170728 0.0297698 0.0219537 0.0179806 0.0498904 0.143758 -0.0171999 -0.0204844 -0.019313 0.0287004 -0.0343004 0.0254092 -0.0185087 -0.0836941 0.00402943 -0.0114832 0.083006 0.00899935 -0.0302638 -0.00641571 0.0239101 0.0271235 0.0322924 -0.0185933 -0.0210854 -0.0160242 0.00129063 0.0112939 -0.0362785 -0.0303467 0.00236643 0.0303624 -0.0143374 0.0900193 
0.0170151 0.0648593 0.0211032 -0.0298476 -0.0231346 -0.0210504 -0.0295708 -0.00550407 0.0217512 -0.00394026 0.018794 -0.00716253 0.0932272 0.0014436 0.0231937 -0.00979701 -0.035005 0.0060056 -0.0719847 -0.0378098 -0.0313315 0.0156118 -0.0105054 -0.00694567 -0.0936616 0.0190137 0.00363515 0.0197662 0.00497064 0.118684 0.0142057 -0.0507683 0.00925041 -0.0103426 -0.0527906 0.0166313 -0.0138027 0.0335851 -0.042871 0.0341077 0.00876677 -0.0275677 0.00198 -0.0061083 0.0607086 0.0306763 -0.0397357 0.0538919 0.0338531 -0.0358158 0.00231145 0.112154 0.0112242 0.0230251 0.0106591 0.0413817 -0.00988488 0.0998222 0.00695459 0.0169437 -0.0455601 0.00403544 -0.0242204 -0.00707777 
0.00858564 0.0126246 -0.0309046 0.0260733 -0.0160941 0.0455752 -0.000268918 0.0213911 -0.0147283 0.030402 -0.0125159 0.02387 0.112105 -0.0319964 -0.0102822 0.0180451 -0.035596 -0.0267897 0.0770291 0.0691956 0.0719006 -0.0137226 0.0122807 -0.0128769 0.0520202 -0.0154772 -0.0198329 0.0195814 0.00157721 0.0194806 -0.0229034 0.0346547 0.0110335 -0.0250582 0.0354874 0.156523 -0.0102493 -0.0284402 0.0108747 0.0319233 0.00374694 -0.0276659 0.00309321 -0.0552617 -0.0199719 -0.0114328 0.0789091 -0.00422942 -0.0490786 -0.0313743 0.025185 -0.0172707 0.018893 0.00580115 -0.012782 -0.0391368 0.0246237 0.0137681 0.0133634 -0.00783947 0.043631 -0.024224 0.0112989 0.109187 
-0.0180981 -0.00246796 -0.00100859 0.00338257 -0.0248744 0.0399453 0.0292537 0.0260538 -0.00392503 -0.105159 0.0185133 0.00139482 -0.0119269 -0.0182328 0.00927091 -0.030403 -0.0638179 0.00739456 0.0361887 0.115459 0.054637 -0.00212646 -0.032739 -0.02099 0.0799086 0.00339092 0.010777 -0.0321603 -0.030536 -0.0613821 0.017588 0.0108474 -0.0131386 -0.0114041 0.0494453 -0.0670337 0.0135797 0.0268725 -3.4061e-05 -0.0797027 0.0107344 -0.0309855 0.0130875 -0.00579071 -0.0783774 -0.0298538 0.0489889 -0.0268122 -0.0412192 0.0226548 -0.00125667 -0.121724 -0.0089537 -0.0026147 -0.0375253 -0.00334131 -0.0056854 -0.120511 0.00734013 -0.00200061 0.0249735 -0.0208053 0.00808134 -0.0539135 
0.0196795 0.0316239 -0.0147292 0.0020271 -0.00559652 0.0172273 0.0124817 -0.0229932 0.00709258 0.015846 0.0117539 0.0210826 -0.0173244 -0.0121503 -0.0155917 0.0242855 0.00115122 0.0222867 -0.00559052 -0.00491546 -0.005747 0.00606317 0.0237051 0.0144439 0.0258479 0.0186045 -0.0179257 -0.0259922 -0.0437328 0.0960914 -0.0163315 0.0328829 -0.0120211 -0.000961863 0.00214669 0.0538824 -0.0249758 -0.0693351 0.0211392 0.0667878 -0.00745977 0.00440131 0.00609067 -0.0182387 0.0777282 0.0624511 -0.00488826 0.0639338 0.018358 -0.0118881 -0.013259 0.0749311 -0.0380486 -0.0211128 0.0488788 -0.00654169 0.0139289 0.0646366 -0.0189311 0.0109979 -0.0243727 0.0184635 0.00528371 0.0488384 
-0.0309978 -0.0624364 -0.0410228 -0.024093 -0.0265385 0.0792462 0.0443477 -0.000977691 0.00190447 0.0894396 0.0235032 -0.00885059 -0.313703 -0.0450515 -0.0361583 -0.0139114 -0.00729827 0.00954187 0.0559756 0.0438821 0.0594761 0.00507758 -0.0157216 0.00451618 0.057318 -0.0067574 -0.00940338 -0.0455028 -0.0540145 -0.0413425 -0.0301539 0.0128011 0.0279447 -0.0297914 0.024351 0.0406732 -0.0264599 -0.104977 0.00446268 0.00813984 -0.00926835 -0.0075925 -0.0277679 0.189879 -0.0418104 -0.0401833 0.0358491 -0.0131107 0.02552 0.0159249 -0.0138758 -0.0434226 -0.0268388 0.00179928 -0.0186773 -0.0579058 -0.0223011 -0.0405166 -0.0153264 -0.0150312 0.0329605 -0.0188232 -0.0150572 0.151868 
-0.00133575 0.0913994 0.0334282 0.00387843 0.00576058 0.0148631 -0.0078935 -0.0247365 0.0200252 0.127522 -0.029294 -0.014126 -0.0901957 -0.0240991 -0.0623266 0.0140343 0.0705565 -0.00393108 0.025389 -0.0063705 -0.0120315 -0.0644404 0.0187129 -0.0189733 0.0477685 0.00530821 -1.87619e-05 -0.0302876 -0.0291866 0.196448 -0.000248488 -0.00656675 -0.00674556 -0.0100554 0.0276003 0.116782 0.0162838 -0.0511829 -0.0541112 0.131581 -0.00239852 -0.0228784 0.0284953 0.00718377 0.0743075 0.0552989 0.0191025 0.087846 -0.0154089 0.0297547 0.000915829 0.144425 -0.0283982 -0.0116281 0.0628622 -0.0899665 -0.00136475 0.113757 -0.00870896 0.0151037 -0.0298817 0.00583425 0.0301061 0.143085 
0.00408792 0.0265622 0.00557864 -0.00945499 -0.0118343 0.00523205 0.028086 -0.0131121 0.0150317 0.0625386 0.0265148 -0.0194948 -0.0426819 -0.0163248 -0.00692258 0.00326586 -0.0115764 -0.0228425 -0.0270277 -0.0126003 -0.00532927 0.0106162 -0.0090677 0.0259615 -0.0224663 -0.0221496 0.0252634 -0.0111455 -0.0137246 0.0709784 0.0261184 0.0232206 -0.00241588 -0.00328005 -0.0167754 0.03426 -0.0272269 -0.0262254 -0.0393777 0.0828049 -0.0329088 0.0295412 -0.0298548 -0.0221941 -4.343e-05 0.0306145 0.0130591 0.0255299 0.0149003 0.0230456 0.0238803 0.00862703 0.0188534 -0.0164584 -0.0147458 -0.042714 -0.0119892 -0.00503053 -0.0158757 0.00273295 0.0289198 -0.00878495 0.0024306 0.0156926 
0.0153166 0.0950601 -0.00776328 0.0199655 -0.0301588 -0.00623387 0.014308 -0.0195146 -0.0189912 0.129368 -0.00858511 -0.00124885 -0.0935996 -0.0318699 -0.0665547 -0.0239037 0.000150668 0.0268513 -0.00240978 0.0262125 -0.0142437 -0.0368344 0.0192382 -0.00233689 0.0111569 0.00340611 -0.0230638 -0.0364052 -0.0259536 0.162914 0.0270106 -3.3373e-05 -0.00283203 -0.0233215 -0.0122539 0.0744934 -0.00816315 -0.0453713 -0.0175117 0.113888 -0.0368998 -0.0293569 -0.0228549 0.0133786 0.0449995 0.0501867 0.0377 0.0617238 -0.0413702 -0.018968 0.0304521 0.100709 0.0114318 0.0184274 0.0525205 -0.0679101 0.0309538 0.127904 -0.00334539 -0.0150282 -0.00464171 0.0331542 0.0149216 0.0923194 
0.0221852 0.0836392 0.00831686 -0.0159926 0.00262554 -0.015808 0.0267425 0.0277418 -0.0218881 0.13061 0.00969387 -0.00952847 -0.0911265 -0.00622016 -0.0290686 -0.0140962 0.0396324 0.00335818 0.00641199 0.00239755 -0.00435277 -0.0450207 0.0136803 -0.0114338 -0.0148579 0.0194608 0.0204409 -0.0168481 -0.0375012 0.129554 0.0151014 -0.0117646 -0.00669948 -0.0168846 0.0026363 0.0926208 -0.00844552 -0.0677117 2.14277e-05 0.0919356 -0.0437465 0.00244333 0.0274209 -0.00747524 0.0267204 0.0580015 0.0227987 0.0861988 -0.0421163 -0.0184158 -0.0153871 0.0877028 -0.00112159 0.0295368 0.0454843 -0.0353956 -0.000379147 0.0886501 -0.0240096 0.00281018 -0.0296728 -0.00610677 0.0222151 0.110002 
-0.00650238 -0.0395673 -0.00748478 0.0168545 -0.00326041 0.0419384 0.0429197 0.00921633 0.0248223 -0.150384 -0.0198436 0.0278501 -0.0208577 0.0148168 0.0139816 0.0201444 -0.0242321 -0.0291009 0.0460976 0.0914931 0.0472749 0.022961 -0.0244102 0.000606534 0.108194 -0.0207113 -0.0154391 0.00112726 0.0148966 -0.0705707 -0.0186302 0.00703579 -0.011114 0.00820517 0.0593075 -0.0407974 -0.0303717 -0.0180753 0.00569539 -0.025533 -0.00297848 0.000134799 0.024791 -0.0183073 -0.0740673 -0.00922556 0.0213035 -0.0397087 0.00392914 -0.00280177 0.011016 -0.089432 -0.00989585 0.0180238 -0.0504854 0.015787 -0.00881426 -0.0929467 -0.00388321 -0.022592 0.0257884 -0.00539757 -0.0190345 -0.0398563 
