-1.17981 0.0931324 -0.0740283 0.0882487 -0.138642 0.190643 -1.09188 -0.657413 -0.0831799 0.927268 -0.0562302 -0.0954806 -0.351766 -0.14121 -0.991216 -1.7122 
0.41983 -0.125776 0.0276652 0.102486 0.519793 -0.0592179 0.194561 0.267415 -0.0437939 -0.404778 0.466853 0.142628 0.0978783 0.09536 0.512559 0.406127 
0.489117 0.211605 0.0502314 1.12207 0.473598 -0.0574363 0.230364 0.059355 -0.163432 1.21783 0.559317 -0.220766 -0.0037819 -0.245802 0.43791 -0.662734 
0.953489 -0.33767 -0.0849807 0.223194 0.784845 -0.256488 -0.208701 0.175465 -0.0893981 -1.3197 0.941315 0.00912135 0.100978 0.157207 0.197313 -0.548033 
0.231149 -1.41884 -0.020865 2.13521 -0.149809 -0.432594 -0.204342 3.64643 -0.0746898 0.141009 0.244248 0.0687725 -0.209426 0.208691 -0.149401 -0.409358 
-0.934292 0.449346 0.0707339 -1.37051 0.319093 0.685258 0.160021 0.465994 -0.292606 -0.986403 0.0548513 -0.491529 -0.01814 -0.608117 -0.863624 0.0825714 
0.880775 0.0294019 -0.0498528 -0.599741 0.98763 -0.0823652 0.486651 0.408527 0.106098 -1.12865 0.49432 0.126744 -0.0325693 0.0978858 -0.508386 0.252572 
0.111646 0.126518 0.0854548 0.725734 0.103653 -0.682476 -0.0719712 -0.639802 -0.0253675 -1.00584 0.181119 -0.0898303 -0.103802 -0.0913198 0.227222 -0.236792 
0.361335 0.227735 -0.0569647 -0.756153 0.739732 -0.140887 0.44211 0.749507 0.140457 -0.250501 0.177422 0.112426 0.204176 0.10919 -1.76576 0.88117 
0.0687451 -0.111076 0.0318557 0.0144447 0.00731188 -0.118556 0.0222374 -0.412147 -0.0528334 -0.236184 -0.114858 0.0189664 -0.104055 -0.00578482 -0.0132023 0.082445 
-0.172983 -0.0779468 0.0318862 0.061437 0.0829137 -0.41767 0.0607011 -1.00224 -0.122762 0.554109 0.191317 0.0145263 -0.0301098 -0.18888 0.566691 0.366347 
-0.199991 0.0115879 -0.0114093 0.0807827 -0.138465 -0.162591 -0.112868 -0.511716 -0.119424 -0.384757 -0.0192824 -0.0955622 -0.0924437 -0.383134 -0.116612 -0.204424 
0.247831 -0.146357 0.0571516 -0.0484864 0.136838 -0.226594 0.144126 -0.595182 0.00204956 0.120555 0.156394 0.181758 0.0425615 -0.0939854 0.555233 0.263115 
-0.587993 -0.186756 -0.00994056 0.0749934 -0.0151623 -0.646409 -0.239034 -1.60247 0.00613632 0.314397 0.191789 0.183557 -0.12845 -0.341644 0.518337 0.281768 
0.604706 0.0567529 -0.0989559 0.744461 0.587443 -0.509046 0.16307 -0.183915 -0.00363406 -1.49655 0.618663 -0.187006 -0.0934061 -0.161682 0.501642 -0.141199 
0.456114 0.315015 -0.121747 1.13072 0.377137 -1.22912 -0.185008 -1.11572 -0.137887 -1.78255 0.267526 -0.265388 -0.0459929 -0.497564 0.408121 -0.680255 
0.880943 -0.0100209 -0.0428752 -1.5115 1.4101 -0.100557 0.084246 -0.521731 -0.0180683 -1.3283 -0.0772934 0.824532 -0.101887 0.188523 -2.00288 0.140112 
-0.321654 0.398017 0.0317276 0.488515 -0.30218 -0.694879 -0.258034 -0.631163 -0.154158 -0.360484 -0.108156 -0.276055 0.0218161 -0.273293 -0.0501201 -0.285305 
1.10662 0.0414742 0.107094 -0.441176 1.56948 -0.176704 0.723327 2.6315 0.0335643 -1.39333 -0.691229 -0.153507 0.476019 0.094133 0.311111 0.305926 
1.83877 -0.100216 0.127188 -1.20726 1.51302 -0.122228 -0.0552271 -0.594689 -0.0573196 -1.6839 0.00252452 0.0638147 -0.362868 0.00317896 -0.405163 -0.317605 
0.125897 -0.270093 0.163424 -0.491201 0.236379 -1.31868 0.546129 0.817415 0.0400879 -3.0647 2.83472 -0.512609 0.315445 0.0970913 2.94593 0.114385 
-0.172155 0.176801 0.0487569 -0.507752 0.520647 -0.213226 0.206197 0.55202 -0.0935055 -0.167798 0.0598587 -0.151638 0.153793 -0.20757 -1.33834 0.657272 
-0.468369 0.0140698 0.00795786 -0.0378133 0.0758739 -0.374989 0.0236409 0.385077 -0.190029 0.0628412 -0.981079 -0.128947 0.225415 -0.540252 -0.616841 0.323173 
0.42571 0.14837 -0.0831617 -0.0252181 0.356257 0.00919602 -0.198959 0.0191226 -0.0403675 -0.282083 0.509685 -0.276651 -0.074178 -0.305468 0.14928 -0.338996 
2.55373 -0.139019 0.159474 -0.542522 1.50172 -0.0406468 0.701807 1.39363 -0.0877895 -1.54771 0.0151384 -0.207245 0.144272 0.0928349 0.826766 0.228569 
-0.91754 -0.581945 -0.0756216 0.125419 -0.0783013 -1.45266 -0.155009 -3.27513 -0.290685 0.396646 0.529308 0.32408 -0.157031 -0.752884 1.39834 0.975596 
0.223562 0.164709 0.105704 -0.446616 0.452763 -0.385586 0.269473 0.477616 0.0453856 -0.251218 -0.105195 -0.0231187 0.191831 0.20391 -0.628589 0.557693 
1.50494 -0.14499 0.0443343 -0.997094 1.59676 0.0352397 0.827132 0.750919 -0.0613565 -1.65611 0.837141 0.457958 0.199664 0.106575 -0.952555 0.694216 
1.55095 -0.393432 -0.0194685 -0.298587 1.93572 -0.38376 -0.500592 -0.088713 0.0936064 -2.37887 0.841937 0.431392 0.0154929 0.189188 -0.963008 -0.565164 
-0.402527 0.0526679 -0.170044 -0.0052802 -0.237106 -0.136728 -0.0594542 0.272638 -0.0595785 -0.0480762 -0.718757 -0.14667 0.139288 -0.377702 -0.157955 -0.116223 
0.134557 -0.148075 -0.0666518 0.0458747 -0.598761 -0.14859 -0.641663 -0.396882 0.0518911 -1.14407 0.00220079 0.0100049 -0.0272278 0.115237 -0.649038 -0.645895 
-0.347188 0.499105 -0.106758 0.636762 -0.276425 -0.818129 -0.160533 -1.23077 -0.128529 -0.217575 -0.169772 -0.271043 0.0808063 -0.349614 -0.218896 0.0110855 
