{
  "layerType": "Dense",
  "inputShape": 1024,
  "outputShape": 32,
  "weights": [
    [0.0683801, 0.0152115, 0.00938152, -0.00252239, -0.0162038, 0.0294871, 0.027029, -0.0189087, -0.0787996, -0.00677282, 0.105044, 0.0392772, -0.000333, 0.00859143, 0.0785944, 0.0357499, 0.00114202, -0.103591, 0.00663244, 0.0421189, 0.0649234, -0.0414473, 0.0307691, 0.0155598, -0.0449096, -0.00366926, -0.0126627, -0.0113368, -0.0292372, 0.0186476, -0.216311, 0.0100233],
    [0.0598583, 0.103499, -0.0489838, -0.0126664, 0.0169179, 0.0479387, -0.0321281, 0.0232191, -0.0614226, -0.00917604, 0.116058, -0.0725773, 0.047246, -0.000817746, -0.0254317, -0.0125864, 0.0907027, -0.123524, 0.0267192, -0.0544623, 0.0608854, -0.0572817, 0.00793629, 0.00914858, 0.00271785, 0.0650395, 0.0265175, 0.0367185, 0.0182412, 0.0359907, -0.0617716, 0.0473325],
    [0.154821, 0.0536214, 0.345616, 0.0259933, -0.190236, 0.314699, 0.309941, 0.00853919, -0.0548876, 0.0771038, 0.0901307, 0.00540283, -0.0569765, -0.00147826, -0.0632617, 0.299138, 0.200877, -0.374593, 0.0332903, 0.335133, 0.0361828, -0.0474617, -0.0204675, 0.037831, -0.0418721, 0.0127861, 0.0770562, -0.361642, -0.0837292, -0.0555154, -0.812481, 0.212907],
    [0.118798, -0.0818978, 0.179111, -0.0175568, -0.0500146, 0.216933, 0.133851, -0.0169914, 0.0499263, 0.0430514, -0.0181667, -0.0197292, -0.0341629, -0.0934327, 0.0146267, 0.153327, 0.172784, -0.230618, -0.0198672, 0.135404, 0.0223662, -0.0396485, -0.00758907, -0.0147778, 0.00723316, -0.100006, 0.0343071, -0.199983, 0.0425084, -0.105792, -0.382273, 0.0206134],
    [0.0778825, 0.0701075, 0.0427092, 0.0123641, -0.0539192, 0.0855249, -0.034934, 0.0693274, 0.0116127, -0.0217421, 0.103219, -0.00995289, 0.040633, -0.00694342, -0.0169173, 0.039834, 0.0479967, -0.143816, 0.0271417, 0.120165, 0.114379, -0.0776754, -0.0116558, -0.00364646, 0.0115928, -0.055831, 0.160699, -0.145053, -0.00976401, 0.0234749, -0.28019, 0.0499575],
    [0.0408128, -0.0334328, 0.246658, 0.02714, -0.0773314, 0.239477, 0.0601771, -0.00836634, -0.0709524, 0.142702, 0.0956076, -0.0187371, 0.0326225, 0.0739652, -0.0923938, 0.129693, 0.0612953, -0.210995, -0.0549657, 0.187728, 0.173802, -0.168727, 0.0982713, -0.0576625, -0.0468001, 0.0851317, 0.0248919, -0.2589, -0.0957699, -0.0252339, -0.550837, 0.170701],
    [0.127067, -0.0435829, 0.379717, -0.0655505, -0.0706263, 0.320068, 0.242833, -0.0249892, -0.016237, 0.0801727, 0.0401096, 0.0515773, 0.0153289, -0.0805781, 0.0279518, 0.183673, 0.23653, -0.395125, -0.0264608, 0.241287, -0.0254929, 0.0436409, -0.162756, 0.0139437, 0.0188289, -0.0416496, 0.0284744, -0.445389, -0.0764117, -0.0140263, -0.840311, 0.193925],
    [0.188355, 0.0238571, 0.199757, -0.0876273, -0.172895, 0.288096, 0.151617, 0.0104847, 0.0513229, 0.168399, 0.0941572, 0.0467359, -0.0436667, 0.0147773, -0.0432211, 0.117676, 0.153027, -0.223498, -0.043125, 0.108947, 0.0494343, 0.0632877, -0.102521, 0.0272427, -0.0299078, 0.0314458, 0.0159074, -0.194409, -0.106515, 0.0300775, -0.49164, 0.0418807],
    [0.207659, -0.00187528, 0.441387, -0.0269612, -0.130129, 0.34815, 0.303622, -0.0832139, -0.00150227, 0.185655, 0.155903, 0.0114273, -0.0477299, -0.0397624, 0.0445751, 0.208983, 0.246404, -0.422349, 0.014684, 0.167137, -0.0545321, -0.101113, -0.189282, -0.00747249, 0.0135523, 0.143203, 0.00582595, -0.404705, -0.0822976, 0.0818011, -0.97397, 0.279078],
    [0.139846, 0.0295383, 0.100997, -0.0141985, -0.0514364, -0.00131027, 0.0613662, -0.121167, -0.0313655, -0.0549741, 0.146257, 0.0516434, 0.0657873, 0.0179257, 0.0193916, 0.00995176, -0.0405335, -0.0769293, -0.029883, -0.040049, -0.0102858, -0.0877362, -0.0972454, -0.0148296, 0.0709018, 0.0342878, -0.0844793, -0.140843, -0.0223897, 0.0802967, -0.23838, 0.0694665],
    [0.116113, -0.000742783, 0.115689, -0.0360676, -0.142932, 0.140194, -0.0308563, 0.0291689, 0.045778, 0.0722247, 0.170786, -0.0567819, -0.0430251, 0.00321059, -0.0728665, 0.0442699, -0.0455758, -0.230528, 0.0172221, 0.213654, 0.236223, -0.204179, 0.0344694, -0.0558975, 0.0921877, -0.0322517, 0.13201, -0.245, -0.00692792, -0.0695149, -0.433884, 0.216014],
    [0.129613, 0.0523375, 0.242122, -0.00307561, -0.0640386, 0.222919, 0.00924579, -0.00469846, 0.0417968, 0.0831749, 0.393306, -0.083842, -0.000507264, -0.0153285, 0.0431798, 0.178191, 0.000857219, -0.315036, 0.00372284, 0.221943, 0.239221, -0.233128, 0.0619903, -0.0461041, 0.146463, -0.0280168, 0.0653244, -0.282018, -0.0867108, -0.0102715, -0.592631, 0.325449],
    [0.182711, 0.0571213, 0.361294, 0.00465047, -0.0735223, 0.266943, 0.125638, -0.0422796, -0.0438173, 0.112506, 0.160513, 0.0300466, 0.00477573, -0.026848, 0.111231, 0.160599, 0.057045, -0.273584, -0.103402, 0.330785, 0.205858, -0.202451, 0.0107578, 0.0952884, -0.00277079, 0.0227986, -0.0101885, -0.254292, -0.0113097, -0.0205, -0.737671, 0.367184],
    [0.429706, 0.0276037, 0.702115, -0.0189977, -0.283102, 0.588129, 0.339909, -0.0911907, 0.0219527, 0.172351, 0.211762, -0.0608757, -0.0712262, -0.11624, 0.0180265, 0.345556, 0.278768, -0.64345, -0.0274636, 0.722701, 0.322595, -0.362973, -0.0505837, 0.0258036, 0.0740665, -0.0271276, 0.0691451, -0.689569, -0.149646, -0.0791348, -1.49028, 0.475541],
    [0.131999, -0.0241753, 0.418041, 0.00267708, -0.114209, 0.398898, 0.313125, -0.0714797, -0.0377405, 0.0836147, 0.00228889, -0.101503, -0.0780625, -0.0952971, 0.0574157, 0.164074, 0.123448, -0.346428, 0.0227757, 0.253894, -0.0547955, -0.0202652, -0.0746584, 0.0524728, -0.00755176, 0.042635, 0.027634, -0.439153, -0.0286741, -0.0628921, -0.849235, 0.218307],
    [0.00143905, 0.0537533, 0.0623665, -0.0203249, 0.0476072, 0.0159371, -0.00675242, -0.039774, -0.0084394, 0.0467099, 0.0532448, -0.0193671, -0.0431296, -0.0211522, -0.00310642, -0.0123433, -0.0860657, -0.114021, 0.0179219, 0.000535448, 0.0389676, -0.073549, -0.0183718, 0.0548062, 0.0508747, 0.0046898, -0.0149073, -0.0173567, 0.0317623, 0.0202801, -0.124103, 0.100857],
    [0.0918351, 0.0298649, 0.126172, 0.0499818, -0.0342735, 0.0608284, 0.0316689, -0.0131037, -0.0723331, -0.0361576, 0.118618, -0.0194051, 0.0419592, -0.0438641, 0.0185174, 0.0989319, -0.0269324, -0.0299454, -0.0369493, 0.132335, 0.0438507, -0.129403, -0.0773435, 0.00512759, 0.0757315, 0.0437498, -0.0344209, -0.0688808, -0.0211715, 0.0431571, -0.230943, 0.0499091],
    [0.228188, -0.0413635, 0.379782, 0.0108799, -0.121596, 0.267532, 0.339558, 0.0210165, -0.00208956, 0.107407, -0.00864318, -0.0316389, -0.00894494, -0.0176992, -0.0153908, 0.204489, 0.166912, -0.313916, 0.0297385, 0.290097, 0.0637005, 0.0400151, -0.125342, -0.0376071, -0.00141066, -0.00903153, 0.0339012, -0.405599, -0.0386007, -0.069889, -0.862764, 0.116655],
    [0.0274051, -0.0188928, 0.14964, -0.0243388, -0.0249064, 0.110389, 0.130596, -0.0215153, 0.0217925, 0.0848076, -0.0141402, -0.026892, -0.0282563, -0.0495256, 0.0256475, 0.11127, 0.120797, -0.0876818, -0.0176991, 0.00763135, -0.0575464, -0.00227772, -0.00918305, 0.0234194, -0.00612224, 0.0447048, 0.00123224, -0.204875, -0.0608202, -0.0109359, -0.377421, 0.037907],
    [-0.012965, 0.00377563, 0.000107599, -0.0492616, -0.0144644, 0.0744162, 0.0687534, 0.00887494, 0.0723755, 0.0391384, 0.0288155, -0.0449903, 0.0865064, -0.0395517, -0.00740771, -0.0636709, 0.0115121, -0.054424, 0.0149477, 0.0711557, 0.0590182, -0.0973049, -0.0511418, 0.0309368, 0.0664789, 0.0336908, -0.0465666, -0.0318177, 0.0393029, 0.00415696, 0.0143603, 0.0596671],
    [0.277678, -0.00425776, 0.51406, -0.0335043, -0.261384, 0.52364, 0.381335, -0.126626, 0.0590272, 0.110917, 0.104758, -0.0216637, -0.00842247, -0.122344, 0.0765134, 0.2889, 0.364585, -0.528849, -0.0660172, 0.279135, 0.0473809, -0.0934914, -0.0691236, -0.0675207, -0.0687938, -0.0370913, 0.00878866, -0.403501, -0.0515338, -0.0408431, -1.1878, 0.285754],
    [0.114739, 0.0324736, 0.244335, 0.0314811, -0.113623, 0.192754, 0.192942, -0.0658061, 0.106029, 0.0478252, 0.0289465, 0.0323928, 0.0181248, -0.0515194, -0.0246841, 0.120797, 0.114801, -0.123871, 0.00178214, 0.12004, 0.0303664, -0.0539758, 0.0185863, 0.0575971, -0.0206288, -0.0436052, 0.00748826, -0.222977, -0.0566889, -0.0326423, -0.461934, 0.0916058],
    [0.0595514, -0.00823648, 0.171763, 0.0597073, -0.0080887, 0.00610814, 0.00552526, -0.0741117, 0.0477797, 0.0273472, 0.241661, 0.00230359, 0.00828473, -0.079123, 0.0626733, 0.0592816, 0.0249699, -0.162432, 0.0508709, 0.0457033, 0.179677, -0.259998, -0.0729942, 0.0239937, 0.102888, 0.0484883, 0.0477858, -0.219169, -0.0159887, -0.00380818, -0.448179, 0.249034],
    [0.0778234, -0.00178581, 0.150208, -0.0886492, -0.0739484, 0.0451267, 0.131702, -0.0743362, 0.0796755, 0.0307812, 0.38405, 0.0949117, -0.0446154, 0.0239343, 0.123616, 0.0534357, 0.0618675, -0.31141, 0.0863991, -0.00696861, 0.154902, -0.184569, -0.0782592, -0.106468, 0.0209685, 0.129576, 0.0277863, -0.27374, 0.00169566, -0.100547, -0.528548, 0.20608],
    [0.23239, 0.0237636, 0.43277, -0.000131338, -0.201443, 0.352258, 0.284178, 0.0193149, -0.00686537, 0.12849, -0.00408673, -0.0523135, -0.0200324, -0.055472, -0.114182, 0.238602, 0.286316, -0.382613, 0.000389277, 0.390942, 0.0935241, -0.0569884, -0.0581358, -0.0473011, 0.0115167, 0.0277825, -0.0598898, -0.426826, -0.150863, -0.0364065, -0.853093, 0.226436],
    [0.144517, 0.0810068, 0.166786, 0.011606, -0.0631114, 0.181149, -0.0334227, 0.0248482, -0.0306953, 0.0230451, 0.275422, -0.104973, 0.00512402, 0.00760707, 0.0959083, 0.0715755, -0.00670384, -0.198046, 0.0237966, 0.220763, 0.14616, -0.216734, 0.0113381, -0.022665, 0.148898, 0.0577395, 0.0821141, -0.198005, -0.0655231, -0.0624394, -0.532344, 0.269572],
    [0.0217118, -0.0341322, 0.0811649, 0.00933542, -0.0363686, 0.0581387, -0.0238226, -0.00405632, 0.0570053, -0.0247411, 0.0564901, -0.0268533, 0.0215501, 0.0584515, 0.0915045, 0.0098407, -0.0169736, 0.00100263, 0.0112199, 0.0268324, 0.083085, 0.0173445, 0.0198417, -0.0205213, 0.026605, -0.015253, 0.0384235, -0.00961833, -0.00791971, -0.0284039, -0.0449747, 0.0314356],
    [0.157966, 0.0471857, 0.085238, -0.0192713, 0.0555261, 0.0574138, 0.253287, -0.0666498, 0.0164156, 0.154302, 0.395616, -0.0398716, 0.00281341, -0.0184908, 0.089817, -0.0794559, 0.0377678, -0.266737, -0.0309179, 0.0889419, 0.156426, -0.296696, -0.0251418, -0.071634, -0.0827882, 0.0999206, -0.0176951, -0.358828, 0.0142315, -0.0239022, -0.560503, 0.313131],
    [0.0737048, -0.0289488, 0.133128, 0.00754579, -0.00896239, 0.00655685, 0.0931612, -0.0152561, -0.0206299, 0.0762779, 0.113003, -0.0939671, -0.032998, 0.0293467, 0.0300152, -0.0261946, 0.0285326, -0.0491757, -0.0190036, -0.0167988, 0.111384, -0.20474, -0.0100597, 0.0405024, 0.0268757, 0.068199, 0.0178099, -0.0855968, -0.0472276, 0.0270405, -0.24297, 0.141091],
    [0.126903, 0.0698943, 0.0765027, 0.0646169, -0.000148651, 0.0162305, 0.106337, -0.0944273, -0.0819806, 0.0383151, 0.123183, -0.0272692, -0.0393792, 0.00799021, 0.0118046, 0.0417345, -0.067975, -0.0848819, 0.0211312, -0.0481626, -0.0151993, -0.0586576, -0.0586566, -0.117791, 0.0142393, 0.008006, -0.0315837, -0.0952067, 0.0163735, 0.0530869, -0.230882, 0.129023],
    [0.0293499, 0.0221525, 0.062972, -0.0125219, -0.00986023, 0.0320885, 0.0673444, 0.00226679, 0.0533327, 0.0137227, 0.249042, 0.00902457, -0.0300955, -0.0629036, 0.056849, -0.0374921, -0.0385509, -0.114023, 0.0076224, 0.0541653, 0.102519, -0.119265, 0.0258571, -0.0343232, 0.00143515, 0.0592824, 0.0396942, -0.183422, 0.0643996, 0.0422419, -0.281169, 0.160348],
    [-0.0141529, -0.00625751, 0.0348505, -0.0257795, -0.0575558, 0.0169162, -0.0913799, 0.0189091, -0.00265668, 0.0236084, 0.00121432, 0.0645727, 0.0363242, 0.012214, 0.0414543, -0.0175353, -0.00357197, -0.0412307, -0.0306034, -0.0775858, -0.0579869, 0.0102137, -0.0552737, -0.0144759, -0.0351129, -0.0170248, -0.0787638, -0.0574589, 0.0198843, -0.0265388, -0.120169, 0.0138477],
    [0.236882, -0.022365, 0.41462, 0.0344107, -0.175262, 0.429612, 0.3728, 0.0246788, 0.0158856, 0.0755063, 0.0431263, 0.0519004, -0.0279086, -0.0858899, 0.094288, 0.224351, 0.283024, -0.381658, 0.0110983, 0.330095, 0.00611266, -0.0774567, -0.104815, 0.0596167, 0.0685095, -0.0526013, -0.0318285, -0.451278, -0.0642968, -0.0323411, -0.927337, 0.277539],
    [0.112923, 0.0824689, 0.193459, 0.0117579, -0.0685102, 0.0721953, 0.0882473, -0.041539, 0.0677539, 0.0753516, 0.238159, -0.0144161, 0.0493058, -0.0288465, 0.0200885, 0.0352208, 0.0803154, -0.132007, 0.097544, 0.0153402, -0.0577069, -0.0783891, -0.190562, 0.0371475, 0.0544128, 0.0564022, -0.0898705, -0.190575, 0.019531, 0.0126208, -0.437868, 0.156831],
    [0.0614453, 0.0956449, 0.211485, 0.0767554, -0.0883311, 0.175442, 0.173734, 0.020352, 0.0469531, 0.0318961, 0.0661502, -0.00344594, -0.0376697, -0.105855, -0.0083297, 0.106138, 0.142481, -0.286003, 0.0362034, 0.151595, 0.0318866, -0.0483742, -0.0868759, 0.00686388, 0.0129674, 0.0424606, 0.042306, -0.318788, 0.0196692, 0.0381784, -0.524053, 0.143723],
    [0.0515989, -0.00645562, 0.0280654, 0.0457917, -0.0149779, -0.00899345, 0.0746742, -0.0414459, 0.0323483, 0.0113546, 0.215865, 0.014714, 0.0464476, 0.00129282, 0.0444171, -0.0612096, 0.081291, -0.198722, 0.028688, -0.0576951, 0.0624062, -0.252724, -0.000649561, -0.0392612, 0.0238654, 0.0488209, 0.011114, -0.166742, -0.0175487, 0.025706, -0.319541, 0.181275],
    [0.0102748, 0.0340755, 0.0413287, -0.021374, -0.0394116, 0.0412794, -0.0236527, 0.0365743, 0.0179369, 0.000151873, 0.109279, -0.140464, -0.00958409, 0.0373946, -0.0162314, 0.00557218, -0.0222645, -0.0438793, -0.049063, 0.122318, 0.143756, -0.0441265, 0.00495973, 0.0355098, 0.0253798, -0.0247612, -0.037564, -0.0498618, -0.0659279, 0.0241546, -0.111564, 0.0380502],
    [0.230205, -0.038515, 0.218476, -0.0461909, -0.0389921, 0.184885, 0.214076, 0.0416718, -0.0332697, 0.0144168, 0.34797, -0.00439847, 0.0192442, -0.0124456, 0.187584, 0.136877, 0.101263, -0.267385, -0.0376688, 0.0533304, 0.153533, -0.18579, -0.179574, -0.0408942, -0.0522012, 0.0782775, -0.00130076, -0.379547, -0.0659924, 0.0354782, -0.823396, 0.293458],
    [0.126451, -0.0965049, 0.134285, 0.0328205, -0.0335527, -0.0422463, 0.142457, -0.0192316, 0.0669415, 0.100299, 0.309362, -0.0722365, 0.00234416, 0.0100983, 0.0539297, -0.0398566, -0.0118734, -0.193489, 0.011117, -0.00445529, 0.0836931, -0.227194, -0.0505873, -0.0684124, 0.071342, 0.0969417, 0.0157726, -0.240572, 0.0683175, -0.0205707, -0.400225, 0.219117],
    [0.0330989, -0.0520985, 0.0893229, -0.026892, -0.0697153, 0.0495243, 0.0542058, -0.020492, -0.0503635, 0.056978, -0.000106278, 0.0405725, -0.0363269, 0.0112448, 0.0270557, -0.0472744, 0.0254398, -0.154616, -0.0528895, 0.0453521, 0.0224564, -0.0659494, 0.0484676, 0.0250277, 0.0357237, -0.0215953, 0.0859562, -0.083585, 0.015699, -0.0110719, -0.100655, 0.032909],
    [0.114471, -0.0443055, 0.19863, 0.00785227, -0.0491733, 0.0611752, 0.0873583, -0.120826, 0.0236635, 0.159586, 0.325451, -0.0345745, 0.0167846, -0.0285559, 0.0609455, 0.0887345, -0.00628638, -0.27191, -0.0339975, 0.0382091, 0.213645, -0.266258, -0.0111538, -0.00873683, 0.0860125, 0.0779566, 0.0271965, -0.238333, 0.0823908, 0.0739649, -0.42847, 0.270994],
    [0.139553, 0.054086, 0.274713, -0.0634171, -0.175928, 0.0685263, 0.0436284, -0.0298859, 0.00333611, 0.059977, 0.364307, 0.0437903, 0.00799308, 0.0730632, -0.0414003, 0.0832277, -0.0147759, -0.362027, 0.0741924, 0.117734, 0.284949, -0.298413, 0.0163057, -0.0567497, 0.123045, 0.0636962, 0.09025, -0.253369, -0.0796053, -0.00764845, -0.648214, 0.290375],
    [0.0472807, 0.00908482, 0.0614181, 0.0107187, -0.00920246, 0.0391641, 0.185598, -0.0199957, 0.130024, 0.115204, 0.0795188, 0.0231607, -0.0681173, -0.0358551, 0.066414, 0.0529014, 0.0146473, -0.072283, 0.0180611, 0.0379697, -0.0679265, -0.0356271, -0.0858567, 0.0521987, 0.0098337, 0.0473636, -0.0247766, -0.087287, -0.0427846, 0.040556, -0.241058, 0.137122],
    [0.117072, -0.0584362, 0.229738, -0.10459, -0.132889, 0.28354, 0.202236, -0.0770779, 0.0798093, 0.111118, 0.0441253, 0.044394, 0.073322, -0.00967468, -0.0174054, 0.196387, 0.121118, -0.241791, 0.0113058, 0.207247, 0.0407312, -0.147571, -0.0330904, 0.0547723, 0.0366768, 0.110849, 0.0514577, -0.310475, -0.0770924, 0.00259058, -0.609188, 0.0736089],
    [0.0660134, 0.058018, 0.116914, 0.0391115, 0.0387214, 0.036143, 0.130073, 0.0154987, -0.0345545, 0.0144985, 0.165432, -0.00605287, 0.0351525, 0.0617385, 0.163956, 0.0173794, 0.058787, -0.207168, -0.0422621, 0.0659199, 0.0331398, -0.0752815, -0.0987398, -0.026133, -0.0135921, 0.0763889, -0.0791282, -0.145334, 0.00896446, 0.0737482, -0.390914, 0.0900492],
    [0.12413, -0.0251847, 0.14597, -0.0531924, -0.0527886, 0.0867381, 0.14324, -0.0789459, 0.0122183, 0.100536, 0.352652, -0.0525738, -0.00756248, -0.0256233, 0.0761677, 0.000893942, 0.0145453, -0.212211, -0.0759933, -0.022143, 0.0556367, -0.201929, -0.185136, -0.0666424, -0.0165058, 0.089904, -0.0362061, -0.284996, 0.0106281, 0.0166178, -0.600627, 0.215361],
    [0.237819, 0.0737372, 0.462489, -0.0579142, -0.182847, 0.282479, 0.0626425, -0.10539, 0.0527381, 0.109969, 0.5721, -0.0866185, 0.0308902, 0.0132008, 0.0621455, 0.161137, -0.00834082, -0.403785, 0.00337259, 0.330854, 0.411942, -0.45143, 0.0167171, -0.0232978, 0.157818, -0.00587482, 0.158442, -0.418788, -0.173974, -0.0443503, -0.983272, 0.524277],
    [0.0493863, 0.0640103, 0.254368, -0.0269146, -0.0577312, 0.17116, 0.0130221, -0.0235674, 0.0165627, 0.128132, 0.303387, -0.00291735, -0.0394779, 0.00121238, -0.0306627, 0.0957548, -0.0194947, -0.169692, 0.0496229, 0.309972, 0.11956, -0.136004, 0.0288806, -0.0198445, 0.0110296, -0.0621946, 0.111672, -0.226988, -0.0376334, -0.0579807, -0.463056, 0.23634],
    [0.178493, 0.0187405, 0.1618, -0.033079, 0.0628203, 0.0519429, 0.0532934, -0.0351514, -0.0297318, 0.077967, 0.225807, -0.052267, -0.0068457, 0.0724254, 0.0643003, 0.0440486, 0.00373963, -0.183718, 0.00987755, 0.0413856, 0.198548, -0.122581, -0.0600892, -0.0277339, 0.0649402, 0.171016, 0.0590455, -0.152437, -0.0331201, 0.0368712, -0.327076, 0.14719],
    [0.0152869, -0.0368905, 0.152655, -0.0484398, -0.0638801, 0.175012, 0.1489, 0.0228343, 0.027678, 0.0470834, 0.0418489, -0.0252852, 0.0520228, 0.0472067, -0.0565511, 0.119783, -0.00026658, -0.119165, 0.0802437, 0.125169, 0.021336, -0.0632913, -0.0160834, -0.00186494, -0.0267397, -0.0174447, -0.0250352, -0.137166, -0.0422549, -0.046945, -0.31941, 0.108884],
    [0.24994, -0.00321302, 0.640572, -0.0412501, -0.278105, 0.537747, 0.229759, 0.0354185, 0.0110981, 0.22047, 0.240636, -0.0780156, 0.0159632, -0.0401919, -0.0538601, 0.29382, 0.25753, -0.700034, 0.0125289, 0.626792, 0.191369, -0.276442, -0.036707, -0.0373235, -0.00854415, -0.0300332, 0.164561, -0.527064, -0.0864494, -0.0529927, -1.31491, 0.458494],
    [0.0232331, -0.0358015, 0.00341706, -0.0613194, -0.0814466, 0.0681141, -0.00216624, 0.00234246, 0.0560427, 0.0810766, 0.0366549, -0.00280802, 0.0131978, -0.0978245, 0.0250073, 0.0537487, 0.0692827, 0.00226505, 0.0463424, -0.0529971, 0.0243191, 0.00464999, -0.0204569, -0.0444615, 0.0342858, 0.105006, -0.0194212, -0.113203, -0.034348, -0.0741609, -0.225375, 0.0918493],
    [0.256828, 0.0247294, 0.486738, -0.178358, -0.124867, 0.467713, 0.198632, -0.0328827, 0.056775, 0.166596, -0.0350674, -0.0152738, 0.0219127, -0.0224008, -0.0546217, 0.242396, 0.241249, -0.382475, 0.0354072, 0.313822, -0.0537039, -0.122474, -0.153116, -0.0197006, -0.0227086, 0.0500876, 0.0295449, -0.536755, -0.00282664, -0.0345909, -1.09439, 0.178485],
    [0.0631347, -0.0638853, 0.194913, -0.000170677, -0.0689578, 0.097808, 0.0366305, 0.0702115, -0.0238269, 0.0934823, 0.186543, 0.0255699, -0.0244832, 0.0301918, 0.0656209, 0.0598791, 0.0599608, -0.167275, 0.0123978, 0.173111, 0.113979, -0.103769, 0.0130109, 0.0577734, 0.0262534, -0.0400166, 0.00899451, -0.183763, 0.0711699, 0.0522117, -0.354811, 0.168663],
    [0.081863, 0.0700351, 0.0363531, 0.0322043, 0.0292898, 0.00729657, 0.00287703, 0.0254827, 0.045007, 0.0238554, 0.0704958, 0.0283306, 0.0586412, -0.0476933, -0.0393305, 0.0153013, 0.0697316, -0.087518, 0.0133866, -0.0216985, 0.0995813, -0.0194319, 0.0762347, -0.00543997, 0.0247497, -0.003037, -0.0047106, -0.0234863, -0.00973313, 0.0320229, -0.25132, 0.00700807],
    [0.137647, 0.0680362, 0.211958, 0.0153567, -0.106939, 0.0934558, 0.0170895, -0.0378791, -0.0169304, 0.0712109, 0.104517, -0.0212147, -0.0966562, -0.0772532, -0.105599, 0.175067, 0.0331489, -0.229028, 0.020946, 0.135453, 0.165692, -0.164442, 0.0074054, -0.0572099, 0.0115497, -0.048271, -0.0240427, -0.241778, -0.0110144, -0.128872, -0.443426, 0.222466],
    [0.139854, -0.011755, 0.126732, 0.0124983, -0.00140586, -0.0320598, 0.0746489, -0.092733, 0.0225791, 0.0249239, 0.200442, -0.0209096, 0.00682089, 0.030663, 0.0987512, -0.092343, -0.0287584, -0.127625, 0.00308428, 0.0169627, 0.156579, -0.203812, 0.0136195, 0.0437251, 0.0773755, 0.104284, 0.0340952, -0.129284, 0.0359026, 0.0205396, -0.353191, 0.165836],
    [0.0793085, 0.117198, 0.162943, -2.82438e-05, 0.0379864, 0.10089, 0.033263, -0.0504616, 0.0316871, -0.00641407, 0.260326, 0.0519016, -0.00329463, -0.0369514, 0.0747516, 0.0821615, 0.0780519, -0.115053, -0.0247264, 0.0526348, 0.238567, -0.233423, -0.0397592, -0.0488095, 0.0117711, 0.01132, 0.0200203, -0.182285, 0.0374138, -0.0214769, -0.282836, 0.21072],
    [0.221604, -0.0399444, 0.411131, 0.0362493, -0.206628, 0.339493, 0.258322, 0.0909113, 0.0276264, 0.153484, 0.165978, 0.00870668, 0.0899214, -0.128582, -0.0219479, 0.237084, 0.220826, -0.488889, -0.013572, 0.447108, 0.160828, -0.15012, -0.0408147, -0.0216901, 0.0525041, -0.0472387, 0.160652, -0.494767, -0.0760447, -0.133168, -1.00113, 0.2678],
    [0.0864309, -0.00905485, 0.121204, -0.037931, -0.106302, 0.0728856, 0.109932, -0.00382448, -0.018696, 0.0396718, 0.258826, -0.112112, -0.0613195, -0.0505048, 0.0888212, 0.0436807, 0.036985, -0.207463, -0.00564769, 0.0170823, 0.163907, -0.209872, -0.0906324, -0.0250271, -0.0084202, 0.0287073, 0.028485, -0.264776, -0.0305128, -0.0111156, -0.423436, 0.135303],
    [0.183992, -0.0668509, 0.350298, -0.052354, -0.170218, 0.314989, 0.307452, 0.0632571, 0.0116609, 0.102075, 0.0589232, 0.0187273, 0.0498656, -0.0199271, 0.0873643, 0.272218, 0.131157, -0.412807, -0.0180274, 0.234466, -0.0189047, -0.0739429, -0.120882, 0.0490978, 0.0969094, -0.00477165, 0.0101424, -0.425893, -0.0872457, -0.011015, -0.81787, 0.15045],
    [0.211535, 0.0412007, 0.161828, 0.0833783, 0.00957073, 0.0154835, 0.167145, -0.0118291, -0.0141584, 0.115539, 0.257215, -0.0633688, 0.0410378, 0.0590104, 0.118062, -0.00972309, 0.0669349, -0.212574, -0.0210292, -0.0513279, 0.211093, -0.266772, -0.0526072, -0.0403425, 0.0677743, 0.195576, 0.0485535, -0.180957, 0.052218, 0.0403288, -0.474949, 0.269729],
    [0.0669934, 0.101883, 0.256432, -0.046602, -0.0305013, 0.122258, 0.142073, -0.0972362, 0.000587302, 0.0686381, 0.102115, -0.0371013, 0.0370165, 0.0628962, -0.0224913, 0.0811549, 0.125585, -0.170613, -0.0295, 0.197698, 0.0563237, -0.0791793, -0.0290201, 0.0340751, 0.0233644, 0.0212717, -0.0414079, -0.238753, -0.159908, -0.013004, -0.35836, 0.0992738],
    [0.372452, -0.10459, 0.480632, -0.0591835, -0.249861, 0.464972, 0.324253, -0.0228973, 0.0327021, 0.209292, 0.0642536, 0.0715272, 0.0754365, -0.0165467, 0.0556562, 0.302618, 0.363918, -0.462473, -0.0223079, 0.362405, 0.0463901, -0.0539031, -0.145935, -0.0561488, 0.0143419, -0.0329654, 0.127941, -0.556722, -0.115164, -0.0754203, -1.19531, 0.179206],
    [0.249113, 0.0047199, 0.548912, 0.0258845, -0.20063, 0.523339, 0.429324, -0.0768385, -0.00157953, 0.0792932, 0.0917605, 0.00214264, 0.0399676, -0.101005, 0.0346449, 0.288617, 0.325521, -0.55552, 0.0213045, 0.295743, 0.0192688, -0.109128, -0.128974, -0.126091, 0.0633617, 0.0481294, 0.0896658, -0.588851, -0.097623, -0.0780979, -1.23398, 0.172793],
    [0.218038, 0.116775, 0.390962, 0.0303115, -0.0964153, 0.0588038, 0.120411, -0.0793787, -0.073846, 0.122284, 0.505085, -0.0339213, -0.0210691, -0.0281242, 0.051294, 0.131595, 0.0157215, -0.384733, 0.0210862, 0.210896, 0.371248, -0.292262, 0.00537708, -0.0754586, 0.0894022, 0.0356301, 0.0420035, -0.420537, 0.0350185, 0.0279023, -0.782773, 0.436321],
    [0.0795783, 0.114603, 0.20389, 0.0139278, -0.0853727, 0.137417, 0.144041, 0.062738, 0.0391087, 0.0500275, 0.0232298, 0.0414435, -0.0311764, 0.0645871, 0.050212, 0.147836, 0.107126, -0.168732, 0.011701, 0.12664, 0.000245447, -0.0294244, 0.0645529, 0.0204916, 0.0276024, 0.0252121, 0.0567272, -0.268356, 0.0310599, -0.0581139, -0.457494, 0.199197],
    [-0.0232973, 0.0246822, 0.0383218, 0.02006, 0.00800683, 0.0895429, 0.00944287, -0.0920556, 0.00772646, 0.0236426, 0.0420891, 0.0459292, 0.0701483, -0.0507245, 0.0236311, 0.0483537, 0.0637627, -0.0342459, -0.0280821, 0.0644079, 0.0868828, -0.102273, -0.0546357, -0.0185185, -0.00561751, -0.00392918, 0.0545812, -0.0186584, 0.00166947, 0.0736676, -0.102806, 0.00638532],
    [0.108986, -0.0715664, 0.19389, -0.0909679, -0.168566, 0.20634, 0.183284, -0.0867321, 0.0111278, 0.0892566, 0.0543163, -0.0576327, 0.00871805, -0.0139712, 0.0097746, 0.189952, 0.104308, -0.165965, -0.0158034, 0.234373, 0.00841585, -0.00663896, -0.0250807, -0.0255184, -0.0533356, -0.0111238, 0.0583897, -0.281518, -0.0533619, -0.0314214, -0.50384, 0.124161],
    [0.124964, 0.0610687, 0.219983, -0.0276728, -0.120277, 0.226699, 0.0240896, 0.0939117, -0.0323843, 0.0674257, 0.337505, 0.00122729, 0.0352186, -0.093204, -0.00271151, 0.117392, -0.0420616, -0.186358, -0.0608434, 0.194105, 0.135987, -0.366958, -0.120264, -0.00424597, 0.0196535, 0.0568219, 0.018708, -0.349962, -0.0683398, -0.0375224, -0.591696, 0.344774],
    [0.0401958, 0.0016925, 0.0498769, 0.00276452, -0.0300306, -0.0213753, 0.00252782, 0.0230228, 0.0140761, -0.0019184, 0.0274869, -0.0160484, 0.0363949, -0.0101853, 0.0133313, 0.072528, 0.0479939, -0.0332851, -0.0181069, 0.00176263, -0.0102807, 0.0561025, 0.00699089, -0.0396047, -0.0314604, 0.0226025, 0.0581869, -0.121345, 0.000892322, 0.025483, -0.0591142, 0.0036689],
    [0.126303, -0.0265603, 0.215449, -0.049202, -0.0117685, 0.0201419, 0.156166, -0.114936, 0.0150133, 0.0782808, 0.27169, -0.0219071, 0.00185461, 0.054656, 0.068232, 0.0136944, 0.0421799, -0.168932, -0.0912157, 0.00431098, 0.068855, -0.209243, -0.0363886, 0.0507141, -0.0461286, 0.14285, 0.0741922, -0.163441, -0.0333915, -0.0193, -0.41033, 0.143126],
    [0.104993, -0.0298783, 0.0963847, -0.0146578, -0.0634498, 0.096477, -0.0152651, -0.0114738, -0.0796674, -0.0549685, 0.103628, -0.0179795, -0.0162997, -0.0533058, 0.0327783, 0.130112, -0.0202205, -0.193975, -0.0242542, 0.214957, 0.114829, -0.0692338, -0.0212407, -0.0127698, 0.114173, 0.00779567, 0.0924984, -0.0902834, 0.0294835, 0.0778883, -0.314128, 0.126755],
    [0.198836, -0.0481694, 0.325849, 0.0281884, -0.170778, 0.323924, 0.362198, -0.0743593, 0.0107954, 0.075467, 0.288803, 0.0375056, -0.00913752, -0.0425474, 0.128648, 0.16915, 0.258979, -0.401061, 0.00669091, 0.130743, -0.0275979, -0.140108, -0.213437, 0.0142363, -0.0682046, 0.0791997, -0.0332571, -0.518175, -0.0686453, -0.0433466, -0.927068, 0.216397],
    [0.0911185, 0.0341782, 0.174726, -0.0133496, -0.0353694, 0.103312, -0.0696023, 0.0121392, 0.0216109, 0.0206132, 0.190613, -0.104769, 0.00475119, 0.00350573, -0.00495078, 0.0910444, -0.0783592, -0.0708694, -0.0139205, 0.209282, 0.255668, -0.163037, 0.0243529, -0.0487659, 0.115032, 0.0508025, 0.0344904, -0.0907689, -0.0718669, 0.0327476, -0.279831, 0.126717],
    [0.0760122, -0.042977, 0.267901, -0.0162282, -0.117607, 0.240755, 0.271206, 0.0117695, 0.0147552, 0.0480505, -0.0197, -0.0559418, -0.0132701, -0.0571622, -0.0354117, 0.192382, 0.207516, -0.268903, 0.0123742, 0.193027, -0.0121696, -0.0932153, -0.0492361, -0.029126, -0.0144428, -0.0148905, -0.0280861, -0.226827, 0.00996581, -0.082445, -0.649472, 0.0967858],
    [0.139517, 0.0450795, 0.246234, 0.0266132, -0.0836978, 0.147711, -0.0295255, -0.0270818, 0.00482816, 0.0583483, 0.35972, -0.0245054, 0.0117186, -0.0405294, 0.01984, 0.0658359, -0.0524058, -0.306315, -0.0119766, 0.297337, 0.235872, -0.259726, -0.00643008, -0.0120547, 0.17714, -0.0206794, 0.0827518, -0.30335, -0.0191597, -0.0280449, -0.512395, 0.223549],
    [0.197797, -0.0264895, 0.0677118, 0.0574714, -0.115318, 0.145143, 0.175169, -0.0725925, 0.0287496, 0.112713, 0.0938887, 0.0830141, -0.0531367, -0.0203765, 0.135819, 0.0668569, 0.126435, -0.135116, -0.0435411, 0.0930014, -0.0351404, -0.154132, -0.183422, 0.0500711, -0.0110585, 0.0634469, 0.0642789, -0.25405, -0.0649445, -0.0115503, -0.486634, 0.127964],
    [0.0915264, -0.00189577, 0.127646, -0.000624596, -0.000613682, -0.0254353, 0.117579, -0.0137971, 0.0130668, 0.0701311, 0.274691, 0.0323942, 0.0145708, -0.0454679, 0.10075, -0.00288531, 0.0940663, -0.302551, 0.0340388, 0.0113862, 0.141894, -0.21323, -0.0515415, -0.107469, -0.0401532, 0.15501, 0.00249019, -0.186639, -0.0943034, 0.0886338, -0.486715, 0.244188],
    [0.289818, -0.0194843, 0.278789, -0.0670896, -0.164433, 0.273411, 0.183348, 0.00771775, 0.07667, 0.0210077, 0.0870719, -0.0331917, 0.0294858, -0.0735326, 0.0147859, 0.105328, 0.146751, -0.243847, -0.00801472, 0.171623, 0.000421422, -0.0479732, -0.131875, -0.0181454, -0.0430203, 0.0243411, 0.0104207, -0.357027, 0.000420493, -0.0583556, -0.618441, 0.079654],
    [0.149674, 0.0710454, 0.228028, -0.0328005, -0.137323, 0.0969163, 0.03652, 0.0421104, -0.031524, 0.0713005, 0.311048, -0.0163107, 0.025825, 0.00898375, 0.0658084, 0.034118, 0.0415764, -0.146101, -0.0353136, 0.148665, 0.238655, -0.259249, -0.013584, -0.0736805, 0.0418694, 0.0259258, 0.0737509, -0.265979, -0.0554669, 0.0315451, -0.533432, 0.234741],
    [0.254641, 0.0131836, 0.420133, -0.0170258, -0.145733, 0.359011, 0.232108, -0.066619, 0.0262825, 0.0792741, 0.0712729, -0.0345605, 0.0213062, -0.0864054, 0.0451033, 0.158379, 0.223109, -0.407254, -0.00672431, 0.321676, 0.051142, -0.195981, 0.0162085, 0.0365273, 0.0653898, -0.0531406, -0.0240186, -0.356036, -0.0246986, -0.0326115, -0.755189, 0.203373],
    [0.0611404, -0.00155423, 0.193987, 0.0139548, -0.110604, 0.176255, 0.0788011, -0.0189361, -0.0188376, 0.0560155, 0.0539571, 0.044035, -0.0619462, -0.0418738, -0.0113118, 0.152524, 0.0536096, -0.260685, 0.0640272, 0.147093, 0.123133, -0.0576147, -0.0341009, 0.0523363, -0.0325882, 0.0658816, 0.0204064, -0.262404, -0.0018539, -0.0156057, -0.453832, 0.156886],
    [0.0568969, 0.0832327, 0.234115, -0.0207107, -0.129557, 0.237329, -0.049283, -0.000169136, 0.00694081, 0.0150881, 0.324362, -0.0722114, 0.0378133, -0.00344334, 0.0792273, 0.110289, -0.0330009, -0.336065, 0.00861784, 0.247509, 0.220138, -0.285414, -0.0341477, -0.03544, 0.106259, 0.0343159, 0.190385, -0.259512, 0.00956085, 0.0347961, -0.556647, 0.312292],
    [0.090519, -0.0531877, 0.130051, 0.00445505, -0.0589086, 0.0449333, 0.142788, -0.00125646, 0.0277901, 0.0155636, 0.210545, 0.0139821, 0.0235429, 0.067241, 0.116769, -0.0494829, 0.0542779, -0.152929, 0.0130903, 0.0686965, 0.0106732, -0.154166, -0.0207147, -0.0352868, -0.00958252, 0.0564232, -0.0679311, -0.191889, 0.0554872, 0.00592983, -0.396577, 0.0833398],
    [0.193185, 0.0725665, 0.322792, -0.000819604, -0.202722, 0.361718, 0.323313, -0.0106681, 0.105404, 0.108567, -0.043679, 0.0426005, 0.103568, -0.109311, 0.0582879, 0.196595, 0.138556, -0.312414, 0.0264473, 0.247279, -0.0319172, 0.0343927, -0.0746494, 0.0103733, -0.0387744, 0.015075, -0.00329346, -0.306475, 0.0183181, -0.0758566, -0.741667, 0.157044],
    [0.200789, -0.0121709, 0.139895, -0.024308, -0.0070371, 0.00493876, 0.26962, -0.110608, -0.0168066, 0.0317071, 0.401628, 0.00936156, -0.00802358, -0.0163298, 0.103866, 0.0642113, -0.0402186, -0.327618, 0.0155383, 0.0304175, 0.160697, -0.272264, -0.05555, -0.0524153, 0.0346313, 0.173544, 0.0559552, -0.325904, -0.027599, -0.00202242, -0.586234, 0.394407],
    [0.148836, -0.0432241, 0.316649, -0.0370736, -0.147088, 0.287118, 0.152582, -0.018373, 0.000376327, 0.119525, 0.0298704, -0.0293493, -0.00631032, -0.0165771, -0.0233276, 0.20162, 0.147393, -0.351192, 0.0226338, 0.278933, 0.101649, -0.131555, -0.0351734, -0.0608988, 0.0735178, -0.00041151, 0.0969011, -0.3653, -0.106488, -0.0367244, -0.719672, 0.271359],
    [0.0759259, 0.0586871, 0.149717, -0.0522913, -0.0385052, 0.0359895, 0.175498, -0.0229001, 0.0284134, 0.0748477, 0.279115, 0.0322077, 0.000333989, 0.0586987, 0.0489086, 0.0170907, 0.0295096, -0.152593, 0.0281147, 0.0156525, 0.200392, -0.234308, -0.0501672, -0.0188928, 0.0918692, 0.0759444, -0.0869549, -0.216227, 0.0627702, -0.0112331, -0.5513, 0.321432],
    [0.109995, 0.0921811, 0.273565, 0.0193359, -0.0384865, 0.0686912, 0.0534119, -0.0669897, 0.00720663, 0.0197501, 0.32166, -0.00332639, -0.0241231, 0.0553087, 0.0978521, 0.0512514, -0.0552022, -0.209672, -0.0548881, 0.147674, 0.250962, -0.271449, 0.0674831, -0.0160443, 0.056041, -0.00649193, 0.00753676, -0.178063, 0.0366135, -0.0288705, -0.523192, 0.300658],
    [0.0226791, 0.00633853, 0.181072, -0.070778, -0.126017, 0.0943836, 0.0125864, -0.0226743, 0.00269607, -0.0666936, 0.246733, 0.00248783, 0.0359984, 0.105572, 0.0639614, 0.09782, 0.0145645, -0.151007, 0.0187192, 0.159939, 0.135928, -0.0635346, 0.020288, 0.0375733, 0.080999, -0.0025732, 0.117918, -0.0632729, -0.0369654, 0.0556425, -0.259262, 0.198855],
    [0.10938, -0.0155762, 0.213014, 0.0252713, -0.04351, 0.141515, 0.069942, 0.0142433, 0.025107, 0.0670648, 0.262771, -0.0720844, -0.0529832, -0.0338234, -0.0201173, 0.130906, 0.0350524, -0.229513, -0.0544925, 0.0799613, 0.251996, -0.191328, 0.00287301, -0.103666, 0.00764375, 0.0224763, 0.117787, -0.216237, -0.0148253, 0.00765552, -0.441547, 0.199589],
    [0.131663, 0.118046, 0.0856983, -0.0372715, -0.0422298, -0.00366502, 0.028953, 0.0280185, 0.00515321, 0.0224913, 0.078702, -0.0372327, -0.0358066, -0.0295686, -0.0472687, 0.0729199, 0.0718203, -0.185718, -0.0480765, 0.10506, 0.067824, -0.0272061, -0.0400113, -0.0199634, 0.0588425, 0.0368665, 0.02873, -0.143204, -0.0255053, -0.0179142, -0.307924, 0.103394],
    [0.0338151, -0.00968463, 0.277524, -0.0430564, -0.0591884, 0.178762, 0.0245494, 0.0290956, 0.082489, 0.0713204, 0.133154, -0.0376911, -0.0914528, -0.0709094, 0.0224101, 0.249297, 0.0164174, -0.208073, -0.0446745, 0.223939, 0.0883804, -0.117633, -0.0248105, 0.0242631, 0.0832036, 0.0184761, 0.0782019, -0.21339, -0.053113, 0.00813664, -0.43591, 0.217564],
    [0.116669, 0.0189828, 0.0845039, -0.0458452, -0.0239132, 0.033926, 0.108978, 0.0368857, -0.0384335, -0.00490557, 0.181049, 0.0810403, 0.0496008, -0.00917432, 0.136778, -0.0525574, 0.00974225, -0.160791, -0.0252416, 0.0197161, 0.0531218, -0.148299, -0.0131953, -0.00273249, 0.0480199, 0.0721037, -0.00925025, -0.207513, 0.105878, 0.0237328, -0.315722, 0.16796],
    [0.35252, 0.156473, 0.623588, -0.0186975, -0.242812, 0.494763, 0.321688, -0.0440459, -0.00756912, 0.12253, 0.307502, -0.0108435, -0.0206333, -0.0568148, 0.0117159, 0.326918, 0.139704, -0.614238, -0.0937532, 0.588025, 0.278683, -0.393169, -0.0605132, -0.00224575, 0.0848605, -0.032813, 0.133471, -0.614797, -0.120257, -0.0488294, -1.25769, 0.49852],
    [0.190606, 0.0314685, 0.228233, -0.0344439, 0.0252113, 0.0336842, 0.269044, -0.00759592, 0.108423, 0.110181, 0.416614, -0.0963625, 0.046762, -0.0201112, 0.089486, 0.00273233, -0.0290492, -0.235629, 0.113046, 0.11076, 0.178277, -0.348412, -0.0261666, -0.0967756, -0.0736122, 0.203737, -0.0312584, -0.249145, -0.0693219, 0.026895, -0.619817, 0.284105],
    [0.107719, 0.036812, 0.198879, 0.0440534, -0.0810829, 0.0662869, 0.173632, 0.0649353, 0.0565237, 0.0284922, 0.362536, -0.0546248, -0.059738, 0.00155462, 0.0213259, 0.0469788, -0.0928603, -0.286505, 0.025035, 0.0189475, 0.208462, -0.242191, 0.0272935, -0.00120666, 0.0645465, 0.111023, 0.0538764, -0.231811, 0.0633913, -0.0168038, -0.65334, 0.294261],
    [0.0517162, 0.0179962, 0.104412, 0.0276699, 0.0363684, 0.0368368, 0.0310207, -0.0395324, 0.0289009, 0.0535452, 0.0577149, -0.0119265, -0.0083882, 0.000929276, 0.140735, -0.057187, 0.0141563, -0.15319, -0.0912501, -0.029951, 0.0800032, -0.0363581, -0.042165, -0.0810739, -0.000832561, 0.0603265, 0.0299948, -0.113548, -0.0696672, -0.000972453, -0.197179, 0.102764],
    [0.0688648, -0.0219233, 0.0936542, 0.0368253, -0.038095, 0.132854, 0.0807122, 0.0202446, -0.0391615, 0.0491573, -0.000431687, 0.0668212, 0.00383846, 0.0634364, -0.0688305, 0.066427, 0.0391978, -0.12096, -0.0125699, 0.12399, 0.0137975, -0.0591277, -0.0116049, 0.020097, 0.0130776, 0.0426197, -0.0136346, -0.162852, 0.0107526, -0.010077, -0.375063, 0.00515851],
    [0.12651, -0.0299498, 0.0874257, 0.0408517, -0.0443119, 0.12156, 0.141381, 0.013486, -0.0116793, 0.141579, -0.0506161, 0.050485, -0.0590991, -0.0386686, -0.00978247, 0.0532224, 0.142867, -0.163709, -0.0732988, 0.0627247, 9.66658e-05, 0.0548949, -0.0624786, 0.0372189, 0.0554843, -0.03536, -0.0266098, -0.151218, -0.0294466, -0.0763084, -0.300328, -0.0259349],
    [0.210161, 0.0416982, 0.112905, -0.0337249, 0.0261474, -0.0356629, 0.201119, -0.0665154, -0.00401795, 0.0557616, 0.321489, 0.0011409, -0.0257017, -0.0138731, 0.127371, -0.103251, -0.00239217, -0.213719, -0.00585285, 0.0264214, 0.0522859, -0.265888, -0.0419019, -0.0324637, -0.0127002, 0.214196, 0.101437, -0.241237, -0.0346755, -0.0141247, -0.524723, 0.371286],
    [0.0278674, 0.00188393, 0.0839416, 0.0793544, -0.00790796, -0.0452646, 0.0102979, -0.0901309, 0.00460652, 0.100429, 0.103747, 0.0553107, 0.0641898, -0.0224704, 0.0220512, 0.0691931, -0.00334652, -0.055588, -0.0649103, -0.0582999, 0.0187365, -0.137642, -0.0135387, 0.000969173, -0.00508134, 0.0056299, -0.0235238, -0.0997747, -0.0158523, 0.067046, -0.222648, 0.013163],
    [0.175107, -0.0253359, 0.482144, -0.0471079, -0.222464, 0.327198, 0.301911, -0.0425847, 0.0226676, 0.06241, 0.0693911, -0.0431625, 0.0637013, -0.00821259, 0.0134818, 0.258687, 0.207232, -0.341489, -0.0308348, 0.399894, 0.108193, -0.121711, 0.0429358, 0.00656826, 0.00150627, -0.0454309, 0.00827835, -0.391927, -0.0271267, -0.00760924, -0.776913, 0.130463],
    [-0.0285769, 0.0585369, 0.0919719, -0.0241069, -0.0132076, 0.0104343, -0.0177525, -0.00868116, 0.0303007, -0.0146064, 0.104784, -0.01549, -0.0316238, 0.0104489, 0.0273242, 0.0103654, 0.0281427, -0.051475, 0.104246, -0.000157908, 0.108294, -0.0449703, -0.0135818, 0.0142258, -0.00702945, -0.000666722, -0.00609512, -0.0825472, -0.0125817, 0.075547, -0.212721, 0.104374],
    [0.196982, 0.0471408, 0.312028, -0.0291575, -0.0920149, 0.150308, 0.051078, -0.0905964, 0.0426651, 0.0852398, 0.448862, -0.0431574, -0.0652285, -0.0262274, -0.00744144, 0.170954, -0.0519498, -0.300298, 0.0201404, 0.257787, 0.275231, -0.278016, -0.0351024, 0.00326943, 0.164303, 0.0838589, 0.132424, -0.291055, 0.0313372, 0.045837, -0.78153, 0.394209],
    [0.256211, 0.0324615, 0.332091, -0.0602347, -0.12071, 0.3373, 0.18696, 0.0283355, 0.0246232, 0.192019, 0.209181, -0.0270251, -0.0190243, -0.0174462, -0.0423592, 0.172069, 0.192675, -0.371031, -0.00695681, 0.389065, 0.147952, -0.214882, -0.0805289, 0.0405803, 0.0712681, 0.0692627, -0.016359, -0.385511, -0.00659182, -0.0625668, -0.806878, 0.331298],
    [0.0427555, 0.000243665, 0.099122, -0.0121583, -0.0656898, -0.00308236, -0.056846, 0.0865012, 0.0269058, 0.0734275, 0.165875, 0.0739252, 0.00651767, 0.0434219, -0.00916883, 0.0607793, 0.019824, -0.0744104, -0.10048, 0.133826, 0.0421445, -0.0757815, 0.0204983, 0.0753016, 0.0593488, -0.0128135, 0.0477804, -0.113747, -0.0315809, 0.0689827, -0.0797872, 0.00577497],
    [0.210714, -0.0217908, 0.195859, -0.0204234, -0.0155144, 0.142297, 0.2606, -0.0358748, -0.0460107, 0.0809196, 0.477019, -0.091148, -0.0292732, -0.0524157, 0.192356, 0.126808, 0.0513659, -0.349832, -0.0682999, 0.0672951, 0.151346, -0.250537, -0.192745, -0.056546, -0.0832852, 0.190801, 0.0107037, -0.414628, 0.0362551, -0.0530992, -0.902853, 0.296213],
    [0.0570406, -0.019422, 0.188893, 0.0258162, -0.00453062, 0.070013, 0.0612842, 0.0828421, -0.0208156, 0.0613574, 0.0680331, 0.0493475, 0.038794, -0.0335292, -0.00702907, 0.125558, 0.0563368, -0.0595464, -0.0223676, 0.130541, 0.0973576, -0.0216556, -0.0317365, 0.0189069, -3.1127e-05, -0.0107027, 0.0868226, -0.151854, -0.012744, -0.041292, -0.246267, 0.118132],
    [0.261951, 0.0129489, 0.45406, -0.146317, -0.190879, 0.441917, 0.374713, -0.0223596, -0.0226538, 0.0944298, 0.160662, -0.0300899, -0.0382343, -0.0561411, 0.0588946, 0.28075, 0.320932, -0.359374, -0.0340727, 0.174505, 0.00755672, -0.134341, -0.191549, -0.0662988, -0.00523237, -0.033863, 0.0919713, -0.524066, -0.0331636, -0.0305355, -1.16072, 0.281074],
    [0.174473, -0.0799241, 0.158028, -0.0126757, -0.0890335, 0.178425, 0.0304094, -0.0628843, 0.0128712, 0.100649, 0.104483, -0.0487823, 0.0363194, -0.0551284, 0.050866, 0.141311, 0.0182041, -0.153964, 0.0561237, 0.115814, 0.0795504, -0.134328, 0.0965777, -0.0302191, 0.0410834, 0.054246, -0.0285165, -0.155495, 0.0181493, 0.00171288, -0.398148, 0.177734],
    [0.158486, 0.0732438, 0.135218, -0.0184155, -0.126018, 0.106804, 0.077476, 0.017808, 0.0437616, -0.00931106, 0.262165, 0.072199, -0.075187, 0.0415096, -0.0255273, 0.0742705, 0.0381534, -0.196825, 0.0651045, 0.0945683, 0.128183, -0.188509, -0.0160184, 0.00463039, 0.123105, 0.055485, 0.0514436, -0.184417, 0.0336433, 0.00750436, -0.442883, 0.261663],
    [0.182104, 0.0169798, 0.253468, -0.127689, -0.186864, 0.211287, 0.280996, 0.0331024, 0.0796399, -0.00542462, 0.0677192, -0.051029, -0.00458014, -0.131077, 0.0966944, 0.158213, 0.0643485, -0.241159, -0.0848273, 0.174754, -0.0275218, -0.0694948, -0.108673, 0.0265355, -0.0261398, -0.0352996, -0.0307515, -0.356949, -0.00876511, -0.0554462, -0.669838, 0.174938],
    [0.391923, -0.037578, 0.752356, 0.003111, -0.284961, 0.74302, 0.513326, -0.0700043, 0.0325167, 0.167658, 0.210009, 0.0974908, -0.043035, -0.200729, -0.0446494, 0.348485, 0.347263, -0.741807, -0.0178076, 0.648251, 0.11415, -0.123789, -0.0376126, 0.00294704, 0.0710819, 0.0258739, 0.0721659, -0.779174, -0.146271, -0.0759137, -1.62895, 0.418138],
    [0.138013, 0.0688813, 0.0886307, -0.0893846, -0.0177782, -0.00483834, 0.0531538, -0.0589561, -0.0240738, -0.00299018, 0.150995, -0.0358222, -0.0766142, -0.0150094, 0.0470258, -0.0256529, 0.0440851, -0.0662312, -0.00482518, 0.0566298, 0.0894374, -0.173681, 0.00282323, -0.0243874, -0.0252901, -0.0691835, 0.0639146, -0.200109, 0.0146252, -0.0438121, -0.193221, 0.164268],
    [0.0868996, 0.06054, 0.211692, -0.0550239, -0.0477391, 0.0478271, -0.0173544, -0.0317807, 0.0179208, 0.0395808, 0.230565, -0.10105, -0.0039261, 0.0168752, 0.0125656, 0.0819815, -0.0399542, -0.202721, -0.0223154, 0.0994215, 0.208212, -0.177781, 0.020724, -0.0276252, 0.0503436, 0.036502, -0.03167, -0.138976, 0.0116647, 0.0622628, -0.379333, 0.151495],
    [0.163768, 0.110876, 0.347831, -0.0128725, -0.14884, 0.302374, 0.162947, -0.0177148, 0.00906334, 0.00833046, 0.116919, -0.0382082, 0.0113663, -0.086208, -0.0588128, 0.10805, 0.174404, -0.290356, 0.0665515, 0.294294, 0.100998, -0.113663, 0.00795094, -0.0296941, 0.0149493, -0.0373536, 0.087063, -0.263133, -0.057499, 0.00243239, -0.686519, 0.193408],
    [0.174128, -0.0406775, 0.341185, -0.018998, -0.165773, 0.212498, 0.271564, -0.0992479, 0.0390206, 0.149906, 0.11082, -0.00889544, -0.012607, -0.00605425, -0.0226569, 0.203607, 0.211918, -0.314769, -0.0574559, 0.244273, -0.025477, -0.0198621, -0.108363, 0.0245319, -0.00583743, 0.0315028, 0.0448374, -0.272265, 0.0055963, -0.03945, -0.850069, 0.160476],
    [0.221526, 0.0685908, 0.297858, 0.00589302, -0.0455148, 0.0476111, 0.150334, -0.106594, 0.0351676, 0.0890056, 0.383657, 0.035836, 0.0708991, 0.0400882, 0.146691, 0.0491505, 0.00999454, -0.360668, 0.119819, 0.0596048, 0.201458, -0.314485, 0.0269572, -0.105529, 0.106726, 0.090907, -0.0385792, -0.337156, 0.00815444, -0.0766792, -0.723961, 0.343641],
    [-0.0520819, -0.0867002, -0.0136908, 0.0329618, 0.00510508, -0.00295664, -0.0192816, -0.0266462, -0.038571, 0.0100993, 0.0991206, 0.0249592, -0.048387, 0.0338741, 0.0824678, 0.00123864, 0.0634659, -0.115224, 0.0146919, -0.0414938, 0.0346163, -0.0649858, -0.11426, -0.00508159, -0.0408589, 0.0521353, -0.000163914, -0.0308949, 0.0158431, 0.0434263, -0.131583, 0.0415686],
    [0.135473, -0.0228587, 0.175919, -0.0166334, -0.105048, 0.080332, 0.30017, -0.0760066, -0.000700435, 0.0845287, 0.232124, -0.0728837, 0.00546449, -0.0304614, 0.0175102, 0.104489, 0.0842655, -0.236745, 0.0779072, 0.0671252, 0.0400837, -0.130013, -0.143355, -0.00997211, -0.058703, 0.0924368, 0.0281259, -0.203925, -0.0321829, 0.0272818, -0.589351, 0.234643],
    [0.181617, -0.0478291, 0.312044, 0.0219246, -0.0301602, 0.330083, 0.291046, -0.0518023, -0.00776329, 0.0322816, 0.196859, -0.0852078, 0.0163382, -0.0476738, 0.0914954, 0.141084, 0.289711, -0.455445, -0.0345679, 0.0583035, 0.0228017, -0.125911, -0.192038, 0.0373132, -0.0852223, 0.0488778, 0.0321701, -0.48601, -0.0870756, -0.0669674, -0.852399, 0.119398],
    [0.0632212, 0.0413002, 0.18097, -0.0234298, -0.0469313, 0.0223549, 0.074222, 0.0198486, 0.0271876, 0.0867471, 0.17506, 0.00321184, 0.0068322, 0.00969966, 0.0621682, 0.119912, -0.00581542, -0.13734, 0.0531955, 0.0639793, 0.171002, -0.216598, -0.0489295, 0.00275653, -0.0321636, -0.00150953, 0.00553693, -0.147991, -0.0542838, 0.0488869, -0.342742, 0.149148],
    [0.244206, 0.0943244, 0.271087, -0.0556398, -0.164896, 0.234148, 0.107939, -0.0804743, -0.0142813, 0.0888975, 0.182334, 0.0569212, 0.0391897, 0.0265393, 0.00117971, 0.151306, 0.117208, -0.299894, 0.051523, 0.280287, 0.110492, -0.16314, 0.0193053, -0.0443668, 0.0378839, 0.0518771, -0.0226279, -0.312502, -0.0188817, -0.013052, -0.667012, 0.245621],
    [0.168941, -0.0284456, 0.266014, -0.0181785, -0.123327, 0.239791, 0.134597, -0.00670551, 0.0442955, 0.00101097, -0.00927811, 0.0596994, -0.0229853, -0.0799116, -0.076857, 0.119048, 0.156823, -0.202089, 0.012382, 0.225989, 0.126374, 0.00391295, 0.0665861, -0.0343941, 0.0345487, -0.0754939, -0.00747921, -0.305498, 0.0013134, -0.0624478, -0.641734, 0.185293],
    [0.0772126, 0.0188901, 0.150196, -0.0721484, 0.0437915, 0.145221, 0.156884, -0.0768679, 0.0701138, -0.0161206, 0.229441, 0.0868412, 0.0192476, 0.0492409, 0.0787585, 0.0369469, 0.0217854, -0.149233, -0.0649489, -0.0258315, 0.0409245, -0.170463, -0.0762346, 0.0324918, 0.0757567, 0.0670442, 0.00764277, -0.233299, 0.00829188, 0.0434327, -0.443519, 0.28488],
    [0.0995539, 0.0290572, 0.181351, 0.000172142, -0.0394862, -0.00642022, 0.228136, -0.000820935, 0.0079051, 0.0678738, 0.374026, -0.0821894, -0.0196697, -0.0172685, 0.0916205, -0.0136419, -0.0391486, -0.232819, -0.0736229, 0.00504792, 0.189243, -0.264921, -0.0494949, 0.00188995, -0.0117866, 0.25816, -0.0417861, -0.332615, 0.0362597, 0.0223862, -0.688698, 0.212237],
    [0.127691, 0.0162878, 0.123128, -0.0439342, -0.0493317, 0.0328888, 0.165342, -0.00466166, 0.0614629, 0.0737788, 0.276836, 0.00840581, 0.0939838, -0.0401707, 0.127372, -0.000140705, -0.0224226, -0.253385, -0.0138183, -0.0019626, 0.10859, -0.160602, -0.0145721, 0.0423026, -0.0457163, 0.148438, -0.0385616, -0.220665, -0.0530723, 0.0362825, -0.358015, 0.222741],
    [0.143024, 0.0488986, 0.187722, -0.0370061, -0.11474, 0.142952, 0.0514207, -0.0199897, -0.00683959, 0.115762, 0.236679, -0.00180797, 0.0776969, -0.00432103, -0.0140088, 0.0915057, -0.0164444, -0.188257, -0.0229059, 0.124841, 0.144634, -0.167302, -0.0622949, -0.0325091, 0.115949, -0.0160476, 0.118268, -0.243654, 0.0247025, -0.0251781, -0.46278, 0.17014],
    [0.166885, 0.0159159, 0.147035, 0.00409232, -0.0671957, -0.091887, 0.252791, -0.0996437, 0.00534114, 0.0705983, 0.284953, -0.0637988, -0.0718787, 0.0402449, 0.0478482, 0.108607, 0.0467509, -0.272314, -0.0540715, 0.0427142, -0.00697488, -0.244581, -0.0576338, -0.0460783, 0.045321, 0.147993, 0.0357745, -0.177203, 0.0404468, 0.0164412, -0.476349, 0.293422],
    [0.106033, 0.0241399, 0.227514, -0.0503116, 0.0395435, 0.0552931, 0.00869296, -0.0390766, 0.0225902, 0.0521901, 0.290023, 0.0316938, -0.00370461, -0.0208648, 0.0364241, 0.101149, 0.0056584, -0.294171, -0.0113085, 0.119499, 0.1247, -0.292038, -0.0350325, 0.0569842, 0.167126, 0.124537, 0.0190983, -0.1209, 0.0232353, -0.0362401, -0.379144, 0.177943],
    [0.194467, 0.0683054, 0.199655, -0.0125984, -0.185007, 0.200003, 0.274435, -0.0460233, 0.106397, 0.112748, 0.024117, -0.0344552, 0.0105168, -0.0054351, 0.0623541, 0.041322, 0.132536, -0.241917, 0.0318313, 0.235925, 0.0167739, 0.0367546, 0.0127182, -0.0142154, 0.0240527, 0.0429767, -0.0600683, -0.197302, -0.0107175, -0.0560185, -0.556773, 0.0499056],
    [0.288515, 0.0595344, 0.453703, 0.0452444, -0.187966, 0.460806, 0.234475, -0.0462841, 0.133031, 0.108276, 0.0174562, 0.0403215, -0.00909129, -0.10442, -0.0484065, 0.132718, 0.254045, -0.470036, -0.0371047, 0.369203, 0.0819291, -0.0275431, -0.156347, -0.015478, -0.0222479, -0.0197652, -0.0505971, -0.403249, -0.0635011, -0.1053, -0.938926, 0.19179],
    [0.340354, -0.0624953, 0.71655, -0.162653, -0.285864, 0.636661, 0.491814, -0.0735079, 0.0736421, 0.134588, 0.0283978, 0.0726233, 0.104176, -0.0879613, 0.0257626, 0.388883, 0.327454, -0.571492, 0.0288394, 0.506246, 0.0446447, -0.0948152, -0.110266, 0.0262891, -0.047159, -0.0956675, -0.0444881, -0.681807, -0.0722398, -0.00278327, -1.34474, 0.315936],
    [0.230647, 0.0268357, 0.293219, -0.0341135, -0.0422921, 0.175148, 0.268199, 0.00167885, -0.010368, 0.109079, 0.191971, 0.0515431, -0.0187121, -0.0797536, 0.159403, 0.127917, 0.092072, -0.250769, 0.00305564, -0.00171638, 0.0614587, -0.149081, -0.0337541, -0.0507384, 0.0498687, 0.0952973, 0.0061018, -0.323729, -0.0974104, -0.0759733, -0.678087, 0.119067],
    [0.18465, 0.0730632, 0.264429, 0.00384816, -0.0270858, 0.21192, 0.113269, 0.0500408, -0.00223157, 0.0445099, 0.26233, 0.0040023, -0.0276273, -0.0762736, 0.0150348, 0.221627, 0.12698, -0.28422, 0.0441691, 0.246167, 0.252258, -0.333889, -0.0643751, -0.01666, 0.129884, 0.0199405, 0.0708522, -0.337542, -0.130409, -0.0356549, -0.67152, 0.269673],
    [0.167301, -0.0156527, 0.291595, -0.122776, -0.20687, 0.327327, 0.365593, -0.0154366, 0.110762, -0.0176332, 0.053941, 0.044049, -0.0469363, -0.0277352, 0.0345523, 0.211444, 0.238375, -0.32305, -0.024464, 0.179973, 0.0249617, -0.0580966, -0.0180026, 0.00842297, -0.0516487, 0.0318424, -0.0332364, -0.406422, -0.0722722, -0.000914475, -0.8056, 0.186803],
    [0.202027, 0.0750772, 0.214678, 0.0193303, -0.117755, 0.0773587, 0.050316, -0.044979, 0.0728836, 0.0384742, 0.30906, -0.0939616, -0.00868076, 0.0216525, 0.172838, -0.0331857, 0.0490452, -0.259854, 0.0107193, 0.0894538, 0.169998, -0.27331, 0.0189995, -0.0308328, -0.0100662, 0.112412, 0.0859262, -0.201505, 0.0129473, 0.115168, -0.50403, 0.19602],
    [0.145033, -0.0322792, 0.12587, -0.085031, -0.0276569, 0.143313, 0.121717, -0.0800529, -0.00461278, 0.114473, 0.264191, -0.0106139, 0.050435, -0.0310547, 0.0886875, -0.0187698, 0.0800293, -0.191768, -0.00829208, 0.0828972, -0.0279175, -0.0721262, -0.114611, -0.0411037, 0.0314877, 0.0265845, -0.0220872, -0.247318, 0.0835082, -0.0794999, -0.564462, 0.109908],
    [0.161463, 0.00851507, 0.28354, 0.00924243, -0.117071, 0.255311, 0.232213, -0.00520838, 0.0356129, 0.116438, 0.0749585, 0.0470747, -0.0181276, -0.0270908, 0.0364043, 0.122611, 0.183242, -0.259607, 0.0374335, 0.266343, 0.075984, 0.0115077, -0.0894211, -0.0221959, 0.0419168, -0.0301891, 0.0844207, -0.319927, -0.0690359, -0.0403749, -0.653906, 0.163835],
    [0.0849478, 0.0278042, 0.0668779, -0.0161882, -0.0181068, 0.00707394, 0.14418, -0.0305479, -0.0245423, 0.0243659, 0.174563, -0.0182406, -0.023568, 0.0672703, 0.131908, 0.0575668, -0.0451379, -0.130412, -0.0352993, 0.0697123, 0.0664685, -0.0948688, 0.00469036, -0.0890147, 0.037022, 0.0818721, -0.00254911, -0.174596, 0.0350582, -0.0234189, -0.356141, 0.151215],
    [0.110192, -0.00132367, 0.229199, -0.048569, -0.0195901, 0.122751, 0.080834, 0.0061957, 0.0366709, 0.00287174, 0.27071, -0.0692303, 0.0404877, -0.00220111, 0.034639, 0.0277854, -0.0798308, -0.168192, 0.0913141, -0.0392418, 0.160722, -0.252587, -0.0801777, -0.0284266, 0.114205, 0.0143077, -0.0380818, -0.198291, 0.0429315, -0.0549637, -0.421623, 0.17979],
    [0.181614, -0.00705995, 0.455347, -0.0136763, -0.278735, 0.424143, 0.345035, -0.00896431, 0.0335724, 0.110218, 0.095199, 0.00146927, -0.00454312, -0.0751977, -0.0388178, 0.247388, 0.240304, -0.40121, -0.0219876, 0.332774, 0.0240286, -0.0643334, -0.178317, -0.0020241, 0.00154793, 0.0461361, -0.039582, -0.403423, -0.074091, -0.0359426, -1.0216, 0.181958],
    [0.0781647, 0.054585, 0.0334932, 0.0455408, 0.0873353, -0.0139469, 0.00989713, -0.0512378, -0.0259217, 0.0503139, 0.0546567, -0.0791253, -0.00607233, -0.0541904, 0.0898943, -0.00333932, -0.00735123, -0.0555508, -0.0512731, 0.0276081, 0.09385, -0.0319374, 0.0234218, -0.0604939, 0.00171741, 0.0244416, -0.0471837, -0.0691582, -0.0864866, 0.0232668, -0.24736, 0.251655],
    [0.0838244, -0.0135628, 0.125594, -0.00275341, -0.0282767, 0.0588551, 0.00660779, -0.0231719, 0.0435024, 0.0124863, -0.0250392, -0.00953789, 0.0719187, 0.0343031, 0.0220661, 0.10724, 0.0787968, -0.056519, -0.0818187, 0.116933, -0.0213642, -0.0693975, 0.0320841, 0.0234918, -0.0303564, 0.0485401, -0.0170085, -0.162181, -0.0762019, 0.0214799, -0.275566, 0.04387],
    [0.216241, -0.0240503, 0.310006, -0.0327782, -0.0937967, 0.174551, 0.311852, -0.0313455, 0.0404958, 0.0941553, 0.12084, -0.000843357, 0.00227719, -0.0830427, 0.0387132, 0.11284, 0.16903, -0.30314, 0.0661519, 0.141638, 0.0406572, -0.0984132, -0.0999482, 0.00219383, 0.00133213, 0.015135, 0.0248781, -0.434118, -0.0523885, -0.036666, -0.71248, 0.0655178],
    [0.0156122, -0.0384665, 0.0147532, -0.00478142, -0.0218109, 0.0157178, 0.0086613, -0.00148746, 0.00270967, 0.0025138, -0.017496, 0.00472293, -0.0344222, -0.0730512, 0.0165303, -0.0094129, -0.0552596, -0.0729377, 0.0287682, -0.00357285, -0.0172061, -0.0295125, -0.0126027, -0.0254884, 0.0504838, 0.00889347, -0.0924497, -0.0627971, -0.000560791, 0.0587344, -0.160105, 0.0691068],
    [0.249726, -0.0106707, 0.297089, -0.0114543, -0.0910734, 0.280564, 0.287454, -0.0337489, -0.0591943, 0.0949226, 0.182553, -0.014769, 0.0207748, -0.0305762, 0.0811313, 0.116512, 0.127467, -0.353287, -0.0106987, 0.074183, 0.0481025, -0.0499259, -0.0880249, 0.0401349, -0.0472842, 0.0620327, -0.0123547, -0.409307, -0.0388175, 0.0608889, -0.84241, 0.235143],
    [0.0924709, -0.0513992, 0.0635794, 0.00145521, -0.0185745, 0.0803803, 0.0321878, -0.00392202, -0.0349962, 0.018912, 0.156961, -0.0284117, -0.00309485, 0.0364028, 0.00261651, 0.0159326, -0.0104801, -0.0890765, 0.0274355, -0.0238628, 0.0621125, -0.0849479, 0.00991333, 0.00787454, 0.00793701, 0.00134646, 0.0428697, 0.00640464, 0.0082384, -0.0441364, -0.228636, 0.104423],
    [0.0464606, 0.012083, 0.141114, 0.0318518, 0.0032352, 0.0125279, 0.194349, -0.0387067, 0.080505, 0.0913085, 0.350441, -0.0681631, 0.0456707, -0.0273782, 0.101728, 0.0127899, 0.0321996, -0.256099, -0.0220056, -0.0334283, 0.0919318, -0.205098, -0.116926, -0.0358567, 0.0288688, 0.0555259, 0.0683736, -0.256369, -0.0534788, 0.045005, -0.557585, 0.244012],
    [0.106783, -0.0284067, 0.124881, -0.0466091, -0.0870351, 0.157472, 0.110849, 0.044439, 0.0416103, 0.0290994, -0.0165888, 0.0446666, -0.00387267, 0.00709871, 0.0055968, 0.0935325, 0.128368, -0.164656, -0.0316942, 0.120372, -0.00373477, -0.0339211, -0.0599515, 0.00336086, 0.0610807, 0.0220458, 0.0260058, -0.222972, 0.0636271, 0.0229357, -0.356019, 0.0115379],
    [0.0710636, 0.0445176, 0.263775, -0.0521455, -0.0944453, 0.222619, 0.157075, -0.065169, 0.00951288, 0.125212, -0.0151503, 0.0057442, -0.0733739, 0.00140979, -0.0317081, 0.0351693, 0.142627, -0.203363, 0.052601, 0.139511, -0.0433202, 0.00458981, -0.0700697, 0.00799881, 0.0137407, 0.00139789, 0.049824, -0.299149, 0.0155937, 0.0430453, -0.4742, 0.0559221],
    [0.0943386, -0.0106305, 0.15934, 0.0191923, -0.034168, 0.0635181, 0.0801074, 0.114121, -0.0846882, 0.0642938, 0.115327, 0.0535617, 0.0592032, 0.0207025, -0.0131512, 0.00300654, 0.0127221, -0.0198741, 0.0293378, 0.0277356, 0.122719, -0.109148, -0.0104861, 0.00102642, 0.00432716, 0.099273, 0.0362224, -0.141374, -0.0573585, -0.00788279, -0.138431, 0.0876053],
    [0.26084, 0.0958303, 0.464551, -0.0169746, -0.245495, 0.304995, 0.140157, -0.0354907, 0.0347385, 0.0627358, 0.339147, 0.0631681, 0.0336882, -0.00283611, 0.0141181, 0.253031, 0.122, -0.481188, 0.0527436, 0.454558, 0.307253, -0.390715, -0.0392438, 0.0159069, 0.092866, -0.00370723, 0.0917361, -0.493271, -0.117671, -0.0744564, -1.05826, 0.458606],
    [-0.0109131, -0.00468935, 0.112534, 0.00794311, -0.109491, 0.143353, 0.0124509, -0.0104761, 0.0454991, 0.056101, 0.143589, 0.00423907, 0.0827113, 0.0589101, -0.0565603, 0.0452851, 0.0374496, -0.142422, 0.0477089, 0.203489, 0.129944, -0.0235031, 0.0278566, -0.0678157, 0.0612272, -0.0231446, 0.0993625, -0.197651, 0.0386482, 0.00586043, -0.344313, 0.183837],
    [0.220098, 0.00400552, 0.483784, -0.0540694, -0.111886, 0.436944, 0.259378, 0.00500882, 0.0319446, 0.240278, 0.0115275, 0.0170008, 0.062538, -0.0502243, -0.0987543, 0.21388, 0.233034, -0.343358, -0.0676086, 0.406811, 0.0320681, -0.157813, 0.00495363, -0.0691129, 0.0372874, -0.0228645, -0.0155966, -0.426626, -0.0599757, -0.01872, -0.986677, 0.264636],
    [0.136489, 0.0486357, 0.153624, -0.0109385, -0.00482749, 0.0962403, 0.125198, -0.0294568, 0.0945336, 0.0542315, 0.202385, 0.0137546, -0.065715, -0.035086, -0.000872021, 0.0503298, 0.148572, -0.111393, -0.0194117, 0.0466506, 0.123835, -0.164219, -0.063484, -0.0245638, 0.102806, 0.110109, 0.0230383, -0.144308, -0.00147224, 0.0119507, -0.48168, 0.250557],
    [0.260675, -0.0300307, 0.278653, -0.0300441, -0.0468097, 0.173314, 0.18103, -0.0198273, 0.015121, 0.0129338, -0.0339323, -0.0220611, -0.0565802, 0.0446647, -0.0696115, 0.117257, 0.175323, -0.191481, 0.0425757, 0.014537, 0.0273045, -0.000472168, -0.0914395, 0.0284022, -0.00473701, 0.00364576, -0.032637, -0.157841, -0.0847266, -0.0274511, -0.476895, 0.00706967],
    [0.0906771, 0.048787, 0.114172, -0.0474773, 0.0128794, 0.0758681, -0.00288141, -0.0496816, 0.0324693, -0.0256284, 0.264051, -0.00427883, 0.0417927, 0.04356, 0.15335, -0.0148149, 0.00549161, -0.238588, -0.0828313, -0.00255, 0.0567661, -0.0466493, -0.0687902, -0.0378655, 0.0775882, 0.0770502, 0.0345769, -0.182281, 0.0496101, -0.0564009, -0.278339, 0.171761],
    [0.185351, 0.0158927, 0.398085, -0.0972611, -0.191743, 0.372372, 0.289735, 0.00379344, 0.0123386, 0.12455, -0.0187094, 0.0615442, -0.0177229, -0.0650379, 0.0465961, 0.179896, 0.111991, -0.361119, -0.00187981, 0.248725, -0.0514113, 0.00259198, -0.0730116, -0.0200111, 0.0229344, 0.072821, 0.0558881, -0.360729, -0.0706017, -0.0399382, -0.793366, 0.136581],
    [0.117069, 0.0931544, 0.230747, 0.0257355, -0.137978, 0.221708, 0.0183639, -0.0847363, 0.0682917, 0.122635, 0.357612, 0.0180162, -0.0470297, -0.0797889, 0.0254476, 0.222263, 0.00163337, -0.240071, -0.0784694, 0.277817, 0.198843, -0.175016, -0.031057, -0.094997, 0.0872959, 0.0383961, 0.0608812, -0.212533, -0.0744413, -0.0471673, -0.567969, 0.266704],
    [0.198104, 0.0327646, 0.299589, -0.055874, -0.107087, 0.220444, 0.0371038, -0.0315251, 0.0188313, 0.0564301, 0.260771, -0.0207151, -0.0558071, -0.00429647, 0.0832954, 0.190933, 0.146259, -0.273015, -0.0126689, 0.267414, 0.218879, -0.204144, 0.0418726, -0.0116529, 0.103635, -0.045828, 0.00766181, -0.323095, -0.053077, -0.0344679, -0.625207, 0.330006],
    [0.104381, -0.0129928, 0.157068, -0.0163247, -0.0485298, 0.108716, 0.00731689, 0.0421835, -0.00574602, -0.0237744, 0.186497, -0.0176358, -0.0383606, 0.0318324, -0.0116238, 0.068535, -0.0675592, -0.13231, 0.00505096, 0.12339, 0.132371, -0.106899, 0.0119497, -0.0631829, 0.108811, 0.0529247, 0.0455088, -0.14404, -0.0131727, 0.000962196, -0.229121, 0.207486],
    [0.00649782, -0.000744737, 0.132861, -0.0131915, 0.0704709, 0.00818595, 0.0355178, -0.0754309, 0.0242144, 0.0203984, 0.0966858, -0.0376066, 0.0614866, 0.0634397, -0.00501274, 0.0663617, 0.0175147, -0.173385, 0.0251228, -0.00329479, -0.0027123, -0.0649783, 0.0054252, -0.0182924, -0.0471653, 0.0238211, 0.0343554, -0.0513637, 0.0390839, -0.0273012, -0.198946, 0.104593],
    [0.059973, 0.0145287, 0.0299962, -0.0448247, 0.019789, 0.091696, 0.177939, -0.0128494, -0.0413557, 0.0134309, 0.0815475, -0.0107883, 0.0235995, 0.048594, -0.00368359, 0.0497554, 0.0588936, -0.0669313, 0.0305837, 0.00824207, 0.0659451, -0.0423272, -0.0809303, 0.0371491, -0.0704045, -0.00311029, -0.019328, -0.108113, -0.0551002, -0.0767859, -0.180156, -0.0197595],
    [0.0304067, -0.0167089, 0.213324, 0.0152485, -0.0704489, 0.229317, 0.141957, -0.122723, 0.00402656, 0.0834856, 0.0327715, 0.0236972, 0.0514198, 0.0346847, 0.015662, 0.0258035, 0.0767874, -0.220106, 0.0507873, 0.176493, 0.0785378, -0.0312508, -0.0299597, 0.0293132, -0.0220139, 0.134883, -0.0483371, -0.216579, -0.0134381, 0.0088137, -0.46483, 0.118085],
    [0.0424968, 0.00313746, 0.069485, 0.034454, 0.0178323, 0.161281, 0.0808902, -0.0180022, -0.0655896, 0.0552974, 0.0698637, -0.0458971, 0.0591415, 0.0679181, 0.0468112, 0.0823691, 0.0351969, -0.0721952, -0.0205965, -0.0175579, -0.0493936, -0.0736188, 0.0112268, -0.0501454, 0.0353998, -0.00596877, -0.00322413, -0.124671, -0.0512909, -0.0389175, -0.337905, 0.0819501],
    [0.000750648, 0.0452495, 0.108973, 0.0300778, -0.0851373, 0.123953, 0.131069, -0.0128137, 0.0501271, 0.0205204, 0.0359516, 0.0815065, -0.0161184, -0.0292056, -0.13525, 0.104456, 0.0493672, -0.10235, -0.00393011, 0.202258, 0.0532061, -0.106847, -0.0255618, 0.0190038, -0.0603269, 0.0669107, -0.061808, -0.200284, -0.0433359, -0.066762, -0.358794, 0.0758939],
    [0.0800054, -0.025219, 0.166505, -0.0260687, -0.0389619, 0.0829167, 0.012194, 0.0239009, 0.0368612, 0.0533454, 0.263411, 0.0595997, -0.0383921, -0.0552755, -0.0288796, 0.087056, 0.0134926, -0.22719, 0.0368145, 0.209012, 0.116399, -0.177873, -0.0383785, -0.0503062, 0.119248, -0.0225991, 0.0418404, -0.192481, -0.0405766, 0.0261501, -0.392188, 0.207207],
    [0.148556, 0.101283, 0.245325, -0.0622624, -0.0290858, 0.0371613, 0.163316, -0.11536, 0.0632827, 0.0386623, 0.440948, -0.00837645, -0.0118544, -0.00339211, 0.132214, 0.0565499, -0.0206989, -0.326514, -0.0339497, 0.0147594, 0.227821, -0.206265, -0.114101, -0.0322116, -0.0219152, 0.177279, 0.00425343, -0.350528, -0.106009, 0.0346712, -0.645407, 0.295678],
    [0.110089, 0.0593559, 0.199825, 0.0126943, -0.0718907, 0.0509093, 0.125524, -0.0132208, 0.0505314, 0.0875396, 0.123328, -0.0199986, 0.0133223, -0.0586985, 0.0194879, 0.0725786, -0.0192781, -0.203389, -0.0839237, 0.0394029, 0.152053, -0.241455, -0.0845586, -0.0275912, 0.0170511, 0.0828839, 0.0143897, -0.217678, 0.112292, -0.00144357, -0.40031, 0.24955],
    [-0.0482048, 0.0291277, -0.0253477, -0.000347403, -0.00902323, -0.0922849, 0.0631203, 0.0436582, 0.0496273, 0.0534966, 0.063263, -0.034199, 0.025907, -0.0302089, -0.0253264, 0.0236335, -0.00814109, -0.0364044, -0.0145826, -0.0122041, 0.0377803, -0.0733287, 0.0068181, -0.0114229, -0.00508197, -0.0140416, 0.0097443, -0.0553099, 0.000304349, -0.0384229, -0.130065, 0.0687054],
    [0.106001, 0.0646539, 0.201572, 0.0117292, -0.104207, 0.240615, 0.133759, -0.0125168, 0.00724356, -0.00327027, 0.099308, -0.0165144, 0.0263838, -0.0724154, -0.0129288, 0.137868, 0.086884, -0.393091, -0.0186379, 0.235725, 0.214153, -0.155238, -0.00435552, -0.0137445, 0.07614, 0.0661461, 0.013182, -0.292336, 0.037514, 0.00181191, -0.632782, 0.263744],
    [0.223711, 0.0503878, 0.394877, 0.0114976, -0.258329, 0.396897, 0.385926, -0.0771042, 0.0661865, 0.0405132, -0.0577173, 0.0473256, -0.0402448, -0.0495282, 0.0653645, 0.244865, 0.248623, -0.345674, 0.039929, 0.26519, 0.00136319, -0.0826407, -0.115205, -0.0169148, -0.00677642, 0.0369859, 0.0745062, -0.433999, -0.0817397, -0.051735, -1.05189, 0.244277],
    [0.0770781, 0.00658169, 0.071115, -0.0200614, -0.0697052, -0.0155924, 0.0941281, -0.121484, -0.0240527, 0.0191832, 0.220132, -0.115868, -0.0398423, -0.00414213, 0.0174242, -0.0386293, 0.108221, -0.136822, -0.0673231, 0.00920589, 0.145389, -0.193951, -0.00422729, -0.0516651, 0.0269105, 0.0396585, -0.0205033, -0.112739, -0.0805882, 0.0664777, -0.377095, 0.22397],
    [0.126103, -0.0704916, 0.21352, -0.0206235, -0.109702, 0.198196, 0.206505, -0.0456496, -0.0483952, -0.000653902, -0.134769, 0.0380652, -0.0604449, -0.0110916, -0.0743776, 0.112451, 0.209473, -0.221844, -0.00955291, 0.145059, 0.0648834, -0.104549, -0.00516027, 0.0144627, 0.0259653, -0.000164723, -0.0792506, -0.289153, -0.086238, 0.0800069, -0.552079, 0.080819],
    [0.115972, 0.022894, 0.134143, -0.0134191, -0.086603, 0.108988, 0.115731, -0.0866819, 0.0479999, 0.062476, 0.00389355, 0.0487952, 0.0195308, -0.0143572, -0.0129193, 0.106152, 0.172857, -0.123834, 0.0243845, 0.0798982, -0.0157523, -0.00533789, -0.0143355, 0.0843679, -0.00193933, 0.0161724, -0.0946124, -0.171713, -0.075406, -0.0559517, -0.453501, 0.0332502],
    [0.107377, -0.0457838, 0.338712, -0.0612832, -0.0751525, 0.33884, 0.239517, -0.0495075, 0.0328559, 0.111487, 0.110335, 0.0600126, -0.00426607, -0.0908447, 0.0953751, 0.146913, 0.226986, -0.304928, 0.0262944, 0.10677, 0.0172703, -0.0630487, -0.145443, 0.0525878, 0.00530673, 0.075776, 0.0405918, -0.396563, -0.110581, -0.029076, -0.795232, 0.178583],
    [-0.0144453, 0.00943999, 0.0611533, 0.0262875, 0.0440569, -0.0153264, 0.111556, 0.0195634, -0.0290452, -0.0128133, 0.124253, 0.0953349, -0.0473695, 0.0485549, 0.105438, 0.0121353, 0.0790208, -0.130252, 0.104565, -0.00412485, 0.0336048, -0.152922, -0.0480293, 0.0231376, 0.0232177, -0.0327815, -0.0553051, -0.221039, -0.0815855, 0.0196814, -0.318148, 0.124043],
    [0.0798468, 0.0642867, 0.145326, 0.0485857, -0.0592107, 0.12652, 0.0340976, -0.0152418, 0.0746248, -0.00564833, -0.0176528, -0.018702, 0.00608496, -0.0302766, -0.00903183, 0.0265776, 0.127936, -0.142566, -0.0459313, 0.139447, 0.0627716, -0.0679125, -0.0675173, 0.0479203, 0.0439378, -0.0470689, 0.0417129, -0.118498, -0.00797219, 0.012419, -0.35582, 0.0875293],
    [0.0742621, 0.0439939, 0.166239, -0.0420131, -0.0875038, 0.159336, -0.0211105, -0.000727429, -0.0267445, 0.0470675, 0.3185, 0.012142, 0.0622991, -0.0521194, 0.0856131, 0.0948786, -0.053708, -0.180277, 0.006644, 0.187615, 0.180683, -0.113586, 0.000811265, -0.00616961, 0.0358788, 0.0166278, 0.058118, -0.187939, -0.0610018, -0.0293955, -0.462817, 0.13486],
    [0.235208, 0.0935226, 0.245032, -0.0540581, -0.0130799, -0.0645118, 0.261126, -0.000403154, -0.0155128, 0.140234, 0.457229, -0.0257149, 0.0261484, -0.0592028, 0.27977, 0.00541391, 0.0135411, -0.229629, -0.0557637, 0.011507, 0.157064, -0.287466, 0.0166125, -0.141352, 0.0405545, 0.194534, 0.0162378, -0.358249, 0.0025361, -0.00999407, -0.78226, 0.368376],
    [0.237479, -0.0335268, 0.24526, -0.0721914, -0.0908819, 0.169975, 0.113599, -0.00396371, -0.00679327, 0.00617883, 0.113158, -0.0321258, 0.0409303, -0.00260077, -0.0228209, 0.125842, 0.0943947, -0.192527, -0.0408089, 0.173947, 0.0352276, -0.148093, -0.00653272, -0.0330701, 0.0586552, -0.0341712, -0.0253427, -0.215154, -0.0694517, 0.0515758, -0.49066, 0.175864],
    [0.173897, -0.0499344, 0.312977, -0.0161738, -0.176891, 0.270068, 0.208143, -0.0112446, 0.0332153, 0.107136, 0.0866769, -0.0436176, -0.0286011, -0.0325274, 0.0911934, 0.113656, 0.147656, -0.260273, 0.0179135, 0.14007, -0.00796254, -0.0310552, -0.159427, -0.0284905, 0.0106971, -0.026976, 0.0564403, -0.31235, -0.0476375, -0.0361604, -0.687197, 0.13673],
    [0.121205, -0.0184539, 0.100356, -0.0199611, 0.0829362, -0.0602224, 0.193435, -0.105071, -0.0293465, 0.0185468, 0.274287, 0.0394556, 0.0712938, 0.0229607, 0.0664937, -0.0268636, 0.0266926, -0.140064, -0.0514462, -0.0418248, 0.113391, -0.202233, -0.0835676, -0.0672602, -0.0355389, 0.194618, 0.00107101, -0.229702, 0.064094, -0.0227241, -0.446896, 0.261155],
    [0.136349, -0.0285554, 0.193078, -0.000433499, -0.141058, 0.204758, 0.216222, -0.0645984, 0.0420176, 0.0588089, 0.0834475, -0.0219478, -0.126478, -0.000835747, 0.00123923, 0.145733, 0.0644164, -0.261232, 0.0414567, 0.14181, -0.0348843, -0.0443141, -0.148304, 0.0340265, -0.0265753, 0.0287116, -0.0384612, -0.272065, -0.0413122, -0.046049, -0.608571, 0.182447],
    [0.169682, -0.0172502, 0.0744465, -0.0290107, -0.0670185, 0.193769, 0.098961, -0.0195305, -0.00256148, 0.074201, 0.00732803, -0.0200969, 0.0026885, -0.0861334, 0.0292511, 0.0957323, 0.141982, -0.111313, -0.0195633, 0.0527809, -0.045049, 0.0326778, -0.0318825, -0.00717831, 0.108774, -0.0658485, -0.0177529, -0.263344, -0.0913022, 0.00191302, -0.318512, 0.0488876],
    [0.140503, -0.0741218, 0.207296, 0.00602602, -0.0937918, 0.163137, 0.121706, 0.0022868, -0.00580065, 0.0882982, 0.188881, 0.0282159, -0.048767, 0.0104407, 0.00341878, 0.105417, 0.189701, -0.246113, -0.0121676, 0.0462246, -0.0335102, -0.032498, -0.127936, -0.0643334, -0.114524, 0.0206014, 0.0350281, -0.284077, -0.0591462, -0.120089, -0.600028, 0.166395],
    [0.254552, -0.0223414, 0.328626, -0.0183333, -0.142927, 0.31931, 0.298115, -0.0231128, 0.0808937, 0.117793, 0.0309147, 0.00734703, -0.00591037, 0.00962552, 0.0903563, 0.179846, 0.096281, -0.394979, -0.00776272, 0.285117, 0.0542113, -0.0486552, -0.10167, -0.0142996, -0.0306359, 0.0289315, -0.0321491, -0.380641, -0.0422174, -0.0496093, -0.768045, 0.161786],
    [0.222949, -0.00423902, 0.481109, -0.0538382, -0.198128, 0.41091, 0.246712, 0.0360436, 0.0389488, 0.13556, 0.0100447, 0.0171115, 0.0299656, -0.0393462, 0.0308963, 0.271806, 0.281539, -0.41483, -0.0271566, 0.362555, -0.0408525, -0.0874595, -0.177351, -0.0718252, -0.0461051, -0.0364213, -0.0270765, -0.436663, -0.0286015, -0.0489376, -1.0417, 0.224739],
    [0.107007, 0.0134174, 0.166471, -0.0461546, -0.0773631, 0.139909, 0.0650313, 0.0470982, -0.0100949, 0.0504357, 0.00959779, -0.0374844, -0.103992, -0.0122025, 0.0282271, 0.125326, 0.0450214, -0.210262, 0.00224792, 0.140585, 0.122835, -0.00208074, -0.0294847, -0.0139355, 0.0726329, -0.036453, -0.0196473, -0.181681, 0.0620207, 0.020148, -0.261954, 0.138414],
    [0.0582496, -0.0247329, 0.113451, -0.0187548, -0.0103231, 0.211897, 0.131792, -0.0809999, 0.000317299, 0.05039, 0.0996674, 0.0322205, 0.00974396, -0.0355064, 0.0409629, 0.099766, 0.0413284, -0.110729, 0.0409813, 0.233597, 0.0850134, -0.073539, 0.0164123, -0.0131402, 0.0747962, 0.0582733, 0.0179042, -0.188496, -0.0293693, -0.0372754, -0.414741, 0.176893],
    [0.110274, -0.0377469, 0.143937, -0.0465398, -0.146309, 0.0962272, -0.0554316, -0.0109353, -0.0671163, 0.0898708, 0.187531, 0.0202441, 0.0290604, 0.0288444, 0.110421, 0.0347508, -0.0826637, -0.153812, -0.0499409, 0.128844, 0.181084, -0.130038, -0.0150677, -0.0173184, 0.0337296, 0.132522, 0.0198795, -0.156785, 0.0300357, 0.011002, -0.368706, 0.120825],
    [0.136229, 0.0391607, 0.260829, 0.0496009, -0.174731, 0.244997, 0.170386, -0.0194282, 0.0202981, 0.0490447, -0.00117222, 0.0258809, -0.0118105, -0.0469305, 0.0506933, 0.117743, 0.121897, -0.239395, 0.0061471, 0.190499, 0.0984697, -0.0187697, -0.0282212, -0.0284911, 0.0635832, -0.0128318, -0.02034, -0.252899, -0.137494, -0.0225488, -0.606965, 0.154971],
    [0.190421, 0.0749432, 0.398364, -0.0804087, -0.200127, 0.412094, 0.106122, -0.046368, 0.0556282, 0.0940421, 0.180595, -0.0189503, -0.046129, -0.0282829, 0.0563424, 0.196607, 0.181651, -0.410214, 0.0296305, 0.487465, 0.182689, -0.213686, 0.069029, -0.00814045, 0.165214, 0.00705194, 0.00656714, -0.412361, -0.124995, -0.0157288, -0.926328, 0.335269],
    [0.0907781, 0.0224971, 0.133968, 0.073953, -0.142701, 0.0882349, 0.0427596, -0.115782, 0.11632, 0.017091, -0.0263405, 0.0400279, 0.0525093, -0.0736436, -0.0235639, 0.16148, 0.027761, -0.0874759, 0.0314995, 0.0772392, -0.0290518, 0.0173695, -0.155661, -0.0161948, -0.0282587, -0.00195419, 0.0660255, -0.0579858, -0.0585834, 0.04763, -0.160386, 0.0419384],
    [0.0984417, 0.00795738, 0.0931993, 0.0263056, -0.0464628, 0.133824, 0.10452, -0.0715545, 0.00525809, 0.111574, 0.0892813, 0.088123, 0.0281425, 0.0101833, 0.0034843, 0.0542504, 0.0508941, -0.0737472, -0.0818439, 0.0875109, -0.0325625, -0.115168, -0.0450326, -0.0896545, 0.0265351, 0.0855351, -0.0105709, -0.14846, 0.0543046, 0.0330816, -0.385949, 0.0772071],
    [0.16697, 0.0289052, 0.332528, -0.018414, -0.140956, 0.263391, 0.22864, 0.055096, -0.00817443, 0.0413609, 0.120654, -0.0120891, -0.0323325, -0.056409, -0.000178095, 0.15333, 0.202094, -0.274994, -0.0099417, 0.0856835, -0.0381908, 0.0386661, -0.0947096, 0.0667248, -0.0519751, 0.00306096, -0.0422705, -0.295121, -0.0112306, 0.0132612, -0.627794, 0.170598],
    [0.160769, -0.0465402, 0.15702, 0.0158746, -0.0304742, 0.101563, 0.0801643, -0.0582167, 0.00440347, 0.102948, 0.145052, 0.00841374, 0.00843886, 0.0519536, 0.0354746, 0.188188, -0.0117909, -0.234681, -0.00222318, 0.161113, 0.256519, -0.155404, 0.0737908, -0.0784582, 0.100986, 0.0120463, 0.0560385, -0.219479, -0.0447729, 0.0332195, -0.490449, 0.273379],
    [0.170275, 0.153697, 0.284412, 0.00420055, -0.11872, 0.127289, -0.0812872, -0.069002, 0.0407641, 0.00637035, 0.311683, 0.0144662, 0.0264275, -0.0479072, 0.00968978, 0.108314, 0.067363, -0.281665, -0.0201294, 0.19629, 0.260883, -0.205754, 0.0108197, -0.0397904, 0.073122, 0.00807811, 0.0500237, -0.241869, -0.0407179, -0.0220364, -0.512374, 0.260806],
    [0.288532, -0.022108, 0.486392, -0.047829, -0.267112, 0.421458, 0.416196, -0.0299815, 0.0951235, 0.128128, 0.0237239, 0.00901645, -0.063755, -0.0695445, 0.0179783, 0.243264, 0.275236, -0.446555, -0.0306005, 0.346823, 0.00786448, -0.0493336, -0.149733, 0.0427815, -0.00399328, 0.104572, 0.0198546, -0.513723, -0.192969, -0.0595141, -1.09334, 0.271554],
    [0.226115, 0.0770906, 0.309176, 0.0382954, -0.120291, 0.160363, 0.039869, -0.0826733, 0.0530156, 0.0978224, 0.197858, -0.0412114, -0.0329821, 0.0309007, 0.0353131, 0.148616, -0.0558609, -0.283938, 0.0140064, 0.262959, 0.188791, -0.228101, -0.0838661, 0.0200501, 0.132096, -0.0219319, 0.0424906, -0.248628, -0.068545, -0.00295245, -0.497461, 0.175695],
    [0.337538, 0.0382754, 0.575984, -0.0902463, -0.25433, 0.620532, 0.455468, -0.0898603, 0.0712446, 0.12009, -0.0290363, 0.0550791, -0.0299226, -0.153443, -0.0374857, 0.335408, 0.337977, -0.564822, -0.0203427, 0.42607, 0.0411326, -0.0958589, -0.166282, 0.0285179, 0.0470579, 0.0306064, -0.0403518, -0.565676, -0.109757, -0.0200476, -1.33135, 0.313006],
    [0.120779, 0.0528866, 0.0944815, 0.0558135, -0.00645047, 0.123335, 0.0201254, -0.0658978, 0.0476489, 0.0412834, 0.217357, 0.00088997, 0.0574439, 0.00581043, -0.00945061, 0.114973, 0.0415176, -0.198868, -0.0112278, 0.130039, 0.159678, -0.180071, -0.00537098, 0.0186866, 0.0399687, -0.110106, 0.014426, -0.15846, -0.0052515, -0.0127016, -0.445087, 0.163203],
    [0.00208884, 0.0142237, 0.0845389, -0.0613093, -0.0561115, 0.0908175, 0.0210432, -0.00568926, 0.0824864, 0.0557715, 0.21954, 0.0849553, 0.0372232, -0.00616145, 0.010041, 0.0550432, -0.020153, -0.13731, 0.0337645, 0.129168, 0.100316, -0.0660012, 0.00535982, -0.0320173, -0.0174517, -0.0470558, 0.0378096, -0.0655913, -0.0132831, -0.035335, -0.254011, 0.124836],
    [0.0933813, 0.0498885, 0.180333, -0.0220078, -0.0228364, 0.074502, 0.0396147, 0.034881, 0.0146186, -0.020051, 0.320792, 0.0310289, -0.0143661, 0.0320608, 0.0593681, 0.12966, -0.0409354, -0.0746371, 0.000377381, 0.0904472, 0.158747, -0.141725, -0.0527825, -0.0764029, 0.0221831, 0.0352763, 0.0769978, -0.16187, -0.0446438, 0.0860439, -0.361752, 0.210123],
    [0.167448, 0.0179122, 0.285, -0.0548353, -0.148686, 0.361111, 0.289547, -0.0554858, -0.0221979, 0.167963, 0.196955, -0.0727518, -0.027968, -0.00544069, 0.00185168, 0.147931, 0.116651, -0.387157, 0.0341099, 0.102134, 0.0267636, -0.118023, -0.208615, -0.0363995, 0.0352492, 0.120762, -0.0407941, -0.488557, -0.0320329, -0.073095, -0.918579, 0.260055],
    [0.207719, -0.0138831, 0.207909, -0.0368392, -0.0902816, -0.0436955, 0.281068, -0.124004, 0.0027425, 0.118377, 0.560499, -0.0821565, 0.0414966, 0.037534, 0.14123, 0.0407584, 0.0171364, -0.294703, -0.0673884, -0.0175191, 0.134541, -0.279061, -0.141333, -0.125092, -0.0214949, 0.243558, -0.0126136, -0.368032, -0.0100586, -0.00481748, -0.715547, 0.36144],
    [0.126378, -0.0263305, 0.102609, 0.0205412, 0.0460951, 0.0826221, 0.0863913, 0.0639388, 0.0544446, 0.0229011, 0.266348, 0.0231587, 0.0081659, -0.0510753, 0.119894, -0.0598255, -0.04252, -0.119555, 0.00422041, -0.0725735, 0.0824605, -0.126793, -0.0866152, 0.0458039, 0.0683527, 0.0833341, 0.00723348, -0.208728, -0.0355828, -0.0857431, -0.369113, 0.279306],
    [0.198072, 0.0536224, 0.341948, -0.0108364, -0.0370995, -0.0138565, 0.258687, -0.0571156, 0.0882272, 0.0486962, 0.400382, 0.0451631, -0.0200877, 0.0610785, 0.118683, -0.0454076, -0.0274771, -0.380513, -0.0368202, 0.0250312, 0.231865, -0.397728, -0.120684, -0.0348894, -0.0469396, 0.206744, -0.0415586, -0.380993, -0.0180725, 0.0387589, -0.719176, 0.397577],
    [0.11834, 0.0152799, 0.187849, -0.065164, -0.0797897, 0.121342, 0.0631291, 0.00163679, -0.0472109, 0.0799822, 0.296926, -0.017511, -0.0373331, 0.00737941, 0.0556243, 0.0970118, -0.0219593, -0.37005, -0.0847417, 0.214036, 0.258568, -0.0951636, 0.0151992, -0.0496778, 0.0405013, -0.0758346, 0.0452939, -0.205827, -0.0513565, -0.00186468, -0.424468, 0.246318],
    [0.133308, 0.0635987, 0.268428, -0.053077, -0.0304138, 0.0967016, 0.105801, -0.0690779, -0.0463261, 0.00744345, 0.342, 0.0312103, 0.00882947, -0.0057114, 0.139915, 0.108967, -0.0661437, -0.269393, 0.0812747, 0.101692, 0.193168, -0.203014, -0.000695353, -0.0460121, 0.116995, 0.110935, -0.0275539, -0.330437, -0.0449538, -0.0531214, -0.555632, 0.326583],
    [0.0886928, 0.0153792, 0.0917898, -0.00824281, 0.0399799, 0.110713, 0.0886921, -0.025568, -0.0450887, -0.00206625, 0.271053, -0.0941238, 0.02685, 0.0129105, 0.0536401, 0.00379462, -0.00958254, -0.139157, -0.0295573, 0.0527329, 0.00164441, -0.151031, -0.0607265, -0.0315158, -0.0373985, 0.0487621, -0.014345, -0.150363, -0.036669, -0.0366739, -0.401833, 0.121103],
    [0.365196, 0.0028622, 0.595912, -0.0648611, -0.320949, 0.582744, 0.376485, -0.104262, 0.101346, 0.1526, 0.0366062, -0.0363484, -0.0595277, -0.101216, 0.0306721, 0.237831, 0.302663, -0.546994, -0.0657827, 0.441052, 0.067739, -0.0712413, -0.124055, 0.0168607, 0.025763, 0.00542033, 0.0535447, -0.670573, -0.0298425, -0.0836825, -1.31688, 0.3237],
    [0.338803, -0.0121859, 0.465886, -0.014422, -0.211003, 0.532053, 0.344023, 0.053107, 0.0123267, 0.0557915, 0.0545596, -0.00745639, -0.10545, -0.0670029, -0.022939, 0.350651, 0.226954, -0.535457, -0.00146327, 0.425431, 0.0407458, -0.0514284, -0.161158, -0.0341598, -0.0529481, 0.00693087, 0.0177526, -0.549694, -0.0557092, 0.0404749, -1.18685, 0.27355],
    [0.149528, 0.00378715, 0.352015, -0.0337859, -0.160052, 0.321841, 0.226188, -0.0256633, -0.00264135, 0.0794199, 0.0521108, 0.017072, 0.0555481, 0.0595368, -0.00447888, 0.151424, 0.200654, -0.399943, 0.101206, 0.334706, 0.00889466, 0.000818281, -0.120092, -0.0384204, -0.0353552, 0.0409957, 0.050714, -0.440433, -0.0784634, 0.00124282, -0.825411, 0.169851],
    [0.15818, 0.0163403, 0.260389, 3.6694e-05, -0.124952, 0.274377, 0.17798, 0.0246534, 0.018062, 0.0809656, 0.0042111, -0.0317084, -0.00477468, -0.111015, 0.0576612, 0.176135, 0.105148, -0.219781, -0.0178571, 0.167377, -0.0178334, -0.048957, -0.231707, -0.0160654, -0.0297419, -0.0401719, -0.0307613, -0.368398, -0.0981697, 0.00497299, -0.778956, 0.149946],
    [0.0598382, -0.0745205, 0.024903, 0.0215802, -0.118622, 0.0526233, 0.129508, -0.027823, 0.0125363, -0.0330449, 0.0484455, -0.00950346, -0.0630893, -0.108131, 0.0237252, 0.0317532, 0.0155064, -0.0510798, 0.00700349, 0.0776301, -0.0655457, -0.0575957, -0.0225955, 0.113594, -0.0325005, 0.0790045, -0.00895822, -0.0946931, -0.0769525, 0.0668337, -0.201796, 0.0536559],
    [0.0485771, -0.0079876, 0.0406612, -0.0690097, -0.00787285, 0.0938968, 0.0492818, -0.069883, 0.00444977, 0.00997066, 0.124666, -0.0382697, -0.0661987, -0.00991903, 0.0229817, 0.013429, -0.0603879, -0.131297, -0.0220709, 0.00164932, -0.0347967, -0.0161281, -0.0534686, -0.0312902, -0.056043, -0.0200716, -0.0222461, -0.106598, -0.064796, 0.0307134, -0.0752147, 0.114881],
    [0.20531, 0.0168614, 0.375449, -0.0303898, -0.176861, 0.268016, 0.266073, -0.0945738, 0.0252576, 0.116849, 0.0347461, -0.0917423, 0.0308182, -0.0806107, 0.0133749, 0.196842, 0.223325, -0.384206, -0.0698229, 0.281646, 0.0624292, -0.0469511, -0.0229209, 0.0407153, 0.0178308, -0.0179292, 0.0533756, -0.358958, -0.0241091, -0.0483672, -0.763984, 0.24866],
    [0.17052, 0.132189, 0.244717, 0.0313854, -0.102553, 0.148695, 0.0105886, 0.0254583, 0.0406952, 0.0594618, 0.347606, -0.052016, 0.0429282, 0.0130578, -0.00491342, 0.0650404, 0.0246211, -0.237555, -0.0186939, 0.186493, 0.215157, -0.235637, -0.0318317, -0.0941734, 0.0517746, -0.0456869, 0.055503, -0.200717, -0.0243529, 0.0453641, -0.53298, 0.237662],
    [0.0836212, 0.00205007, 0.129752, 0.0374639, -0.00248839, 0.0337441, 0.26097, -0.0847195, -0.02846, 0.0164483, 0.353981, 0.00896967, 0.0384623, -0.0455201, 0.0598356, -0.0532267, -0.0497166, -0.180099, -0.0221563, 0.0112778, 0.175026, -0.208384, -0.0473067, -0.022846, -0.00238703, 0.0683099, 0.0151937, -0.26328, -0.0228779, -0.00820967, -0.537492, 0.256239],
    [0.0482769, -0.0872769, 0.0882525, -0.0452597, -0.0739093, 0.032313, -0.0380334, 0.038059, -0.0285953, -0.00701975, 0.15235, -0.0581662, 0.0616219, -0.0177505, 0.116402, 0.0482411, 0.0339743, -0.126636, -0.0213337, 0.0889902, 0.0846013, -0.117723, 0.043515, 0.0165752, 0.0219268, 0.01743, 0.0912142, -0.0655111, 0.0486771, -0.0236996, -0.188548, 0.104423],
    [0.200557, 0.013094, 0.391039, -0.0603402, -0.130628, 0.258215, 0.209608, -0.0779545, 0.0835802, 0.161267, 0.0414406, -0.0505356, -0.00928542, -0.0910726, 0.00176474, 0.128409, 0.200895, -0.332772, -0.0245701, 0.263838, -0.0471114, 0.0187701, -0.125347, -0.0589305, -0.0705829, -0.0771596, 0.00165625, -0.276092, -0.0405216, -0.0517404, -0.743597, 0.0866925],
    [0.141229, -0.0994506, 0.197517, -0.0230309, -0.0864956, 0.171865, 0.104428, -0.0558001, -0.00312881, -0.0616873, 0.0290967, -0.0507447, -0.0608586, 0.0360132, -0.0487868, 0.0697316, 0.105852, -0.142708, -0.00174521, 0.0154475, 0.053338, -0.059005, 0.0545154, 0.0524997, -0.0595956, 0.0332403, 0.0182538, -0.16568, -0.00842611, -0.130509, -0.252823, 0.0263157],
    [0.183684, 0.0615373, 0.272901, 0.00274198, -0.14152, 0.276715, 0.117596, -0.062353, -0.000937804, 0.103874, 0.0997891, 0.0533423, 0.0268372, -0.0273307, -0.082088, 0.148296, 0.0928335, -0.277348, -0.00809608, 0.316424, 0.0408187, -0.104656, 0.0664563, 0.0588941, 0.0583649, 0.00689401, -0.0163638, -0.231106, -0.0582996, 0.0638494, -0.69327, 0.257126],
    [0.112631, -0.024712, 0.0794185, -0.0709209, -0.0475868, 0.0616607, 0.109397, 0.0506168, 0.0561225, 0.0832244, 0.0686394, 0.0916975, -0.0309614, -0.0836875, 0.0329023, 0.107227, 0.0248673, -0.0520584, 0.0394687, -0.0552757, 0.0435028, -0.1187, -0.0260075, -0.0136867, -0.0150016, 0.030535, -0.0225975, -0.131183, 0.00965465, 0.0193625, -0.167627, 0.0467992],
    [0.218038, 0.039656, 0.24181, 0.0379581, -0.0509704, 0.0391648, 0.217985, -0.128537, 0.0932911, 0.0573682, 0.418995, 0.0276762, 0.0618936, -0.0145366, 0.183526, -0.0599312, 0.127456, -0.373095, 0.00461377, -0.0294539, 0.0724147, -0.169933, -0.197569, -0.0718875, 0.0312071, 0.220334, -0.0605623, -0.367655, -0.033579, -0.0145082, -0.860806, 0.298695],
    [0.306375, -0.0601222, 0.397661, 0.00580392, -0.122422, 0.347902, 0.29912, -0.0813205, -0.0106739, 0.165009, 0.155851, 0.051261, 0.017915, -0.0356749, 0.111468, 0.189595, 0.233401, -0.395651, 0.0387909, 0.136999, -0.0807502, -0.136235, -0.169267, -0.038482, 0.018751, 0.0525106, 0.0363385, -0.463142, -0.130891, -0.0458884, -1.02337, 0.161473],
    [0.186368, 0.0523662, 0.323945, -0.0242339, -0.193372, 0.42939, 0.20918, -0.00413084, 0.0766574, 0.13764, 0.0470425, 5.13163e-05, 0.11348, -0.0313546, -0.0781011, 0.248147, 0.194997, -0.406562, -0.051339, 0.342996, 0.0649011, -0.0694336, -0.112108, 0.112426, -0.0310902, 0.0405404, 0.0746032, -0.471082, -0.0145756, -0.07425, -0.867225, 0.253132],
    [0.224363, -0.0569749, 0.393001, 0.0142678, -0.157224, 0.306372, 0.281578, -0.056015, 0.0502837, 0.149087, 0.0905577, -0.0180176, -0.0181938, 0.0221238, 0.0811113, 0.177297, 0.17452, -0.353293, -0.0119738, 0.215697, 0.00882925, -0.116619, -0.121048, 0.0387188, -0.0212836, 0.0997804, -0.0430499, -0.413991, -0.0515075, 0.0246192, -0.965343, 0.0982661],
    [0.0668487, 0.0183886, 0.110589, -0.0864736, -0.0878399, 0.046815, 0.0409977, -0.0209446, -0.0179538, 0.0734478, 0.151068, 0.00521027, -0.0333827, 0.0107925, 0.000615728, 0.00501978, 0.0285647, -0.0308768, 0.0187952, 0.0133784, 0.109828, -0.118818, -0.0246442, 0.00025167, 0.0198842, 0.124279, -0.0408839, -0.137609, -0.080756, 0.00126699, -0.296157, 0.108496],
    [0.119, 0.00509555, 0.177503, -0.0212367, -0.120706, 0.1742, 0.0916644, -0.0449354, 0.027061, 0.0426955, 0.120174, -0.10196, -0.0610665, 0.0362097, -0.00655704, 0.0911995, 0.0834711, -0.166436, -0.0205467, 0.116432, 0.0366613, -0.0415515, -0.0211897, 0.0279677, 0.0742241, -0.0400865, 0.0677716, -0.19924, -0.0386875, -0.0150921, -0.444512, 0.101461],
    [0.102939, 0.0379103, 0.224144, 0.0178291, -0.162752, 0.200163, 0.0140828, 0.00459872, -0.0539814, 0.052147, 0.296996, -0.0245017, -0.0325708, 0.0319342, 0.00516251, 0.115771, 0.0972763, -0.202736, -0.00498006, 0.29328, 0.167948, -0.248833, -0.0710039, 0.050692, 0.122676, 0.100738, 0.0198171, -0.215928, 0.000390074, 0.0400851, -0.526045, 0.296129],
    [0.133414, 0.0239536, 0.208684, 0.01759, -0.0900075, 0.076444, -0.00014772, -0.0129275, 0.0590684, 0.0855083, 0.200476, -0.0088835, -0.0197584, -0.000220467, 0.0376428, 0.129572, 0.0310852, -0.2577, -0.040849, 0.0926066, 0.23818, -0.186693, -0.00695401, -0.061843, 0.0743364, 0.0113118, 0.137213, -0.249289, 0.00740253, -0.0201881, -0.370056, 0.18552],
    [0.121131, 0.0513573, 0.203445, -0.0184845, -0.056205, 0.0807133, 0.0792433, -0.0320377, 0.0135082, -0.00584693, 0.0331654, 0.0102493, -0.0221323, -0.0153755, -0.0566271, 0.0438982, -0.0248293, -0.138239, -0.0591347, 0.164902, 0.239852, -0.104351, 0.0269722, -0.0209569, -0.00452426, -0.024473, 0.0258272, -0.140972, -0.0179189, 0.048849, -0.416607, 0.154459],
    [0.142557, -0.0232003, 0.210763, -0.0109191, -0.0250194, 0.0442357, 0.132776, 0.0334321, 0.0336506, 0.0523816, 0.261132, 0.0221912, 0.0401552, -0.0183385, 0.0684886, -0.0213775, -0.140455, -0.29663, 0.0327978, 0.0052376, 0.243734, -0.283056, 0.00786829, -0.0607525, -0.000428452, 0.134197, 0.0107774, -0.229229, -0.0612207, -0.0615251, -0.457253, 0.272583],
    [0.142458, -0.00499273, 0.152817, -0.0628133, -0.0293863, 0.169231, 0.14436, 0.010961, -0.0346866, 0.0910088, 0.13111, -0.0234574, -0.0940863, -0.0628756, 0.0909759, 0.0347878, 0.108423, -0.183231, -0.0544856, 0.076576, 0.0713727, 0.0021264, -0.0707857, -0.0122986, -0.0528663, -0.011593, -0.0574655, -0.252664, -0.0716683, 0.0338176, -0.563414, 0.12692],
    [0.0925002, 0.0624659, 0.127835, -0.00248337, -0.0317653, 0.151514, 0.0664727, 0.00885066, 0.0563303, 0.0589143, 0.040388, 0.065611, -0.00988048, -0.0370002, -0.052667, 0.172226, 0.109107, -0.20776, 0.0728664, 0.11604, 0.0938566, -0.0121669, -0.0594266, -0.0132213, 0.0172197, -0.0623431, 0.0670216, -0.185761, -0.0609956, 0.0142412, -0.428887, 0.0464228],
    [0.311822, -0.0374208, 0.546679, 0.00199303, -0.240102, 0.417113, 0.432707, -0.0926311, 0.0973354, 0.137638, -0.0373803, 0.0455135, -0.00192547, -0.0823026, 0.0332705, 0.302104, 0.269861, -0.488762, -0.0544278, 0.357731, 0.00504853, -0.0863788, -0.0959471, -0.059436, 0.025907, 0.0235581, 0.00669279, -0.632819, -0.167871, -0.00457332, -1.07035, 0.225508],
    [0.109612, 0.0314295, 0.188941, -0.00196912, -0.116078, 0.169941, -0.11969, -0.0350193, 0.00853103, 0.0313433, 0.236486, -0.0369857, -0.0402451, -0.0858799, 0.0769237, 0.0881029, 0.0147647, -0.201602, -0.0330472, 0.157605, 0.177463, -0.238327, -0.0542507, -0.0517664, 0.0786902, 0.0033012, 0.105067, -0.185511, -0.0331785, -0.0882527, -0.487804, 0.175379],
    [0.0463223, -0.00103022, 0.0501573, -0.0149115, -0.0100089, 5.81828e-05, 0.00371863, -0.0325585, -0.038124, -0.000531057, -0.0122746, -0.0349139, 0.00655751, -0.0570165, 0.0697611, 0.0557373, 0.0343992, -0.0651641, 0.0272907, 0.00339143, -0.0420585, 0.00256032, -0.142989, 0.0146354, -0.0295852, -0.0511637, 0.0100111, -0.11858, 0.1055, -0.038719, -0.115379, 0.0468673],
    [0.239907, -0.0782364, 0.322458, 0.0502999, -0.17038, 0.380355, 0.273287, 0.0039108, 0.0140462, -0.0215887, 0.0379967, -0.0558405, -0.0609491, -0.0572092, 0.0587455, 0.157244, 0.191296, -0.334316, 0.00189702, 0.271057, 0.0271865, 0.0246283, -0.0765208, 0.0552407, -0.0230897, 0.00660316, 0.0358727, -0.335555, -0.0198396, -0.0804445, -0.805961, 0.155577],
    [0.241559, -0.0566443, 0.498707, -0.00413045, -0.197399, 0.478379, 0.40281, -0.0553749, 0.0237789, 0.15637, 0.0214835, 0.0252004, 0.0322196, -0.112857, -0.0042332, 0.291225, 0.285718, -0.443014, 0.0322331, 0.282289, -0.011452, -0.0805611, -0.0891365, 0.0376871, -0.0114185, -0.037948, 0.0279461, -0.512339, 0.0567877, 0.0252295, -1.09608, 0.234188],
    [0.112367, 0.0559324, 0.0546105, -0.0764526, -0.0293087, 0.199221, 0.0309328, 0.00657322, 0.0361006, 0.0756585, 0.0223822, 0.0354193, -0.0266135, -0.0177241, -0.0608633, 0.0268471, 0.0418449, -0.165236, 0.0284612, 0.159521, 0.199648, -0.0535002, 0.0120194, -0.0135417, 0.0198221, -0.0232668, -0.01539, -0.0723411, -0.0365237, 0.00516094, -0.311116, 0.175625],
    [0.129775, 0.0634912, 0.185402, -0.0671436, -0.114723, 0.232483, 0.0178492, -0.00222607, -0.0585007, -0.0231828, 0.194168, -0.027728, 0.0333118, 0.0463504, 0.0711391, 0.085725, -0.0701306, -0.240237, -0.00405611, 0.187619, 0.201071, -0.205928, -0.0221493, 0.036556, 0.119176, 0.0274679, 0.0748349, -0.268724, -0.0800017, 0.0630286, -0.475172, 0.296292],
    [0.1309, 0.0282854, 0.43102, 0.00398718, -0.150338, 0.344936, 0.221032, -0.00830587, 0.0762395, 0.0750304, 0.097176, -0.106294, -0.0159545, -0.0993589, 0.0276964, 0.173206, 0.262588, -0.343665, 0.0244804, 0.297119, 0.065249, -0.0619633, -0.042065, -0.0472348, 0.0769587, 0.0141983, 0.000279995, -0.433014, -0.0133151, -0.0177413, -0.767186, 0.24305],
    [0.037591, 0.0173322, 0.056647, -0.0278442, 0.04889, 0.00445279, 0.2003, -0.0896206, -0.00353106, -0.0237626, 0.142461, -0.00530688, 0.00421149, 0.0219853, 0.0432739, 0.04102, 0.0128931, -0.234786, -0.0492204, -0.0494994, 0.0509541, -0.199581, -0.13619, 0.0272745, 0.113001, -0.0020688, 0.0673257, -0.150376, -0.0635636, -0.0528506, -0.399629, 0.243805],
    [0.153657, -0.0189543, 0.113455, -0.0276391, -0.0600131, 0.112547, 0.152448, -0.0705369, 0.00461444, 0.102137, 0.26175, -0.0528901, 0.119704, 0.0148907, 0.100093, -0.00458794, 0.0222681, -0.166848, -0.0527255, 0.0929304, 0.101015, -0.200616, -0.104691, -0.0115064, -0.0283362, 0.0754875, 0.0399414, -0.273835, 0.0488566, -0.0342809, -0.491312, 0.173115],
    [-0.0112657, 0.0553328, 0.0645876, -0.00154104, -0.0313215, 0.0306701, -0.0422594, -0.0169497, 0.0256708, 0.0402991, 0.219273, 0.0548135, -0.0523002, 0.0799785, 0.0610188, -0.0591885, -0.0298591, -0.136102, 0.00676755, -0.00268346, 0.0917015, -0.11534, -0.0047005, 0.0606857, -0.0356689, 0.0971706, 0.0105994, -0.0839818, -0.0858164, -0.0638407, -0.191531, 0.148319],
    [0.0807877, 0.0478776, 0.167105, -0.0371033, -0.036434, 0.0662802, 0.0271792, -0.0137706, -0.0250647, 0.0206423, 0.131923, -0.0328078, 0.0705186, 0.0344804, 0.0439892, 0.0235317, 0.000698416, -0.0993549, 0.00569293, 0.0984205, 0.177165, -0.0462719, -0.0107553, 0.0360138, 0.0529314, 0.0787873, -0.0303139, -0.11483, 0.0106102, -0.0290007, -0.280807, 0.12754],
    [0.31186, -0.011574, 0.577709, -0.0504153, -0.230471, 0.5064, 0.378405, -0.0351886, -0.0146892, 0.14707, -0.0626681, -0.0439869, -0.0469752, -0.222505, 0.0672853, 0.402509, 0.410048, -0.608958, -0.1265, 0.518366, 0.0270149, -0.082314, -0.0785979, 0.0521467, -0.00780341, -0.00907868, 0.055142, -0.641665, -0.0706154, -0.055241, -1.34148, 0.32202],
    [0.105312, 0.0998692, 0.104382, -0.050848, -0.021642, 0.00854762, 0.130378, -0.0152785, 0.103607, 0.0422007, 0.250458, 0.0802642, 0.0170205, 0.0604762, 0.00580128, 0.0168915, -0.0167668, -0.120734, -0.0187127, 0.045018, 0.117012, -0.215566, -0.000107406, -0.0293288, 0.0453654, 0.0480883, 0.0355621, -0.209298, 0.0334697, -0.0464317, -0.363368, 0.106472],
    [0.0576804, 0.0349187, 0.113244, -0.0216746, -0.0646505, 0.0879193, 0.114158, -0.0506082, 0.0244329, 0.0313959, 0.28716, -0.081405, 0.0392987, 0.0449005, 0.0928677, 0.0247232, -0.0154161, -0.251804, 0.00805932, -0.067612, 0.0450242, -0.0882386, -0.0254952, -0.0677676, 0.0188251, 0.0791891, -0.0538429, -0.165313, -0.0141456, 0.000147727, -0.398853, 0.22386],
    [0.143345, 0.0791041, 0.180959, -0.019467, -0.0204947, 0.178869, 0.165603, 0.0425986, 0.0580707, 0.158082, -0.0233818, 0.0633709, -0.0303514, -0.0452057, 0.0013091, 0.108435, 0.13417, -0.214289, 0.0233367, 0.196692, -0.0306233, -0.0616388, -0.0799862, -0.0502457, -0.000276723, -0.010807, -0.0174597, -0.191915, -0.0900808, -0.0894073, -0.511368, 0.103778],
    [0.0942083, 0.0682833, 0.231395, 0.0532619, -0.0640282, 0.151392, 0.127559, 0.0782412, 0.0968706, 0.0471582, 0.118322, 0.0155285, -0.0830703, -0.00292995, 0.0512267, 0.00963701, 0.0115521, -0.133614, -0.0347778, 0.178748, 0.0781773, -0.0559125, 0.0152786, -0.0221054, -0.0141584, 0.127577, 0.0294387, -0.211408, -0.0132919, 0.0382726, -0.322475, 0.106133],
    [0.012763, 0.0451865, 0.217994, -0.0251355, -0.0134911, 0.101999, 0.0332619, -0.00264895, -0.0280654, 0.0915654, 0.191751, -0.0100162, 0.0894096, 0.12065, 0.019231, 0.189669, 0.0235244, -0.286413, 0.0695777, 0.170061, 0.139913, -0.24163, 0.0874125, -0.100624, 0.071927, 0.0188102, 0.140599, -0.230633, -0.0135674, 0.0751316, -0.458483, 0.281446],
    [0.420786, -0.0534641, 0.513832, -0.0200253, -0.301181, 0.47729, 0.412648, -0.0423455, 0.00772748, 0.201647, 0.0318722, 0.00289854, 0.0376411, 0.0159863, -0.0221678, 0.29137, 0.291449, -0.493833, -0.00166446, 0.39302, -0.0539518, -0.0774293, -0.178705, 0.0557992, -0.0771145, -0.0424024, 0.0323795, -0.631661, -0.148486, -0.0798558, -1.31933, 0.274336],
    [0.308144, -0.0321937, 0.461697, -0.00228117, -0.24323, 0.478142, 0.431145, -0.0114691, -0.0732226, 0.108497, 0.0220868, 0.0109952, 0.0348432, -0.0929244, -0.0338369, 0.266661, 0.296704, -0.383722, -0.0360945, 0.361375, 0.00579668, -0.0768432, -0.197384, 0.0165039, -0.0212746, -0.0295834, -0.0189127, -0.463638, -0.0329461, -0.0467519, -1.01079, 0.263181],
    [0.356779, 0.036919, 0.66776, -0.0190676, -0.33849, 0.609838, 0.603719, -0.0358837, 0.141358, 0.155304, 0.165497, -0.0470369, 0.0124177, -0.0836361, -0.0121811, 0.315501, 0.344027, -0.569629, 0.00972502, 0.457343, 0.0670536, -0.0758853, -0.137602, -0.0577102, -0.0180368, -0.0028385, 0.0107736, -0.751049, 0.0211876, -0.04696, -1.51694, 0.22862],
    [0.0760883, 0.0193869, 0.138505, -0.0599291, -0.0264303, -0.00852041, -0.0348244, -0.120715, 0.0409108, 0.0554636, 0.169806, 0.0230934, 0.0980183, 0.00189627, -0.0590831, 0.00533385, 0.103422, -0.109351, -0.0944264, 0.0195029, 0.0357907, -0.0768117, -0.106994, -0.0487306, -0.0547056, 0.081768, 0.0189455, -0.0723336, 0.0200008, 0.0588438, -0.186084, 0.126767],
    [0.0940654, -0.0260965, 0.173748, -0.00268574, -0.0983043, 0.212391, 0.1264, -0.0136691, 0.00757442, 0.0973344, 0.0853503, -0.0338586, 0.0216041, -0.0261233, 0.0591274, 0.130361, 0.11087, -0.215591, -0.0650965, 0.197674, 0.0691892, -0.039154, -0.0268412, -0.0432184, 0.0108151, -0.00778079, 0.0233233, -0.247648, 0.027474, -0.00316143, -0.393346, 0.148924],
    [0.346394, -0.0678428, 0.599612, 0.0293075, -0.31029, 0.504589, 0.477663, -0.0595627, 0.00811965, 0.166231, 0.0302497, -0.0558753, -0.0108655, -0.0957212, 0.0331535, 0.191015, 0.302712, -0.546225, -0.0535892, 0.399455, -0.0412421, -0.0248868, -0.022216, 0.00840694, -0.0185447, 0.020336, 0.0418269, -0.576601, -0.16456, -0.0806334, -1.39836, 0.228655],
    [0.260787, -0.0351562, 0.448173, -0.0577705, -0.164044, 0.373062, 0.329764, -0.017359, -0.0356824, 0.0991705, 0.0231737, -0.0394848, -0.00591988, -0.195958, -0.0136434, 0.276418, 0.307598, -0.460363, 0.0273147, 0.403475, 0.0345045, -0.00910541, -0.0513271, -0.0240709, 0.0110521, -0.0219702, -0.0190017, -0.470278, 0.00565744, -0.0630854, -1.09795, 0.25853],
    [0.0438087, -0.00741103, 0.0835653, 0.067106, -0.0811072, 0.0220486, 0.0401062, -0.0523843, -0.00895639, -0.050738, 0.193612, -0.029351, 0.00305018, -0.0214737, 0.0312824, 0.066695, 0.019579, -0.0368703, -0.0397055, 0.0622418, 0.0750615, -0.114685, -0.0391706, 0.0687886, -0.00179995, 0.0735418, 0.00554786, -0.0192157, -0.0529526, -0.0430817, -0.222792, 0.111365],
    [0.0718908, -0.0391054, 0.154665, 0.00480153, -0.0543087, 0.140996, -0.0308468, 0.0175348, -0.0125041, 0.051293, 0.229878, -0.05677, -0.0258908, -0.00324181, -0.038188, 0.121593, -0.0497312, -0.183918, -0.0683501, 0.137159, 0.170982, -0.166832, -0.00696558, -0.0311302, 0.0879159, 0.0865626, 0.0672473, -0.197216, -0.124029, 0.00519485, -0.326678, 0.21188],
    [0.119312, -0.00193742, 0.0633779, 0.011191, -0.0646216, 0.00383552, 0.000600911, 0.0540526, 0.0172882, 0.138654, 0.133912, -0.0620743, 0.0224753, -0.030645, 0.0548843, 0.0251822, -0.0268865, -0.139147, 0.0541357, 0.119808, 0.0335651, -0.127495, 0.067975, -0.00484318, 0.0151576, -0.0503751, -0.00933964, -0.117476, 0.073292, -0.0431524, -0.210875, 0.0760804],
    [0.198834, 0.0227583, 0.404085, 0.00312875, -0.161144, 0.362436, 0.259719, -0.13401, 0.0331325, 0.0716946, 0.0335937, -0.0359043, -7.05623e-05, -0.00207641, 0.031554, 0.231888, 0.228767, -0.325375, 0.0315884, 0.33814, -0.0906125, 0.017494, -0.0710687, -0.0215929, -0.0211066, -0.00100673, -0.0705252, -0.449894, -0.0173457, -0.0439627, -0.788124, 0.150887],
    [0.153354, 0.0282001, 0.169073, -0.0180301, -0.0784554, 0.189944, 0.174357, 0.00769859, -0.0757094, 0.061942, 0.0591652, 0.020909, -0.0107588, -0.0280286, 0.0224696, 0.148918, 0.141266, -0.248589, 0.0300148, 0.197501, -0.0105264, -0.0232568, -0.0127737, 0.0585844, -0.0185084, 0.0709222, 0.0394442, -0.253109, -0.0679139, -0.0580026, -0.444304, 0.129879],
    [0.0439855, 0.0437382, 0.104515, -0.0338745, -0.0415831, 0.0315611, -0.0372221, 0.00320043, 0.0514374, 0.0249265, 0.151093, -0.0386944, 0.0208358, 0.0569249, -0.0053184, 0.0156603, 0.0287321, -0.146947, -0.0289741, 0.172272, -0.0063374, -0.203185, 0.0485023, -0.0531295, 0.0211426, -0.000415045, 0.0337667, -0.0754387, 0.0653146, -0.00616201, -0.240775, 0.189078],
    [0.121658, 0.0113256, 0.26619, -0.017725, -0.156211, 0.128038, 0.205364, -0.00736074, -0.0132923, 0.062965, 0.0113093, -0.0362209, -0.0410303, -0.0780493, 0.0362569, 0.0795265, 0.0955365, -0.155496, -0.0258742, 0.0333417, 0.069983, -0.0710236, -0.103151, 0.00574235, 0.0714588, -0.0707515, 0.000964619, -0.308496, -0.0206511, -0.042086, -0.468525, 0.0566145],
    [0.39254, 0.0154847, 0.699514, -0.011043, -0.325401, 0.645849, 0.570643, -0.113559, 0.0204007, 0.225631, 0.108699, -0.016481, 0.0821092, -0.0646879, 0.163577, 0.355632, 0.418917, -0.62735, -0.0421933, 0.409908, -0.0154568, -0.111371, -0.314855, -0.0971324, 0.00439695, 0.0582121, 0.0264266, -0.874208, -0.139644, 0.00542425, -1.68407, 0.330546],
    [0.214577, -0.066404, 0.452256, 0.0309076, -0.199683, 0.335218, 0.342413, 0.0405475, 0.0306208, 0.148755, 0.0669452, -0.0716392, -0.0142888, -0.0543097, 0.026805, 0.181351, 0.193883, -0.379798, 0.0624297, 0.319063, 0.0293317, -0.11501, -0.0935855, 0.0534221, -0.021257, 0.0267994, -0.0906247, -0.45929, -0.0428717, -0.0569236, -1.03206, 0.153266],
    [0.162577, 0.0783611, 0.391672, -0.0559298, -0.199466, 0.343448, 0.251075, -0.0329679, -0.0163975, 0.157694, 0.0492021, -0.0376284, 0.020259, -0.0128399, 0.0190425, 0.25246, 0.17694, -0.441504, -0.0753603, 0.306895, 0.0598872, -0.0878825, -0.070109, -0.000582796, 0.0329788, -0.00575454, -0.00190021, -0.52317, -0.0874576, -0.0327089, -0.933715, 0.137363],
    [0.261394, -0.00291797, 0.55766, -0.0342593, -0.243548, 0.440884, 0.248526, -0.0620705, 0.00640651, 0.162265, 0.123153, 0.0764145, -0.0650905, -0.112953, -0.0395011, 0.211538, 0.255164, -0.442777, 0.00394647, 0.442689, 0.0987783, -0.165668, -0.10386, -0.0056447, 0.0544435, 0.068901, 0.10316, -0.495939, -0.0984618, -0.0269605, -1.05229, 0.307747],
