-0.0266356 -0.0068625 -0.0748844 -0.0714519 0.0765318 0.0464077 -0.0234223 -0.0155459 
0.67503 -0.0318566 -0.0331034 -0.0447094 -0.0773991 0.0705771 0.0192252 0.289296 
0.124521 -0.0524918 -0.0524237 -0.00910182 -0.00944668 0.0698704 0.0651575 0.150447 
-0.0568555 0.0024145 0.0720951 0.0313084 0.0336568 -0.028063 -0.00689846 -0.0825295 
0.0534978 0.00660294 -0.0656095 0.041651 -0.0345838 -0.00075734 -0.0627497 -0.0455837 
0.295151 -0.0111344 -0.00170277 0.0575064 -0.0229735 0.0146821 0.0338518 0.153332 
0.183042 0.0292891 -0.0458738 -0.0555321 0.0144358 0.0695803 -0.0307998 0.102489 
0.00584262 -0.0613333 -0.0061199 -0.0555321 -0.0034991 0.0710728 -0.049665 -0.0331845 
-0.00161914 -0.027163 -0.0865637 0.0477089 0.0603085 -0.0581459 -0.0842491 0.0361897 
0.788615 -0.0122662 0.00630125 -0.096665 -0.0716308 -0.0901338 0.155106 0.405689 
0.0788987 -0.0808118 -0.0514674 -0.0243523 -0.083604 -0.00811398 -0.0562102 0.0205619 
0.0203327 0.0193968 0.0357871 -0.0712861 0.00308741 0.0672859 -0.018642 -0.0856921 
-0.712389 0.033042 0.0370189 -0.0686142 0.0191556 0.0494086 -0.0625909 -0.333605 
-0.100735 -0.0280325 -0.0427613 -0.0174658 -0.0219942 -0.0773204 -0.0392536 -0.0961334 
-0.195208 0.0154932 -0.0198391 -0.0699239 -0.0897433 0.0188281 0.0140993 -0.0195711 
-0.0428322 -0.0236967 0.0375402 0.0527812 -0.0365291 -0.0687367 0.0539725 0.0125297 
0.310949 0.00928254 0.0331134 -0.0615045 -0.0246325 -0.00604762 0.0265765 0.164759 
0.0523727 0.0278088 -0.0797882 -0.0578761 0.0388779 -0.0195864 -0.0353557 0.0578614 
0.367484 0.0459667 0.0817913 0.0658176 -0.0131274 0.0143496 0.0511407 0.159333 
0.348405 -0.0530779 -0.00317789 -0.0627228 -0.0247503 -0.0512203 0.0971884 0.18979 
0.279963 -0.00298915 -0.0758994 -0.0649317 -0.0884584 -0.0143 0.0960884 0.149018 
-0.0831222 0.0789581 0.0684753 0.0394946 -0.0325479 -0.040803 0.0322106 -0.047172 
-0.0751072 0.0243429 -0.0535204 -0.000936139 -0.0438255 0.0419477 -0.0562598 -0.0438701 
-0.0781657 0.0290089 0.00415069 -0.0195766 0.0779676 -0.0266248 -0.0333522 0.0600271 
0.427878 -0.035564 -0.0783832 0.0478399 0.0540886 0.0530972 0.0839674 0.242419 
0.221465 0.0304235 0.0577251 -0.0566905 0.0810048 -0.000626348 0.0112671 -0.0229225 
-0.0637863 0.0232794 0.00325485 -0.0182209 -0.0209071 0.0353639 0.0249148 -0.0182106 
-0.240342 -0.0520524 0.0424028 -0.0314041 0.005135 -0.0742401 -0.0969908 -0.103676 
-0.106783 -0.0470126 -0.033015 -0.0298505 -0.0656899 -0.0822471 -0.0528572 -0.133685 
1.35542 -0.0656393 -0.0561233 0.0354758 0.0161016 0.00726734 0.223392 0.635983 
-0.0440869 -0.0436245 -0.0573982 0.0233845 0.0800898 0.0558502 -0.0832229 -0.0317035 
0.217378 0.0564732 0.0255914 -0.00403457 0.0729642 0.0475324 0.0984586 0.0335097 
-0.0842928 -0.0330123 0.0406744 -0.0629627 -0.0229016 -0.0834813 -0.0620499 -0.0637621 
-0.0484339 -0.029536 0.0604077 0.056314 0.0766497 0.00704653 0.0172711 -0.0488097 
0.250129 0.0476831 0.0592267 0.0397695 0.0136691 0.0573811 -0.0446814 0.0923301 
1.78339 0.0496087 -0.0770366 0.00852925 0.00529588 -0.0880539 0.35217 0.833922 
-0.0245039 0.0400109 0.0333056 0.0420712 0.0470665 0.0592513 0.0651695 0.0794086 
-0.261207 0.0487242 0.0319204 -0.0676056 -0.0383264 -0.0268323 -0.0638126 -0.13715 
0.0670218 -0.0617893 0.0584312 0.038359 -0.0839449 -0.0880586 -0.00869694 0.124123 
1.11998 -0.020691 -0.0344138 -0.0369157 -0.0132901 -0.0355268 0.213409 0.536269 
-0.115183 0.00934856 -0.00843355 0.0441346 -0.0243935 -0.0195676 0.040005 0.00224096 
-0.0693432 0.0019448 0.028004 -0.0194813 0.0662876 0.084745 0.00136922 -0.0854816 
-0.0614932 -0.0166168 0.0420605 -0.0582958 -0.0164079 -0.0838444 0.0667301 -0.0594786 
-0.660246 -0.056999 -0.0125203 0.0159263 -0.00604903 -0.0432136 -0.0776945 -0.329005 
0.53076 -0.0656755 -0.0335931 -0.0555827 0.00790728 -0.0787897 0.111383 0.236902 
0.66799 -0.0225373 -0.0816882 -0.0115645 -0.0287218 0.000758506 0.0832551 0.295693 
0.314039 -0.054741 0.0316296 -0.0364285 -0.0491964 0.00401556 0.0372009 0.128088 
0.750669 0.0829734 -0.00414529 -0.0497923 -0.0447429 -0.0755343 0.13879 0.240524 
-0.257556 -0.0804841 -0.0492063 0.0242248 -0.0707668 0.0836681 -0.0415821 -0.0851196 
0.0434044 -0.00216646 -0.0690599 0.0421541 -0.082078 0.0109679 -0.0341308 0.118423 
0.0446604 0.0753073 -0.0274196 0.0842411 -0.00313875 0.0644267 0.0203862 -0.0491894 
0.987513 -0.0787214 -0.00937232 -0.0695248 -0.0540428 -0.0582718 0.083269 0.404634 
0.0644702 -0.00603917 -0.0411229 -0.0307171 -0.0125163 0.0287361 -0.072036 0.111888 
-0.043954 -0.0680372 0.0139733 -0.0434918 0.0289492 0.0535178 -0.0459918 -0.00987305 
0.291491 0.0113385 -0.0178165 -0.0469588 -0.0094843 -0.086176 0.0290077 0.0707692 
-0.269609 0.0818633 -0.0347991 -0.0344062 -0.0728788 0.0156428 0.0211679 -0.0959135 
-0.0790313 -0.0774011 0.0280492 0.0046617 0.0500805 0.0256659 -0.0237601 -0.0872015 
0.874387 0.0718099 -0.0421418 -0.00771433 0.0463725 -0.00348793 0.191611 0.36978 
-0.0562818 -0.0337657 0.0365407 -0.00320977 -0.0357667 -0.0555651 0.0589272 0.000703056 
-0.0302763 -0.0502104 0.0379012 -0.0533375 0.051303 0.00293042 0.0131763 0.0926115 
0.246938 -0.0624978 -0.0186462 -0.0184833 0.0618212 0.0462064 0.0195686 0.137841 
0.213341 0.0277788 -0.0731314 -0.00359992 -0.0602087 0.0822958 -0.0618056 0.0335073 
-0.0351135 0.0462244 0.0503155 0.0140218 0.0820526 0.0153396 -0.0861307 -0.0693629 
1.46086 0.04712 -0.0353325 -0.00978084 -0.0333669 0.056075 0.198626 0.717162 
