-0.0162918 -0.0364795 0.00557416 0.0128498 -0.0162503 0.0108502 0.00361847 0.00740679 -0.032009 0.00818118 0.0117006 0.0025406 -0.033618 -0.0034785 -0.010941 -0.00522935 0.00272097 0.0205011 -0.0133867 -0.00288929 0.00248692 -0.00856701 -0.0693091 -0.0067622 -0.0295711 -0.00781917 0.0239304 -0.0885686 0.0373861 -0.0748176 0.0187768 -0.0188618 
-0.00598767 0.0217429 0.0127869 -0.000839086 0.00769718 0.000698857 -0.0180184 0.012528 -0.00690954 0.010273 -0.00271515 0.00358811 -0.00120328 0.00463634 0.0105726 0.0350409 0.00996722 0.0206681 -0.000207911 -0.0120365 -0.00882866 -0.023588 0.0180147 0.0035046 -0.00582689 0.0226449 0.0674972 0.0149726 0.013261 -0.00689243 0.029907 -0.00162372 
-0.0165444 -0.00179985 -0.0215582 0.0118503 -0.0165956 -0.0145061 -0.00508523 -0.00338119 -0.0231957 -0.0316745 -0.0169313 -0.0103185 0.0033678 0.0157078 -0.0107545 -0.000184139 0.0123348 0.0129316 0.0124208 -0.0273326 0.0179179 -0.0237948 -0.0314315 -0.000905939 0.00554438 -0.0214613 0.00537617 -0.0493132 0.00175405 -0.0155024 0.00391166 0.00933948 
-0.0161083 0.0213846 -0.00536915 -0.015705 0.0103932 -0.02355 -0.0234027 0.00167731 -0.000373591 -0.0310992 -0.014064 0.00147688 0.0403498 -0.0149261 -0.00864667 0.00401878 -0.0149734 -0.01374 0.00287116 -0.0388474 -0.0106381 -0.0421644 0.0936599 -0.0293687 -0.0326945 -0.028181 -0.0404299 0.0800759 -0.0160613 0.0737503 -0.00580287 -0.0088847 
-0.00993576 0.00381207 -0.000228008 -0.0259297 0.00059434 -0.0136436 -0.0136054 -0.000916716 -0.0100282 -0.0585578 0.00179531 -0.0012147 0.0113366 0.0118295 -0.0125234 0.0147083 -0.0207388 0.0213065 0.0195024 -0.0247907 -0.0155138 -0.0146822 0.0228701 0.00933502 -0.0422372 -0.0183102 0.00273833 0.0320309 0.00210308 0.0365993 0.00599093 0.0103187 
-0.0152374 -0.00750266 -0.0130112 0.00408255 0.000766523 -0.00763186 -0.0260425 -0.000372693 0.00621044 -0.0119455 -0.00433966 -0.0300871 0.0292917 -0.0148334 0.0138768 -0.00616202 0.00912274 0.0155987 -0.00568861 0.0174373 -0.000781803 -0.0467618 0.0412985 0.010629 -0.0114282 -0.000828883 0.0132281 0.0211968 0.00416906 0.0292277 0.0326922 -0.0111527 
0.021014 0.0133335 0.0124154 -0.00180661 -0.0103971 -0.0118573 -0.0230328 0.0146799 -0.0101189 -0.0100126 0.0171478 -0.0229013 -0.00124703 0.00212787 -0.0187808 0.0373716 0.00466626 0.0030688 0.0125549 -0.0192499 0.00400124 -0.015889 0.0519143 0.00296506 0.00286185 0.0305958 0.0557706 0.0471835 0.037705 0.0165249 0.0150839 -0.000678969 
-0.012637 -0.0220101 -0.0206873 -0.00119164 0.00299638 -0.0165317 -0.00905763 0.0123951 -0.00524798 -0.0128918 0.0172583 0.0121865 0.00146586 0.0195929 0.011072 0.0254071 0.00117879 0.00249809 0.00675574 -0.0191002 0.0184648 -0.00375037 -0.0484238 0.0317068 -0.0176884 -0.018708 0.0641531 -0.0525511 0.0353333 -0.0523115 0.0395705 0.00978976 
-0.0156136 0.000151449 -0.0239218 0.00768222 0.00279647 -0.00248211 -0.00792955 -0.0132538 0.0141905 -0.0203722 -0.019657 0.00454234 0.00144103 0.00328362 -0.0112303 0.0269517 -0.00359002 0.0195072 0.0219447 -0.00637372 -0.00555177 -0.0132165 0.00881386 0.0103198 -0.0103431 0.0192146 0.0283646 0.0084748 0.0228596 0.0319477 0.0284041 0.00498795 
-0.00736672 -0.0177447 -0.00648809 0.0170086 0.00708601 0.0157807 -0.0182214 -0.00329936 -0.0144707 -0.0177505 -0.0174176 -0.00168113 -0.0209444 -0.0062947 -0.00529116 0.0491566 -0.00581287 -0.00382971 0.0113026 -0.000316243 0.0175729 0.00938939 0.0169508 0.0383751 -0.0120349 0.0151648 0.136009 0.00875386 0.0930367 -0.0102675 0.083595 -0.0187262 
-0.00208671 -0.0160409 -0.0245046 -0.0181589 0.0193921 -0.0187168 -0.00435405 -0.0168566 -0.00665508 -0.000777191 0.0103636 -0.0130419 -0.00924342 -0.0202595 0.00822931 0.00535438 0.00289143 -0.00196811 -0.012035 -0.00585157 -0.0116682 0.000368922 0.0385972 0.00772329 -0.00401281 -0.0116153 0.0113502 0.0153257 0.0155457 0.00102167 0.00229031 -0.0134489 
-0.00632809 0.0240561 -0.0191028 -0.0146063 0.00769174 0.00717779 -0.0345774 0.00676895 0.0197092 -0.0609183 -0.0120928 -0.0103559 0.0341946 -0.000263553 -0.0186911 0.0448508 -0.0100439 -0.00318271 -0.00962886 -0.0268072 -0.0181323 -0.0393008 0.105531 0.00639482 -0.0279453 -0.0222081 -0.00844483 0.116637 0.0113642 0.0578885 0.00908457 0.00473524 
-0.0173106 0.0265122 0.0095705 0.0110269 0.0145677 -0.00922707 0.0062314 -0.00574892 0.00473105 0.0108456 -0.0214997 0.0135703 0.0296114 -0.0226051 0.0147665 0.0414714 0.00558787 -0.00796379 0.0188229 -0.00302078 0.00613804 -0.0214389 0.0509916 0.0280389 -0.0284079 0.00246375 0.161949 0.015403 0.0989883 0.00620132 0.0514217 -0.0231409 
-0.00203723 0.0354402 0.00522041 -0.0136202 -0.00862014 -0.00327815 -0.016897 0.00740159 0.0160564 -0.0264657 0.0153085 -0.0145867 0.048929 -0.00552096 0.00881551 0.0210724 -0.0224626 0.00814721 -0.0157555 -0.0125949 0.0180242 -0.0179083 0.0711274 -0.0187658 -0.0467697 -0.0121836 0.0133219 0.0721366 0.0128162 0.036775 -0.014081 0.0133087 
-0.00266782 0.00404217 -0.0181739 0.00977322 0.00143728 0.0105864 -1.44916e-05 -0.0180098 -0.0181944 -0.00695729 0.00466587 -0.0139271 -0.0408555 -0.0091387 0.0130346 0.00407104 0.0193501 -0.0180769 0.0218942 0.00760694 0.0110613 -0.0221407 -0.062682 0.0319097 0.00524667 -0.0140272 0.0396233 -0.109103 0.0387806 -0.0697504 0.0133032 -0.0058077 
0.0171767 -0.000821665 -0.0201625 -0.00879897 0.0178325 0.00750505 -0.0337167 -0.0179707 0.00279478 -0.0654474 0.00641157 -0.0170576 0.0176864 -0.0119864 0.00807478 -0.00937461 -0.000444738 0.01288 -0.013425 -0.0310205 0.0153708 -0.0374849 0.0408128 -0.000650576 -0.026628 -0.0548937 -0.0631761 0.0808505 0.0141399 0.0559916 -0.0386038 0.0162226 
-0.00918269 -0.0172651 -0.00899044 -0.0133204 -0.0180458 0.013924 0.00166696 -0.00539784 0.00922501 -0.0124115 0.0185141 -0.0115593 -0.00275479 0.00759202 0.00641668 0.00149772 -0.00109802 0.0194769 0.0128394 -0.00886913 -0.0125703 0.0213586 -0.0537404 0.0264514 -0.0247681 -0.0126465 0.019261 -0.0692336 -0.00145335 -0.019303 0.0301724 0.00159135 
-0.0182712 -0.0213974 0.0116242 -0.0148143 0.0213371 -0.00852241 -0.00195404 0.0167379 -0.00514843 -0.00762312 -0.0139262 -0.0134021 -0.0283574 0.0143854 0.00594816 0.00510032 0.0106944 -0.00224461 0.0197323 0.0140445 -0.00210443 -0.0220009 -0.016829 0.000871684 -0.0206973 -0.00652849 -0.0117771 -0.0426114 -0.00631655 -0.0202792 -0.0181786 -0.00152733 
0.00174066 0.0183019 -0.0137663 -0.00176261 -0.0177144 -0.0204172 -0.0166871 0.00547665 0.0118062 -0.0193699 0.0174721 0.00506671 0.0102677 -0.0163504 -0.00629309 0.00266114 -0.0208959 -0.00587117 -0.0145637 -0.000303502 -0.00373408 -0.036759 0.0673132 0.00943658 -0.0081155 0.0134954 0.0222684 0.026161 0.0443293 0.00462166 0.0225135 -0.011577 
0.0175889 -0.00972916 0.0155335 0.0209816 -0.00075174 -0.011104 -0.000872381 -0.0168258 0.015789 -0.0073345 0.020214 -0.0151279 -0.0171139 -0.00708381 -0.00523637 -0.0182449 0.00957325 0.00328578 0.00377875 -0.0202423 0.00843927 -0.00192153 0.0117468 -0.00539665 -0.028476 0.00732714 -0.00804137 0.0184825 0.0181889 -0.00494012 -0.0176084 0.0158455 
-0.00493219 -0.0149912 -0.0181169 0.0118877 -0.00898091 -0.0142878 -0.0431102 -0.0197417 0.0265608 -0.0153268 -0.00620356 -0.0317311 0.0124027 -0.0193735 -0.0163053 0.00429632 -0.00691953 0.0131859 -0.0130679 -0.0195883 -0.00637331 -0.0517413 0.0533245 -0.00142204 -0.0105703 0.0298354 0.0376266 0.0633032 0.0135758 0.0155969 0.0318842 -0.00697257 
-0.0051123 0.0162397 -0.0330509 0.00301951 -0.0194281 -0.0191928 -0.0137977 -0.0299799 0.00332056 -0.0564916 -0.0165419 -0.0064778 0.045032 -0.0362603 0.0115039 0.013572 -0.0165231 -0.0179228 -0.0143491 -0.0141579 -0.0155767 -0.0233036 0.093428 -0.0174477 -0.0226787 -0.047429 0.054328 0.0820036 0.017893 0.0655448 0.00327692 0.0104956 
-0.0114917 0.0137809 -0.0324963 -0.0138302 0.0204921 -0.0240391 -0.0331379 -0.0181228 0.00516836 -0.0415966 -0.0241848 -0.0202187 0.036478 -0.0193334 0.00530804 0.00158693 0.01844 0.0217373 -0.00483161 -0.025275 0.011086 -0.0410909 0.0475196 0.00302418 -0.0345697 -0.0371179 0.0384313 0.0694995 0.0378726 0.102794 0.0265705 0.0154688 
-0.0136721 -0.0360225 -0.0118047 -0.0155182 -0.00376028 0.00381025 -0.00240849 0.0168966 -0.0372492 -0.0010652 -0.00662604 0.0167867 -0.0413288 0.0185097 0.0199821 -0.00444281 0.0188706 -2.2837e-05 -0.00921762 0.0066537 0.0187345 -0.00459392 -0.0961022 0.00338955 -0.0104226 0.00622689 -0.00100397 -0.127709 -0.0053243 -0.0107862 0.00340691 -0.014848 
-0.0184685 0.00292355 -0.0247149 -0.00284603 0.018864 0.00668442 -0.0160712 -0.0205775 -0.00432199 -0.0149458 -0.0225459 -0.00607472 0.0269767 -0.0419454 0.0100534 0.0585924 0.00099929 -0.0166766 -0.011304 -0.0113988 0.0017482 -0.0233666 0.108284 0.0125503 -0.00624468 0.0113442 0.153985 0.0671743 0.0753813 0.0114339 0.0651898 -0.0254652 
0.00472073 0.00541325 -0.00331111 0.00010429 -0.00656176 0.0170006 -0.000415712 0.00713974 0.00520209 -0.00550758 -0.0112791 -0.0188717 0.0137428 -0.0262727 0.00903903 0.0397173 -0.0125813 -0.0215129 0.00228629 -0.00364241 -0.00298979 -0.0131966 0.0673507 0.0318165 -0.0147284 0.0224049 0.15481 0.0138785 0.0749515 -0.00095765 0.0857297 0.00932495 
0.0171913 -0.00751712 -0.0377412 -0.0161823 -0.016114 0.00391859 -0.0067246 0.00323909 0.00427091 -0.0530604 0.0194406 -0.0343242 0.0069344 -0.0209736 -0.0180449 0.0185447 0.0115029 0.00868664 -0.0158285 -0.0132757 -0.0184324 -0.054236 0.0538555 0.00639256 -0.00911716 0.00584569 0.0259923 0.0317953 0.00876695 0.0622945 0.0397491 0.0178157 
0.0148501 -0.00095871 -0.0438298 0.0160631 -0.012428 -0.0307077 -0.015099 0.000503107 -0.00361645 -0.0308361 0.00919811 -0.011753 0.0149371 -0.016163 -0.0219628 0.00569285 0.00323841 -0.0079503 -0.0100218 0.00831014 -0.00660243 -0.0167715 0.0413733 -0.00425638 -0.0246747 -0.0116639 0.0466435 0.0584304 0.0459418 0.0415262 0.0293237 0.00793162 
0.0137474 -0.000418508 0.0106633 -0.0216524 -0.0185463 -0.00199128 0.00500382 -0.00535493 -0.0353553 -0.00631896 0.0225607 -0.00245472 -0.0442916 -0.0233835 0.0101337 0.0362905 -0.0101413 -0.014905 0.00251544 -0.00104091 -0.0181352 0.0104944 -0.0810872 0.0337593 -0.0334874 -0.00758137 0.0372673 -0.147953 0.0460415 -0.119284 0.0552151 0.00988616 
-0.0142451 0.00533466 -0.00220793 -0.0127973 0.0214064 -0.0048078 -0.00357264 -0.0158663 0.0248765 -0.0140405 0.0103141 -0.0149353 0.0157517 -0.0137027 -0.0149587 0.0316949 0.0099752 0.0119955 0.00316979 0.0150556 0.00218873 -0.0126 0.0410273 0.00962097 -0.0337418 -0.0056981 0.0413448 0.0153716 0.0144163 0.0147797 0.0308718 -0.00865597 
0.0189374 0.00757557 0.0046648 0.0177393 -0.0138806 -0.0106825 -0.0202719 -0.0144291 0.0145623 0.0101608 -0.00203514 -0.00613175 -0.00508493 0.00562105 -0.00857494 0.024956 -0.00151871 0.0181601 0.0161635 -0.0313786 -0.00091434 -0.00698422 0.0293649 0.0359366 -0.0110639 -0.0133009 0.118891 0.00193498 0.0738787 -0.00593878 0.0440182 0.00163579 
-0.0196444 -0.00572947 -2.29221e-05 -0.0121608 0.0205102 0.00208259 -0.00773648 0.0148061 -0.020361 0.0139426 -0.00804519 0.00257472 -0.0196244 0.0045719 0.00739607 -0.00779829 -0.000245153 0.00276694 -0.0176028 -0.0288286 0.0215884 0.00906278 -0.0674157 0.00996737 0.0121499 -0.0233254 0.0015278 -0.0745271 0.0163793 -0.0729254 0.0150786 0.00215101 
0.012083 0.0241763 0.00857641 0.00728697 -0.00882015 -0.0162384 -0.0175767 -0.00192575 -0.00502292 -0.0141875 -0.00882616 5.45504e-05 0.0225524 -0.0326221 0.0118632 -0.0110002 0.00102793 0.0190756 -0.0246609 -0.0161833 0.00756255 -0.0157127 0.045121 0.00357379 -0.0143034 -0.0454588 -0.00536264 0.0586198 -0.0079978 0.050862 0.00897728 0.0184763 
-0.00702034 0.00944809 -0.00749378 0.00431775 0.0178728 -0.0172695 -0.0194758 -0.0217397 -0.0157872 -0.0123124 0.0133417 -0.00248379 0.0125708 -0.00802158 0.00273579 -0.00367682 0.00280918 0.00516989 0.0118532 -0.0111925 -0.0135418 -0.000711214 0.0409892 0.0194104 0.00322034 -0.00846229 0.00539028 -0.00244196 0.027304 0.0300967 0.0275991 -0.0171553 
0.00575375 0.000230872 0.0124324 0.00116483 0.0145426 -0.0191553 0.00368305 0.0190397 0.00227381 -0.00614069 -0.00183069 -0.013573 -0.0262893 -0.0204145 -0.00171197 0.0593541 0.00918683 -0.00884904 0.013997 0.00995748 -0.0169933 0.00756777 0.0150448 0.0683959 0.011282 0.0182232 0.165592 -0.0189794 0.103686 0.00867441 0.103983 -0.00062391 
-0.000588103 0.0103736 -0.0184925 -0.00816569 0.0151757 0.00729501 -0.0112449 0.000954039 -0.020809 0.0113713 0.0135407 -0.0193519 0.0142211 -0.00825316 0.00658329 0.00825619 0.00553743 -0.00141084 -0.000416363 0.0109612 -0.0136365 -0.00884275 0.00613176 -0.0106602 -0.0117124 0.009233 0.0321414 -0.0207871 0.0121155 0.0154308 0.017591 -0.0185431 
0.00651039 0.0139453 -0.00524046 -0.000622156 -0.00134045 0.00606081 -0.0219281 0.000975802 -0.00447719 0.0131278 0.00377481 -0.0115944 -0.0145708 -0.0125102 0.0145884 0.0231914 0.00940559 -0.00747303 0.000377058 0.0148963 0.00594666 -0.0132451 -0.0109042 0.0251954 0.016311 0.0222547 0.00902383 0.00184032 0.0342903 0.0128249 0.0205803 0.000857046 
0.00372591 -0.0268797 -0.0210333 -0.0225058 0.00658008 -0.0215652 -0.0141202 -0.0220668 0.0116151 -0.0366866 -0.00690264 0.012136 -0.0144789 -0.0171335 0.00779687 -0.0218238 -0.0049259 -0.010657 -0.0204624 -0.0365681 3.96844e-05 -0.0282382 -0.0640274 -0.00510957 -0.0388414 -0.0496452 -0.0199148 -0.0137922 0.00346009 -0.00441602 -0.00573426 -0.00283392 
0.00316049 0.00487209 -0.0140662 -0.0139093 0.00379476 -0.0239283 -0.0186051 -0.00380415 -0.00858245 -0.0104065 -0.00246047 0.00198215 0.0208319 -0.0260315 0.0121743 4.2272e-05 -0.000648143 0.0152356 -0.00474528 0.0217052 0.0195532 -0.0159661 0.0208439 -0.018196 -0.0107815 -0.00223264 0.00189199 0.0161757 0.0323379 0.0117784 0.0253144 -0.00305648 
-0.0178104 0.0116953 0.00308164 0.00310913 -0.00244045 -0.0280276 -0.0470314 -0.00179338 0.0201242 -0.038879 -0.0052546 -0.0197829 0.0430172 -0.0277358 0.00424192 -0.00879487 -0.0262662 -0.0170039 -0.0151105 -0.00254774 0.00275998 -0.018068 0.0609909 -0.0320523 -0.053784 -0.0497121 -0.0278947 0.109886 0.000995564 0.0502612 -0.027543 0.00840298 
0.0089512 -0.0133943 -0.00686243 -0.0162781 -0.0158405 -0.000845775 0.0108899 0.00968724 -0.0165217 -0.0185183 -0.0149541 0.0137769 0.000725749 0.0132724 -0.0164924 -0.000915689 0.0201914 -0.00444606 -0.00396699 -0.00318372 -0.0190524 -0.00689241 0.0179437 -0.0193947 -0.00610079 -0.0235991 -0.0211203 -0.00637649 -0.00136737 0.016076 0.00936866 -0.01472 
0.00518313 -0.0285848 -0.00808021 0.0111366 0.00628024 -0.0146829 -0.000483565 0.0100602 -0.0164372 0.0075154 0.00628959 0.0112217 -0.019725 0.00954616 -0.0109224 0.0136868 -0.0169086 0.00891029 -0.0195031 -0.0160679 -0.0150184 0.00778246 -0.0678551 0.0213332 0.00635664 -0.00633695 0.0385721 -0.0856421 0.0315109 -0.0646525 0.0255445 -0.00460151 
0.00531213 0.0218362 -0.0265541 -0.0135391 0.0191403 0.00242011 0.00377951 -0.0143007 0.00432699 -0.0231982 -0.0143271 0.00991983 0.0137368 -0.0182854 -0.00296005 0.0137868 -0.0154923 0.00136557 0.00351057 -0.0180046 -0.0123579 -9.98669e-05 0.0828432 -0.0201069 -0.0290245 -0.00759539 0.00853513 0.0449297 0.00112945 0.0395067 0.00906474 0.0124498 
0.000396359 0.0193571 -0.0220364 -0.00673639 -0.000427959 -0.0230898 -0.0133963 0.0102835 0.013559 -0.0141416 0.0144198 0.0079963 0.00733362 -0.016492 -0.00671687 0.00810983 0.0100351 -0.0173264 0.0177215 -0.039745 -0.0182313 3.62324e-05 0.000332927 -0.00266986 -0.021665 -0.0312666 -0.00424681 0.0504398 -0.00801902 0.0181502 0.00761415 0.00774882 
0.0187322 0.0159312 -0.0291832 -0.00571553 0.0114474 0.0125345 -0.0148781 -0.0039414 0.0184206 -0.0293394 -0.00583306 -0.0170432 0.0147564 0.0011752 0.0145476 0.0466975 0.0194527 0.0159794 -0.00382296 -0.0324344 0.0132575 -0.0122972 0.0668961 0.0331793 0.00188772 0.0361094 0.150402 0.01229 0.0699584 0.0292729 0.0903711 -0.02548 
0.0039262 0.0336484 -0.0216567 -0.0115746 0.0134409 0.00103608 -0.0160928 -0.00344872 0.0323932 -0.0570028 0.0210333 -0.018959 0.0542312 -0.00826639 0.00865429 0.0428756 0.00872522 -0.0146234 0.0143097 -0.0173892 0.00836079 -0.0362076 0.116396 0.00652293 -0.0365822 -0.0400315 0.0353791 0.0938975 0.00638513 0.0422451 0.0119784 0.00890685 
-0.00457672 -0.0251184 -0.0185377 -0.015061 0.0134147 0.0143292 0.00523851 0.00897212 0.0175932 0.00119519 -0.0141082 0.0143066 0.000502184 0.0167594 0.0150448 -0.00888712 -0.021557 0.0154876 -0.0204899 -0.0023167 -0.0103202 -0.0278204 -0.0382089 0.000556608 -0.0235159 -0.0407986 -0.0545124 -0.0351618 -0.00981452 0.0319081 -0.0281804 -0.0217657 
0.0147204 -0.0176681 -0.0123474 0.00454125 -0.0187976 -0.018014 -0.0167541 -0.0201951 0.0144854 -0.0121958 -0.019694 0.00111304 -0.0141925 0.0186041 -0.017161 0.00721749 0.00939723 -0.0129343 -0.00751947 -0.0353848 -0.011138 0.0039151 -0.0352964 0.0102561 -0.000421093 -0.00446341 0.0178017 -0.0445348 0.0145117 -0.0605883 0.0121293 0.00194238 
-0.006156 0.016912 -0.0374816 -0.00631881 0.0137722 -0.0051982 -0.0146962 0.0117551 -0.00948126 -0.0250202 -0.00220385 -0.00473538 0.0196246 -0.0168748 -0.0176895 0.0166029 0.0162881 0.000530782 -0.00701687 -0.0151357 -0.0114667 -0.0423444 0.0721171 -0.00738953 -0.0431665 0.0332787 0.0740923 0.070104 0.059132 0.0128254 0.0251232 -0.0258597 
0.0116964 0.0252713 -0.00849906 -0.00363727 -0.0159555 0.013306 -0.050377 -0.0236255 0.0207924 -0.0455144 0.0204854 -0.000191396 0.0368105 -0.0355339 -0.0165629 -0.0117601 -0.00294678 0.00474386 -0.00841549 -0.0174921 0.00820157 -0.0535157 0.121156 -0.0109881 -0.0386208 -0.0410669 -0.0462046 0.110312 -0.0101966 0.0110682 -0.0388887 -0.00709022 
-0.00840155 0.0358733 0.00714131 -0.00681805 0.0171744 -0.0182634 -0.0160578 -0.0154865 -0.00423723 -0.0320003 -0.00456478 -0.0135334 0.0460152 -0.0110242 0.0122987 0.0175905 -0.0138188 -0.00950943 -0.0160142 -0.00445085 -0.00590627 -0.039758 0.103907 -0.0202494 -0.0207952 -0.0495571 0.0116916 0.0903126 0.0383725 0.0534583 0.0101119 -0.0130381 
0.0123011 0.0140244 -0.0159367 0.00366709 0.0143598 -0.0135975 -0.0328449 0.0175265 -0.0125686 -0.027504 -0.00431727 0.00459421 0.00957471 -0.0332728 -0.0149018 0.0448992 0.00224056 0.00136372 -0.00664028 0.0140634 0.010823 -0.0444477 0.120883 0.026595 -0.0407552 0.0329031 0.159139 0.0425925 0.0796265 0.0301769 0.0596898 0.0145101 
0.0212626 0.024765 -0.0201777 0.0090669 -0.00870361 -0.00328637 -0.0147916 -0.0133048 -0.00898915 -0.0534657 -0.012867 -0.0231569 0.0120157 -0.0280039 0.00552181 0.0382473 -0.0198582 -0.021089 0.0106198 0.00949962 -0.0205453 -0.0176024 0.0436072 -0.0115878 -0.0415867 -0.0324132 0.0265256 0.0420709 0.0230498 0.0801858 0.0130252 -0.00553341 
-0.00735143 0.00139165 -0.0191109 0.00141633 0.0131348 0.0130997 -0.0495582 0.00922531 -0.00325522 -0.0502398 -0.0113294 -0.0170819 0.0486016 0.00295976 -0.00836094 0.037084 0.0145974 -0.0107933 0.0026493 -0.00632823 -0.0186549 -0.00613303 0.0817397 -0.0105909 -0.00980411 -0.0412898 0.0173093 0.102783 0.0324365 0.0192634 0.018831 -0.0169991 
-0.0108506 -0.0301142 0.0113825 -0.0206335 -0.0175696 0.0126636 -0.0263633 -0.0143218 -0.0331208 -0.0155936 0.00798138 0.0119843 -0.0413321 -0.0217151 0.00930658 -0.00660968 -0.0117512 -0.00365243 -0.0182104 -0.0149113 -0.00505175 -0.0137437 -0.070912 0.00922465 -0.00824111 -0.0153486 0.0320859 -0.098726 0.0149571 -0.0596103 0.0243741 0.0105959 
0.0190598 0.00191382 -0.00396502 -0.0247188 -0.0213426 0.00537012 -0.0374714 -0.0279329 -0.00569602 -0.0223101 0.021672 -0.0234801 0.0448778 -0.0122855 -0.00698246 0.00594068 -0.015316 -0.000726374 -0.00490163 -0.0122305 0.00951485 -0.0445891 0.102267 -0.008284 -0.0281745 -0.0104569 0.0311251 0.0598375 0.0234245 0.019769 0.0232564 -0.000586887 
-0.00662377 0.0154419 -0.032365 -0.0112024 0.00121118 -0.00319139 -0.0289308 -0.00209974 0.0115217 -0.0453141 0.0156971 -0.0160174 0.00615036 -0.0439784 0.00396843 0.0174767 0.013332 -0.0147081 0.0157349 0.000619043 -0.00773052 -0.01768 0.0757965 0.0209905 -0.0215858 -0.00771881 0.0749947 0.0436631 0.0369349 0.112282 0.04074 0.0134511 
-0.00226339 0.0103581 -0.036928 0.0168893 -0.0125191 -0.000971216 -0.0110267 0.0150466 -0.0071591 -0.0284355 -0.00819197 -0.0181193 0.0463583 -0.00490481 0.00761045 0.0618834 -0.0152669 0.0120943 -0.0149638 -0.00467684 0.00992653 -0.00577263 0.108412 0.030029 -0.0311866 0.0338805 0.179158 0.0978283 0.125436 0.053255 0.0965139 -0.0116257 
-0.0143326 -0.00131914 -0.0158119 -0.00814672 0.0174644 0.0150492 -0.0314373 -0.0270872 0.0118721 -0.0261492 -0.00181904 -0.0170238 0.0289686 -0.0265982 -0.0239713 0.0266195 -0.0233309 -0.0148187 -0.0175519 -0.00512528 -0.0162101 -0.019726 0.0644909 0.00271361 -0.01056 -0.0399236 0.0161061 0.0885778 0.0316701 0.0312567 -0.00912901 -0.0220359 
0.00496151 0.0121228 -0.0401461 -0.00526019 0.00331954 -0.00996609 -0.0253099 -0.0272467 -0.00604992 -0.0658382 -0.00503871 -0.00476105 0.0108279 -0.0394003 -0.00339032 0.0146816 0.00538048 0.0081681 -0.0259644 0.00949984 -0.0124935 -0.0484983 0.0576353 0.0271694 -0.039879 0.00610286 0.0696871 0.040803 0.024291 0.124373 0.0125022 0.0127652 
0.0026488 0.0102203 -0.020498 -0.0181783 -0.00946204 0.0145852 -0.0213928 -0.000372343 -0.0191144 -0.00861719 -0.0105072 -0.0156737 -0.00534473 -0.00322317 0.0020898 0.0237136 -0.00286634 0.00637592 0.000462301 0.0070727 0.0194617 -0.000303745 0.0397591 -0.00398392 -0.00541133 0.00658621 0.0328997 0.0502639 0.0157865 0.0280705 0.0290233 0.0160159 
-0.00185268 -0.0322304 -0.0190095 0.010106 -0.0127583 -0.00930923 -0.0145113 -0.0124079 0.000489717 -0.00186112 0.00357368 -0.0230273 -0.0475762 -0.0193969 0.013983 0.0293802 0.00897022 -0.00588766 -0.00704327 0.0019968 -0.0124718 0.0204824 -0.121919 0.0423882 -0.0171872 0.00182659 0.0630206 -0.115156 0.0238789 -0.102395 0.0567731 0.0122486 
0.020248 -0.00236082 0.00395303 -0.0152946 -0.0183106 0.0142863 -0.00987969 -0.0189107 -0.0222417 0.0124092 -0.0115694 -0.00207166 -0.00542617 -0.0198287 -0.0127669 0.021594 -0.00388191 0.00389495 -0.00372646 -0.00109421 0.00433339 -0.0050134 -0.0756318 -0.00659856 -0.0334046 -0.0134726 0.0318854 -0.0972763 -0.00106924 -0.0713128 0.0165421 -0.0200683 
-0.0082905 0.0019145 -0.0103352 -0.00529081 0.00697464 0.00700929 -0.00721301 0.0218569 -0.00984391 0.000639475 0.0055025 -0.00289252 -0.0124014 0.0149406 -0.011709 -0.0141539 -0.00433482 0.008201 0.0166869 -0.0307424 -0.0161095 -0.00475866 -0.0828887 -0.0146905 0.00552963 0.000761818 -0.0202391 -0.0995692 -0.00833407 0.00327351 -0.0150483 0.00629534 
0.00683923 -0.00276382 -0.0351915 -0.0100811 -0.0208717 -0.004202 -0.0189769 0.00194031 -0.00999817 -0.000588151 -0.0159946 0.0134374 0.0199065 -0.0185965 -0.016911 -0.00265671 -0.0163239 -0.020804 -0.0126698 -0.0101241 -0.000930055 -0.0242481 0.0240796 -0.00393531 -0.0292689 0.0248257 0.0200306 0.0239085 0.0278677 0.0090887 -0.00224919 -0.00570093 
0.0148406 -0.0102561 0.0100819 0.0157764 0.0145134 -0.0198069 -0.00242755 -0.0199648 0.018673 0.00253933 -0.0230421 0.00657689 -0.0210328 -0.0172838 0.0167469 0.0143991 -0.0142349 -0.0154054 -0.00391798 1.90849e-05 -0.00155554 0.0127691 -0.0102485 0.0289081 0.0078319 -0.00687625 0.0600987 -0.00406221 0.0606585 -0.0101645 0.0216918 0.00643933 
0.00499293 0.0183487 -0.0110176 -0.00520996 0.0145195 0.0152083 -0.0150432 0.00723761 0.00917644 -0.0225072 -0.000239835 -0.00397486 0.020412 -0.0195618 0.00926957 0.0266066 0.00197143 -0.0154206 -0.00352747 -0.0284881 0.0211561 -0.0176144 0.04717 0.013089 0.000181424 -0.000967983 0.0105064 0.0492291 -0.00580313 0.0168151 0.00256026 0.00938288 
-0.0163315 0.0116256 -0.0144052 0.0200399 0.0205012 0.00689425 0.0108795 0.00195123 -0.0252599 -0.0109111 -0.0166299 0.00912174 -0.00778232 0.0146441 0.00417839 0.0307643 -0.0214127 -0.0168256 -0.0113616 -0.0275272 0.00651694 0.0157755 -0.0183057 0.0410347 -0.0016647 -0.014822 0.101443 -0.047247 0.0652738 -0.0386581 0.0739781 0.00342276 
0.00799083 0.0194172 -0.00162013 0.00396032 -0.00457259 -0.0106799 -0.0280925 -0.00336157 0.012304 -0.0286787 -0.0058238 -0.0183076 0.00444363 -0.0314476 -0.00252895 0.000257245 -0.0177269 0.00981151 -0.0141784 -0.00246549 0.0049491 -0.0350949 0.0423251 -0.0092719 -0.0307206 -0.015815 -0.0112469 0.0584934 0.00157692 0.0251541 -0.00615416 -0.0216645 
-0.00556993 0.0134721 0.00695169 0.0116888 -0.0094958 0.0152435 -0.00915502 0.017309 -0.0198928 0.00728011 -0.0145433 -0.00746673 -0.000946947 0.0054283 0.00427454 0.0234004 -0.00723202 0.015792 0.00638363 0.0176173 0.0175804 0.0204755 -0.0394269 -0.00921222 -0.000552788 -0.00937343 0.0297174 -0.0164985 -0.011182 -0.0523049 0.0363333 -0.00643883 
-0.0208419 0.0198003 -0.0255609 -0.0123197 -0.0025674 -0.00792656 -0.0373212 -0.00491329 -0.0013095 -0.0418808 -0.0220862 0.00394073 0.0512719 -0.010871 0.00784269 0.0126705 -0.00407394 -0.00511888 -0.0131596 -0.0276291 -0.00609643 -0.0210869 0.08314 0.0202131 -0.00892781 -0.0420374 0.0300689 0.106302 0.01016 0.0480826 -0.00530184 -0.00677888 
-0.00295216 0.00589403 -0.01907 0.0126257 0.0190802 0.00589834 -0.0163077 -0.0172524 -0.00607485 -0.0293206 0.0212104 -0.023452 0.00466691 -0.0146623 -0.000851395 0.0373197 -0.0167719 0.0171423 0.0208734 0.00209529 -0.00180669 -0.0284077 0.069799 0.0104465 -0.0172916 0.0296968 0.0861158 0.0853045 0.0504379 0.0422679 0.0362875 -0.00365847 
-0.0186645 0.0229453 -0.00775038 -0.0224191 0.0158675 0.0162564 -0.0204561 -0.0189213 -0.00345802 -0.0227736 -0.00838529 -0.00218063 0.0187619 0.0126377 -0.0186611 0.0243654 0.0124919 -0.0194958 -0.00273144 -0.011932 -0.000465174 0.012503 0.0161774 -0.0147053 -0.0166878 0.0187377 -0.00785872 0.00280833 0.0084994 0.0132263 0.0237468 0.00573013 
-0.00345623 0.00177386 0.00373109 -0.0141061 -0.00925665 0.00806593 -0.0333019 0.000661311 0.0241478 -0.0281771 -0.0148402 -0.00371493 0.0138917 -0.0189422 0.0045804 -0.00474105 -0.0133818 -0.0152651 0.00288975 -0.00756679 -0.0196011 -0.0317 0.0335033 -0.00916768 -0.0434996 -0.0477813 -0.00468181 0.0448067 0.00337647 0.0189699 -0.00517001 0.0196084 
0.0211425 0.00502846 -0.0201958 -0.0171918 0.0144053 -0.00348125 -0.0237089 -0.00583216 0.0120141 -0.0756743 -0.00261873 -0.00475039 0.0382466 -0.0343212 -0.0162426 0.0135503 -0.0163347 0.0173156 -0.00199734 -0.0394939 -0.0159638 -0.0335457 0.11772 -0.025541 -0.0410898 -0.0507026 -0.0584543 0.10822 0.0146684 0.0782674 -0.0484434 0.0172964 
0.00238158 -0.0054041 -0.0168531 -0.00778361 0.019347 -0.0186581 -0.0340443 -0.0158728 -0.00699702 -0.0196419 -0.0154029 0.00168311 0.0100387 -0.00910593 -0.00295652 -0.0327703 -0.0113814 -0.0186807 -0.00629824 -0.0155858 0.00621153 -0.0323501 0.0110145 -0.0221027 -0.023661 -0.00984161 -0.0482256 -0.00505078 -0.0235331 0.0501091 -0.0365757 0.0190712 
0.0176044 -0.00383475 -0.0238789 0.0128857 -0.0019072 -0.0102122 -0.0288622 0.00890423 0.023504 -0.0290645 -0.00296711 0.000845508 0.016764 0.00557138 0.00687055 0.0326939 -0.0200691 -0.0185141 -0.00437296 0.00679676 -0.0164118 -0.0272625 0.0525147 0.00357083 -0.0309474 -0.00518022 0.0435926 0.0218799 0.0404923 0.07484 0.011158 0.0136051 
-0.0118085 0.0080584 0.00885749 0.00745148 -0.0156622 0.012657 -0.00920681 -0.0179139 -0.022904 0.0103138 0.0123224 0.00443747 0.0116623 -0.00212594 0.00620676 0.0226182 -0.000286256 -0.0169632 0.0050951 -0.00140228 -0.00641691 0.000275287 -0.0347358 0.0050151 -0.0311095 0.00423711 0.0216926 0.00141212 0.0176487 -0.0355052 0.0233402 -0.0204178 
-0.0175173 -0.00135363 0.00945482 -0.0114615 -0.0078206 -0.0148966 -0.00635084 -0.00647215 -0.0228047 -0.017838 -0.0223643 0.0166449 0.000804567 0.00680791 0.0162747 0.0472668 0.0151951 0.00104508 0.0136632 -0.0241733 -0.0168352 0.0178115 0.0168206 0.0354117 0.00593851 0.00305382 0.144376 -0.0209562 0.117615 0.0091981 0.104859 -0.0210262 
-0.00197141 0.0174532 -0.027436 0.00711129 0.00787642 -0.00241282 -0.0458778 0.000526848 0.0298109 -0.0585836 0.012259 -0.0193762 0.0546317 -0.0180415 0.000232152 0.0378981 -0.0144395 -0.00533314 0.0148078 -0.0287621 -0.00682163 -0.027079 0.103143 -0.0112553 -0.0441335 -0.029896 0.0451043 0.092077 0.0229674 0.0520962 0.00328522 0.0179236 
-0.0155214 0.00314281 0.00956728 0.0140313 -0.00317796 0.015356 0.00242864 -0.0101357 -0.0273986 -0.00748742 0.0100452 0.0170788 -0.0304837 -0.0103039 0.00847274 -0.00410485 0.00566946 0.0084766 0.00750972 0.016683 -0.00611103 -0.016959 -0.0475972 0.0115937 0.00314983 -0.0218217 0.0207435 -0.05642 0.0169606 -0.0359897 -0.00770861 0.0186029 
-0.0201771 0.0212054 -0.0170513 -0.00582907 0.00792835 -0.0185548 -0.014351 0.000593512 0.0174653 -0.0414514 0.00448676 0.00174161 0.0256319 -0.0365035 -0.0162134 0.014212 -0.0186431 0.0156724 -0.0112881 -0.0065053 0.0218084 -0.0299236 0.0339427 0.0120987 -0.0204294 -0.0349552 0.0606242 0.0411044 0.0198153 0.118671 0.0158322 -0.00892338 
0.0147076 -0.00854331 0.0102408 -0.000301897 0.00495775 0.00135187 -0.0141273 -0.00495 -0.0210714 0.0108151 -0.0120696 0.00578843 -0.00259204 -0.00944607 -0.0188978 0.0457543 -0.00961502 -8.36251e-05 0.0131815 -0.0236142 -0.01804 0.0111001 0.0650654 0.0514461 0.00683216 0.0153151 0.145283 -0.00363167 0.0941725 0.0151109 0.080447 0.00412551 
-0.0209833 -0.0131296 -0.0138778 0.00499608 -0.0194955 -0.00388755 -0.0274732 -0.0178009 -0.0200477 -0.0168515 0.0172968 -0.00237123 -0.0124882 0.0209108 0.0163749 -0.0144244 -0.00329454 0.0091727 -0.00910351 -0.00738245 0.00517946 -0.0126917 -0.0712008 0.0128324 -0.0284388 -0.00445466 0.0195526 -0.054539 0.00993986 -0.0634279 0.0253433 0.000702263 
0.0172054 0.0365551 -0.0190333 0.0151049 -0.0112292 -0.018107 -0.0506161 -0.00820937 0.0183818 -0.0238109 -0.0169284 -0.028476 0.0541196 -0.0326578 -0.0169993 5.28815e-05 0.00628225 0.00046663 0.0160385 -0.0288359 0.0125772 -0.0316654 0.118752 0.0108011 -0.0518491 -0.0206903 -0.00314512 0.115539 -0.0161619 0.0371978 -0.028781 -0.02117 
-0.00581911 -0.00240466 0.0117001 0.00348901 0.00252803 -0.0245344 -0.0204708 -0.0198657 0.0217804 -0.0203131 -0.0109662 0.0100342 0.00286988 -0.0106959 -0.0144483 0.0050425 0.0215315 -0.0144046 -5.12592e-06 0.00984899 0.000859958 -0.0128195 0.0496419 0.0171008 -0.0267777 0.0193043 0.0552758 0.0138382 0.0228915 0.00487322 0.022876 -0.00523716 
0.00888285 -0.00265279 -0.0341972 -0.0131864 -0.00864749 -0.0185557 -0.0174526 -0.0109473 0.00365829 -0.0142685 -0.0183659 0.00675877 -0.00318622 -0.0234331 0.0162012 0.0129808 -0.000481233 -0.00258989 0.0131415 -0.0249013 0.0162724 -0.0160299 0.0726639 -0.00292954 -0.0369702 0.0399686 0.0935988 0.024999 0.0466103 0.0235699 0.0527592 0.0096916 
0.0148222 0.0200369 -0.0222536 -0.0206542 0.0173243 -0.00966886 -0.0341718 -0.0134324 0.0309268 -0.0398881 -0.0108015 0.00635626 0.0329056 -0.0250647 -0.0265021 -0.0172143 -0.000913494 0.0131318 -0.0114514 -0.0236042 -0.00963488 -0.00418557 0.0441596 -0.0196466 -0.0218701 -0.017835 -0.0362855 0.0778328 -0.0227295 -0.0340173 -0.0140217 -0.0142423 
0.0112644 0.0159021 -0.0163348 0.00527906 -0.0143308 0.00603772 -0.0250763 -0.0168155 -0.0112888 -0.0191036 -0.0179989 -0.0255802 0.00548299 -0.0258311 -0.0099296 -0.00571986 0.0177989 0.00532024 0.00229091 -0.0142601 0.00153928 -0.0283796 0.02826 -0.00389194 0.00545546 0.0338492 0.0222745 0.00447318 0.00641538 0.0244845 0.011554 0.0116307 
0.004794 0.000977163 -0.00247651 0.0121895 -0.00583205 -0.000604869 0.0177913 0.00322182 0.00474153 -0.0228774 0.00143351 -0.0165778 -0.0260577 0.014525 -0.0108891 0.0356927 0.000158001 0.015071 -0.013618 -0.0285389 0.0176639 0.00685888 -0.0177456 0.0584962 -0.00155901 -0.00415004 0.161677 -0.0319428 0.0758497 -0.0289846 0.0917723 0.0117832 
0.0157048 -0.0154506 0.00191158 -0.0170652 0.00224612 -0.00328708 -0.017032 -0.0152603 0.00592749 -0.0452449 0.00385359 -0.00961962 -0.00605811 0.00710948 0.00107325 -0.001535 0.00417691 0.0140792 0.0127618 -0.0202227 0.00151222 -0.0378851 -0.0066624 -0.0281553 -0.0295305 -0.0589929 -0.0888738 0.0291778 -0.0274792 0.0769828 -0.0225571 -0.00932553 
0.00651193 0.00649312 -0.00864953 -0.0173298 0.0121186 -0.0152238 -0.0245172 -0.0198129 0.0230569 -0.0549997 0.018458 0.00671943 0.0113485 -0.0136046 0.00891798 0.0329847 -0.00902539 0.00547295 -0.00886071 -0.00810563 0.0120404 -0.0137741 0.0767327 -0.00770078 -0.0526932 -0.0504005 -0.00605338 0.0912133 0.0294275 0.0632427 0.0116103 -0.00429899 
-0.0213326 -0.0155249 0.00394329 0.0125712 0.00246209 -0.0153468 -0.0180267 -0.0108209 -0.0142934 -0.0224081 -0.0142682 -0.0113567 -0.00183791 -0.0248561 -0.0185987 0.0829672 0.00538945 0.00147869 0.0177566 -0.0134289 -0.00804354 -0.0220336 0.0122294 0.0441656 -0.0227767 0.0155705 0.170885 -0.0153242 0.100644 -0.0120089 0.0879685 0.00349776 
0.00943437 0.0423366 -0.00948626 -0.0162164 -0.0147078 -0.0053339 -0.036039 -0.0131363 0.0197971 -0.0392325 0.014807 -0.0345204 0.0464813 0.00499587 -0.022018 -0.00249243 -0.00589168 -0.0211302 0.00881687 -0.0133897 -0.018436 -0.0278557 0.0771423 -0.0236922 -0.0428556 -0.017614 -0.0453186 0.0836752 -0.00741546 0.0834194 -0.0168783 -0.0174893 
0.0069061 -0.0116368 -0.0100952 0.0135577 0.00870054 0.0155403 -0.010063 -0.0108114 0.00729277 -0.020498 -0.00530243 -0.00731713 -0.00851951 -0.0049175 0.0132394 0.0492471 0.0016321 0.00704231 0.000344181 -0.00536908 -0.0124483 0.00192106 0.0581372 0.0360869 -0.0061775 -0.0112353 0.131765 0.0289486 0.0798588 -0.000192793 0.0410182 -0.00214825 
0.00398626 0.00209014 -0.00935375 -0.0134842 -0.00693435 0.00374137 -0.0234974 -0.0280896 0.0191749 -0.0139019 -0.00213205 0.00779621 0.00449413 -0.0165003 0.00174582 -0.0256468 0.0146963 -0.016045 0.00426459 -0.0357603 0.0138013 -0.0152605 0.0200627 -0.0105993 -0.0151078 -0.0316234 -0.0404729 0.0288656 0.0145342 0.0445481 -0.0255983 0.00293688 
0.0170677 0.00464523 0.00929126 -0.0128101 -0.0146391 -0.00736432 -0.0141442 0.0218763 -0.00632831 0.0011711 0.0196223 0.00839582 -0.0125596 -0.00329906 0.0119161 0.066544 0.0105567 -0.0016796 -0.015477 -0.00931834 -0.0206871 0.0137775 0.0665438 0.0455751 -0.0105835 -0.00459463 0.132436 0.0140312 0.0811953 0.010523 0.046814 0.00180073 
-0.016343 0.0420297 0.00761534 -0.0150342 -0.00745772 -0.0249902 -0.0467727 -0.00561005 0.0327632 -0.0627486 0.00117429 -0.00513696 0.0551631 -0.0255271 0.00755105 0.0127018 0.00578226 0.0193587 -0.0203118 -0.0172595 0.0184512 -0.0487232 0.11273 -0.0147712 -0.043841 -0.0569952 -0.00162604 0.102033 0.0122305 -0.0150077 -0.00686133 0.0150877 
0.0194459 0.0161059 -0.0188886 -0.01293 0.0112802 -0.0058649 0.00228159 -0.00304025 0.0169524 -0.026379 -0.00485648 -0.00613 0.0275737 -0.0218379 -0.0170078 0.00226327 -0.0205285 -0.00705369 -0.00815174 -0.0346327 -0.00182246 0.00755259 0.0402341 0.00982447 -0.0375783 -0.0210963 -0.0366748 0.0590202 -0.00611537 0.0295115 -0.00668349 -0.0058885 
-7.94435e-05 0.0324035 -0.000301667 -0.01707 -0.0128347 -0.00260002 -0.0241235 0.00541384 -0.00304503 -0.0648525 0.000734392 -0.00547119 0.028008 -0.0091356 -0.0114864 -0.00517849 0.0143418 0.0103193 -0.00381112 -0.032243 0.0101226 -0.00879694 0.0794469 -0.0038472 -0.044974 -0.0419665 -0.0331865 0.113991 -0.0252349 -0.022621 -0.0445396 0.0108917 
0.0220091 0.0167431 -0.0242249 -0.013362 -0.00286213 0.0132214 -0.0176559 -0.00091388 -0.0209475 0.0013039 -0.00978085 -0.00643177 -0.00757598 0.00387443 0.0170327 0.0167821 -0.00493077 -0.00278897 0.0081722 -0.0240533 -0.00294705 -0.0240667 0.0420015 0.0355625 -0.00979525 0.00117455 0.0900398 0.00870862 0.0541054 0.0170056 0.0363327 0.00897685 
0.00976783 -0.000348245 0.00210751 -0.0176388 -0.0116551 -0.0258274 -0.00492849 -0.0105453 0.0101453 2.74665e-05 0.00836802 0.0112384 0.0146359 -0.011267 -0.0176853 0.033758 -0.020158 0.0146256 -0.0183386 -0.000616982 0.0155606 -0.0371115 0.0260077 -0.00703991 -0.0121123 0.0313096 0.0503864 0.0211157 0.0374777 0.00652854 -0.00602238 0.000202222 
0.0108322 -0.0381113 0.0103276 0.02023 -0.0191565 -0.00620387 -0.0168178 0.0105274 -0.024851 0.013681 0.00894592 0.00996831 -0.0266568 0.0121876 0.0124339 0.0179839 0.00302715 0.0186761 -0.0189558 -0.0111003 0.0210082 -0.00715783 -0.0727 0.0199138 -0.018576 -0.00422013 0.0401918 -0.110405 -0.00309339 -0.0702325 0.0471805 0.00886821 
0.0171683 0.0198842 0.00450632 0.0145332 0.0188923 0.0152646 -0.0274552 -0.0242735 0.0335646 -0.0556422 -0.0184414 -0.0192097 0.0114512 0.00471729 -0.0242588 0.0088206 0.00950609 -0.0158081 -0.0154661 -0.0125719 0.00150747 -0.00682534 0.0616737 0.00520945 -0.0313935 -0.0478125 -0.0531733 0.0909555 -0.0255456 0.0123312 -0.026864 -0.0220747 
0.00354363 -0.00784504 0.00078633 -0.00262624 -0.0158662 -0.000760957 -0.00190622 -0.018984 -0.0171567 -0.00831957 0.00149402 -0.0243721 0.0294111 -0.013986 0.0154475 0.0399913 0.011778 -0.0141037 -0.00170761 -0.00876372 -0.014417 -0.00420788 0.0565328 0.0339027 -0.039182 0.0277641 0.104512 0.0359741 0.0631585 0.0476395 0.0356911 0.014176 
-0.0179958 -0.0328515 -0.00197102 -0.0123625 0.0132928 -0.0147778 -0.0113935 0.0142755 0.00440509 0.013586 0.023939 0.00420746 -0.0305059 0.0172873 -0.0102503 0.005023 -0.0191784 0.0114045 0.00198938 -0.0158387 0.00550744 0.0106044 -0.0984425 0.0280325 -0.0261128 0.00284531 0.0509273 -0.100241 0.0244922 -0.103929 0.0358433 0.00419089 
-0.0141781 0.0164925 0.016896 0.0208457 -0.016964 -0.0139694 0.0099459 -0.018168 -0.0234641 0.00856869 0.0139046 -0.00181272 0.00325542 -0.0168239 0.0103054 0.0135413 0.0165876 -0.0089966 -0.0184601 -0.00436769 -0.0192012 -0.0153168 -0.0314753 -0.0121453 0.00892115 -0.0261903 0.00278507 -0.025045 -0.0179762 -0.0117781 -0.019953 -0.00920881 
-0.0135928 0.0325919 -0.0226895 -0.0120674 -0.0179739 -0.0257433 -0.0259323 -0.0254224 0.0292827 -0.0454346 0.00639102 -0.00772568 0.0217089 -0.0224553 -0.00627975 0.00765599 0.00674441 -0.000434228 0.00700271 -0.00517216 0.00814642 -0.00279107 0.104661 0.000681249 -0.0447151 -0.013393 0.0342202 0.0694148 0.0395611 0.0534754 0.00475732 -0.0150477 
0.0137907 0.0128252 -0.0012833 0.0167045 0.0160287 0.0165394 -0.0280257 0.00912872 -0.0162569 -0.00195433 -0.00654725 -0.00622184 -0.017961 0.00905853 0.00691891 0.00757694 -0.0127363 -0.00228843 0.0019621 0.0119605 -0.0028825 -0.00362163 -0.00457053 -0.00535384 -0.0178392 -0.0209134 -0.0159593 -0.00750658 -0.0219656 0.00741832 -0.0130898 -0.0207739 
0.0199751 0.0221314 0.00650831 0.0122408 0.0143139 0.0159169 -0.00456966 0.0191949 0.0094532 0.00487691 -0.00539143 0.00546062 0.0170366 -0.0310509 -0.000485103 0.0292923 0.000713407 -0.0182857 0.0159695 0.0204712 0.00571588 -0.0210018 0.0269055 0.0209445 -0.0059883 -0.00573102 0.0107706 0.0414257 0.010778 0.0187818 0.0272182 -0.0135617 
0.00144751 0.0319899 -0.0255707 -0.0116319 0.0118103 -0.000204217 -0.0417099 -0.0148375 0.018158 -0.0371345 -0.0149647 -0.0282127 0.0428531 -0.00619154 -0.0194156 -0.00800159 0.006514 -0.0210337 -0.0177311 -0.0295479 -0.00789622 -0.0202118 0.0811025 0.00553305 -0.0219279 -0.0319679 -0.0135184 0.0788439 -0.0186654 0.0719166 -0.0287734 0.00594191 
-0.00362346 0.00850694 0.00107066 -0.0180867 -0.0187261 -0.0200836 -0.0190095 -0.00353676 0.0295944 -0.0241461 0.0160105 -0.00469113 0.0216416 -0.0453582 0.0177868 0.00841925 -0.0208297 -0.0151266 0.00182328 -0.0170626 0.0138874 -0.00828289 0.05858 0.00596341 -0.0295849 -0.0403777 0.0361223 0.067526 0.0264443 0.0200406 -0.00379924 -0.0190438 
0.00100776 -0.011446 -0.0119435 0.00390082 -0.000573874 0.0168587 -0.0133615 -0.00236304 0.00891064 -0.0210457 -0.0159833 -0.0169057 -0.0121542 -0.0212089 -0.00450401 0.000958119 -0.0109294 -0.0184562 0.00341168 -0.0222154 -0.0191985 0.0139257 0.0254446 0.0113613 0.0160318 -0.00118608 0.0251374 0.0143712 0.0219896 -0.00494405 0.0325917 0.0205724 
0.0010334 -0.00702241 -0.0220065 -0.0265234 0.0210973 0.00170974 -0.0286959 -0.00256222 0.029199 -0.0364725 0.0137011 -0.0339296 0.0336715 -0.0406819 -0.0125618 0.042961 -0.00803563 0.0153535 -0.0272845 -0.0174038 0.0104396 -0.0255658 0.0949591 0.0112643 -0.0498555 -0.0455291 0.0304623 0.0703448 0.017064 0.0451989 0.0165841 0.0148576 
-0.012981 -0.00640734 0.000595314 -0.0166794 0.0216713 -0.0134433 0.00541999 0.0187463 0.0244656 -0.0111251 0.021526 -0.00212661 0.0395753 -0.027797 0.000993111 0.0257063 -0.0171368 0.00549625 0.00814156 0.0122062 -0.0078727 -0.0117217 0.0795296 0.014416 -0.0108168 0.0484495 0.128143 0.0285907 0.04456 0.0268401 0.0696466 -0.0179021 
0.00966024 0.0230477 -0.0168064 0.00711648 -0.0121943 -0.0163802 -0.00146677 -0.0140052 0.0220434 -0.00882794 0.0143908 0.0095392 0.032062 -0.0155646 -0.0181707 0.0147463 -0.019238 0.0150638 0.0156129 -0.0110107 -0.0013792 -0.0171067 0.0753319 0.00689872 -0.0234201 0.0318615 0.0968159 0.0255822 0.0553169 7.08878e-05 0.055802 -0.0249232 
-0.0204226 0.0196995 0.0098884 -0.0107911 -0.0121231 -0.00652705 -0.00256926 -0.0149616 0.0189081 -0.0107658 -0.0216185 0.0139916 0.00854313 -0.0154533 0.0155579 0.0447162 -0.0208146 0.0100036 -0.014085 -0.00576844 -0.0161095 0.0197825 0.0132028 0.0236665 0.00633432 0.0155871 0.09507 -0.0310262 0.0288066 -0.0102414 0.0314869 -0.0202124 
-0.00704326 0.0200123 -0.0117032 0.00212457 -0.0106188 0.0105891 0.00737291 -0.0111207 -0.0181875 0.00621277 -0.0168823 0.010052 0.0259921 -0.0269724 0.00252053 0.0394644 0.0103417 0.0117699 -7.29784e-05 0.0127484 0.0110918 -0.0201274 0.0169924 0.0122875 -0.0269853 -0.0115418 0.0576805 -0.00709753 0.0274916 0.0170571 0.0101527 0.0116589 
0.00755087 0.00891984 -0.0342603 0.0143246 -0.00987444 -0.0310984 -0.0390099 -0.0153666 0.0232303 -0.0472615 -0.0181545 -0.00016417 0.011521 -0.0206815 0.011456 0.00199718 -0.000423429 -0.00848304 0.0125743 -0.020241 -0.00160767 -0.0454911 0.0756293 0.0038469 -0.0371813 -0.024473 0.0485621 0.0653423 0.011942 0.101806 0.0235724 0.0112651 
-0.012694 0.0263848 0.00916585 -0.00407652 -0.0187949 0.0159477 -0.00876038 0.0129913 -0.00673921 -0.0100597 0.0101749 -0.0108531 0.0160687 -0.0044362 -0.000959506 -0.00803324 0.0109381 -0.00113307 -0.0035055 -0.0272708 0.00917008 -0.0293988 0.0189407 -0.0149499 -0.0208146 -0.0312367 0.0171916 0.0357855 -0.00832054 0.00688439 0.0130292 -0.00780374 
-0.00193444 0.0009411 -0.00861571 -0.00185304 -0.00868002 -0.00155513 -0.0151724 0.00149071 0.0120209 -0.0372317 -0.0196611 -0.0148734 0.0306886 -0.0154612 0.000752875 0.0306944 -0.0168979 -0.0198101 0.0213688 0.0161929 -0.00984675 -0.00806646 0.075118 0.0272882 -0.0333413 0.0367248 0.0734981 0.0446731 0.0318837 0.0196625 0.0366983 -0.000173277 
0.00767438 0.00353484 -0.0402416 0.0177501 -0.0161017 -0.00462014 -0.0148287 0.0118892 0.0181617 -0.0226457 -0.0143782 -0.00508836 0.00194133 -0.00995236 -0.0137341 0.00944043 0.0142309 -0.0118836 -0.0170044 -0.017948 -0.0202431 -0.0437927 0.0674489 -0.00661823 -0.00973749 0.0173508 0.045437 0.0564667 0.0473245 0.00388927 0.0203244 0.00139884 
0.00736205 0.00798973 0.00379698 0.0131792 -0.00938136 -0.0178517 0.00334818 -0.0176685 0.00772585 0.0106479 0.0092637 0.0163098 0.00231182 0.019298 -0.0130588 -0.00559636 -0.0138658 -0.00632365 -0.00166532 -0.0112915 -0.00553594 -0.0028866 -0.000299617 -0.0173065 -0.0174028 -0.0197248 -0.0208211 -0.0163905 -0.0108885 0.00383245 0.0103699 0.0178476 
-0.0117435 -0.0179205 0.00915269 -2.21412e-05 -0.00318669 -0.00857345 0.000139666 -0.0173314 -0.0280286 -0.0135403 0.0233907 0.00157321 -0.0275989 -0.0133196 0.0201442 -0.00857031 0.000598035 -0.00213582 0.00956755 0.009193 0.0188481 -0.0160986 -0.0720673 -0.0253351 -0.0207219 -0.0354113 -0.0523064 -0.0641854 -0.00728498 0.0276097 -0.0151018 0.0144788 
-0.0122041 -0.0218567 -0.00618097 0.00395855 -0.00554863 0.0204531 -0.00789943 -0.0051222 -0.00948291 -0.0136749 -0.0172117 -0.00501478 0.0138214 -0.0215557 -0.0209368 -0.00523706 -0.00276863 0.0142893 -0.00162726 -0.0232705 -0.0207448 -0.0121277 -0.0300743 -0.0152807 -0.0200516 -0.0252704 -0.0380675 -0.0357589 -0.0108407 -0.00132118 -0.0323548 0.0137651 
-0.0143418 0.00117193 -0.00382785 -0.00195387 -0.00481426 -0.0144761 -0.0498198 0.00234427 -0.0144856 -0.0550537 -0.00562472 -0.0360901 -0.00557318 -0.00979464 -0.0024194 0.00301761 -0.0134838 -0.0215508 -0.0126976 -0.0304784 0.00141462 -0.00756351 0.0133276 -0.0296561 -0.0300186 -0.0473377 -0.0624139 0.00856307 -0.0181685 0.0595952 -0.00205072 0.00575857 
0.0104182 -0.00853637 -0.0143779 -0.0163794 0.0091089 -0.0129947 0.0166704 0.0109035 -0.0141313 -0.0116773 0.00945529 -0.00119835 0.00248968 -0.0111102 -0.00809499 0.0370756 -0.00786477 0.00540317 -0.00197092 0.00856717 -0.00207036 -0.0207109 0.0115004 0.0678529 -0.0129213 -0.00957257 0.122566 -0.0268344 0.087994 -0.0378375 0.085435 -0.0105717 
-0.000407606 0.0118643 -0.0116051 -0.0150445 0.0195998 -0.0116073 0.0107375 -0.0119947 0.00615584 -0.00466622 0.0167875 -0.0117254 -0.0153098 -0.022192 -0.00355692 -0.000174892 0.016803 0.0173746 -0.0143137 -0.00665978 0.0210106 -0.0255108 0.00867396 -0.0032263 -0.0124795 -0.00445347 0.00455038 -0.00304366 0.00581618 0.023221 -4.61714e-06 0.0189617 
0.00162756 0.0237605 -0.0174529 -0.00363113 -0.0133587 -0.0204391 -0.00474465 0.00810719 0.0206903 -0.015674 -0.0152659 0.00549446 0.0307683 -0.00219255 -0.017111 0.00773457 -0.00470636 -0.0046987 -0.0181055 -0.0155908 0.0039522 -0.0155403 0.0461737 -0.0267299 -0.00268494 -0.0321959 -0.0357617 0.0334956 0.011556 -0.00131651 -0.0229493 0.00107421 
-0.00662933 0.00113926 -0.0337878 3.85857e-05 0.000938736 0.00701593 -0.0182645 -0.0120286 0.00143639 -0.0179606 -0.0166385 -0.0126246 -0.0094359 -0.0213465 -0.0164532 0.0115005 0.00921953 -0.00986992 0.0194926 -0.0116065 0.00952225 0.00108335 0.0226792 0.0044071 -0.0345236 -0.0091049 0.0350339 0.00405238 0.0313522 0.0223185 0.00857137 -0.0100704 
0.00433569 0.00510894 0.00279962 -0.0185244 -0.00742907 -0.0184721 -0.0101877 0.0122883 0.0104551 -0.00958805 -0.0158748 0.00621761 0.0265201 -0.0204843 -0.0103713 0.0150935 0.00309122 -0.00891403 0.0182446 -0.00953848 -0.0150081 -0.0217052 0.0428936 -0.0109846 -0.000157347 0.0185014 0.0112786 0.0321479 0.0346566 0.021974 0.0325232 -0.00241506 
-0.00952409 0.0231069 -0.019127 0.000852541 -0.0210303 -0.0311632 -0.027707 0.000616769 0.0131196 -0.0339012 -0.00368605 -0.0112137 0.0329232 -0.0156722 -0.0171633 0.0152259 -0.0200353 -0.0186732 0.00305213 -0.0211825 -0.00666486 -0.0285765 0.0527434 -0.0158166 -0.0371626 -0.0150955 0.0480017 0.0338765 0.0154247 0.0883759 0.0228021 0.00283042 
0.00408576 -0.0125369 -0.0121849 0.00504381 -0.00543257 0.00537788 -0.00767184 -0.0212362 -0.0199527 0.0120461 0.00377496 -0.0244893 -0.00464121 0.00807468 -0.00528261 0.0232966 0.0129044 -0.0183609 0.0143398 -0.0199093 0.00604489 -0.0132813 -0.0229702 0.0332437 0.00932546 0.0255007 0.0274418 -0.043 0.0390513 -0.0235575 0.0428965 -0.00874273 
-0.015787 -0.0171393 0.0013634 -0.00174808 0.00780557 -0.0172824 -0.0114746 0.0125993 -0.0165132 -0.0391018 0.0156547 -0.00256635 0.0238142 -0.0287121 -0.0137439 0.0166577 -0.00637201 -0.019884 0.00950139 0.0223591 -0.00971328 0.00332592 0.047572 -0.0146734 0.00517185 -0.0174606 0.0182124 0.0351587 0.0316724 -0.00600363 -0.00692098 0.0190775 
-0.0155884 -0.0156013 -0.0248291 0.0107257 -0.0075907 -0.0302791 -0.0099344 -0.00793186 -0.0120251 -0.0274509 -0.0212718 0.0102595 0.0257893 -0.0353498 0.00167099 0.000149819 -0.00896739 -0.00638363 -0.0192226 0.00318554 -0.00650482 -0.0447679 0.0483384 -0.0027358 -0.0404914 0.0252837 0.0223414 0.0518244 0.00450357 -0.00153128 0.0368021 -0.015855 
-0.0124576 -0.00566798 -0.0200231 0.000777958 -0.000289486 0.00909998 0.0119209 0.00549236 -0.0146303 0.0109233 0.00580051 -0.0257951 -0.0195602 -0.0139058 -0.016898 -0.00231338 0.000380161 -0.00953069 -0.0180987 0.00753505 -0.00701732 0.00807822 -0.034177 -0.00552228 0.00231952 -0.0230653 -0.0284181 -0.00640187 -0.00536547 0.000104476 -0.0228191 0.0104429 
0.0115396 -0.0112455 -0.0375191 -0.0146199 0.0155462 -0.0233857 -0.00240193 -0.0231746 -0.00904396 -0.0318997 -0.0172823 -0.0153889 0.0252367 -0.0380074 0.0170417 0.0079321 0.00275514 -0.0207931 -0.0169157 0.0194904 0.013867 -0.0302542 0.0377971 0.00672693 -0.0116066 0.013147 0.0370389 0.032317 0.00170267 0.0221977 -0.00203991 0.00738973 
0.00779223 -0.0195943 -0.0213699 0.000842099 0.0053581 0.0183718 0.00357064 0.0148202 -0.0165307 0.00908255 -0.00849124 -0.0183097 -0.00299558 -0.0142863 -0.00340508 0.0162187 -0.0128803 0.00653768 -0.00177529 -0.0234191 -0.0163523 0.0121616 -0.0627512 0.036581 -0.00859475 -0.0185471 0.024755 -0.085264 0.0245583 -0.0730087 0.0208123 -0.0112776 
0.0123055 -0.00349252 -0.00514336 -0.007201 -0.0136921 -0.0107212 -0.023218 0.00592862 -0.0106537 -0.0212274 0.0129405 -0.0238488 0.0263776 -0.028616 0.00604452 0.0478987 0.0191323 -0.0147457 0.0204796 -0.0183624 0.0201671 -0.0143445 0.0392791 0.0121557 -0.010164 0.0202439 0.104078 0.0403692 0.0653437 0.0151714 0.0437253 -0.00713275 
-0.00187656 -0.0132042 0.0153205 0.00588464 0.0142437 -0.0188485 -0.0134289 0.0213327 -0.0053054 -0.0222136 -0.01503 -0.0144027 -0.0218363 0.0146933 -0.0159907 -0.0043763 -0.0233363 -0.0165976 -0.00657901 0.0134315 0.0102111 -0.00762802 -0.0494108 0.00287413 -0.000271578 -0.0156546 0.0117403 -0.059588 0.00698486 -0.0489224 0.0255304 0.0205174 
0.00754548 0.0119655 -0.0221133 -0.00390813 0.00991093 0.00775457 -0.0183697 -0.0108337 -0.0176891 -0.0247283 0.00179729 -0.0169684 0.0141409 -0.0154334 0.00369696 0.0168995 0.0156735 -0.0220559 -0.0055344 0.00407472 -0.00609016 -0.011413 0.0720884 -0.016133 -0.0376877 0.0191001 0.0417704 0.0511143 0.0496625 0.00490749 0.0289044 -0.000240981 
0.0144929 -0.0253932 -0.0177761 0.00114228 -0.011875 0.00299445 0.00846571 -0.0111295 -0.0309276 -0.0119997 0.00747731 -0.000954831 -0.0481817 -0.0113141 -0.0215576 0.026845 -0.0132779 -0.00131419 0.00178383 -0.00626405 -0.00809395 -0.00128382 -0.0808923 0.00958383 -0.0265725 -0.0344427 -0.0144077 -0.11928 -0.00559034 -0.040303 0.031186 -0.0229335 
-0.012905 0.0257299 -0.0219105 -0.00614744 -0.0031213 -0.0138458 -0.00673085 0.00471096 0.019754 -0.0367459 -0.0127579 0.00647412 0.0280672 -0.0329814 0.0115833 0.0563084 0.0133159 -0.00451553 -0.00272919 -0.0165364 0.0188484 -0.0428754 0.092935 0.00527644 -0.0411374 0.0523638 0.112853 0.0608856 0.0881873 0.0199427 0.0515135 0.00838039 
0.0180739 0.0199138 -0.0125341 -0.00790039 -0.00703344 0.0187754 0.0188639 -0.0157631 -0.0130487 -0.0184094 -0.0221873 0.00848027 0.00278764 0.0128821 0.00328727 0.0560562 -0.00931925 -0.0193836 -0.00447364 -0.027296 -0.0152749 -0.0264181 0.0278053 0.0398159 0.00115049 0.00264114 0.172783 -0.0100097 0.107025 0.0161337 0.0848348 0.00085497 
0.0156702 0.0119711 0.00114248 -0.0164424 0.00134852 0.00893624 -0.017918 0.0128343 -0.0158404 -0.0257164 0.0040808 -0.00843573 0.011175 -0.0300631 0.00956338 0.0427104 -0.00894083 -0.0131141 0.0134979 -0.00607485 -0.013091 -0.0328576 0.091971 0.0425958 -0.00626145 0.022698 0.115756 0.0499072 0.059451 0.0345711 0.0376682 -0.0256094 
-0.00973814 -0.0161398 -0.0263051 0.0114906 0.0180643 -0.00281578 -0.00469452 0.0200402 0.0229504 -0.0294839 -0.0012346 -0.018633 0.00900865 -0.0237401 0.010954 0.0243463 -0.000655411 0.00453506 -0.0138982 0.00936025 0.0118843 0.00366178 0.0461901 0.00859238 -0.026229 -0.00175586 0.0181695 0.0315373 0.0402931 0.00513576 0.0161549 -0.0220823 
-0.0120793 -0.00261493 0.0170557 -0.0166321 -0.00886222 -0.00110966 -0.0206802 -0.0111599 -0.00468874 0.000831572 0.000340452 -0.0213031 -0.00715567 -0.0112592 0.013211 0.00484281 0.0149939 -0.0217583 -0.021174 0.000958013 0.0190372 0.00779725 -0.0752971 -0.00101924 0.00484249 -0.0120895 0.0289029 -0.0724351 0.0162845 -0.0819757 0.0359685 0.00791547 
0.0124423 -0.00237427 0.0156717 -0.0191179 -0.0196941 0.0195287 -0.0122169 0.010185 -0.00512228 0.00776587 0.0159114 -0.010105 -0.0302475 0.00787675 0.00658826 0.0233247 0.00736803 0.00872178 0.00300398 -0.00120555 -0.00420575 0.0104915 -0.0228583 -0.00610505 -0.0258437 -0.0176237 0.018566 -0.0337279 0.00013554 -0.0332879 0.00254996 -0.0155915 
-0.0184087 -0.000831934 -0.0165978 -0.0196037 -0.0176822 -0.00118024 -0.00605995 -0.003726 0.00652646 -0.0221189 0.0205612 -0.0139564 0.0206079 -0.00485422 -0.00826023 -0.0117947 -0.0103161 0.0198752 0.00719739 -0.00912155 0.0103905 -0.0189797 0.0909424 0.00563452 -0.00916509 -0.0134664 -0.0130763 0.0620972 -0.00880364 0.0542874 -0.0191174 -0.00570087 
0.016544 -0.0102929 0.000599836 0.0199826 -0.0117473 -0.0050166 -0.0021245 0.00550309 -0.0335813 -0.00375183 -0.0164286 -0.00594592 -0.044198 -0.00288108 0.00247055 0.0177072 -0.00670437 -0.00687669 -0.00839931 -0.0255017 0.0170988 -0.0122063 -0.0684169 0.0314398 -0.0335207 -0.0165656 0.0521036 -0.112023 0.00284836 -0.0975911 0.0458092 0.0180576 
-0.0203366 -0.0153398 0.0179939 -0.0101909 0.00511747 -0.000206488 0.0176998 0.0100294 -0.0248208 0.0194712 -0.0140212 -0.0154958 -0.0070699 0.0125767 0.0115687 0.0779777 -0.012517 -0.0171898 0.0211448 -0.0278858 -0.00455734 0.0168498 0.0225218 0.0504567 -0.0185519 0.0124031 0.175238 -0.0350391 0.0838986 -0.00933965 0.0886361 -0.0139347 
0.0101436 -0.0225264 0.00155073 -0.00713454 0.0144318 -0.00309478 -0.0195979 0.0175902 -0.0177788 -0.00824238 -0.012756 0.0116988 -0.038286 0.0196003 0.0065295 0.011693 -0.0185611 0.00639842 0.000808997 -0.00264623 0.00470376 -0.00629675 -0.04318 0.0364365 -0.020378 0.0142009 0.0320456 -0.085448 0.0117678 -0.0628829 0.042441 0.018317 
-0.0212184 -0.0070111 -0.0378784 0.0113742 0.00712321 -0.01729 -0.00907654 -0.022556 0.0122414 -0.0147751 0.0185336 0.00390825 0.0320041 -0.0229567 -0.013177 0.0391985 -0.010239 0.012355 -0.00506072 0.0167597 -0.0152508 -0.0327391 0.0599966 -0.00140701 -0.0414756 -0.0105863 0.059205 0.0326544 0.0415526 0.0158425 0.012533 0.01093 
0.00963505 0.0112625 -0.0137466 -0.00844731 -0.0212901 -0.0114619 -0.015632 0.00874676 -0.0033076 -0.0292805 0.00273353 -0.0215129 0.0355867 -0.00566471 -0.0169074 0.00540435 0.00466774 0.00606088 -0.0173812 0.0119708 -0.0204065 -0.00215039 0.0290745 -0.00993672 -0.0382799 0.032552 0.0435531 0.057487 0.024686 0.0359197 0.0290071 -0.0212278 
0.000879457 -0.00171795 -0.000709323 0.00133847 0.0162541 0.0190397 -0.0135258 -0.0138393 -0.00733097 0.0106232 -0.00369518 -0.0107449 0.00797657 0.00311633 0.000775433 -0.0118775 -0.0123439 0.00624456 -0.0223537 -0.0118386 0.00259325 -0.018223 0.00240257 0.00362183 -0.022043 0.0191188 -0.0041466 0.00444562 0.0149085 -0.0126849 0.00146366 -0.00509968 
0.0081019 -0.00826616 -0.00522249 -0.00149462 -0.0210366 -0.0244071 -0.00332207 -0.00740391 0.0273818 -0.0412607 0.00423603 -0.0058321 0.036689 -0.0390422 0.0115306 0.06403 0.0124091 0.0156233 -0.0111925 -0.00795933 0.0213318 -0.0149007 0.110263 0.00168166 -0.0150573 0.036269 0.124041 0.0690909 0.0898131 0.0209771 0.0783224 -0.0132086 
-0.0135502 0.0252952 -0.00722466 -0.0163118 -0.0215044 -0.00422764 -0.0126443 0.0216506 0.0187447 -0.0420123 0.00358779 -0.0096448 0.0163502 -0.0256603 -0.00370223 0.024158 -0.00856876 0.011401 -0.00397722 -0.00942086 -0.00237753 -0.0299335 0.0818989 0.00549444 -0.00998033 0.0549742 0.131832 0.0673238 0.101849 0.0428037 0.0750653 -0.0243 
-0.0029036 0.0140887 -0.0268618 -0.0048501 -0.00652479 0.0081313 -0.0140063 -0.0164906 0.0250813 -0.0399209 0.00737302 -0.0167221 0.0114245 -0.0305851 -0.00861417 0.026727 0.0193632 0.0116423 -0.019064 -0.00493743 -0.0167038 -0.0209382 0.0375115 0.0226538 -0.0265749 -0.00440166 0.0302969 0.017802 0.0336822 0.00429877 0.00506647 -0.018099 
0.020942 0.0204618 -0.00779521 -0.0118935 -0.00341305 -0.0281424 -0.0260704 -0.0139744 -0.00459409 -0.0525763 0.00878332 -0.0105888 0.024551 -0.0384642 -0.00892605 0.0102708 0.0110872 -0.00279769 0.000715211 -0.00138967 0.015241 -0.0419411 0.110797 -0.0180087 -0.0370374 -0.0383556 0.00563713 0.0760345 0.0219297 0.0430254 -0.00763935 -0.000255017 
-0.0176434 0.0330639 0.00843059 -0.00429794 0.0166105 -0.0152538 -0.0135813 0.00872739 0.0120101 -0.0389412 0.000464333 -0.00614924 0.0396593 0.00222669 0.0169879 0.00296104 -0.0144618 0.00553091 -0.00668379 -0.0412258 0.0117165 -0.0351736 0.0723556 -0.0316235 -0.0312033 -0.0324587 -0.0439726 0.0766336 -0.0222247 0.058123 -0.0154482 -0.016844 
-0.0146234 -0.00283107 0.00566053 -0.0202078 0.0113133 0.00327902 -0.0219648 -0.013999 -0.0144862 0.000163311 0.0172712 0.0162052 -0.00571431 0.0164138 -0.00382454 0.0466843 0.00144658 0.0171336 0.0162893 -0.0152101 -0.0128386 -0.0187691 0.00107114 0.0446136 -0.00119988 -0.00367658 0.116328 -0.00944432 0.0704258 -0.00177922 0.06628 0.0198985 
-0.0211578 -0.00960091 -0.0204574 0.0111746 0.0206966 -0.02037 0.0136166 -0.0136317 -0.00117542 0.00888296 -0.0156532 0.0161536 0.00436861 0.00290606 0.00589555 -0.00442811 -0.00379123 0.00159485 0.00632097 -0.00181568 0.00687714 -0.0247758 -0.0310663 -0.005574 -0.00924956 -0.017815 0.0142437 -0.03812 0.0229944 -0.0232699 -0.00101873 0.0211565 
0.0223441 -0.00103852 -0.0196489 0.0167419 -0.00477952 -0.00226291 -0.0351991 0.0167671 0.00952434 -0.0431134 0.0186397 -0.0164055 0.0339972 -0.0249027 0.00832467 0.0131636 -0.0156718 -0.00452536 -0.0245 0.0140429 -0.00385691 -0.0302039 0.0329195 0.0227184 -0.00879201 0.0272421 0.0368529 0.0607301 0.0316931 0.022867 0.0372234 -0.00287921 
0.0181246 0.0119094 -0.0193434 -0.0116416 -0.00525907 0.000676306 -0.0229227 0.0220022 0.0262842 -0.0358154 -0.00388886 0.00863775 0.0268595 -0.0330878 -0.0150084 0.0352513 0.00298175 -0.0116116 0.00970389 0.0216547 0.010395 -0.00647733 0.0635829 0.0110349 -0.00735 -0.00119314 0.0416535 0.031713 0.0373988 0.0167862 0.0322908 -0.000554327 
-0.0198756 -0.0268361 0.0168455 -0.00412848 -0.0210068 -0.0164665 -0.00908514 -0.0206899 -0.0274288 0.00938627 0.0207971 -0.0254436 -0.0563599 -0.0174748 -0.0251387 0.018923 -0.00855353 0.00866747 0.00273645 -0.0283103 0.00013027 -0.00419913 -0.0891505 0.00811478 -0.010676 -0.0212867 0.0274124 -0.128943 0.0279407 -0.10196 0.052723 0.00717783 
0.00688031 0.015788 -0.032727 0.00583423 0.0166646 -0.00319567 -0.000799487 -0.0139748 0.00064123 -0.0130433 -0.0104979 -0.00958954 0.0244499 -0.0262533 -0.0234583 -0.00202924 0.021637 0.00368314 -0.0125204 9.57344e-05 -0.0203128 0.00417566 0.0513424 0.0101953 -0.0264383 0.000957268 0.0544172 0.0560666 0.0269408 0.0317652 0.0220941 -0.0189278 
0.000534111 0.0354654 0.00699778 -0.0116529 -0.00632959 -0.00552745 -0.0383565 -0.00185982 0.00492893 -0.0419842 -0.0126986 -0.0022785 0.0217466 -0.0294757 -0.026112 -0.0151868 0.00699275 -0.0106793 -0.00181321 -0.0153795 -0.0123097 -0.0429938 0.106085 -0.0187845 -0.0444041 -0.0437208 -0.0427246 0.0949043 -0.0160205 0.110061 -0.0433316 0.0087022 
0.0121192 -0.0147762 -0.0485328 -0.0207185 0.00307581 -0.006148 -0.00523952 0.00342887 0.00564372 -0.0533639 0.0067378 -0.00875931 0.0121444 -0.0218763 0.00709988 0.00597719 0.0209324 -0.00862551 -0.0228205 -0.0120633 0.00477037 -0.0284002 0.0573739 -0.0137181 -0.0509125 -0.0232596 0.0276879 0.032328 0.00268066 0.0287431 0.0350416 0.00793306 
-0.00792638 0.024918 0.0152916 0.0127354 0.00592303 0.0105259 -0.0223612 -0.0226864 0.0248743 -0.0457903 0.0119656 -0.0208969 -0.0166506 -0.00905018 -0.00124446 -0.0310908 0.00612345 0.00756078 -0.015317 -0.0300725 -0.00961802 -0.00496957 -0.00106802 -0.0192718 -0.0151489 -0.0355094 -0.0567028 0.0328962 0.00325417 0.0475726 -0.0143174 -0.0103329 
-0.00554691 0.0111476 -0.0402639 -0.0251734 -0.00683604 0.00320697 -0.0300402 -0.00842784 -0.0104245 -0.00878169 0.00658665 -0.0269245 0.0216001 -0.0353945 -0.019876 0.0282538 0.019067 -0.00714529 0.0039518 -0.012808 -0.0139898 -0.0422782 0.0885478 0.000828365 -0.0130266 0.0603825 0.138248 0.0768877 0.0743814 0.0407201 0.0778427 0.00372338 
-0.0199164 -0.0305103 0.0106883 -0.00550585 0.0185395 0.0174881 0.00418562 -0.0202597 0.00123793 -0.0105715 -0.0120532 -0.0170985 -0.0191874 -0.00829623 -0.00563692 0.0128883 0.00529294 -0.0222978 0.0117641 0.00714841 -0.0170984 -0.0118249 -0.0540023 0.0302098 -0.021089 0.00268057 0.0205735 -0.0775434 0.00584904 -0.0699825 0.0206575 -0.00816399 
0.00568462 -0.00740837 -0.0132707 -0.00139041 -0.0209193 -0.0118043 -0.0106717 0.0154983 0.0204098 -0.014667 -0.0192562 -0.0130205 0.00585221 -0.0230607 0.0181495 0.0504409 0.000933828 0.0117394 0.00489379 0.00643065 -0.0203232 -0.0235157 0.0807673 0.0112743 -0.0320344 0.0160008 0.132966 0.0688829 0.0759461 0.0308473 0.0736025 -0.0226776 
-0.000570983 0.0168271 -0.0215163 -0.00355316 -0.0150747 -0.0222472 -0.0236902 0.0214136 -0.0150031 -0.0338398 -0.00319625 -0.0286196 0.0406799 -0.0297858 0.0127855 0.0224268 -0.0133896 -0.000584196 -0.0178664 -0.010973 0.0215358 -0.023619 0.0686959 -0.00347336 -0.0198287 0.0221853 0.0742519 0.0444186 0.0584801 0.0451956 0.015247 -0.0137758 
0.000985169 0.013942 0.0148597 0.00556082 -0.0142817 -0.0146288 -0.00800132 -0.015318 0.00131372 -0.0370734 -0.00709983 -0.00590218 -0.00883503 -0.015427 -0.0244046 0.00419062 0.00376684 -0.0172336 0.0205835 -0.0108022 0.00915291 -0.00840163 -0.0189633 -0.0107141 -0.0395011 -0.0146478 -0.0406036 -0.0173148 -0.00682034 0.00825968 -0.0200325 -0.0158097 
0.00578049 -0.0234027 0.0148484 0.0138467 -0.0112347 9.36695e-05 -0.021134 0.0163631 0.000453035 -0.00696613 -0.00231877 -0.0177992 -0.00402582 -0.00267203 0.0154796 0.00407053 0.00360956 0.0145305 0.0176911 -0.011962 -0.00657136 0.0145287 -0.00693574 0.00828294 0.00299465 -0.0186437 0.0290322 -0.0338842 0.0342614 -0.0310982 0.0242061 -0.00673538 
0.0020829 -0.00447755 -0.0344222 0.0101101 0.0134231 -0.0205667 -0.00565644 -0.00474836 0.00615916 -0.039745 0.00228773 -0.025615 0.0154061 -0.0218465 -0.00975907 -0.000825236 -0.0106328 -0.0119395 -0.00398882 0.00437051 -0.0187485 -0.0391253 0.0615494 0.0148211 -0.034974 -0.00211742 0.0171073 0.0481858 0.0338618 0.0138243 0.00427068 -0.0137106 
0.012515 0.0035261 -0.0473722 -0.000584115 0.00507527 -0.00297188 -0.000833164 -0.0218308 0.0199721 -0.0336359 -0.0119645 -0.0191308 0.0388315 -0.0246448 -0.00183984 0.0075606 0.0149708 0.0195778 0.0101673 0.0153115 0.0215018 -0.0165691 0.0635409 -0.0144909 -0.0462599 -0.00179818 0.0628772 0.0617834 0.0120445 0.0695938 0.000538661 0.0160399 
0.00170039 -0.0135033 -0.00565874 -0.0160674 0.0167088 -0.00175357 -0.011389 0.00819099 -0.0179017 -0.00206579 -0.0197522 -0.0229596 -0.0077994 -0.00332243 -0.0108845 -0.0142909 0.000177565 -0.0170593 0.0208568 -0.000354795 0.0196972 -0.000549284 0.0169716 -0.0193422 -0.0139632 0.00335789 0.0281904 0.0108811 0.013664 0.0254297 0.00200239 -0.0166306 
-0.0175665 0.0529703 -0.0170679 0.0140464 -0.00177064 -0.0021557 -0.0368325 -0.0143324 0.0172446 -0.0508495 0.00224804 -0.0235109 0.0475909 -0.00465855 -0.00455419 0.0301398 0.0118383 0.000642948 -0.015838 -0.0182616 -0.0158194 -0.0210133 0.177568 -0.00741983 -0.0546834 -0.0319045 0.00509913 0.1923 0.0218772 0.0547142 -0.0264084 0.0146019 
-0.0096672 0.0040675 0.0112149 0.00714476 -0.019397 -0.00384297 -0.0321974 -0.0144436 -0.0054583 -0.0144181 0.0127349 -0.0110868 0.0188401 -0.0148974 -0.0126908 0.00384139 0.0107111 0.00316745 -0.000850645 0.00520056 -0.0032122 -0.0184979 0.018489 0.00809576 -0.0353371 -0.0276041 -0.0088369 0.0552405 0.00607242 0.0136444 0.00512722 0.0217495 
-0.0106674 0.00776843 -0.00102354 -0.00966745 -0.0182952 -0.026892 -0.00292339 -0.0116425 0.0178555 -0.0172535 0.0124174 -0.00435206 0.0193998 -0.0298111 -0.0164183 0.0130673 0.00743928 0.00774836 0.0026671 -0.0189947 -0.0163792 -0.0325394 0.0402512 -0.00418586 -0.0149964 0.00072603 0.0109608 0.00376032 0.00808564 0.0171689 -0.0090799 0.00640212 
0.00909286 0.0367432 0.00926074 0.0075366 0.0157059 -0.00307484 -0.0499784 -0.00445814 -0.00152375 -0.0293712 -0.0122591 -0.00262298 0.0617573 -0.0267763 -0.00609529 0.0327046 -0.0247773 -0.0199474 0.0048506 -0.0447084 -0.0179622 -0.0264691 0.116558 8.96873e-05 -0.0496409 -0.0239788 0.0221654 0.124268 0.044351 0.0490351 -0.00463008 0.00732169 
0.00386206 0.00495569 -0.00862228 -0.00606286 0.0192987 -0.00276555 -0.0369555 -0.0304539 0.0093168 -0.0365457 0.014622 -0.0135879 0.0354433 -0.022194 -0.0200064 0.0282047 -0.0108645 0.0159619 0.0160108 -0.023763 -0.000958848 -0.0204885 0.0907472 0.00762339 -0.0307895 -0.0238876 -0.000729765 0.0655681 0.00511668 0.0377943 0.0221196 0.0169489 
0.0185535 -0.00123817 -0.0103877 0.0153004 0.0218002 -0.0024778 0.0144609 -0.00222843 0.0152623 0.00535446 0.0172717 0.0011423 0.0245756 -0.0250687 -0.00758488 0.00537023 0.0160192 -0.00886975 0.0101074 -0.0101062 0.0126795 0.00395955 -0.00454574 -0.0068414 -0.0168617 -0.00450769 0.0387327 0.00674735 0.0419456 -0.00190945 0.015516 0.0148888 
0.0148406 0.00900679 0.0095169 0.0131687 -0.0138628 0.00279115 -0.0183496 -0.022636 -0.0102304 -0.0253926 0.00451707 -0.0155422 -0.0160553 0.0178959 0.000840834 -0.0242235 -0.0134286 -0.00971816 -0.00525032 -0.0300101 0.0195975 -0.009524 -0.0252401 -0.0188765 0.00119749 -0.0105351 -0.0175488 0.00326761 0.0132206 -0.00578071 -0.00522081 0.0145237 
0.0125655 -0.00351772 -0.0157757 0.0175893 0.0161194 0.0103276 0.00832882 -0.0158807 -0.0125122 -0.0207452 -0.00531707 -0.0188134 0.0191717 -0.00192382 -0.0105944 0.0366803 -0.0116911 0.0100385 0.013995 -0.0119204 -0.0159771 -0.000873174 0.0494554 0.0272058 -0.0176596 0.0510423 0.0697578 0.0544422 0.0279955 0.0125062 0.0263443 0.00855817 
-0.0033494 -0.012922 0.00957222 -0.010948 -0.0219271 0.010068 -0.0126434 -0.0205694 -0.000242634 0.000467511 -0.00342767 0.013175 0.0239179 0.00572859 0.00754225 -0.0145427 -0.00203669 0.000586268 -0.0156638 -0.00293802 -0.000371407 -0.00811482 0.0345807 -0.01938 -0.00985674 -0.0288945 0.0104527 0.0395651 -0.00430158 -0.012295 -0.00327259 0.00683526 
-0.0180422 -0.00070472 0.0153855 -0.0218012 0.0208455 -0.00996285 -0.0369291 -0.0148984 -0.00238027 -0.0271162 -0.0110176 0.00833668 0.0169391 0.0101242 0.0174841 0.0170737 -0.00588563 -0.0149694 -0.00263308 0.00192817 0.00812541 -0.0407977 0.03491 -0.0225097 -0.0433096 -0.0165259 -0.0146885 0.0573559 0.00580999 0.0316609 0.0049464 0.0125277 
-0.00584193 0.0290437 -0.00285258 -0.010822 -0.00829994 -0.0274766 -0.0128903 -0.00782849 0.0185512 -0.0124729 -0.00154124 -0.0278822 0.0378865 -0.0249714 -0.0228663 0.0125895 0.00423976 0.00170698 -0.0115145 -0.019557 0.00267695 -0.0323648 0.0588409 0.00894289 -0.0459137 -0.0302966 0.00413578 0.0640455 0.0145189 0.0182428 0.00939036 0.0124039 
0.0198855 -0.0068697 -0.0154813 -0.0139486 -0.000910391 0.0137371 -0.00994017 -0.0164044 0.0126946 -0.0393427 -0.00546878 -0.00207139 0.00426977 -0.00916529 -0.0218185 -0.0154461 0.0135408 -0.00263177 0.00515757 -0.0233201 0.0145991 -0.0306048 -0.0432162 0.0110614 -0.0288588 -0.0500865 -0.0456187 0.0023045 -0.0299503 0.000357676 -0.00454474 -0.0160577 
-0.000737416 0.0218626 -0.00530832 0.0196168 0.009615 -0.0151391 -0.0211272 -0.0016208 0.00263667 -0.00768757 -0.0112834 -0.0191752 0.0310692 -0.00997241 -0.00175015 0.0213959 0.0121375 -0.0170287 -0.00528811 -0.000660494 -0.0111432 -0.00329513 0.028574 0.00647128 0.0028159 -0.0263939 0.000506261 0.0512104 -0.0112257 0.000324471 -0.0184023 0.00752801 
-0.0179864 -0.0144835 0.00637345 0.0132103 0.00907598 0.015114 -0.00950403 -0.0151942 -0.0183744 0.002247 -0.00603491 -0.00947028 -0.00729465 0.012051 -0.0107795 0.0316449 0.0170726 0.00844761 -0.00508633 -0.0192319 -0.00944549 0.0162567 -0.0574252 0.00407469 0.0107659 -0.00767909 0.0719697 -0.107085 0.0330764 -0.1084 0.0594211 0.00556815 
0.00514626 0.0223029 -0.00948558 -0.0137759 -0.00766401 0.00654015 -0.0373915 -0.00259813 0.0150862 -0.0382267 -0.0152858 -0.0255527 0.0451115 -0.0204494 -0.0227036 0.0126765 -0.0209895 -0.000816999 0.00194308 -0.0355529 -0.00577087 -0.0318416 0.114781 -0.0184651 -0.0239104 -0.0419372 -0.00780049 0.119328 0.00983369 0.0599333 -0.0352558 -0.0123996 
0.0145853 0.00170838 0.00205759 -0.0151723 -0.00181496 -0.0209423 0.0179303 0.0164087 0.0101415 -0.0192584 -0.0131187 -0.005007 -0.00597812 -0.0086751 0.0187491 0.0266066 0.0129314 0.00507553 -0.0158881 -0.0162822 -0.0165467 0.00578312 -0.0155297 0.0398167 -0.0197638 -0.0211389 0.0469836 -0.0162442 0.0229199 -0.00964859 0.0522037 -0.0138076 
-0.0121605 0.00625603 -0.0348406 0.00414655 0.00157548 -0.0207298 -0.0153856 -0.00678585 -0.0021336 -0.0186635 0.0127445 0.00485724 -0.000544857 -0.0157102 -0.00104956 0.0377835 -0.00644085 0.0084969 -0.020732 -0.000492382 -0.00742706 -0.0235427 0.0537594 0.00381051 -0.019279 0.0332215 0.0377765 0.0701012 0.0345828 0.00793274 0.00877635 0.0039728 
0.00784766 -0.00924039 -0.00506885 -0.0130273 0.0154984 0.0187769 0.00307892 -0.0133355 -0.0039796 -0.00594296 -0.0177013 0.00844282 -0.037747 0.00295422 0.00583335 0.0279502 -0.00912145 0.00937739 0.0191466 0.00167582 -0.00871136 -0.00576381 -0.0634178 0.0459354 -0.0173491 -0.00319729 0.0916127 -0.0615151 0.0442645 -0.0972948 0.0553134 -0.0176576 
0.00689893 0.0408626 -0.0105467 -0.00452024 0.0165417 0.0145802 -0.0211721 -0.0064771 0.0103355 -0.0290549 -0.00577588 -0.0190877 0.0312382 -0.0322114 0.0117931 0.0127774 0.00656722 0.0132458 -0.0111338 -0.0422028 -0.0130668 -0.0266365 0.120136 -0.00706718 -0.020677 -0.0127324 -0.0278979 0.0994496 0.0194086 0.0537392 -0.0185097 0.00577308 
0.0143643 0.00936473 -0.0163235 0.00582722 0.0102705 0.013895 -0.028229 -0.0231187 0.00295457 -0.016997 -0.000437633 -0.0316709 0.000201794 -0.0107033 0.00527639 -0.0120001 -0.0207295 -0.0209635 0.00268873 -0.0275605 -0.000795534 -0.00925031 -0.0182179 -0.020561 -0.0237291 -0.0471065 -0.0567981 -0.0294634 -0.0384067 0.0486269 -0.0391631 0.0188993 
0.00926852 0.0093397 -0.00161744 -0.00854649 -0.0206432 0.0109745 -0.0393701 -0.00697932 0.0225886 -0.0332106 0.00698942 -0.0300708 0.0316659 -0.0232728 0.0059931 0.0023868 -0.0113031 -0.00745011 0.00836397 -0.0140127 0.0172894 -0.0246732 0.0913709 -0.0231217 -0.0248488 -0.0326262 -0.0224468 0.0954251 0.00184016 0.0911543 -0.00669696 -0.0101604 
0.0210696 -0.0020014 0.0100034 -0.0231966 0.000331301 -0.0117948 -0.00265183 -0.019284 -0.0174039 -0.0196671 -0.00486244 -0.00361036 -0.00254315 -0.0171738 -0.0234218 -0.0200846 -0.00478297 0.0146994 -0.021398 -0.0206519 0.0014211 -0.0207961 -0.0309265 -0.00405984 -0.000152882 -0.0242596 -0.0301186 -0.0458037 -0.0204401 -0.00381097 0.00152283 -0.0138637 
-0.0217039 0.00520835 -0.0175026 -0.00469174 0.00349666 0.0114582 -0.0309738 0.00311457 -0.000897434 -0.0269124 -0.00664219 0.00123815 0.00230725 -0.0172483 -0.0249014 0.00371813 -0.0183258 -0.0189385 0.0155362 -0.0154898 -0.0117687 -0.0221976 0.0288852 -0.0282541 -0.0580401 -0.0301429 -0.0368651 0.0541936 -0.0156591 0.0615584 -0.0131197 -0.0171647 
-0.00656071 -0.00304037 0.00614351 0.0192405 0.00390116 -0.0110521 0.0110247 0.0140488 -0.023494 -0.0157987 0.0131744 -0.00962025 -0.0180837 0.0127891 0.0180839 0.0331123 0.0170692 0.0161236 0.00371755 -0.0187385 0.00022936 0.0127689 -0.0658147 0.0235111 -0.00793336 0.00525748 0.065606 -0.0677618 0.0307489 -0.0801107 0.0480699 0.0151055 
-0.0206333 -0.000626496 0.0110758 0.000911761 0.00402965 -0.000267089 -0.0309655 0.00698581 0.0165591 -0.051145 -0.0130598 -0.024314 -0.0129714 -0.0250888 -0.0233553 0.00934403 -0.0264027 0.00662192 -0.0224219 -0.022104 -0.0015009 -0.0340314 -0.00448602 0.00747946 -0.0190457 -0.0194479 -0.0502317 0.0202605 -0.0251199 0.0572939 -0.0363623 -0.00787857 
0.00433411 -0.0356739 0.0198166 -0.0147683 0.00447676 -0.00480642 -0.0292029 -0.00741999 -0.00936503 -0.0209222 0.00687871 -0.00224817 -0.0303299 0.00780086 -0.00165122 0.00508475 -0.0103817 0.0030262 0.0219452 -0.00135484 0.013516 -0.0214725 -0.0694389 0.0145009 -0.0352493 -0.0287408 0.0161828 -0.0970309 0.010797 -0.0854112 0.0266152 -0.016361 
-0.0192179 0.00592137 -0.00735024 0.00575054 -0.0221929 -0.00549722 -0.0339284 0.000568879 0.00925335 -0.0110442 -0.0125108 -0.0242423 -0.00805367 0.00660488 0.000144813 -0.00310464 -0.00950978 0.00178146 -0.00274822 -0.0258609 0.00645153 -0.0212563 0.00661225 -0.00164967 -0.0109269 -0.017593 -0.0572184 -0.0143473 -0.0103431 0.0484069 -0.0264891 0.0079201 
-0.00778181 0.00948927 -0.0100351 -0.00847487 -0.0181188 -0.00785572 0.0176607 0.0118739 0.019968 -0.0208992 0.0138738 -0.0140669 0.0221796 -0.0097831 0.0182144 0.0564665 0.0194522 -0.00298212 -0.00529054 -0.0119392 0.00761605 -0.0232782 0.0306885 0.038961 -0.00537535 -0.0101485 0.169443 -0.0136886 0.0826347 0.00515338 0.117448 -0.00946467 
-0.00774176 -0.00404594 -0.0181611 -0.00773951 0.00775424 -0.0065315 -0.0346048 0.00162763 0.0147989 -0.0528824 0.021557 -0.00571811 0.0119592 -0.00699915 0.0144228 0.0117452 -0.00458935 -0.0108472 -0.0262061 -0.0175233 -0.00688527 -0.0371832 0.0328549 -0.019531 -0.0189241 0.00861731 0.0265591 0.0448565 0.011416 0.00716225 -0.00449354 0.00163167 
0.00102954 0.00797165 -0.0208395 -0.0152948 -0.00562198 -0.0136044 0.00422192 -0.0181122 -0.0139823 0.000471842 0.0130434 0.00202155 0.00635316 0.00492442 -0.0201274 -0.0175181 0.0144672 -0.0177127 -0.00953599 -0.02599 -0.00383594 -0.00383603 -0.0395741 -0.0230721 -0.0268367 -0.0224514 -0.022744 -0.0242787 -0.000288093 0.022976 -0.0242458 -0.0108788 
0.00399708 -0.016925 -0.00202243 0.0180459 -0.00570825 -0.00861847 -0.0347012 0.00241007 -0.0147998 -0.00528879 -0.00640058 -0.0304074 -0.00519581 -0.00604174 -0.015005 -0.0136469 -0.00213901 0.000525693 0.00810588 0.000556656 -0.0175363 0.00841962 -0.0478148 -0.0178959 -0.0211681 -0.0207872 -0.0433488 -0.0341638 -0.0170638 0.0466941 -0.0223642 -0.0133972 
-0.0143473 0.0263605 -0.0455154 -0.00205325 -0.00993551 -0.0223975 -0.0358287 -0.00564637 -0.00899737 -0.0347047 -0.0026457 -0.00398345 0.0380117 -0.0194683 -0.018301 0.02046 -0.0104035 0.0149713 -0.00475022 -0.00646577 0.0124325 -0.0306135 0.0673577 -0.00469118 -0.036759 0.00181019 0.0547292 0.0627223 0.0363958 0.0989945 0.00807559 0.00460469 
0.0162581 -0.0154187 -0.0113616 -0.0159694 0.00339279 -0.00344572 0.00546565 0.0108868 0.0125827 -0.0170681 -0.00253672 0.0146219 0.00673332 0.00214916 -0.00486045 0.0174281 -0.00322318 0.0174265 -6.04585e-05 -0.0176103 -0.00380988 -0.0151225 -0.0175852 0.0375353 0.00308136 0.0219202 0.0889332 -0.0504882 0.0663926 -0.0220547 0.0314262 0.00704674 
-0.0209128 -0.0040349 0.00172743 0.00226139 0.00868786 -0.00685116 -0.0148875 0.00666866 0.00728267 -0.00293629 0.0022645 -0.00908337 0.00965782 0.007206 0.00125564 0.0515175 0.0175327 -0.0176282 -0.0200738 -0.012523 -0.00896623 -0.013828 0.0391162 0.00279465 -0.0195821 0.0287043 0.105397 0.0229915 0.0600575 0.00670696 0.0761361 -0.0106342 
0.00404755 0.0293252 0.0151072 -0.0129337 -0.00752939 -0.0131319 -0.00212189 0.0110377 -0.00611007 -0.0302498 -0.0041238 -0.0114055 0.0243641 -0.0329255 -0.0106391 0.00532562 -0.0207542 -0.00579137 0.00562294 -0.0242736 0.0168365 -0.00907601 0.0673005 -0.0132098 -0.0298246 -0.0129816 0.00378699 0.082354 -0.0105182 0.0431486 -0.025636 0.00944377 
-0.00266158 -0.00985303 -0.0472529 0.00737845 -0.00524464 0.00736326 -0.0158303 -0.00978457 0.00530514 -0.055255 0.0194509 0.00565258 0.00320772 -0.0368992 -0.00918304 0.00946901 0.00721049 -0.0197878 0.000916278 -0.00768902 0.0124248 -0.0499768 0.0780294 -0.0129783 -0.0126185 -0.0240467 0.0540316 0.0290463 0.00383711 0.103017 0.0242566 -0.00314876 
-0.0204141 0.00853355 -0.0116928 -0.00525015 0.00709921 0.0190056 0.00681249 -0.0198872 -0.0193505 0.00262506 -0.0189733 -0.0190739 -0.0166201 -0.00750861 -0.00463242 0.00569408 -0.0044982 -0.0184026 -0.00290483 -0.0224066 -0.0137372 -0.015936 -0.0201694 -0.0292485 0.000381967 -0.0319499 -0.0616857 0.00538472 -0.0310058 0.0498268 -0.026014 -0.010899 
0.00173763 0.0091671 -0.00224575 -0.0146067 0.00237789 -0.000124474 -0.0138401 0.00575917 0.00222226 -0.0166404 0.0143611 0.00380015 0.0246496 -0.0204136 0.00217018 0.0113652 -0.00622294 -0.0198655 -0.0006871 0.000255319 -0.00552338 0.00602702 0.0521757 -0.00251648 -0.0282838 0.0279177 0.0466427 0.0211037 0.042555 0.00761622 0.0357996 -0.0233793 
0.019498 -0.00507023 -0.0205577 -0.00184575 0.016073 -0.00104143 -0.0221558 -0.00620163 0.021814 0.00901491 -0.0195951 0.00490901 -0.00121266 -0.00267863 0.0189473 0.0340197 0.00952848 -0.00148664 -0.0161865 -0.0234074 -0.0073013 0.0016238 0.036384 0.0169986 -0.0129964 0.00319967 0.103509 0.0453072 0.0561103 0.00482926 0.023851 -0.0016855 
0.00703565 -0.00141128 -0.0354757 -0.00146743 0.0162056 -0.0216151 0.00797305 0.0140296 -0.0139901 0.00277469 0.00195795 -0.0155723 0.0222929 -0.0135624 0.014899 0.0255973 -0.0220555 -0.020126 -0.00361846 -0.0104637 0.0135047 -0.00721922 0.0814472 0.00817422 0.00292779 0.0302058 0.0902706 0.0438634 0.081227 0.0128992 0.0292606 -0.000438216 
0.00566342 -0.00418367 -0.0403834 -0.00413558 -0.00921195 0.0118566 -0.0225119 -0.00461775 0.0247141 -0.0108807 0.0091437 -0.0106458 0.0222765 -0.0180743 0.0110616 0.046267 0.00774096 -0.0095683 0.0100958 -0.00598694 0.0203588 -0.0228996 0.118007 0.0453436 -0.0439487 0.020489 0.153219 0.0449417 0.0868488 0.0358399 0.0794877 0.0121904 
0.00922882 0.00697484 -0.00354948 0.0217339 0.0124556 0.00956941 -0.00473609 0.00949374 -0.00352805 -0.0178601 -0.0107406 0.0170111 0.00249702 -0.0192593 -0.00778161 0.0308124 -0.00469544 -0.0186412 0.0181743 -0.012608 0.00493003 0.00570985 -0.0223545 0.0370628 0.000911898 0.0136719 0.0948304 -0.0583499 0.0426897 -0.0400393 0.0315578 -0.0242625 
-0.0118481 0.00147726 -0.0431095 -0.0245578 -0.0137023 -0.013527 -0.00555441 0.00811316 0.00334462 -0.00379193 0.0109756 -0.0196674 -0.00638698 -0.0382532 0.00669907 0.0129608 -0.0131151 0.00451698 0.0133064 0.0156635 -0.00992104 -0.0377595 0.0347462 0.0232935 -0.0029568 -0.00540122 0.00839048 0.0151314 0.0280035 -0.00364883 -0.00238387 0.0176106 
0.000335834 -0.00691289 0.0190676 0.00666582 0.00386996 0.00677041 -0.0140823 -0.0217484 0.0141272 -0.0296994 -0.00542388 0.00603024 0.00350866 -0.0246592 -0.0112779 -0.00225141 0.00449673 -0.0151836 -0.00804275 0.00951236 -0.0089573 0.00659686 0.0457444 -0.0216166 -0.0280401 0.00725373 -0.0248939 0.0516448 -0.0295711 -0.000230638 0.00326931 0.000778933 
0.00988851 0.0166789 -0.0143316 -0.00879779 0.0027322 0.00731982 -0.00431794 -0.0112791 0.0168269 0.00984562 -0.0220918 -0.0144149 0.0171382 -0.0111434 0.0111773 0.0388092 -0.0014514 -0.0161308 -0.00315344 0.00318021 -0.0213104 -0.00949421 0.0409794 0.0160297 -0.0157551 -0.0104288 0.0828165 -0.0126563 0.0726924 0.0204561 0.0703097 -0.000181007 
0.0154234 -0.0163368 0.012522 -0.00869611 0.00979482 -0.014472 -0.0227046 -0.00157381 -0.0157653 -0.0309937 0.0178282 0.0015771 -0.0188084 -0.001325 -0.0106406 -0.0163894 0.00766448 0.0127953 -0.0133789 -0.0118156 -0.0157055 -0.0351701 -0.0230955 -0.0194698 -0.0325263 -0.0625137 -0.0636838 0.00605372 -0.0438795 0.0727418 -0.0157613 0.0215093 
0.00563592 0.0217808 -0.0272665 -0.0107248 0.0206274 -0.0310642 -0.0474294 -0.0317711 0.0215828 -0.0212243 0.0165301 -0.00333156 0.0295591 -0.0378316 -0.0143108 0.0179308 -0.0208957 -0.000891497 -0.0168852 -0.0275736 0.00766221 -0.0416367 0.0818524 -0.013344 -0.0336449 -0.0303271 0.0295824 0.072807 0.0408135 0.0357749 0.0134989 0.00273572 
-0.0211767 0.0327109 0.0135772 0.0183467 -0.0213488 0.0159728 -0.0415877 0.00373367 0.0273411 -0.0112466 0.000245364 -0.0115162 0.00710454 -0.0014338 0.0147913 0.00194995 -0.0150145 -0.0160925 -0.00813344 -0.00212852 -0.00353471 -0.038874 0.046269 0.0152463 -0.0243013 -0.025718 0.00488301 0.0637635 0.0281924 0.0606935 -0.0184098 0.0160792 
0.018933 -0.00933809 0.0117413 0.0162151 0.0220205 0.0117401 -0.0124485 0.00958918 0.0208063 -0.0417029 -0.00506261 0.00615826 0.0408429 -0.0204196 -0.0212331 -0.0150494 -0.00921449 -0.000338807 -0.0204864 -0.00361665 0.00183541 -0.0327222 0.0591817 0.0115131 -0.0151559 -0.0401248 -0.0232703 0.0602886 -0.0270989 -0.00357072 -0.0227639 0.0208665 
-0.000116074 -0.00623653 -0.00918984 -0.00403258 -0.0174854 -0.0052285 -0.0240584 0.011961 0.0198545 -0.0201304 0.0104488 0.0038345 0.0363316 -0.0115323 -0.0226084 0.0117639 -0.0079044 -0.0155674 -0.0173446 0.0162732 -0.00845012 -0.0121747 0.0606138 0.0258875 -0.00620234 -0.00395576 0.0437604 0.0564829 0.0362905 0.0353294 0.0366202 -0.0155616 
-0.0147138 0.0165707 0.00799943 -0.0106123 -0.00136948 -0.0183836 -0.0178996 -0.00732732 0.0153285 0.0126315 -0.0148512 0.0122558 0.0120463 -0.0155256 -0.0140829 0.00284508 -0.00597907 -0.00517339 0.0162588 0.00103233 -0.0126649 0.00685767 0.0296117 1.68005e-05 -0.0274717 -0.0126131 0.0474163 0.0162057 0.0198208 0.0218287 0.0125317 -0.0115682 
0.0134238 0.0182294 -0.000828884 -0.0120766 0.0156763 0.00466037 -0.00758058 0.0045774 0.00690447 -0.0046251 0.00186546 -0.0194425 -0.00877206 0.00512069 -0.0145553 -0.00307522 -0.0182766 -0.0187353 -0.0216744 -0.0176205 0.013212 -0.000595486 0.0351611 0.00868942 0.00530826 -0.0127346 -0.00270663 0.0185494 0.000120303 0.0318534 -0.0157971 -0.00920313 
-0.00805789 -0.00388528 0.00287791 -0.0155246 0.000355698 -0.0146462 0.011003 -0.0202399 0.00120988 -0.00919831 -0.00831485 0.0141967 -0.0478615 -0.00289821 -0.00998835 -0.00437497 -0.0011248 -0.00598919 0.00692126 -0.0192462 -0.0169556 -0.0190495 -0.107378 -0.0145409 -0.0071375 -0.00249984 -0.0328692 -0.130496 -0.0062921 -0.0354226 0.0097462 0.00146618 
-0.0110077 0.0244221 0.00654205 0.0111071 -0.0153077 0.00340235 0.0119212 -0.0172264 -0.0204802 -0.0256201 -0.0200556 -0.0175454 0.00752789 -0.0103935 -0.00093161 0.03232 0.0127963 -0.0137865 -0.00579161 0.00398663 -0.00843255 -0.00582141 0.0630341 0.0574074 -0.0248127 -0.021168 0.132806 0.00433215 0.0763421 0.00105121 0.054696 0.00369261 
-0.00141546 0.0197897 -0.0189503 0.0023627 -0.00273505 -0.0192068 -0.00643616 -0.00671144 -0.00369716 -0.0120267 0.00905078 0.00436855 0.000849306 -0.0292858 0.0140126 -0.00911868 -0.00313645 -0.012378 0.0151656 0.0070322 0.00978653 -0.00428344 0.0493707 0.0195542 -0.00155507 0.00149407 0.0159493 0.0305414 0.00295809 0.0331661 0.0292913 0.0081694 
-0.0113259 0.0161034 -0.0134256 0.00241681 0.00736666 -0.0253531 -0.049416 0.00872632 0.0329183 -0.0303683 0.0120458 -0.0359243 0.0168673 -0.00920841 -0.0226309 0.00521623 0.0089983 -0.0208259 -0.0115228 -0.0236706 0.0182683 -0.0487126 0.0858102 0.000350048 -0.0237329 -0.0168603 -0.0492282 0.0779406 -0.0109094 0.0477563 -0.0120173 0.00302371 
0.00351173 -0.0140807 -0.014837 -0.0117777 -0.0130589 -0.00478242 -0.0144659 -0.0185151 -0.00719676 0.0173353 -0.0150244 -0.00380831 0.0105093 -0.0146097 -0.020079 0.0217878 -0.00890022 -0.00344086 -0.0195688 -0.0177203 -0.0014386 -0.00207628 0.00307634 0.00608019 -0.00925494 -0.0100356 0.0609579 0.0193556 0.0286213 -0.013311 0.0251607 0.0168046 
-0.00969471 0.0103557 -0.043383 -0.00480243 -0.0215842 -0.0162864 -0.0145502 -0.00695777 0.000400283 -0.0208899 0.0141403 -0.0330392 0.0411554 -0.00919511 -0.00392685 0.0131444 -0.00784997 0.002647 0.000665359 0.0137034 -0.0171705 -0.0247943 0.0425676 0.00805844 -0.0136578 0.0179444 0.0457847 0.0386482 0.0436859 0.0336451 0.00360583 0.0077218 
-0.01301 -0.00456997 -0.0264561 -0.0163507 0.00389775 0.00651503 -0.0189737 0.0125029 0.0108877 -0.037872 0.02064 -0.0085093 0.0078796 -0.0215 0.0147873 0.0218933 -0.020774 -0.00464077 -0.00946526 -0.0281591 0.0199486 -0.0276833 0.0629787 0.0102507 -0.00841919 -0.0466496 0.0373499 0.0435618 0.0224557 0.0746983 -0.00195036 0.0139918 
-0.0201981 0.000352915 -0.020167 0.00554458 -0.00313247 0.00472728 0.00482245 -0.0215963 -0.0263065 0.00357135 0.00265465 -0.0128036 -0.0208432 -0.00382342 0.0160195 0.0261585 0.0157865 -0.00947094 -0.00695502 0.00639477 0.0115822 -0.0215115 0.00358431 0.0393613 -0.0263494 -0.00677308 0.083579 -0.0139598 0.0476503 -0.0179542 0.0639997 -0.0149185 
0.01917 0.0256844 0.00898599 -0.0116197 -0.01026 -0.00821026 -0.0398045 -0.0215268 -0.00303857 -0.0261415 0.00299548 -0.0316078 0.0298273 -0.015957 -0.0116073 -0.00617555 0.00553505 0.00839515 -0.0212783 -0.025585 0.0110929 -0.0213881 0.0736727 0.00154559 -0.0152437 -0.043317 -0.0262619 0.0825648 0.00461371 0.0459044 -0.0277974 0.00315979 
0.0126287 -0.00768456 0.00401397 -0.0219099 0.00807978 -0.0143709 -0.0164976 0.0110664 -0.00642967 0.00139001 0.0184749 0.00325778 0.00728429 -0.0244035 -0.0232346 0.00348728 0.0205912 -0.0153959 0.00793931 0.0111176 0.0133168 0.00125959 0.0430053 0.0214713 -0.0300533 0.00362133 0.0738875 0.0481107 0.0257478 0.0126084 0.018257 -0.0252289 
0.00200055 0.0111545 -0.0285684 -0.017479 0.00380476 -0.0123269 -0.0116286 0.00354593 0.00834441 -0.0286342 0.0035879 -0.00934266 0.0240257 -0.0126476 0.010166 0.00619088 0.00647699 0.000223544 0.0104568 -0.0276946 -0.00599055 -0.0335141 0.101818 -0.00237404 -0.0355316 -0.0475573 -0.00287673 0.124577 0.0256659 0.0618462 0.0108879 -0.014434 
0.0166046 0.0363968 -0.0186712 -0.00675695 -0.0117735 -0.0145523 -0.0374238 -0.011245 0.00856959 -0.0257346 -0.0128132 -0.0175179 0.043028 -0.0423937 0.00227904 0.0177116 -0.00203645 -0.000455579 0.0105528 -0.00836457 0.0178307 -0.0427451 0.114063 -0.00323798 -0.03278 -0.0280769 0.00484272 0.106475 0.0153798 0.0703316 -0.00183878 -0.0160985 
0.012911 0.0131734 0.00234715 -0.0215508 -0.0163614 0.0182409 -0.000801434 -0.00487528 0.0181792 0.00677446 0.0175026 -0.00582951 0.01811 -0.00225438 0.00953075 -0.00361179 -0.0219617 0.00467507 -0.0117289 0.0156138 0.015269 0.00281508 0.00591612 -0.00479139 -0.0120423 -0.00319787 0.00593513 0.0165767 0.0015693 0.0231139 0.0111389 -0.0108117 
0.00667157 -0.0026878 -0.0255202 0.00990534 -0.00984711 0.00805316 -0.0260655 -0.0197348 0.008748 -0.0380872 0.00126835 -0.0109953 0.0155997 -0.0263785 0.0105095 0.0167319 0.0171198 -0.0213296 -0.00112764 0.0087091 0.00753776 -0.00116271 0.0166265 0.0242184 -0.0207509 0.00305802 0.0298087 0.0432215 0.0193652 0.0404421 -0.00601731 -0.0140747 
0.00599219 0.016438 -0.030174 0.0129716 -0.0114501 -0.020254 -0.0518712 0.00339904 0.00829446 -0.0404242 -0.0097503 0.0013897 0.0547543 -0.0369571 -0.00264663 0.0288893 -0.0250604 -0.0188016 -0.00428286 -0.0197594 0.0197396 -0.0222458 0.112937 -0.0139066 -0.0434486 -0.0467813 -0.0168382 0.127983 0.0167005 0.0368862 -0.0257641 -0.0118612 
0.00926022 -0.00623315 -0.0331652 0.0170342 -0.00688246 -0.0201387 0.00313687 0.00633802 0.0192101 -0.0387162 0.00194645 0.00109207 0.00403131 -0.0360098 -0.00249605 0.0292125 -0.0147389 -0.0195354 0.0178109 -0.0232171 0.00902125 -0.0125074 0.082196 0.00399413 -0.00194072 0.0348947 0.150676 0.0477246 0.0960723 0.00344573 0.0726618 -0.00059055 
-0.0126633 0.0128974 0.00145717 0.00198494 -0.0175815 -0.00721475 -0.013511 0.019401 -0.00952504 0.00923241 0.00627007 -0.00289802 0.0100379 -0.0164259 0.00762571 0.0322482 -0.0106768 0.00500297 -0.0161499 0.00993122 -0.0110582 0.000581986 -0.0193913 0.0279854 -0.0234737 0.021057 0.139515 -0.0486681 0.0606845 -0.0211009 0.0918562 -0.0156722 
-0.0080761 0.00466454 -0.0136153 -0.00765944 0.00960332 0.0103374 -0.0219828 -0.0152284 0.016586 -0.0493955 0.00822297 -0.00877995 0.016508 -0.0282636 -0.000487448 0.0496657 -0.0194756 0.0101866 -0.000723586 -0.00974353 -0.00823614 -0.0258014 0.100678 0.027752 -0.028872 0.0280357 0.152539 0.0696512 0.0966506 0.0398947 0.0769546 0.00826916 
0.0141013 0.000193909 -0.0154349 0.00071281 -0.00395777 0.00245837 0.00573385 -0.0159947 0.00640059 -0.0104786 0.00906363 0.0126642 0.0208853 -0.013919 -0.00713426 0.0416358 -0.0204097 0.0157589 -0.0132967 -0.0121569 -0.00681655 0.00229424 0.0467745 0.0285844 0.00681549 0.00833503 0.0594905 0.00686805 0.0182228 0.0216579 0.0238322 0.0130656 
-0.00807836 -0.00501986 -0.00602442 0.00975506 -0.0171515 -0.0199093 0.0161434 0.0106585 -0.00877328 0.00302943 0.00215126 -0.0137687 0.00930417 0.0185281 -0.0161388 0.0782912 0.0143394 -0.00579456 -0.00937655 -0.0218564 -0.0196969 -0.0164306 0.0123234 0.0677273 0.00104366 -0.0154921 0.142453 -0.0299519 0.0701025 -0.0137241 0.0967683 -0.00871812 
-0.0218611 -0.0334859 -0.0178122 -0.0171772 -0.0190527 0.02021 0.0152936 0.00176294 -0.00953014 -0.00160286 0.0165503 -0.00532753 -0.0213598 -0.0223128 -0.00697828 -0.00542516 -0.0050901 0.00624473 -0.001742 -0.00335109 0.0145272 -0.0041089 -0.0555571 0.00822029 -0.000919543 0.00752469 6.10772e-05 -0.0584415 -0.00985866 0.00222301 -0.0087488 -0.0200063 
0.0214156 -0.0221219 -0.0147675 -0.0199258 -0.0187109 -0.020977 0.00421596 0.00525919 -0.00665366 -0.00455935 -0.02148 0.0153191 -0.00956148 -0.0068087 -0.0139569 0.0641832 -0.0194175 0.00789143 -0.00942876 0.00902176 -0.0171758 0.00230836 -0.00568262 0.0495817 -0.0236953 0.0164362 0.116718 -0.0474411 0.0890182 -0.0227293 0.0678454 0.00934382 
-0.000521092 0.00472958 0.00269623 0.000959574 0.0039414 -0.00825486 -0.023526 -0.0203251 0.0183679 -0.0267859 -0.0209871 -0.0140297 0.0135429 -0.0217658 -0.0166486 0.019163 0.0213556 -0.00300972 0.00362438 -0.0204121 -0.0202242 -0.0307346 0.0362931 -0.0090482 0.00707593 -0.0206609 0.0235233 0.0255689 0.0147695 0.0631214 0.010381 -0.0234497 
-0.00442842 -0.00192279 -0.0156475 0.0190746 0.0121742 0.0037027 -0.0291935 0.00611879 0.0252935 -0.0353685 0.0196126 -0.00152916 0.0111619 -0.0350779 -0.00872896 0.0121241 0.00105884 0.0213646 0.0005876 0.00334209 -0.0184054 -0.0256113 0.0568801 -0.0171955 -0.0171245 0.00562087 0.0485453 0.06096 0.0119344 0.00813769 0.0391547 -0.0020939 
0.00325639 0.0129933 -0.00310233 -0.00948377 -0.008433 0.0014212 0.0046169 -0.0156745 0.0200213 -0.00465876 0.01868 -0.0220381 -0.00256522 -0.0184148 0.00310564 0.00871485 -0.0133035 -0.016104 -0.0196561 -0.0224698 -0.00221559 0.00354976 0.045734 0.013762 -0.0309306 -0.0380986 0.0156033 0.0490079 -0.00376357 0.0535299 0.0116577 0.0174434 
-0.00174512 0.00150345 -0.012814 0.010336 -0.0193151 -0.0134422 -0.0295837 0.0113242 -0.011186 0.0077382 -0.0211838 -0.0185003 -0.00394379 0.00278062 0.00953309 0.00104805 0.0106316 0.0162818 0.015738 -0.0195414 0.0127978 -0.0195713 -0.000814097 -0.0241957 -0.0187178 -0.0298214 -0.0146355 0.0262948 0.0196185 0.0153916 -0.0028237 -0.00365176 
0.0112643 0.00194064 -0.0137292 0.0137914 -0.02147 -0.0110854 0.00491785 -0.0138007 -0.0216977 0.00665464 -0.00348553 -0.0026018 -0.0257931 -0.0167455 -0.0215244 -0.00696707 -0.0226742 0.0182484 -0.00642915 0.00986253 -0.0148611 -0.000310788 -0.0371121 0.0117029 -0.0035788 -0.0151224 0.00695406 -0.0621245 0.0138803 -0.0442532 0.0420342 -0.012317 
-0.00175584 -0.0129592 -0.0287145 -0.00249239 -0.00527305 0.00590356 0.00127365 0.00537589 -0.0019272 -0.0306843 -0.0165661 0.00609776 -0.00487878 -0.0236687 0.013983 0.000780437 -0.01762 -0.0130641 0.0215352 -0.0104238 0.00937341 0.00362822 0.0419206 -0.00262157 0.0128489 0.0305377 0.0550447 0.0240929 0.0300226 0.0241587 0.0308471 -0.0240527 
0.0160835 0.00582581 -0.000721591 -0.0118411 0.00175333 -0.0158443 0.0130702 0.0196183 -0.021632 0.0188713 0.00898051 -0.0089621 -0.0294276 0.000695533 0.00133232 -0.00170175 0.0088565 0.00177528 0.00175516 -0.0074779 -0.00676745 -0.0103539 -0.0339378 0.00389172 -0.0213501 -0.00519128 0.0320002 -0.0411607 0.000358734 -0.0449244 0.0302769 -0.0181538 
-0.00448892 -0.00827037 -0.0253448 0.0168728 -0.00556414 -0.0193919 0.00517004 0.00208725 -0.00936738 -0.0176168 0.0192722 -0.0119239 -0.00723847 -0.0169806 0.00551715 0.026868 -0.0197397 -0.0127381 -0.011855 -0.00403855 0.000210246 0.00339145 0.0452982 0.0113371 -0.0160745 0.0117065 0.0287848 0.0408216 0.00539854 -0.00109568 0.0300369 -0.00216734 
-0.00452341 -0.0314973 -0.00146931 0.0113203 -0.00261746 -0.00713613 -0.0104838 0.00762749 -0.000984012 -0.0125521 -0.0162678 0.0156845 -0.0211455 0.00944501 0.0104288 0.0313126 0.0184244 -0.0211552 -0.0120349 -0.00886779 -0.0212476 0.0193391 -0.107953 0.0211235 -0.0104281 -0.00112596 0.0250083 -0.106934 0.0329725 -0.104918 0.0253625 -0.0193507 
-0.00730092 0.002678 0.0173306 0.0114851 -0.0217997 -0.01238 -0.00809711 0.0175142 -0.00422408 -0.00646864 0.0182357 -0.0136852 -0.0194785 0.00763868 -0.0191935 -0.0196743 0.008496 -0.0079833 0.00798137 0.00217166 -0.00917702 0.0108377 -0.037486 0.00766394 -0.0127794 -0.0148101 -0.0341382 -0.0474608 -0.00702389 0.0234157 -0.0236341 0.0201169 
-0.00606744 -0.00518084 0.00792815 -0.0079869 -0.00661879 -0.0161566 -0.024974 0.00995094 0.0197289 -0.0353512 -0.0170313 0.0138407 0.0359138 -0.0191977 -0.0148307 0.00964626 -0.000848963 0.0174807 -0.00827181 0.00298708 0.00966269 -0.00739196 0.0603339 -0.020098 -0.0327916 -0.0303133 -0.020636 0.0701962 0.018233 0.0177256 0.00554931 -0.0125557 
0.00310864 0.00587545 -0.0181072 0.0146629 0.00781922 0.00641025 -0.0095388 -0.0121558 -0.0131977 -0.0157011 -0.00580224 0.00777769 -0.00162768 -0.019829 0.000663225 0.0227493 -6.53397e-05 0.0185568 -0.00508342 -0.0152694 0.0019278 -0.0431396 0.040777 0.0099345 -0.033801 -0.00918249 0.0283543 0.0285605 0.0411746 0.0459555 0.00618439 2.5404e-05 
0.00728114 0.0206492 -0.00182658 -0.0070943 0.0160217 -0.0119494 0.0109001 0.0193056 -0.0178727 -0.0164638 0.0162158 -0.0135174 0.0115129 -0.0038807 0.0164315 0.012755 -0.0062058 -0.00524953 2.4654e-05 0.0132043 0.00184926 0.0134594 0.0112447 0.0341202 -0.00942527 -0.0214748 0.0383061 -0.0128887 0.0227713 -0.00654356 0.05199 0.0162553 
-0.00507689 0.00515855 -0.0464742 -0.0167463 0.00561746 0.00558045 -0.0432034 0.0015396 -0.00807296 -0.0647365 0.0191931 0.000730268 0.0233609 -0.0199747 -0.0173955 0.0411909 -0.0102184 0.00742316 0.00599303 0.00896351 -5.72024e-05 -0.0452871 0.0798499 0.0213556 -0.039039 -0.00618847 0.0427355 0.0675127 0.0148479 0.0918721 0.0241 -0.00552078 
0.00230956 0.0176359 -0.00384065 -0.0160768 0.0117933 0.0117483 0.0117165 0.0176996 0.0225547 0.00436712 0.0126544 -0.00845671 0.0263018 0.00704784 -0.00998592 0.0086149 0.00572775 -0.0168459 0.0178684 -0.0185305 -0.00034604 -0.010114 0.0264496 0.0334395 -0.0250849 0.00957901 0.0832577 0.0235537 0.0448512 -0.00372538 0.0534654 0.0148259 
0.01697 -0.0111877 -0.0170426 0.0058452 -0.00308331 -0.0199782 -0.00231173 -0.00487978 0.00892363 -0.0112651 0.0176112 0.00826326 -0.0319856 -0.0143835 0.0152065 0.0328804 -0.0103426 0.0125263 -0.0189378 0.00612867 -0.00556529 -0.0205019 -0.0589299 0.0240604 -0.0192255 -0.0187433 0.0514132 -0.0723259 0.0127758 -0.0658277 0.038089 -0.0125969 
-0.00596717 0.00283957 0.0177297 0.012904 0.0138253 -0.00230948 -0.013965 0.0132236 0.0039676 -0.0204171 0.00578047 -0.0205576 -0.025813 -0.00178511 -0.0211545 0.0289852 -0.00915634 -0.0170051 -0.00675387 0.00389061 -0.0130049 -0.0207694 -0.0386612 0.0250042 -0.0150005 -0.00435421 0.0556688 -0.0456729 0.0240422 -0.0437478 0.0670174 -0.00271796 
0.00686614 0.026856 -0.0319388 -0.00501554 -0.0070335 -0.0105703 -0.0238873 -0.0155527 0.00566066 -0.00917938 -0.0111861 -0.000550541 0.0176069 -0.0304417 -0.0138798 0.0541968 -0.00217431 0.00609483 -0.0070166 0.00383242 0.00879569 -0.0156424 0.0770498 0.00584087 -0.00378328 0.0339855 0.151469 0.0401915 0.0785551 0.0401216 0.0716543 0.0116958 
0.00449481 0.0212976 -0.0297894 0.0162058 -0.00691068 -0.00320205 -0.0333203 0.0149588 0.00384859 -0.0326048 0.00454406 0.00640223 0.0222674 -0.00462598 -0.00162494 0.00070153 0.00146242 0.0162097 0.0114313 -0.0116618 0.000981939 -0.00212104 0.034866 0.00338784 -0.0256425 -0.0106944 0.0448665 0.0473933 0.0379479 0.00313349 0.0226157 -0.0127284 
-0.020523 0.0274253 -0.0196225 -0.00695563 0.00589586 -0.0112741 -0.0161337 -0.0161737 0.00896834 0.00430693 0.0207951 -0.0133278 0.022432 -0.00929474 -0.00386555 0.0459077 -0.00535658 -0.0103158 -0.000226461 0.00346129 -0.0117996 0.00174275 0.0557377 0.0439752 -0.00300508 0.0265628 0.156693 0.0191549 0.0709152 0.0240882 0.0951202 -0.0197905 
0.0167293 -0.0196484 -0.000318914 4.155e-05 -0.00428586 0.0102974 0.00614263 -0.0181639 0.00101521 0.00398464 -0.00439763 -0.0121972 -0.0144536 0.0155799 0.00188288 0.0580364 -0.0138079 -0.0187741 -0.00184903 -0.0155763 0.0151533 0.0126971 -0.0010506 0.0499867 0.00492081 -0.0120199 0.127648 0.00554489 0.0714625 0.0135207 0.0648794 -0.0211654 
0.0214933 0.00368453 0.00312638 -0.00526069 -0.00428557 -0.0124134 -0.00112138 0.0220156 0.0122986 0.0174035 -0.00946955 -0.0240583 0.0124309 0.0155169 0.00222086 0.0230964 0.0213635 -0.0204864 -0.00065054 0.00681303 0.017632 -0.000891864 0.00164396 0.0448595 0.00777239 0.00197507 0.115906 -0.0418763 0.0645392 0.00505268 0.0480161 -0.00423899 
-0.00308687 0.0247396 0.00992944 0.0110241 0.02122 -0.0126391 -0.00790396 0.00762185 0.00018236 -0.046759 0.0178953 -0.0292646 0.00491248 -0.0115789 -0.0183288 -0.0170238 -0.00242159 0.00614988 0.0138679 -0.0218024 -0.0146889 -0.0264621 0.0510867 -0.0316659 -0.00700272 -0.00898052 -0.0355351 0.066178 0.00385522 0.0325041 -0.00372422 -0.0197121 
0.0209684 0.0227671 -0.00660843 0.0150811 0.0218543 -0.00260674 -0.0146994 -0.0229463 0.0291164 -0.0339223 -0.0071102 0.00351573 0.0182511 -0.0290366 -0.0247062 0.0352675 -0.0178569 0.0174869 -0.020825 -0.0248008 -0.0115909 -0.0424623 0.082094 -0.0147437 -0.0487812 -0.0305148 0.0310911 0.0988366 0.0287549 0.0370056 0.0255177 0.00282001 
-0.0217134 -0.00137152 0.00296054 -0.0224428 -0.00231112 -0.00522892 -0.01408 -0.0075625 -0.0285421 0.00125495 -0.00855039 -0.0120685 -0.0386058 -0.010693 -0.0213824 -0.00263777 -0.0159441 -0.0125985 0.00103275 -0.00904893 0.00271614 0.0142548 -0.0559085 0.0228677 -0.0188491 -0.0246317 0.0213804 -0.051851 0.00820446 -0.0615307 0.0233054 -0.00640754 
-0.0181851 -0.0138042 -0.0229995 -0.00122344 -0.00219322 -0.00231642 0.000353939 -0.00311127 -0.00769216 -0.0406958 0.0149383 -0.0174449 0.00826518 -0.00104007 -6.39523e-05 0.0167999 -0.0154437 -0.019694 0.0179894 0.00608579 0.0177436 -0.0202037 0.0355946 -0.0129768 -0.0158271 0.0105274 0.00763659 0.0520647 0.00836273 0.0572179 0.00439069 -0.00673493 
0.00540405 0.0166521 0.00937367 -0.0205084 -0.00514405 0.00892573 0.000421381 0.00490071 0.0209807 -0.0116735 0.0178478 -0.0132099 0.00896061 -0.012876 0.0161938 0.0481206 9.44283e-05 0.0185133 -0.00941006 -0.0145874 -0.00225056 -0.000389538 0.0601326 0.00895605 -0.005896 0.0151494 0.15476 0.0458732 0.0562161 0.0023547 0.0601898 0.00759498 
-0.0182932 -0.00382764 -0.00469733 -0.00401682 -0.0164685 -0.00905189 -0.030638 -0.0197834 0.0233255 0.00135159 -0.00370514 -0.0129609 0.00959928 -0.024198 0.0177453 0.0339464 -0.0101862 -0.011566 -0.00672438 0.0100295 0.02064 0.00106231 0.0473262 0.0100939 -0.0142032 0.0199085 0.0403407 0.0406185 0.00351856 -0.00582894 0.0136376 -0.0193282 
-0.00613316 0.0103523 -0.000316671 -0.00649283 0.0122925 0.00228864 -0.0347879 -0.000879306 0.0244696 -0.0289869 -0.015547 -0.0350086 0.0217125 -0.0327843 -0.0238048 -0.00598683 -0.0160464 -0.00197029 -0.0121314 -0.0387564 -0.00484649 -0.0481264 0.0921194 0.00214697 -0.0268421 -0.0335973 -0.0378681 0.107601 -0.0156869 -0.027208 -0.0533912 0.0210073 
-0.00287889 0.0139802 -0.0304541 -0.01685 -0.00861332 -0.0323561 0.00245335 0.0215812 -0.0151664 -0.0502992 -0.0169989 -0.0192047 0.00702615 -0.0395305 0.0149069 0.0231106 0.00753182 -0.0114215 0.00953918 -0.0184253 -0.00874765 -0.0209766 0.0951411 -0.00998557 -0.0372799 0.0312666 0.083604 0.0807624 0.0567409 0.0555926 0.042188 -0.0217006 
0.00347351 -0.00901148 -0.00790776 0.0138703 -0.00952298 -0.0112277 -0.00270089 -0.0139664 -0.00429299 -0.00338644 0.0058054 -0.0100851 -0.0130103 -0.00332742 0.0158899 0.00599218 0.00866606 0.00629712 0.0180496 -0.0359127 -0.00919901 0.00540649 -0.0215883 -0.0105532 -0.0180441 -0.0465166 -0.0587675 -0.0043911 -0.0369911 0.0345425 -0.0223225 0.00807775 
-0.00405141 0.0164669 -0.00665136 0.00753344 -0.0169395 -0.00637505 0.0161775 -0.000925935 -0.000828466 -0.00504202 0.0207433 0.00234579 -0.00709018 0.00881772 -0.000456224 0.0293709 0.0024553 -0.00179317 -0.0191171 0.016107 -0.00479562 -0.0199358 0.0167686 0.0228987 -0.0128291 0.018299 0.0110461 0.0216034 0.0307732 0.0204393 -0.00344809 -0.0143531 
0.00108718 0.0198123 -0.00799301 0.00185451 -0.0131245 0.00627114 -0.0400023 -0.00174693 0.00865425 -0.0541406 -0.0113627 -0.00349048 0.0403864 -0.0151489 0.00635453 0.0218473 -0.0102999 0.0114374 -0.0096812 0.00213309 -0.021362 -0.0201634 0.0629369 -4.31663e-05 -0.0305911 0.00238573 0.0600162 0.0387224 0.0279467 0.0654527 0.0162418 -0.0213859 
0.0172527 -0.000760624 0.00605136 -0.0185234 -0.00691352 0.0132955 0.00865616 0.0171749 0.0195595 -0.0255227 0.0043765 0.0157278 0.0208484 -0.0133748 -0.00243175 0.00672126 -0.01965 0.0165001 0.0120479 -0.0248924 0.00560039 -0.00936379 0.0276089 -0.00286408 -0.0175472 0.000144695 0.0625774 0.0237716 0.0394796 0.0183694 0.0522271 -0.0048965 
-0.0109833 -0.0148383 0.00131501 0.00348567 -0.00134992 -0.0105515 -0.00405713 -0.0041362 -0.0290994 -0.0205346 -0.00442668 -0.0220654 -0.0408126 0.0121925 -0.0138334 0.0169207 0.00628429 -0.0223548 0.00119745 -0.0151315 -0.00408671 -0.0223154 -0.105531 0.0306845 -0.0150176 0.00577161 0.041765 -0.102544 0.0279482 -0.107921 0.0407364 0.00987498 
-0.0212335 0.00432427 -0.00517497 -0.00111438 -0.0120913 0.0159384 0.0127626 0.00135007 0.00458882 -0.0166617 0.00972392 -0.0125567 -0.0490164 0.0175215 0.0105836 0.022469 0.017135 -0.00870492 -0.0207413 -0.0159878 -0.00666689 -0.00601005 -0.104284 0.0302295 -0.0291606 -0.0107523 0.0350864 -0.091904 0.0323467 -0.0928343 0.0277981 0.0147466 
