{
  "layerType": "Dense",
  "inputShape": 5,
  "outputShape": 32,
  "weights": [
    [0.0159937, -0.216961, -0.882789, 0.576884, -1.01099, 1.09542, -0.365696, 0.0408088, 0.177313, -0.898536, 0.175001, -1.19523, -0.371426, 0.615264, -0.808329, 0.0865792, -0.151605, 0.170253, -0.427524, 0.35744, -0.118621, 0.769838, -1.3704, 0.249723, -0.0510689, -0.255862, -0.225734, 0.19055, -0.109598, 0.0749776, 0.899639, -0.406248],
    [-0.0806836, 0.527537, 0.317004, 0.814071, -0.541374, 0.0815099, 0.551538, -0.752825, 0.74919, 0.228128, -1.00089, 0.203339, 0.779645, 1.17419, -0.589846, 0.693626, 0.293063, -0.0465674, 0.26261, 0.810992, -0.89508, 0.407234, 0.0439891, -0.0963897, 0.338621, -0.415396, -0.367953, 0.846435, -0.0356951, 0.327865, 0.16986, 0.16893],
    [1.02234, 0.709486, 0.915366, -0.0699488, -0.334437, -0.179257, -0.767092, 1.28557, -0.0708835, 0.355644, -0.994468, -0.272015, -0.989194, 0.690443, -0.627104, 0.778658, -1.38428, 0.0514273, 0.748443, -0.194756, -0.559948, -0.40159, 0.0607376, 0.0597162, -0.145892, 0.591182, 0.958886, 0.632447, -0.100085, 0.820476, -0.778549, -0.328535],
    [-0.277772, -0.837381, 0.604497, 0.477261, 0.845489, -0.446215, 0.58318, -0.587437, 0.250822, 1.23593, -0.117998, 1.22225, -0.170704, 1.31157, 0.178177, -0.954763, 0.362206, 0.528336, 0.87395, 0.94197, 0.303674, 0.75487, -0.104061, -0.300713, -0.200491, 0.740194, -1.28135, 0.476102, -1.67147, 0.702508, -0.0913606, -1.16735],
    [0.487506, -0.705074, 1.38919, 0.82268, 0.166614, -0.383142, 0.481799, -0.832676, 0.264626, 0.200538, 0.970594, -0.570678, 0.884194, 1.19925, -0.616378, 1.9306, 0.150235, 0.842932, 0.224126, 1.28089, 0.25409, 0.144786, 0.102355, 0.840876, 0.365425, -0.0721491, -0.0731183, -0.257766, 1.10598, 0.412738, 0.351922, 0.140131]
  ],
  "bias": [
    -0.000853658, -0.0351417, -0.0182927, -0.026929, 0.0312216, 0.000366168, -0.0379992, 0.0349106, -0.0380454, -0.026181, -0.0406688, -0.0132831, -0.0386452, -0.000195203, -0.0097222, 0.0377843, 0.0233581, -0.0424217, -0.0357686, 0.0274503, 0.051177, -0.0262998, -0.0329112, -0.0131132, -0.0438115, 0.0548348, -0.0203643, -0.0236961, 0.0421257, -0.0365537, -0.0119166, -0.0328688
  ]
}
