0.0219873 -0.308095 0.0995926 0.0738608 
-0.0320084 -0.468415 -0.249199 -0.131508 
-0.0749908 1.40176 0.187197 -1.40453 
0.0079671 -0.0575455 -0.177305 -0.019116 
0.0128402 -0.384627 -0.0116373 0.346374 
-0.101336 -0.265481 -0.151305 -2.25859 
-0.0125775 -0.180151 -0.224246 -1.70676 
0.0233948 0.548375 0.119028 -1.78231 
-0.0854633 -0.0486521 -0.22723 -1.21576 
-0.0667147 -1.4871 -0.564184 -0.55377 
-0.0899212 0.527645 0.0601607 0.449612 
0.107762 0.153363 -0.0823292 -0.113247 
-0.161971 0.833369 0.00926591 -0.794293 
0.0688788 -0.1456 -0.0961971 -0.209298 
-0.0574589 -0.010125 0.0923182 0.394466 
-0.0211268 0.698906 -0.160754 -0.795245 
0.0972228 -0.432861 -0.00915437 0.0342111 
0.0176709 -0.0429148 0.02882 0.0259678 
0.190482 -1.7801 0.123081 -0.31414 
0.0902165 0.0684464 -0.300294 -0.74774 
-0.0153 0.314728 0.032064 0.768793 
-0.0481851 2.40519 0.12363 2.14508 
0.0327579 0.912169 -0.0363365 -0.751729 
0.0868802 0.0548266 -0.125505 0.0563919 
-0.148652 0.956744 0.133978 1.27407 
0.0489945 0.129554 -0.0424829 0.0609379 
0.0240464 0.107216 0.0502894 -1.36427 
-0.0275779 0.117033 0.0223076 0.0972733 
0.0783238 -2.66895 -1.0255 -1.2859 
-0.0530418 2.13877 0.0482541 -0.906953 
-0.0210053 -0.0627071 -0.223744 0.0447274 
-0.0522628 -0.515196 0.343279 -2.24265 
