0.786794 -1.62692 0.519804 0.753126 0.731149 -0.54129 -0.209654 0.760833 -0.672382 -1.59444 -1.17511 0.228209 -0.246545 0.232953 1.52402 1.15042 0.204691 0.26799 -0.744281 -0.756894 -0.920975 -0.623717 -0.803201 0.929631 1.5606 -0.0721593 -0.612831 -0.894753 1.33619 -0.672072 -0.163611 0.552009 0.296389 -0.395293 0.444133 0.0502551 -0.410667 0.983289 -0.232469 0.535945 -0.0443937 0.88199 -0.233503 0.569979 -0.369003 2.62098 0.552723 0.751463 -1.12534 0.978599 0.175461 -0.757821 -0.491233 0.346935 0.803855 -0.265533 -1.17353 -1.2282 -0.0630464 -0.849632 -0.559178 0.162353 0.608476 0.976235 -0.328305 0.204051 -2.58451 0.858786 0.0911242 0.381984 0.179803 -1.22822 -0.947138 0.811377 5.26945 2.18029 -0.415195 0.424404 0.455393 -0.245847 0.685158 -0.408929 -0.0613724 0.623152 1.11656 -0.50004 -3.90994 0.864874 -0.314859 0.60738 0.967624 0.32091 0.362869 0.576687 -0.198326 1.22559 -0.191252 0.60912 0.420239 1.2067 1.96998 -0.666761 0.973745 0.180816 -0.979627 0.941328 0.245363 -0.141162 0.314827 -0.572572 0.51643 1.04252 -0.232703 -0.756608 -0.553881 -0.434408 0.167271 -0.0787524 -0.543721 4.03685 -0.469349 -0.794264 2.61147 0.514774 -0.3631 0.966182 -0.148495 -0.21718 0.897974 -0.251899 -0.326373 -0.439425 0.233695 -0.282999 -0.898649 2.28969 0.369084 1.01487 -0.683825 0.644465 -0.910752 4.29632 -0.816625 0.126467 -0.631711 -0.542626 0.706235 0.23911 0.378539 1.04952 -0.444461 0.376406 -1.00296 -0.660471 -0.0103509 -1.06071 -0.744907 -0.599993 -0.0533548 0.56493 0.317012 -1.37582 -0.825157 -0.576507 0.80809 -0.500073 4.20907 -0.870939 0.765224 -0.92541 1.07563 -0.442969 -0.953749 1.20776 0.216803 0.18479 -0.679478 2.81494 0.562465 -0.00261354 -0.348038 0.0381225 -1.65546 1.47779 0.324927 -0.710375 0.113289 0.639372 -0.294267 1.05591 -0.934517 1.08674 0.445277 0.295291 -1.12074 -1.41416 0.700771 0.966076 0.558842 0.658211 0.713446 0.435826 0.946892 0.861878 0.363309 -0.127547 -0.416504 0.403398 0.775794 -0.846565 0.405078 -0.45385 0.229071 -0.314884 0.346205 -0.444994 -0.484519 0.600983 -0.785437 0.231013 -3.77831 -1.63274 0.199431 0.957897 -0.525098 1.34957 0.408276 -0.941839 -2.21542 -1.80387 0.690885 -0.0512082 -0.385125 3.96139 -0.0500519 -0.972429 -0.303932 3.25149 0.730455 -0.373482 0.337744 -0.0490845 -0.0574792 -0.595318 0.402988 -0.590601 3.62153 -0.554749 -0.225616 0.299864 0.41768 0.230587 -0.258844 -0.580206 0.291951 -0.0646566 
0.220368 -0.871482 0.372816 -0.540293 0.730494 0.241975 0.65597 -0.463794 0.11496 -1.46144 -0.987706 0.584499 0.28751 -0.886261 -0.562534 -0.0239657 0.125982 0.446892 0.287237 -0.83535 0.408004 -0.394291 -0.327304 -0.587739 3.10799 -1.02734 0.595306 -0.326526 -0.389768 -0.0456605 0.88406 0.926142 0.505872 0.325472 -0.954399 0.290264 -0.357591 0.287849 0.915444 0.909252 0.686225 -0.637049 0.616896 0.33948 -0.344582 2.60133 0.682917 0.572724 0.11152 0.00414154 -0.696096 -0.415478 0.710814 -0.0151421 -0.095866 0.748207 0.101728 -0.376527 -0.686732 0.236957 0.305264 -0.971656 0.447464 0.0360653 0.650067 0.412863 -1.42445 -0.57494 0.0272691 -0.801059 -0.787393 -0.167977 -0.609506 0.677368 2.68352 1.01441 0.538486 0.527986 0.0785725 -0.431857 -0.137549 0.663732 0.157411 -0.470252 -0.752972 -0.991161 -1.88067 0.151318 -0.310063 -0.466989 -0.250066 -0.982381 -0.0506406 0.732982 0.257461 -0.229078 0.295647 0.414398 -0.00644897 -0.379531 1.53727 0.217327 -0.0512396 -0.722154 0.157094 -0.197351 0.62436 -0.279133 -0.600865 -0.467986 0.4286 1.28293 0.975904 -0.375429 0.714915 -0.823204 -0.241926 -0.904483 0.537248 1.92816 -0.490116 -0.835194 1.9222 0.377954 -1.31103 -0.111509 1.31099 0.352407 -0.605607 -0.0337606 0.607803 -0.912831 -0.674624 -0.240791 -0.419636 1.17978 1.73329 -0.755214 -0.995109 -1.08232 -0.00216696 2.03589 0.204267 -0.146313 -0.823819 0.116826 0.0131809 0.132531 0.245611 -0.252168 -0.725669 0.73011 -0.0108049 -0.825495 0.19548 0.117009 0.155396 0.137466 -0.592812 0.454385 -1.03899 -1.53588 0.759691 -0.69408 -0.290592 -0.608728 2.0655 -0.344748 -0.443617 0.558486 -0.121868 0.985511 0.169237 -0.876835 -0.484582 1.4067 0.149797 2.52869 -0.267511 -0.623028 -0.678905 0.0965089 -1.40942 1.53556 0.565879 0.39831 -0.482331 -0.0711865 -0.35618 -0.162412 -0.956628 -0.0157563 -0.0147307 -0.661271 0.178157 -1.46617 -0.0624368 -0.24025 -0.484401 0.330821 -0.650256 0.297368 0.0209407 0.659714 0.669909 0.590285 0.49553 -0.400926 0.146763 -1.19301 -0.00786671 0.586426 0.166188 0.462531 0.199057 -0.240311 -0.334983 1.42787 0.57082 0.393514 -1.82064 -1.54908 -0.892294 0.266938 -0.692709 0.943843 0.279889 0.145996 -1.69605 -1.64269 -0.46822 -0.531153 0.751378 1.9891 -0.616556 -0.27653 0.263596 2.28884 0.112828 -0.330043 0.677684 -0.560838 -0.705981 0.0645747 0.705108 0.292701 2.54445 -0.644103 -0.275742 0.318155 0.752011 0.0216646 0.469837 0.848361 -0.583759 1.46207 
