0.013208 0.0501218 0.0208192 0.010022 0.0848213 -0.00619455 -0.00990813 0.0436413 0.0302369 0.070665 0.0373919 -0.0111713 0.363046 0.0103834 0.034728 0.191431 -0.11613 0.0246937 -0.414315 0.00280597 0.0136631 -0.0669012 0.0545937 0.0322499 -0.0430602 0.0184623 -0.000336225 0.00296971 0.0621551 0.157993 0.0252802 0.018241 
-0.00327065 -0.0340833 0.128095 -0.00404172 0.0235189 0.00713461 -0.024127 -0.0420052 -0.00842019 -0.0132562 0.0281625 -0.00300226 0.145415 -0.0160462 0.0211238 0.0771179 -0.153723 -0.00711342 -0.444537 0.035678 0.097609 0.0133163 0.113263 -0.00541244 -0.0720383 0.045665 -0.0605402 -0.0421353 0.0601185 -0.00403812 -0.0452571 0.0474791 
0.0105416 0.0571461 0.0257023 0.0117845 0.0374505 -0.0283798 0.0176498 -0.0271378 0.00927742 0.081534 -0.0839597 0.00452126 -0.0170595 0.00941908 0.0451017 0.0182283 -0.0437029 0.0397031 -0.275632 -0.00923053 0.00372552 -0.324145 0.0349107 -0.0214278 -0.12499 0.050563 -0.0668038 -0.0148644 0.112487 0.138938 0.058958 0.0158861 
0.0294941 0.0325686 -0.205264 0.0250989 0.0251824 -0.158499 -0.0753023 -0.258392 -0.141509 0.106345 0.0129653 -0.0255557 -0.399336 -0.011819 -0.00934682 -0.257578 -0.0130734 -0.0285992 -0.0958076 0.0164399 -0.00754295 0.0439814 -0.253099 0.0239258 0.00949144 0.0390689 -0.182894 -0.0049669 0.230062 0.21376 -0.00731957 0.236941 
-0.0438524 -0.00565934 0.0497684 0.00503796 0.0796349 -0.0859997 -0.0474779 -0.130544 -0.00871196 0.0135867 -0.0714965 0.0135708 -0.0146192 0.0447154 -0.0237165 -0.00727586 -0.149529 -0.0300957 -0.360051 -0.0373186 -0.0624386 -0.54975 0.0421481 -0.042971 -0.271798 -0.00971083 -0.0883731 0.00416109 0.127879 0.307711 0.063068 0.00317278 
-0.00995231 0.0182223 -0.0306856 -0.018998 -0.0206141 0.18499 0.119898 0.0140854 0.0448878 0.038598 -0.01394 0.0240559 -0.0522166 0.0390608 -0.0564847 -0.0214843 -0.0535282 0.0197999 -0.209388 0.0170537 -0.0124846 -0.193203 -0.0391775 -0.0397622 -0.017877 0.0259268 0.0903191 0.0154483 0.0983508 0.202125 0.0167577 0.0154861 
0.0248239 -0.0440056 -0.126768 -0.0360598 -0.0483748 0.0918631 0.0495356 0.0122628 0.0655892 -0.0754021 0.00961693 0.0269384 -0.219095 0.0261171 -0.0144221 -0.170165 -0.0502909 -0.0300027 -0.17058 0.00873838 -0.0439282 -0.125325 -0.157432 0.00727036 -0.104536 -0.0167843 0.0211301 0.0125001 -0.0545161 0.173311 0.0143187 -0.0335617 
0.00380772 0.0437657 -0.211546 -0.027032 0.0697869 -0.157572 -0.118417 -0.250176 -0.113474 0.110143 -0.0335972 -0.00814434 -0.42746 -0.0033779 -0.0124056 -0.21551 0.017681 0.00344458 -0.0547501 0.0329698 0.0294633 0.0106905 -0.265996 -0.0215492 -0.0637784 0.00491478 -0.123156 0.00889818 0.221993 0.208511 0.0271273 0.202544 
-0.0138464 0.00919798 -0.232408 -0.0411537 -0.0443882 0.169975 0.129463 0.0860508 0.114211 0.0539757 0.0115406 -0.0677959 -0.28126 -0.00521608 0.0554698 -0.244521 -0.0454329 -0.0233331 0.0769456 0.0507446 -0.0396399 0.142637 -0.209897 -0.0295151 0.131227 0.0199802 0.0972654 -0.0438297 0.0882795 0.0316222 0.0160882 0.0868134 
-0.0157607 0.0135323 0.138751 -0.0535062 -0.0125262 -0.177778 -0.086895 -0.0822809 -0.0630723 -0.0463825 -0.0101555 0.0413948 0.0731778 -0.0794086 0.122872 0.0657139 -0.208271 0.0240023 -0.640089 0.0124923 0.220126 -0.016443 0.0942965 -0.0331617 -0.288016 -0.0196983 -0.105546 0.00717123 -0.0831384 0.156314 -0.0488144 0.0824504 
0.0186738 -0.00533165 0.0770067 0.0270416 0.0273065 -0.112575 -0.100482 -0.0379852 -0.0586506 -0.0471732 0.00721517 -0.0276594 0.043108 -0.0317141 0.0115954 0.0449001 -0.154414 0.000141249 -0.448011 0.037389 0.16163 0.01274 0.103025 0.0320089 -0.193182 -0.0434634 -0.0443273 -0.0330431 -0.00489923 0.0295895 -0.0448299 0.0638962 
-0.0214193 -0.00752266 0.00812698 -0.00595558 0.0273597 -0.0175321 0.0197759 -0.0351391 0.0232173 -0.0580739 -0.0612593 -0.0355945 0.00456566 -0.0143444 0.0212074 0.0301261 -0.0505217 0.0253984 -0.251191 0.00618664 -0.00509212 -0.254188 -0.00437317 0.0069665 -0.135079 -0.0215519 0.00761374 0.00314929 -0.112937 0.277405 -0.0219675 -0.0317382 
0.0294253 0.00974602 -0.0254042 0.0138108 -0.0175698 0.0108717 0.0674101 -0.012053 0.0276133 -0.0336128 -0.0652836 -0.0149728 0.011168 0.0350857 -0.0295569 0.00584721 -0.0164246 0.041362 -0.186798 -0.0129585 -0.00564969 -0.176975 0.037181 -0.0236144 -0.0725793 0.0123525 0.0520568 0.0267118 -0.00709867 0.128786 0.00736462 -0.00843872 
0.0309184 0.05779 -0.277636 -0.0370378 0.0514642 -0.0731346 0.0165783 -0.0678973 -0.0372517 0.105338 0.0370357 -0.070766 -0.412463 0.0382515 0.00327792 -0.32065 -0.0182813 0.0141984 -0.0577536 0.0828342 0.00221426 0.0881276 -0.281976 -0.0381652 0.0198625 -0.0259215 0.00158868 0.0146405 0.205949 0.0933587 -0.0338194 0.211741 
0.0332042 0.0837631 -0.367984 -0.0421259 0.132735 -0.364766 -0.23569 -0.499692 -0.236961 0.201764 -0.0699759 -0.0801689 -0.734272 0.00128043 0.0372793 -0.384377 -0.00976181 0.00726215 -0.0974953 -0.0357926 0.0771838 -0.165826 -0.457272 0.0319309 -0.11219 0.0543115 -0.327712 0.012726 0.410545 0.371092 0.0321734 0.331831 
0.0350793 0.0295952 -0.162933 -0.0282572 0.0917877 -0.310563 -0.19732 -0.3573 -0.209351 0.177238 -0.0476067 -0.0336963 -0.451164 -0.0669138 0.0130249 -0.259435 0.00799435 -0.00921695 -0.0546108 0.00824335 -0.00854359 -0.288094 -0.247817 -0.00650561 -0.120526 -0.0266562 -0.297946 0.0232267 0.33164 0.3233 0.0251714 0.1979 
-0.0248241 0.000493543 -3.74357e-05 0.0374076 0.0318877 -0.00342484 -0.0168694 -0.0614805 -0.0184356 0.00332541 -0.0206806 0.0424821 -0.0321271 0.0372968 -0.0281574 0.0350989 -0.0444595 -0.00962542 -0.0961203 0.00135996 0.010444 -0.10421 0.0445417 -0.0363713 -0.100347 -0.0348081 0.0123372 0.0325989 0.0292088 0.0546209 -0.00957932 0.00965154 
0.0106151 0.00436769 -0.0895914 0.000930021 -0.0127155 0.025642 0.0414765 0.0370598 0.0132016 -0.0403504 -0.0129654 0.00959851 -0.116387 0.0564123 -0.00536793 -0.0515367 0.00135193 0.034155 -0.0480688 -0.0354174 0.00764903 -0.186195 -0.0858334 0.0372494 -0.070283 -0.0133366 0.0312402 0.0339479 -0.015834 0.339958 -0.0174886 -0.0346115 
0.0108091 0.00844491 0.0323564 -0.0439401 0.023299 0.103403 0.125401 0.00898686 0.0738442 0.0854286 -0.0318488 0.0144162 0.0143758 -0.0116803 -0.0599943 0.061778 -0.0299343 0.0479104 -0.331283 0.00553266 -0.00412161 -0.399665 -0.0144443 0.0203041 -0.119419 -0.0436881 0.0706828 0.0336016 0.056746 0.358216 -0.0329123 0.0704526 
-0.0108266 0.0270577 0.051205 0.0205433 -0.0123204 -0.0874267 -0.102944 0.0282424 -0.0651239 -0.0620266 0.00861561 0.0311798 -0.011189 -0.0299032 0.0761604 0.0398388 -0.0988846 0.04587 -0.354265 -0.0175747 0.0949976 -0.000612547 0.0527831 0.0110137 -0.158567 0.00304377 -0.0242739 -0.0141267 -0.0499367 0.106384 -0.0746974 0.0653983 
0.00974004 0.0439273 -0.0181941 0.0317997 -0.0188589 0.182147 0.149656 0.0416878 0.126002 0.038348 -0.105352 -0.010684 -0.024543 -0.0366477 -0.0417194 -0.0563718 -0.0684855 0.00417784 -0.411701 0.0246944 -0.0301012 -0.479827 -0.061426 -0.0313844 -0.0953421 0.00208037 0.0790926 -0.0234706 0.0690528 0.41544 0.0261747 0.0764095 
-0.0357999 0.0322451 -0.202159 -0.00388549 -0.0411715 0.145532 0.164617 0.042345 0.0739816 0.092101 -0.0161311 -0.0565459 -0.264834 -0.0043636 -0.0160731 -0.18652 0.0230239 6.68355e-05 0.00560724 0.0760187 0.00937381 0.0999227 -0.20845 -0.00975273 0.0667194 -0.0207953 0.0773042 0.0205792 0.225121 0.0450692 -0.00208398 0.110739 
0.0304185 0.0299669 -0.262745 -0.0420061 0.0197999 0.188287 0.192508 0.0160565 0.105109 0.0930219 0.0328518 -0.0687681 -0.30941 -0.0455577 0.0411731 -0.242814 -0.0103647 0.0269277 -0.0233465 0.0364088 0.028679 0.124925 -0.290649 -0.0184361 0.0787698 -0.0319842 0.033662 -0.0348004 0.224152 0.0450003 -0.0347602 0.17026 
0.0713073 0.074795 -0.2397 0.00733011 0.0457023 -0.185965 -0.159428 -0.302042 -0.128444 0.187756 -0.0217704 -0.047297 -0.429575 -0.0511402 0.0665305 -0.312324 0.0155989 0.0348409 -0.0503091 0.0476801 0.0666643 -0.0394934 -0.349682 -0.0305036 -0.0424704 -0.0399319 -0.201797 -0.0414686 0.287934 0.217386 -0.00367304 0.231107 
-0.0204095 -0.0390655 -0.453573 0.0221576 -0.0558598 0.183481 0.258776 -0.0669656 -0.020959 -0.0407 0.0653376 -0.0585093 -0.470778 -0.0830645 -0.0172952 -0.481226 -0.250122 -0.0329887 -0.665287 0.0393407 -0.279676 0.354556 -0.348213 0.00574501 0.0999473 -0.00269395 -0.0798144 -0.00467112 -0.099954 0.0679841 -0.06543 -0.127871 
-0.00293667 0.0389314 -0.259679 0.0267188 0.0215748 -0.0651339 0.0870392 -0.0748098 -0.0492961 0.201721 0.0055441 -0.045505 -0.424462 0.0416996 -0.0290216 -0.327324 -0.063165 -0.0211328 -0.0968887 0.1123 -0.0762685 0.0694466 -0.298614 0.0359802 -0.00729975 -0.0139347 -0.0589812 0.0041648 0.325833 0.06379 0.0043932 0.285983 
0.0200063 -0.0117283 -0.0179202 0.00428101 0.0315446 0.084143 0.109916 0.028304 0.034365 -0.041601 -0.0620395 -0.0332963 0.0261574 -0.0256625 -0.0424396 -0.0409431 -0.059866 -0.0113609 -0.357989 0.0377468 -0.0294484 -0.431437 0.00796264 -0.0259629 -0.1518 -0.0432323 0.0845591 0.00157256 -0.0295889 0.350397 -0.0396339 -0.0440179 
0.0292359 0.0426919 -0.273799 0.0222022 -0.0025685 0.208717 0.23052 0.0389031 0.0913993 0.147295 0.0259665 -0.0564947 -0.394129 0.0195129 0.00802141 -0.254351 -0.0555104 0.0275996 0.00840199 0.0773484 -0.0437589 0.0747615 -0.297102 0.0258384 0.0935133 -0.00213294 0.0756762 -0.0066873 0.169015 0.0359288 -0.00612653 0.189161 
0.0875799 0.04869 -0.258849 -0.0134828 0.109398 -0.320255 -0.175441 -0.460884 -0.249055 0.203999 -0.0549777 -0.0488183 -0.623597 0.00829718 0.0109843 -0.346074 0.00345764 -0.00942092 -0.0225629 0.0234484 0.0417541 -0.2096 -0.338827 0.00396646 -0.12685 0.0493973 -0.260633 -0.0298301 0.349257 0.329416 -0.0233053 0.245194 
0.0241062 0.0584923 -0.209879 -0.00493622 0.00444352 0.16623 0.142958 0.0819576 0.0363691 0.0316439 0.0131832 -0.0522405 -0.224764 -0.000638566 0.0262091 -0.196612 0.0404166 -0.00235995 0.0553745 0.0452553 -0.0375607 0.0839984 -0.300145 -0.0191003 0.0835017 -0.0461093 0.0633919 -0.00988031 0.124759 0.0234407 0.0015647 0.0716034 
-0.0201434 -0.0755044 0.0176013 -0.0358506 0.0109216 -0.0492946 -0.0558934 0.0127134 -0.024321 -0.110618 -0.108926 -0.0137373 0.0368864 0.0108676 -0.0412359 0.0320251 -0.123235 0.00546612 -0.295267 -0.0124056 0.00793495 -0.369697 -0.00195576 0.0223578 -0.232581 -0.0256026 -0.0514387 -0.0384284 -0.146071 0.478154 -0.011132 -0.130646 
0.0143554 -0.0332933 -0.0193818 0.0267866 0.012576 -0.0894066 -0.0192032 -0.0346321 -0.00745318 -0.0095055 -0.105489 0.0260272 -0.0653036 -0.0222688 0.026377 0.00284985 -0.0504986 -0.022996 -0.336796 0.00202998 0.00521994 -0.469331 -0.0233584 -0.0105688 -0.24549 0.0353704 -0.0614571 -0.014987 -0.0631691 0.607193 0.0264541 -0.0495431 
-0.0445712 0.0250291 0.0354887 0.0308025 -0.0228273 -0.023537 0.0142559 -0.0700679 -0.0414824 -0.0703784 -0.0153841 0.0104778 -0.045733 0.00833757 -0.0166492 -0.0300354 -0.00882193 -0.0189332 -0.118136 0.0191069 0.0321436 -0.275453 -0.0441551 0.017479 -0.118369 0.0300217 -0.0568851 -0.0499105 -0.0451437 0.342338 -0.0204272 -0.0086431 
0.0247177 -0.0324732 0.0151429 -0.0412434 0.014746 0.0614919 0.0159424 0.0568255 0.038864 0.0447754 -0.0532139 0.0341123 0.00459515 0.0180989 -0.0412577 0.00526456 -0.0769052 -0.0377635 -0.227128 -0.0303317 -0.0367272 -0.266651 0.0256008 -0.0416323 -0.0635377 0.0358686 -0.0080947 -7.16449e-05 0.0198515 0.206447 -0.0169485 0.000753378 
0.0157123 0.102167 -0.259591 -0.0331257 0.00449507 0.00735155 0.0886947 -0.0121373 -0.00186663 0.190034 0.0330923 -0.0627992 -0.395756 0.0473501 0.00639792 -0.317282 -0.00800061 0.0269173 -0.0748841 0.0484302 -0.0470035 0.0375988 -0.336619 -0.0312793 0.0279143 -0.0497894 -0.00668422 0.0122143 0.34324 0.113908 -0.0414734 0.319511 
0.0319593 0.0185405 0.0409604 -0.0172142 -0.0123056 0.00488283 -0.0524265 -0.0736602 -0.0459406 0.0271577 -0.0316019 -0.00684205 0.0139643 0.0350304 0.0130394 -0.000671256 0.0122573 0.0366815 -0.0354183 -0.0370303 0.0351981 0.00379319 -0.0280124 0.02854 0.0459521 0.0350841 -0.0339837 -0.0187726 0.0192926 0.202437 -0.0361347 0.0185999 
-0.00451419 -0.0365071 0.0306727 0.0256266 0.043702 -0.0694859 0.00300419 -0.0461385 -0.0598512 -0.0314362 0.0193248 0.0300301 -0.0197148 -0.0275683 0.00217438 0.0424234 -0.0824003 0.0364747 -0.169295 -0.0254327 0.0553494 -0.0381922 0.0673943 -0.00382122 -0.107457 -0.00637121 -0.00625168 0.0281668 -0.0390836 0.051724 -0.00156105 0.0312988 
0.0535584 0.0365433 0.0479292 0.0496629 0.018448 -0.0359651 -0.0515113 0.0372867 0.0282186 0.0698341 -0.0491216 0.0123469 0.425741 -0.00410508 0.0256231 0.243951 -0.201796 -0.0072468 -0.523591 0.023565 0.0276688 -0.0750825 0.0634428 0.0102206 -0.16118 -0.0327729 0.0206721 -0.041455 0.106616 0.178186 0.0470816 0.0943602 
0.0222226 -0.0204535 0.04218 0.0353201 -0.0346878 -0.0159899 -0.0225324 0.0336133 -0.0205395 -0.157044 -0.110644 -0.0119299 0.00289389 0.0055968 0.0146145 0.0282088 -0.151339 -0.0152382 -0.299396 0.0303255 0.0261009 -0.393763 -0.00781351 0.040894 -0.236508 0.0335209 -0.0280745 0.024546 -0.169925 0.499449 0.0186972 -0.105041 
-0.0129839 -0.00817067 -0.00827102 0.0481814 0.0245122 -0.0478328 -0.012577 -0.042471 -0.00624302 -0.0142818 -0.118452 -0.0213119 -0.0808176 0.0231154 -0.0427043 -0.0185968 -0.101628 0.000600232 -0.265178 -0.0390131 -0.0322302 -0.44917 -0.0694867 -0.0189975 -0.246936 0.00751028 -0.0970291 -0.0197583 -0.0463088 0.625173 -0.0251569 -0.0444008 
-0.0170714 -0.00649467 -0.00831316 -0.0157265 -0.0140565 -0.0592711 -0.0570971 -0.0390134 -0.0440107 -0.0770749 -0.0514528 0.0235697 -0.0559028 -0.00101181 -0.00370685 -0.0439619 -0.10417 0.0315187 -0.240918 0.00477003 -0.00230361 -0.295206 0.00283494 -0.032746 -0.177695 0.0497497 -0.0197274 -0.000855333 -0.0616943 0.359851 -0.0353101 -0.077688 
0.0245384 0.0739641 -0.249215 0.0216128 0.026125 -0.177819 -0.151332 -0.277323 -0.112264 0.173112 -0.0350328 -0.0763644 -0.490039 -0.0174895 0.0193829 -0.307957 -0.0316107 0.0121668 -0.101648 -0.00660015 0.00466081 0.055082 -0.328798 0.0309094 0.00444551 0.018885 -0.185386 0.00121315 0.249448 0.243458 -0.00257992 0.256394 
-0.0147219 -0.0633824 0.0264171 0.00357316 -0.0512584 0.0437492 0.0370589 0.0393824 0.0253864 -0.0567013 -0.100505 -0.0338208 0.00554406 -0.0227803 -0.000324307 0.0431918 -0.118026 0.00386541 -0.162499 -0.0176798 -0.0190705 -0.301136 -0.0291121 -0.0299341 -0.135323 0.00558172 0.0145311 -0.032564 -0.19091 0.339024 0.0406264 -0.0907055 
0.0471277 0.0623022 -0.0689607 0.0399849 0.0390202 -0.00142678 0.0383558 -0.0919378 -0.00777322 0.138368 -0.0694855 -0.0190597 -0.128391 0.0679242 -0.0248452 -0.0568866 0.00318605 -0.03321 -0.13581 0.0398951 -0.0528986 -0.289705 -0.0609022 -0.0425231 -0.153997 0.0455748 -0.0910829 -0.0354505 0.190691 0.269929 0.056008 0.0554201 
0.0220265 0.0481992 0.0666932 0.00229059 0.00735093 0.0713116 0.13044 -0.0201288 0.0136712 0.06434 0.0264494 -0.00375514 0.000648897 -0.047043 0.00508083 0.0710714 -0.094996 -0.0360406 -0.131182 0.0502306 -0.00112045 -0.111711 0.0336184 0.0134812 -0.0850369 0.0145218 0.0345204 -0.0322129 0.163649 -0.0304928 -0.0310309 0.109602 
-0.014746 -0.0504519 -0.582025 0.0536103 0.00369396 0.132703 0.142264 -0.102445 0.0411279 -0.0614016 0.00491491 -0.0127842 -0.3451 -0.0414477 0.0159602 -0.512988 -0.118157 0.0329673 -0.181489 0.0175974 -0.132083 -0.0558324 -0.481634 0.0308375 0.0396445 -0.0295971 0.028697 0.00514345 -0.006365 -0.02719 0.0241086 -0.0474169 
-0.0427478 -0.00219842 0.0429771 0.0510262 0.0471832 -0.0872566 0.019194 -0.0810625 -0.0453399 0.0116674 -0.10731 -0.0205662 -0.0126335 -0.01422 0.00205152 0.0334901 -0.154967 -0.0325671 -0.374949 -0.0476449 -0.0384397 -0.403501 0.0391833 -0.0395139 -0.251508 0.0509931 -0.0386916 0.0161255 0.0025634 0.286075 0.0720741 0.000144349 
-0.0274113 0.0325761 -0.00817232 0.0556341 0.075358 -0.0927166 -0.0466068 -0.0497581 -0.0238641 0.0694325 -0.134526 -0.0367673 0.0152796 0.0292245 0.0266712 0.0494854 -0.0945834 -0.0330045 -0.367366 -0.0439748 0.00891053 -0.501736 -0.0203745 -0.0413518 -0.234763 0.0354426 -0.0346284 -0.00727411 0.152529 0.201513 0.0998735 0.0812975 
-0.0328293 0.000654172 -0.331078 0.0281495 -0.0331632 0.300565 0.257939 0.104917 0.102991 0.125356 0.0464456 -0.0417265 -0.447821 -0.0106747 0.0121816 -0.387817 -0.000430015 0.0429127 0.0765198 0.0794255 -0.00666971 0.178394 -0.412602 -0.0436555 0.182429 -0.0121835 0.116193 0.0044724 0.202764 0.0118777 -0.0287424 0.0709697 
0.0161949 0.0472919 0.0949027 0.00435387 0.0752379 -0.0163433 -0.0614328 0.142046 0.0339063 0.0520312 0.0119259 0.023435 0.491159 0.0281492 0.0581631 0.319474 -0.13815 0.0397978 -0.469885 -0.025353 0.0248968 0.00526485 0.064359 -0.0132647 -0.0917901 0.0284214 0.0878977 -0.0064334 0.00691441 0.155755 0.026021 0.0522369 
-0.0267538 0.0380342 -0.240133 0.0272732 -0.0236917 -0.0689919 0.0323815 -0.0470918 -0.0667834 0.0652402 -0.0186492 -0.0381135 -0.266608 0.0362427 -0.028161 -0.216419 -0.00273819 0.0223923 -0.0197338 0.0433828 0.0317323 0.0367033 -0.226761 -0.00606313 0.019188 -0.0244628 0.0115442 -0.0419609 0.19838 0.0622218 -0.00808172 0.207962 
-0.0460199 0.0535541 -0.258997 -0.0228012 0.0156129 0.16686 0.192429 0.0414944 0.0553713 0.168367 -0.0144095 -0.00685349 -0.282692 -0.00193085 -0.00286397 -0.215217 -0.0377676 -0.024848 -0.0166612 0.0519345 -0.0216765 0.0235157 -0.261355 -0.0318145 0.0654806 0.00324583 0.0518932 -0.0309498 0.20656 0.0665457 0.0250829 0.16099 
-0.0216087 -0.0410554 0.0175313 -0.0440522 -0.00101267 0.0469178 0.0766339 0.0427904 0.0121118 -0.0953464 -0.082571 0.0331343 0.0100245 0.0326245 -0.025564 0.0459209 -0.106039 0.0495853 -0.25931 -0.000867756 -0.0528642 -0.429013 0.0211756 0.0182552 -0.248812 0.0239163 0.065541 -0.0136231 -0.100502 0.41773 0.0144912 -0.0322561 
-0.0167719 -0.0180974 0.041926 0.016013 0.023422 -0.00916083 -0.0330998 0.0532365 0.0217067 0.0441874 -0.00230822 -0.0352564 0.21282 0.0211051 0.0449278 0.0631409 -0.0345264 0.030575 -0.171105 0.0293782 0.0189339 -0.0218469 0.0362141 0.0169673 -0.0117424 -0.00789243 -0.0207267 -0.0279691 -0.0115429 0.0754553 0.0427542 0.00477263 
0.0720271 0.0251571 0.0904623 0.000651403 0.0286646 -0.0389427 -0.0637395 0.147452 0.0223977 0.00861199 0.0509178 -0.0291269 0.411697 0.029668 -0.00339759 0.281406 -0.118997 0.00407977 -0.379442 -0.0417631 0.0621549 0.0335592 0.0968389 -0.0133732 -0.0658307 0.0279177 0.0603277 0.0321747 0.023635 0.127052 -0.0136468 0.039451 
-0.0318435 -0.078952 -0.0377336 -0.000837479 -0.00358514 -0.0298347 -0.0123894 0.0240927 0.0197822 -0.136087 -0.0376236 0.0378583 0.0438071 0.0330906 0.020731 0.0118095 -0.0849474 0.00500957 -0.214321 -0.0251416 0.0259255 -0.341767 0.002396 0.0166533 -0.228116 -0.035021 0.00823399 0.0285668 -0.17447 0.442711 -0.0114765 -0.0840188 
-0.0318469 0.0350481 -0.370789 0.0196467 0.00346161 0.295554 0.250341 0.0650485 0.16583 0.0898835 -0.00922244 -0.0371184 -0.450853 0.0249309 0.0115234 -0.328098 -0.0213348 0.0379554 0.144263 0.059364 -0.0173226 0.197604 -0.472072 0.0133259 0.227193 0.00822802 0.12042 -0.0374332 0.16437 0.0523796 0.0200433 0.124432 
-0.0251428 0.0313998 -0.394215 0.0332444 0.00755853 0.338969 0.223376 0.0405243 0.109345 0.144329 -0.00890197 -0.0587214 -0.495729 -0.00872854 0.00647792 -0.361277 -0.0364014 -0.00864938 0.0171459 0.130183 0.020294 0.167669 -0.440946 -0.00710156 0.163629 0.0285088 0.125719 0.041425 0.317941 0.0585528 -0.00178147 0.179688 
-0.0195883 -0.00331242 -0.233496 -0.0353913 0.0345792 -0.0655822 0.054815 -0.0573558 -0.0437875 0.126198 0.0324176 -0.0493623 -0.284765 -0.0273798 -0.00765242 -0.201279 -0.0133554 -0.00940664 -0.0704263 0.0856349 -0.05146 0.0729209 -0.191568 0.0150056 -0.00765087 -0.017405 -0.0161568 -0.0115552 0.224049 0.0415377 -0.00837796 0.170123 
-0.0129753 0.0407576 -0.0207158 -0.021304 0.0196652 0.174505 0.110299 0.0770301 0.0886503 0.0572019 -0.101844 0.0183143 -0.0273011 0.032818 -0.0480766 0.0426356 -0.0283336 0.00492939 -0.341766 0.0459374 -0.0792823 -0.429627 -0.0204089 0.0140644 -0.087378 0.0388088 0.0247183 -0.00409923 0.100452 0.35383 0.00769201 0.0752528 
-0.036073 0.0462448 0.0467075 0.022145 0.0313823 0.0759337 0.0857462 0.0160221 0.0597828 0.0620169 -0.100131 0.0451573 0.039455 -0.0317283 0.0243311 0.000360014 -0.0229142 -0.00829108 -0.210446 0.0376643 -0.00967158 -0.32676 0.00417889 -0.0129984 -0.133594 -0.00700503 0.067815 -0.0082877 0.0615975 0.269158 -0.0445698 -0.0262817 
0.0429076 0.0162082 -0.0828775 -0.0488011 0.00281473 -0.067274 -0.0775202 0.246415 0.0440484 -0.0764561 0.0822395 -0.0262868 -0.036396 -0.00890648 0.0873136 -0.0345138 -0.0977041 0.0242043 -0.432387 0.032917 0.230307 0.168037 -0.198963 -0.0376191 -0.271575 0.0145081 0.086158 -0.0444242 -0.183677 0.201662 -0.0908772 0.082784 
0.0103358 0.0738725 -0.0988855 0.0361701 0.0231046 0.00753952 0.0377472 -0.0984056 -0.0308069 0.0955854 -0.0650375 -0.0236514 -0.150539 0.00945479 0.0287715 -0.0724277 0.0519538 -0.0377274 -0.0684664 0.0340576 -0.0156294 -0.35658 -0.0284369 0.0271096 -0.0825334 0.0184918 -0.0179125 -0.0283561 0.220817 0.397576 -0.000970548 0.0678991 
0.0657999 0.014147 -0.173945 -0.00355955 0.100118 -0.223982 -0.155207 -0.322317 -0.19249 0.0953387 -0.0478622 -0.021425 -0.391527 -0.0171618 0.0544159 -0.193213 0.00804573 0.0235389 -0.0398126 -0.0119036 0.0328836 -0.280861 -0.215989 0.0240175 -0.0719015 -0.0283246 -0.263034 0.0128444 0.284537 0.250992 -0.0110282 0.212516 
-0.0221999 -0.0516318 -0.0317654 -0.0256921 -0.040538 0.0638968 0.0375372 0.0159686 0.0696579 -0.085713 -0.0387048 -0.0143183 0.00230445 0.0063661 0.00599176 -0.0198809 -0.0881738 0.0423057 -0.240257 -0.0129124 -0.0493395 -0.30242 -0.0498142 0.0396184 -0.218564 -0.0286448 0.0359346 -0.0457954 -0.132491 0.343983 0.0282116 -0.0558706 
-0.0536999 -0.0409943 0.0190157 -0.0261834 0.0397779 -0.0499417 -0.015512 0.00688761 -0.0141805 -0.0284914 -0.0673188 -0.0199359 -0.057119 0.0252592 0.0147295 -0.000732085 -0.014695 -0.00524313 -0.0909297 0.0425527 -0.00740782 -0.237688 0.0289977 -0.00151771 -0.133841 0.0242485 -0.027113 -0.00791651 -0.0516208 0.233352 -0.0405786 -0.0322451 
-0.0116338 0.0249365 0.21109 -0.00811572 -0.0438592 -0.0362289 -0.0151365 -0.0637061 -0.0143465 0.0135476 0.0410372 0.0387161 0.211332 -0.0158901 0.0783972 0.10417 -0.276783 -0.0106775 -0.745986 0.0221095 0.149061 -0.0408419 0.212469 0.00886338 -0.103213 -0.00167523 -0.0846154 -0.0414093 0.0419367 -0.0364015 -0.0274127 0.0617429 
0.0641575 0.0255229 -0.205798 0.0313073 0.0553416 -0.200759 -0.106737 -0.274204 -0.110664 0.149879 0.037319 -0.0573784 -0.472363 -0.0278659 0.0240629 -0.312314 0.001168 -0.000460827 -0.0380542 -0.00289046 0.0426149 0.0145422 -0.255867 -0.00802563 -0.0635585 0.0339631 -0.161518 0.028043 0.299123 0.17948 -0.0525906 0.242979 
-0.00829812 -0.0373041 0.0227109 0.0331524 -0.0127358 -0.0208803 -0.0522563 -0.0568881 0.0306968 0.056375 -0.0189707 -0.0377267 -0.0320577 0.0233648 -0.0245684 -0.0442509 -0.0148553 0.0259568 -0.0239996 -0.0413662 -0.0129573 -0.0676772 -0.0157793 -0.0119515 0.0263876 0.0425412 -0.0453031 0.0321082 -0.0111361 0.00929325 0.0232491 0.0135611 
0.0133428 0.0618977 -0.254761 0.0192718 -0.0248799 -0.0300387 0.0656166 -0.0819688 -0.0304418 0.140883 -0.0163974 -0.0158177 -0.297453 0.00344389 0.0216208 -0.285191 -0.0623572 -0.0412265 -0.068624 0.0728137 -0.0450654 0.0876561 -0.243501 -0.0393009 0.0105577 -0.0574453 0.0136106 0.0269407 0.289835 0.0833787 -0.0315394 0.27529 
-0.0213127 0.0411657 -0.222688 -0.0184455 0.0539542 -0.0577968 0.024367 -0.0643207 -0.0327614 0.0978807 -0.0225904 -0.039565 -0.306506 0.0307221 0.00416121 -0.284764 -0.00114088 0.0375428 -0.0366463 0.0532744 0.0231252 0.0832896 -0.282681 -0.00194502 -0.0184132 -0.0539836 -0.048803 0.032322 0.192521 0.0915714 0.000375693 0.233372 
-0.0332621 0.0211572 -0.401089 -0.0309476 -0.0109124 0.298136 0.24834 0.0981104 0.0971577 0.14544 0.0101804 -0.0216303 -0.47597 0.0356931 0.0698118 -0.396935 0.0243304 0.000533421 0.047257 0.102088 0.03426 0.173723 -0.474819 -0.0101652 0.205647 -0.00959868 0.0987961 -0.0300797 0.206839 0.0518394 -0.048711 0.153926 
-0.0417552 -0.0151493 0.065108 -0.00671874 0.0367513 -0.00614442 -0.0291332 -0.0861644 -0.0443499 0.0231564 -0.0400889 0.0106729 0.0695321 -0.057525 0.0669058 0.0336505 -0.0806398 -0.0313685 -0.3119 0.00695339 0.0841888 -0.0159539 0.0841135 -0.0441214 -0.0390853 -0.0371829 -0.0628852 0.0336604 -0.0238162 0.00171242 -0.0502465 0.0249345 
-0.000890953 0.0234598 0.0159504 0.0252771 0.0474414 -0.0334052 -0.0167472 -0.0790816 -0.021982 0.077762 -0.1279 -0.0224434 -0.000166902 -0.0161175 0.0303337 -0.0138373 -0.15826 -0.046414 -0.423934 0.0146072 -0.0380402 -0.556777 0.0209803 -0.0164513 -0.261634 0.0574397 -0.0976988 -0.00987292 0.108276 0.234381 0.0805893 0.0772727 
0.0371188 -0.0216487 -0.98008 -0.01199 0.00747004 0.0528138 0.0199894 0.107674 0.056162 -0.0213783 0.0480025 -0.191005 -0.149821 0.0488377 -0.0108772 -0.651799 0.188824 0.0075715 0.372157 -0.0472498 -0.0796369 0.0687152 -1.06468 0.00726053 0.14957 0.0149656 0.0446769 -0.0241583 0.00718034 -0.0189106 0.158389 0.0473043 
0.033731 -0.0119214 -0.415001 0.043619 -0.00355701 -0.0290441 0.00388227 0.0767588 0.0150203 0.0144991 0.0232791 -0.0567447 -0.0245679 0.0445587 -0.0249384 -0.272784 0.080475 -0.0210833 0.18519 0.00704083 -0.0124267 0.0698126 -0.456111 -0.0152831 0.0429223 -0.0203889 0.0476569 0.0232041 0.0394721 0.00735218 0.067046 0.0239762 
0.0252698 0.0187962 0.0308609 -0.0428128 -0.0391345 0.0695165 0.0723364 0.026235 0.0179465 -0.0340053 -0.0299233 0.015247 -0.0118414 -0.0517686 0.0178298 0.0494239 -0.091793 -0.0229512 -0.269821 0.022353 -0.0535923 -0.312954 0.0562759 0.0200565 -0.199795 0.00130406 0.0343417 -0.0453235 -0.0218322 0.274226 0.0247795 -0.0109716 
-0.0445246 0.00216451 0.0442173 -0.0122796 0.0647835 -0.0594598 -0.0153831 -0.0930552 0.0185949 0.0180559 -0.0429147 -0.0146293 -0.00823402 0.00506809 -0.0234699 0.0454982 -0.0613935 0.0205265 -0.243214 0.0214517 -0.0117149 -0.321002 0.0115047 0.0101206 -0.194728 -0.0261267 -0.0364976 -0.0466662 -0.000276928 0.249083 0.0576037 0.00407009 
0.0500685 0.0330378 -0.0516288 0.0382128 0.00109663 -0.134816 -0.111598 -0.172815 -0.0487939 0.0881588 -0.0341504 -0.0147981 -0.181511 0.00972616 -0.00276691 -0.120574 -0.00402127 0.0350876 0.024752 -0.0432226 -0.00443688 -0.14456 -0.0723495 0.00336472 -0.0520422 -0.0147068 -0.0972346 0.0100608 0.128939 0.116356 -0.0290595 0.0889935 
-0.0506372 0.0463769 -0.127668 -0.0248896 0.04023 0.0655099 0.0648287 0.0178442 0.00887531 0.12139 -0.0117103 -0.00776401 -0.178861 0.0104674 0.0126284 -0.166596 0.0035946 0.00543239 -0.0775925 0.00367823 0.0379935 0.0625701 -0.132787 -0.00793579 0.0506963 -0.036517 -0.0182171 0.0139718 0.158858 -0.0230031 -0.0288176 0.129705 
0.0456719 0.0521394 -0.105344 0.0196587 0.0292515 -0.188328 -0.0976126 -0.20037 -0.15162 0.127908 -0.0479153 0.00252373 -0.281535 -0.0563559 0.0514897 -0.199572 0.000151899 0.0342159 -0.0675104 0.00545075 0.0246489 -0.112507 -0.20845 0.0150935 -0.0288836 -0.0324492 -0.165189 -0.0243628 0.140984 0.165528 0.0338247 0.1677 
-0.018063 0.0112498 -0.167515 0.00854102 0.0164825 0.140089 0.117869 0.0465664 0.0430828 0.0100596 0.062434 -0.0216396 -0.288702 -0.0145283 0.00558054 -0.266174 -0.067853 0.00739622 -0.140117 0.0203133 -0.105207 0.14511 -0.235577 0.0352731 0.0581082 -0.0199192 0.0195327 -0.0423685 0.0323411 0.0631836 -0.00283244 -0.0126816 
0.0102159 -0.00401779 0.0297447 0.00168414 0.0274155 -0.0441714 0.00209393 0.031507 0.0112226 -0.0331904 -0.00912833 -0.0160642 -0.0392861 -0.0381746 -0.000966376 0.0115367 -0.00168724 -0.0171604 -0.0161675 0.0405149 -0.0352178 -0.0208877 0.0305074 0.0420582 0.0249975 0.0403917 0.034487 0.025303 -0.00161565 0.143555 0.0383417 -0.0224804 
0.0335415 0.026034 -0.0554734 -0.0270981 0.0669297 -0.0294556 -0.0687012 0.170436 0.0100336 -0.000143204 0.0646642 -0.0365539 0.337211 -0.0185821 0.0466718 0.18899 -0.11053 -0.00299596 -0.473145 0.0483741 0.0734815 0.12584 0.0244328 -0.0307006 -0.131085 0.00338912 0.115013 -0.0328233 -0.0354321 0.127725 -0.00548416 0.0128886 
0.0488974 0.0827964 -0.311647 -0.01814 0.0728763 -0.227035 -0.195977 -0.319865 -0.194683 0.213122 0.00640509 -0.0636688 -0.605576 -0.048969 0.0725985 -0.342655 -0.00946804 -0.0245827 -0.0689397 0.0769755 0.0470969 -0.00708811 -0.393915 0.0342736 0.0111242 0.0461876 -0.256629 0.00155081 0.355938 0.308716 -0.0208829 0.281229 
-0.0206089 0.0150794 -0.351183 -0.0439653 0.011124 0.003088 0.126415 -0.0955847 0.0355071 0.135494 0.00876232 -0.00546179 -0.420509 -0.0280285 -0.000156928 -0.342115 -0.00992607 -0.0276014 -0.134499 0.0779778 -0.0171451 0.0906122 -0.371043 -0.00662995 -0.0400149 -0.0455905 0.0350503 0.0419806 0.350995 0.0286814 -0.0134986 0.256274 
-0.0234868 0.0223183 0.304628 -0.0341885 -0.00877313 0.0183277 0.0340192 -0.0780658 -0.0220013 0.0799196 0.00840699 0.0373881 0.397087 -0.0382032 0.135524 0.226571 -0.348382 0.027045 -0.993542 0.0760945 0.21912 0.0258564 0.267191 -0.0422932 -0.116003 -0.00615957 -0.0693115 -0.0186623 0.143596 -0.0818342 -0.00751914 0.126825 
-0.0197106 -0.00123764 0.0651054 0.0211679 0.044471 -0.0712562 -0.0634434 0.0833824 0.0401456 0.0318206 -0.00363852 -0.0010676 0.434679 -0.0219549 0.043237 0.202054 -0.184107 -0.0352527 -0.44421 0.036829 0.0304266 0.00845458 0.0212502 -0.0359654 -0.121643 -0.0365872 0.0232117 0.0318071 0.0587901 0.155838 0.0140282 0.0695623 
0.00964396 -0.00375429 -0.143144 -0.0321686 -0.0345652 0.0893613 0.109761 0.0275264 0.000457582 0.0551888 -0.0273299 0.0119471 -0.169001 0.0314282 -0.0378038 -0.119466 0.0375464 -0.0100438 -0.0329748 0.0467641 -0.048981 0.00957075 -0.123227 -0.035529 0.0150323 -0.0366026 -0.00102383 -0.0380471 0.133814 0.0281208 0.017138 0.0734159 
0.030424 -0.000474512 -0.196252 0.0117443 0.0531966 -0.157417 -0.0814407 -0.155836 -0.109325 0.119872 0.0134995 0.00394729 -0.329306 0.00640829 0.00494332 -0.219481 -0.0505583 0.0135601 -0.0826123 0.00132984 -0.00933828 0.0509922 -0.2299 0.012669 0.0180305 -0.0131848 -0.0983438 -0.0200637 0.208367 0.157101 -0.0260249 0.155635 
0.0501249 0.0379015 0.0327321 -0.0244103 0.0980322 -0.0335058 -0.0188828 0.140628 0.0426006 0.0257312 -0.00603332 0.0511747 0.508955 -0.000133715 0.0362482 0.301603 -0.190298 -0.000772407 -0.512969 -0.0114805 0.06562 0.119136 0.133095 -0.0413834 -0.139961 0.0104066 0.0496029 -0.0390816 0.0024927 0.152871 0.00428707 0.0748208 
0.0217915 0.0662549 -0.317507 -0.00283414 0.0229239 -0.0808315 0.0751042 -0.0236729 -0.0161345 0.186503 0.0593907 0.00678575 -0.465187 -0.00772609 -0.00892832 -0.306875 -0.0155729 -0.0422267 0.00253629 0.0629532 -0.0349707 0.172663 -0.349288 -0.0079877 0.0033408 -0.0329751 -0.0266309 0.0278285 0.226599 0.0597774 -0.00806733 0.282356 
0.0535491 0.0397168 -0.0956558 -0.0070151 0.0488138 -0.0556647 -0.0716841 -0.121651 -0.0311761 0.0313779 -0.0296146 -0.0271173 -0.146983 0.0236406 0.0471272 -0.0894315 0.0311738 0.0301802 -0.0318415 -0.0432048 0.0414475 -0.0885444 -0.0851297 -0.00526434 -0.00347555 0.047667 -0.103186 -0.0365859 0.0791757 0.115722 0.0340441 0.0402177 
-0.0143984 0.0332636 0.0151455 -0.00492319 0.0458493 -0.0358073 0.00443021 -0.048238 0.0190923 -0.0220009 -0.0420478 -0.0052297 0.0301413 0.0314025 0.02469 0.0501883 -0.0830208 -0.0338523 -0.284963 -0.00510232 -0.00460519 -0.441529 0.048551 0.0109318 -0.224006 0.00588495 -0.0286491 -0.00517808 -0.00951089 0.416925 0.0297452 0.0340425 
-0.00962688 -0.0513559 -0.0372603 -0.0264712 0.0271269 0.0275171 0.0353275 0.0152492 0.0460876 0.0145213 -0.060977 0.0424164 0.0198468 0.0331481 0.0325326 -0.0011658 -0.0518619 0.0339613 -0.117006 0.0216414 -0.0287326 -0.183861 -0.00864607 0.0150143 -0.0801721 -0.0327724 -0.0270346 -0.00737847 -0.0201434 0.159456 -0.0307246 -0.0583299 
0.0753133 0.0353996 -0.272662 0.0112173 0.0443756 -0.334241 -0.19721 -0.42361 -0.176241 0.183562 -0.0952095 -0.022367 -0.535215 0.0136563 0.0122832 -0.291455 0.0143829 -0.0302583 -0.0534243 -0.0432644 -0.00717501 -0.198468 -0.290667 0.00237485 -0.0593816 0.051662 -0.234879 -0.00495272 0.342853 0.276948 0.00948327 0.254713 
-0.0150398 0.00417056 -0.0319792 -0.00621712 0.0255707 0.0330448 0.0198968 0.0357431 -0.0121353 -0.0209407 -0.0363873 0.0135232 -0.0114166 0.00816964 -0.0322897 -0.025408 -0.00690723 0.00250567 -0.143232 -0.0319758 -0.0349025 -0.192873 0.00564732 -0.0361173 -0.121587 0.00931091 0.016748 0.0213147 -0.0274624 0.120654 -0.0180515 -0.0644599 
0.0260684 0.0282262 0.0128811 0.0251029 0.015932 -0.00520815 -0.0213165 -0.0796434 -0.0158961 0.100863 -0.0405095 0.0459393 0.0170324 -0.0179854 -0.0149717 0.0180962 -0.0815095 0.00844219 -0.292997 0.0266549 -0.0069222 -0.432113 0.0505081 0.0180991 -0.155391 0.012039 -0.051792 -0.0176782 0.141912 0.151106 0.0508574 0.0435105 
0.000106502 0.0425511 0.0522178 -0.00400815 0.0609802 -0.0444788 -0.00501529 0.03541 -0.0234328 0.0236088 -0.00413847 0.0048857 0.225801 0.0145784 0.0471128 0.104654 -0.0810785 -0.0196044 -0.217401 0.0369991 0.0147636 -0.0103895 0.0398665 -0.0404593 -0.0223589 -0.0350224 0.0094434 -0.0214006 0.0463976 0.0925798 0.0150761 -0.00804232 
0.0699953 0.0643174 -0.250263 0.00813278 0.116698 -0.309101 -0.227239 -0.340585 -0.253301 0.167021 -0.0515359 -0.00677715 -0.564652 -0.0480331 0.022778 -0.313057 -0.0202218 -0.00483478 -0.082258 0.0380873 0.0728079 -0.231498 -0.281416 -0.00224186 -0.124635 -0.00255239 -0.242814 -0.0435657 0.281891 0.273656 -0.0175921 0.275408 
0.0466573 0.0265699 -0.404471 0.0432215 -0.0139672 0.0888071 0.0797853 -0.0131066 -0.00623469 -0.0492735 -0.0166258 -0.0721569 -0.148413 0.00362989 0.013365 -0.29208 -0.0802443 -0.0424444 0.00843182 0.0196916 -0.0861195 0.0418286 -0.431198 -0.0288074 0.00694851 -0.0448682 -0.0146722 -0.00378758 -0.0340785 -0.0305199 0.0400523 -0.0647476 
-0.0148985 -0.0125227 -0.226904 0.0131054 0.0254709 0.207592 0.109733 0.116228 0.0519608 0.0294752 -0.0144671 -0.0353971 -0.268181 0.0303479 0.00692752 -0.191326 0.0305086 -0.0221613 0.0647144 0.0881718 -0.0520978 0.117773 -0.29697 -0.0191467 0.171795 -0.0181166 0.0902471 -0.00328626 0.0902 0.00805583 0.0310192 0.00657253 
0.0103132 -0.0190074 0.0832576 -0.0368522 0.025955 0.00657673 -0.0764674 0.102877 0.0179986 0.000176876 0.0283417 0.0448225 0.50071 -0.0324654 0.0593181 0.266254 -0.173033 -0.00786209 -0.516715 -0.0176187 0.0454506 0.0283789 0.104943 -0.010153 -0.0941775 -0.0133078 0.0915257 -0.0210902 0.0455767 0.172339 0.00980775 0.0764133 
0.0820025 -0.037966 -0.0819602 -0.0645517 -0.0269039 -0.0291822 -0.0988832 0.143552 0.000845907 -0.0394595 0.0826576 -0.0382705 -0.0329901 -0.00215984 0.0432855 -0.0637667 -0.0612161 0.00765692 -0.325961 0.0243338 0.178421 0.0817383 -0.123647 -0.0185672 -0.194327 0.0113799 0.0922837 -0.0419051 -0.122753 0.13942 -0.0120582 0.0566229 
-0.0140235 0.0509417 -0.283646 -0.0112937 0.00154749 0.262544 0.200346 0.100551 0.130868 0.0778747 0.0575104 -0.0462793 -0.399359 -0.0215668 0.0402599 -0.314739 0.0163018 -0.0303848 0.135618 0.0580903 -0.0232937 0.200992 -0.338122 0.0311173 0.219049 -0.00871293 0.134588 -0.0127868 0.122698 0.034621 0.0248323 0.105505 
0.0289887 0.00141025 0.033047 0.0398426 0.0315477 -0.0175208 -0.0378755 0.173124 0.023578 0.00148266 0.00936195 -0.000910187 0.52775 0.0453758 0.0622198 0.292344 -0.168642 0.0219339 -0.465181 -0.00452575 0.0929469 0.128587 0.070213 -0.000380468 -0.100288 -0.0283126 0.0958253 0.0362207 0.0413439 0.146591 0.0339531 0.024585 
-0.0577723 -0.0505485 -0.0147891 -0.00724613 0.032097 0.01692 -0.0435627 -0.0527736 -0.00432533 -0.0371916 -0.0575868 -0.013985 -0.0307121 -0.0269587 -0.0444337 0.000944547 -0.110764 -0.0329147 -0.260396 0.0168872 -0.0439965 -0.284256 -0.0376205 0.00475049 -0.139309 -0.0146965 -0.0144321 0.0176474 -0.0453475 0.33034 -0.0247997 -0.0944422 
0.00113017 0.0289506 -0.0791186 -0.00133981 0.00508827 0.0286788 0.0496223 -0.045102 -0.0231912 0.0179375 0.000514282 0.0114059 -0.110303 -0.00385572 -0.0146954 -0.0893528 0.0115563 0.0150215 -0.054155 0.0638148 -0.0449059 -0.000493397 -0.102891 0.0437744 -0.0119474 0.0286218 0.0241564 -0.0240575 0.0883462 0.0511996 -0.0269466 0.122423 
0.0226798 0.0477812 -0.187413 -0.0320457 -0.00181321 0.0281266 0.00176555 -0.0385339 -0.0568209 0.124138 -0.00814447 -0.0432015 -0.308131 0.0308561 0.0103808 -0.17921 -0.0275074 0.00812735 -0.0348618 0.0673852 0.0433778 0.0883312 -0.190033 -0.0145362 0.00991038 -0.0197914 -0.0125921 0.0402976 0.177625 0.0910767 0.0202814 0.207529 
-0.015788 0.0198645 -0.244836 0.0196728 -0.0305762 0.13051 0.0992725 -0.0167233 0.104036 0.115743 0.00447255 -0.0647308 -0.265337 -0.0364078 0.0255118 -0.15579 0.00590588 -0.0119853 -0.0598561 0.0831292 -0.0365818 0.0764287 -0.248375 0.034634 0.0334091 0.00280288 0.0988881 0.024806 0.189193 0.0720239 0.0109388 0.179548 
0.0429463 0.0463693 0.0257828 -0.0178941 -0.00744448 -0.0390457 -0.0286456 -0.110807 -0.0452623 0.0955804 -0.0965239 0.00962933 0.0439122 -0.0355669 -0.0171392 0.0393309 -0.0711075 0.00858893 -0.225965 0.0106675 -0.0156545 -0.348824 0.0190452 -0.0439021 -0.193016 0.00961119 -0.029615 -0.0142349 0.0790184 0.223823 0.00742799 0.0169372 
-0.0123226 0.031056 -0.253897 -0.00291292 0.00453808 0.0729366 0.0663072 -0.0388209 -0.00259836 0.0154437 0.0137324 -0.0151147 -0.175492 0.00815284 -0.0363422 -0.252904 -0.0709468 0.0172432 -0.153419 -0.0341375 -0.136479 -0.0189794 -0.213489 -0.030766 0.0170255 0.0326261 -0.0413311 -0.041698 -0.000851376 0.0123943 -0.0335169 0.00230331 
-0.00113815 -0.0767649 -0.0685379 -0.0116039 -0.0558203 -0.0192459 -0.0255149 -0.000778559 -0.0279474 -0.0962617 -0.11907 0.0424104 -0.0152145 -0.0187075 -0.0352026 -0.0595749 -0.149522 -0.0442402 -0.332872 -0.0161715 -0.023366 -0.433368 -0.0466396 -0.0128619 -0.292684 0.0476314 -0.0258915 -0.00200621 -0.183972 0.505667 -0.03699 -0.133576 
0.0176366 0.0188331 -0.224213 0.030128 0.023366 0.135034 0.140645 -0.022058 0.111778 0.113347 -0.0274971 -0.0223929 -0.330664 -0.0315994 0.0434089 -0.252421 -0.0455459 -0.033039 -0.0260956 0.0810717 0.00282045 0.128353 -0.313618 0.0107373 0.117372 -0.0150153 0.040377 0.00638211 0.209056 0.021788 -0.0529252 0.150614 
0.00785139 -0.00745641 0.0194566 -0.00695155 0.0266979 0.13108 0.0615881 0.0684693 0.065815 -0.0435651 -0.0929248 0.0165402 0.0226682 -0.0182298 0.0107029 0.0529879 -0.0793263 -0.0241162 -0.333156 -0.0348528 0.0195628 -0.453503 0.0337138 0.0245904 -0.185529 0.0281331 0.0319887 0.019307 -0.121488 0.394839 -0.00648001 -0.0286884 
-0.0549086 0.0997819 -0.290974 0.0364964 0.0383202 0.0779695 0.134195 -0.0336381 -0.0126782 0.145626 -0.0150482 -0.0161568 -0.316317 0.0333054 -0.00767473 -0.274976 -0.0329953 -0.0357311 -0.0779351 0.0529306 -0.0121647 0.109387 -0.25422 0.00371958 0.0148315 -0.0388654 -0.00525092 0.0262731 0.312273 0.0423717 -0.00936714 0.244625 
0.0230107 0.033102 -0.0578034 0.011292 -0.000571096 -0.0254779 -0.0209557 -0.0202147 -0.00239916 0.031243 -0.00321958 -0.030115 -0.144632 -0.0401325 0.00133882 -0.104812 -0.0454477 0.0166601 -0.0593312 0.0491104 0.0135574 -0.00478667 -0.0911985 -0.0184239 -0.0328474 0.00707411 -0.0496905 0.0165285 0.0690667 0.0639489 -0.0217578 0.0439639 
-0.0316651 0.0895834 -0.246435 0.0228695 -0.0245045 -0.0242046 0.0449447 -0.00788368 -0.066144 0.179922 -0.0164784 -0.0546476 -0.325923 0.0164089 -0.0207599 -0.243076 -0.0346924 0.0267949 -0.0532227 0.1541 -0.000403695 0.106474 -0.331087 -0.0376007 -0.0160071 -0.0249166 -0.0201095 0.0366816 0.25461 0.0418591 0.0267254 0.26453 
-0.042639 0.00149075 -0.0369906 -0.017009 -0.00405844 0.100229 0.0511354 0.0565666 0.0387712 -0.0157377 -0.117597 0.0394817 0.0276528 0.00310907 0.0102554 -0.0144046 -0.0662951 -0.00335989 -0.3203 0.00132577 -0.0423014 -0.358695 -0.00767984 0.040574 -0.113536 -0.0238144 0.0864403 0.0364266 -0.0391651 0.337458 -0.0197724 -0.0271194 
0.000304667 0.0058386 -0.727106 0.0399788 0.0716605 0.0633752 -0.00205617 0.0686708 0.0422544 0.0106276 0.0459023 -0.139553 -0.106952 0.0455011 0.0248078 -0.469585 0.0953514 0.0261113 0.347933 -0.0148873 -0.032012 0.0605333 -0.816193 -0.00865549 0.0746078 -0.0198648 0.0726265 0.0438843 0.00607216 0.00117254 0.072814 0.0223733 
-0.0519135 0.0869314 0.0209459 -0.0469242 0.026396 0.121836 0.0710004 -0.0372143 0.0268255 0.0758626 -0.00934167 0.000805752 -0.0322353 0.0307196 -0.0446578 0.0517683 -0.0738423 -0.0330982 -0.224089 0.0468056 -0.0180594 -0.043071 0.0429945 -0.0315534 -0.18165 0.0440862 -0.00888953 -0.0143361 0.206156 0.00517001 0.0328937 0.171533 
-0.0302453 0.0536468 -0.325718 -0.0231385 -0.0250437 0.231496 0.16841 0.0126459 0.11771 0.212221 -0.0166727 -0.0347137 -0.398532 -0.0203241 0.0066289 -0.308648 -0.0217985 -0.0315706 -0.0520338 0.136403 -0.0593385 0.0266852 -0.308303 -0.0194541 0.00644055 -0.0451483 0.101738 0.0221464 0.336046 0.0647595 -0.022819 0.292614 
0.0482428 -0.0502583 -0.541356 -0.00173267 0.0307503 0.0985585 0.115523 0.0140685 0.0131036 -0.0574001 -0.00741919 -0.0327949 -0.210213 -0.0290711 -0.0257101 -0.398618 -0.0371067 0.0327765 0.0108752 -0.0205031 -0.110029 -0.0190476 -0.500771 -0.0141927 0.0459587 -0.0219036 -0.0197445 -0.0282087 -0.0126376 -0.0299963 0.0215476 -0.0444925 
0.00607604 0.00631996 -0.00212625 0.00418139 0.0799121 -0.0828514 -0.0467324 -0.0810312 -0.038994 0.0653039 -0.0943916 0.0235601 0.0574232 0.00616996 0.00446215 0.0013594 -0.0947603 -0.0381036 -0.25375 -0.00782713 -0.00475845 -0.363093 0.052186 -0.0191898 -0.150409 0.0429225 -0.0508789 -0.0260213 0.101251 0.109898 0.0179205 0.0839372 
0.0932493 -0.043411 -0.0578251 -0.00406647 0.0208745 -0.178168 -0.18288 0.178235 0.0281954 -0.132727 0.0445151 -0.000306274 -0.100494 -0.00316511 0.0966709 0.0062179 -0.128911 -0.0244407 -0.513784 0.0329262 0.215513 0.0940487 -0.0782706 -0.00174751 -0.36132 -0.0286487 0.0607563 -0.00480302 -0.157157 0.251933 -0.0702304 0.0963256 
0.012941 0.0292959 0.0773967 0.0182676 0.0272221 -0.0115756 -0.046748 0.0946513 0.00692926 0.0440281 0.0445025 0.0272734 0.543311 0.000564031 0.0521873 0.32486 -0.1445 -0.0353832 -0.457944 0.0101794 0.0525987 0.0694121 0.0617072 -0.00312871 -0.14245 0.032808 0.0963305 0.0339685 0.0432503 0.145022 0.0339641 0.0038095 
-0.0932286 -0.0770358 -0.321524 0.00186202 -0.0299964 0.265224 0.24101 0.268571 0.148964 -0.240535 -0.0251229 -0.00246134 -0.19274 0.0752666 0.0330884 -0.277736 0.0166697 -0.00561493 -0.139526 -0.0466567 -0.110693 0.117797 -0.374898 -0.0336277 0.0126714 0.0234688 0.146456 0.0183595 -0.295407 0.257818 0.0587487 -0.225537 
-0.00616976 -0.0209474 -0.0102959 0.0246692 0.0135036 0.0388508 -0.013688 0.0375127 0.0482659 -0.0609353 -0.0180472 -0.00221079 0.0386608 0.0114437 0.00145505 0.0292738 -0.0763047 -0.00929534 -0.113864 -0.0120174 -0.0238094 -0.187003 0.00108153 -0.0246605 -0.117438 0.00664127 0.047644 -0.0203889 -0.0614607 0.207918 -0.0118725 0.00390927 
-0.00176224 0.0680323 -0.230387 0.0148915 0.0540694 -0.162469 -0.117395 -0.279588 -0.191319 0.146947 0.0142487 0.0050211 -0.496172 -0.0395504 0.053436 -0.307371 -0.00911673 0.00991255 -0.034986 0.0710977 0.0156073 -0.0223263 -0.316647 0.0131458 -0.00352507 -0.0292919 -0.135854 -0.0286666 0.29825 0.206871 -0.0583649 0.258908 
-0.0407577 0.0496106 0.000324632 -0.00273407 0.016848 0.0467315 0.0724119 0.026035 0.0543171 0.042774 -0.00227922 0.0279671 -0.0106674 -0.0113704 -0.0358266 -0.0337628 -0.0379084 0.0330465 -0.0661623 0.0144088 0.0241433 -0.0812939 -0.0615307 0.0170615 0.0100555 -0.0429987 0.0557908 0.00154335 0.0622838 0.1014 -0.00572079 0.0346556 
0.0243367 -0.0573539 0.0294088 0.00149179 0.00502142 0.0599793 0.0186606 0.0291194 0.00179496 -0.0247393 -0.0928068 0.0294781 -0.0236503 -0.0149166 -0.0409057 -0.0103646 -0.112057 0.00196602 -0.248692 -0.0153603 -0.0550303 -0.308468 0.0414739 0.0281127 -0.142489 0.0340521 0.0166663 -0.0239191 -0.0792651 0.328339 0.0088489 -0.0435915 
-0.0706735 0.0647608 -0.2832 0.00749971 -0.044646 0.0587656 0.115272 -0.0688873 -0.00484802 0.167496 0.0515637 -0.0393516 -0.312143 0.0428161 -0.00595269 -0.298903 0.00846589 0.0162758 -0.0769794 0.156239 -0.0622786 0.0577348 -0.320806 0.00297421 -0.0406763 0.011604 0.0278556 0.040841 0.348911 0.0413871 -0.00251511 0.311953 
0.0482677 0.0837947 -0.223718 0.0468561 -0.0245795 -0.0724767 -0.00673043 -0.0300241 -0.0320925 0.213035 -0.0277414 -0.0536425 -0.199813 -0.0276813 -0.0481758 -0.210187 -0.0206103 -0.00235195 -0.0152961 0.0601729 -0.00293788 -0.00430101 -0.19039 0.0363158 -0.0631416 -0.000568668 6.40087e-05 0.00823805 0.280418 0.0391147 -0.0362984 0.192366 
-0.021168 0.0124635 0.0566727 0.00754832 0.00177958 0.00620524 0.0270111 -0.0422186 0.0601305 0.0468579 -0.0179294 0.0315269 -0.0537767 -0.00448313 -0.0286601 -0.0237335 -0.0191951 -0.0256073 -0.133006 0.0620047 -0.00416566 -0.0549278 0.0331265 0.00833488 -0.12393 0.00899241 -0.0133381 -0.0224785 0.0821696 0.00607235 -0.02266 0.0900171 
0.00279928 0.0295532 -0.335786 -0.0243041 -0.0242247 0.200147 0.173497 -0.00157855 0.0936012 0.144402 -0.0203839 -0.019416 -0.380048 -0.0173869 0.0441527 -0.302568 -0.0247449 -0.00762825 -0.0112538 0.0425756 0.0285626 0.0944201 -0.316499 -0.0434481 0.064392 0.0207981 0.0696487 -0.0319467 0.206508 0.0468177 -0.00298893 0.211076 
0.0340127 0.0194804 -0.466978 -0.0269533 0.0560178 -0.00260649 -0.0173868 0.0393 0.0700184 0.00262416 -0.0171072 -0.0279298 -0.020592 -0.014656 -0.0282093 -0.317103 0.093842 0.0211986 0.184957 -0.00894223 -0.0303729 0.102211 -0.494316 -0.0143319 0.0694567 0.0220926 0.0392649 0.0343729 0.00432446 -0.0198063 0.0691556 -0.0248664 
0.0192998 0.00297711 -0.210049 0.0144593 -0.0494963 0.16276 0.163383 -0.0912466 -0.0245752 -0.0725448 0.0369515 -0.0525323 -0.32027 -0.0807127 -0.0370186 -0.248285 -0.151744 0.00817475 -0.567992 -0.0113759 -0.174905 0.247795 -0.119667 -0.0220822 0.0976891 0.0477495 -0.0945729 -0.0299834 -0.12794 0.0479217 -0.0571973 -0.000546519 
0.0430351 0.0709848 -0.300594 0.00869243 0.0556007 -0.216874 -0.10016 -0.288951 -0.146156 0.1425 0.0108102 -0.0652315 -0.583026 0.0132812 0.0201875 -0.402426 -0.0286372 0.0216918 -0.100698 0.0051011 0.0661093 0.054242 -0.366466 0.0190313 -0.00238449 -0.00611129 -0.164992 0.0233309 0.303288 0.251809 -0.0235336 0.311319 
0.00334277 0.0313596 -0.335876 -0.0288897 -0.00142494 0.136637 0.189166 -0.0448801 0.0510929 0.199563 0.0254029 -0.046378 -0.477667 0.0343126 -0.0111263 -0.299907 0.0180639 0.0247004 -0.0802451 0.132122 -0.023173 0.0648377 -0.385894 -0.0235836 0.0126529 -0.0335615 0.00342413 0.024701 0.378274 0.0553396 -0.00538744 0.275992 
0.0444503 0.0363326 -0.315634 -0.0292756 0.0589023 -0.0554662 0.0416993 -0.110639 -0.0198886 0.156916 0.0692286 -0.00162418 -0.568233 0.0168103 0.0326423 -0.366888 -0.0530948 0.00147685 -0.0889503 0.140043 0.0321989 0.154857 -0.397412 -0.0145245 -0.0521228 -0.050291 -0.0807717 -0.0067991 0.351329 0.188987 -0.00915299 0.321842 
-0.0439622 0.0110354 -0.283007 0.025961 0.00269485 0.204411 0.166211 0.0407792 0.0971713 0.0525597 0.00348435 -0.0612095 -0.355188 -0.047098 -0.00798565 -0.253389 0.00599046 0.00507977 0.113386 0.0556556 -0.0192905 0.123094 -0.332373 -0.0160067 0.145251 0.0280021 0.116298 0.0417396 0.165079 0.019017 -0.0209836 0.124848 
0.0322724 0.0543557 -0.763655 -0.0133297 0.012652 0.00102133 -0.0259027 0.113034 0.0696254 0.0290977 0.046663 -0.156119 -0.00485004 0.0670214 -0.00485504 -0.501745 0.142407 -0.0509972 0.372598 0.015737 -0.0482274 0.131739 -0.893324 -0.0172301 0.0730295 0.0304006 0.0729287 -0.0348491 0.0131751 0.0092819 0.10828 -0.0179456 
0.0129042 0.00844572 -0.0335861 0.025582 0.0210136 0.205582 0.116516 0.0198266 0.113974 0.0554988 -0.0801776 -0.00400128 -0.0688545 -0.00347822 0.011413 -0.00355721 -0.0180551 0.0238979 -0.325655 0.0522656 -0.0815495 -0.345162 0.0157735 0.0131736 -0.0637149 -0.0267362 0.0983636 0.0406148 0.159059 0.316583 -0.0462178 0.0682342 
0.0115414 0.0104875 -0.0511231 -0.0171337 -0.0117593 0.012741 0.00896058 -0.0471142 0.0264344 0.0883272 -0.00926589 0.0361052 -0.0476532 -0.0117466 0.00812625 -0.0813507 0.0357126 -0.032993 0.00676079 -0.0263952 0.017484 -0.00860698 -0.0142859 -0.00954562 0.0238137 0.00184545 -0.0161957 0.0128828 0.127661 -0.0231755 -0.0277142 0.045206 
0.009742 0.0608704 -0.280184 -0.0278542 -0.0339971 0.136688 0.121746 0.026972 0.0439563 0.195167 0.0509557 -0.0239501 -0.437211 0.0089667 0.0185236 -0.242615 0.0193968 -0.00573336 -0.105858 0.0982882 -0.047996 0.0971595 -0.281489 0.0275079 0.0243326 -0.0246687 0.058947 -0.00105478 0.34091 0.0610377 -0.051481 0.247124 
-0.0326653 0.0611055 0.0357343 -0.0195203 -0.0122067 0.0551315 0.0529546 0.0366493 0.0790435 0.0342678 -0.0493446 0.029972 0.0324183 -0.0189328 0.0138807 0.0196435 0.0179911 0.0463824 -0.235811 0.0504419 0.0124501 -0.296234 0.0169648 -0.00517361 -0.0726306 -0.0368087 0.0786439 -0.0294906 0.102001 0.188639 0.0231742 0.0747376 
0.0573463 0.0208133 0.0088642 -0.0174168 0.06526 -0.024354 0.012023 0.0834086 0.0494163 0.0109869 0.000472585 0.012377 0.37302 -0.0263148 -0.00536499 0.199948 -0.143044 -0.0151725 -0.330873 -0.0459514 0.0232895 0.0677429 0.054531 0.0341969 -0.100014 -0.007385 -0.00532854 0.0198399 0.0245547 0.143293 0.0203853 0.0259756 
0.00951042 0.04485 -0.0139656 -0.0183974 -0.0264941 0.0244194 0.0555968 0.0365176 -0.0371872 0.0320353 -0.0185976 0.0241669 -0.0653012 0.0244338 -0.0161409 -0.0233513 0.0449084 0.0183869 -0.0628356 -0.00524438 0.000268818 -0.0296692 -0.0433872 0.0272092 -0.0361651 -0.000180617 0.00661956 0.0267415 0.0835821 0.142473 -0.0194795 0.0721134 
0.0498921 0.0499624 -0.0358321 -0.0189409 0.0158089 -0.0290624 -0.0554584 -0.0687566 -0.0746385 0.0662821 -0.0664053 -0.00569151 -0.0563294 0.0163374 0.0384989 -0.0169551 -0.0344469 -0.00593992 -0.0769392 -0.0340288 -0.0198664 -0.278825 0.0454338 0.0301616 -0.10284 0.0119248 -0.034836 0.00955411 0.125678 0.162359 0.0151015 0.066955 
0.0612953 0.00567269 0.0849605 -0.0343003 0.0415412 -0.0918242 -0.0539797 0.143074 0.0689579 0.0466378 0.0433786 0.0463526 0.548069 0.0127613 0.0125714 0.35622 -0.203966 0.0264073 -0.573431 -0.00109119 0.124064 0.0537029 0.0644036 -0.0206003 -0.118332 0.0353458 0.108975 -0.0255028 0.0449497 0.135879 -0.0449172 0.0495964 
0.0458578 -0.0550575 0.0188687 0.028892 -0.0264683 -0.102706 -0.0936589 0.0542226 -0.0453319 0.00593366 0.0299786 0.0294168 -0.0266155 0.00127294 0.0700735 0.00938611 -0.0431509 0.0458996 -0.294983 0.00572393 0.153968 0.0251634 0.00942199 0.00253872 -0.15839 0.00582681 0.0252818 -0.0242846 -0.104348 0.132413 -0.000901479 0.0640595 
0.00178063 -0.0160527 0.0143944 0.0475765 0.042539 -0.00550314 -0.00323507 -0.0649153 0.0231891 -0.0586188 -0.10577 -0.00326352 -0.0850823 0.0372793 -0.0375457 0.0024373 -0.0555625 -0.0358084 -0.315916 0.0253119 -0.013908 -0.347478 -0.0285012 0.0368519 -0.204294 0.00128438 -0.0650775 0.00705553 -0.1105 0.370706 0.00751632 -0.0933612 
0.00593466 0.00907882 -0.273125 2.70266e-05 -0.0341428 0.244556 0.213141 0.0268145 0.0676629 0.126685 0.0314385 -0.0808949 -0.372754 0.00682062 0.0670785 -0.310335 0.0213103 -0.0278738 0.10436 0.0396469 -0.0306167 0.204004 -0.406266 0.0299822 0.160451 -0.015259 0.0968267 -0.0290852 0.145148 0.0431321 -0.0394478 0.143891 
-0.0600179 0.0382375 -0.261738 -0.02731 0.0221828 0.111526 0.169868 0.0333354 0.0949533 0.225046 0.0553935 -0.0263635 -0.349065 0.0366191 -0.0527114 -0.275809 -0.0377277 0.0223713 -0.0443986 0.119557 -0.0536889 0.0546405 -0.337796 0.01677 -0.0396429 0.00313966 0.0784858 0.00251772 0.357504 0.00602318 -0.0157319 0.294427 
-0.035746 0.0298465 0.0333172 0.0431898 -0.0364991 -0.0353047 0.0236532 -0.0380944 -0.0430573 0.0114533 0.0112754 0.000972749 0.0153861 -0.0357762 0.022722 0.0242836 0.0129508 -0.0180164 -0.115034 0.00183622 -0.0388841 -0.105374 -0.0267862 -0.0251733 -0.0243135 -0.0313922 0.0180171 -0.0126914 -0.0561967 0.0769497 -0.0435441 -0.0334187 
-0.0272464 0.0795409 -0.3383 -0.0151546 -0.0372177 0.247855 0.237582 0.0644986 0.176395 0.0776749 0.0350385 -0.0428028 -0.415548 -0.0138681 0.0185972 -0.353277 0.000409159 -0.00134406 0.102534 0.0963796 0.00495286 0.204398 -0.354615 0.00016827 0.16664 0.0158916 0.150746 -0.0280553 0.199104 0.0612157 -0.0114289 0.0749223 
0.027353 0.0650823 -0.0283537 0.0331416 0.0357066 0.189576 0.0819787 0.0580147 0.0555454 0.104268 -0.07835 -0.00530637 -0.0792014 0.0182591 -0.0015799 0.00107873 -0.0299935 0.00467217 -0.282662 0.0776479 -0.0577701 -0.3359 -0.032704 2.17917e-05 -0.088305 -0.0177803 0.0857653 -0.0215903 0.11105 0.266792 -0.01357 0.0328628 
0.0392747 0.0624041 0.0501871 0.0255221 0.0315398 0.140072 0.0821067 0.0626843 0.0706481 0.0943784 -0.0661313 0.0232325 0.0227081 -0.042139 -0.0108114 0.056946 -0.0117228 -0.028485 -0.199197 0.0633335 -0.0129414 -0.317205 0.0100061 0.0361842 -0.0707312 -0.0320664 0.0162694 0.028663 0.0682631 0.253256 0.0298937 0.024207 
-0.00879976 0.0582578 -0.199658 -0.0132089 0.020041 -0.00723451 0.0286786 -0.027376 -0.0128116 0.117043 -0.0211389 -0.0478797 -0.193137 0.0200743 -0.0525355 -0.192847 0.00265675 -0.0474595 -0.0664123 0.0668285 -0.0451729 0.0638137 -0.207041 0.0382143 0.0168229 -0.0083294 0.0011933 -0.0353933 0.149325 0.0479103 -0.0200673 0.180293 
-0.0164019 0.010273 0.0560096 -0.0123427 0.0103571 -0.081956 -0.0134446 -0.0642119 0.0100169 0.0753573 -0.0427324 0.0198986 0.00973026 -0.0304576 0.0466005 0.00335741 -0.136476 -0.0333974 -0.298944 -0.0172083 0.00474275 -0.340508 -0.0114198 0.009656 -0.175413 -0.0245236 -0.0402694 0.000573301 0.113324 0.125274 0.0266475 -0.0020297 
0.0234609 0.019722 -0.316186 0.011117 0.0214256 -0.0060948 0.0266711 -0.0671446 -0.0144769 0.113851 -0.00529786 -0.0678113 -0.491865 -0.0280812 -0.0126267 -0.36011 -0.0734261 -0.0451952 -0.0385023 0.0670028 -0.0352564 0.158539 -0.315612 0.00348326 0.0301925 -0.0352131 -0.0673791 0.012961 0.259555 0.0792164 0.00404229 0.315067 
0.0416918 -0.0594107 0.0789632 -0.0652688 0.0569217 -0.125698 -0.133837 0.0261107 -0.0269837 -0.0430795 0.0521333 -0.0360383 -0.00114326 -0.0683574 0.0595864 0.065761 -0.179545 0.0409122 -0.652001 0.00920208 0.241632 0.0324041 0.085181 0.0169979 -0.316795 -0.0517988 -0.0489583 0.000576077 -0.103564 0.146971 -0.0519596 0.118087 
-0.0286755 -0.0343475 0.0533622 -0.0292901 0.0459416 0.153614 0.152406 0.0991545 0.140732 0.0311097 -0.0621611 0.022798 0.0446205 -0.0304763 -0.00923768 0.00823837 -0.117482 0.0227484 -0.430153 0.0534457 -0.0518606 -0.522649 0.0283964 -0.00760808 -0.204359 0.0371904 0.124597 -0.0410307 -0.0439578 0.472455 0.0417458 -0.0273737 
-0.00419761 0.0923549 -0.244246 0.0142496 -0.0290692 0.105503 0.18066 -0.0290276 0.0865561 0.179002 0.0410442 -0.00905451 -0.279017 -0.0049676 -0.0604081 -0.273038 -0.0363474 0.0288563 -0.022747 0.111846 -0.0574913 0.0198959 -0.253595 -0.0306563 -0.0254454 0.0179015 0.0123334 -0.0144593 0.290721 0.0146564 -0.00718394 0.209347 
0.00423066 0.061503 0.0370579 -0.0202468 0.0289879 -0.0106388 -0.0293903 0.149456 0.1094 -0.0186839 -0.0190407 0.0391876 0.432084 -0.0240308 0.0611571 0.269063 -0.135589 0.0192982 -0.435593 0.00751855 0.0366894 0.133082 0.059003 -0.00476005 -0.0663684 0.017702 0.120778 -0.0412977 -0.0434556 0.122062 -0.0352415 0.00459413 
-0.032476 0.0833903 0.0357057 -0.000500714 -0.0270475 0.106934 0.159782 -0.0494441 -0.00431799 0.143201 -0.0277306 0.0248369 0.0457088 -0.0511591 -0.0029768 0.0843406 -0.0677822 0.0301977 -0.234015 0.135352 0.00848497 -0.123917 0.0382302 0.00186823 -0.212693 -0.028406 0.01353 -0.0393643 0.224753 -0.0321447 -0.0370974 0.198572 
0.0182648 0.0068777 -0.771641 0.0464173 0.012234 0.00110778 -0.0262116 0.0855898 0.0982887 -0.00927406 -0.0248113 -0.0918343 -0.0970394 0.0452422 0.0436701 -0.541621 0.122892 -0.0249027 0.32869 -0.0374242 -0.0336016 0.0595126 -0.824124 0.000771047 0.0636172 -0.0137111 0.0944268 0.029636 0.00528283 -0.00683535 0.103343 0.0379173 
-0.0364254 0.0903277 -0.268634 -0.00204514 -0.0417075 0.252848 0.215653 0.0614356 0.0686283 0.175503 0.0349706 -0.0459887 -0.304741 0.003581 0.013547 -0.276276 0.0215575 -0.00113977 -0.011895 0.0637238 0.00774075 0.0491826 -0.28998 -0.0404318 0.11595 -0.0154701 0.115419 0.0245722 0.185911 0.049146 -0.00115736 0.141843 
0.0508256 0.0139201 0.0214426 -0.0036203 0.0316794 -0.0204615 -0.0543054 0.188684 0.0691176 -0.0152991 -0.0060984 -0.00748564 0.409179 0.00399718 0.0430051 0.250509 -0.146487 -0.0346739 -0.462642 0.0552296 0.0807665 0.135496 0.0457995 0.0348757 -0.163799 0.000391977 0.105237 -0.0217362 -0.0253504 0.0876486 -0.0100916 0.0733872 
0.0132674 0.00341671 -0.0322148 0.0392534 -0.0287894 0.19531 0.14189 0.0829532 0.138538 0.043507 -0.121712 0.0167971 -0.043869 0.0137027 -0.0428203 -0.00874789 -0.0354909 -0.0118268 -0.452879 -0.000117646 -0.0913583 -0.508934 0.0462571 -0.0224931 -0.131095 0.0153835 0.0944321 0.034881 0.0804822 0.400511 -0.00185376 0.0275987 
0.0540067 0.0667909 -0.187256 0.0269484 0.052304 -0.299302 -0.158567 -0.369144 -0.174454 0.178088 -0.0377166 0.00292251 -0.435315 0.0183173 0.00608746 -0.246849 -0.0357089 -0.0171742 -0.0333925 -0.0279698 0.00167942 -0.230725 -0.251714 -0.0346101 -0.11993 -0.030239 -0.283138 -0.0382837 0.252499 0.261104 0.0364541 0.23903 
-0.026372 -0.0263418 -0.167046 0.00449512 -0.0237434 0.120382 0.0859778 -0.0238976 0.027348 -0.0536836 -0.000252195 -0.0026693 -0.303187 -0.0567369 0.0163148 -0.220914 -0.0904489 -0.00665875 -0.283337 0.0630904 -0.0746986 -0.321516 -0.266844 -0.0388518 -0.238215 -0.032591 -0.00043685 -0.000326018 -0.0510957 0.289643 -0.0499818 0.0201773 
-0.0246052 0.0106962 -0.0219013 0.0112832 -0.00569242 0.228309 0.168331 0.0372609 0.0909443 0.130422 -0.117349 0.0138884 0.0187078 -0.0406299 -0.05558 -0.00161114 -0.00719073 0.0420377 -0.36647 0.0451387 -0.0978417 -0.432719 -0.0052921 -0.0212336 -0.0854518 0.0176366 0.101994 -0.0281408 0.170253 0.336293 -0.0480065 0.113952 
0.0161756 0.0600672 -0.350244 -0.0132051 0.0722622 -0.291816 -0.211108 -0.330457 -0.246713 0.183854 -0.0071349 -0.0941669 -0.681157 -0.0283101 0.0506719 -0.392513 -0.0499478 -0.0528593 -0.115914 0.0428087 0.048792 0.0624011 -0.403119 -0.0348514 -0.0277557 -0.014193 -0.256772 -0.0338171 0.377148 0.313258 0.00406449 0.345546 
0.0319419 0.0357036 -0.167826 -0.0273981 0.0182445 -0.0356807 0.0580704 0.00618801 -0.023825 0.112293 0.0245234 -0.0129517 -0.148338 -0.00205861 -0.0254055 -0.180864 -0.0366825 0.00870591 -0.0441784 0.0688439 -0.0343803 -0.0292835 -0.121665 0.042238 -0.0132392 -0.0328432 -0.0504297 0.0339622 0.249578 -0.0248526 -0.0012425 0.145501 
-0.00379527 0.00109392 -0.154528 -0.0266219 0.0216158 0.0871105 0.204808 -0.0679852 0.0022052 -0.0275481 0.0949341 -0.0175397 -0.28771 -0.0622769 -0.0218893 -0.158988 -0.122322 0.0326533 -0.501707 0.00125285 -0.100039 0.222609 -0.100226 -0.00780676 0.0624636 -0.00355951 -0.0740274 -0.0389369 -0.0827708 0.045397 -0.0478098 0.0158689 
0.00306492 0.0620385 -0.0346982 -0.00408657 -0.023458 0.0882145 0.121005 0.0548108 0.0972097 0.0853162 -0.0889516 0.0307683 0.0250178 0.00372235 -0.043673 0.028113 -0.0138105 1.21067e-05 -0.292675 0.0259247 -0.0280102 -0.311098 0.0291507 -0.0398183 -0.0378655 -0.0298736 0.020948 -0.0164976 0.149849 0.27293 -0.0248865 0.0592868 
-0.00260741 -0.0157779 -0.607961 0.0274663 -0.0033151 0.194426 0.139742 -0.051629 0.0457359 -0.0140069 -0.0325602 -0.0753735 -0.32006 -0.0207839 -0.0506688 -0.481995 -0.0549163 -0.0211772 -0.123646 -0.0218031 -0.13162 -0.0135423 -0.527304 0.00700547 -0.0329624 -0.00642661 0.0454936 -0.0404795 0.0271623 -0.0329939 0.0569401 -0.0983551 
0.0566662 0.038848 -0.00449922 -0.0424278 0.0375436 -0.17117 -0.0815344 -0.102616 -0.0660598 0.0615112 -0.0467745 0.0178308 -0.107579 -0.0434714 0.0189089 -0.0203725 -0.049224 -0.011012 -0.302066 0.00324644 0.0552137 -0.132327 -0.0139283 -0.0276705 -0.106899 0.0116959 -0.11565 0.0137562 0.112956 0.122153 0.0410847 0.0881875 
0.00504691 0.0140613 -0.0521188 -0.00852965 -0.029854 -0.0966427 -0.0711976 0.138799 0.0298493 -0.0590338 0.0154241 -0.00846496 -0.0305715 0.00744468 0.00700256 -0.0406235 -0.0849392 -0.0361809 -0.264142 -0.0167763 0.104956 0.0475911 -0.10024 -0.0371652 -0.181749 -0.00220635 0.0716248 -0.0291977 -0.126654 0.141476 -0.0114165 0.041419 
-0.0128462 0.0268074 -0.239349 0.00706653 -0.0129596 0.0456779 0.0732123 -0.0804383 -0.0244404 0.14566 0.0214782 -0.0788798 -0.271247 0.0207267 -0.0273227 -0.197996 0.0229995 -0.0411047 -0.0292178 0.0502428 -0.00471051 0.0525147 -0.254263 0.0374486 0.0280606 0.0376674 -0.0346425 -0.0290876 0.254594 0.0479941 0.0164641 0.170864 
-0.0412386 -0.0461489 0.0430876 3.90645e-05 0.0136035 -0.0150337 0.000621895 0.0313376 -0.0381449 -0.0413043 0.0294858 0.0102469 0.026462 -0.018259 -0.024241 0.0114417 -0.019892 -0.0403135 0.00804624 0.0437956 -0.0219359 0.058395 0.0388117 -0.033931 0.0650195 -0.0392473 -0.0188347 0.0215626 0.0207152 -0.0234414 -0.033836 0.0368723 
-0.0120989 -0.0562526 0.131786 0.0102985 -0.00926201 -0.190408 -0.0969 -0.0612447 -0.11634 -0.0318914 -0.0284598 0.0506669 0.0936042 -0.0638863 0.0823768 0.0125502 -0.227709 -0.00846359 -0.708113 0.0274058 0.178325 -0.0615433 0.115562 -0.013897 -0.27772 0.0359247 -0.114656 0.0322893 -0.0978326 0.0848375 -0.0174229 0.0717726 
-0.0211867 -0.012802 -0.347607 0.017793 -0.00504804 0.0930904 0.124537 -0.0307884 -0.0165802 0.0247148 0.00894124 -0.0742165 -0.205636 -0.0287373 -0.0424597 -0.273378 -0.0340374 -0.0192559 -0.110812 0.0297543 -0.113288 -0.0022079 -0.277154 -0.00624282 0.0233327 -0.0153489 -0.0307819 0.0330671 -0.0166389 -0.0172143 -0.00722153 -0.033057 
-7.86457e-05 -0.0463232 -0.0139273 -0.018148 0.0343472 -0.0628364 0.0231732 -0.0745533 -0.0419304 -0.0273503 -0.0863292 -0.00651783 -0.00637835 -0.0243054 0.0400248 -0.0235491 -0.054247 -0.0448003 -0.227105 0.0309993 0.0184113 -0.29368 -0.0176794 0.00766612 -0.137811 0.038501 -0.0380117 -0.0204828 -0.0921775 0.328439 -0.0290915 -0.00905057 
0.0148088 0.00511415 -0.0392608 0.00117407 0.0143058 0.187622 0.124114 0.0715621 0.0839354 0.0626382 -0.09299 -0.0247555 0.0340489 -0.0338806 -0.0192512 0.0140216 -0.0570025 0.0244557 -0.321147 -0.0125719 -0.0746769 -0.341562 0.017298 0.0395298 -0.117278 -0.0373063 0.0548325 -0.00177614 0.0645637 0.319215 -0.0248073 0.00605429 
0.0261542 0.00135308 -0.105114 -0.00883112 -0.0218518 -0.0429765 -0.00163463 -0.0230537 -0.0553404 0.0694052 0.0397658 -0.050822 -0.186028 -0.0189766 0.00889331 -0.109255 0.0030402 -0.0312445 -0.00770969 0.021244 0.0529134 0.0483734 -0.198252 -0.00493177 -0.0123111 -0.0271251 0.0120746 -0.0193735 0.145667 0.0294598 0.00041162 0.138076 
0.0221447 0.0221575 -0.07878 0.0136273 0.0716702 -0.198661 -0.118005 -0.15972 -0.108532 0.0514074 -0.0656315 -0.0384787 -0.271332 0.017088 -0.00936633 -0.152539 -0.0528441 -0.0348493 -0.0433675 0.0377059 0.0394067 -0.160514 -0.14872 -0.00861027 -0.0514379 -0.00658921 -0.128959 -0.0155328 0.163582 0.146702 0.0393572 0.162859 
0.00192675 0.0383982 0.0240417 -0.0045828 0.0153515 0.0722977 0.0472897 -0.0281145 -0.0346755 0.0656366 0.0119084 -0.0133916 -0.0586419 0.0151267 0.00887999 -0.00521557 -0.041507 -0.041127 -0.165375 0.0520399 -0.0111337 -0.00863142 0.0495287 -0.0419154 -0.143019 0.0197494 -0.00404371 0.0151766 0.143174 -0.0271605 0.0122927 0.105783 
0.0687513 -0.00166369 0.0435644 0.00596989 0.042468 -0.0168787 -0.0104374 0.145185 0.0372324 0.00746786 0.0306297 0.0244375 0.548535 -0.0104721 0.00189626 0.382041 -0.182396 -0.00424529 -0.513852 0.00745751 0.0592656 0.0729445 0.132491 -0.00147648 -0.143654 -0.0469943 0.0506675 -0.0392164 0.00551884 0.190188 0.0317973 0.010479 
-0.0123306 0.014482 0.0675709 -0.0193589 -0.00089043 -0.115729 -0.0705553 -0.00502914 -0.0278357 -0.0629877 -0.00642142 0.036994 0.0156737 -0.0477501 0.0834226 0.0446231 -0.101341 -0.00435893 -0.415706 -0.0231255 0.178078 -0.0192438 0.0564926 -0.0324916 -0.208447 0.0192255 -0.0614687 -0.0207226 -0.0672024 0.0668177 -0.0512437 0.0754939 
0.0754228 0.0898347 -0.200887 -0.0124516 0.0582029 -0.235231 -0.13681 -0.37471 -0.216221 0.126165 -0.104116 -0.00148911 -0.438842 0.0133543 0.0431228 -0.241466 -0.0247762 -0.0419965 -0.0327665 -0.0289886 -0.0215316 -0.30306 -0.247956 -0.0206984 -0.0717305 0.0259055 -0.241814 -0.00989684 0.297131 0.309439 0.00254408 0.212705 
0.0478351 0.0158113 0.0631536 -0.0247203 0.0319074 0.0339673 -0.0239202 0.0926239 -0.0120214 0.000182176 0.0148963 0.00711019 0.222214 -0.0175011 0.0394015 0.14472 -0.0801988 -0.0285875 -0.182146 -0.00807749 -0.00846053 -0.0102224 0.0565402 0.04312 -0.0108612 -0.0194338 0.0283437 -0.0033981 -0.00127512 0.0912394 -0.0253701 -0.0121689 
-0.000794681 0.00192381 -0.202387 0.0304364 0.0466631 -0.0154516 0.0438736 0.00220708 0.0218487 0.116244 0.0111084 -0.0512559 -0.282175 -0.00638101 0.018412 -0.180851 -0.0370325 0.00590006 -0.0888195 0.0805889 0.0196158 0.0828309 -0.192645 0.00720634 -0.0471255 -0.0522561 -0.0595552 -0.00725274 0.282372 0.0252321 -0.00831918 0.184247 
-0.0244613 0.060317 -0.312679 -0.0312286 -0.0184194 0.288192 0.215191 0.0881848 0.162364 0.106179 0.0237769 -0.0894742 -0.429586 -0.0277399 0.0619037 -0.383713 0.0282258 -0.0418999 0.0718163 0.0845597 0.02466 0.198372 -0.45763 -0.0321657 0.256276 -0.0231348 0.126156 0.00925884 0.15143 -0.00894996 0.00500876 0.113675 
0.0475529 -0.0173959 0.105472 -0.0559828 -0.0273362 -0.107811 -0.127464 0.0147257 -0.0683947 -0.0235238 0.0434728 -0.0058231 -0.0179575 -0.0196352 0.0831943 0.0656552 -0.179467 0.0206658 -0.672318 0.0318435 0.190671 -0.00172634 0.0895883 -0.026647 -0.308967 -0.0221391 -0.0204648 0.00143991 -0.0917209 0.151444 -0.06963 0.0529629 
-0.00358379 0.0108163 -0.12831 -0.0295542 0.0122533 -0.171131 -0.0731722 -0.211783 -0.135033 0.125805 0.00145681 -0.0210026 -0.284347 0.000106146 0.00943134 -0.16772 -0.0292267 0.0368897 -0.02686 0.019757 0.0474255 -0.182441 -0.102647 0.0287233 -0.0584374 0.0328071 -0.169045 -0.0256777 0.175476 0.19871 0.0101405 0.132514 
0.0711918 0.0268082 0.0558815 0.0404773 0.0367329 -0.0447701 -0.0371949 0.173294 0.0255974 0.0153458 -0.0130081 0.0119325 0.509092 0.00325749 0.0501186 0.309526 -0.161493 -0.0145149 -0.511384 -0.0316719 0.118167 0.0685826 0.13177 0.0212708 -0.150604 -0.0181551 0.116641 -0.0216205 -0.0185559 0.117546 0.0177678 0.0806942 
0.0056795 -0.0122305 0.0199941 -0.0287315 0.0457405 -0.0457199 -0.0168431 0.178214 -0.000488421 0.034282 0.0165004 -0.0207372 0.274159 0.0202573 0.0609215 0.211477 -0.118124 -0.026125 -0.383882 -0.0050134 0.0923783 0.175202 0.0316241 -0.00434551 -0.134858 0.0130743 0.0980683 -0.0118863 -0.0500736 0.0984234 -0.0407767 0.0382484 
0.0235035 -0.00145383 0.0308756 -0.00641188 0.0721026 -0.0413731 -0.063771 0.0322897 -0.00556137 0.024274 -0.0496904 0.0351025 0.230278 0.0469668 0.0345766 0.111808 -0.165027 0.0125454 -0.378228 -0.0069145 0.0159994 -0.133438 0.0691421 0.0375633 -0.111587 0.0267031 -0.0300099 -0.0129585 0.0548289 0.152424 0.0491607 0.093872 
0.0111935 -0.0177177 -0.0714414 0.0139121 0.0587599 -0.0763092 -0.0537654 0.170199 0.0689245 0.00190673 0.0959281 0.0301198 0.350721 -0.0101793 0.0263532 0.232991 -0.14358 0.0320222 -0.540021 0.069997 0.100283 0.200224 -0.00665977 -0.0117803 -0.179125 -0.0498958 0.116954 -0.0158579 -0.0476928 0.146233 -0.0627262 0.0810849 
0.0241763 0.0361133 0.0343608 -0.00311018 -0.0178803 -0.0450236 -0.010162 -0.0309398 -0.0318085 0.0579644 -0.0512381 -0.0232052 0.0446035 0.0322813 -0.0253689 -0.00131235 -0.0400784 0.0110875 -0.203217 0.0200363 -0.0643316 -0.23672 -0.0152469 -0.0288863 -0.157555 0.0505266 -0.0320471 0.0289445 0.118224 0.197819 0.0438317 0.0238252 
0.0288981 0.00300447 0.0526308 0.00710699 0.0888955 0.0111392 -0.0584436 0.0796499 0.0286281 0.0447233 0.00663565 -0.0110672 0.507187 0.0159094 0.0352761 0.245689 -0.170779 0.0109975 -0.490125 -0.0268185 0.0512779 0.00700111 0.072921 0.00962088 -0.125387 0.0434684 0.0457855 -0.0104618 0.0697189 0.142585 0.0220323 0.0375236 
0.0167491 0.00218214 0.0653288 0.0259375 0.02636 -0.166236 -0.0290437 -0.156503 -0.0206896 0.085477 -0.10602 0.0136137 0.0429616 -0.0207769 0.0393245 0.0804782 -0.107797 0.0284913 -0.431353 -0.0228999 0.00784115 -0.561708 0.05709 -0.0408758 -0.213928 0.0143555 -0.109076 -0.00664108 0.225855 0.203343 0.113092 0.0769423 
-0.0526836 0.0161214 -0.0693945 -0.019348 -0.047129 0.000692978 0.00798557 0.0282669 0.0158825 -0.064736 -0.0535353 -0.0100561 -0.157427 0.00886247 -0.00126731 -0.131047 0.0132372 0.0186704 -0.0786074 -0.0215108 -0.0505393 -0.337226 -0.133901 -0.0335727 -0.12407 0.0540731 -0.00225372 -0.0106141 -0.0165676 0.467828 0.0403832 -0.0762429 
-0.0191993 -0.0155714 -0.0301514 -0.00278898 -0.0211751 0.000914894 -0.0206518 -0.0473036 0.0322688 -0.119135 -0.0363901 -0.0186792 -0.0143535 -0.0369633 -0.0144182 0.00939301 -0.0305383 0.0221757 -0.243485 -0.0109183 -0.0432651 -0.253407 -0.0167916 0.0377302 -0.180075 -0.022766 -0.0247397 -0.0331853 -0.098701 0.284103 -0.0272677 -0.104278 
0.0396207 0.0148184 -0.14511 -0.0181688 -0.0184151 0.0877482 0.1141 0.053615 0.0289981 -0.021229 0.0391943 -0.0171547 -0.300536 -0.0598526 -0.0114652 -0.232929 -0.0221843 -0.00749012 -0.107628 0.0828903 -0.0325094 0.0425542 -0.206635 -0.0367082 0.00563464 -0.0202412 0.0182093 -0.0389267 0.016994 0.0228604 -0.0513585 0.0207235 
0.00449936 0.0310135 -0.0852301 -0.0112082 0.055446 -0.0532477 -0.0160104 0.182128 0.030397 -0.0129323 0.0133513 0.000162761 -0.0141979 0.0198995 0.080615 -0.0403102 -0.0265501 0.0177105 -0.19826 -0.0131731 0.133075 -0.00627011 -0.171584 -0.03825 -0.143957 -0.0160466 0.0353565 -0.0355229 -0.0962289 0.0985252 -0.00670688 0.0257789 
-0.0149993 0.00769251 0.0604265 -0.035689 0.0691223 -0.0101128 -0.0675901 0.0355402 0.00664942 0.0282211 0.0409372 0.0451766 0.364763 0.0431051 0.0190192 0.224481 -0.13286 0.0333162 -0.370532 -0.0216225 -0.00429892 -0.0497104 0.053873 0.0269909 -0.0706718 0.0025041 0.0627427 0.0034516 0.0807369 0.157218 0.0417658 0.0922206 
-0.0750299 0.0770454 -0.437273 0.0186479 0.0353342 0.155016 0.258726 -0.0547957 0.0806016 0.283923 -0.0140348 -0.0252286 -0.486438 0.00625651 -0.0114783 -0.376137 -0.008723 -0.00018826 -0.111219 0.162582 -0.0198194 0.0588092 -0.413312 -0.021348 0.0121673 -0.0186663 0.102418 -0.0166969 0.501289 0.0258043 -0.0360943 0.37488 
0.0549679 -0.0103999 0.0417574 0.0423997 0.0143996 0.00506385 -0.0487669 0.0834638 0.0261096 -0.0130743 0.0449009 -0.00452509 0.22323 0.00793958 0.0366145 0.093246 -0.0869646 -0.00955721 -0.207831 0.0241931 0.0100737 0.0258988 -0.0113234 0.0366715 0.00720231 0.0379781 -0.00542415 0.0308837 0.013948 0.0714526 0.0353615 0.020483 
0.0336468 -0.0131946 0.0169542 -0.0197695 -0.0128766 0.0897661 0.0300267 0.0805357 0.0931436 -0.0654612 -0.0847518 0.0404342 0.0343999 -0.0373836 -0.033691 0.0590236 -0.0690587 -0.0181055 -0.261783 0.0485148 0.00271183 -0.352684 0.0544437 0.0127622 -0.161553 -0.0303098 0.0397396 -0.0222395 -0.059903 0.328731 0.0286871 -0.0355254 
-0.0416858 -0.00648713 0.0463922 -2.25241e-05 -0.0238331 -0.0453123 -0.00357986 -0.060409 -0.0201538 0.0557446 0.00554575 -0.035277 -0.0237252 -0.0255135 -0.0418474 0.0266285 -0.0499451 0.0186788 -0.113163 -0.0371206 -0.00693539 -0.158615 0.033558 -0.0247247 -0.0599171 -0.0151397 -0.0158188 -0.0225525 0.0621618 0.0456964 0.0544867 0.0384825 
0.0106777 0.0277666 -0.156579 0.0127429 0.0208654 0.0889376 0.107756 0.00844283 0.0311815 0.0186043 0.000472348 -0.025309 -0.225213 -0.0399635 -0.0420854 -0.215064 0.0141405 0.0059737 -0.101781 0.0294868 -0.0966729 0.116547 -0.176705 0.0116076 0.00992743 -0.0257596 0.0536113 0.0370945 0.0118301 0.0330898 -0.0137842 -0.0129535 
0.0149462 0.0495038 0.0278667 -0.00302786 0.00960791 -0.0398423 -0.00447038 -0.0323979 -0.0576457 0.0959194 -0.066927 0.0374691 -0.0762083 -0.0171459 -0.0398228 -0.0367928 0.0199123 -0.0234879 -0.0717603 0.0326986 -0.03946 -0.215834 -0.00159129 -0.00398034 -0.0746194 -0.000606196 -0.0557677 -0.0471089 0.0902498 0.164869 -0.00623619 0.0701597 
0.017929 -0.0134668 -0.189384 -0.0334256 0.00268285 0.121121 0.124637 0.0318749 0.0453207 0.0492135 0.0203359 -0.0145267 -0.19119 0.0181993 0.0225342 -0.161512 0.0348938 -0.0177899 -0.0374574 0.0126006 0.00529961 0.045418 -0.148505 -0.034118 0.00946928 -0.0461667 0.013289 -0.0274247 0.0931842 0.00306629 0.0282475 0.119547 
-0.0247166 0.0742218 -0.132047 0.0334714 0.00872117 0.143409 0.106505 -0.024976 0.0872914 0.0702268 0.0287001 -0.0386891 -0.23734 -0.00217647 0.00582557 -0.185405 0.012727 0.0140738 -0.0534033 0.0403198 -0.0216322 0.0703104 -0.168759 -0.0181404 0.0772014 0.00902685 0.049049 0.0311182 0.186287 0.0229695 0.00422436 0.0887769 
-0.0128856 -0.0151764 -0.209524 -0.0392169 -0.0308246 0.121659 0.0978238 -0.101785 -0.0446167 -0.00870499 0.0564602 -0.0423229 -0.238968 -0.051858 -0.0512429 -0.229373 -0.0861679 -0.016392 -0.363935 -0.0181031 -0.169857 0.105139 -0.121741 -0.0404822 0.0508219 0.0473229 -0.0305092 0.0177116 -0.0818737 -0.0188336 0.0189924 -0.016959 
-0.0408818 -0.0269248 0.0393172 -0.0118034 0.0409795 0.16424 0.115407 0.00247832 0.108123 0.0168 -0.120126 -0.0172241 0.0183411 -0.0240051 -0.0223429 0.0340116 -0.0326821 -0.0310714 -0.34945 0.0542157 -0.0679923 -0.494553 0.0583509 0.0311169 -0.202441 0.0257197 0.0642917 0.0117955 0.0076246 0.402001 -0.0125109 0.00183535 
-0.00179692 -0.0385827 0.0105942 0.00665027 -0.0427502 -0.0306541 -0.000658634 0.00108553 0.0157702 0.0108239 -0.0749972 -0.00600723 -0.079883 -0.000327833 0.0442516 0.00505009 -0.0281124 0.0219557 -0.099585 0.0100183 -0.0546317 -0.211966 -0.0192658 -0.0165922 -0.129707 -0.0261401 0.0162205 0.00268662 -0.0189545 0.258415 0.0445384 -0.0454198 
-0.0259685 0.0380648 0.293977 -0.00908871 -0.0459655 0.0207954 0.0365043 -0.0330971 -0.0458013 0.066193 0.00628487 -0.0140266 0.385135 -0.0211124 0.145475 0.226906 -0.342938 -0.000365316 -0.935969 0.00746359 0.223445 0.039931 0.258855 -0.0215965 -0.0998889 0.00764378 -0.000362022 -0.0424593 0.144336 -0.0536346 -0.0585081 0.12054 
0.0297743 0.0206633 0.139136 -0.00365413 -0.0188872 -0.186357 -0.104235 -0.056883 -0.0707735 -0.0771252 0.00459245 0.0127877 0.0539127 -0.0719111 0.0392785 0.0659299 -0.203854 -0.0258135 -0.663004 0.0363116 0.243377 -0.00732952 0.12091 -0.0168936 -0.322001 0.0194568 -0.0723951 0.0269746 -0.0675635 0.155611 -0.0814164 0.0674544 
0.0138083 -0.00650498 -0.240723 0.0265338 -0.00574277 -0.0412907 0.00373918 -0.0203288 -0.0234091 0.0907249 0.0182851 -0.0691434 -0.421035 -0.00247288 0.0233308 -0.322945 -0.0335139 0.0226237 -0.0105928 0.0835016 -0.00547493 0.144389 -0.300626 -0.0107732 -0.000258972 -0.0563912 -0.0551735 -0.0190138 0.211272 0.0976922 -0.0224096 0.216924 
0.0197357 -0.000253833 0.0313392 0.0328729 0.0834037 -0.0582469 -0.0252673 0.0450761 0.0297297 0.00595213 0.00332422 -0.0258954 0.458476 0.00180433 0.0131482 0.220131 -0.187309 -0.0253886 -0.503258 0.00430972 -0.016444 -0.081021 0.121184 0.020835 -0.1321 -0.0169572 -0.0256353 0.0211941 0.101966 0.184222 0.00615572 0.0481296 
0.00584278 0.0387259 -0.287473 0.00395646 0.00646267 0.124245 0.149546 -0.0487648 0.0661456 0.15223 -0.0121229 -0.0529217 -0.278476 0.00980504 -0.0110711 -0.257114 0.0259758 0.0354408 -0.0389415 0.111419 0.0338211 0.0708683 -0.250335 -0.0372159 -0.0192842 0.00957676 0.0797257 0.0274193 0.234586 0.00203977 -0.0474588 0.234894 
-0.00262093 -0.0430274 -0.252875 -0.0232858 0.0364271 0.046945 0.0237088 0.0255719 -0.0173852 -0.0258053 -0.0396916 -0.074695 -0.0841507 0.00998671 -0.0221564 -0.224926 0.00136345 -0.0371436 0.0277743 -0.0069331 0.00363913 0.000791575 -0.245786 -0.0410967 -0.00245557 9.17633e-06 0.0476384 -0.00148307 -0.0438614 0.0110461 0.0263093 -0.0913018 
-0.035201 0.0541794 -0.011545 0.0543043 0.0316725 -0.0262611 0.00288582 -0.0419164 -0.0344706 0.0647122 -0.0430255 -0.00111006 0.0148597 0.0391889 0.00975434 0.0547218 -0.0292461 3.26237e-05 -0.226959 0.030936 -0.0464949 -0.223386 0.0385147 -0.00431503 -0.11956 0.0310973 0.00316285 0.0354512 0.102235 0.0867719 0.0036355 0.0620876 
-0.0193179 0.0261676 -0.267937 0.0223745 -0.039745 0.237491 0.18379 0.069703 0.095237 0.110805 0.0501339 -0.0457362 -0.364724 -0.0203528 0.00784791 -0.29969 0.0257083 0.00640734 0.103442 0.102435 -0.0183882 0.166148 -0.373284 0.0235931 0.175321 -0.0167659 0.118342 0.0401006 0.139348 0.0461797 0.0151985 0.119448 
-0.0131027 0.000704413 0.186592 -0.0339337 -0.0329547 -0.169712 -0.0785272 -0.101553 -0.0556897 -0.0330287 0.0454262 0.00792146 0.146611 -0.0783147 0.0674184 0.0759615 -0.233383 0.0223246 -0.797845 -0.0108576 0.21094 -0.0557275 0.165641 -0.0128428 -0.273386 0.000980612 -0.104108 -0.041691 -0.0629058 0.0538277 -0.0916699 0.116527 
0.0384131 0.00960621 0.15028 0.00566992 0.0393108 -0.144436 -0.156324 -0.0283864 -0.125575 -0.0207732 -0.00302936 0.0366247 0.10202 -0.059198 0.0832114 0.0527529 -0.275688 -0.0342251 -0.698587 -0.00658358 0.204908 0.0039459 0.0980643 -0.000116914 -0.315989 0.0235437 -0.064149 0.00367528 -0.0662656 0.155572 -0.0796765 0.0914987 
0.0584042 0.000186677 -0.00625788 -0.0151676 0.0819062 -0.0429247 -0.0869285 0.130771 0.0424311 -0.0139195 0.0683899 -0.000630514 0.368715 -0.0304711 0.00165492 0.240721 -0.129399 0.0385704 -0.470453 0.0250102 0.108118 0.122868 0.0508994 0.0161101 -0.157364 -0.012068 0.0641608 -0.021718 -0.0366944 0.105613 0.010924 0.0961704 
0.0237725 0.0220231 -0.15069 0.0301307 0.0404855 -0.0258531 0.0685559 -0.0238191 0.0126115 0.0998718 0.0442063 -0.015401 -0.137276 -0.0415033 -0.0333313 -0.15979 0.0171227 -0.0219966 -0.00551898 0.0511494 0.00280092 0.0599295 -0.201354 -0.0328035 -0.0344166 -0.0206494 -0.0267662 0.000142073 0.188543 0.0219553 -0.0164978 0.172278 
0.0244679 0.00315375 -0.136695 0.0258118 -0.0481634 0.151644 0.115965 0.0619595 0.0463622 -0.0564893 0.0584657 -0.0476473 -0.279946 0.0209761 0.0105367 -0.255824 -0.0892228 -0.0201129 -0.171038 -0.0129239 -0.034174 0.206549 -0.27891 -0.0307893 0.0892216 0.0138423 0.0623925 0.018033 -0.00501336 0.0350921 -0.0335586 0.0153032 
0.0255999 -0.0149883 -0.72698 0.0503397 0.06151 0.0530392 0.0341161 0.0398199 0.0151276 0.0115664 -0.00820325 -0.132845 -0.0961438 0.0613439 0.0030218 -0.466651 0.0960279 0.0133951 0.340124 -0.0437781 -0.0573915 0.0981196 -0.820311 0.0351669 0.0711903 0.0397774 0.0739013 0.00878487 -0.0146024 -0.0308738 0.0789473 0.0310953 
-0.0212724 -0.00382331 -0.148331 -0.0197518 -0.047589 -0.0120192 0.0337888 -0.0617655 -0.0355575 0.136354 0.00233063 0.00713254 -0.204548 0.0257242 -0.0038165 -0.224874 -0.0138916 -0.00238916 -0.0720829 0.0872791 -0.027347 0.0483094 -0.205552 -0.0385982 -0.0139983 -0.044189 -0.0174536 0.00577657 0.173624 0.00893169 -0.0174605 0.19223 
-0.0466523 0.020053 -0.260361 -0.0376497 0.0370133 0.221708 0.180555 0.0231651 0.0795914 0.147899 0.00373373 -0.00813121 -0.359985 0.0373241 0.0612357 -0.239068 -0.0305012 -0.0260289 0.00597619 0.120907 0.0257268 0.0792602 -0.371822 -0.0261866 0.0848132 0.0114623 0.11706 -0.0145028 0.237656 0.0159466 0.0343108 0.183524 
-0.0124822 0.0350963 0.0370801 -0.015341 -0.0157708 0.0182708 0.0564332 0.0211928 0.053164 0.0430444 -0.040494 -0.0286287 0.0358503 -0.0083488 -0.0476487 -0.00379959 -0.0226759 0.00753383 -0.173866 -0.00907457 -0.00709047 -0.202849 0.00594102 0.0152542 -0.118139 -0.0188745 -0.0188549 0.0189333 -0.00746851 0.140408 -0.000359889 0.0254492 
0.0242615 -0.0418509 -0.645758 -0.00332064 0.00695881 0.112059 0.097992 -0.0347568 0.0560064 -0.111582 -0.0144622 -0.0675945 -0.177791 0.000500258 -0.038473 -0.498126 0.0651862 -0.0112072 0.0490094 -0.0181651 -0.0566485 -0.029201 -0.638921 0.0332957 0.0529323 -0.0267662 0.0244934 0.0352358 -0.163755 -0.0448285 0.0964473 -0.181688 
0.0111117 0.0402898 0.0230369 0.0462988 0.0607228 -0.042796 -0.0472434 0.0645744 0.0252002 0.0242981 -0.0146563 -0.024507 0.380622 -0.00895497 0.0209075 0.218884 -0.0961258 -0.034518 -0.357366 0.00705512 -0.0027728 0.00213668 0.0455896 0.0143342 -0.045968 -0.0332573 0.0286634 0.0342314 0.0084469 0.109769 -0.0192978 0.0565238 
-0.0481906 0.0320639 0.0371503 0.0241626 0.0156943 0.104691 0.0860405 -0.0417666 0.0267508 0.0901723 -0.0170711 -0.0106699 0.0311063 0.023301 -0.0212873 0.0443001 -0.0268958 0.0236747 -0.166446 0.0278567 -0.0280082 -0.0553607 0.056124 -0.0401973 -0.073042 -0.00852206 0.0560819 -0.0306544 0.158417 -0.0516071 0.0253897 0.119886 
-0.0216412 -0.0227327 -0.00163096 -0.0132033 -0.0173072 -0.00259276 -0.0183662 -0.0088808 -0.0201876 -0.0167539 -0.091563 -0.0133985 -0.029678 -0.0105303 -0.0355078 -0.0140683 -0.106579 -0.00597102 -0.23708 -0.00894013 -0.0233341 -0.334678 -0.0116465 -0.013382 -0.159543 0.0255385 -0.0287857 -0.0116657 -0.0649261 0.39233 -0.0307263 -0.0746545 
0.019725 0.041708 -0.166118 -0.0300994 -0.00708491 -0.0747189 0.0764224 0.00497075 0.00425279 0.0586327 -0.0136007 -0.0326974 -0.233258 -0.0131077 0.0202661 -0.163306 0.00513864 0.00742555 -0.0818703 0.0431158 -0.0496997 0.0609791 -0.20011 0.0433793 -0.0493971 -0.0494951 -0.0336423 0.0205392 0.169147 0.0565209 0.0323828 0.149064 
-0.0382306 0.0354304 -0.2114 0.0149438 -0.00109905 -0.0559675 0.0517226 -0.0418379 -0.0411278 0.129889 0.0398394 0.00247814 -0.312498 0.0235429 -0.0195566 -0.177649 -0.0388163 0.0121073 -0.0904369 0.0870316 -0.0386899 0.0713271 -0.240146 -0.00258654 -0.00742396 0.0278975 -0.0571643 0.0422085 0.19767 0.0292487 -0.0372245 0.21265 
0.0154849 0.0260413 -0.176058 -0.0249939 0.0302138 0.181681 0.130035 0.0196256 0.0876739 0.0386979 -0.0250931 -0.00139514 -0.246178 0.00707742 0.0307658 -0.177116 -0.0254047 0.0198629 0.0788448 0.0483679 -0.0209564 0.0870562 -0.241811 0.0359346 0.0975069 -0.0182491 0.0933132 0.0283925 0.0773437 -0.0232444 -0.00121658 0.019786 
-0.0130019 0.0205177 -0.01775 0.00414556 0.0318398 -0.0127243 -0.00599508 -0.0469278 -0.041792 -0.015552 -0.0760268 -0.00910188 -0.0649207 -0.0472987 0.0333707 -0.0031275 -0.0371465 0.0229684 -0.22292 -0.0408123 -0.0396097 -0.360748 0.0266877 0.00226153 -0.169592 0.0609085 -0.0593425 -0.0311072 -0.0249676 0.468458 -0.00394939 -0.0342982 
0.0283349 0.0395221 -0.0314849 0.0157066 0.0241315 0.126378 0.0542807 -0.00888507 0.0702913 0.0485231 -0.0652902 -0.0399557 0.0116818 -0.0197285 0.00676051 0.00461998 -0.057911 -0.0328301 -0.247573 0.00336814 -0.0309472 -0.316817 0.0342411 -0.0224324 -0.105142 -0.0248093 0.0457053 -0.00838415 0.0108165 0.312575 -0.0443771 0.0625111 
0.00275301 -0.0647995 -0.699782 0.0153021 -0.0300803 0.129007 0.0814293 0.0103969 0.039808 -0.0578692 0.0082621 -0.116679 -0.231252 -0.00148252 0.0211455 -0.54235 0.0213131 -0.0227199 0.0674092 0.0157871 -0.0603093 -0.010668 -0.726395 -0.0137389 0.0846199 0.0137975 0.0437794 -0.0397439 -0.149474 -0.00257123 0.128172 -0.188863 
0.0201454 0.0606626 0.0450608 -0.0488937 -0.00682234 0.0503059 0.122618 -0.0530157 0.00141158 0.112125 0.00369153 0.00397076 -0.0781066 -0.0388489 -0.0492317 -0.0290376 -0.134533 0.0376024