{
  "layerType": "Dense",
  "inputShape": 5,
  "outputShape": 64,
  "weights": [
    [-0.115588, 0.882862, -0.952035, 0.01247, -0.734387, -1.12434, -0.733452, -0.032253, 0.72804, 0.0890281, 0.467604, 0.521819, 0.747772, 0.508917, 0.104972, -0.0420607, -0.228411, 0.247058, 1.12704, -0.165026, 0.353301, 0.573929, -1.18754, -1.13426, -1.37532, -0.773738, -0.791546, 0.337423, -0.643738, 0.121011, 1.09534, 0.483552, 0.477997, -0.180314, 0.33798, 0.261773, -0.520601, -1.1025, -0.668964, -0.773584, -0.500181, -0.147782, 0.427188, -0.24972, 1.22082, 0.0907348, -0.234, 0.424513, 0.400965, 0.353761, -0.571859, -1.14443, -0.910821, 0.0876093, -0.128917, 0.670729, 0.57706, -0.247481, 0.138012, -1.14399, 0.434366, 0.135076, 0.215253, -0.37148],
    [-0.0782239, 0.313107, 0.377722, 0.324312, -0.781078, -0.571521, 0.37684, -0.00899258, -0.768407, 0.905392, -0.759474, -1.70266, -1.17001, 0.751766, 0.283135, 0.409769, -0.514243, 0.195026, -0.572996, -0.319639, -0.946473, -0.544626, 0.363951, -0.102355, 0.850138, 0.122138, -0.0397367, -0.491991, -0.0606322, -0.0946814, 1.07892, 0.316937, 0.880967, -0.0589129, 0.718946, -0.020471, -0.188029, 0.620207, 0.553107, -0.522681, 0.471159, -0.802087, 0.827205, 0.291804, 0.715046, -0.337337, -1.48073, -0.360598, 1.3205, -1.46676, -0.340882, -0.624071, 0.416116, 0.193484, -0.59101, 0.11897, 0.8142, -0.0754614, -1.2858, -0.914266, -0.107922, 0.144109, -0.0699165, 0.898458],
    [0.47167, 0.380179, 0.7732, 1.0766, -0.208058, 1.13946, 0.539572, 0.522068, 0.499673, -0.394602, 0.277258, 0.0406263, 0.223531, -0.752426, -0.370808, 0.345507, 0.671794, -0.201169, 0.828822, -0.568855, -0.305738, -1.00151, -0.331787, 0.0169137, 0.550573, -0.130352, 0.0709131, -0.839918, -0.515159, -0.557107, -0.456803, -0.309646, 0.577513, -0.546379, 0.037646, 0.0754882, -0.106424, -0.167622, -0.00504486, 0.306523, -0.94633, -0.269149, 0.165179, -1.02697, 0.481259, 0.401097, -0.411786, -0.104983, -0.152979, 0.470285, 0.208787, -0.313386, -1.64127, -0.222742, -0.660647, 0.509185, 0.284512, 1.19273, -0.11487, 0.595042, -0.625417, 0.107987, -0.108289, -0.352647],
    [1.34654, 0.579271, -0.713917, 0.0394447, -0.293296, 0.218501, 0.351501, 0.54121, -0.16013, 0.409189, 0.263449, 0.0135782, 0.281008, -1.51084, 0.31097, 0.318087, 1.01018, 0.38297, -0.514867, -0.834977, 0.223104, 0.533217, -0.537421, 0.385634, 0.00177162, 0.505051, 0.26407, 0.877545, -0.792286, 0.57252, -0.0479315, 0.459964, 0.201313, 0.801401, -0.118986, 1.40577, 0.385515, 0.612817, -1.21022, -0.305322, -0.263955, -0.119598, 0.241166, 1.17222, 0.451544, -0.0954487, 0.598423, 0.676249, -0.608111, -0.981996, 0.243139, 0.557461, 0.802753, -0.170499, -0.347539, 0.154082, -0.14656, 0.783237, 1.10989, 0.371392, -0.301636, -0.670904, -1.25317, 0.151461],
    [0.462535, -0.633426, -0.661156, 0.249138, -0.420365, -0.398122, 0.00827263, -0.383728, 0.30133, 0.497256, -0.875068, 0.0148875, -0.477272, 0.230107, -1.08279, 0.0483594, 0.657848, -0.168783, 0.182965, 0.340158, -0.16171, 0.106773, -0.947533, -1.26932, 0.243469, -0.551553, -0.0761521, 0.401779, 1.18177, -0.700082, -0.417057, 0.354915, -0.234787, -0.508428, -0.613758, -0.175387, -0.246958, 0.947121, 0.393883, 0.995407, 1.14776, 0.486199, -0.489995, -0.196047, -0.590076, -0.639459, 0.16839, -0.846696, -0.366909, -0.989768, 0.475875, 0.283531, 0.662682, -0.664217, 0.327055, 0.0428379, -0.747541, -0.388326, 0.514473, 0.0702342, -0.10622, -0.00858359, 0.177322, 0.0785448]
  ],
  "bias": [
    0.0440268, 0.000774609, -0.00239213, -0.0188487, 0.0457511, -0.00445374, -0.0453765, 0.0476113, -0.0429331, 0.0294112, 0.0186371, 0.0440486, 0.0590249, 0.0702557, -0.0215569, -0.0416077, 0.0317061, 0.0588539, -0.0083464, -0.00489006, -0.0467867, 0.0574314, 0.0667025, -0.0114319, 0.0484833, 0.026079, 0.0296996, 0.0135156, 0.0568593, 0.0489567, -0.00818091, -0.0462622, -0.0323969, 0.00808939, 0.0460354, 0.055838, -0.00543105, -0.0483448, 0.0716452, 0.0390234, 0.00312237, 0.00368643, 0.0233048, 0.0580126, -0.0339408, 0.0329848, -0.0464923, 0.0574429, 0.0633736, -0.0255111, -0.0303162, -0.0231005, 0.0152108, 0.0563676, 0.0315814, 0.0129321, 0.0435543, 0.0241199, 0.0566272, 0.0505072, -0.00783419, 0.0743197, -0.0462538, 0.0587702
  ]
}
