{
  "layerType": "Dense",
  "inputShape": 64,
  "outputShape": 32,
  "weights": [
    [-0.188984, 0.116788, -0.0658565, 0.0875643, -0.0427465, 0.203493, 0.234329, -0.0127349, 0.24411, 0.16555, -0.00102994, 0.025103, -0.30079, -0.0457948, 0.0573664, 0.48745, 0.0339447, -0.0602718, 0.334956, 0.0311436, -0.0141325, 0.102359, -0.0665122, -0.0956328, 0.0248848, 0.327292, -0.106141, -0.119776, -0.00231463, -0.0148922, -0.373301, 0.0362179],
    [-0.0297464, -0.177484, 0.129419, -0.120531, -0.285321, 0.161555, -0.000113995, 0.1177, 0.108706, -0.0904655, -0.0163112, -0.0282649, 0.0216045, 0.22608, -0.0748725, 0.00396697, 0.0887937, 0.161858, 0.19006, -0.0766149, 0.341183, -0.174003, 0.326444, 0.245308, 0.034314, 0.144017, 0.273538, -0.0430006, -0.284065, -0.146519, -0.00176964, 0.0497053],
    [0.205098, 0.0425881, 0.10325, -0.0121394, 0.0504235, -0.0333754, -0.040759, 0.00840332, -0.168467, 0.389481, 0.191383, 0.122894, -0.149004, 0.154513, -0.157736, -0.181563, 0.127414, -0.0490278, 0.112899, 0.00381668, 0.218862, 0.317005, -0.142327, 0.19471, -0.223315, -0.185048, -0.262038, 0.116513, -0.187183, 0.0162235, -0.357483, -0.133313],
    [0.245205, 0.255766, -0.0789139, -0.0285183, -0.113264, 0.144322, 0.0547076, -0.170021, 0.0376337, 0.131866, -0.0135639, -0.139903, -0.0402822, 0.120038, -0.156247, 0.0616902, 0.0104543, 0.0549695, -0.0275406, 0.0200231, -0.0768485, -0.130337, -0.246327, -0.082061, -0.0741718, -0.125341, -0.14992, -0.0754106, -0.0670275, 0.360629, 0.00154342, 0.0664331],
    [0.17019, 0.198067, 0.0602553, 0.348459, 0.0537191, -0.136186, -0.0268088, 0.112545, 0.0159588, 0.531224, -0.229898, 0.228543, -0.183115, -0.278397, 0.0650624, 0.212277, 0.00367772, -0.142183, -0.0833309, -0.078606, -0.110022, -0.134558, 0.0808974, -0.231568, -0.173072, -0.132442, 0.131415, 0.316956, 0.0618245, -0.061955, -0.177414, -0.15801],
    [0.274732, -0.17281, 0.184489, -0.0105498, 0.170746, -0.0328915, -0.0817884, -0.143971, -0.0198598, -0.0370294, -0.23938, -0.00372856, -0.308524, 0.0830864, 0.274871, 0.159633, -0.0271691, 0.0890523, 0.0816086, 0.139044, 0.0962687, -0.119734, -0.136911, 0.0950707, 0.209139, -0.164634, 0.0776988, 0.00450932, 0.0554147, -0.229986, 0.255438, 0.127237],
    [0.136355, 0.129136, 0.270663, -0.103282, -0.114483, -0.0259496, 0.0334175, -0.110524, 0.0307285, 0.164017, -0.000368357, -0.259262, 0.0921006, 0.120511, -0.0831135, -0.0370743, -0.0143603, -0.0278958, -0.508606, -0.0693325, 0.202566, -0.260421, -0.0802333, 0.196834, 0.215452, -0.14396, -0.00104184, -0.0841573, 0.265491, 0.0506188, 0.192541, 0.381827],
    [-0.30634, 0.0672901, -0.221093, 0.131183, -0.0339228, 0.166476, -0.153018, 0.0821938, -0.348788, 0.0632499, 0.168563, -0.46112, 0.0146991, -0.416281, 0.0490724, 0.195695, 0.153426, 0.243795, 0.139235, 0.104112, -0.250348, -0.132568, 0.00169201, -0.0520955, -0.150528, 0.196947, 0.0253406, -0.115932, -0.0961296, -0.150417, -0.029586, 0.133846],
    [0.0359477, -0.0615881, 0.0439585, -0.0145183, -0.295959, 0.195847, -0.11798, -0.0359344, -0.233581, 0.036528, 0.174378, 0.00491601, -0.0628564, 0.0018037, 0.0429508, 0.139387, 0.0125904, 0.462767, -0.155409, -0.0420591, -0.0516009, 0.100055, -0.00770541, -0.0560369, -0.368478, 0.316972, -0.132185, 0.152927, -0.164211, 0.112487, 0.0405373, 0.0891186],
    [-0.133026, 0.105444, -0.0388365, -0.108396, -0.0390083, 0.0933485, 0.00715038, -0.083473, 0.118688, -0.212858, -0.171847, -0.241129, 0.137979, -0.0204001, 0.0517855, -0.10017, -0.0918141, 0.120422, -0.0185979, 0.548778, -0.184401, 0.208783, -0.0724629, 0.0249558, -0.228547, -0.0849665, -0.000726125, -0.528931, 0.0142063, -0.0493151, 0.174207, -0.169857],
    [-0.104891, -0.198011, -0.180756, -0.0765069, 0.00866319, 0.0443076, -0.111529, -0.0479339, 0.203286, 0.0115224, 0.158653, 0.171687, 0.0709882, -0.209496, 0.0683719, -0.0969733, 0.272311, -0.0495272, 0.148184, -0.0935818, 0.0350575, -0.115282, 0.0347742, 0.0343165, -0.0331367, -0.122338, -0.00192069, 0.0968349, 0.0245081, 0.00709148, 0.242318, -0.035902],
    [-0.0365522, -0.0128048, -0.00216546, 0.114055, -0.0754151, 0.189506, -0.229547, -0.101551, -0.164674, -0.00543248, -0.034905, -0.315345, -0.146668, -0.183177, -0.358413, 0.391945, -0.152423, 0.161436, 0.258002, -0.0379744, -0.0114055, 0.0134315, -0.189006, -0.0717694, 0.0657139, 0.0290609, -0.0620188, 0.163022, 0.102241, -0.0158033, -0.111791, -0.0397065],
    [-0.265982, 0.170924, 0.177628, 0.147205, -0.0569721, 0.279768, -0.0400066, 0.0203682, 0.114798, 0.0157579, 0.134405, -0.12617, -0.149114, 0.078905, -0.184651, 0.0826924, 0.158706, 0.0637032, 0.386391, 0.108159, -0.396098, -0.122035, 0.0765722, -0.128907, 0.146468, -0.284596, -0.206627, 0.211954, 0.179927, -0.232839, -0.0485157, 0.284074],
    [-0.00227609, 0.442227, -0.08621, 0.0356389, 0.097201, -0.115521, -0.0369279, -0.12722, 0.0562832, 0.0668594, 0.0758976, -0.0284082, -0.106727, -0.0803948, 0.0757464, -0.158839, -0.145217, -0.0166046, 0.0206804, 0.183041, 0.318909, 0.230136, 0.155612, -0.126459, -0.0616458, 0.235973, 0.137653, 0.141243, 0.109421, -0.0165519, 0.360556, -0.237907],
    [0.160034, -0.22758, 0.211896, -0.0871716, 0.00370157, 0.0681211, 0.00204764, 0.0850049, 0.0500312, 0.0320739, -0.191026, -0.418975, 0.0402887, -0.015883, -0.269301, 0.028809, -0.127059, -0.269212, -0.032719, 0.0109981, -0.152611, -0.0532005, 0.306125, -0.24847, 0.210618, 0.181377, -0.395062, -0.10248, -0.0528505, 0.323789, -0.0864134, 0.173186],
    [0.0967267, 0.216695, -0.0129356, -0.358516, 0.0262717, 0.118757, 0.0982966, 0.087958, 0.338916, 0.0675938, -0.0389261, -0.254588, -0.022273, -0.15136, -0.0642681, 0.0141776, 0.123994, 0.00932551, -0.0947129, -0.12069, 0.0188867, -0.0375833, 0.002873, 0.0792065, 0.184647, -0.0433159, -0.113668, -0.214553, -0.0663675, 0.00592415, -0.27043, -0.0756534],
    [0.0230728, -0.0576538, -0.181312, 0.186628, -0.312423, -0.0296823, 0.0852871, -0.106814, -0.1538, 0.0244739, -0.148226, 0.111013, -0.265114, -0.0148477, -0.199872, -0.194392, 0.242057, -0.121792, 0.511873, -0.0696735, 0.102885, 0.023618, -0.395248, 0.136698, 0.0992254, -0.150582, -0.0961271, 0.225675, 0.188022, -0.162136, 0.0936768, -0.0912596],
    [-0.0306217, 0.0736716, -0.130309, -0.336194, 0.256275, 0.0327414, 0.192342, 0.220026, 0.184718, 0.122219, -0.205313, 0.079778, 0.129942, -0.294211, 0.0861639, 0.444405, -0.0199294, 0.0547717, 0.162142, -0.0255678, -0.129627, -0.152957, 0.0807053, 0.0308927, -0.0042663, -0.426787, -0.0291638, -0.160044, -0.148133, -0.103304, -0.635684, 0.302661],
    [-0.356798, 0.103723, 0.0786591, -0.0174319, 0.122199, 0.129031, -0.172174, -0.0275026, -0.010273, -0.0671662, -0.123125, -0.126243, -0.174057, -0.133409, 0.0415191, 0.14554, 0.0713805, 0.114816, 0.161765, -0.00345549, 0.234197, -0.184291, -0.0860055, -0.0126325, -0.237467, 0.214546, -0.116966, 0.0853819, -0.243189, 0.15412, -0.00866502, 0.2461],
    [0.243832, -0.0897129, 0.29393, -0.021047, 0.0281908, 0.216901, -0.0597673, 0.0560786, -0.0111025, 0.123329, -0.247551, 0.000687782, 0.15371, -0.141966, 0.303277, 0.752577, -0.0441148, 0.118257, -0.00791001, 0.30894, 0.108707, 0.20831, -0.0347806, -0.0137242, -0.14245, 0.247041, -0.0484023, -0.24837, -0.205018, -0.134277, 0.187764, 0.16242],
    [-0.00739978, 0.0181563, -0.0521721, -0.0563636, -0.152653, 0.237733, -0.158063, 0.0725784, 0.249021, -0.0627882, 0.170796, -0.340291, 0.0958262, 0.346106, -0.364572, -0.0128551, -0.237667, -0.129352, 0.228434, 0.299872, 0.0124118, 0.0809213, -0.0306359, 0.00563721, -0.212506, -0.10782, -0.114265, 0.13014, 0.164364, 0.115288, -0.0402603, -0.0251654],
    [-0.0356237, -0.251782, -0.0474732, -0.164304, -0.0840536, 0.134805, -0.182404, 0.103867, -0.142803, 0.103409, -0.320895, -0.0782294, -0.19937, -0.232638, 0.134157, -0.0678171, 0.218232, 0.248117, 0.0292041, 0.0484018, -0.0254179, -0.294927, 0.0464163, 0.0494586, 0.313401, -0.00719369, -0.041345, -0.191604, 0.0737586, -0.0994147, -0.258865, -0.178539],
    [0.0920688, -0.0837889, 0.19617, 0.0550948, 0.0996948, 0.0343719, -0.0274861, 0.0458812, -0.185497, -0.066238, 0.371721, -0.157138, -0.234522, 0.206532, 0.168384, -0.00737207, -0.111276, -0.0293876, -0.0904946, 0.216871, 0.0906003, 0.271689, 0.150331, -0.100237, 0.188459, 0.0618411, -0.0497071, 0.126637, 0.0560604, 0.0403962, 0.277023, -0.0105423],
    [-0.0529889, -0.385055, -0.00754361, 0.06643, 0.206907, 0.104577, -0.00505666, 0.160471, 0.0832285, 0.55138, 0.181774, 0.283469, -0.0294365, 0.18343, -0.0327065, 0.277173, 0.147021, 0.127196, -0.0150869, -0.188866, 0.145815, 0.0944758, -0.0494476, 0.247342, -0.172157, -0.236411, 0.136066, -0.355591, -0.0740125, 0.0470989, -0.456026, -0.107149],
    [-0.0864156, -0.140944, 0.134746, 0.133167, -0.00854954, 0.323376, -0.234405, -0.495311, -0.0738268, -0.0114062, 0.372502, 0.0423784, 0.1935, 0.320623, 0.382662, -0.145877, -0.365554, 0.161485, -0.139347, 0.213394, -0.0802345, -0.0747823, 0.170109, 0.199654, 0.127571, -0.100454, 0.0425087, 0.137515, 0.259971, 0.114529, -0.224388, 0.101423],
    [-0.0746896, 0.297116, 0.158527, -0.0483411, 0.250415, -0.0325473, -0.272234, 0.334901, 0.116885, 0.12591, -0.00514187, 0.0251896, 0.142145, 0.335964, -0.0274271, 0.148219, -0.0700672, -0.40764, -0.0120767, 0.082906, -0.0581916, 0.142317, -0.0765522, -0.00566553, -0.114538, -0.264079, -0.058532, -0.139323, 0.0997826, -0.0410731, -0.0631765, -0.0651417],
    [-0.00148785, -0.301072, -0.410869, 0.193163, 0.0548118, -0.102542, -0.0195794, 0.197521, -0.329226, 0.153848, -0.39282, 0.168772, 0.229932, -0.0521069, 0.219461, -0.0777762, 0.158026, 0.090575, 0.359875, 0.274268, 0.395576, -0.100914, 0.0763128, -0.127246, 0.0162121, 0.0350313, 0.116889, 0.0546547, -0.149494, -0.0541062, -0.00806601, -0.0534451],
    [-0.0783699, -0.105295, -0.127695, -0.129455, -0.107655, 0.131034, -0.0713633, 0.116298, -0.0881473, 0.315478, 0.138671, -0.219971, 0.1069, -0.114359, 0.0946012, -0.175908, -0.0992844, -0.0241144, 0.0294913, 0.0905525, -0.19163, -0.0977633, -0.251486, 0.0227088, 0.0493288, 0.0276266, 0.159347, 0.177271, 0.159805, 0.0475244, -0.102853, 0.145457],
    [0.188515, 0.118258, 0.169347, 0.305678, 0.0988152, 0.00579423, 0.0518656, 0.0878875, -0.0793873, -0.0222364, -0.103566, 0.122585, 0.00558809, 0.12599, 0.384104, 0.14053, -0.0551601, -0.0487901, 0.0985315, -0.0139584, -0.0573007, 0.0765286, -0.0893257, -0.0511388, 0.0880018, -0.0220206, -0.171183, -0.0419494, -0.213517, 0.292841, 0.25267, 0.177882],
    [-0.0600198, -0.265866, 0.115554, -0.173802, -0.195214, 0.448424, -0.447204, 0.509976, 0.126597, 0.0345826, -0.115161, -0.149842, -0.136287, -0.0347794, -0.275617, 0.044721, -0.227776, -0.056683, -0.100051, -0.0837763, -0.108173, 0.247014, 0.277558, 0.0518233, 0.207012, 0.0951967, -0.311102, 0.133597, 0.174787, -0.365839, -0.0459563, -0.0606903],
    [0.0924508, 0.131906, -0.00559965, -0.05811, 0.197051, -0.303494, -0.196045, -0.132223, -0.169309, -0.0540778, -0.183478, 0.225858, 0.108041, -0.00225407, -0.112991, 0.110024, 0.215744, 0.369659, -0.264981, -0.0816812, 0.0105021, 0.222175, 0.1259, -0.20972, 0.182184, -0.236968, -0.136681, 0.238095, -0.00427878, -0.1873, 0.121509, 0.233836],
    [0.244016, -0.137438, 0.185559, -0.0845146, -0.159458, -0.343654, 0.194555, 0.174919, -0.088402, 0.00314132, 0.0764421, 0.486979, 0.0879264, 0.292047, 0.0508325, 0.130088, 0.0456778, 0.071369, -0.394354, -0.0400948, -0.0196959, -0.396305, -0.0835323, -0.0961559, 0.0903782, -0.0628921, -0.010764, 0.237917, -0.0560845, 0.0796558, -0.111556, 0.0664506],
    [-0.083946, 0.097571, 0.117077, -0.02154, 0.378842, -0.0352347, 0.240358, 0.154917, 0.0105462, 0.0428655, 0.192572, -0.204526, 0.066265, -0.221328, 0.177417, 0.0874215, 0.0840869, -0.1462, 0.00532945, -0.227968, -0.167983, 0.361906, 0.0312825, -0.0391392, 0.0392666, -0.147078, -0.102214, 0.0923634, -0.215111, 0.0222673, -0.402326, 0.152103],
    [0.040315, -0.0650681, 0.0995767, 0.275002, -0.0880322, 0.0248758, -0.17129, 0.0216355, 0.118327, 0.0905761, 0.00450415, -0.0720411, 0.0573544, -0.313216, -0.270454, -0.0833019, -0.0353876, -0.0319317, -0.0515101, 0.0513427, -0.407641, -0.190642, -0.00276233, 0.0502969, 0.204612, 0.0176268, -0.0206652, 0.131595, -0.0995418, 0.0433321, -0.00956046, -0.0819931],
    [0.0650018, 0.390588, -0.0363896, 0.0930172, -0.0984435, 0.185907, -0.203971, 0.40525, -0.284409, 0.0931141, 0.0236253, 0.064316, 0.0786022, 0.086107, -0.00503716, 0.117261, -0.282302, -0.240292, 0.229291, 0.0427312, 0.159173, -0.171515, 0.124677, -0.164963, -0.375666, -0.0907944, 0.068347, -0.0104707, 0.12771, -0.336803, -0.20469, 0.0976215],
    [-0.284635, 0.170947, -0.0087033, -0.211885, -0.126092, 0.280347, -0.269521, 0.101275, 0.0844276, 0.199892, 0.0596427, 0.158672, -0.056292, 0.114741, -0.27728, 0.0827409, 0.28314, 0.0423126, -0.234812, -0.286777, -0.0604698, 0.301955, 0.191948, 0.179745, -0.00334101, -0.0540654, -0.120804, -0.0789618, 0.0504786, 0.0640463, -0.311895, 0.271636],
    [0.0281544, -0.0282727, -0.00609357, -0.0754422, 0.23595, 0.125391, -0.140634, -0.12339, -0.0204374, -0.259695, 0.0531559, 0.0928969, 0.248675, 0.00809908, -0.0490423, -0.101703, 0.0568435, 0.0829265, 0.246046, -0.167627, -0.0278794, -0.0850198, 0.214773, -0.25715, -0.111881, -0.09174, -0.00414281, 0.148675, 0.37224, -0.0725692, 0.232068, 0.0642326],
    [-0.181694, 0.228739, -0.0975248, -0.0963616, 0.0460622, -0.122572, 0.0341519, -0.0977943, -0.155858, -0.191102, -0.22712, 0.0566393, 0.146712, 0.360527, -0.312941, -0.000218054, 0.147707, -0.436644, -0.160909, 0.19722, -0.0177074, 0.0179831, 0.0775634, 0.0600172, 0.093514, 0.0156438, -0.0850124, 0.0823872, 0.00427517, 0.116087, 0.00657569, -0.189605],
    [0.0252801, -0.248054, 0.0950014, 0.396224, -0.166108, -0.340229, -0.278655, -0.158956, -0.12079, 0.105263, 0.318033, 0.167237, -0.203533, 0.132305, 0.12914, -0.218093, -0.163134, -0.0580908, -0.105264, 0.16545, -0.0745161, 0.235961, -0.419502, 0.0567793, 0.0451363, -0.104028, -0.164064, -0.0810822, 0.151792, -0.301583, -0.358054, 0.208704],
    [-0.0388733, -0.310615, -0.0777261, 0.442808, 0.249659, -0.215565, -0.017739, 0.183277, 0.314622, 0.0575993, 0.156532, 0.246254, 0.0242829, 0.203571, 0.188271, -0.270025, 0.329578, 0.183005, -0.188907, -0.0934286, 0.226755, 0.133225, -0.0521341, -0.312857, 0.22428, -0.221251, -0.131508, 0.0586552, -0.196325, -0.00363144, -0.030554, -0.0353525],
    [-0.0238602, 0.223974, 0.0220739, -0.14629, -0.0588103, -0.19155, 0.170957, -0.0988518, 0.179774, -0.274077, 0.0108234, 0.0438282, -0.160928, 0.110074, 0.386121, 0.133256, -0.169573, 0.155199, 0.025932, 0.218937, -0.117623, 0.1787, 0.0873326, -0.0622672, 0.0835549, -0.183516, -0.178858, 0.262866, -0.0450897, -0.168308, -0.0275348, -0.126335],
    [0.0229227, 0.13339, 0.155358, -0.105035, -0.160494, 0.129054, -0.0477524, -0.0654877, 0.221732, 0.276198, 0.101934, 0.13051, -0.236754, -0.241119, 0.198527, 0.119774, 0.0919632, -0.0948432, 0.118464, -0.015729, -0.0407577, 0.0455837, 0.0514593, -0.142965, -0.10318, -0.15024, 0.197109, -0.143863, -0.187686, 0.103839, 0.254837, 0.137397],
    [0.155258, -0.141874, 0.232477, 0.195549, -0.222644, 0.0171955, 0.0955598, -0.0489531, 0.1292, -0.0133618, -0.190015, 0.0968103, -0.135841, -0.308174, 0.337867, -0.0958898, 0.0321541, 0.00221917, -0.0378679, 0.215264, 0.240521, -0.103894, 0.385193, -0.193503, -0.00679432, 0.00831105, 0.166015, 0.0629392, -0.103361, -0.0370807, 0.102577, -0.0797026],
    [0.0228589, 0.151895, -0.0524156, 0.470649, -0.0361818, -0.167211, -0.00263797, -0.10015, 0.0976547, 0.282884, 0.065144, -0.0591286, 0.0676459, 0.0346093, -0.00345733, -0.106134, 0.34816, -0.0909148, 0.0474752, -0.0701452, 0.0687189, -0.0153938, 0.169707, -0.0699201, 0.248709, -0.128236, -0.0649012, 0.0550101, -0.138917, -0.239806, 0.347949, 0.138439],
    [0.0273357, -0.0587631, -0.186432, 0.0943543, -0.156737, -0.015384, -0.152586, -0.30462, -0.0423658, 0.141317, -0.0827749, 0.146287, 0.0827681, -0.150866, 0.143198, 0.168378, 0.0543649, -0.00481107, -0.242179, 0.0616815, -0.0301727, 0.258111, 0.0754938, 0.155103, -0.0355671, -0.151804, 0.197253, -0.315853, -0.0367266, 0.219356, 0.0674875, 0.0226325],
    [-0.212363, -0.125801, 0.0440977, 0.148457, 0.128248, 0.308992, 0.115153, 0.226936, 0.184749, 0.442809, -0.00760466, -0.202276, 0.151945, -0.0525409, 0.0958091, -0.114997, 0.109838, 0.0559259, -0.157033, 0.0489971, 0.122051, -0.262959, 0.114801, 0.0312798, -0.155415, -0.0771401, -0.276369, -0.0494226, 0.124158, 0.177928, 0.247698, -0.102593],
    [0.320002, -0.174559, -0.198392, -0.198647, -0.00400378, -0.203516, -0.238811, -0.0704083, -0.189007, -0.0277806, -0.123526, 0.183257, -0.042659, 0.0437674, 0.147884, -0.0618237, -0.157849, 0.0368828, -0.0679962, 0.21478, -0.200475, -0.213024, -0.130026, -0.103327, -0.148534, -0.169737, -0.0869784, -0.00923846, 0.266255, 0.279889, 0.0566371, -0.181591],
    [0.0604493, 0.0652331, -0.310337, -0.428101, 0.191481, 0.0222968, -0.287386, 0.140983, 0.245611, 0.0950935, 0.0487797, -0.0890739, 0.222781, -0.154846, 0.101644, 0.0400948, 0.0203313, 0.0827006, 0.142132, -0.522789, 0.11964, -0.0810986, 0.157593, -0.421075, -0.088452, -0.0404565, -0.400809, 0.126556, 0.0335222, -0.0706664, -0.0574287, 0.229127],
    [0.194668, 0.1547, 0.0961546, 0.211223, 0.404113, -0.32704, -0.166162, 0.208759, 0.258205, 0.0907102, 0.00520765, 0.174631, -0.114412, 0.150562, 0.154781, -0.0376009, 0.136325, -0.151067, -0.103294, 0.235194, 0.0886948, -0.0294717, -0.253853, -0.0698621, 0.0448467, 0.177521, -0.290598, 0.133617, -0.0841729, 0.0503905, 0.275163, -0.349375],
    [0.260275, 0.150616, -0.109358, 0.113143, 0.0556682, 0.016081, -0.0100234, -0.145719, -0.191537, -0.0213406, -0.00762527, 0.0744305, 0.162797, 0.175523, -0.185656, -0.0593084, 0.010336, -0.168513, 0.120707, -0.104156, 0.109087, 0.184083, -0.136159, -0.128463, 0.268289, 0.201091, 0.17364, -0.0214261, 0.203893, 0.0582059, -0.153555, -0.0636391],
    [-0.157633, 0.103411, 0.117294, 0.0196803, -0.225069, 0.0331815, -0.138675, 0.0470455, 0.136712, 0.0557519, 0.108741, 0.235303, 0.0241319, 0.285705, -0.0266018, 0.102216, 0.230557, 0.0643196, 0.0591175, -0.00158335, -0.039828, 0.0679866, -0.194284, 0.221736, 0.0591807, -0.368032, -0.152381, 0.0119032, 0.00408804, -0.121964, 0.0751671, -0.053522],
    [-0.0723885, -0.333949, 0.267964, -0.0738169, -0.0269075, 0.235454, 0.0116324, -0.0456327, -0.00430569, 0.165887, -0.0730227, -0.0970203, 0.103636, -0.0733443, 0.157573, -0.223961, 0.0405033, 0.0193636, -0.135112, -0.14235, 0.190952, 0.246127, -0.187899, -0.231897, -0.020133, -0.247905, -0.114095, -0.11118, -0.116282, 0.0653095, 0.302655, -0.00063767],
    [0.460088, -0.301048, -0.0712063, 0.00525074, -0.110094, 0.017653, -0.141153, -0.195045, -0.423576, 0.00650111, -0.250471, -0.0473152, -0.509235, 0.181245, 0.394684, 0.0119113, -0.064669, 0.0322455, 0.212835, 0.173153, -0.116257, -0.00518483, -0.157511, -0.0796801, 0.109252, 0.0970698, 0.0678724, 0.0106399, 0.220752, -0.273191, 0.142203, -0.0528023],
    [-0.0311841, 0.0915749, -0.0107581, 0.120931, 0.312483, 0.161645, -0.37632, -0.070951, 0.223593, 0.273901, 0.482584, -0.0546229, 0.0175471, 0.135609, 0.0727616, -0.0654223, 0.105234, -0.211254, 0.0669673, 0.00148675, -0.116503, 0.054501, -0.166836, 0.02005, -0.00465914, 0.0531526, -0.0101658, 0.198599, 0.0293478, 0.00924779, -0.0464426, 0.349028],
    [0.275677, -0.1013, 0.223723, 0.250779, -0.180234, 0.0159863, -0.143528, -0.0996414, 0.110206, 0.2075, -0.118135, -0.0444066, -0.0501995, -0.0525923, -0.0988595, 0.0727933, -0.284011, -0.364611, -0.0126738, -0.226669, 0.239468, 0.185768, 0.0178895, -0.0811632, 0.0227699, -0.191279, 0.180387, -0.255041, 0.073131, 0.121089, 0.313028, -0.136898],
    [0.322114, -0.0782003, -0.148048, 0.219354, 0.0957378, 0.407988, -0.204324, 0.0890201, 0.0654711, -0.122425, -0.0575387, 0.38528, 0.0307188, -0.167943, -0.132406, 0.21968, 0.384763, 0.140154, -0.110096, -0.134488, -0.208545, 0.150736, 0.236678, 0.107438, 0.234825, 0.219188, 0.253678, -0.158604, -0.268599, -0.0219494, 0.081083, 0.0516675],
    [0.451832, 0.020446, -0.0604302, 0.0789334, -0.240157, -0.149786, 0.0725171, 0.0823274, 0.289837, 0.0825598, -0.0494663, -0.163103, 0.454444, 0.0927963, 0.177481, 0.0177228, -0.124789, 0.19714, -0.0472049, 0.109083, 0.274282, 0.099744, 0.154843, 0.00445793, 0.0834889, -0.397191, -0.0472524, 0.111338, -0.0734512, -0.223005, 0.0139195, 0.0608576],
    [-0.0657975, -0.458978, 0.277435, -0.022463, 0.115473, 0.117463, -0.279952, 0.163004, -0.0660235, 0.18825, 0.0740136, -0.318523, 0.160863, 0.10118, 0.136942, -0.0426383, 0.10862, 0.025946, 0.0286129, -0.050278, -0.241709, -0.31545, -0.154596, 0.0550085, -0.273341, -0.245909, -0.390342, -0.0563479, -0.214702, 0.369534, -0.0655257, 0.234498],
    [-0.241298, 0.0962043, -0.229255, -0.0587438, 0.106941, 0.199081, -0.323769, 0.159303, 0.392232, 0.0328408, 0.00683412, 0.294374, 0.254093, 0.241464, -0.0632558, 0.0693646, 0.284967, 0.0931125, 0.0138113, 0.0436352, 0.165064, -0.193821, 0.172834, 0.10489, 0.527194, 0.169147, -0.0175228, -0.393788, 0.235217, -0.15197, 0.0388003, 0.368702],
    [0.154564, 0.116278, 0.347123, -0.293091, 0.101846, 0.173093, 0.00984586, 0.297089, 0.314795, -0.40517, -0.244716, -0.147994, -0.103521, 0.0915406, 0.0449717, 0.0018958, 0.0841942, -0.295376, 0.0826234, 0.173562, 0.0654952, 0.177905, 0.0426349, -0.106201, -0.110642, -0.306299, -0.0414291, -0.0481123, -9.94195e-05, -0.0361724, 0.130357, 0.486292],
    [0.132136, -0.0788935, 0.0903862, -0.237224, 0.269052, -0.158789, 0.17838, -0.121044, 0.200804, 0.0508507, 0.00993725, -0.175344, 0.173225, -0.111999, 0.500601, -0.0438563, 0.576205, -0.0639349, 0.00496938, 0.035239, 0.0444392, 0.138564, -0.0528652, 0.0188648, -0.218627, 0.0454739, 0.107597, 0.0949015, 0.112593, -0.248942, 0.0207545, -0.162398],
    [0.215611, 0.261915, 0.0890714, 0.319272, 0.152265, -0.081301, 0.189894, 0.230458, -0.414645, -0.054917, -0.0195967, -0.0209546, 0.0718403, -0.122384, 0.19527, -0.289946, -0.0327307, 0.269085, 0.174186, 0.14065, 0.113269, 0.315833, 0.0100477, 0.15159, -0.0911897, -0.0190972, -0.0109653, -0.0685247, -0.185642, -0.0616363, 0.315937, 0.0209546],
    [-0.22546, 0.302877, 0.0720146, -0.0576169, -0.141346, -0.000420721, 0.36021, -0.0367981, -0.106381, -0.041405, -0.0746365, 0.0158191, -0.0559229, 0.114625, -0.0780626, -0.0273466, -0.023119, -0.195498, -0.0239305, 0.193452, -0.0499488, -0.00317253, -0.0562581, 0.134067, -0.171917, -0.116915, 0.0355922, 0.180569, -0.208517, 0.175215, -0.0465768, 0.0194712],
    [0.294742, 0.0793852, 0.307729, 0.297565, -0.139302, 0.347307, 0.185071, 0.0744913, -0.258711, -0.0783404, 0.0590511, -0.220601, -0.22946, -0.130041, 0.0214358, -0.193182, 0.0918188, -0.0320233, -0.204603, -0.215179, 0.0207534, 0.107637, -0.0472448, 0.0639692, -0.25877, -0.153973, -0.054312, -0.0990428, 0.114154, 0.116849, 0.139004, -0.0997347]
  ],
  "bias": [
    0.0382356, 0.0580526, 0.0686357, 0.0598379, 0.029979, 0.0245655, -0.0430558, 0.0437867, 0.0241276, -0.0253798, 0.011767, 0.011578, 0.0237511, 0.040633, 0.0533106, 0.00597177, 0.0255845, -0.0223959, 0.0277998, 0.0505046, 0.0692002, 0.0671625, 0.0480349, -0.0447802, -0.026039, -0.0252121, -0.0287422, -0.03183, -0.0121689, -0.0164127, 0.0329177, -0.00559149
  ]
}
